{"learner":{"gradient_booster":{"model":{"gbtree_model_param":{"num_trees":"1","size_leaf_vector":"0"},"trees":[{"learner":{"attributes":{"scikit_learn":"{\"_estimator_type\": \"regressor\"}"},"feature_names":[],"feature_types":[],"gradient_booster":{"model":{"gbtree_model_param":{"num_parallel_tree":"1","num_trees":"25"},"iteration_indptr":[0,1,2,3,4,5,6,7,8,9,10,11,12,13,14,15,16,17,18,19,20,21,22,23,24,25],"tree_info":[0,0,0,0,0,0,0,0,0,0,0,0,0,0,0,0,0,0,0,0,0,0,0,0,0],"trees":[{"base_weights":[-1.29375E0,1.18354164E2,-1.17201614E2,1.2884615E1,1.8767361E2,-1.294E1,-5.617857E0,-1.1666667E1,5.55E1,1.3596153E2,2.6760416E1,-2.0390625E1,2.65625E0,6.734375E0,1.5625E-1,6.05E1,1.6222223E1,1.40625E0,-2.8035715E1,7.359375E0,1.5625E-1,-1.25E1,-4.291667E0,-4.34375E0,4.84375E0,1.2083334E0,-5.9375E-1],"categories":[],"categories_nodes":[],"categories_segments":[],"categories_sizes":[],"default_left":[0,0,0,0,0,0,0,0,0,0,0,0,0,0,0,0,0,0,0,0,0,0,0,0,0,0,0],"id":0,"left_children":[1,3,5,7,9,-1,-1,11,13,15,-1,17,-1,-1,-1,19,-1,-1,21,-1,-1,23,-1,-1,25,-1,-1],"loss_changes":[8.459536E5,2.1591184E5,1.48784375E4,1.4468077E4,3.5999062E4,0E0,0E0,3.5123535E3,2.7443555E3,1.4833672E4,0E0,2.571296E3,0E0,0E0,0E0,3.367793E3,0E0,0E0,8.047622E2,0E0,0E0,3.0862305E3,0E0,0E0,4.14681E2,0E0,0E0],"parents":[2147483647,0,0,1,1,2,2,3,3,4,4,7,7,8,8,9,9,11,11,15,15,18,18,21,21,24,24],"right_children":[2,4,6,8,10,-1,-1,12,14,16,-1,18,-1,-1,-1,20,-1,-1,22,-1,-1,24,-1,-1,26,-1,-1],"split_conditions":[3.6E-1,3E-1,1E0,1E0,1E0,-1.294E1,-5.617857E0,1.1E1,2.1E1,5.6E1,2.6760416E1,3E0,2.65625E0,6.734375E0,1.5625E-1,3.5E-1,1.6222223E1,1.40625E0,2.2E1,7.359375E0,1.5625E-1,5.1E1,-4.291667E0,-4.34375E0,9E0,1.2083334E0,-5.9375E-1],"split_indices":[1,1,4,7,4,0,0,22,21,2,0,22,0,0,0,1,0,0,21,0,0,2,0,0,22,0,0],"split_type":[0,0,0,0,0,0,0,0,0,0,0,0,0,0,0,0,0,0,0,0,0,0,0,0,0,0,0],"sum_hessian":[5.9E1,2.9E1,3E1,1.2E1,1.7E1,2.4E1,6E0,8E0,4E0,1.2E1,5E0,7E0,1E0,3E0,1E0,4E0,8E0,1E0,6E0,3E0,1E0,4E0,2E0,1E0,3E0,2E0,1E0],"tree_param":{"num_deleted":"0","num_feature":"24","num_nodes":"27","size_leaf_vector":"1"}},{"base_weights":[3.9619608E0,9.629351E1,-1.0542957E2,6.3079877E0,1.6565402E2,-1.1563348E1,-3.6405714E0,-1.4320074E1,5.1428123E1,1.1654875E2,2.2545534E1,-2.1298956E1,2.5234375E0,6.229297E0,1.484375E-1,4.1053123E1,1.48539915E1,-4.19375E0,-1.0272133E1,4.932422E0,1.484375E-1,1.6388023E1,-3.0545832E1,1.9545141E0,9.583359E-2,-9.1875E-1,-4.0055556E0],"categories":[],"categories_nodes":[],"categories_segments":[],"categories_sizes":[],"default_left":[0,0,0,0,0,0,0,0,0,0,0,0,0,0,0,0,0,0,0,0,0,0,0,0,0,0,0],"id":1,"left_children":[1,3,5,7,9,-1,-1,11,13,15,-1,17,-1,-1,-1,19,-1,-1,21,-1,-1,23,25,-1,-1,-1,-1],"loss_changes":[5.959233E5,1.9782144E5,1.4046531E4,1.488311E4,2.48715E4,0E0,0E0,3.5542932E3,2.3018018E3,2.1936328E4,0E0,1.58394E3,0E0,0E0,0E0,1.309127E3,0E0,0E0,4.895375E3,0E0,0E0,7.36051E1,4.01333E2,0E0,0E0,0E0,0E0],"parents":[2147483647,0,0,1,1,2,2,3,3,4,4,7,7,8,8,9,9,11,11,15,15,18,18,21,21,22,22],"right_children":[2,4,6,8,10,-1,-1,12,14,16,-1,18,-1,-1,-1,20,-1,-1,22,-1,-1,24,26,-1,-1,-1,-1],"split_conditions":[3.6E-1,3E-1,1E0,1E0,1E0,-1.1563348E1,-3.6405714E0,1.1E1,2.1E1,5.6E1,2.2545534E1,5.1E1,2.5234375E0,6.229297E0,1.484375E-1,3.5E-1,1.48539915E1,-4.19375E0,9E0,4.932422E0,1.484375E-1,6E0,2.1E1,1.9545141E0,9.583359E-2,-9.1875E-1,-4.0055556E0],"split_indices":[1,1,4,7,4,0,0,22,21,2,0,2,0,0,0,1,0,0,22,0,0,22,21,0,0,0,0],"split_type":[0,0,0,0,0,0,0,0,0,0,0,0,0,0,0,0,0,0,0,0,0,0,0,0,0,0,0],"sum_hessian":[5.7E1,3.1E1,2.6E1,1.4E1,1.7E1,2.2E1,4E0,1E1,4E0,1.1E1,6E0,9E0,1E0,3E0,1E0,4E0,7E0,2E0,7E0,3E0,1E0,3E0,4E0,2E0,1E0,2E0,2E0],"tree_param":{"num_deleted":"0","num_feature":"24","num_nodes":"27","size_leaf_vector":"1"}},{"base_weights":[-1.731091E1,6.910328E1,-9.2538605E1,5.7134967E0,1.2332686E2,-1.0403678E1,-4.4414506E0,-1.3255728E1,5.770049E1,5.1858856E1,1.5337499E1,-1.9875832E1,2.3972657E0,1.4101563E-1,7.4327216E0,6.0666566E0,1.4101563E-1,-3.9141662E0,-9.541666E0,1.53868065E1,-2.857611E1,1.8242133E0,9.1041565E-2,-8.575002E-1,-3.7385182E0],"categories":[],"categories_nodes":[],"categories_segments":[],"categories_sizes":[],"default_left":[0,0,0,0,0,0,0,0,0,0,0,0,0,0,0,0,0,0,0,0,0,0,0,0,0],"id":2,"left_children":[1,3,5,7,9,-1,-1,11,13,15,-1,17,-1,-1,-1,-1,-1,-1,19,21,23,-1,-1,-1,-1],"loss_changes":[3.9005562E5,9.489236E4,1.2343844E4,1.4793227E4,2.3232172E4,0E0,0E0,3.1670059E3,3.2601943E3,2.2700908E3,0E0,1.3740698E3,0E0,0E0,0E0,0E0,0E0,0E0,4.3016387E3,5.2968567E1,3.3057666E2,0E0,0E0,0E0,0E0],"parents":[2147483647,0,0,1,1,2,2,3,3,4,4,7,7,8,8,9,9,11,11,18,18,19,19,20,20],"right_children":[2,4,6,8,10,-1,-1,12,14,16,-1,18,-1,-1,-1,-1,-1,-1,20,22,24,-1,-1,-1,-1],"split_conditions":[3.6E-1,3E-1,1E0,1E0,5.6E1,-1.0403678E1,-4.4414506E0,1.1E1,4.7E1,3.5E-1,1.5337499E1,5.1E1,2.3972657E0,1.4101563E-1,7.4327216E0,6.0666566E0,1.4101563E-1,-3.9141662E0,9E0,6E0,2.1E1,1.8242133E0,9.1041565E-2,-8.575002E-1,-3.7385182E0],"split_indices":[1,1,4,7,2,0,0,22,2,1,0,2,0,0,0,0,0,0,22,22,21,0,0,0,0],"split_type":[0,0,0,0,0,0,0,0,0,0,0,0,0,0,0,0,0,0,0,0,0,0,0,0,0],"sum_hessian":[5.8E1,2.7E1,3.1E1,1.3E1,1.4E1,2.4E1,7E0,1E1,3E0,5E0,9E0,9E0,1E0,1E0,2E0,4E0,1E0,2E0,7E0,3E0,4E0,2E0,1E0,2E0,2E0],"tree_param":{"num_deleted":"0","num_feature":"24","num_nodes":"25","size_leaf_vector":"1"}},{"base_weights":[4.313818E0,9.158589E1,-8.566406E1,5.781675E1,2.0804031E1,-9.554613E0,-3.6007252E0,1.291825E1,9.2541E1,-1.4427819E1,3.913314E1,4.2060688E1,1.2096558E1,-2.5257132E0,2.2774026E0,5.392407E1,-2.2306206E0,5.5813246E0,3.4528607E-1,1.5899867E1,6.7711196E0,2.0010154E0,1.3396454E-1],"categories":[],"categories_nodes":[],"categories_segments":[],"categories_sizes":[],"default_left":[0,0,0,0,0,0,0,0,0,0,0,0,0,0,0,0,0,0,0,0,0,0,0],"id":3,"left_children":[1,3,5,7,-1,-1,-1,9,11,13,15,17,-1,-1,-1,19,-1,-1,-1,21,-1,-1,-1],"loss_changes":[5.1043884E5,1.1641719E5,1.1604641E4,4.037204E4,0E0,0E0,0E0,1.0007498E4,1.5620203E4,3.4077148E3,7.7221436E3,3.2276475E3,0E0,0E0,0E0,1.6508145E3,0E0,0E0,0E0,4.598456E1,0E0,0E0,0E0],"parents":[2147483647,0,0,1,1,2,2,3,3,7,7,8,8,9,9,10,10,11,11,15,15,19,19],"right_children":[2,4,6,8,-1,-1,-1,10,12,14,16,18,-1,-1,-1,20,-1,-1,-1,22,-1,-1,-1],"split_conditions":[3.6E-1,1E0,1E0,3E-1,2.0804031E1,-9.554613E0,-3.6007252E0,1E0,5.6E1,1.1E1,5.6E1,3.5E-1,1.2096558E1,-2.5257132E0,2.2774026E0,4.7E1,-2.2306206E0,5.5813246E0,3.4528607E-1,2.1E1,6.7711196E0,2.0010154E0,1.3396454E-1],"split_indices":[1,4,4,1,0,0,0,7,2,22,2,1,0,0,0,2,0,0,0,21,0,0,0],"split_type":[0,0,0,0,0,0,0,0,0,0,0,0,0,0,0,0,0,0,0,0,0,0,0],"sum_hessian":[6.3E1,3.2E1,3.1E1,2.6E1,6E0,2.5E1,6E0,1.2E1,1.4E1,6E0,6E0,6E0,8E0,5E0,1E0,5E0,1E0,4E0,2E0,2E0,3E0,1E0,1E0],"tree_param":{"num_deleted":"0","num_feature":"24","num_nodes":"23","size_leaf_vector":"1"}},{"base_weights":[3.9035964E-1,6.847873E1,-7.7260284E1,-0E0,1.21583534E2,-8.572701E0,-4.4752603E0,-1.4494108E1,2.462613E1,8.7271286E1,1.7482948E1,-2.146797E1,2.1635323E0,3.9027714E1,-2.1190896E0,2.703728E1,1.2091288E1,-9.322841E0,-3.3068674E0,1.5188202E1,4.819132E0,3.6888921E0,3.2226667E-1,-3.5948808E0,2.1921144E0,1.9009644E0,1.2726593E-1,1.163972E0,-6.3195294E-1],"categories":[],"categories_nodes":[],"categories_segments":[],"categories_sizes":[],"default_left":[0,0,0,0,0,0,0,0,0,0,0,0,0,0,0,0,0,0,0,0,0,0,0,0,0,0,0,0,0],"id":4,"left_children":[1,3,5,7,9,-1,-1,11,13,15,-1,17,-1,19,-1,21,-1,23,-1,25,-1,-1,-1,-1,27,-1,-1,-1,-1],"loss_changes":[3.17186E5,1.1602725E5,3.2176406E3,5.739469E3,1.63176875E4,0E0,0E0,2.9832463E3,4.875242E3,2.2333883E4,0E0,7.4777686E2,0E0,4.3442383E1,0E0,1.0882393E3,0E0,2.087168E3,0E0,3.392798E1,0E0,0E0,0E0,0E0,5.0223172E2,0E0,0E0,0E0,0E0],"parents":[2147483647,0,0,1,1,2,2,3,3,4,4,7,7,8,8,9,9,11,11,13,13,15,15,17,17,19,19,24,24],"right_children":[2,4,6,8,10,-1,-1,12,14,16,-1,18,-1,20,-1,22,-1,24,-1,26,-1,-1,-1,-1,28,-1,-1,-1,-1],"split_conditions":[3.6E-1,3E-1,1E0,1E0,1E0,-8.572701E0,-4.4752603E0,1.1E1,5.6E1,5.6E1,1.7482948E1,2.2E1,2.1635323E0,4.7E1,-2.1190896E0,3.5E-1,1.2091288E1,5.1E1,-3.3068674E0,2.1E1,4.819132E0,3.6888921E0,3.2226667E-1,-3.5948808E0,9E0,1.9009644E0,1.2726593E-1,1.163972E0,-6.3195294E-1],"split_indices":[1,1,4,7,4,0,0,22,2,2,0,21,0,2,0,1,0,2,0,21,0,0,0,0,22,0,0,0,0],"split_type":[0,0,0,0,0,0,0,0,0,0,0,0,0,0,0,0,0,0,0,0,0,0,0,0,0,0,0,0,0],"sum_hessian":[5.8E1,3.1E1,2.7E1,1.4E1,1.7E1,2E1,7E0,9E0,5E0,1.2E1,5E0,8E0,1E0,4E0,1E0,5E0,7E0,5E0,3E0,2E0,2E0,3E0,2E0,1E0,4E0,1E0,1E0,2E0,2E0],"tree_param":{"num_deleted":"0","num_feature":"24","num_nodes":"29","size_leaf_vector":"1"}},{"base_weights":[8.946099E-1,6.528312E1,-6.5572624E1,2.4647152E1,1.7332613E1,-7.413396E0,-3.7754788E0,3.8910126E1,-2.14163E1,5.748988E1,-6.9976907E0,-3.2547824E0,-6.463581E0,1.4512126E1,6.3530188E0,1.0570805E1,-2.9756455E0,1.224984E0,-1.8451334E0,1.8059158E0,1.20903015E-1,-3.173668E-1,1.7876853E0],"categories":[],"categories_nodes":[],"categories_segments":[],"categories_sizes":[],"default_left":[0,0,0,0,0,0,0,0,0,0,0,0,0,0,0,0,0,0,0,0,0,0,0],"id":5,"left_children":[1,3,5,7,-1,-1,-1,9,11,13,15,-1,17,19,-1,21,-1,-1,-1,-1,-1,-1,-1],"loss_changes":[2.5250345E5,1.2645112E5,3.5482031E3,1.6031823E4,0E0,0E0,0E0,1.6007963E4,5.932471E2,2.0626133E3,2.809501E3,0E0,1.1543608E3,2.3384583E1,0E0,5.319221E2,0E0,0E0,0E0,0E0,0E0,0E0,0E0],"parents":[2147483647,0,0,1,1,2,2,3,3,7,7,8,8,9,9,10,10,12,12,13,13,15,15],"right_children":[2,4,6,8,-1,-1,-1,10,12,14,16,-1,18,20,-1,22,-1,-1,-1,-1,-1,-1,-1],"split_conditions":[3.6E-1,3.5E-1,1E0,1E0,1.7332613E1,-7.413396E0,-3.7754788E0,9E0,5.1E1,4.7E1,2.2E1,-3.2547824E0,6E0,2.1E1,6.3530188E0,6.7E1,-2.9756455E0,1.224984E0,-1.8451334E0,1.8059158E0,1.20903015E-1,-3.173668E-1,1.7876853E0],"split_indices":[1,1,4,6,0,0,0,22,2,2,21,0,22,21,0,2,0,0,0,0,0,0,0],"split_type":[0,0,0,0,0,0,0,0,0,0,0,0,0,0,0,0,0,0,0,0,0,0,0],"sum_hessian":[5.7E1,2.9E1,2.8E1,2.2E1,7E0,2E1,8E0,1.7E1,5E0,1.2E1,5E0,2E0,3E0,2E0,1E1,3E0,2E0,1E0,2E0,1E0,1E0,1E0,2E0],"tree_param":{"num_deleted":"0","num_feature":"24","num_nodes":"23","size_leaf_vector":"1"}},{"base_weights":[-2.036217E0,5.7554142E1,-6.1728775E1,3.4348644E1,1.3995044E1,-7.026406E1,-3.4398804E1,8.270162E0,5.539427E1,-7.351004E0,-2.4618175E0,-6.661827E-1,-3.6408195E0,1.5577264E1,-8.988358E0,2.7990221E1,7.417057E0,2.2933918E1,4.1051574E0,-0E0,-1.8643525E0,4.331466E1,-5.213918E-1,2.684311E0,1.1485749E-1,-3.44841E0,1.9659714E0,-1.0542984E0,1.1209793E0,9.571663E-1,4.8107495E0,-5.177389E-1,-0E0],"categories":[],"categories_nodes":[],"categories_segments":[],"categories_sizes":[],"default_left":[0,0,0,0,0,0,0,0,0,0,0,0,0,0,0,0,0,0,0,0,0,0,0,0,0,0,0,0,0,0,0,0,0],"id":6,"left_children":[1,3,5,7,-1,9,11,13,15,-1,-1,-1,-1,17,19,21,-1,23,25,27,-1,29,-1,-1,-1,31,-1,-1,-1,-1,-1,-1,-1],"loss_changes":[2.0632839E5,4.9770758E4,3.8244844E3,1.239567E4,0E0,8.1114844E2,4.371582E1,1.6862759E3,4.10225E3,0E0,0E0,0E0,0E0,5.302239E2,3.719997E2,3.978186E3,0E0,2.5502563E2,7.363132E2,4.7362793E2,0E0,5.975879E1,0E0,0E0,0E0,3.2849926E1,0E0,0E0,0E0,0E0,0E0,0E0,0E0],"parents":[2147483647,0,0,1,1,2,2,3,3,5,5,6,6,7,7,8,8,13,13,14,14,15,15,17,17,18,18,19,19,21,21,25,25],"right_children":[2,4,6,8,-1,10,12,14,16,-1,-1,-1,-1,18,20,22,-1,24,26,28,-1,30,-1,-1,-1,32,-1,-1,-1,-1,-1,-1,-1],"split_conditions":[3.6E-1,1E0,1E0,3E-1,1.3995044E1,6.5E1,5.2E1,2.2E1,5.6E1,-7.351004E0,-2.4618175E0,-6.661827E-1,-3.6408195E0,6E0,1E0,3.5E-1,7.417057E0,2.1E1,6.7E1,5.1E1,-1.8643525E0,2.1E1,-5.213918E-1,2.684311E0,1.1485749E-1,2.1E1,1.9659714E0,-1.0542984E0,1.1209793E0,9.571663E-1,4.8107495E0,-5.177389E-1,-0E0],"split_indices":[1,4,4,1,0,2,2,21,2,0,0,0,0,22,7,1,0,21,2,2,0,21,0,0,0,21,0,0,0,0,0,0,0],"split_type":[0,0,0,0,0,0,0,0,0,0,0,0,0,0,0,0,0,0,0,0,0,0,0,0,0,0,0,0,0,0,0,0,0],"sum_hessian":[5.6E1,2.8E1,2.8E1,2.3E1,5E0,2E1,8E0,1.1E1,1.2E1,1.8E1,2E0,1E0,7E0,8E0,3E0,6E0,6E0,4E0,4E0,2E0,1E0,4E0,2E0,3E0,1E0,3E0,1E0,1E0,1E0,1E0,3E0,2E0,1E0],"tree_param":{"num_deleted":"0","num_feature":"24","num_nodes":"33","size_leaf_vector":"1"}},{"base_weights":[-4.620283E0,6.0092697E1,-5.6403324E1,-5.2736773E0,1.075168E2,-6.3493276E0,-2.8344307E0,7.748596E0,-3.1249807E0,7.445712E1,1.511328E1,2.4652975E0,-1.4069023E1,3.3639652E1,9.522883E0,1.0649308E0,-2.7524903E0,4.4499435E0,-2.3997422E-1],"categories":[],"categories_nodes":[],"categories_segments":[],"categories_sizes":[],"default_left":[0,0,0,0,0,0,0,0,0,0,0,0,0,0,0,0,0,0,0],"id":7,"left_children":[1,3,5,7,9,-1,-1,11,-1,13,-1,-1,15,17,-1,-1,-1,-1,-1],"loss_changes":[1.8097584E5,7.547682E4,3.70925E3,4.0805989E3,7.806172E3,0E0,0E0,3.3502688E3,0E0,4.630672E3,0E0,0E0,1.7079264E3,2.2741855E3,0E0,0E0,0E0,0E0,0E0],"parents":[2147483647,0,0,1,1,2,2,3,3,4,4,7,7,9,9,12,12,13,13],"right_children":[2,4,6,8,10,-1,-1,12,-1,14,-1,-1,16,18,-1,-1,-1,-1,-1],"split_conditions":[3.6E-1,3E-1,1E0,1E0,1E0,-6.3493276E0,-2.8344307E0,2.2E1,-3.1249807E0,5.6E1,1.511328E1,2.4652975E0,3E0,3.5E-1,9.522883E0,1.0649308E0,-2.7524903E0,4.4499435E0,-2.3997422E-1],"split_indices":[1,1,4,6,4,0,0,21,0,2,0,0,22,1,0,0,0,0,0],"split_type":[0,0,0,0,0,0,0,0,0,0,0,0,0,0,0,0,0,0,0],"sum_hessian":[5.2E1,2.3E1,2.9E1,1E1,1.3E1,2.2E1,7E0,7E0,3E0,9E0,4E0,4E0,3E0,4E0,5E0,1E0,2E0,3E0,1E0],"tree_param":{"num_deleted":"0","num_feature":"24","num_nodes":"19","size_leaf_vector":"1"}},{"base_weights":[-0E0,5.426115E1,-5.2429043E1,1.514052E0,8.44561E1,-5.889112E1,-2.5864183E1,2.3461838E1,-2.3510706E1,6.1464638E1,1.2319349E1,-6.011565E0,-1.2863464E0,-8.629963E0,-3.3478723E0,-4.0632324E0,3.628451E0,-4.61233E-1,-3.0556812E0,2.346644E1,8.640498E0,-1.055715E0,-0E0,-0E0,-8.4533465E-1,3.667682E1,-4.7063395E-1,6.868103E-1,4.116197E0],"categories":[],"categories_nodes":[],"categories_segments":[],"categories_sizes":[],"default_left":[0,0,0,0,0,0,0,0,0,0,0,0,0,0,0,0,0,0,0,0,0,0,0,0,0,0,0,0,0],"id":8,"left_children":[1,3,5,7,9,11,13,15,17,19,-1,-1,-1,21,-1,23,-1,-1,-1,25,-1,-1,-1,-1,-1,27,-1,-1,-1],"loss_changes":[1.7354112E5,4.722317E4,3.3746406E3,7.1422163E3,8.426609E3,2.145E2,5.5038135E2,2.779154E3,4.8217603E2,1.069066E4,0E0,0E0,0E0,3.645517E1,0E0,9.338855E1,0E0,0E0,0E0,2.9376775E3,0E0,0E0,0E0,0E0,0E0,1.4562842E2,0E0,0E0,0E0],"parents":[2147483647,0,0,1,1,2,2,3,3,4,4,5,5,6,6,7,7,8,8,9,9,13,13,15,15,19,19,25,25],"right_children":[2,4,6,8,10,12,14,16,18,20,-1,-1,-1,22,-1,24,-1,-1,-1,26,-1,-1,-1,-1,-1,28,-1,-1,-1],"split_conditions":[3.6E-1,3E-1,1E0,8E0,1E0,1.2E1,4.8E-1,5.1E1,2.1E1,5.6E1,1.2319349E1,-6.011565E0,-1.2863464E0,6E1,-3.3478723E0,4.7E1,3.628451E0,-4.61233E-1,-3.0556812E0,3.5E-1,8.640498E0,-1.055715E0,-0E0,-0E0,-8.4533465E-1,2.1E1,-4.7063395E-1,6.868103E-1,4.116197E0],"split_indices":[1,1,4,22,4,22,1,2,21,2,0,0,0,2,0,2,0,0,0,1,0,0,0,0,0,21,0,0,0],"split_type":[0,0,0,0,0,0,0,0,0,0,0,0,0,0,0,0,0,0,0,0,0,0,0,0,0,0,0,0,0],"sum_hessian":[5.9E1,2.9E1,3E1,1.1E1,1.8E1,2.3E1,7E0,6E0,5E0,1.3E1,5E0,2.2E1,1E0,3E0,4E0,2E0,4E0,2E0,3E0,6E0,7E0,2E0,1E0,1E0,1E0,4E0,2E0,1E0,3E0],"tree_param":{"num_deleted":"0","num_feature":"24","num_nodes":"29","size_leaf_vector":"1"}},{"base_weights":[6.0811744E0,5.323523E1,-4.809871E1,2.7243883E1,1.3774215E1,-5.829921E0,-3.4105446E1,3.9666676E1,-1.7872744E1,-3.5836284E0,-3.302269E-1,2.1265593E1,5.2334328E1,-2.8274436E0,-4.3532906E0,2.8854213E0,-4.392588E-1,7.043468E0,1.5526972E1,1.0043458E0,-1.4166692E1,-1.404361E0,4.1588564E0,-1.9911958E-2,-1.8550919E0],"categories":[],"categories_nodes":[],"categories_segments":[],"categories_sizes":[],"default_left":[0,0,0,0,0,0,0,0,0,0,0,0,0,0,0,0,0,0,0,0,0,0,0,0,0],"id":9,"left_children":[1,3,5,7,-1,-1,9,11,13,-1,-1,15,17,-1,19,-1,-1,-1,21,-1,23,-1,-1,-1,-1],"loss_changes":[1.4820989E5,6.3512336E4,1.4035859E3,1.4829787E4,0E0,0E0,4.3238086E2,3.1810508E3,5.575254E2,0E0,0E0,2.1961543E3,5.805041E3,0E0,7.28023E2,0E0,0E0,0E0,4.5750605E3,0E0,8.626691E1,0E0,0E0,0E0,0E0],"parents":[2147483647,0,0,1,1,2,2,3,3,6,6,7,7,8,8,11,11,12,12,14,14,18,18,20,20],"right_children":[2,4,6,8,-1,-1,10,12,14,-1,-1,16,18,-1,20,-1,-1,-1,22,-1,24,-1,-1,-1,-1],"split_conditions":[3.6E-1,1E0,4.2E-1,1E0,1.3774215E1,-5.829921E0,6.5E1,5E0,5.1E1,-3.5836284E0,-3.302269E-1,3.5E-1,9E0,-2.8274436E0,6E0,2.8854213E0,-4.392588E-1,7.043468E0,3E-1,1.0043458E0,5.6E1,-1.404361E0,4.1588564E0,-1.9911958E-2,-1.8550919E0],"split_indices":[1,4,1,6,0,0,2,22,2,0,0,1,22,0,22,0,0,0,1,0,2,0,0,0,0],"split_type":[0,0,0,0,0,0,0,0,0,0,0,0,0,0,0,0,0,0,0,0,0,0,0,0,0],"sum_hessian":[5.6E1,3E1,2.6E1,2.4E1,6E0,1.3E1,1.3E1,1.9E1,5E0,1.2E1,1E0,9E0,1E1,2E0,3E0,7E0,2E0,6E0,4E0,1E0,2E0,2E0,2E0,1E0,1E0],"tree_param":{"num_deleted":"0","num_feature":"24","num_nodes":"25","size_leaf_vector":"1"}},{"base_weights":[1.2454534E0,4.7076927E1,-4.5988586E1,2.146562E1,1.1740123E1,-5.0540442E0,-2.3098143E1,3.3913567E1,-2.4935794E0,-9.274643E0,-2.9897106E0,2.0696646E1,5.1659E0,-2.0555744E1,3.8816E0,-0E0,-1.2611268E0,2.721804E1,-4.099752E-1,-1.8916322E-2,-2.3085315E0,9.369649E0,3.0264773E0,1.3138688E0,-0E0],"categories":[],"categories_nodes":[],"categories_segments":[],"categories_sizes":[],"default_left":[0,0,0,0,0,0,0,0,0,0,0,0,0,0,0,0,0,0,0,0,0,0,0,0,0],"id":10,"left_children":[1,3,5,7,-1,-1,9,11,13,15,-1,17,-1,19,-1,-1,-1,21,-1,-1,-1,23,-1,-1,-1],"loss_changes":[1.3205878E5,5.26196E4,1.5902305E3,7.399495E3,0E0,0E0,1.847544E2,2.3216934E3,7.421854E3,1.3305615E2,0E0,2.005956E3,0E0,2.3989185E2,0E0,0E0,0E0,7.6713867E0,0E0,0E0,0E0,8.187924E1,0E0,0E0,0E0],"parents":[2147483647,0,0,1,1,2,2,3,3,6,6,7,7,8,8,9,9,11,11,13,13,17,17,21,21],"right_children":[2,4,6,8,-1,-1,10,12,14,16,-1,18,-1,20,-1,-1,-1,22,-1,-1,-1,24,-1,-1,-1],"split_conditions":[3.6E-1,1E0,1E0,9E0,1.1740123E1,-5.0540442E0,2.1E1,6E0,1.1E1,4.7E-1,-2.9897106E0,3.5E-1,5.1659E0,5.6E1,3.8816E0,-0E0,-1.2611268E0,4.7E1,-4.099752E-1,-1.8916322E-2,-2.3085315E0,2.1E1,3.0264773E0,1.3138688E0,-0E0],"split_indices":[1,4,4,22,0,0,21,22,22,1,0,1,0,2,0,0,0,2,0,0,0,21,0,0,0],"split_type":[0,0,0,0,0,0,0,0,0,0,0,0,0,0,0,0,0,0,0,0,0,0,0,0,0],"sum_hessian":[5.9E1,3E1,2.9E1,2.3E1,7E0,2.3E1,6E0,1.5E1,8E0,3E0,3E0,1E1,5E0,6E0,2E0,1E0,2E0,8E0,2E0,1E0,5E0,2E0,6E0,1E0,1E0],"tree_param":{"num_deleted":"0","num_feature":"24","num_nodes":"25","size_leaf_vector":"1"}},{"base_weights":[3.2585468E0,4.2192547E1,-3.8213005E1,1.9525297E1,1.0712863E1,-4.2513477E1,-1.3092204E1,2.8195496E0,3.697156E1,-5.1344204E0,-3.155046E1,-1.5857691E1,-0E0,-2.084745E1,1.1623954E1,8.394542E0,5.547021E1,-1.9072138E0,-3.7900186E0,-1.0969925E-1,-1.8023617E0,-0E0,-2.8407125E0,3.5994556E1,-6.7298975E0,1.6711639E0,-3.8264364E-1,7.2825418E0,2.2997452E1,1.0583146E0,4.7741117E0,-1.4595978E1,1.7733291E0,-5.8475035E-1,3.6228273E0,-4.7608185E-1,-2.117753E0],"categories":[],"categories_nodes":[],"categories_segments":[],"categories_sizes":[],"default_left":[0,0,0,0,0,0,0,0,0,0,0,0,0,0,0,0,0,0,0,0,0,0,0,0,0,0,0,0,0,0,0,0,0,0,0,0,0],"id":11,"left_children":[1,3,5,7,-1,9,11,13,15,-1,17,19,-1,21,23,25,27,-1,-1,-1,-1,-1,-1,29,31,-1,-1,-1,33,-1,-1,35,-1,-1,-1,-1,-1],"loss_changes":[1.0012606E5,4.4376535E4,2.4063125E3,6.983125E3,0E0,3.858789E2,2.2889697E2,3.113446E3,5.558664E3,0E0,1.0157617E2,4.4478027E1,0E0,6.8242957E2,5.3088013E3,7.3823047E2,1.7910879E3,0E0,0E0,0E0,0E0,0E0,0E0,6.9561084E2,1.5901539E3,0E0,0E0,0E0,1.8903184E3,0E0,0E0,1.5786975E2,0E0,0E0,0E0,0E0,0E0],"parents":[2147483647,0,0,1,1,2,2,3,3,5,5,6,6,7,7,8,8,10,10,11,11,13,13,14,14,15,15,16,16,23,23,24,24,28,28,31,31],"right_children":[2,4,6,8,-1,10,12,14,16,-1,18,20,-1,22,24,26,28,-1,-1,-1,-1,-1,-1,30,32,-1,-1,-1,34,-1,-1,36,-1,-1,-1,-1,-1],"split_conditions":[3.6E-1,1E0,1E0,3E-1,1.0712863E1,6E0,6E1,5.1E1,5.6E1,-5.1344204E0,9E0,5.2E1,-0E0,4.7E1,8E0,3.5E-1,8E0,-1.9072138E0,-3.7900186E0,-1.0969925E-1,-1.8023617E0,-0E0,-2.8407125E0,1E0,1.1E1,1.6711639E0,-3.8264364E-1,7.2825418E0,1E1,1.0583146E0,4.7741117E0,2.2E1,1.7733291E0,-5.8475035E-1,3.6228273E0,-4.7608185E-1,-2.117753E0],"split_indices":[1,4,4,1,0,22,2,2,2,0,22,2,0,2,22,1,22,0,0,0,0,0,0,7,22,0,0,0,22,0,0,21,0,0,0,0,0],"split_type":[0,0,0,0,0,0,0,0,0,0,0,0,0,0,0,0,0,0,0,0,0,0,0,0,0,0,0,0,0,0,0,0,0,0,0,0,0],"sum_hessian":[6E1,3.1E1,2.9E1,2.4E1,7E0,2.4E1,5E0,1.3E1,1.1E1,1.1E1,1.3E1,4E0,1E0,3E0,1E1,5E0,6E0,6E0,7E0,1E0,3E0,1E0,2E0,4E0,6E0,3E0,2E0,3E0,3E0,2E0,2E0,5E0,1E0,1E0,2E0,3E0,2E0],"tree_param":{"num_deleted":"0","num_feature":"24","num_nodes":"37","size_leaf_vector":"1"}},{"base_weights":[3.4304788E0,4.234893E1,-3.6692776E1,2.2725067E1,9.775489E0,-4.088195E1,-1.8913652E1,3.0359629E1,-1.2885101E1,-5.051896E0,-3.0032734E1,-3.4415092E0,-2.6508636E0,3.3882774E1,1.1309E1,-2.6513317E0,3.3714802E0,-3.665201E0,-1.7463171E1,-4.8337555E-1,-0E0,1.7807348E1,4.5637894E0,-1.329805E0,3.381305E0,7.498886E-1,-0E0,-0E0,-1.9654859E0,2.514002E1,-3.5713398E-1,1.0357525E1,3.2387512E0,1.3199509E0,-0E0],"categories":[],"categories_nodes":[],"categories_segments":[],"categories_sizes":[],"default_left":[0,0,0,0,0,0,0,0,0,0,0,0,0,0,0,0,0,0,0,0,0,0,0,0,0,0,0,0,0,0,0,0,0,0,0],"id":12,"left_children":[1,3,5,7,-1,9,11,13,15,-1,17,19,-1,21,23,-1,25,-1,27,-1,-1,29,-1,-1,-1,-1,-1,-1,-1,31,-1,33,-1,-1,-1],"loss_changes":[9.839734E4,3.1969043E4,1.2366719E3,7.275259E3,0E0,5.893164E2,6.99105E2,8.003418E2,1.3128391E3,0E0,2.5418262E2,2.2719631E1,0E0,2.0825488E3,3.3210137E3,0E0,7.8365944E1,0E0,1.8314429E2,0E0,0E0,1.6084929E3,0E0,0E0,0E0,0E0,0E0,0E0,0E0,2.0077246E2,0E0,9.356781E1,0E0,0E0,0E0],"parents":[2147483647,0,0,1,1,2,2,3,3,5,5,6,6,7,7,8,8,10,10,11,11,13,13,14,14,16,16,18,18,21,21,29,29,31,31],"right_children":[2,4,6,8,-1,10,12,14,16,-1,18,20,-1,22,24,-1,26,-1,28,-1,-1,30,-1,-1,-1,-1,-1,-1,-1,32,-1,34,-1,-1,-1],"split_conditions":[3.6E-1,1E0,1E0,1E0,9.775489E0,6E0,4.8E-1,9E0,5.1E1,-5.051896E0,4.4E-1,6E1,-2.6508636E0,5E0,1.1E1,-2.6513317E0,6E0,-3.665201E0,4.6E-1,-4.8337555E-1,-0E0,3.5E-1,4.5637894E0,-1.329805E0,3.381305E0,7.498886E-1,-0E0,-0E0,-1.9654859E0,3E-1,-3.5713398E-1,4E0,3.2387512E0,1.3199509E0,-0E0],"split_indices":[1,4,4,6,0,22,1,22,2,0,1,2,0,22,22,0,22,0,1,0,0,1,0,0,0,0,0,0,0,1,0,22,0,0,0],"split_type":[0,0,0,0,0,0,0,0,0,0,0,0,0,0,0,0,0,0,0,0,0,0,0,0,0,0,0,0,0,0,0,0,0,0,0],"sum_hessian":[6.1E1,3.1E1,3E1,2.4E1,7E0,2.3E1,7E0,2E1,4E0,1E1,1.3E1,3E0,4E0,1.6E1,4E0,2E0,2E0,7E0,6E0,2E0,1E0,8E0,8E0,2E0,2E0,1E0,1E0,1E0,5E0,6E0,2E0,3E0,3E0,2E0,1E0],"tree_param":{"num_deleted":"0","num_feature":"24","num_nodes":"35","size_leaf_vector":"1"}},{"base_weights":[-4.642922E0,2.9920515E1,-3.4897087E1,-3.0901425E0,5.175624E1,-4.2859106E0,-2.7726922E0,-1.7625843E1,1.9785007E1,1.892339E1,6.00184E1,4.1575393E-1,-2.2045975E0,3.159478E1,-1.1227044E0,2.5529205E1,-1.249939E-1,9.972305E-1,6.294121E1,-0E0,4.151585E0,1.1138E-1,3.162974E0,6.8430824E0,2.1995444E0],"categories":[],"categories_nodes":[],"categories_segments":[],"categories_sizes":[],"default_left":[0,0,0,0,0,0,0,0,0,0,0,0,0,0,0,0,0,0,0,0,0,0,0,0,0],"id":13,"left_children":[1,3,5,7,9,-1,-1,11,13,15,17,-1,-1,19,-1,21,-1,-1,23,-1,-1,-1,-1,-1,-1],"loss_changes":[6.2764605E4,2.0585988E4,2.855703E2,4.3280073E3,3.0811367E3,0E0,0E0,9.5138257E2,2.2877808E3,8.196127E2,9.0934375E2,0E0,0E0,1.1777769E3,0E0,3.968413E2,0E0,0E0,7.400156E2,0E0,0E0,0E0,0E0,0E0,0E0],"parents":[2147483647,0,0,1,1,2,2,3,3,4,4,7,7,8,8,9,9,10,10,13,13,15,15,18,18],"right_children":[2,4,6,8,10,-1,-1,12,14,16,18,-1,-1,20,-1,22,-1,-1,24,-1,-1,-1,-1,-1,-1],"split_conditions":[3.6E-1,3E-1,4.1E-1,1E0,4E0,-4.2859106E0,-2.7726922E0,3E0,5.6E1,3.5E-1,5.1E1,4.1575393E-1,-2.2045975E0,4.7E1,-1.1227044E0,2.1E1,-1.249939E-1,9.972305E-1,2.2E1,-0E0,4.151585E0,1.1138E-1,3.162974E0,6.8430824E0,2.1995444E0],"split_indices":[1,1,1,7,22,0,0,22,2,1,2,0,0,2,0,21,0,0,21,0,0,0,0,0,0],"split_type":[0,0,0,0,0,0,0,0,0,0,0,0,0,0,0,0,0,0,0,0,0,0,0,0,0],"sum_hessian":[5.8E1,2.7E1,3.1E1,1.1E1,1.6E1,1.2E1,1.9E1,7E0,4E0,4E0,1.2E1,1E0,6E0,3E0,1E0,3E0,1E0,1E0,1.1E1,1E0,2E0,1E0,2E0,9E0,2E0],"tree_param":{"num_deleted":"0","num_feature":"24","num_nodes":"25","size_leaf_vector":"1"}},{"base_weights":[3.4908104E0,2.937289E1,-2.8086946E1,1.7228216E1,8.031921E0,-2.8695111E0,-3.637352E-1,2.5258127E1,-0E0,1.1220009E1,3.6270435E0,-1.6574465E1,2.9626725E0,-4.0446725E-1,2.3925379E1,-0E0,-1.8890419E0,8.49171E0,-8.2254833E-1,1.05810545E-1,2.812767E0,1.1821778E0,-0E0],"categories":[],"categories_nodes":[],"categories_segments":[],"categories_sizes":[],"default_left":[0,0,0,0,0,0,0,0,0,0,0,0,0,0,0,0,0,0,0,0,0,0,0],"id":14,"left_children":[1,3,5,7,-1,-1,-1,9,11,13,-1,15,-1,17,19,-1,-1,21,-1,-1,-1,-1,-1],"loss_changes":[4.9052004E4,1.8546482E4,1.354375E2,3.8107666E3,0E0,0E0,0E0,2.2928418E3,5.4339614E3,1.6042141E3,0E0,2.1809741E2,0E0,4.859801E2,3.0478394E2,0E0,0E0,6.3181458E1,0E0,0E0,0E0,0E0,0E0],"parents":[2147483647,0,0,1,1,2,2,3,3,7,7,8,8,9,9,11,11,13,13,14,14,17,17],"right_children":[2,4,6,8,-1,-1,-1,10,12,14,-1,16,-1,18,20,-1,-1,22,-1,-1,-1,-1,-1],"split_conditions":[3.6E-1,1E0,1.2E1,9E0,8.031921E0,-2.8695111E0,-3.637352E-1,5E0,1.1E1,1E0,3.6270435E0,5.6E1,2.9626725E0,4.7E1,2.1E1,-0E0,-1.8890419E0,2.1E1,-8.2254833E-1,1.05810545E-1,2.812767E0,1.1821778E0,-0E0],"split_indices":[1,4,22,22,0,0,0,22,22,5,0,2,0,2,21,0,0,21,0,0,0,0,0],"split_type":[0,0,0,0,0,0,0,0,0,0,0,0,0,0,0,0,0,0,0,0,0,0,0],"sum_hessian":[5.8E1,3.2E1,2.6E1,2.7E1,5E0,2.5E1,1E0,1.8E1,9E0,9E0,9E0,6E0,3E0,5E0,4E0,1E0,5E0,2E0,3E0,1E0,3E0,1E0,1E0],"tree_param":{"num_deleted":"0","num_feature":"24","num_nodes":"23","size_leaf_vector":"1"}},{"base_weights":[4.071474E0,3.1399046E1,-2.6752285E1,-6.7569986E-2,5.2618103E1,-3.419486E1,-1.8317524E1,-1.0121388E1,1.5866722E1,3.37082E1,7.850817E1,-3.6421647E0,-1.14805E0,-1.1147645E1,-2.8771029E0,-1.5085305E1,1.4776932E0,2.3928534E1,-9.721169E-1,1.3001434E1,4.6988094E1,9.33504E0,3.907834E1,-1.3534348E0,-1.525057E1,-2.360111E0,-8.566345E0,1.8841247E-1,3.6330097E0,2.2216553E1,-5.024241E-1,5.847987E0,6.675181E0,7.7778306E0,-0E0,9.021912E-2,-4.8245826E-1,-1.7292264E0,-0E0,1.8106995E0,-1.8051804E0,1.0052033E-1,2.601809E0,-7.3672485E-1,1.9880021E0,5.100067E-1,-4.721695E-1,6.41272E-1,-1.9421387E-2],"categories":[],"categories_nodes":[],"categories_segments":[],"categories_sizes":[],"default_left":[0,0,0,0,0,0,0,0,0,0,0,0,0,0,0,0,0,0,0,0,0,0,0,0,0,0,0,0,0,0,0,0,0,0,0,0,0,0,0,0,0,0,0,0,0,0,0,0,0],"id":15,"left_children":[1,3,5,7,9,11,13,15,17,19,21,-1,-1,23,-1,25,-1,27,-1,29,31,-1,33,35,37,-1,39,-1,-1,41,-1,-1,43,-1,45,-1,-1,-1,-1,47,-1,-1,-1,-1,-1,-1,-1,-1,-1],"loss_changes":[5.561523E4,2.3635523E4,1.0571387E3,2.5348738E3,7.073703E3,1.01052734E2,7.53834E2,1.4603882E3,1.5413585E3,2.938912E3,3.716914E2,0E0,0E0,3.7855835E2,0E0,1.3661499E2,0E0,1.1074043E3,0E0,1.3603442E3,2.9899941E3,0E0,5.9904634E3,6.311271E1,2.3251733E2,0E0,8.0290906E2,0E0,0E0,2.4190845E2,0E0,0E0,7.65309E2,0E0,9.6610176E1,0E0,0E0,0E0,0E0,6.9244576E1,0E0,0E0,0E0,0E0,0E0,0E0,0E0,0E0,0E0],"parents":[2147483647,0,0,1,1,2,2,3,3,4,4,5,5,6,6,7,7,8,8,9,9,10,10,13,13,15,15,17,17,19,19,20,20,22,22,23,23,24,24,26,26,29,29,32,32,34,34,39,39],"right_children":[2,4,6,8,10,12,14,16,18,20,22,-1,-1,24,-1,26,-1,28,-1,30,32,-1,34,36,38,-1,40,-1,-1,42,-1,-1,44,-1,46,-1,-1,-1,-1,48,-1,-1,-1,-1,-1,-1,-1,-1,-1],"split_conditions":[3.6E-1,3E-1,4.2E-1,1E0,1E0,1.1E1,4.8E-1,1.1E1,5.6E1,5.6E1,6.7E1,-3.6421647E0,-1.14805E0,2.1E1,-2.8771029E0,5.1E1,1.4776932E0,6E0,-9.721169E-1,3.5E-1,9E0,9.33504E0,2.1E1,4.7E-1,4.7E-1,-2.360111E0,2.1E1,1.8841247E-1,3.6330097E0,2.1E1,-5.024241E-1,5.847987E0,3.5E-1,7.7778306E0,7.3E1,9.021912E-2,-4.8245826E-1,-1.7292264E0,-0E0,6E0,-1.8051804E0,1.0052033E-1,2.601809E0,-7.3672485E-1,1.9880021E0,5.100067E-1,-4.721695E-1,6.41272E-1,-1.9421387E-2],"split_indices":[1,1,1,7,4,22,1,22,2,2,2,0,0,21,0,2,0,22,0,1,22,0,21,1,1,0,21,0,0,21,0,0,1,0,2,0,0,0,0,22,0,0,0,0,0,0,0,0,0],"split_type":[0,0,0,0,0,0,0,0,0,0,0,0,0,0,0,0,0,0,0,0,0,0,0,0,0,0,0,0,0,0,0,0,0,0,0,0,0,0,0,0,0,0,0,0,0,0,0,0,0],"sum_hessian":[6.4E1,3.4E1,3E1,1.4E1,2E1,1.4E1,1.6E1,9E0,5E0,1.3E1,7E0,1.2E1,2E0,1.1E1,5E0,8E0,1E0,4E0,1E0,6E0,7E0,4E0,3E0,4E0,7E0,2E0,6E0,2E0,2E0,4E0,2E0,5E0,2E0,1E0,2E0,2E0,2E0,6E0,1E0,3E0,3E0,1E0,3E0,1E0,1E0,1E0,1E0,1E0,2E0],"tree_param":{"num_deleted":"0","num_feature":"24","num_nodes":"49","size_leaf_vector":"1"}},{"base_weights":[5.3035316E0,2.7607153E1,-2.5041534E1,1.2990137E1,7.286369E0,-3.3887928E1,-1.3884253E1,2.2600627E0,3.3643612E1,-3.7681496E0,-1.468203E0,-3.2051978E-1,-2.1696522E0,8.450787E0,-1.576412E1,4.0821228E1,4.0146384E0,8.42041E-2,-2.3623104E-1,2.11739E0,-0E0,-2.2027705E0,-2.5791626E0,2.4255402E0,6.7608094E0,-6.9988865E-1,1.5520843E0,-3.1508636E0,1.4038086E0,6.092087E-1,-1.2460831E0,4.497078E0,-1.5085061E0,-3.1061783E-1,1.4802394E0],"categories":[],"categories_nodes":[],"categories_segments":[],"categories_sizes":[],"default_left":[0,0,0,0,0,0,0,0,0,0,0,0,0,0,0,0,0,0,0,0,0,0,0,0,0,0,0,0,0,0,0,0,0,0,0],"id":16,"left_children":[1,3,5,7,-1,9,11,13,15,-1,-1,17,-1,19,21,23,25,-1,-1,-1,27,-1,29,-1,-1,-1,-1,31,-1,-1,-1,33,-1,-1,-1],"loss_changes":[3.9958836E4,2.1115746E4,1.7581738E3,5.728005E3,0E0,1.3210645E2,1.2604863E3,2.2167246E3,1.5259258E3,0E0,0E0,2.3832745E1,0E0,1.6187673E3,2.3307812E2,1.00704785E3,5.3141003E2,0E0,0E0,0E0,4.8348718E2,0E0,3.6481543E2,0E0,0E0,0E0,0E0,9.422269E2,0E0,0E0,0E0,5.745837E2,0E0,0E0,0E0],"parents":[2147483647,0,0,1,1,2,2,3,3,5,5,6,6,7,7,8,8,11,11,13,13,14,14,15,15,16,16,20,20,22,22,27,27,31,31],"right_children":[2,4,6,8,-1,10,12,14,16,-1,-1,18,-1,20,22,24,26,-1,-1,-1,28,-1,30,-1,-1,-1,-1,32,-1,-1,-1,34,-1,-1,-1],"split_conditions":[3.6E-1,1E0,5.4E1,1E0,7.286369E0,1E0,8E0,1E0,8E0,-3.7681496E0,-1.468203E0,4.7E-1,-2.1696522E0,2.1E1,5.1E1,6E0,7.3E1,8.42041E-2,-2.3623104E-1,2.11739E0,1.1E1,-2.2027705E0,5.6E1,2.4255402E0,6.7608094E0,-6.9988865E-1,1.5520843E0,7E0,1.4038086E0,6.092087E-1,-1.2460831E0,5.6E1,-1.5085061E0,-3.1061783E-1,1.4802394E0],"split_indices":[1,4,2,5,0,5,22,6,22,0,0,1,0,21,2,22,2,0,0,0,22,0,2,0,0,0,0,22,0,0,0,2,0,0,0],"split_type":[0,0,0,0,0,0,0,0,0,0,0,0,0,0,0,0,0,0,0,0,0,0,0,0,0,0,0,0,0,0,0,0,0,0,0],"sum_hessian":[5.7E1,3.3E1,2.4E1,2.6E1,7E0,1.2E1,1.2E1,1.8E1,8E0,9E0,3E0,5E0,7E0,1.4E1,4E0,6E0,2E0,2E0,3E0,5E0,9E0,2E0,2E0,5E0,1E0,1E0,1E0,8E0,1E0,1E0,1E0,5E0,3E0,3E0,2E0],"tree_param":{"num_deleted":"0","num_feature":"24","num_nodes":"35","size_leaf_vector":"1"}},{"base_weights":[4.584691E0,3.2745556E1,-2.271023E1,1.9936796E1,7.4928727E0,-3.0757658E1,-1.5691519E1,7.0983744E0,3.1844576E1,-3.3150094E0,-9.268697E-1,-9.311093E0,-2.1899698E0,1.7098751E1,-4.630395E0,1.4622566E1,4.015551E1,-0E0,-1.0412957E1,5.312083E0,3.3305836E0,-1.0680855E1,1.3336182E0,1.8694935E1,-3.6963653E-2,5.287955E0,1.2961586E1,-3.9646544E0,-1.2817038E0,8.534231E0,-2.8993303E-1,-1.0901286E-1,-1.3953686E0,-0E0,2.2247581E0,-6.648941E-1,2.338141E0,7.85909E-2,-9.0603334E-1,1.1400799E0,1.15625516E-1],"categories":[],"categories_nodes":[],"categories_segments":[],"categories_sizes":[],"default_left":[0,0,0,0,0,0,0,0,0,0,0,0,0,0,0,0,0,0,0,0,0,0,0,0,0,0,0,0,0,0,0,0,0,0,0,0,0,0,0,0,0],"id":17,"left_children":[1,3,5,7,-1,9,11,13,15,-1,-1,17,-1,19,21,23,25,-1,27,29,-1,31,-1,33,-1,-1,35,37,-1,39,-1,-1,-1,-1,-1,-1,-1,-1,-1,-1,-1],"loss_changes":[4.9987344E4,1.5321883E4,1.1490449E3,3.554044E3,0E0,2.0040137E2,4.3225146E2,1.7836052E3,9.996367E2,0E0,0E0,1.5236914E2,0E0,1.1582073E3,8.901075E2,4.6485938E2,1.7535234E3,0E0,3.5801025E1,2.1166844E2,0E0,9.790259E1,0E0,2.323169E2,0E0,0E0,1.0564768E3,1.6952946E2,0E0,2.9779785E1,0E0,0E0,0E0,0E0,0E0,0E0,0E0,0E0,0E0,0E0,0E0],"parents":[2147483647,0,0,1,1,2,2,3,3,5,5,6,6,7,7,8,8,11,11,13,13,14,14,15,15,16,16,18,18,19,19,21,21,23,23,26,26,27,27,29,29],"right_children":[2,4,6,8,-1,10,12,14,16,-1,-1,18,-1,20,22,24,26,-1,28,30,-1,32,-1,34,-1,-1,36,38,-1,40,-1,-1,-1,-1,-1,-1,-1,-1,-1,-1,-1],"split_conditions":[3.6E-1,1E0,4.1E-1,3E-1,7.4928727E0,1.1E1,4.8E-1,8E0,5.6E1,-3.3150094E0,-9.268697E-1,5.2E1,-2.1899698E0,6E0,1.1E1,3.5E-1,9E0,-0E0,2.1E1,1E0,3.3305836E0,2.1E1,1.3336182E0,2.1E1,-3.6963653E-2,5.287955E0,1E1,8E0,-1.2817038E0,4E0,-2.8993303E-1,-1.0901286E-1,-1.3953686E0,-0E0,2.2247581E0,-6.648941E-1,2.338141E0,7.85909E-2,-9.0603334E-1,1.1400799E0,1.15625516E-1],"split_indices":[1,4,1,1,0,22,1,22,2,0,0,2,0,22,22,1,22,0,21,6,0,21,0,21,0,0,22,22,0,22,0,0,0,0,0,0,0,0,0,0,0],"split_type":[0,0,0,0,0,0,0,0,0,0,0,0,0,0,0,0,0,0,0,0,0,0,0,0,0,0,0,0,0,0,0,0,0,0,0,0,0,0,0,0,0],"sum_hessian":[6.3E1,3.1E1,3.2E1,2.5E1,6E0,1.3E1,1.9E1,1.3E1,1.2E1,1.1E1,2E0,1.1E1,8E0,7E0,6E0,5E0,7E0,1E0,1E1,5E0,2E0,5E0,1E0,4E0,1E0,4E0,3E0,4E0,6E0,4E0,1E0,2E0,3E0,1E0,3E0,1E0,2E0,2E0,2E0,2E0,2E0],"tree_param":{"num_deleted":"0","num_feature":"24","num_nodes":"41","size_leaf_vector":"1"}},{"base_weights":[-0E0,2.2392723E1,-2.0975895E1,7.167175E0,6.850628E0,-2.6959672E0,-1.3368624E1,1.375697E1,-1.8307486E0,-2.7828426E0,-2.0737247E1,1.956978E1,2.6931343E0,-5.2038604E-1,-0E0,-2.2285302E0,-1.6764069E-1,2.5122017E1,9.348068E-1,-1.3852326E0,2.3951676E0,2.6797672E1,3.3583832E-1,-4.4575706E-1,1.1055969E0,4.4412538E-1,2.8642697E0],"categories":[],"categories_nodes":[],"categories_segments":[],"categories_sizes":[],"default_left":[0,0,0,0,0,0,0,0,0,0,0,0,0,0,0,0,0,0,0,0,0,0,0,0,0,0,0],"id":18,"left_children":[1,3,5,7,-1,-1,9,11,-1,13,15,17,19,-1,-1,-1,-1,21,23,-1,-1,25,-1,-1,-1,-1,-1],"loss_changes":[2.8181219E4,1.9491656E4,8.4907227E2,4.0901772E3,0E0,0E0,1.0727334E3,1.0579092E3,0E0,7.344711E1,1.0839697E2,1.0878208E3,3.1961418E3,0E0,0E0,0E0,0E0,8.743848E1,3.0058328E2,0E0,0E0,3.7355957E1,0E0,0E0,0E0,0E0,0E0],"parents":[2147483647,0,0,1,1,2,2,3,3,6,6,7,7,9,9,10,10,11,11,12,12,17,17,18,18,21,21],"right_children":[2,4,6,8,-1,-1,10,12,-1,14,16,18,20,-1,-1,-1,-1,22,24,-1,-1,26,-1,-1,-1,-1,-1],"split_conditions":[3.6E-1,1E0,5.5E1,1E0,6.850628E0,-2.6959672E0,9E0,8E0,-1.8307486E0,1E0,1.2E1,3.5E-1,1.1E1,-5.2038604E-1,-0E0,-2.2285302E0,-1.6764069E-1,2.4E1,5.6E1,-1.3852326E0,2.3951676E0,5.1E1,3.3583832E-1,-4.4575706E-1,1.1055969E0,4.4412538E-1,2.8642697E0],"split_indices":[1,4,2,6,0,0,22,22,0,4,22,1,22,0,0,0,0,21,2,0,0,2,0,0,0,0,0],"split_type":[0,0,0,0,0,0,0,0,0,0,0,0,0,0,0,0,0,0,0,0,0,0,0,0,0,0,0],"sum_hessian":[5.8E1,2.8E1,3E1,2.2E1,6E0,1.5E1,1.5E1,1.8E1,4E0,7E0,8E0,1.1E1,7E0,4E0,3E0,7E0,1E0,8E0,3E0,4E0,3E0,7E0,1E0,2E0,1E0,1E0,6E0],"tree_param":{"num_deleted":"0","num_feature":"24","num_nodes":"27","size_leaf_vector":"1"}},{"base_weights":[2.1622648E0,2.1512405E1,-1.7090023E1,2.2184184E0,3.90389E1,-2.2623941E1,-1.2173521E1,1.0379506E1,-1.0919797E1,6.151449E1,2.4819185E1,-2.4499202E0,-7.165095E-1,-1.2831329E0,-1.4836266E1,2.0422613E1,-2.7481232E0,-1.9145401E1,-7.7064514E-1,6.7912784E0,1.5460663E0,2.7799387E1,5.938853E0,-2.0030442E-1,-0E0,2.5269318E-2,-1.6401009E1,7.5019684E0,2.9175935E0,-1.0421047E1,1.1471786E0,-2.4379113E0,-1.8389893E-1,4.122294E0,-1.0224732E0,3.6391937E1,1.264696E1,1.2378143E0,-9.698639E-2,-1.927443E1,-6.9486494E0,9.537949E-1,-0E0,-0E0,-1.2725525E0,6.8478245E-1,-0E0,4.2191926E-1,4.2130327E0,-4.1604003E-1,2.6905334E0,-7.8780136E0,-2.581596E0,-1.5358982E0,-0E0,5.6220245E-2,-1.1378618E0],"categories":[],"categories_nodes":[],"categories_segments":[],"categories_sizes":[],"default_left":[0,0,0,0,0,0,0,0,0,0,0,0,0,0,0,0,0,0,0,0,0,0,0,0,0,0,0,0,0,0,0,0,0,0,0,0,0,0,0,0,0,0,0,0,0,0,0,0,0,0,0,0,0,0,0,0,0],"id":19,"left_children":[1,3,5,7,9,11,13,15,17,19,21,-1,-1,23,25,27,29,31,33,-1,-1,35,37,-1,-1,-1,39,41,-1,43,-1,-1,-1,45,-1,47,49,-1,-1,51,53,-1,-1,-1,-1,-1,-1,-1,-1,-1,-1,55,-1,-1,-1,-1,-1],"loss_changes":[2.1624225E4,9.513631E3,3.3961816E2,1.7189725E3,2.835539E3,1.401123E1,4.2233594E2,1.4629181E3,3.8656293E2,6.486328E0,2.8515137E2,0E0,0E0,7.816592E0,4.1543066E2,2.7632495E2,6.5983575E2,9.5806885E1,2.576946E2,0E0,0E0,4.6634033E2,2.0250821E2,0E0,0E0,0E0,8.8041016E1,4.779927E1,0E0,5.142401E1,0E0,0E0,0E0,4.280547E1,0E0,5.135947E2,1.4238899E3,0E0,0E0,2.9910156E2,2.30378E2,0E0,0E0,0E0,0E0,0E0,0E0,0E0,0E0,0E0,0E0,2.0820844E2,0E0,0E0,0E0,0E0,0E0],"parents":[2147483647,0,0,1,1,2,2,3,3,4,4,5,5,6,6,7,7,8,8,9,9,10,10,13,13,14,14,15,15,16,16,17,17,18,18,21,21,22,22,26,26,27,27,29,29,33,33,35,35,36,36,39,39,40,40,51,51],"right_children":[2,4,6,8,10,12,14,16,18,20,22,-1,-1,24,26,28,30,32,34,-1,-1,36,38,-1,-1,-1,40,42,-1,44,-1,-1,-1,46,-1,48,50,-1,-1,52,54,-1,-1,-1,-1,-1,-1,-1,-1,-1,-1,56,-1,-1,-1,-1,-1],"split_conditions":[3.6E-1,3E-1,4.2E-1,1E0,2.1E1,1.1E1,4.6E-1,8E0,5.1E1,1E0,9E0,-2.4499202E0,-7.165095E-1,6E1,5.2E1,5E0,1.1E1,2.1E1,5.6E1,6.7912784E0,1.5460663E0,1E0,3.5E-1,-2.0030442E-1,-0E0,2.5269318E-2,4.9E-1,4E0,2.9175935E0,2.1E1,1.1471786E0,-2.4379113E0,-1.8389893E-1,6E0,-1.0224732E0,5.1E1,5.6E1,1.2378143E0,-9.698639E-2,2.1E1,5.3E1,9.537949E-1,-0E0,-0E0,-1.2725525E0,6.8478245E-1,-0E0,4.2191926E-1,4.2130327E0,-4.1604003E-1,2.6905334E0,4.7E-1,-2.581596E0,-1.5358982E0,-0E0,5.6220245E-2,-1.1378618E0],"split_indices":[1,1,1,6,21,22,1,22,2,3,22,0,0,2,2,22,22,21,2,0,0,3,1,0,0,0,1,22,0,21,0,0,0,22,0,2,2,0,0,21,2,0,0,0,0,0,0,0,0,0,0,1,0,0,0,0,0],"split_type":[0,0,0,0,0,0,0,0,0,0,0,0,0,0,0,0,0,0,0,0,0,0,0,0,0,0,0,0,0,0,0,0,0,0,0,0,0,0,0,0,0,0,0,0,0,0,0,0,0,0,0,0,0,0,0,0,0],"sum_hessian":[5.6E1,2.8E1,2.8E1,1.4E1,1.4E1,1.1E1,1.7E1,9E0,5E0,4E0,1E1,9E0,2E0,4E0,1.3E1,5E0,4E0,2E0,3E0,3E0,1E0,8E0,2E0,3E0,1E0,1E0,1.2E1,3E0,2E0,3E0,1E0,1E0,1E0,2E0,1E0,4E0,4E0,1E0,1E0,8E0,4E0,2E0,1E0,1E0,2E0,1E0,1E0,1E0,3E0,2E0,2E0,4E0,4E0,1E0,3E0,1E0,3E0],"tree_param":{"num_deleted":"0","num_feature":"24","num_nodes":"57","size_leaf_vector":"1"}},{"base_weights":[3.3596995E0,2.4366438E1,-1.9763588E1,1.3156697E0,3.4556984E1,-2.2259943E1,-9.803158E0,1.0505366E1,-1.081304E1,2.3490606E1,5.0361816E1,-2.8296827E1,-1.4454472E1,-0E0,-1.3646037E1,1.524102E1,-6.454277E-1,-2.3160157E0,-6.862221E-1,6.857644E0,3.3261734E1,6.4176745E0,1.92527E1,-2.968002E0,-4.7324562E-1,-3.211942E0,-1.5881784E0,-1.6123837E0,-0E0,4.907276E0,2.227234E0,3.8940327E0,-9.7134936E-1,1.2930524E1,-3.8830364E-1,4.3250156E1,8.713661E0,5.9678817E0,-1.2448944E0,-5.616169E-1,-0E0,8.808792E-1,-0E0,6.505432E-1,-0E0,-8.560181E-3,1.7455956E1,1.4434123E0,5.2799644E0,-9.0195316E-1,1.9297904E0,2.0885315E0,1.0839386E-1],"categories":[],"categories_nodes":[],"categories_segments":[],"categories_sizes":[],"default_left":[0,0,0,0,0,0,0,0,0,0,0,0,0,0,0,0,0,0,0,0,0,0,0,0,0,0,0,0,0,0,0,0,0,0,0,0,0,0,0,0,0,0,0,0,0,0,0,0,0,0,0,0,0],"id":20,"left_children":[1,3,5,7,9,11,13,15,17,19,21,23,25,-1,27,29,-1,-1,31,33,35,-1,37,-1,-1,39,-1,-1,-1,41,-1,43,-1,45,-1,47,49,-1,-1,-1,-1,-1,-1,-1,-1,-1,51,-1,-1,-1,-1,-1,-1],"loss_changes":[2.9649273E4,7.291967E3,3.425459E2,1.3381074E3,2.2955586E3,4.138838E2,3.4847064E2,7.045086E2,4.9006E2,2.0091484E3,1.7854395E3,4.601172E1,4.60791E1,0E0,1.8260474E2,1.907644E2,0E0,0E0,2.3231078E2,5.520351E2,1.570083E3,0E0,6.1053853E3,0E0,0E0,3.213299E1,0E0,0E0,0E0,5.8864197E1,0E0,3.915082E1,0E0,3.82864E2,0E0,5.527842E2,9.762195E2,0E0,0E0,0E0,0E0,0E0,0E0,0E0,0E0,0E0,9.209741E1,0E0,0E0,0E0,0E0,0E0,0E0],"parents":[2147483647,0,0,1,1,2,2,3,3,4,4,5,5,6,6,7,7,8,8,9,9,10,10,11,11,12,12,14,14,15,15,18,18,19,19,20,20,22,22,25,25,29,29,31,31,33,33,35,35,36,36,46,46],"right_children":[2,4,6,8,10,12,14,16,18,20,22,24,26,-1,28,30,-1,-1,32,34,36,-1,38,-1,-1,40,-1,-1,-1,42,-1,44,-1,46,-1,48,50,-1,-1,-1,-1,-1,-1,-1,-1,-1,52,-1,-1,-1,-1,-1,-1],"split_conditions":[3.6E-1,3E-1,1E0,1E0,1E0,6E0,5.4E1,2.2E1,5.1E1,5.6E1,6.7E1,1E0,8E0,-0E0,4.9E-1,6E0,-6.454277E-1,-2.3160157E0,5.6E1,3.5E-1,9E0,6.4176745E0,2.1E1,-2.968002E0,-4.7324562E-1,3.7E-1,-1.5881784E0,-1.6123837E0,-0E0,4E0,2.227234E0,6E0,-9.7134936E-1,2.1E1,-3.8830364E-1,7E0,1E1,5.9678817E0,-1.2448944E0,-5.616169E-1,-0E0,8.808792E-1,-0E0,6.505432E-1,-0E0,-8.560181E-3,2.4E1,1.4434123E0,5.2799644E0,-9.0195316E-1,1.9297904E0,2.0885315E0,1.0839386E-1],"split_indices":[1,1,4,6,4,22,2,21,2,2,2,5,22,0,1,22,0,0,2,1,22,0,21,0,0,1,0,0,0,22,0,22,0,21,0,22,22,0,0,0,0,0,0,0,0,0,21,0,0,0,0,0,0],"split_type":[0,0,0,0,0,0,0,0,0,0,0,0,0,0,0,0,0,0,0,0,0,0,0,0,0,0,0,0,0,0,0,0,0,0,0,0,0,0,0,0,0,0,0,0,0,0,0,0,0,0,0,0,0],"sum_hessian":[5.9E1,3.1E1,2.8E1,1E1,2.1E1,2.1E1,7E0,6E0,4E0,1.4E1,7E0,1E1,1.1E1,2E0,5E0,5E0,1E0,1E0,3E0,6E0,8E0,4E0,3E0,9E0,1E0,2E0,9E0,4E0,1E0,3E0,2E0,2E0,1E0,4E0,2E0,5E0,3E0,1E0,2E0,1E0,1E0,1E0,2E0,1E0,1E0,1E0,3E0,2E0,3E0,1E0,2E0,2E0,1E0],"tree_param":{"num_deleted":"0","num_feature":"24","num_nodes":"53","size_leaf_vector":"1"}},{"base_weights":[2.208792E0,2.0806818E1,-1.4961118E1,-3.74871E-1,3.43813E1,-2.078633E1,-9.675021E0,9.406172E0,-1.4993357E1,4.6007298E1,6.503433E0,-2.2755003E0,-5.628637E-1,-1.1755708E1,-1.3302323E0,1.7197049E0,-0E0,-5.8903504E-2,-1.7197179E0,5.4615112E1,1.603984E1,2.294274E0,-6.2019043E0,-3.8683424E0,-1.9479578E1,-3.7973964E-1,-0E0,-7.5047153E-1,9.784576E-1,2.9639742E-1,6.0856137E0,-0E0,2.2870524E0,-1.7132101E0,1.0794343E0,-1.3107033E0,-0E0,-0E0,-2.3515868E0,1.4256948E-1,-1.8019517E-1],"categories":[],"categories_nodes":[],"categories_segments":[],"categories_sizes":[],"default_left":[0,0,0,0,0,0,0,0,0,0,0,0,0,0,0,0,0,0,0,0,0,0,0,0,0,0,0,0,0,0,0,0,0,0,0,0,0,0,0,0,0],"id":21,"left_children":[1,3,5,7,9,11,13,15,17,19,21,-1,-1,23,25,-1,27,-1,-1,29,31,-1,33,35,37,-1,-1,-1,-1,-1,-1,-1,-1,-1,-1,-1,39,-1,-1,-1,-1],"loss_changes":[1.7264824E4,7.658715E3,5.0877832E2,1.7417904E3,4.623967E3,8.808887E1,2.1410144E2,5.636214E2,5.9661987E1,1.6082051E3,1.4791945E3,0E0,0E0,5.9987964E2,3.4413063E1,0E0,3.604381E2,0E0,0E0,2.079371E3,5.4007666E2,0E0,9.5970776E2,2.2387604E2,4.8825635E2,0E0,0E0,0E0,0E0,0E0,0E0,0E0,0E0,0E0,0E0,0E0,2.2332964E1,0E0,0E0,0E0,0E0],"parents":[2147483647,0,0,1,1,2,2,3,3,4,4,5,5,6,6,7,7,8,8,9,9,10,10,13,13,14,14,16,16,19,19,20,20,22,22,23,23,24,24,36,36],"right_children":[2,4,6,8,10,12,14,16,18,20,22,-1,-1,24,26,-1,28,-1,-1,30,32,-1,34,36,38,-1,-1,-1,-1,-1,-1,-1,-1,-1,-1,-1,40,-1,-1,-1,-1],"split_conditions":[3.6E-1,3E-1,4.1E-1,1E0,9E0,1.1E1,2.2E1,7E0,3E0,1E0,6.7E1,-2.2755003E0,-5.628637E-1,2.1E1,4.5E-1,1.7197049E0,6.7E1,-5.8903504E-2,-1.7197179E0,5.1E1,5.6E1,2.294274E0,8E1,5.3E1,4.6E-1,-3.7973964E-1,-0E0,-7.5047153E-1,9.784576E-1,2.9639742E-1,6.0856137E0,-0E0,2.2870524E0,-1.7132101E0,1.0794343E0,-1.3107033E0,4.7E-1,-0E0,-2.3515868E0,1.4256948E-1,-1.8019517E-1],"split_indices":[1,1,1,6,22,22,21,22,22,3,2,0,0,21,1,0,2,0,0,2,2,0,2,2,1,0,0,0,0,0,0,0,0,0,0,0,1,0,0,0,0],"split_type":[0,0,0,0,0,0,0,0,0,0,0,0,0,0,0,0,0,0,0,0,0,0,0,0,0,0,0,0,0,0,0,0,0,0,0,0,0,0,0,0,0],"sum_hessian":[5.2E1,2.5E1,2.7E1,1E1,1.5E1,1.1E1,1.6E1,6E0,4E0,1E1,5E0,9E0,2E0,1.2E1,4E0,3E0,3E0,1E0,3E0,7E0,3E0,2E0,3E0,7E0,5E0,2E0,2E0,2E0,1E0,1E0,6E0,1E0,2E0,2E0,1E0,1E0,6E0,1E0,4E0,2E0,4E0],"tree_param":{"num_deleted":"0","num_feature":"24","num_nodes":"41","size_leaf_vector":"1"}},{"base_weights":[4.956641E0,2.0498535E1,-1.2526183E1,2.9394482E1,1.9359772E0,-1.4047357E1,-1.5847588E-1,2.134994E1,6.0833883E0,-5.142177E0,1.5088753E1,-1.9655037E0,-7.787009E0,-2.6874658E-1,-0E0,9.34623E0,4.4888854E0,-9.930989E0,9.295349E-1,2.141322E0,-0E0,-0E0,-1.0535672E0,4.2321863E0,1.726627E1,-0E0,-1.1995376E0,6.1887455E-1,-3.210144E-1,1.5071945E-1,2.035023E0],"categories":[],"categories_nodes":[],"categories_segments":[],"categories_sizes":[],"default_left":[0,0,0,0,0,0,0,0,0,0,0,0,0,0,0,0,0,0,0,0,0,0,0,0,0,0,0,0,0,0,0],"id":22,"left_children":[1,3,5,7,9,11,13,15,-1,17,19,-1,21,-1,-1,23,-1,25,-1,-1,-1,-1,-1,27,29,-1,-1,-1,-1,-1,-1],"loss_changes":[1.3882441E4,4.244992E3,3.7826685E2,2.8427617E3,1.0582957E3,4.469624E2,1.4344485E1,3.8301528E3,0E0,5.7946045E2,4.6489594E2,0E0,2.7135315E2,0E0,0E0,3.0547473E2,0E0,1.27698E2,0E0,0E0,0E0,0E0,0E0,1.6581203E2,5.4442627E1,0E0,0E0,0E0,0E0,0E0,0E0],"parents":[2147483647,0,0,1,1,2,2,3,3,4,4,5,5,6,6,7,7,9,9,10,10,12,12,15,15,17,17,23,23,24,24],"right_children":[2,4,6,8,10,12,14,16,-1,18,20,-1,22,-1,-1,24,-1,26,-1,-1,-1,-1,-1,28,30,-1,-1,-1,-1,-1,-1],"split_conditions":[3.6E-1,9E0,2.2E1,1E0,3.5E-1,5.5E1,3.8E-1,7E0,6.0833883E0,1.1E1,6.7E1,-1.9655037E0,8E0,-2.6874658E-1,-0E0,2.2E1,4.4888854E0,5.6E1,9.295349E-1,2.141322E0,-0E0,-0E0,-1.0535672E0,3.5E-1,3E-1,-0E0,-1.1995376E0,6.1887455E-1,-3.210144E-1,1.5071945E-1,2.035023E0],"split_indices":[1,22,21,4,1,2,1,22,0,22,2,0,22,0,0,21,0,2,0,0,0,0,0,1,1,0,0,0,0,0,0],"split_type":[0,0,0,0,0,0,0,0,0,0,0,0,0,0,0,0,0,0,0,0,0,0,0,0,0,0,0,0,0,0,0],"sum_hessian":[4.9E1,2.6E1,2.3E1,1.7E1,9E0,2E1,3E0,1.5E1,2E0,6E0,3E0,9E0,1.1E1,1E0,2E0,1.1E1,4E0,5E0,1E0,2E0,1E0,3E0,8E0,8E0,3E0,1E0,4E0,7E0,1E0,1E0,2E0],"tree_param":{"num_deleted":"0","num_feature":"24","num_nodes":"31","size_leaf_vector":"1"}},{"base_weights":[1.6365044E0,1.6933407E1,-1.3016936E1,6.2472644E0,4.2242855E1,-1.5332893E1,-4.395937E0,1.0506969E1,-2.1146622E0,5.58571E0,2.1902887E1,-1.6305733E0,-2.069659E0,3.9442446E-2,-8.349039E0,4.202605E0,1.5260637E1,4.8648357E0,-1.0476878E1,-3.831463E-1,-0E0,2.400589E-2,-1.1806328E1,-1.2314123E0,1.0882904E1,2.7403095E0,1.7651495E0,-0E0,-1.3772995E0,-0E0,-1.632692E0,4.9507143E-3,-4.195501E-1,-0E0,1.6480998E0,-7.999668E-1,1.586319E0,-3.4335634E-1,5.919327E-1],"categories":[],"categories_nodes":[],"categories_segments":[],"categories_sizes":[],"default_left":[0,0,0,0,0,0,0,0,0,0,0,0,0,0,0,0,0,0,0,0,0,0,0,0,0,0,0,0,0,0,0,0,0,0,0,0,0,0,0],"id":23,"left_children":[1,3,5,7,9,11,13,15,-1,-1,17,-1,19,-1,21,23,25,-1,27,-1,-1,-1,29,31,33,-1,35,-1,-1,-1,-1,-1,-1,37,-1,-1,-1,-1,-1],"loss_changes":[1.2792529E4,7.066538E3,4.1296387E2,2.619476E3,6.030752E2,1.5824219E2,1.9456041E2,4.0795752E2,0E0,0E0,5.0306006E3,0E0,1.6509752E1,0E0,2.091405E2,4.246674E2,1.4444722E3,0E0,5.0095886E1,0E0,0E0,0E0,2.421474E2,4.3718224E1,2.2268188E2,0E0,9.922066E2,0E0,0E0,0E0,0E0,0E0,0E0,9.365557E1,0E0,0E0,0E0,0E0,0E0],"parents":[2147483647,0,0,1,1,2,2,3,3,4,4,5,5,6,6,7,7,10,10,12,12,14,14,15,15,16,16,18,18,22,22,23,23,24,24,26,26,33,33],"right_children":[2,4,6,8,10,12,14,16,-1,-1,18,-1,20,-1,22,24,26,-1,28,-1,-1,-1,30,32,34,-1,36,-1,-1,-1,-1,-1,-1,38,-1,-1,-1,-1,-1],"split_conditions":[3.6E-1,1E0,1E0,1E0,2.1E1,6.5E1,2.1E1,6E0,-2.1146622E0,5.58571E0,5.6E1,-1.6305733E0,4.4E-1,3.9442446E-2,5.2E1,1E0,6.2E1,4.8648357E0,7.3E1,-3.831463E-1,-0E0,2.400589E-2,4.6E-1,3E-1,2.1E1,2.7403095E0,1E1,-0E0,-1.3772995E0,-0E0,-1.632692E0,4.9507143E-3,-4.195501E-1,5.6E1,1.6480998E0,-7.999668E-1,1.586319E0,-3.4335634E-1,5.919327E-1],"split_indices":[1,4,4,6,21,2,21,22,0,0,2,0,1,0,2,5,2,0,2,0,0,0,1,1,21,0,22,0,0,0,0,0,0,2,0,0,0,0,0],"split_type":[0,0,0,0,0,0,0,0,0,0,0,0,0,0,0,0,0,0,0,0,0,0,0,0,0,0,0,0,0,0,0,0,0,0,0,0,0,0,0],"sum_hessian":[5.5E1,2.7E1,2.8E1,2E1,7E0,2.1E1,7E0,1.8E1,2E0,3E0,4E0,1.9E1,2E0,3E0,4E0,9E0,9E0,2E0,2E0,1E0,1E0,1E0,3E0,5E0,4E0,4E0,5E0,1E0,1E0,1E0,2E0,3E0,2E0,2E0,2E0,3E0,2E0,1E0,1E0],"tree_param":{"num_deleted":"0","num_feature":"24","num_nodes":"39","size_leaf_vector":"1"}},{"base_weights":[1.965088E0,1.5346459E1,-1.3157338E1,6.742593E0,5.210676E0,-1.6232687E1,-9.737521E0,1.0487928E-1,1.8179989E1,-1.940332E0,-2.9979324E0,-1.102087E1,-0E0,-2.0885682E0,1.4166123E0,2.2153866E1,-0E0,-8.7624663E-1,1.7773438E-2,-6.1272917E0,-1.391184E1,9.470149E-1,-1.3440968E0,8.026749E0,4.135681E0,-6.712219E-1,8.996704E-1,-1.110485E0,-0E0,-5.979767E-2,-1.501411E0,-2.9196014E0,1.2593457E0,1.017395E1,-0E0,-1.4981354E1,8.698273E-1,2.0218887E0,1.8891098E0,-2.0394409E0,-0E0,-7.504251E-2,6.02714E-1,-3.2618865E-1,6.5371096E-1],"categories":[],"categories_nodes":[],"categories_segments":[],"categories_sizes":[],"default_left":[0,0,0,0,0,0,0,0,0,0,0,0,0,0,0,0,0,0,0,0,0,0,0,0,0,0,0,0,0,0,0,0,0,0,0,0,0,0,0,0,0,0,0,0,0],"id":24,"left_children":[1,3,5,7,-1,9,11,13,15,-1,17,19,-1,21,-1,23,25,-1,-1,27,29,31,-1,33,-1,-1,-1,-1,-1,-1,-1,35,-1,37,-1,39,41,43,-1,-1,-1,-1,-1,-1,-1],"loss_changes":[1.2556751E4,9.791683E3,1.707959E1,2.0323776E3,0E0,3.753369E2,2.0996521E2,6.759841E2,6.2122974E2,0E0,1.1770601E2,2.6770264E1,0E0,6.6103815E2,0E0,1.5913799E3,2.5198914E2,0E0,0E0,1.9292102E2,3.0365356E1,7.1558966E2,0E0,1.3097409E2,0E0,0E0,0E0,0E0,0E0,0E0,0E0,5.8636743E2,0E0,2.1255304E2,0E0,1.5854095E2,1.06111824E2,1.3312906E2,0E0,0E0,0E0,0E0,0E0,0E0,0E0],"parents":[2147483647,0,0,1,1,2,2,3,3,5,5,6,6,7,7,8,8,10,10,11,11,13,13,15,15,16,16,19,19,20,20,21,21,23,23,31,31,33,33,35,35,36,36,37,37],"right_children":[2,4,6,8,-1,10,12,14,16,-1,18,20,-1,22,-1,24,26,-1,-1,28,30,32,-1,34,-1,-1,-1,-1,-1,-1,-1,36,-1,38,-1,40,42,44,-1,-1,-1,-1,-1,-1,-1],"split_conditions":[3.6E-1,1E0,5E0,1E0,5.210676E0,1E0,4.9E-1,1.1E1,9E0,-1.940332E0,4.7E-1,9E0,-0E0,1E1,1.4166123E0,6E0,7.3E1,-8.7624663E-1,1.7773438E-2,4.4E-1,4E-1,1E0,-1.3440968E0,2.4E1,4.135681E0,-6.712219E-1,8.996704E-1,-1.110485E0,-0E0,-5.979767E-2,-1.501411E0,5.1E1,1.2593457E0,2.2E1,-0E0,2.1E1,1E0,4E0,1.8891098E0,-2.0394409E0,-0E0,-7.504251E-2,6.02714E-1,-3.2618865E-1,6.5371096E-1],"split_indices":[1,4,22,5,0,4,1,22,22,0,1,22,0,22,0,22,2,0,0,1,1,7,0,21,0,0,0,0,0,0,0,2,0,21,0,21,6,22,0,0,0,0,0,0,0],"split_type":[0,0,0,0,0,0,0,0,0,0,0,0,0,0,0,0,0,0,0,0,0,0,0,0,0,0,0,0,0,0,0,0,0,0,0,0,0,0,0,0,0,0,0,0,0],"sum_hessian":[6E1,3.2E1,2.8E1,2.7E1,5E0,1.2E1,1.6E1,1.8E1,9E0,9E0,3E0,1.4E1,2E0,1.6E1,2E0,7E0,2E0,1E0,2E0,7E0,7E0,1.3E1,3E0,5E0,2E0,1E0,1E0,3E0,4E0,1E0,6E0,1E1,3E0,4E0,1E0,2E0,8E0,3E0,1E0,1E0,1E0,6E0,2E0,1E0,2E0],"tree_param":{"num_deleted":"0","num_feature":"24","num_nodes":"45","size_leaf_vector":"1"}}]},"name":"gbtree"},"learner_model_param":{"base_score":"2.16875E2","boost_from_average":"1","num_class":"0","num_feature":"24","num_target":"1"},"objective":{"name":"reg:squarederror","reg_loss_param":{"scale_pos_weight":"1"}}},"version":[3,0,2]}]}}}}