{"learner":{"attributes":{"scikit_learn":"{\"_estimator_type\": \"regressor\"}"},"feature_names":[],"feature_types":[],"gradient_booster":{"model":{"gbtree_model_param":{"num_parallel_tree":"1","num_trees":"25"},"iteration_indptr":[0,1,2,3,4,5,6,7,8,9,10,11,12,13,14,15,16,17,18,19,20,21,22,23,24,25],"tree_info":[0,0,0,0,0,0,0,0,0,0,0,0,0,0,0,0,0,0,0,0,0,0,0,0,0],"trees":[{"base_weights":[1.0152375E1,1.3024443E2,-7.5873024E1,-6.277778E0,1.6515384E2,-8.507408E0,-1.4250004E0,1.16666664E2,2.8622221E1,1.26399994E2,7.166664E-1,3.2166665E0,1.3274074E1],"categories":[],"categories_nodes":[],"categories_segments":[],"categories_sizes":[],"default_left":[0,0,0,0,0,0,0,0,0,0,0,0,0],"id":0,"left_children":[1,3,5,-1,7,-1,-1,9,-1,11,-1,-1,-1],"loss_changes":[3.7173775E5,1.11954234E5,1.0198008E4,0E0,4.0906406E4,0E0,0E0,1.0150094E4,0E0,8.807344E2,0E0,0E0,0E0],"parents":[2147483647,0,0,1,1,2,2,4,4,7,7,9,9],"right_children":[2,4,6,-1,8,-1,-1,10,-1,12,-1,-1,-1],"split_conditions":[4.1E-1,1E0,1E0,-6.277778E0,1E0,-8.507408E0,-1.4250004E0,1E0,2.8622221E1,1.6E1,7.166664E-1,3.2166665E0,1.3274074E1],"split_indices":[1,18,4,0,4,0,0,6,0,21,0,0,0],"split_type":[0,0,0,0,0,0,0,0,0,0,0,0,0],"sum_hessian":[3.4E1,1.4E1,2E1,2E0,1.2E1,1.7E1,3E0,1E1,2E0,9E0,1E0,1E0,8E0],"tree_param":{"num_deleted":"0","num_feature":"24","num_nodes":"13","size_leaf_vector":"1"}},{"base_weights":[-5.934557E0,9.2483475E1,-6.985955E1,-6.3541675E0,1.4614519E2,-7.6317096E0,-6.161112E-1,8.18787E1,2.6714075E1,9.091613E0,6.8083346E-1],"categories":[],"categories_nodes":[],"categories_segments":[],"categories_sizes":[],"default_left":[0,0,0,0,0,0,0,0,0,0,0],"id":1,"left_children":[1,3,5,-1,7,-1,-1,9,-1,-1,-1],"loss_changes":[2.0767162E5,1.1854283E5,7.344117E3,0E0,5.4141344E4,0E0,0E0,4.3199375E3,0E0,0E0,0E0],"parents":[2147483647,0,0,1,1,2,2,4,4,7,7],"right_children":[2,4,6,-1,8,-1,-1,10,-1,-1,-1],"split_conditions":[4.1E-1,1E0,1E0,-6.3541675E0,1E0,-7.6317096E0,-6.161112E-1,1E0,2.6714075E1,9.091613E0,6.8083346E-1],"split_indices":[1,18,4,0,4,0,0,6,0,0,0],"split_type":[0,0,0,0,0,0,0,0,0,0,0],"sum_hessian":[3.1E1,1.2E1,1.9E1,3E0,9E0,1.7E1,2E0,7E0,2E0,6E0,1E0],"tree_param":{"num_deleted":"0","num_feature":"24","num_nodes":"11","size_leaf_vector":"1"}},{"base_weights":[-5.0686073E-1,1.0297697E2,-5.985444E1,4.827296E1,2.4933134E1,-6.990829E0,-1.2700452E0,-4.568982E0,7.8099884E1,8.669475E1,6.467919E-1,1.08975725E1,4.1490083E0],"categories":[],"categories_nodes":[],"categories_segments":[],"categories_sizes":[],"default_left":[0,0,0,0,0,0,0,0,0,0,0,0,0],"id":2,"left_children":[1,3,5,7,-1,-1,-1,-1,9,11,-1,-1,-1],"loss_changes":[2.0247647E5,8.255007E4,8.654758E3,3.1756627E4,0E0,0E0,0E0,0E0,3.898789E3,1.7766875E3,0E0,0E0,0E0],"parents":[2147483647,0,0,1,1,2,2,3,3,8,8,9,9],"right_children":[2,4,6,8,-1,-1,-1,-1,10,12,-1,-1,-1],"split_conditions":[4.1E-1,1E0,1E0,1E0,2.4933134E1,-6.990829E0,-1.2700452E0,-4.568982E0,1E0,2E0,6.467919E-1,1.08975725E1,4.1490083E0],"split_indices":[1,4,4,18,0,0,0,0,6,22,0,0,0],"split_type":[0,0,0,0,0,0,0,0,0,0,0,0,0],"sum_hessian":[3.1E1,1.1E1,2E1,9E0,2E0,1.6E1,4E0,2E0,7E0,6E0,1E0,3E0,3E0],"tree_param":{"num_deleted":"0","num_feature":"24","num_nodes":"13","size_leaf_vector":"1"}},{"base_weights":[-8.821899E0,7.5730606E1,-5.6446278E1,-5.5349307E0,1.2108951E2,-6.3159895E0,-7.516636E-1,7.862657E1,1.9229418E1,8.738908E1,6.1445236E-1,9.565082E1,1.6409317E0,2.3938026E0,1.0420577E1],"categories":[],"categories_nodes":[],"categories_segments":[],"categories_sizes":[],"default_left":[0,0,0,0,0,0,0,0,0,0,0,0,0,0,0],"id":3,"left_children":[1,3,5,-1,7,-1,-1,9,-1,11,-1,13,-1,-1,-1],"loss_changes":[1.451149E5,8.432427E4,6.72725E3,0E0,1.3761547E4,0E0,0E0,4.0763672E3,0E0,1.975043E3,0E0,5.458008E2,0E0,0E0,0E0],"parents":[2147483647,0,0,1,1,2,2,4,4,7,7,9,9,11,11],"right_children":[2,4,6,-1,8,-1,-1,10,-1,12,-1,14,-1,-1,-1],"split_conditions":[4.1E-1,1E0,1E0,-5.5349307E0,3.3E1,-6.3159895E0,-7.516636E-1,1E0,1.9229418E1,1.1E1,6.1445236E-1,1.6E1,1.6409317E0,2.3938026E0,1.0420577E1],"split_indices":[1,18,4,0,2,0,0,6,0,22,0,21,0,0,0],"split_type":[0,0,0,0,0,0,0,0,0,0,0,0,0,0,0],"sum_hessian":[3.4E1,1.2E1,2.2E1,3E0,9E0,1.9E1,3E0,7E0,2E0,6E0,1E0,5E0,1E0,1E0,4E0],"tree_param":{"num_deleted":"0","num_feature":"24","num_nodes":"15","size_leaf_vector":"1"}},{"base_weights":[5.312134E0,9.301904E1,-4.8997482E1,-5.1198115E0,1.41904E2,-5.6972456E0,-1.1083082E0,9.2191925E1,2.2550154E1,2.2741127E0,9.815045E0],"categories":[],"categories_nodes":[],"categories_segments":[],"categories_sizes":[],"default_left":[0,0,0,0,0,0,0,0,0,0,0],"id":4,"left_children":[1,3,5,-1,7,-1,-1,9,-1,-1,-1],"loss_changes":[1.6196766E5,9.936939E4,5.3779844E3,0E0,1.9180172E4,0E0,0E0,4.7408594E2,0E0,0E0,0E0],"parents":[2147483647,0,0,1,1,2,2,4,4,7,7],"right_children":[2,4,6,-1,8,-1,-1,10,-1,-1,-1],"split_conditions":[4.1E-1,1E0,1E0,-5.1198115E0,1E0,-5.6972456E0,-1.1083082E0,1.6E1,2.2550154E1,2.2741127E0,9.815045E0],"split_indices":[1,18,4,0,4,0,0,21,0,0,0],"split_type":[0,0,0,0,0,0,0,0,0,0,0],"sum_hessian":[3.2E1,1.2E1,2E1,3E0,9E0,1.6E1,4E0,7E0,2E0,1E0,6E0],"tree_param":{"num_deleted":"0","num_feature":"24","num_nodes":"11","size_leaf_vector":"1"}},{"base_weights":[5.740431E0,8.078956E1,-4.5647945E1,3.762364E1,2.104681E1,-5.4088585E1,-1.0196437E0,-4.420734E0,6.127578E1,-6.1748624E0,-2.5418787E0,6.8077805E1,9.2977144E-2,7.991428E0,2.004561E0],"categories":[],"categories_nodes":[],"categories_segments":[],"categories_sizes":[],"default_left":[0,0,0,0,0,0,0,0,0,0,0,0,0,0,0],"id":5,"left_children":[1,3,5,7,-1,9,-1,-1,11,-1,-1,13,-1,-1,-1],"loss_changes":[1.2341982E5,6.3610984E4,4.8125E3,2.4084438E4,0E0,1.2887656E3,0E0,0E0,3.2859453E3,0E0,0E0,2.4465234E3,0E0,0E0,0E0],"parents":[2147483647,0,0,1,1,2,2,3,3,5,5,8,8,11,11],"right_children":[2,4,6,8,-1,10,-1,-1,12,-1,-1,14,-1,-1,-1],"split_conditions":[4.1E-1,1E0,1E0,1E0,2.104681E1,1.2E1,-1.0196437E0,-4.420734E0,1E0,-6.1748624E0,-2.5418787E0,2E1,9.2977144E-2,7.991428E0,2.004561E0],"split_indices":[1,4,4,18,0,22,0,0,6,0,0,21,0,0,0],"split_type":[0,0,0,0,0,0,0,0,0,0,0,0,0,0,0],"sum_hessian":[3E1,1.2E1,1.8E1,1E1,2E0,1.4E1,4E0,2E0,8E0,1E1,4E0,7E0,1E0,5E0,2E0],"tree_param":{"num_deleted":"0","num_feature":"24","num_nodes":"15","size_leaf_vector":"1"}},{"base_weights":[-1.7891527E0,5.685769E1,-3.9255817E1,-4.4042706E0,8.8834404E1,-4.50958E1,-9.380725E-1,5.1796936E1,1.3945074E2,-5.1319566E0,-2.7269941E1,8.8328555E-2,5.8229843E1,3.7891374E0,1.5900676E1,-3.490799E-1,-2.9817998E0,6.929624E1,1.8709234E0,1.760836E0,7.656612E0],"categories":[],"categories_nodes":[],"categories_segments":[],"categories_sizes":[],"default_left":[0,0,0,0,0,0,0,0,0,0,0,0,0,0,0,0,0,0,0,0,0],"id":6,"left_children":[1,3,5,-1,7,9,-1,11,13,-1,15,-1,17,-1,-1,-1,-1,19,-1,-1,-1],"loss_changes":[7.904954E4,4.9306953E4,3.1429258E3,0E0,1.2442352E4,2.045625E2,0E0,2.2731836E3,9.3491406E2,0E0,1.5350195E2,0E0,1.3249492E3,0E0,0E0,0E0,0E0,5.9746094E1,0E0,0E0,0E0],"parents":[2147483647,0,0,1,1,2,2,4,4,5,5,7,7,8,8,10,10,12,12,17,17],"right_children":[2,4,6,-1,8,10,-1,12,14,-1,16,-1,18,-1,-1,-1,-1,20,-1,-1,-1],"split_conditions":[4.1E-1,1E0,1E0,-4.4042706E0,1.2E1,1.2E1,-9.380725E-1,2.2E1,3.8E-1,-5.1319566E0,4.5E1,8.8328555E-2,1.1E1,3.7891374E0,1.5900676E1,-3.490799E-1,-2.9817998E0,1.6E1,1.8709234E0,1.760836E0,7.656612E0],"split_indices":[1,18,4,0,22,22,0,2,1,0,2,0,22,0,0,0,0,21,0,0,0],"split_type":[0,0,0,0,0,0,0,0,0,0,0,0,0,0,0,0,0,0,0,0,0],"sum_hessian":[3.4E1,1.3E1,2.1E1,3E0,1E1,1.7E1,4E0,7E0,3E0,1.1E1,6E0,1E0,6E0,1E0,2E0,1E0,5E0,4E0,2E0,1E0,3E0],"tree_param":{"num_deleted":"0","num_feature":"24","num_nodes":"21","size_leaf_vector":"1"}},{"base_weights":[1.6039894E1,8.32087E1,-3.308424E1,-3.8324006E0,1.092441E2,-3.90975E0,-8.6302614E-1,6.944844E1,1.9054974E1,7.7294716E1,8.3911896E-2,8.3351295E1,1.4949341E0,1.6727943E0,9.083386E0],"categories":[],"categories_nodes":[],"categories_segments":[],"categories_sizes":[],"default_left":[0,0,0,0,0,0,0,0,0,0,0,0,0,0,0],"id":7,"left_children":[1,3,5,-1,7,-1,-1,9,-1,11,-1,13,-1,-1,-1],"loss_changes":[1.01991805E5,4.5675258E4,2.0708047E3,0E0,2.105836E4,0E0,0E0,4.389426E3,0E0,1.2832422E3,0E0,1.4323281E3,0E0,0E0,0E0],"parents":[2147483647,0,0,1,1,2,2,4,4,7,7,9,9,11,11],"right_children":[2,4,6,-1,8,-1,-1,10,-1,12,-1,14,-1,-1,-1],"split_conditions":[4.1E-1,1E0,1E0,-3.8324006E0,1E0,-3.90975E0,-8.6302614E-1,1E0,1.9054974E1,2E1,8.3911896E-2,1.6E1,1.4949341E0,1.6727943E0,9.083386E0],"split_indices":[1,18,4,0,4,0,0,6,0,21,0,21,0,0,0],"split_type":[0,0,0,0,0,0,0,0,0,0,0,0,0,0,0],"sum_hessian":[2.9E1,1.2E1,1.7E1,2E0,1E1,1.3E1,4E0,8E0,2E0,7E0,1E0,6E0,1E0,1E0,5E0],"tree_param":{"num_deleted":"0","num_feature":"24","num_nodes":"15","size_leaf_vector":"1"}},{"base_weights":[1.4306181E1,8.415516E1,-3.5053413E1,5.3302746E1,1.7784643E1,-4.1023064E0,-7.9398437E0,-1.9576806E0,6.2162415E1,-9.006104E-1,-0E0,6.771922E1,7.9716496E-2,1.5891548E0,7.115657E1,8.326438E0,3.395572E0],"categories":[],"categories_nodes":[],"categories_segments":[],"categories_sizes":[],"default_left":[0,0,0,0,0,0,0,0,0,0,0,0,0,0,0,0,0],"id":8,"left_children":[1,3,5,7,-1,-1,9,-1,11,-1,-1,13,-1,-1,15,-1,-1],"loss_changes":[1.1697009E5,2.9832969E4,2.6666387E3,9.178137E3,0E0,0E0,9.234009E0,0E0,3.354375E3,0E0,0E0,2.1546875E2,0E0,0E0,6.403828E2,0E0,0E0],"parents":[2147483647,0,0,1,1,2,2,3,3,6,6,8,8,11,11,14,14],"right_children":[2,4,6,8,-1,-1,10,-1,12,-1,-1,14,-1,-1,16,-1,-1],"split_conditions":[4.1E-1,1E0,1E0,1.4E1,1.7784643E1,-4.1023064E0,5E-1,-1.9576806E0,1E0,-9.006104E-1,-0E0,1.6E1,7.9716496E-2,1.5891548E0,2E1,8.326438E0,3.395572E0],"split_indices":[1,4,4,2,0,0,1,0,6,0,0,21,0,0,21,0,0],"split_type":[0,0,0,0,0,0,0,0,0,0,0,0,0,0,0,0,0],"sum_hessian":[3.2E1,1.3E1,1.9E1,1.1E1,2E0,1.5E1,4E0,1E0,1E1,3E0,1E0,9E0,1E0,1E0,8E0,5E0,3E0],"tree_param":{"num_deleted":"0","num_feature":"24","num_nodes":"17","size_leaf_vector":"1"}},{"base_weights":[6.965207E0,7.538203E1,-3.2747963E1,-3.580975E0,1.0462573E2,-3.8680927E1,-7.3994815E-1,1.351659E2,3.1409042E1,-4.2466674E0,-1.6403455E0,5.351772E0,1.6136057E1,6.298332E-1,3.601317E0],"categories":[],"categories_nodes":[],"categories_segments":[],"categories_sizes":[],"default_left":[0,0,0,0,0,0,0,0,0,0,0,0,0,0,0],"id":9,"left_children":[1,3,5,-1,7,9,-1,11,13,-1,-1,-1,-1,-1,-1],"loss_changes":[8.14762E4,3.9858953E4,2.3408203E3,0E0,1.5046133E4,2.7410352E2,0E0,3.1224453E3,2.40708E1,0E0,0E0,0E0,0E0,0E0,0E0],"parents":[2147483647,0,0,1,1,2,2,4,4,5,5,7,7,8,8],"right_children":[2,4,6,-1,8,10,-1,12,14,-1,-1,-1,-1,-1,-1],"split_conditions":[4.1E-1,1.7E1,1E0,-3.580975E0,2E1,1E0,-7.3994815E-1,2E0,3E1,-4.2466674E0,-1.6403455E0,5.351772E0,1.6136057E1,6.298332E-1,3.601317E0],"split_indices":[1,2,4,0,21,5,0,22,2,0,0,0,0,0,0],"split_type":[0,0,0,0,0,0,0,0,0,0,0,0,0,0,0],"sum_hessian":[2.8E1,1E1,1.8E1,2E0,8E0,1.4E1,4E0,5E0,3E0,1.1E1,3E0,2E0,3E0,1E0,2E0],"tree_param":{"num_deleted":"0","num_feature":"24","num_nodes":"15","size_leaf_vector":"1"}},{"base_weights":[6.230729E0,6.7184654E1,-2.8658693E1,-3.342243E0,9.1148315E1,-3.4943726E1,-1.3452547E1,5.509816E1,1.5523262E1,-3.851197E1,-7.356171E-1,-0E0,-1.5463798E1,6.2803204E1,-0E0,-4.023449E0,-7.2821313E-1,-1.7551954E1,-0E0,7.0289385E-1,7.0094094E0,-1.9592865E1,-1.17369846E-1,-5.8273876E-1,-2.516072E0],"categories":[],"categories_nodes":[],"categories_segments":[],"categories_sizes":[],"default_left":[0,0,0,0,0,0,0,0,0,0,0,0,0,0,0,0,0,0,0,0,0,0,0,0,0],"id":10,"left_children":[1,3,5,-1,7,9,11,13,-1,15,-1,-1,17,19,-1,-1,-1,21,-1,-1,-1,23,-1,-1,-1],"loss_changes":[7.017076E4,3.2266004E4,1.2949297E3,0E0,1.34978125E4,8.6550586E2,2.2613501E2,3.3232422E3,0E0,1.1495117E2,0E0,0E0,1.745232E2,1.9682051E3,0E0,0E0,0E0,7.373047E1,0E0,0E0,0E0,8.165918E1,0E0,0E0,0E0],"parents":[2147483647,0,0,1,1,2,2,4,4,5,5,6,6,7,7,9,9,12,12,13,13,17,17,21,21],"right_children":[2,4,6,-1,8,10,12,14,-1,16,-1,-1,18,20,-1,-1,-1,22,-1,-1,-1,24,-1,-1,-1],"split_conditions":[4.1E-1,1E0,1.2E1,-3.342243E0,1E0,1E0,4.5E1,1E0,1.5523262E1,7.2E1,-7.356171E-1,-0E0,5.4E-1,1.6E1,-0E0,-4.023449E0,-7.2821313E-1,1E0,-0E0,7.0289385E-1,7.0094094E0,4.7E-1,-1.17369846E-1,-5.8273876E-1,-2.516072E0],"split_indices":[1,18,22,0,4,4,2,6,0,2,0,0,1,21,0,0,0,5,0,0,0,1,0,0,0],"split_type":[0,0,0,0,0,0,0,0,0,0,0,0,0,0,0,0,0,0,0,0,0,0,0,0,0],"sum_hessian":[3.1E1,1.1E1,2E1,2E0,9E0,1.3E1,7E0,7E0,2E0,1.1E1,2E0,1E0,6E0,6E0,1E0,1E1,1E0,5E0,1E0,1E0,5E0,4E0,1E0,2E0,2E0],"tree_param":{"num_deleted":"0","num_feature":"24","num_nodes":"25","size_leaf_vector":"1"}},{"base_weights":[-3.0177753E0,3.748043E1,-2.741581E1,-3.921417E0,6.795798E1,-3.0340237E1,-6.8830376E0,8.318099E1,8.118286E-1,-3.365551E0,-9.901724E-1,-8.199097E-1,-0E0,6.6774905E-1,9.398533E0],"categories":[],"categories_nodes":[],"categories_segments":[],"categories_sizes":[],"default_left":[0,0,0,0,0,0,0,0,0,0,0,0,0,0,0],"id":11,"left_children":[1,3,5,-1,7,9,11,13,-1,-1,-1,-1,-1,-1,-1],"loss_changes":[3.1607605E4,3.0858195E4,8.059824E2,0E0,7.0666797E3,6.00874E2,1.2170731E1,4.65509E3,0E0,0E0,0E0,0E0,0E0,0E0,0E0],"parents":[2147483647,0,0,1,1,2,2,4,4,5,5,6,6,7,7],"right_children":[2,4,6,-1,8,10,12,14,-1,-1,-1,-1,-1,-1,-1],"split_conditions":[4.1E-1,1E0,1E0,-3.921417E0,2E1,1E0,5E-1,1.6E1,8.118286E-1,-3.365551E0,-9.901724E-1,-8.199097E-1,-0E0,6.6774905E-1,9.398533E0],"split_indices":[1,18,4,0,21,5,1,21,0,0,0,0,0,0,0],"split_type":[0,0,0,0,0,0,0,0,0,0,0,0,0,0,0],"sum_hessian":[3E1,1.1E1,1.9E1,3E0,8E0,1.6E1,3E0,6E0,2E0,1.3E1,3E0,2E0,1E0,1E0,5E0],"tree_param":{"num_deleted":"0","num_feature":"24","num_nodes":"15","size_leaf_vector":"1"}},{"base_weights":[-1.2494649E0,3.7268677E1,-2.4180664E1,-2.3493916E1,5.8346848E1,-2.7644642E1,-5.8742094E-1,-1.6178437E-1,-2.8579993E0,3.343728E1,8.6101875E1,-3.1244037E0,-1.1037405E0,4.126595E1,7.5770724E-1,1.1019897E0,1.0578924E1,6.3436127E-1,4.716063E0],"categories":[],"categories_nodes":[],"categories_segments":[],"categories_sizes":[],"default_left":[0,0,0,0,0,0,0,0,0,0,0,0,0,0,0,0,0,0,0],"id":12,"left_children":[1,3,5,7,9,11,-1,-1,-1,13,15,-1,-1,17,-1,-1,-1,-1,-1],"loss_changes":[3.0866822E4,1.8194994E4,1.0651045E3,2.4782642E2,3.4369492E3,5.1970703E2,0E0,0E0,0E0,8.602671E2,4.16283E3,0E0,0E0,4.6258984E2,0E0,0E0,0E0,0E0,0E0],"parents":[2147483647,0,0,1,1,2,2,3,3,4,4,5,5,9,9,10,10,13,13],"right_children":[2,4,6,8,10,12,-1,-1,-1,14,16,-1,-1,18,-1,-1,-1,-1,-1],"split_conditions":[4.1E-1,2.2E1,1E0,3.8E-1,1.2E1,1E0,-5.8742094E-1,-1.6178437E-1,-2.8579993E0,1.1E1,3.8E-1,-3.1244037E0,-1.1037405E0,1.6E1,7.5770724E-1,1.1019897E0,1.0578924E1,6.3436127E-1,4.716063E0],"split_indices":[1,2,4,1,22,5,0,0,0,22,1,0,0,21,0,0,0,0,0],"split_type":[0,0,0,0,0,0,0,0,0,0,0,0,0,0,0,0,0,0,0],"sum_hessian":[3.3E1,1.2E1,2.1E1,3E0,9E0,1.7E1,4E0,1E0,2E0,6E0,3E0,1.3E1,4E0,4E0,2E0,1E0,2E0,1E0,3E0],"tree_param":{"num_deleted":"0","num_feature":"24","num_nodes":"19","size_leaf_vector":"1"}},{"base_weights":[9.034077E0,5.954165E1,-2.0419468E1,2.628737E1,1.377906E1,-2.37299E1,-5.4042754E0,4.2585205E1,3.7320619E0,-2.8000555E1,-1.1823827E1,-7.2608745E-1,-7.9584755E-3,6.0264283E-1,4.896829E0,-1.1746644E0,1.1788399E0,-3.0763967E0,-9.6312714E-1,-1.1122538E-1,-1.565155E1,-1.9156698E0,-6.80542E-3],"categories":[],"categories_nodes":[],"categories_segments":[],"categories_sizes":[],"default_left":[0,0,0,0,0,0,0,0,0,0,0,0,0,0,0,0,0,0,0,0,0,0,0],"id":13,"left_children":[1,3,5,7,-1,9,11,13,15,17,19,-1,-1,-1,-1,-1,-1,-1,-1,-1,21,-1,-1],"loss_changes":[4.4552605E4,2.4180691E4,6.7051514E2,2.9179072E3,0E0,2.3250488E2,1.21489105E1,5.967119E2,7.621912E2,9.34668E0,1.4477808E2,0E0,0E0,0E0,0E0,0E0,0E0,0E0,0E0,0E0,1.2106232E2,0E0,0E0],"parents":[2147483647,0,0,1,1,2,2,3,3,5,5,6,6,7,7,8,8,9,9,10,10,20,20],"right_children":[2,4,6,8,-1,10,12,14,16,18,20,-1,-1,-1,-1,-1,-1,-1,-1,-1,22,-1,-1],"split_conditions":[4.1E-1,1E0,1E0,1.1E1,1.377906E1,3.7E1,1.9E1,1.6E1,1.4E1,1E0,4.7E-1,-7.2608745E-1,-7.9584755E-3,6.0264283E-1,4.896829E0,-1.1746644E0,1.1788399E0,-3.0763967E0,-9.6312714E-1,-1.1122538E-1,1E0,-1.9156698E0,-6.80542E-3],"split_indices":[1,4,4,22,0,2,21,21,2,5,1,0,0,0,0,0,0,0,0,0,5,0,0],"split_type":[0,0,0,0,0,0,0,0,0,0,0,0,0,0,0,0,0,0,0,0,0,0,0],"sum_hessian":[2.8E1,1E1,1.8E1,8E0,2E0,1.4E1,4E0,4E0,4E0,9E0,5E0,2E0,2E0,1E0,3E0,1E0,3E0,7E0,2E0,2E0,3E0,2E0,1E0],"tree_param":{"num_deleted":"0","num_feature":"24","num_nodes":"23","size_leaf_vector":"1"}},{"base_weights":[6.5785446E0,3.85833E1,-1.5903711E1,1.2446042E1,1.2860457E1,-1.931383E1,-7.749305E0,-3.8714085E0,3.4356537E1,-2.2286599E0,-5.803448E-1,-0E0,-1.2221506E1,4.0272446E1,-3.9853668E-1,1.1136971E-1,-1.03810124E-1,-1.4692013E1,-0E0,4.4995792E1,1.1045227E-1,-1.7879584E0,-6.465149E-3,5.7251054E-1,4.975339E0],"categories":[],"categories_nodes":[],"categories_segments":[],"categories_sizes":[],"default_left":[0,0,0,0,0,0,0,0,0,0,0,0,0,0,0,0,0,0,0,0,0,0,0,0,0],"id":14,"left_children":[1,3,5,7,-1,9,11,-1,13,-1,-1,15,17,19,-1,-1,-1,21,-1,23,-1,-1,-1,-1,-1],"loss_changes":[2.4471805E4,3.0634855E4,2.7116504E2,1.4759619E4,0E0,2.5233301E2,2.6641226E2,0E0,2.3833809E3,0E0,0E0,5.713605E0,1.1659491E2,1.1998281E3,0E0,0E0,0E0,9.562579E1,0E0,7.4560254E2,0E0,0E0,0E0,0E0,0E0],"parents":[2147483647,0,0,1,1,2,2,3,3,5,5,6,6,8,8,11,11,12,12,13,13,17,17,19,19],"right_children":[2,4,6,8,-1,10,12,-1,14,-1,-1,16,18,20,-1,-1,-1,22,-1,24,-1,-1,-1,-1,-1],"split_conditions":[4.1E-1,1E0,1.2E1,1E0,1.2860457E1,1E0,4.7E-1,-3.8714085E0,1E0,-2.2286599E0,-5.803448E-1,4.5E1,5.4E-1,2E1,-3.9853668E-1,1.1136971E-1,-1.03810124E-1,1E0,-0E0,1.6E1,1.1045227E-1,-1.7879584E0,-6.465149E-3,5.7251054E-1,4.975339E0],"split_indices":[1,4,22,18,0,4,1,0,6,0,0,2,1,21,0,0,0,5,0,21,0,0,0,0,0],"split_type":[0,0,0,0,0,0,0,0,0,0,0,0,0,0,0,0,0,0,0,0,0,0,0,0,0],"sum_hessian":[3.2E1,1.3E1,1.9E1,1.1E1,2E0,1.2E1,7E0,3E0,8E0,9E0,3E0,3E0,4E0,7E0,1E0,1E0,2E0,3E0,1E0,6E0,1E0,2E0,1E0,1E0,5E0],"tree_param":{"num_deleted":"0","num_feature":"24","num_nodes":"25","size_leaf_vector":"1"}},{"base_weights":[9.5956445E-1,-1.0879408E1,7.0433685E1,2.2054213E1,-1.8867836E1,1.2003094E1,-9.747874E-2,2.8979496E1,-3.7861022E-1,-2.274811E1,1.4210106E1,3.6412048E0,1.0220444E0,-2.5466337E1,-7.4128695E0,2.844272E0,-4.6275598E-1,-2.8367298E0,-6.971157E-1,-1.7092987E0,3.0715382E-1],"categories":[],"categories_nodes":[],"categories_segments":[],"categories_sizes":[],"default_left":[0,0,0,0,0,0,0,0,0,0,0,0,0,0,0,0,0,0,0,0,0],"id":15,"left_children":[1,3,5,7,9,-1,-1,11,-1,13,15,-1,-1,17,19,-1,-1,-1,-1,-1,-1],"loss_changes":[2.8206621E4,8.0297324E3,1.8420607E4,1.3093953E3,3.446377E3,0E0,0E0,9.182861E1,0E0,5.638877E2,1.0550237E3,0E0,0E0,5.9132227E2,6.300604E2,0E0,0E0,0E0,0E0,0E0,0E0],"parents":[2147483647,0,0,1,1,2,2,3,3,4,4,7,7,9,9,10,10,13,13,14,14],"right_children":[2,4,6,8,10,-1,-1,12,-1,14,16,-1,-1,18,20,-1,-1,-1,-1,-1,-1],"split_conditions":[1E0,3.8E-1,4.1E-1,1E0,2.1E1,1.2003094E1,-9.747874E-2,2E0,-3.7861022E-1,1E0,4.1E-1,3.6412048E0,1.0220444E0,1E0,2E1,2.844272E0,-4.6275598E-1,-2.8367298E0,-6.971157E-1,-1.7092987E0,3.0715382E-1],"split_indices":[4,1,1,6,21,0,0,22,0,7,1,0,0,5,2,0,0,0,0,0,0],"split_type":[0,0,0,0,0,0,0,0,0,0,0,0,0,0,0,0,0,0,0,0,0],"sum_hessian":[3.2E1,2.8E1,4E0,5E0,2.3E1,2E0,2E0,4E0,1E0,2.1E1,2E0,2E0,2E0,1.7E1,4E0,1E0,1E0,1.4E1,3E0,2E0,2E0],"tree_param":{"num_deleted":"0","num_feature":"24","num_nodes":"21","size_leaf_vector":"1"}},{"base_weights":[4.9453096E0,-4.6599584E0,7.939981E1,1.4454833E1,-1.7756395E1,1.1202888E1,-6.743706E-1,-3.368298E0,3.2764473E1,-2.2164009E0,-6.319919E0,3.7759815E1,-3.5967943E-1,-0E0,-1.22037735E1,4.927826E-1,4.0622833E1,-1.4796458E0,-0E0,4.8726697E0,1.90873E1,8.957138E-2,2.3185923E0],"categories":[],"categories_nodes":[],"categories_segments":[],"categories_sizes":[],"default_left":[0,0,0,0,0,0,0,0,0,0,0,0,0,0,0,0,0,0,0,0,0,0,0],"id":16,"left_children":[1,3,5,7,9,-1,-1,-1,11,-1,13,15,-1,-1,17,-1,19,-1,-1,-1,21,-1,-1],"loss_changes":[2.5058982E4,8.0335796E3,1.2525049E4,1.2557031E4,6.75249E2,0E0,0E0,0E0,2.122999E3,0E0,3.161387E2,4.1805273E2,0E0,0E0,6.107715E1,0E0,1.2703711E2,0E0,0E0,0E0,1.570658E2,0E0,0E0],"parents":[2147483647,0,0,1,1,2,2,3,3,4,4,8,8,10,10,11,11,14,14,16,16,20,20],"right_children":[2,4,6,8,10,-1,-1,-1,12,-1,14,16,-1,-1,18,-1,20,-1,-1,-1,22,-1,-1],"split_conditions":[1E0,4.1E-1,4.1E-1,1E0,1.2E1,1.1202888E1,-6.743706E-1,-3.368298E0,1E0,-2.2164009E0,4.7E-1,1.6E1,-3.5967943E-1,-0E0,1E0,4.927826E-1,2E1,-1.4796458E0,-0E0,4.8726697E0,3E1,8.957138E-2,2.3185923E0],"split_indices":[4,1,1,18,22,0,0,0,6,0,1,21,0,0,5,0,21,0,0,0,2,0,0],"split_type":[0,0,0,0,0,0,0,0,0,0,0,0,0,0,0,0,0,0,0,0,0,0,0],"sum_hessian":[3.3E1,3E1,3E0,1.2E1,1.8E1,2E0,1E0,3E0,9E0,1.2E1,6E0,8E0,1E0,3E0,3E0,1E0,7E0,2E0,1E0,4E0,3E0,1E0,2E0],"tree_param":{"num_deleted":"0","num_feature":"24","num_nodes":"23","size_leaf_vector":"1"}},{"base_weights":[4.00594E-1,2.2872015E1,-1.3690338E1,-3.1156754E1,4.089411E1,-1.6878418E1,-3.733247E0,-6.12109E-1,-3.5794945E0,4.6166916E1,-3.416954E-1,-1.891519E1,-4.7893066E0,-0E0,-1.2357521E0,5.5006676E1,1.7905605E1,-2.1238675E0,-7.127684E-1,-0E0,-5.875356E-1,2.880241E1,7.867822E0,4.966619E-1,2.5861282E0,3.2530785E0,4.4444582E-1],"categories":[],"categories_nodes":[],"categories_segments":[],"categories_sizes":[],"default_left":[0,0,0,0,0,0,0,0,0,0,0,0,0,0,0,0,0,0,0,0,0,0,0,0,0,0,0],"id":17,"left_children":[1,3,5,7,9,11,13,-1,-1,15,-1,17,19,-1,-1,21,23,-1,-1,-1,-1,25,-1,-1,-1,-1,-1],"loss_changes":[1.1441549E4,1.4954776E4,5.322988E2,3.579663E1,2.94158E3,1.8485156E2,2.0785672E2,0E0,0E0,1.1487441E3,0E0,6.2830566E1,1.1809593E1,0E0,0E0,1.538541E3,1.2917102E2,0E0,0E0,0E0,0E0,1.2461963E2,0E0,0E0,0E0,0E0,0E0],"parents":[2147483647,0,0,1,1,2,2,3,3,4,4,5,5,6,6,9,9,11,11,12,12,15,15,16,16,21,21],"right_children":[2,4,6,8,10,12,14,-1,-1,16,-1,18,20,-1,-1,22,24,-1,-1,-1,-1,26,-1,-1,-1,-1,-1],"split_conditions":[4.1E-1,1E0,1.2E1,4E-1,1E0,1E0,6.9E1,-6.12109E-1,-3.5794945E0,2E1,-3.416954E-1,1E0,4.5E-1,-0E0,-1.2357521E0,3.8E-1,1E0,-2.1238675E0,-7.127684E-1,-0E0,-5.875356E-1,3E1,7.867822E0,4.966619E-1,2.5861282E0,3.2530785E0,4.4444582E-1],"split_indices":[1,18,22,1,6,4,2,0,0,21,0,5,1,0,0,1,5,0,0,0,0,2,0,0,0,0,0],"split_type":[0,0,0,0,0,0,0,0,0,0,0,0,0,0,0,0,0,0,0,0,0,0,0,0,0,0,0],"sum_hessian":[3.4E1,1.3E1,2.1E1,3E0,1E1,1.5E1,6E0,1E0,2E0,9E0,1E0,1.2E1,3E0,5E0,1E0,6E0,3E0,9E0,3E0,1E0,2E0,4E0,2E0,2E0,1E0,3E0,1E0],"tree_param":{"num_deleted":"0","num_feature":"24","num_nodes":"27","size_leaf_vector":"1"}},{"base_weights":[3.925429E0,3.246526E1,-1.4187436E1,-2.921398E0,5.2397232E1,-1.7700771E1,-5.201503E0,2.986773E1,1.0085333E1,-1.8981148E1,-4.585551E0,-0E0,-9.237536E0,3.5037725E0,-3.2461092E-1,-2.153825E0,-6.5931076E-1,-0E0,-6.112747E-1,-1.1155014E1,-0E0,-1.3398112E0,-0E0],"categories":[],"categories_nodes":[],"categories_segments":[],"categories_sizes":[],"default_left":[0,0,0,0,0,0,0,0,0,0,0,0,0,0,0,0,0,0,0,0,0,0,0],"id":18,"left_children":[1,3,5,-1,7,9,11,13,-1,15,17,-1,19,-1,-1,-1,-1,-1,-1,21,-1,-1,-1],"loss_changes":[1.864482E4,1.8858094E4,4.879707E2,0E0,8.342742E3,4.701416E1,2.1021535E2,1.813479E3,0E0,1.2914648E2,1.1649521E1,0E0,7.1076965E1,0E0,0E0,0E0,0E0,0E0,0E0,4.0790833E1,0E0,0E0,0E0],"parents":[2147483647,0,0,1,1,2,2,4,4,5,5,6,6,7,7,9,9,10,10,12,12,19,19],"right_children":[2,4,6,-1,8,10,12,14,-1,16,18,-1,20,-1,-1,-1,-1,-1,-1,22,-1,-1,-1],"split_conditions":[4.1E-1,1E0,1.2E1,-2.921398E0,1E0,1E0,4.7E-1,1E0,1.0085333E1,1E0,4.5E-1,-0E0,5.4E-1,3.5037725E0,-3.2461092E-1,-2.153825E0,-6.5931076E-1,-0E0,-6.112747E-1,1E0,-0E0,-1.3398112E0,-0E0],"split_indices":[1,18,22,0,4,4,1,6,0,5,1,0,1,0,0,0,0,0,0,5,0,0,0],"split_type":[0,0,0,0,0,0,0,0,0,0,0,0,0,0,0,0,0,0,0,0,0,0,0],"sum_hessian":[3.4E1,1.3E1,2.1E1,3E0,1E1,1.4E1,7E0,8E0,2E0,1.2E1,2E0,3E0,4E0,7E0,1E0,9E0,3E0,1E0,1E0,3E0,1E0,2E0,1E0],"tree_param":{"num_deleted":"0","num_feature":"24","num_nodes":"23","size_leaf_vector":"1"}},{"base_weights":[5.822555E0,4.1100113E1,-1.3621229E1,1.8301325E1,9.412977E0,-1.5568584E0,-3.665448E0,-2.4766426E0,2.7405598E1,-5.0761515E-1,-0E0,1.3030091E-1,3.023411E1,3.3740203E0,2.0987701E-1],"categories":[],"categories_nodes":[],"categories_segments":[],"categories_sizes":[],"default_left":[0,0,0,0,0,0,0,0,0,0,0,0,0,0,0],"id":19,"left_children":[1,3,5,7,-1,-1,9,-1,11,-1,-1,-1,13,-1,-1],"loss_changes":[2.1275105E4,1.1014277E4,2.345127E2,4.22084E3,0E0,0E0,1.0124397E1,0E0,3.935708E2,0E0,0E0,0E0,4.405083E2,0E0,0E0],"parents":[2147483647,0,0,1,1,2,2,3,3,6,6,8,8,12,12],"right_children":[2,4,6,8,-1,-1,10,-1,12,-1,-1,-1,14,-1,-1],"split_conditions":[4.1E-1,1E0,1E0,1E0,9.412977E0,-1.5568584E0,1.9E1,-2.4766426E0,1.6E1,-5.0761515E-1,-0E0,1.3030091E-1,2E1,3.3740203E0,2.0987701E-1],"split_indices":[1,4,4,18,0,0,21,0,21,0,0,0,21,0,0],"split_type":[0,0,0,0,0,0,0,0,0,0,0,0,0,0,0],"sum_hessian":[2.9E1,1E1,1.9E1,8E0,2E0,1.5E1,4E0,1E0,7E0,2E0,2E0,1E0,6E0,5E0,1E0],"tree_param":{"num_deleted":"0","num_feature":"24","num_nodes":"15","size_leaf_vector":"1"}},{"base_weights":[3.341657E0,2.7669233E1,-1.1639302E1,-2.5165451E1,4.6536182E1,-3.6038954E0,-1.592233E1,-3.1160203E-1,-2.980992E0,2.4599806E1,8.785446E0,-1.021034E0,-0E0,-1.8804455E0,-3.486437E-1,7.863559E0,3.8120162E0,-1.5125714E-1,1.0615616E0,9.206562E-1,-0E0,2.1019974E-1,-0E0],"categories":[],"categories_nodes":[],"categories_segments":[],"categories_sizes":[],"default_left":[0,0,0,0,0,0,0,0,0,0,0,0,0,0,0,0,0,0,0,0,0,0,0],"id":20,"left_children":[1,3,5,7,9,11,13,-1,-1,15,-1,-1,17,-1,-1,19,-1,-1,21,-1,-1,-1,-1],"loss_changes":[1.2429064E4,1.4236739E4,5.6772E2,1.5211377E2,6.340258E3,1.9586055E2,2.8892798E2,0E0,0E0,1.2805615E3,0E0,0E0,1.365914E1,0E0,0E0,2.9865356E1,0E0,0E0,8.747528E0,0E0,0E0,0E0,0E0],"parents":[2147483647,0,0,1,1,2,2,3,3,4,4,5,5,6,6,9,9,12,12,15,15,18,18],"right_children":[2,4,6,8,10,12,14,-1,-1,16,-1,-1,18,-1,-1,20,-1,-1,22,-1,-1,-1,-1],"split_conditions":[4.1E-1,1E0,4.8E-1,4E-1,1E0,4.4E-1,1E0,-3.1160203E-1,-2.980992E0,1E0,8.785446E0,-1.021034E0,4.4E1,-1.8804455E0,-3.486437E-1,3.8E-1,3.8120162E0,-1.5125714E-1,1E0,9.206562E-1,-0E0,2.1019974E-1,-0E0],"split_indices":[1,18,1,1,4,1,5,0,0,5,0,0,2,0,0,1,0,0,6,0,0,0,0],"split_type":[0,0,0,0,0,0,0,0,0,0,0,0,0,0,0,0,0,0,0,0,0,0,0],"sum_hessian":[3.2E1,1.2E1,2E1,3E0,9E0,8E0,1.2E1,1E0,2E0,7E0,2E0,2E0,6E0,9E0,3E0,4E0,3E0,3E0,3E0,3E0,1E0,2E0,1E0],"tree_param":{"num_deleted":"0","num_feature":"24","num_nodes":"23","size_leaf_vector":"1"}},{"base_weights":[3.213536E0,-5.622559E0,4.0328342E1,-1.4456278E1,1.4331128E1,8.19975E0,-0E0,-0E0,-1.7230915E1,3.5261154E0,-4.2791185E-1,-5.23114E-1,2.9043376E-1,-1.8969008E0,-2.288882E0,-0E0,-4.6790963E-1],"categories":[],"categories_nodes":[],"categories_segments":[],"categories_sizes":[],"default_left":[0,0,0,0,0,0,0,0,0,0,0,0,0,0,0,0,0],"id":21,"left_children":[1,3,5,7,9,-1,-1,11,13,-1,-1,-1,-1,-1,15,-1,-1],"loss_changes":[1.0238776E4,4.614432E3,1.0412516E4,6.9185547E2,3.4219004E3,0E0,0E0,8.003518E1,2.3985205E2,0E0,0E0,0E0,0E0,0E0,2.8070942E1,0E0,0E0],"parents":[2147483647,0,0,1,1,2,2,3,3,4,4,7,7,8,8,14,14],"right_children":[2,4,6,8,10,-1,-1,12,14,-1,-1,-1,-1,-1,16,-1,-1],"split_conditions":[1E0,1E0,4.1E-1,3.8E-1,4.1E-1,8.19975E0,-0E0,2.2E1,1E0,3.5261154E0,-4.2791185E-1,-5.23114E-1,2.9043376E-1,-1.8969008E0,4.1E-1,-0E0,-4.6790963E-1],"split_indices":[4,5,1,1,1,0,0,2,7,0,0,0,0,0,1,0,0],"split_type":[0,0,0,0,0,0,0,0,0,0,0,0,0,0,0,0,0],"sum_hessian":[2.9E1,2.4E1,5E0,1.7E1,7E0,2E0,3E0,3E0,1.4E1,3E0,4E0,1E0,2E0,1.2E1,2E0,1E0,1E0],"tree_param":{"num_deleted":"0","num_feature":"24","num_nodes":"17","size_leaf_vector":"1"}},{"base_weights":[-4.5167418E0,-9.00552E0,1.8728252E1,8.573443E0,-1.281867E1,4.883185E0,-0E0,2.1882584E0,-0E0,-1.4295933E1,-3.9367905E-1,-4.9695817E-1,3.013738E-1,-1.6421024E1,-6.4755783E0,-2.6557994E0,-1.1709031E1,-1.2492117E0,2.0383327E-1,-1.3177276E0,-1.7346191E-1],"categories":[],"categories_nodes":[],"categories_segments":[],"categories_sizes":[],"default_left":[0,0,0,0,0,0,0,0,0,0,0,0,0,0,0,0,0,0,0,0,0],"id":22,"left_children":[1,3,5,7,9,-1,-1,-1,11,13,-1,-1,-1,15,17,-1,19,-1,-1,-1,-1],"loss_changes":[3.250293E3,1.8739385E3,3.0153613E3,5.901753E2,1.4121533E2,0E0,0E0,0E0,7.6641335E1,7.8322754E1,0E0,0E0,0E0,1.18645996E2,3.8507764E2,0E0,6.3676758E1,0E0,0E0,0E0,0E0],"parents":[2147483647,0,0,1,1,2,2,3,3,4,4,8,8,9,9,13,13,14,14,16,16],"right_children":[2,4,6,8,10,-1,-1,-1,12,14,-1,-1,-1,16,18,-1,20,-1,-1,-1,-1],"split_conditions":[1E0,3.8E-1,4.1E-1,1.6E1,1E0,4.883185E0,-0E0,2.1882584E0,2.2E1,1E0,-3.9367905E-1,-4.9695817E-1,3.013738E-1,4.1E-1,2.5E1,-2.6557994E0,1.2E1,-1.2492117E0,2.0383327E-1,-1.3177276E0,-1.7346191E-1],"split_indices":[4,1,1,2,5,0,0,0,2,7,0,0,0,1,2,0,22,0,0,0,0],"split_type":[0,0,0,0,0,0,0,0,0,0,0,0,0,0,0,0,0,0,0,0,0],"sum_hessian":[2.9E1,2.5E1,4E0,4E0,2.1E1,1E0,3E0,1E0,3E0,1.7E1,4E0,1E0,2E0,1.2E1,5E0,2E0,1E1,3E0,2E0,8E0,2E0],"tree_param":{"num_deleted":"0","num_feature":"24","num_nodes":"21","size_leaf_vector":"1"}},{"base_weights":[3.7237837E0,2.3361736E1,-8.977075E0,7.17054E0,7.327554E0,-7.9315794E-1,-1.0660981E1,-1.2662447E1,1.6815716E1,-5.5080646E-1,5.125847E-2,-1.1392568E1,-0E0,-6.8386845E-2,-1.4760684E0,7.0086365E0,2.915797E0,-1.2954454E0,-2.6087666E-1,7.95282E-1,-0E0],"categories":[],"categories_nodes":[],"categories_segments":[],"categories_sizes":[],"default_left":[0,0,0,0,0,0,0,0,0,0,0,0,0,0,0,0,0,0,0,0,0],"id":23,"left_children":[1,3,5,7,-1,9,11,13,15,-1,-1,17,-1,-1,-1,19,-1,-1,-1,-1,-1],"loss_changes":[8.263046E3,9.578479E3,2.0989246E2,2.3379138E3,0E0,5.858302E1,1.2835486E2,1.3218445E1,5.8314087E2,0E0,0E0,9.41781E1,0E0,0E0,0E0,2.1510803E1,0E0,0E0,0E0,0E0,0E0],"parents":[2147483647,0,0,1,1,2,2,3,3,5,5,6,6,7,7,8,8,11,11,15,15],"right_children":[2,4,6,8,-1,10,12,14,16,-1,-1,18,-1,-1,-1,20,-1,-1,-1,-1,-1],"split_conditions":[4.1E-1,1E0,4.7E-1,2.2E1,7.327554E0,4.3E-1,5.4E-1,1.4E1,1E0,-5.5080646E-1,5.125847E-2,1E0,-0E0,-6.8386845E-2,-1.4760684E0,3.8E-1,2.915797E0,-1.2954454E0,-2.6087666E-1,7.95282E-1,-0E0],"split_indices":[1,4,1,2,0,1,1,2,5,0,0,5,0,0,0,1,0,0,0,0,0],"split_type":[0,0,0,0,0,0,0,0,0,0,0,0,0,0,0,0,0,0,0,0,0],"sum_hessian":[3.1E1,1.2E1,1.9E1,1E1,2E0,4E0,1.5E1,3E0,7E0,1E0,3E0,1.4E1,1E0,1E0,2E0,5E0,2E0,1.1E1,3E0,4E0,1E0],"tree_param":{"num_deleted":"0","num_feature":"24","num_nodes":"21","size_leaf_vector":"1"}},{"base_weights":[2.589989E0,2.0569914E1,-7.924966E0,5.203397E0,6.8390503E0,-1.0492848E1,-1.494565E0,-2.4295442E0,1.5013743E1,-1.1780912E0,-2.7554473E-1,2.0192184E0,-5.0066786E0,1.8511227E1,-3.9830628E-1,2.7058384E-1,-0E0,-6.3365536E0,-0E0,2.3187027E1,1.3225505E-1,-7.969488E-1,-0E0,2.6790838E0,8.398438E-3],"categories":[],"categories_nodes":[],"categories_segments":[],"categories_sizes":[],"default_left":[0,0,0,0,0,0,0,0,0,0,0,0,0,0,0,0,0,0,0,0,0,0,0,0,0],"id":24,"left_children":[1,3,5,7,-1,9,11,-1,13,-1,-1,15,17,19,-1,-1,-1,21,-1,23,-1,-1,-1,-1,-1],"loss_changes":[6.6542163E3,8.829033E3,2.87656E2,3.501689E3,0E0,4.435034E1,1.23773346E2,0E0,7.4434143E2,0E0,0E0,5.655712E0,3.5273483E1,4.8975244E2,0E0,0E0,0E0,2.9930542E1,0E0,3.6293018E2,0E0,0E0,0E0,0E0,0E0],"parents":[2147483647,0,0,1,1,2,2,3,3,5,5,6,6,8,8,11,11,12,12,13,13,17,17,19,19],"right_children":[2,4,6,8,-1,10,12,-1,14,-1,-1,16,18,20,-1,-1,-1,22,-1,24,-1,-1,-1,-1,-1],"split_conditions":[4.1E-1,1E0,1.2E1,1E0,6.8390503E0,1E0,4.7E-1,-2.4295442E0,1E0,-1.1780912E0,-2.7554473E-1,1E0,5.4E-1,2E1,-3.9830628E-1,2.7058384E-1,-0E0,1E0,-0E0,1E0,1.3225505E-1,-7.969488E-1,-0E0,2.6790838E0,8.398438E-3],"split_indices":[1,4,22,18,0,4,1,0,6,0,0,6,1,21,0,0,0,5,0,3,0,0,0,0,0],"split_type":[0,0,0,0,0,0,0,0,0,0,0,0,0,0,0,0,0,0,0,0,0,0,0,0,0],"sum_hessian":[3.3E1,1.2E1,2.1E1,1E1,2E0,1.4E1,7E0,2E0,8E0,1.1E1,3E0,3E0,4E0,7E0,1E0,2E0,1E0,3E0,1E0,5E0,2E0,2E0,1E0,4E0,1E0],"tree_param":{"num_deleted":"0","num_feature":"24","num_nodes":"25","size_leaf_vector":"1"}}]},"name":"gbtree"},"learner_model_param":{"base_score":"1.8066667E2","boost_from_average":"1","num_class":"0","num_feature":"24","num_target":"1"},"objective":{"name":"reg:squarederror","reg_loss_param":{"scale_pos_weight":"1"}}},"version":[3,0,2]}