{"learner":{"attributes":{"scikit_learn":"{\"_estimator_type\": \"regressor\"}"},"feature_names":[],"feature_types":[],"gradient_booster":{"model":{"gbtree_model_param":{"num_parallel_tree":"1","num_trees":"25"},"iteration_indptr":[0,1,2,3,4,5,6,7,8,9,10,11,12,13,14,15,16,17,18,19,20,21,22,23,24,25],"tree_info":[0,0,0,0,0,0,0,0,0,0,0,0,0,0,0,0,0,0,0,0,0,0,0,0,0],"trees":[{"base_weights":[6.8057613E0,1.3371686E2,-1.3387427E2,3.5059917E1,7.860582E1,-5.798447E1,-1.4653085E2,2.2140903E1,2.587242E1,-6.826268E0,-0E0,-1.535628E1,-7.8252177E0,-4.7705616E1,7.345448E1,-7.1613525E1,1.6763588E1,3.6116306E1,1.1558696E1,-4.5434776E-1,-8.941304E0,-2.1576081E-1,2.5456522E0,-1.4521729E0,6.223732E1,1.0513588E1,-2.715761E0,7.154783E0,5.3423923E-1,-4.5434776E-1,3.0342393E0],"categories":[],"categories_nodes":[],"categories_segments":[],"categories_sizes":[],"default_left":[0,0,0,0,0,0,0,0,0,0,0,0,0,0,0,0,0,0,0,0,0,0,0,0,0,0,0,0,0,0,0],"id":0,"left_children":[1,3,5,-1,7,9,11,13,-1,-1,-1,-1,-1,15,17,19,21,23,-1,-1,-1,-1,-1,25,27,29,-1,-1,-1,-1,-1],"loss_changes":[1.3926475E6,4.603518E5,2.6019562E4,0E0,3.386598E5,4.423367E3,1.7084375E3,1.0040296E5,0E0,0E0,0E0,0E0,0E0,1.9970635E4,2.0237305E4,9.868301E3,8.2934265E2,1.0207574E4,0E0,0E0,0E0,0E0,0E0,1.9066693E3,2.4116348E3,1.461109E3,0E0,0E0,0E0,0E0,0E0],"parents":[2147483647,0,0,1,1,2,2,4,4,5,5,6,6,7,7,13,13,14,14,15,15,16,16,17,17,23,23,24,24,25,25],"right_children":[2,4,6,-1,8,10,12,14,-1,-1,-1,-1,-1,16,18,20,22,24,-1,-1,-1,-1,-1,26,28,30,-1,-1,-1,-1,-1],"split_conditions":[1E0,3.6E1,3.6E1,3.5059917E1,1E0,1E0,1E0,5E0,2.587242E1,-6.826268E0,-0E0,-1.535628E1,-7.8252177E0,1E0,5.1E1,2.9E1,7E0,7E0,1.1558696E1,-4.5434776E-1,-8.941304E0,-2.1576081E-1,2.5456522E0,8E0,1E0,4E-1,-2.715761E0,7.154783E0,5.3423923E-1,-4.5434776E-1,3.0342393E0],"split_indices":[18,0,0,0,4,4,4,22,0,0,0,0,0,5,2,2,21,21,0,0,0,0,0,22,6,1,0,0,0,0,0],"split_type":[0,0,0,0,0,0,0,0,0,0,0,0,0,0,0,0,0,0,0,0,0,0,0,0,0,0,0,0,0,0,0],"sum_hessian":[7.6E1,4E1,3.6E1,7E0,3.3E1,6E0,3E1,2.6E1,7E0,5E0,1E0,2.6E1,4E0,1.1E1,1.5E1,8E0,3E0,9E0,6E0,2E0,6E0,1E0,2E0,4E0,5E0,3E0,1E0,4E0,1E0,2E0,1E0],"tree_param":{"num_deleted":"0","num_feature":"24","num_nodes":"31","size_leaf_vector":"1"}},{"base_weights":[1.3510977E1,1.07956696E2,-1.2214492E2,3.1992176E1,5.7715664E1,-1.2937655E1,-1.2268056E1,1.7462988E1,2.2126776E1,-0E0,-2.0244477E0,-4.3471867E1,6.0779106E1,-1.640125E1,-9.903045E0,7.429517E1,-2.9899637E1,-3.3061413E1,1.5604347E1,1.8622217E1,9.088431E1,5.075272E-1,-5.242473E0,-3.7094837E1,-1.9304352E-1,-1.9304352E-1,2.375942E0,3.7427635E0,-2.579973E0,2.5520275E0,1.0779556E1,-4.2693915E0,-2.0497285E-1,-3.0735002E0,3.7063043E0],"categories":[],"categories_nodes":[],"categories_segments":[],"categories_sizes":[],"default_left":[0,0,0,0,0,0,0,0,0,0,0,0,0,0,0,0,0,0,0,0,0,0,0,0,0,0,0,0,0,0,0,0,0,0,0],"id":1,"left_children":[1,3,5,-1,7,-1,9,11,-1,-1,-1,13,15,17,-1,19,21,23,25,27,29,-1,-1,31,-1,-1,-1,-1,-1,33,-1,-1,-1,-1,-1],"loss_changes":[9.35588E5,4.375691E5,2.1542281E4,0E0,2.319451E5,0E0,3.68162E2,8.191255E4,0E0,0E0,0E0,1.7350682E4,2.4504547E4,5.9353726E3,0E0,1.25370625E4,2.8662556E3,6.1221533E2,7.270007E2,5.200629E3,1.7098883E4,0E0,0E0,8.660918E2,0E0,0E0,0E0,0E0,0E0,4.61708E3,0E0,0E0,0E0,0E0,0E0],"parents":[2147483647,0,0,1,1,2,2,4,4,6,6,7,7,11,11,12,12,13,13,15,15,16,16,17,17,18,18,19,19,20,20,23,23,29,29],"right_children":[2,4,6,-1,8,-1,10,12,-1,-1,-1,14,16,18,-1,20,22,24,26,28,30,-1,-1,32,-1,-1,-1,-1,-1,34,-1,-1,-1,-1,-1],"split_conditions":[1E0,3.6E1,5.5E-1,3.1992176E1,1E0,-1.2937655E1,6.3E-1,6E0,2.2126776E1,-0E0,-2.0244477E0,1E0,1E0,8E0,-9.903045E0,4.1E1,4.1E1,4.6E1,2.9E1,9E0,3.5E-1,5.075272E-1,-5.242473E0,1E0,-1.9304352E-1,-1.9304352E-1,2.375942E0,3.7427635E0,-2.579973E0,5.1E1,1.0779556E1,-4.2693915E0,-2.0497285E-1,-3.0735002E0,3.7063043E0],"split_indices":[18,0,1,0,4,0,1,22,0,0,0,6,6,21,0,2,2,2,2,22,1,0,0,5,0,0,0,0,0,0,0,0,0,0,0],"split_type":[0,0,0,0,0,0,0,0,0,0,0,0,0,0,0,0,0,0,0,0,0,0,0,0,0,0,0,0,0,0,0,0,0,0,0],"sum_hessian":[7.1E1,4.2E1,2.9E1,7E0,3.5E1,2.7E1,2E0,2.9E1,6E0,1E0,1E0,1.2E1,1.7E1,9E0,3E0,1.5E1,2E0,6E0,3E0,4E0,1.1E1,1E0,1E0,5E0,1E0,1E0,2E0,3E0,1E0,2E0,9E0,4E0,1E0,1E0,1E0],"tree_param":{"num_deleted":"0","num_feature":"24","num_nodes":"35","size_leaf_vector":"1"}},{"base_weights":[-6.519804E0,9.7595566E1,-1.105941E2,2.700536E1,4.8186905E1,-1.1655359E2,-2.535329E0,-4.1769855E1,1.1972854E2,-1.21489235E2,-6.1641884E0,-0E0,-5.645386E-1,-6.14398E1,2.1514954E1,7.228021E1,2.1814848E1,-5.491348E0,-1.2648258E1,-3.0564901E1,-9.13767E0,-2.7531025E-1,4.965956E0,2.341095E0,8.432904E1,-4.5736346E0,-1.4349054E1,-2.919825E0,3.5209892E0,1.3143418E0,9.813213E0,-4.2884484E-1,-2.479574E0],"categories":[],"categories_nodes":[],"categories_segments":[],"categories_sizes":[],"default_left":[0,0,0,0,0,0,0,0,0,0,0,0,0,0,0,0,0,0,0,0,0,0,0,0,0,0,0,0,0,0,0,0,0],"id":2,"left_children":[1,3,5,-1,7,9,11,13,15,17,-1,-1,-1,19,21,23,-1,-1,-1,25,-1,-1,-1,27,29,-1,31,-1,-1,-1,-1,-1,-1],"loss_changes":[8.0186706E5,3.0066978E5,2.2936125E4,0E0,1.9846044E5,1.081375E3,4.4457077E1,1.8948822E4,6.2167688E4,2.4529688E3,0E0,0E0,0E0,6.7646562E3,3.10331E3,1.0324133E4,0E0,0E0,0E0,7.654253E2,0E0,0E0,0E0,4.1681064E3,8.962227E3,0E0,2.7374353E2,0E0,0E0,0E0,0E0,0E0,0E0],"parents":[2147483647,0,0,1,1,2,2,4,4,5,5,6,6,7,7,8,8,9,9,13,13,14,14,15,15,19,19,23,23,24,24,26,26],"right_children":[2,4,6,-1,8,10,12,14,16,18,-1,-1,-1,20,22,24,-1,-1,-1,26,-1,-1,-1,28,30,-1,32,-1,-1,-1,-1,-1,-1],"split_conditions":[1E0,3.6E1,6.1E-1,2.700536E1,6E0,1E0,6.3E-1,5E0,1E0,3.6E1,-6.1641884E0,-0E0,-5.645386E-1,1E0,4E-1,3.5E-1,2.1814848E1,-5.491348E0,-1.2648258E1,4E-1,-9.13767E0,-2.7531025E-1,4.965956E0,5.1E1,4.1E1,-4.5736346E0,4E0,-2.919825E0,3.5209892E0,1.3143418E0,9.813213E0,-4.2884484E-1,-2.479574E0],"split_indices":[18,0,1,0,22,4,1,22,4,0,0,0,0,6,1,1,0,0,0,1,0,0,0,0,2,0,22,0,0,0,0,0,0],"split_type":[0,0,0,0,0,0,0,0,0,0,0,0,0,0,0,0,0,0,0,0,0,0,0,0,0,0,0,0,0,0,0,0,0],"sum_hessian":[7.2E1,3.6E1,3.6E1,7E0,2.9E1,3.4E1,2E0,1.3E1,1.6E1,3E1,4E0,1E0,1E0,1E1,3E0,1.2E1,4E0,3E0,2.7E1,6E0,4E0,2E0,1E0,2E0,1E1,2E0,4E0,1E0,1E0,2E0,8E0,3E0,1E0],"tree_param":{"num_deleted":"0","num_feature":"24","num_nodes":"33","size_leaf_vector":"1"}},{"base_weights":[3.6916795E0,9.0260315E1,-9.878938E1,2.5755762E1,4.6991776E1,-1.0568729E2,-1.2485352E1,1.1034924E1,1.9880186E1,-1.100162E1,-5.6710534E0,-0E0,-1.7875397E0,-4.4335396E1,4.3955368E1,-5.5975113E1,7.5754647E0,5.4455494E1,-3.2030506E1,-1.487838E1,-7.074823E1,-1.7328186E-1,1.5596017E0,2.5105865E0,6.876043E1,4.1643372E-1,-5.4710097E0,-2.4672039E-1,-2.3555954E0,-8.11061E0,-2.8235703E0,-2.1289728E1,2.7140707E1,1.5841074E1,8.784407E0,-1.6962586E-1,-2.7738335E0,4.7616655E-1,3.3449395E0,3.36348E0,-2.5166917E0],"categories":[],"categories_nodes":[],"categories_segments":[],"categories_sizes":[],"default_left":[0,0,0,0,0,0,0,0,0,0,0,0,0,0,0,0,0,0,0,0,0,0,0,0,0,0,0,0,0,0,0,0,0,0,0,0,0,0,0,0,0],"id":3,"left_children":[1,3,5,-1,7,9,11,13,-1,-1,-1,-1,-1,15,17,19,21,23,25,27,29,-1,-1,31,33,-1,-1,-1,-1,-1,-1,35,37,39,-1,-1,-1,-1,-1,-1,-1],"loss_changes":[7.3634906E5,3.1211606E5,2.0711656E4,0E0,1.9872572E5,3.47875E2,3.350534E2,5.845416E4,0E0,0E0,0E0,0E0,0E0,7.9167676E3,1.7813586E4,4.5905176E3,3.2031372E2,1.2846246E4,2.943213E3,2.425625E2,2.4557812E2,0E0,0E0,3.5380962E3,1.2228539E4,0E0,0E0,0E0,0E0,0E0,0E0,1.848274E2,7.321704E1,4.537248E3,0E0,0E0,0E0,0E0,0E0,0E0,0E0],"parents":[2147483647,0,0,1,1,2,2,4,4,5,5,6,6,7,7,13,13,14,14,15,15,16,16,17,17,18,18,19,19,20,20,23,23,24,24,31,31,32,32,33,33],"right_children":[2,4,6,-1,8,10,12,14,-1,-1,-1,-1,-1,16,18,20,22,24,26,28,30,-1,-1,32,34,-1,-1,-1,-1,-1,-1,36,38,40,-1,-1,-1,-1,-1,-1,-1],"split_conditions":[1E0,3.6E1,6.1E-1,2.5755762E1,1E0,1E0,6.3E-1,5E0,1.9880186E1,-1.100162E1,-5.6710534E0,-0E0,-1.7875397E0,1E0,1E0,2.9E1,7E0,3.5E-1,4.1E1,4E0,1E0,-1.7328186E-1,1.5596017E0,8E0,4.1E1,4.1643372E-1,-5.4710097E0,-2.4672039E-1,-2.3555954E0,-8.11061E0,-2.8235703E0,7E0,5.1E1,9E0,8.784407E0,-1.6962586E-1,-2.7738335E0,4.7616655E-1,3.3449395E0,3.36348E0,-2.5166917E0],"split_indices":[18,0,1,0,4,4,1,22,0,0,0,0,0,5,6,2,21,1,2,22,3,0,0,21,2,0,0,0,0,0,0,21,0,22,0,0,0,0,0,0,0],"split_type":[0,0,0,0,0,0,0,0,0,0,0,0,0,0,0,0,0,0,0,0,0,0,0,0,0,0,0,0,0,0,0,0,0,0,0,0,0,0,0,0,0],"sum_hessian":[8.1E1,4.4E1,3.7E1,8E0,3.6E1,3.4E1,3E0,3E1,6E0,3E1,4E0,1E0,2E0,1.1E1,1.9E1,9E0,2E0,1.7E1,2E0,3E0,6E0,1E0,1E0,4E0,1.3E1,1E0,1E0,2E0,1E0,4E0,2E0,2E0,2E0,4E0,9E0,1E0,1E0,1E0,1E0,3E0,1E0],"tree_param":{"num_deleted":"0","num_feature":"24","num_nodes":"41","size_leaf_vector":"1"}},{"base_weights":[-3.9614022E0,6.459958E1,-8.868492E1,2.3326262E1,2.4059467E1,-3.8183495E1,-9.796439E1,-4.9753323E0,1.6605688E1,-4.2224293E0,-4.4693452E-1,-1.0219406E1,-4.578784E0,1.373614E1,-6.9132476E0,-3.8028326E0,5.7588337E1,-1.8425484E1,1.6153667E1,2.0105896E1,6.7560134E0,-3.269231E0,-2.544098E-1,2.9588367E1,-3.4281235E0,4.278438E0,-1.0125535E0,8.258136E-1,-2.390857E0,4.5235825E-1,3.3473668E0,-1.6114975E0,1.4816216E0],"categories":[],"categories_nodes":[],"categories_segments":[],"categories_sizes":[],"default_left":[0,0,0,0,0,0,0,0,0,0,0,0,0,0,0,0,0,0,0,0,0,0,0,0,0,0,0,0,0,0,0,0,0],"id":4,"left_children":[1,3,5,-1,7,9,11,13,-1,-1,-1,-1,-1,15,-1,17,19,21,23,25,-1,-1,27,29,31,-1,-1,-1,-1,-1,-1,-1,-1],"loss_changes":[4.41504E5,2.802812E5,1.1511906E4,0E0,1.4593194E5,5.3144336E2,7.6015625E2,3.7240832E4,0E0,0E0,0E0,0E0,0E0,1.8946867E4,0E0,5.5617036E3,8.1968164E2,2.678628E3,2.3368374E3,2.6533179E3,0E0,0E0,1.4838351E3,1.4551465E2,1.1711095E3,0E0,0E0,0E0,0E0,0E0,0E0,0E0,0E0],"parents":[2147483647,0,0,1,1,2,2,4,4,5,5,6,6,7,7,13,13,15,15,16,16,17,17,18,18,19,19,22,22,23,23,24,24],"right_children":[2,4,6,-1,8,10,12,14,-1,-1,-1,-1,-1,16,-1,18,20,22,24,26,-1,-1,28,30,32,-1,-1,-1,-1,-1,-1,-1,-1],"split_conditions":[1E0,3.6E1,3.6E1,2.3326262E1,1E0,1E0,1E0,1E0,1.6605688E1,-4.2224293E0,-4.4693452E-1,-1.0219406E1,-4.578784E0,5.1E1,-6.9132476E0,8E0,7E0,4E-1,5.1E1,6E0,6.7560134E0,-3.269231E0,9E0,3.5E-1,1E0,4.278438E0,-1.0125535E0,8.258136E-1,-2.390857E0,4.5235825E-1,3.3473668E0,-1.6114975E0,1.4816216E0],"split_indices":[18,0,0,0,4,4,4,6,0,0,0,0,0,2,0,21,21,1,0,22,0,0,22,1,5,0,0,0,0,0,0,0,0],"split_type":[0,0,0,0,0,0,0,0,0,0,0,0,0,0,0,0,0,0,0,0,0,0,0,0,0,0,0,0,0,0,0,0,0],"sum_hessian":[7.4E1,4.1E1,3.3E1,7E0,3.4E1,6E0,2.7E1,2.9E1,5E0,5E0,1E0,2.4E1,3E0,2.3E1,6E0,1.7E1,6E0,1E1,7E0,2E0,4E0,5E0,5E0,4E0,3E0,1E0,1E0,4E0,1E0,1E0,3E0,2E0,1E0],"tree_param":{"num_deleted":"0","num_feature":"24","num_nodes":"33","size_leaf_vector":"1"}},{"base_weights":[3.5333989E0,7.586767E1,-8.365008E1,2.1392914E1,3.5764E1,-3.2585987E1,-9.325004E0,8.614192E0,1.556691E1,-3.8705604E0,-0E0,-3.6108105E1,3.57437E1,-4.680242E1,6.344208E0,4.534981E1,-2.573681E1,-1.4176159E1,-5.9919524E0,-2.0590897E-1,1.4075402E0,3.9897614E0,5.420292E1,7.41275E-1,-4.8517966E0,-2.0408325E-1,-2.2791069E0,-2.4716804E0,2.346422E0,6.16553E1,2.8948048E1,3.3805292E0,7.617425E0,-9.619263E-1,4.224469E0],"categories":[],"categories_nodes":[],"categories_segments":[],"categories_sizes":[],"default_left":[0,0,0,0,0,0,0,0,0,0,0,0,0,0,0,0,0,0,0,0,0,0,0,0,0,0,0,0,0,0,0,0,0,0,0],"id":5,"left_children":[1,3,5,-1,7,9,-1,11,-1,-1,-1,13,15,17,19,21,23,25,-1,-1,-1,27,29,-1,-1,-1,-1,-1,-1,31,33,-1,-1,-1,-1],"loss_changes":[4.7297756E5,2.1810822E5,1.2999406E4,0E0,1.0526583E5,1.5558169E3,0E0,3.526104E4,0E0,0E0,0E0,5.4931963E3,1.1895822E4,2.63175E3,2.8396664E2,5.351418E3,2.830734E3,2.4750665E2,0E0,0E0,0E0,2.8098765E3,2.0890234E2,0E0,0E0,0E0,0E0,0E0,0E0,5.141836E2,3.1335684E3,0E0,0E0,0E0,0E0],"parents":[2147483647,0,0,1,1,2,2,4,4,5,5,7,7,11,11,12,12,13,13,14,14,15,15,16,16,17,17,21,21,22,22,29,29,30,30],"right_children":[2,4,6,-1,8,10,-1,12,-1,-1,-1,14,16,18,20,22,24,26,-1,-1,-1,28,30,-1,-1,-1,-1,-1,-1,32,34,-1,-1,-1,-1],"split_conditions":[1E0,3.6E1,3.6E1,2.1392914E1,1E0,1E0,-9.325004E0,5E0,1.556691E1,-3.8705604E0,-0E0,1E0,1E0,2.9E1,5.1E1,3.5E-1,4.1E1,4E0,-5.9919524E0,-2.0590897E-1,1.4075402E0,8E0,9E0,7.41275E-1,-4.8517966E0,-2.0408325E-1,-2.2791069E0,-2.4716804E0,2.346422E0,7E0,5.1E1,3.3805292E0,7.617425E0,-9.619263E-1,4.224469E0],"split_indices":[18,0,0,0,4,4,0,22,0,0,0,5,6,2,0,1,2,22,0,0,0,21,22,0,0,0,0,0,0,22,0,0,0,0,0],"split_type":[0,0,0,0,0,0,0,0,0,0,0,0,0,0,0,0,0,0,0,0,0,0,0,0,0,0,0,0,0,0,0,0,0,0,0],"sum_hessian":[7.3E1,4E1,3.3E1,8E0,3.2E1,6E0,2.7E1,2.7E1,5E0,5E0,1E0,1E1,1.7E1,8E0,2E0,1.5E1,2E0,3E0,5E0,1E0,1E0,3E0,1.2E1,1E0,1E0,2E0,1E0,1E0,2E0,8E0,4E0,4E0,4E0,1E0,3E0],"tree_param":{"num_deleted":"0","num_feature":"24","num_nodes":"35","size_leaf_vector":"1"}},{"base_weights":[-1.6854496E0,6.1039787E1,-7.346614E1,1.9670204E1,3.1166979E1,-2.5039362E1,-8.244963E1,5.245127E0,1.504281E1,-3.3183098E0,-1.4533488E0,-8.723144E1,-4.1050673E0,-3.6626358E1,3.725008E1,-0E0,-4.2458802E-1,-8.920662E0,-1.7413505E0,-5.3046463E1,1.2330486E1,1.2971733E1,6.2316756E0,-1.5946889E1,-5.9702995E1,-1.9561386E-1,1.9411408E0,-3.844212E0,4.0406704E1,-0E0,-2.1651514E0,-6.840477E0,-2.0731776E0,2.0924785E0,-2.2232177E0,-4.1059342E-1,5.827956E0,-9.5488816E-1,1.8583466E0],"categories":[],"categories_nodes":[],"categories_segments":[],"categories_sizes":[],"default_left":[0,0,0,0,0,0,0,0,0,0,0,0,0,0,0,0,0,0,0,0,0,0,0,0,0,0,0,0,0,0,0,0,0,0,0,0,0,0,0],"id":6,"left_children":[1,3,5,-1,7,9,11,13,-1,-1,15,17,-1,19,21,-1,-1,-1,-1,23,25,27,-1,29,31,-1,-1,33,35,-1,-1,-1,-1,37,-1,-1,-1,-1,-1],"loss_changes":[3.377286E5,1.5483456E5,1.2624516E4,0E0,1.0354256E5,1.1231387E3,1.5185469E3,4.023021E4,0E0,0E0,2.9718328E1,1.3610781E3,0E0,1.13080625E4,9.161016E3,0E0,0E0,0E0,0E0,1.1392188E3,5.298976E2,4.951594E3,0E0,1.7466608E2,8.4911523E2,0E0,0E0,9.113645E2,3.692433E3,0E0,0E0,0E0,0E0,1.3744893E3,0E0,0E0,0E0,0E0,0E0],"parents":[2147483647,0,0,1,1,2,2,4,4,5,5,6,6,7,7,10,10,11,11,13,13,14,14,19,19,20,20,21,21,23,23,24,24,27,27,28,28,33,33],"right_children":[2,4,6,-1,8,10,12,14,-1,-1,16,18,-1,20,22,-1,-1,-1,-1,24,26,28,-1,30,32,-1,-1,34,36,-1,-1,-1,-1,38,-1,-1,-1,-1,-1],"split_conditions":[1E0,3.6E1,3.6E1,1.9670204E1,1E0,1E0,1E0,5E0,1.504281E1,-3.3183098E0,6.3E-1,6.5E1,-4.1050673E0,1E0,5.1E1,-0E0,-4.2458802E-1,-8.920662E0,-1.7413505E0,2.9E1,7E0,1E0,6.2316756E0,7E0,1E0,-1.9561386E-1,1.9411408E0,9E0,6E0,-0E0,-2.1651514E0,-6.840477E0,-2.0731776E0,3.5E-1,-2.2232177E0,-4.1059342E-1,5.827956E0,-9.5488816E-1,1.8583466E0],"split_indices":[18,0,0,0,4,4,4,22,0,0,1,2,0,5,2,0,0,0,0,2,21,3,0,21,3,0,0,22,22,0,0,0,0,1,0,0,0,0,0],"split_type":[0,0,0,0,0,0,0,0,0,0,0,0,0,0,0,0,0,0,0,0,0,0,0,0,0,0,0,0,0,0,0,0,0,0,0,0,0,0,0],"sum_hessian":[7.3E1,3.9E1,3.4E1,6E0,3.3E1,6E0,2.8E1,2.8E1,5E0,4E0,2E0,2.4E1,4E0,1.2E1,1.6E1,1E0,1E0,2.3E1,1E0,9E0,3E0,9E0,7E0,2E0,7E0,1E0,2E0,6E0,3E0,1E0,1E0,5E0,2E0,5E0,1E0,1E0,2E0,3E0,2E0],"tree_param":{"num_deleted":"0","num_feature":"24","num_nodes":"39","size_leaf_vector":"1"}},{"base_weights":[-1.0703128E1,4.353608E1,-6.956041E1,1.5484187E1,1.6836834E1,-3.271488E0,-7.461257E1,-3.6394543E1,5.263531E1,-7.8797264E1,-3.7766614E0,-4.4905655E1,5.27772E0,3.416595E1,1.1210392E2,-8.049357E0,-1.6542832E0,-1.2421764E1,-5.4909393E1,-1.8583298E-1,1.227491E0,1.9740154E1,8.843102E0,1.3154683E1,2.4387589E0,-1.1830597E-1,-2.056894E0,-6.270437E0,-1.9349655E0,8.844386E0,3.658366E1,-1.8398463E0,2.0896587E0,-3.900635E-1,4.8929896E0,1.2467088E0,-1.3360084E0],"categories":[],"categories_nodes":[],"categories_segments":[],"categories_sizes":[],"default_left":[0,0,0,0,0,0,0,0,0,0,0,0,0,0,0,0,0,0,0,0,0,0,0,0,0,0,0,0,0,0,0,0,0,0,0,0,0],"id":7,"left_children":[1,3,5,-1,7,-1,9,11,13,15,-1,17,19,21,23,-1,-1,25,27,-1,-1,29,-1,-1,-1,-1,-1,-1,-1,31,33,35,-1,-1,-1,-1,-1],"loss_changes":[2.2662455E5,1.0649043E5,3.3515E3,0E0,6.107051E4,0E0,9.1275E2,5.0459434E3,1.6307113E4,8.233125E2,0E0,2.555838E3,2.2469061E2,1.023857E4,2.8340586E3,0E0,0E0,2.3316052E2,5.9391797E2,0E0,0E0,2.0186206E3,0E0,0E0,0E0,0E0,0E0,0E0,0E0,1.4214155E3,2.9151465E3,1.159942E3,0E0,0E0,0E0,0E0,0E0],"parents":[2147483647,0,0,1,1,2,2,4,4,6,6,7,7,8,8,9,9,11,11,12,12,13,13,14,14,17,17,18,18,21,21,29,29,30,30,31,31],"right_children":[2,4,6,-1,8,-1,10,12,14,16,-1,18,20,22,24,-1,-1,26,28,-1,-1,30,-1,-1,-1,-1,-1,-1,-1,32,34,36,-1,-1,-1,-1,-1],"split_conditions":[1E0,3.6E1,3.6E1,1.5484187E1,5E0,-3.271488E0,1E0,1E0,1E0,6.4E1,-3.7766614E0,2.9E1,7E0,1E0,5.1E1,-8.049357E0,-1.6542832E0,4E0,1E0,-1.8583298E-1,1.227491E0,1E0,8.843102E0,1.3154683E1,2.4387589E0,-1.1830597E-1,-2.056894E0,-6.270437E0,-1.9349655E0,8E0,6E0,8E0,2.0896587E0,-3.900635E-1,4.8929896E0,1.2467088E0,-1.3360084E0],"split_indices":[18,0,0,0,22,0,4,5,4,2,0,2,21,5,2,0,0,22,3,0,0,3,0,0,0,0,0,0,0,21,22,22,0,0,0,0,0],"split_type":[0,0,0,0,0,0,0,0,0,0,0,0,0,0,0,0,0,0,0,0,0,0,0,0,0,0,0,0,0,0,0,0,0,0,0,0,0],"sum_hessian":[6.9E1,3.6E1,3.3E1,6E0,3E1,5E0,2.8E1,1.2E1,1.8E1,2.4E1,4E0,1E1,2E0,1.5E1,3E0,2.3E1,1E0,3E0,7E0,1E0,1E0,1.3E1,2E0,2E0,1E0,2E0,1E0,5E0,2E0,9E0,4E0,5E0,4E0,1E0,3E0,2E0,3E0],"tree_param":{"num_deleted":"0","num_feature":"24","num_nodes":"37","size_leaf_vector":"1"}},{"base_weights":[3.3074179E0,5.5676308E1,-6.0983143E1,1.7587324E1,2.7280426E1,-2.2891996E1,-6.640193E1,4.3668766E0,1.4028702E1,-2.5511258E0,-2.3978424E-1,-6.974352E1,-3.474529E0,-2.9148607E1,3.0469648E1,-7.6314135E0,-4.0292716E0,-4.1495148E1,1.084153E1,8.169516E0,5.1306503E1,-1.1848389E1,-5.0506634E1,-1.7654113E-1,1.7298981E0,1.4177809E1,-2.0452561E0,7.886046E0,2.355278E1,-1.10419214E-1,-1.954049E0,-5.747901E0,-1.8059677E0,-9.332798E0,2.8321913E1,-1.6675705E0,3.5933616E0,7.799428E-2,-2.233551E0,-0E0,4.1977296E0],"categories":[],"categories_nodes":[],"categories_segments":[],"categories_sizes":[],"default_left":[0,0,0,0,0,0,0,0,0,0,0,0,0,0,0,0,0,0,0,0,0,0,0,0,0,0,0,0,0,0,0,0,0,0,0,0,0,0,0,0,0],"id":8,"left_children":[1,3,5,-1,7,9,11,13,-1,-1,-1,15,-1,17,19,-1,-1,21,23,25,27,29,31,-1,-1,33,-1,-1,35,-1,-1,-1,-1,37,39,-1,-1,-1,-1,-1,-1],"loss_changes":[2.626143E5,1.4094955E5,5.25775E3,0E0,9.1881875E4,1.2136011E2,2.2779688E2,2.8015012E4,0E0,0E0,0E0,1.3733125E3,0E0,7.515496E3,7.6474316E3,0E0,0E0,2.0285781E3,4.3384247E2,1.9782969E3,4.513074E3,2.0578192E2,3.9411133E2,0E0,0E0,3.3520962E3,0E0,0E0,3.683882E3,0E0,0E0,0E0,0E0,6.5117053E2,2.2355889E3,0E0,0E0,0E0,0E0,0E0,0E0],"parents":[2147483647,0,0,1,1,2,2,4,4,5,5,6,6,7,7,11,11,13,13,14,14,17,17,18,18,19,19,20,20,21,21,22,22,25,25,28,28,33,33,34,34],"right_children":[2,4,6,-1,8,10,12,14,-1,-1,-1,16,-1,18,20,-1,-1,22,24,26,28,30,32,-1,-1,34,-1,-1,36,-1,-1,-1,-1,38,40,-1,-1,-1,-1,-1,-1],"split_conditions":[1E0,3.6E1,3.6E1,1.7587324E1,1E0,1E0,1E0,5E0,1.4028702E1,-2.5511258E0,-2.3978424E-1,1E0,-3.474529E0,1E0,5.1E1,-7.6314135E0,-4.0292716E0,2.9E1,7E0,9E0,8E0,4E0,1E0,-1.7654113E-1,1.7298981E0,3.5E-1,-2.0452561E0,7.886046E0,5.1E1,-1.10419214E-1,-1.954049E0,-5.747901E0,-1.8059677E0,7E0,7E0,-1.6675705E0,3.5933616E0,7.799428E-2,-2.233551E0,-0E0,4.1977296E0],"split_indices":[18,0,0,0,4,4,4,22,0,0,0,5,0,5,2,0,0,2,21,22,22,22,3,0,0,1,0,0,0,0,0,0,0,22,22,0,0,0,0,0,0],"split_type":[0,0,0,0,0,0,0,0,0,0,0,0,0,0,0,0,0,0,0,0,0,0,0,0,0,0,0,0,0,0,0,0,0,0,0,0,0,0,0,0,0],"sum_hessian":[7.6E1,4.2E1,3.4E1,7E0,3.5E1,5E0,2.9E1,3E1,5E0,4E0,1E0,2.5E1,4E0,1.3E1,1.7E1,1.9E1,6E0,1E1,3E0,9E0,8E0,3E0,7E0,1E0,2E0,8E0,1E0,3E0,5E0,2E0,1E0,5E0,2E0,3E0,5E0,1E0,4E0,2E0,1E0,2E0,3E0],"tree_param":{"num_deleted":"0","num_feature":"24","num_nodes":"41","size_leaf_vector":"1"}},{"base_weights":[1.0573207E0,5.5055767E1,-5.7456917E1,2.3081871E1,1.7144765E2,-1.57400465E1,-6.371839E1,-1.6998072E0,1.0900474E2,8.941978E0,2.017804E1,-2.3131835E0,-0E0,-6.758976E1,-2.9843597E0,1.1518374E1,-5.787621E0,1.2772854E1,3.9796827E0,1.3214874E-1,-2.277954E-1,-7.0650544E0,-3.1842809E0,-9.728722E0,2.868109E1,-2.1567825E1,2.3418462E0,6.088359E1,4.344391E0,-2.3455475E1,-1.6771393E-1,2.5178146E-1,7.359558E0,-1.0696884E1,3.4645479E0,-2.5296187E0,-3.7056047E-1,-2.637377E0,2.4850006E-1],"categories":[],"categories_nodes":[],"categories_segments":[],"categories_sizes":[],"default_left":[0,0,0,0,0,0,0,0,0,0,0,0,0,0,0,0,0,0,0,0,0,0,0,0,0,0,0,0,0,0,0,0,0,0,0,0,0,0,0],"id":9,"left_children":[1,3,5,7,9,11,13,15,17,-1,-1,-1,19,21,-1,23,-1,-1,-1,-1,-1,-1,-1,25,27,29,-1,31,33,35,-1,-1,-1,37,-1,-1,-1,-1,-1],"loss_changes":[2.3064814E5,1.364871E5,7.7421016E3,6.6730516E4,4.0589062E2,6.538331E2,1.4299609E3,1.9462176E4,3.1500234E3,0E0,0E0,0E0,1.3870808E1,8.258594E1,0E0,8.0316074E3,0E0,0E0,0E0,0E0,0E0,0E0,0E0,4.420161E3,8.81379E3,1.3537207E2,0E0,3.1438594E3,4.1364775E3,1.5729736E1,0E0,0E0,0E0,1.424888E3,0E0,0E0,0E0,0E0,0E0],"parents":[2147483647,0,0,1,1,2,2,3,3,4,4,5,5,6,6,7,7,8,8,12,12,13,13,15,15,23,23,24,24,25,25,27,27,28,28,29,29,33,33],"right_children":[2,4,6,8,10,12,14,16,18,-1,-1,-1,20,22,-1,24,-1,-1,-1,-1,-1,-1,-1,26,28,30,-1,32,34,36,-1,-1,-1,38,-1,-1,-1,-1,-1],"split_conditions":[1E0,1E0,3.6E1,1.2E1,7E0,1E0,1E0,1E0,3.6E1,8.941978E0,2.017804E1,-2.3131835E0,6.3E-1,1E0,-2.9843597E0,6E0,-5.787621E0,1.2772854E1,3.9796827E0,1.3214874E-1,-2.277954E-1,-7.0650544E0,-3.1842809E0,1E1,8E0,1E0,2.3418462E0,3.5E-1,1E0,5E0,-1.6771393E-1,2.5178146E-1,7.359558E0,1E0,3.4645479E0,-2.5296187E0,-3.7056047E-1,-2.637377E0,2.4850006E-1],"split_indices":[18,4,0,22,21,4,5,6,0,0,0,0,1,4,0,22,0,0,0,0,0,0,0,21,22,5,0,1,3,22,0,0,0,7,0,0,0,0,0],"split_type":[0,0,0,0,0,0,0,0,0,0,0,0,0,0,0,0,0,0,0,0,0,0,0,0,0,0,0,0,0,0,0,0,0,0,0,0,0,0,0],"sum_hessian":[7.1E1,3.7E1,3.4E1,3E1,7E0,5E0,2.9E1,2.4E1,6E0,3E0,4E0,3E0,2E0,2.5E1,4E0,2E1,4E0,4E0,2E0,1E0,1E0,2.2E1,3E0,9E0,1.1E1,7E0,2E0,4E0,7E0,6E0,1E0,1E0,3E0,5E0,2E0,5E0,1E0,2E0,3E0],"tree_param":{"num_deleted":"0","num_feature":"24","num_nodes":"39","size_leaf_vector":"1"}},{"base_weights":[-4.473971E0,6.699254E1,-3.3835682E1,4.6785988E1,1.1561345E2,4.0065937E0,-5.056197E1,9.501713E0,1.4335655E1,1.25206175E1,3.1324906E0,1.8696745E1,-3.6927147E0,-5.4125954E1,-4.5956497E0,-1.8800064E1,4.1404034E1,3.4420714E0,4.4466743E0,-6.0378223E1,-3.803515E0,1.2554169E-1,-8.631145E-1,-2.456963E0,-3.1739554E-1,5.3975368E0,1.7231697E0,8.725453E0,-1.9554185E0,-6.358376E1,-2.7204597E0,-9.407455E0,2.0193152E0,-6.7429385E0,-2.9132516E0,-0E0,-1.7298653E0],"categories":[],"categories_nodes":[],"categories_segments":[],"categories_sizes":[],"default_left":[0,0,0,0,0,0,0,0,0,0,0,0,0,0,0,0,0,0,0,0,0,0,0,0,0,0,0,0,0,0,0,0,0,0,0,0,0],"id":10,"left_children":[1,3,5,7,9,11,13,-1,15,-1,-1,17,-1,19,21,23,25,27,-1,29,-1,-1,-1,-1,-1,-1,-1,31,-1,33,-1,35,-1,-1,-1,-1,-1],"loss_changes":[1.6577452E5,1.6375523E4,3.588117E4,2.62632E4,1.4660938E2,1.1423077E4,5.846742E3,0E0,1.1654582E4,0E0,0E0,5.1109775E3,0E0,8.331797E2,1.4216211E2,3.2423413E2,8.4102637E2,1.3314556E3,0E0,3.684375E2,0E0,0E0,0E0,0E0,0E0,0E0,0E0,2.1153792E3,0E0,3.350078E2,0E0,2.4448587E2,0E0,0E0,0E0,0E0,0E0],"parents":[2147483647,0,0,1,1,2,2,3,3,4,4,5,5,6,6,8,8,11,11,13,13,14,14,15,15,16,16,17,17,19,19,27,27,29,29,31,31],"right_children":[2,4,6,8,10,12,14,-1,16,-1,-1,18,-1,20,22,24,26,28,-1,30,-1,-1,-1,-1,-1,-1,-1,32,-1,34,-1,36,-1,-1,-1,-1,-1],"split_conditions":[4E-1,1E0,1E0,3.6E1,9E0,1E0,6.1E-1,9.501713E0,6E0,1.25206175E1,3.1324906E0,4.1E1,-3.6927147E0,1.2E1,6.3E-1,5E0,4.6E1,9E0,4.4466743E0,1E0,-3.803515E0,1.2554169E-1,-8.631145E-1,-2.456963E0,-3.1739554E-1,5.3975368E0,1.7231697E0,2.9E1,-1.9554185E0,1E0,-2.7204597E0,4E0,2.0193152E0,-6.7429385E0,-2.9132516E0,-0E0,-1.7298653E0],"split_indices":[1,4,18,0,22,6,1,0,22,0,0,2,0,21,1,22,2,22,0,4,0,0,0,0,0,0,0,2,0,5,0,22,0,0,0,0,0],"split_type":[0,0,0,0,0,0,0,0,0,0,0,0,0,0,0,0,0,0,0,0,0,0,0,0,0,0,0,0,0,0,0,0,0,0,0,0,0],"sum_hessian":[7.7E1,2.2E1,5.5E1,1.7E1,5E0,1.7E1,3.8E1,6E0,1.1E1,4E0,1E0,1.3E1,4E0,3.5E1,3E0,5E0,6E0,9E0,4E0,2.3E1,1.2E1,1E0,2E0,3E0,2E0,3E0,3E0,8E0,1E0,2E1,3E0,3E0,5E0,1.7E1,3E0,2E0,1E0],"tree_param":{"num_deleted":"0","num_feature":"24","num_nodes":"37","size_leaf_vector":"1"}},{"base_weights":[2.7184103E0,4.3799637E1,-4.6513874E1,1.3227934E2,1.8943253E1,-4.9300175E1,-0E0,8.687282E0,1.9246817E1,-1.8581768E1,4.638986E1,-5.065135E1,-1.7238007E0,1.1926422E-1,-1.7324983E-1,-3.7433365E1,-1.2992197E0,5.3332745E1,-4.026249E0,-5.2736354E0,-2.214349E0,-4.5760427E0,-9.410477E0,2.557497E0,-1.8576478E0,2.989502E-2,5.926031E1,-0E0,-1.3489113E0,-1.3531307E0,1.1008983E1,7.9466415E1,2.5970142E1,2.425888E0,1.3444058E0,1.2982244E1,9.383967E0,8.755356E0,3.3547943E1,-2.6029435E-1,8.741776E-1,-3.3616257E-1,2.5334992E0,2.4504852E0,-1.6746567E0,6.9313663E-1,3.7219245E0],"categories":[],"categories_nodes":[],"categories_segments":[],"categories_sizes":[],"default_left":[0,0,0,0,0,0,0,0,0,0,0,0,0,0,0,0,0,0,0,0,0,0,0,0,0,0,0,0,0,0,0,0,0,0,0,0,0,0,0,0,0,0,0,0,0,0,0],"id":11,"left_children":[1,3,5,7,9,11,13,-1,-1,15,17,19,-1,-1,-1,21,23,25,-1,-1,-1,-1,27,29,-1,-1,31,-1,-1,-1,33,35,37,39,-1,41,-1,43,45,-1,-1,-1,-1,-1,-1,-1,-1],"loss_changes":[1.5573544E5,8.910809E4,4.482828E3,6.4797188E3,3.6018816E4,2.1703125E2,8.847891E0,0E0,0E0,4.6447573E3,1.4245008E4,3.004453E2,0E0,0E0,0E0,9.269551E2,7.273056E2,5.6573555E3,0E0,0E0,0E0,0E0,9.824109E1,1.2241486E3,0E0,0E0,8.844359E3,0E0,0E0,0E0,1.3439392E1,7.80359E3,5.3836084E2,1.4873311E2,0E0,8.0070874E2,0E0,2.0557334E3,9.854492E0,0E0,0E0,0E0,0E0,0E0,0E0,0E0,0E0],"parents":[2147483647,0,0,1,1,2,2,3,3,4,4,5,5,6,6,9,9,10,10,11,11,15,15,16,16,17,17,22,22,23,23,26,26,30,30,31,31,32,32,33,33,35,35,37,37,38,38],"right_children":[2,4,6,8,10,12,14,-1,-1,16,18,20,-1,-1,-1,22,24,26,-1,-1,-1,-1,28,30,-1,-1,32,-1,-1,-1,34,36,38,40,-1,42,-1,44,46,-1,-1,-1,-1,-1,-1,-1,-1],"split_conditions":[1E0,3.6E1,6.1E-1,4E-1,4.1E1,1.2E1,6.3E-1,8.687282E0,1.9246817E1,3.2E1,1E0,1E0,-1.7238007E0,1.1926422E-1,-1.7324983E-1,5.1E1,8E0,3.5E-1,-4.026249E0,-5.2736354E0,-2.214349E0,-4.5760427E0,2.9E1,4E-1,-1.8576478E0,2.989502E-2,9E0,-0E0,-1.3489113E0,-1.3531307E0,3.6E1,6E0,5.1E1,5.1E1,1.3444058E0,4E-1,9.383967E0,4E-1,4E-1,-2.6029435E-1,8.741776E-1,-3.3616257E-1,2.5334992E0,2.4504852E0,-1.6746567E0,6.9313663E-1,3.7219245E0],"split_indices":[18,0,1,1,2,22,1,0,0,2,6,4,0,0,0,0,22,1,0,0,0,0,2,1,0,0,22,0,0,0,2,22,0,0,0,1,0,1,1,0,0,0,0,0,0,0,0],"split_type":[0,0,0,0,0,0,0,0,0,0,0,0,0,0,0,0,0,0,0,0,0,0,0,0,0,0,0,0,0,0,0,0,0,0,0,0,0,0,0,0,0,0,0,0,0,0,0],"sum_hessian":[7.5E1,4.1E1,3.4E1,8E0,3.3E1,3.2E1,2E0,6E0,2E0,1.4E1,1.9E1,3E1,2E0,1E0,1E0,6E0,8E0,1.8E1,1E0,2.7E1,3E0,4E0,2E0,7E0,1E0,2E0,1.6E1,1E0,1E0,2E0,5E0,9E0,7E0,2E0,3E0,2E0,7E0,3E0,4E0,1E0,1E0,1E0,1E0,2E0,1E0,1E0,3E0],"tree_param":{"num_deleted":"0","num_feature":"24","num_nodes":"47","size_leaf_vector":"1"}},{"base_weights":[1.0735129E1,4.2128357E1,-3.9685204E1,2.0754976E1,1.4577588E2,-9.070476E0,-4.524533E1,9.286628E0,3.0301106E0,7.5479555E0,1.7185778E1,-1.3349282E0,-0E0,-4.790802E0,-1.8039216E0,1.3360221E1,-3.8008919E0,1.1330109E-1,-1.6458741E-1,1.5545228E0,3.755508E1,-8.074582E0,1.477616E1,5.7376485E0,2.2980896E1,-1.4839988E1,7.9162254E0,-5.5952554E0,4.2889247E0,-1.5909241E0,3.294746E1,-1.6420773E0,-0E0,-2.4727936E-1,1.3870163E0,-1.7647651E0,-0E0,3.5903034E0,6.5847933E-1],"categories":[],"categories_nodes":[],"categories_segments":[],"categories_sizes":[],"default_left":[0,0,0,0,0,0,0,0,0,0,0,0,0,0,0,0,0,0,0,0,0,0,0,0,0,0,0,0,0,0,0,0,0,0,0,0,0,0,0],"id":12,"left_children":[1,3,5,7,9,11,13,-1,15,-1,-1,-1,17,-1,-1,19,-1,-1,-1,21,23,25,27,-1,29,31,33,35,-1,-1,37,-1,-1,-1,-1,-1,-1,-1,-1],"loss_changes":[1.2356407E5,1.02476086E5,4.424676E3,5.1643805E4,4.5925E2,2.1917212E2,6.170781E2,0E0,1.4798444E4,0E0,0E0,0E0,7.98523E0,0E0,0E0,7.743914E3,0E0,0E0,0E0,2.69907E3,8.795762E2,1.4503071E3,5.5807764E3,0E0,3.3225674E3,1.7510718E2,3.3870715E2,4.350379E2,0E0,0E0,1.864795E1,0E0,0E0,0E0,0E0,0E0,0E0,0E0,0E0],"parents":[2147483647,0,0,1,1,2,2,3,3,4,4,5,5,6,6,8,8,12,12,15,15,19,19,20,20,21,21,22,22,24,24,25,25,26,26,27,27,30,30],"right_children":[2,4,6,8,10,12,14,-1,16,-1,-1,-1,18,-1,-1,20,-1,-1,-1,22,24,26,28,-1,30,32,34,36,-1,-1,38,-1,-1,-1,-1,-1,-1,-1,-1],"split_conditions":[1E0,1E0,3.6E1,3.6E1,7E0,1E0,1.2E1,9.286628E0,1E0,7.5479555E0,1.7185778E1,-1.3349282E0,6.3E-1,-4.790802E0,-1.8039216E0,5.1E1,-3.8008919E0,1.1330109E-1,-1.6458741E-1,6E0,8E0,1E0,1E0,5.7376485E0,5.1E1,4.6E1,7E0,7E0,4.2889247E0,-1.5909241E0,1E0,-1.6420773E0,-0E0,-2.4727936E-1,1.3870163E0,-1.7647651E0,-0E0,3.5903034E0,6.5847933E-1],"split_indices":[18,4,0,0,21,4,22,0,6,0,0,0,1,0,0,2,0,0,0,22,22,5,3,0,0,2,21,21,0,0,3,0,0,0,0,0,0,0,0],"split_type":[0,0,0,0,0,0,0,0,0,0,0,0,0,0,0,0,0,0,0,0,0,0,0,0,0,0,0,0,0,0,0,0,0,0,0,0,0,0,0],"sum_hessian":[7.6E1,4.7E1,2.9E1,4E1,7E0,5E0,2.4E1,7E0,3.3E1,3E0,4E0,3E0,2E0,2.1E1,3E0,2.7E1,6E0,1E0,1E0,1.9E1,8E0,1.1E1,8E0,2E0,6E0,8E0,3E0,5E0,3E0,1E0,5E0,7E0,1E0,1E0,2E0,1E0,4E0,4E0,1E0],"tree_param":{"num_deleted":"0","num_feature":"24","num_nodes":"39","size_leaf_vector":"1"}},{"base_weights":[2.60541E0,3.6553955E1,-3.626514E1,1.8789541E1,1.5259406E1,-1.4919702E1,-4.0127743E1,-9.89362E0,6.847594E1,-1.8598441E0,1.07636265E-1,-4.3677616E1,-1.8998606E1,6.296378E-1,-3.4751015E0,8.781527E1,3.0444179E0,-4.5997186E0,-1.9910386E0,-4.3283083E-2,-2.1625195E0,-6.1932077E0,2.5602188E0,2.1199417E0,9.358905E0,-1.731151E1,1.3515726E0,-2.0335072E1,-0E0,-1.0477665E1,9.845802E0,-2.3491517E-1,-2.2994263E0,-1.4099844E0,-0E0,-1.1174129E0,2.43993E0],"categories":[],"categories_nodes":[],"categories_segments":[],"categories_sizes":[],"default_left":[0,0,0,0,0,0,0,0,0,0,0,0,0,0,0,0,0,0,0,0,0,0,0,0,0,0,0,0,0,0,0,0,0,0,0,0,0],"id":13,"left_children":[1,3,5,7,-1,9,11,13,15,-1,-1,17,19,21,-1,23,-1,-1,-1,-1,-1,25,-1,-1,-1,27,29,31,-1,33,35,-1,-1,-1,-1,-1,-1],"loss_changes":[9.633817E4,7.666991E4,1.929332E3,5.0851094E4,0E0,5.195465E2,9.5696875E2,6.2088447E3,6.2968477E3,0E0,0E0,2.2628906E1,1.7293774E2,3.1521301E3,0E0,5.1902734E2,0E0,0E0,0E0,0E0,0E0,1.2775896E3,0E0,0E0,0E0,2.694453E2,1.0043241E3,5.8406006E1,0E0,1.572909E2,2.1742478E3,0E0,0E0,0E0,0E0,0E0,0E0],"parents":[2147483647,0,0,1,1,2,2,3,3,5,5,6,6,7,7,8,8,11,11,12,12,13,13,15,15,21,21,25,25,26,26,27,27,29,29,30,30],"right_children":[2,4,6,8,-1,10,12,14,16,-1,-1,18,20,22,-1,24,-1,-1,-1,-1,-1,26,-1,-1,-1,28,30,32,-1,34,36,-1,-1,-1,-1,-1,-1],"split_conditions":[1E0,1E0,3.6E1,5.1E1,1.5259406E1,1E0,1E0,1E0,5.1E1,-1.8598441E0,1.07636265E-1,1E0,5.1E1,1E1,-3.4751015E0,6E0,3.0444179E0,-4.5997186E0,-1.9910386E0,-4.3283083E-2,-2.1625195E0,7E0,2.5602188E0,2.1199417E0,9.358905E0,4.6E1,3.6E1,3.6E1,-0E0,5.1E1,3.5E-1,-2.3491517E-1,-2.2994263E0,-1.4099844E0,-0E0,-1.1174129E0,2.43993E0],"split_indices":[18,4,0,2,0,4,5,6,0,0,0,4,2,21,0,22,0,0,0,0,0,21,0,0,0,2,2,2,0,0,1,0,0,0,0,0,0],"split_type":[0,0,0,0,0,0,0,0,0,0,0,0,0,0,0,0,0,0,0,0,0,0,0,0,0,0,0,0,0,0,0,0,0,0,0,0,0],"sum_hessian":[7.1E1,3.8E1,3.3E1,3.4E1,4E0,6E0,2.7E1,2.2E1,1.2E1,5E0,1E0,2.2E1,5E0,1.6E1,6E0,7E0,5E0,1.9E1,3E0,1E0,4E0,1.3E1,3E0,1E0,6E0,5E0,8E0,4E0,1E0,3E0,5E0,1E0,3E0,2E0,1E0,2E0,3E0],"tree_param":{"num_deleted":"0","num_feature":"24","num_nodes":"37","size_leaf_vector":"1"}},{"base_weights":[-4.77503E0,2.4643848E1,-3.574819E1,1.0516199E2,4.2260013E0,-4.1406353E1,-2.2733744E1,5.8079304E1,1.626067E1,-1.8473293E1,1.5115837E1,-4.4784607E1,-1.7936417E1,-2.3849046E0,-1.6174011E-1,6.648857E0,5.516495E-1,-2.4307436E1,3.5202332E0,1.8635183E1,-1.2891536E1,-4.787824E0,-1.8417103E0,-4.1119006E-2,-2.0964925E0,-6.855204E0,-2.7600188E0,-2.2316971E-1,1.0012047E0,2.6132946E0,2.6102322E1,1.277407E0,-3.4611375E0,-0E0,-1.2619667E0,1.2492892E1,-9.139526E0,-0E0,3.33228E1,-1.5464325E-1,2.4034586E0,1.7129745E0,-2.5272532E0,-2.0217874E0,1.3105816E0,4.1695908E1,1.8562561E1,5.3702292E0,1.012209E0,-7.949219E-1,2.645476E0],"categories":[],"categories_nodes":[],"categories_segments":[],"categories_sizes":[],"default_left":[0,0,0,0,0,0,0,0,0,0,0,0,0,0,0,0,0,0,0,0,0,0,0,0,0,0,0,0,0,0,0,0,0,0,0,0,0,0,0,0,0,0,0,0,0,0,0,0,0,0,0],"id":14,"left_children":[1,3,5,7,9,11,13,15,-1,17,19,21,23,-1,-1,-1,-1,25,27,29,31,-1,-1,-1,-1,33,-1,-1,-1,35,37,-1,-1,-1,-1,39,41,43,45,-1,-1,-1,-1,-1,-1,47,49,-1,-1,-1,-1],"loss_changes":[7.109856E4,6.4768934E4,1.5362188E3,1.10896875E4,8.419775E3,8.653008E2,1.6381006E2,1.9252773E3,0E0,1.6009507E3,2.5360107E3,4.997461E2,1.4987537E2,0E0,0E0,0E0,0E0,1.5571094E2,1.7326697E2,2.3006006E3,2.2236729E3,0E0,0E0,0E0,0E0,1.7753052E2,0E0,0E0,0E0,1.0598511E3,2.6758623E3,0E0,0E0,0E0,0E0,9.597965E2,2.1688352E3,1.3328119E3,2.842041E2,0E0,0E0,0E0,0E0,0E0,0E0,1.4118232E3,1.55824E3,0E0,0E0,0E0,0E0],"parents":[2147483647,0,0,1,1,2,2,3,3,4,4,5,5,6,6,7,7,9,9,10,10,11,11,12,12,17,17,18,18,19,19,20,20,25,25,29,29,30,30,35,35,36,36,37,37,38,38,45,45,46,46],"right_children":[2,4,6,8,10,12,14,16,-1,18,20,22,24,-1,-1,-1,-1,26,28,30,32,-1,-1,-1,-1,34,-1,-1,-1,36,38,-1,-1,-1,-1,40,42,44,46,-1,-1,-1,-1,-1,-1,48,50,-1,-1,-1,-1],"split_conditions":[1E0,3.6E1,1.2E1,4E-1,5E0,1E0,6.1E-1,1E0,1.626067E1,1E0,1E0,1E0,5.1E-1,-2.3849046E0,-1.6174011E-1,6.648857E0,5.516495E-1,2.9E1,7E0,7E0,4.1E1,-4.787824E0,-1.8417103E0,-4.1119006E-2,-2.0964925E0,7E0,-2.7600188E0,-2.2316971E-1,1.0012047E0,8E0,3.5E-1,1.277407E0,-3.4611375E0,-0E0,-1.2619667E0,4E-1,4E-1,8E0,5.1E1,-1.5464325E-1,2.4034586E0,1.7129745E0,-2.5272532E0,-2.0217874E0,1.3105816E0,4E-1,5.1E1,5.3702292E0,1.012209E0,-7.949219E-1,2.645476E0],"split_indices":[18,0,21,1,22,5,1,3,0,5,6,4,1,0,0,0,0,2,21,21,2,0,0,0,0,21,0,0,0,22,1,0,0,0,0,1,1,21,2,0,0,0,0,0,0,1,0,0,0,0,0],"split_type":[0,0,0,0,0,0,0,0,0,0,0,0,0,0,0,0,0,0,0,0,0,0,0,0,0,0,0,0,0,0,0,0,0,0,0,0,0,0,0,0,0,0,0,0,0,0,0,0,0,0,0],"sum_hessian":[7.6E1,3.9E1,3.7E1,7E0,3.2E1,2.4E1,1.3E1,5E0,2E0,1E1,2.2E1,2E1,4E0,1.2E1,1E0,4E0,1E0,8E0,2E0,2E1,2E0,1.7E1,3E0,1E0,3E0,2E0,6E0,1E0,1E0,7E0,1.3E1,1E0,1E0,1E0,1E0,4E0,3E0,3E0,1E1,2E0,2E0,1E0,2E0,1E0,2E0,5E0,5E0,3E0,2E0,1E0,4E0],"tree_param":{"num_deleted":"0","num_feature":"24","num_nodes":"51","size_leaf_vector":"1"}},{"base_weights":[1.9280682E0,3.0718594E1,-3.1213003E1,9.967876E1,1.2979134E1,-1.1440189E1,-3.5024548E1,6.2401443E0,1.5176623E1,5.5632806E-1,6.542597E1,-1.5109215E0,-0E0,-3.6812317E0,-1.2057106E0,9.2571535E0,-2.988324E0,8.810776E0,4.1476645E0,1.10341646E-1,-1.5365295E-1,-1.52514925E1,1.4889824E1,1.6273254E0,-7.5517577E-1,-2.102377E0,1.418808E-1,1.7808329E0,2.8631632E1,5.006714E0,-1.435193E0,4.0336733E0,1.327211E1,-0E0,1.9168386E0,-1.8529618E0,2.433838E0],"categories":[],"categories_nodes":[],"categories_segments":[],"categories_sizes":[],"default_left":[0,0,0,0,0,0,0,0,0,0,0,0,0,0,0,0,0,0,0,0,0,0,0,0,0,0,0,0,0,0,0,0,0,0,0,0,0],"id":15,"left_children":[1,3,5,7,9,11,13,-1,-1,15,17,-1,19,-1,-1,21,-1,-1,23,-1,-1,25,27,-1,-1,-1,-1,29,31,33,-1,-1,35,-1,-1,-1,-1],"loss_changes":[8.01507E4,5.319219E4,2.3062227E3,6.9338594E3,2.3740553E4,3.227069E2,6.257383E2,0E0,0E0,8.383834E3,8.90259E3,0E0,7.156902E0,0E0,0E0,3.6765117E3,0E0,0E0,5.9208636E2,0E0,0E0,6.089813E2,3.5799155E3,0E0,0E0,0E0,0E0,6.496383E2,9.944492E2,8.26542E2,0E0,0E0,2.5915835E3,0E0,0E0,0E0,0E0],"parents":[2147483647,0,0,1,1,2,2,3,3,4,4,5,5,6,6,9,9,10,10,12,12,15,15,18,18,21,21,22,22,27,27,28,28,29,29,32,32],"right_children":[2,4,6,8,10,12,14,-1,-1,16,18,-1,20,-1,-1,22,-1,-1,24,-1,-1,26,28,-1,-1,-1,-1,30,32,34,-1,-1,36,-1,-1,-1,-1],"split_conditions":[1E0,3.6E1,3.6E1,4E-1,1E0,1E0,1.2E1,6.2401443E0,1.5176623E1,1E0,9E0,-1.5109215E0,6.3E-1,-3.6812317E0,-1.2057106E0,3.5E-1,-2.988324E0,8.810776E0,5.1E1,1.10341646E-1,-1.5365295E-1,8E0,4.1E1,1.6273254E0,-7.5517577E-1,-2.102377E0,1.418808E-1,9E0,9E0,7E0,-1.435193E0,4.0336733E0,5.1E1,-0E0,1.9168386E0,-1.8529618E0,2.433838E0],"split_indices":[18,0,0,1,4,4,22,0,0,6,22,0,1,0,0,1,0,0,2,0,0,21,2,0,0,0,0,22,22,22,0,0,0,0,0,0,0],"split_type":[0,0,0,0,0,0,0,0,0,0,0,0,0,0,0,0,0,0,0,0,0,0,0,0,0,0,0,0,0,0,0,0,0,0,0,0,0],"sum_hessian":[8.2E1,4.4E1,3.8E1,8E0,3.6E1,7E0,3.1E1,6E0,2E0,3E1,6E0,5E0,2E0,2.8E1,3E0,2.4E1,6E0,4E0,2E0,1E0,1E0,4E0,2E1,1E0,1E0,3E0,1E0,1.1E1,9E0,1E1,1E0,4E0,5E0,8E0,2E0,1E0,4E0],"tree_param":{"num_deleted":"0","num_feature":"24","num_nodes":"37","size_leaf_vector":"1"}},{"base_weights":[2.0204954E0,3.1240458E1,-2.9488125E1,1.0371628E2,1.7780588E1,-3.1149649E1,-0E0,2.4071991E0,1.13830734E2,9.551536E0,5.512909E1,-3.2539716E0,-1.5301312E0,1.0482483E-1,-1.4597015E-1,1.2705986E1,2.7957122E0,7.440317E-1,2.9464151E1,7.855092E0,3.8569539E0,5.8205323E0,-3.1680648E0,4.7106776E0,1.1958379E1,1.5459595E0,-7.174164E-1,-6.3259196E0,1.9099575E1,-1.7603134E0,2.2391308E1,1.6535579E0,-1.7232004E0,-9.538615E0,2.807645E1,2.1936952E-1,2.5642288E0,-8.096634E-1,5.4613626E-1,-1.8155793E0,1.34787E-1,3.373285E0,1.2736839E0],"categories":[],"categories_nodes":[],"categories_segments":[],"categories_sizes":[],"default_left":[0,0,0,0,0,0,0,0,0,0,0,0,0,0,0,0,0,0,0,0,0,0,0,0,0,0,0,0,0,0,0,0,0,0,0,0,0,0,0,0,0,0,0],"id":16,"left_children":[1,3,5,7,9,11,13,-1,15,17,19,-1,-1,-1,-1,-1,-1,21,23,-1,25,27,-1,-1,29,-1,-1,31,33,-1,35,37,-1,39,41,-1,-1,-1,-1,-1,-1,-1,-1],"loss_changes":[7.090172E4,3.6568977E4,1.7871875E3,1.403707E3,9.907027E3,3.395703E1,6.459106E0,0E0,1.3528516E3,5.08845E3,6.4903164E3,0E0,0E0,0E0,0E0,0E0,0E0,3.6763838E3,1.9209824E3,0E0,5.363071E2,3.4105562E3,0E0,0E0,2.2685771E3,0E0,0E0,1.0636597E3,2.931314E3,0E0,1.3287866E2,2.9093005E2,0E0,3.899435E2,3.2137207E1,0E0,0E0,0E0,0E0,0E0,0E0,0E0,0E0],"parents":[2147483647,0,0,1,1,2,2,3,3,4,4,5,5,6,6,8,8,9,9,10,10,17,17,18,18,20,20,21,21,24,24,27,27,28,28,30,30,31,31,33,33,34,34],"right_children":[2,4,6,8,10,12,14,-1,16,18,20,-1,-1,-1,-1,-1,-1,22,24,-1,26,28,-1,-1,30,-1,-1,32,34,-1,36,38,-1,40,42,-1,-1,-1,-1,-1,-1,-1,-1],"split_conditions":[1E0,3.6E1,6.1E-1,3.2E1,1E0,1E0,6.3E-1,2.4071991E0,1E0,5.1E1,9E0,-3.2539716E0,-1.5301312E0,1.0482483E-1,-1.4597015E-1,1.2705986E1,2.7957122E0,9E0,8E0,7.855092E0,5.1E1,6E0,-3.1680648E0,4.7106776E0,5.1E1,1.5459595E0,-7.174164E-1,4E0,3.5E-1,-1.7603134E0,4E-1,4E-1,-1.7232004E0,8E0,8E0,2.1936952E-1,2.5642288E0,-8.096634E-1,5.4613626E-1,-1.8155793E0,1.34787E-1,3.373285E0,1.2736839E0],"split_indices":[18,0,1,2,4,4,1,0,6,2,22,0,0,0,0,0,0,22,22,0,2,22,0,0,0,0,0,22,1,0,1,1,0,21,21,0,0,0,0,0,0,0,0],"split_type":[0,0,0,0,0,0,0,0,0,0,0,0,0,0,0,0,0,0,0,0,0,0,0,0,0,0,0,0,0,0,0,0,0,0,0,0,0,0,0,0,0,0,0],"sum_hessian":[7.5E1,3.9E1,3.6E1,5E0,3.4E1,3.4E1,2E0,1E0,4E0,2.9E1,5E0,3E1,4E0,1E0,1E0,3E0,1E0,2.1E1,8E0,3E0,2E0,1.9E1,2E0,3E0,5E0,1E0,1E0,1E1,9E0,1E0,4E0,6E0,4E0,2E0,7E0,1E0,3E0,1E0,5E0,1E0,1E0,4E0,3E0],"tree_param":{"num_deleted":"0","num_feature":"24","num_nodes":"43","size_leaf_vector":"1"}},{"base_weights":[5.2791157E0,2.5526611E1,-2.3566685E1,1.7671495E1,1.3317781E1,-2.4521633E1,9.958344E-2,2.537156E1,-2.703908E0,-2.845631E1,-1.7073025E1,1.8026463E1,5.565965E1,-1.0067131E1,-3.0962586E0,-4.0472374E0,-1.9803036E0,4.753729E0,1.0880341E1,7.4775047E0,3.5807698E0,-1.2393006E0,-0E0,-0E0,-5.7809657E-1,1.1188675E0,2.7839106E1,1.4686615E0,-6.8154603E-1,-1.3175711E1,6.1424694E0,4.3573775E0,1.4156564E1,-1.8359879E0,1.2804794E-1,-1.696751E-1,2.316026E0,-1.6722977E0,2.292365E0],"categories":[],"categories_nodes":[],"categories_segments":[],"categories_sizes":[],"default_left":[0,0,0,0,0,0,0,0,0,0,0,0,0,0,0,0,0,0,0,0,0,0,0,0,0,0,0,0,0,0,0,0,0,0,0,0,0,0,0],"id":17,"left_children":[1,3,5,7,-1,9,-1,11,-1,13,15,17,19,21,-1,23,-1,-1,25,-1,27,-1,-1,-1,-1,29,31,-1,-1,33,35,-1,37,-1,-1,-1,-1,-1,-1],"loss_changes":[4.6751734E4,3.6636094E4,9.1609375E2,1.6170029E4,0E0,2.2436914E2,0E0,7.3045137E3,0E0,3.588252E2,2.9844873E2,6.149993E3,6.3090273E3,5.5371246E1,0E0,3.473815E1,0E0,0E0,4.4592524E3,0E0,4.8582858E2,0E0,0E0,0E0,0E0,1.4101604E3,1.247396E3,0E0,0E0,4.836231E2,2.147708E3,0E0,2.3094204E3,0E0,0E0,0E0,0E0,0E0,0E0],"parents":[2147483647,0,0,1,1,2,2,3,3,5,5,7,7,9,9,10,10,11,11,12,12,13,13,15,15,18,18,20,20,25,25,26,26,29,29,30,30,32,32],"right_children":[2,4,6,8,-1,10,-1,12,-1,14,16,18,20,22,-1,24,-1,-1,26,-1,28,-1,-1,-1,-1,30,32,-1,-1,34,36,-1,38,-1,-1,-1,-1,-1,-1],"split_conditions":[1E0,4.1E-1,6.1E-1,1E0,1.3317781E1,4.8E1,9.958344E-2,1E0,-2.703908E0,3.6E1,9E0,3.6E1,9E0,3.8E1,-3.0962586E0,5.1E-1,-1.9803036E0,4.753729E0,5.1E1,7.4775047E0,5.1E1,-1.2393006E0,-0E0,-0E0,-5.7809657E-1,3.5E-1,8E0,1.4686615E0,-6.8154603E-1,8E0,4.1E1,4.3573775E0,5.1E1,-1.8359879E0,1.2804794E-1,-1.696751E-1,2.316026E0,-1.6722977E0,2.292365E0],"split_indices":[18,1,1,6,0,2,0,4,0,0,22,0,22,2,0,1,0,0,2,0,2,0,0,0,0,1,22,0,0,21,2,0,0,0,0,0,0,0,0],"split_type":[0,0,0,0,0,0,0,0,0,0,0,0,0,0,0,0,0,0,0,0,0,0,0,0,0,0,0,0,0,0,0,0,0,0,0,0,0,0,0],"sum_hessian":[7.8E1,4.6E1,3.2E1,4.4E1,2E0,3.1E1,1E0,3.8E1,6E0,1.8E1,1.3E1,3.2E1,6E0,3E0,1.5E1,3E0,1E1,5E0,2.7E1,4E0,2E0,2E0,1E0,1E0,2E0,1.8E1,9E0,1E0,1E0,4E0,1.4E1,3E0,6E0,3E0,1E0,1E1,4E0,1E0,5E0],"tree_param":{"num_deleted":"0","num_feature":"24","num_nodes":"39","size_leaf_vector":"1"}},{"base_weights":[3.2296138E0,2.6653564E1,-2.4159288E1,9.286303E0,8.681646E1,-2.9499497E0,-1.3684726E1,4.6039653E0,-4.0109536E-1,5.1274345E1,1.3914258E1,-1.588377E0,-0E0,6.444243E0,-2.6267153E1,6.281163E1,-6.4746857E-1,9.460449E-2,-1.4365081E-1,7.555434E-2,2.258149E0,-3.2347722E0,-7.737345E0,6.8793044E0,1.3952286E0,4.4659333E0,-2.023486E0,1.4344643E0,-2.845066E0,-4.9113107E0,1.6598684E1,-8.3187914E-1,3.0099133E-1,-8.4090376E-1,2.928358E0],"categories":[],"categories_nodes":[],"categories_segments":[],"categories_sizes":[],"default_left":[0,0,0,0,0,0,0,0,0,0,0,0,0,0,0,0,0,0,0,0,0,0,0,0,0,0,0,0,0,0,0,0,0,0,0],"id":18,"left_children":[1,3,5,7,9,-1,11,-1,13,15,-1,-1,17,19,21,23,-1,-1,-1,25,-1,-1,27,-1,-1,29,-1,-1,-1,31,33,-1,-1,-1,-1],"loss_changes":[4.8773125E4,4.1552734E4,1.3381582E3,1.1996121E4,8.651492E3,0E0,4.0572583E2,0E0,5.049058E3,5.35224E3,0E0,0E0,5.9171133E0,2.1460164E3,2.2531982E2,3.7993945E2,0E0,0E0,0E0,1.5274198E3,0E0,0E0,1.8508181E3,0E0,0E0,1.8465347E3,0E0,0E0,0E0,2.9450595E2,2.571162E3,0E0,0E0,0E0,0E0],"parents":[2147483647,0,0,1,1,2,2,3,3,4,4,6,6,8,8,9,9,12,12,13,13,14,14,15,15,19,19,22,22,25,25,29,29,30,30],"right_children":[2,4,6,8,10,-1,12,-1,14,16,-1,-1,18,20,22,24,-1,-1,-1,26,-1,-1,28,-1,-1,30,-1,-1,-1,32,34,-1,-1,-1,-1],"split_conditions":[1E0,1E0,1.2E1,3.6E1,1E1,-2.9499497E0,6.1E-1,4.6039653E0,1E0,5.1E1,1.3914258E1,-1.588377E0,6.3E-1,1E1,3.2E1,9E0,-6.4746857E-1,9.460449E-2,-1.4365081E-1,9E0,2.258149E0,-3.2347722E0,4.1E1,6.8793044E0,1.3952286E0,6E0,-2.023486E0,1.4344643E0,-2.845066E0,1E0,3.5E-1,-8.3187914E-1,3.0099133E-1,-8.4090376E-1,2.928358E0],"split_indices":[18,4,21,0,21,0,1,0,6,2,0,0,1,21,2,22,0,0,0,22,0,0,2,0,0,22,0,0,0,5,1,0,0,0,0],"split_type":[0,0,0,0,0,0,0,0,0,0,0,0,0,0,0,0,0,0,0,0,0,0,0,0,0,0,0,0,0,0,0,0,0,0,0],"sum_hessian":[7.4E1,4E1,3.4E1,3.2E1,8E0,2.1E1,1.3E1,6E0,2.6E1,6E0,2E0,1.1E1,2E0,2.1E1,5E0,5E0,1E0,1E0,1E0,1.6E1,5E0,3E0,2E0,4E0,1E0,1.4E1,2E0,1E0,1E0,8E0,6E0,6E0,2E0,2E0,4E0],"tree_param":{"num_deleted":"0","num_feature":"24","num_nodes":"35","size_leaf_vector":"1"}},{"base_weights":[6.505136E-1,1.985549E1,-2.0121094E1,8.84192E0,6.507909E0,-6.3838696E0,-2.2658218E1,1.3548341E1,-2.5063503E1,-8.7510407E-1,-0E0,-3.4405859E0,-1.7663141E1,1.835592E1,-6.3054404E0,-2.9347188E0,-3.606224E-1,8.987427E-2,-1.3646851E-1,-5.769308E-1,-1.897431E1,1.2506433E1,5.151703E0,3.4562378E0,-1.8885864E0,-2.3636585E1,-1.1914602E1,5.698324E0,3.8766313E0,1.325467E0,-2.5614624E0,-2.524694E0,-2.0717011E-1,-4.5098877E-1,-1.4099133E0,9.054287E-1,4.1088777E0,-6.1509556E-1,-0E0,-0E0,-2.7284318E-1,-1.1662593E0,7.5306535E-1],"categories":[],"categories_nodes":[],"categories_segments":[],"categories_sizes":[],"default_left":[0,0,0,0,0,0,0,0,0,0,0,0,0,0,0,0,0,0,0,0,0,0,0,0,0,0,0,0,0,0,0,0,0,0,0,0,0,0,0,0,0,0,0],"id":19,"left_children":[1,3,5,7,-1,9,11,13,15,-1,17,-1,19,21,23,-1,-1,-1,-1,-1,25,27,-1,29,-1,31,33,35,-1,-1,37,-1,-1,39,-1,41,-1,-1,-1,-1,-1,-1,-1],"loss_changes":[2.8322463E4,1.7483682E4,8.951465E2,5.228761E3,0E0,9.7627014E1,7.7498926E2,2.8485571E3,9.706543E1,0E0,5.3402076E0,0E0,1.09898926E2,3.4970244E3,8.792585E2,0E0,0E0,0E0,0E0,0E0,1.659956E2,3.3111558E3,0E0,3.2327344E2,0E0,1.5837354E2,1.7131702E2,2.8060352E3,0E0,0E0,5.5985233E1,0E0,0E0,1.4278507E1,0E0,1.4826886E3,0E0,0E0,0E0,0E0,0E0,0E0,0E0],"parents":[2147483647,0,0,1,1,2,2,3,3,5,5,6,6,7,7,8,8,10,10,12,12,13,13,14,14,20,20,21,21,23,23,25,25,26,26,27,27,30,30,33,33,35,35],"right_children":[2,4,6,8,-1,10,12,14,16,-1,18,-1,20,22,24,-1,-1,-1,-1,-1,26,28,-1,30,-1,32,34,36,-1,-1,38,-1,-1,40,-1,42,-1,-1,-1,-1,-1,-1,-1],"split_conditions":[1E0,1.2E1,3.6E1,1E0,6.507909E0,1E0,4.6E-1,9E0,5.1E1,-8.7510407E-1,6.3E-1,-3.4405859E0,4.9E-1,1E0,4E-1,-2.9347188E0,-3.606224E-1,8.987427E-2,-1.3646851E-1,-5.769308E-1,7E0,5.1E1,5.151703E0,5.1E1,-1.8885864E0,5.1E1,5.1E-1,1.3E1,3.8766313E0,1.325467E0,5.1E1,-2.524694E0,-2.0717011E-1,5.1E1,-1.4099133E0,3.5E-1,4.1088777E0,-6.1509556E-1,-0E0,-0E0,-2.7284318E-1,-1.1662593E0,7.5306535E-1],"split_indices":[18,22,0,6,0,4,1,22,0,0,1,0,1,4,1,0,0,0,0,0,21,2,0,2,0,2,1,21,0,0,0,0,0,0,0,1,0,0,0,0,0,0,0],"split_type":[0,0,0,0,0,0,0,0,0,0,0,0,0,0,0,0,0,0,0,0,0,0,0,0,0,0,0,0,0,0,0,0,0,0,0,0,0,0,0,0,0,0,0],"sum_hessian":[6.9E1,3.6E1,3.3E1,3E1,6E0,6E0,2.7E1,2.7E1,3E0,4E0,2E0,6E0,2.1E1,2.2E1,5E0,2E0,1E0,1E0,1E0,3E0,1.8E1,2E1,2E0,3E0,2E0,9E0,9E0,1.7E1,3E0,1E0,2E0,8E0,1E0,2E0,7E0,1.6E1,1E0,1E0,1E0,1E0,1E0,5E0,1.1E1],"tree_param":{"num_deleted":"0","num_feature":"24","num_nodes":"43","size_leaf_vector":"1"}},{"base_weights":[3.1752892E0,2.1770933E1,-1.9618652E1,8.301429E1,9.460813E0,-2.42843E1,-1.0528445E1,4.6676E0,1.1424002E1,-1.1981398E-1,5.125204E0,-2.4276581E-1,-2.4971394E1,-1.2209413E0,-0E0,6.543905E0,-2.9809294E1,-2.6241431E0,-6.937368E-1,-6.201373E0,1.5209789E1,-3.3400788E0,-3.425911E-1,-1.167625E1,5.048725E0,-0E0,1.901003E1,-1.4147234E0,3.10318E-2,-2.835373E-1,1.0288548E0,-1.5326432E0,8.959697E-1,2.071057E0,2.575279E1,8.8435364E-1,-1.0009431E0,3.050537E0,1.0935723E0],"categories":[],"categories_nodes":[],"categories_segments":[],"categories_sizes":[],"default_left":[0,0,0,0,0,0,0,0,0,0,0,0,0,0,0,0,0,0,0,0,0,0,0,0,0,0,0,0,0,0,0,0,0,0,0,0,0,0,0],"id":20,"left_children":[1,3,5,7,9,11,13,-1,-1,15,-1,-1,17,-1,-1,19,21,-1,-1,23,25,-1,-1,27,29,31,33,-1,-1,-1,-1,-1,-1,35,37,-1,-1,-1,-1],"loss_changes":[3.3075715E4,3.1170502E4,1.0546699E3,1.8059805E3,1.507609E4,1.3276855E2,2.3696277E2,0E0,0E0,6.4445093E3,0E0,0E0,1.3304102E2,0E0,0E0,3.0110403E3,2.6997266E2,0E0,0E0,7.6960974E2,9.9655347E2,0E0,0E0,3.1052368E2,2.3168289E2,7.1062744E2,1.2923457E3,0E0,0E0,0E0,0E0,0E0,0E0,4.9176358E2,9.2970215E1,0E0,0E0,0E0,0E0],"parents":[2147483647,0,0,1,1,2,2,3,3,4,4,5,5,6,6,9,9,12,12,15,15,16,16,19,19,20,20,23,23,24,24,25,25,26,26,33,33,34,34],"right_children":[2,4,6,8,10,12,14,-1,-1,16,-1,-1,18,-1,-1,20,22,-1,-1,24,26,-1,-1,28,30,32,34,-1,-1,-1,-1,-1,-1,36,38,-1,-1,-1,-1],"split_conditions":[1E0,3.6E1,1E1,4E-1,1E0,3.6E1,5.2E-1,4.6676E0,1.1424002E1,1E0,5.125204E0,-2.4276581E-1,1E0,-1.2209413E0,-0E0,6E0,5.1E1,-2.6241431E0,-6.937368E-1,1E0,3.5E-1,-3.3400788E0,-3.425911E-1,4.6E1,7E0,8E0,4.1E1,-1.4147234E0,3.10318E-2,-2.835373E-1,1.0288548E0,-1.5326432E0,8.959697E-1,9E0,1.4E1,8.8435364E-1,-1.0009431E0,3.050537E0,1.0935723E0],"split_indices":[18,0,21,1,4,0,1,0,0,6,0,0,4,0,0,22,0,0,0,5,1,0,0,2,21,21,2,0,0,0,0,0,0,22,21,0,0,0,0],"split_type":[0,0,0,0,0,0,0,0,0,0,0,0,0,0,0,0,0,0,0,0,0,0,0,0,0,0,0,0,0,0,0,0,0,0,0,0,0,0,0],"sum_hessian":[7.6E1,4.2E1,3.4E1,6E0,3.6E1,2.1E1,1.3E1,4E0,2E0,3E1,6E0,1E0,2E1,1.1E1,2E0,2.5E1,5E0,1.8E1,2E0,1E1,1.5E1,4E0,1E0,7E0,3E0,3E0,1.2E1,6E0,1E0,1E0,2E0,1E0,2E0,4E0,8E0,3E0,1E0,5E0,3E0],"tree_param":{"num_deleted":"0","num_feature":"24","num_nodes":"39","size_leaf_vector":"1"}},{"base_weights":[5.9037986E0,2.3124989E1,-1.7087914E1,1.57928295E1,1.06624E1,-2.9402592E0,-1.9599834E1,-3.3849907E-1,2.654537E1,-4.8698335E0,8.5380554E-2,-2.116155E0,-4.8604432E-1,-5.5878034E0,3.6700532E0,5.499521E0,3.0423467E0,-6.2360233E-1,-0E0,-1.034043E1,2.7974489E0,-9.508957E-1,1.2878879E0,-1.6513584E1,3.0739655E0,-3.008068E0,-2.1157654E1,-2.647152E0,1.5479218E0,1.1862284E-1,-1.0295479E0,-2.3334968E0,-1.5468903E-1,-7.6110077E-1,3.6222076E-1],"categories":[],"categories_nodes":[],"categories_segments":[],"categories_sizes":[],"default_left":[0,0,0,0,0,0,0,0,0,0,0,0,0,0,0,0,0,0,0,0,0,0,0,0,0,0,0,0,0,0,0,0,0,0,0],"id":21,"left_children":[1,3,5,7,-1,9,11,13,15,17,-1,-1,-1,19,-1,21,-1,-1,-1,23,-1,-1,-1,25,27,29,31,33,-1,-1,-1,-1,-1,-1,-1],"loss_changes":[2.7745523E4,2.2193143E4,8.958047E2,6.7312256E3,0E0,6.8163605E1,3.425039E2,3.1603777E3,1.5302832E3,3.6975548E1,0E0,0E0,0E0,2.593734E3,0E0,6.9307904E2,0E0,0E0,0E0,1.2772882E3,0E0,0E0,0E0,4.4273315E2,4.599957E2,1.800213E2,1.3838525E2,1.7199342E2,0E0,0E0,0E0,0E0,0E0,0E0,0E0],"parents":[2147483647,0,0,1,1,2,2,3,3,5,5,6,6,7,7,8,8,9,9,13,13,15,15,19,19,23,23,24,24,25,25,26,26,27,27],"right_children":[2,4,6,8,-1,10,12,14,16,18,-1,-1,-1,20,-1,22,-1,-1,-1,24,-1,-1,-1,26,28,30,32,34,-1,-1,-1,-1,-1,-1,-1],"split_conditions":[1E0,4.1E-1,3.6E1,5E0,1.06624E1,1E0,1.2E1,1.3E1,4.1E1,1.3E1,8.5380554E-2,-2.116155E0,-4.8604432E-1,1E0,3.6700532E0,7E0,3.0423467E0,-6.2360233E-1,-0E0,1E1,2.7974489E0,-9.508957E-1,1.2878879E0,2.9E1,1E0,4E0,4E0,1E0,1.5479218E0,1.1862284E-1,-1.0295479E0,-2.3334968E0,-1.5468903E-1,-7.6110077E-1,3.6222076E-1],"split_indices":[18,1,0,22,0,4,22,21,2,21,0,0,0,4,0,21,0,0,0,21,0,0,0,2,7,22,22,5,0,0,0,0,0,0,0],"split_type":[0,0,0,0,0,0,0,0,0,0,0,0,0,0,0,0,0,0,0,0,0,0,0,0,0,0,0,0,0,0,0,0,0,0,0],"sum_hessian":[6.8E1,3.9E1,2.9E1,3.7E1,2E0,5E0,2.4E1,1.5E1,2.2E1,4E0,1E0,2.1E1,3E0,1.4E1,1E0,4E0,1.8E1,3E0,1E0,1.3E1,1E0,1E0,3E0,9E0,4E0,3E0,6E0,3E0,1E0,2E0,1E0,5E0,1E0,2E0,1E0],"tree_param":{"num_deleted":"0","num_feature":"24","num_nodes":"35","size_leaf_vector":"1"}},{"base_weights":[6.783646E0,2.6155462E1,-1.6521988E1,1.4568186E1,7.136443E1,-1.7985727E1,-1.2612534E0,4.753025E0,3.3223206E1,2.9373077E1,1.1589522E1,-2.1011702E1,-1.02404E1,8.111115E-2,-3.8890788E-1,-3.1943822E0,2.5987274E1,3.686116E0,-0E0,4.2929947E1,-9.9272007E-1,-2.2376144E1,-5.0641074E0,1.2836711E-1,-1.3906877E0,-1.1708536E1,6.1583385E0,-1.4695434E-1,3.2772546E0,8.508148E-1,4.9901166E0,-2.3145623E0,-2.9169884E-1,-0E0,-7.0611423E-1,-1.731716E1,3.6144307E0,-2.8099937E0,1.3101337E0,-2.264918E0,-6.4058475E0,-1.5268555E-1,9.4485015E-1,1.10714726E-1,-9.7807086E-1,2.5087738E-2,-1.0375049E0],"categories":[],"categories_nodes":[],"categories_segments":[],"categories_sizes":[],"default_left":[0,0,0,0,0,0,0,0,0,0,0,0,0,0,0,0,0,0,0,0,0,0,0,0,0,0,0,0,0,0,0,0,0,0,0,0,0,0,0,0,0,0,0,0,0,0,0],"id":22,"left_children":[1,3,5,7,9,11,13,15,17,19,-1,21,23,-1,-1,25,27,-1,-1,29,-1,31,33,-1,-1,35,37,-1,-1,-1,-1,-1,-1,-1,-1,39,41,43,-1,-1,45,-1,-1,-1,-1,-1,-1],"loss_changes":[2.982602E4,1.7389244E4,5.512134E2,5.145269E3,8.958816E3,2.6137402E2,4.0327564E1,3.7408796E3,1.1908926E3,3.2551318E3,0E0,1.4115576E2,5.0349524E2,0E0,0E0,1.3739442E3,1.3224875E3,0E0,0E0,2.4323438E2,0E0,4.1745605E1,2.2783905E1,0E0,0E0,9.04572E2,5.8640826E2,0E0,0E0,0E0,0E0,0E0,0E0,0E0,0E0,1.1689307E2,1.4401862E2,1.6341757E2,0E0,0E0,1.5891125E2,0E0,0E0,0E0,0E0,0E0,0E0],"parents":[2147483647,0,0,1,1,2,2,3,3,4,4,5,5,6,6,7,7,8,8,9,9,11,11,12,12,15,15,16,16,19,19,21,21,22,22,25,25,26,26,35,35,36,36,37,37,40,40],"right_children":[2,4,6,8,10,12,14,16,18,20,-1,22,24,-1,-1,26,28,-1,-1,30,-1,32,34,-1,-1,36,38,-1,-1,-1,-1,-1,-1,-1,-1,40,42,44,-1,-1,46,-1,-1,-1,-1,-1,-1],"split_conditions":[1E0,1E0,6.1E-1,5.1E1,1E1,5E1,6.3E-1,1E0,1E0,5.1E1,1.1589522E1,1E0,9E0,8.111115E-2,-3.8890788E-1,1E0,3.6E1,3.686116E0,-0E0,7E0,-9.9272007E-1,5.4E-1,4.7E-1,1.2836711E-1,-1.3906877E0,1E0,2.9E1,-1.4695434E-1,3.2772546E0,8.508148E-1,4.9901166E0,-2.3145623E0,-2.9169884E-1,-0E0,-7.0611423E-1,8E0,7E0,4E0,1.3101337E0,-2.264918E0,3.5E-1,-1.5268555E-1,9.4485015E-1,1.10714726E-1,-9.7807086E-1,2.5087738E-2,-1.0375049E0],"split_indices":[18,4,1,2,21,2,1,3,3,2,0,4,22,0,0,7,2,0,0,21,0,1,1,0,0,5,2,0,0,0,0,0,0,0,0,21,21,22,0,0,1,0,0,0,0,0,0],"split_type":[0,0,0,0,0,0,0,0,0,0,0,0,0,0,0,0,0,0,0,0,0,0,0,0,0,0,0,0,0,0,0,0,0,0,0,0,0,0,0,0,0,0,0,0,0,0,0],"sum_hessian":[6.4E1,3.5E1,2.9E1,2.9E1,6E0,2.6E1,3E0,2E1,9E0,4E0,2E0,1.7E1,9E0,1E0,2E0,1.5E1,5E0,8E0,1E0,3E0,1E0,1.5E1,2E0,2E0,7E0,8E0,7E0,1E0,4E0,1E0,2E0,1.4E1,1E0,1E0,1E0,6E0,2E0,3E0,4E0,3E0,3E0,1E0,1E0,2E0,1E0,1E0,2E0],"tree_param":{"num_deleted":"0","num_feature":"24","num_nodes":"47","size_leaf_vector":"1"}},{"base_weights":[5.027104E0,1.7894506E1,-1.3165676E1,8.298827E0,7.165283E1,-1.4113197E1,-0E0,-0E0,2.6775757E1,8.175031E0,8.082733E-1,-1.5608098E1,-3.4140182E0,-2.4891715E0,3.322687E0,3.319631E1,5.990715E0,-1.8674877E1,-8.207008E0,-0E0,-1.0670041E0,3.0148548E-1,-2.4721153E0,3.8301548E1,1.0253724E0,-1.947998E0,1.7403427E0,-2.1208014E0,-5.1567535E0,-1.0355251E0,-1.6828938E0,1.8579178E-1,-0E0,-6.860879E0,1.2760817E1,7.075577E-1,4.213163E0,-0E0,-3.1627962E-1,-0E0,-6.518992E-1,-0E0,-3.2136866E-1,-1.0741804E1,5.247116E0,-1.4948822E0,1.8718124E1,-1.2155803E0,-0E0,-1.4505158E-1,9.6298325E-1,2.351584E0,6.7914504E-1],"categories":[],"categories_nodes":[],"categories_segments":[],"categories_sizes":[],"default_left":[0,0,0,0,0,0,0,0,0,0,0,0,0,0,0,0,0,0,0,0,0,0,0,0,0,0,0,0,0,0,0,0,0,0,0,0,0,0,0,0,0,0,0,0,0,0,0,0,0,0,0,0,0],"id":23,"left_children":[1,3,5,7,9,11,-1,13,15,-1,-1,17,19,21,-1,23,25,27,29,31,-1,33,-1,35,-1,37,-1,-1,39,-1,41,-1,-1,43,45,-1,-1,-1,-1,-1,-1,-1,-1,47,49,-1,51,-1,-1,-1,-1,-1,-1],"loss_changes":[1.6411713E4,2.0155361E4,3.51208E2,5.4070137E3,2.7414512E3,2.834463E2,0E0,2.362949E3,1.0731606E3,0E0,0E0,2.3436865E2,1.694219E2,1.680597E3,0E0,3.0150977E2,4.7358795E2,2.7246045E2,4.8520874E1,6.903717E0,0E0,2.1695305E3,0E0,1.7344629E2,0E0,8.622468E0,0E0,0E0,2.1123337E1,0E0,1.965482E1,0E0,0E0,7.886902E2,1.7843341E3,0E0,0E0,0E0,0E0,0E0,0E0,0E0,0E0,2.407627E2,1.7228006E2,0E0,1.465227E2,0E0,0E0,0E0,0E0,0E0,0E0],"parents":[2147483647,0,0,1,1,2,2,3,3,4,4,5,5,7,7,8,8,11,11,12,12,13,13,15,15,16,16,17,17,18,18,19,19,21,21,23,23,25,25,28,28,30,30,33,33,34,34,43,43,44,44,46,46],"right_children":[2,4,6,8,10,12,-1,14,16,-1,-1,18,20,22,-1,24,26,28,30,32,-1,34,-1,36,-1,38,-1,-1,40,-1,42,-1,-1,44,46,-1,-1,-1,-1,-1,-1,-1,-1,48,50,-1,52,-1,-1,-1,-1,-1,-1],"split_conditions":[1E0,1E0,6.1E-1,5.1E1,9E0,1E0,-0E0,1.3E1,1.4E1,8.175031E0,8.082733E-1,1.2E1,5.1E1,9E0,3.322687E0,5.8E1,5.8E1,1E0,1E0,5.1E-1,-1.0670041E0,6E0,-2.4721153E0,6E0,1.0253724E0,4E-1,1.7403427E0,-2.1208014E0,4.7E-1,-1.0355251E0,3.6E1,1.8579178E-1,-0E0,1E0,3.5E-1,7.075577E-1,4.213163E0,-0E0,-3.1627962E-1,-0E0,-6.518992E-1,-0E0,-3.2136866E-1,4.6E1,7E0,-1.4948822E0,1E0,-1.2155803E0,-0E0,-1.4505158E-1,9.6298325E-1,2.351584E0,6.7914504E-1],"split_indices":[18,4,1,2,22,5,0,21,21,0,0,21,0,22,0,2,2,4,3,1,0,22,0,22,0,1,0,0,1,0,0,0,0,5,1,0,0,0,0,0,0,0,0,2,21,0,7,0,0,0,0,0,0],"split_type":[0,0,0,0,0,0,0,0,0,0,0,0,0,0,0,0,0,0,0,0,0,0,0,0,0,0,0,0,0,0,0,0,0,0,0,0,0,0,0,0,0,0,0,0,0,0,0,0,0,0,0,0,0],"sum_hessian":[6.8E1,4E1,2.8E1,3.5E1,5E0,2.6E1,2E0,2.5E1,1E1,4E0,1E0,2.2E1,4E0,2.4E1,1E0,7E0,3E0,1.4E1,8E0,3E0,1E0,2.2E1,2E0,5E0,2E0,2E0,1E0,1.1E1,3E0,5E0,3E0,1E0,2E0,1.4E1,8E0,1E0,4E0,1E0,1E0,1E0,2E0,1E0,2E0,1.1E1,3E0,1E0,7E0,1E1,1E0,1E0,2E0,4E0,3E0],"tree_param":{"num_deleted":"0","num_feature":"24","num_nodes":"53","size_leaf_vector":"1"}},{"base_weights":[1.6287854E0,-4.8004813E0,3.8878002E1,5.406222E0,-1.5012885E1,6.0764828E1,-2.916516E0,-3.2734437E0,2.5095806E1,-2.3248943E1,-1.2334772E1,2.7599218E1,1.0517444E1,1.5702313E-2,-6.68455E-1,-3.311688E-1,-2.307307E0,4.2190676E0,1.2786396E1,-6.138077E-2,-2.6085832E0,-1.4241652E1,-7.4651814E0,3.805306E1,-9.8349917E-1,-3.76404E0,5.9509697E0,2.707463E0,-2.0147094E-1,-1.6361176E0,-6.0891533E0,-0E0,-1.0775149E1,4.247703E0,7.678589E-1,-1.0751E1,1.0032364E0,-1.7091522E0,1.1888874E0,-1.7621024E0,1.5618571E0,-0E0,-7.888881E-1,1.7650223E-1,-0E0,-4.4246626E-1,-1.4769471E0,-3.3679314E0,-1.419632E1,-3.9006E0,1.0584141E1,1.8437195E-1,-8.6838835E-1,-0E0,-6.094635E-1,-1.6736243E0,-7.882767E-2,-1.1853546E0,8.9878434E-1,2.1363018E-1,1.5463829E0],"categories":[],"categories_nodes":[],"categories_segments":[],"categories_sizes":[],"default_left":[0,0,0,0,0,0,0,0,0,0,0,0,0,0,0,0,0,0,0,0,0,0,0,0,0,0,0,0,0,0,0,0,0,0,0,0,0,0,0,0,0,0,0,0,0,0,0,0,0,0,0,0,0,0,0,0,0,0,0,0,0],"id":24,"left_children":[1,3,5,7,9,11,13,15,17,19,21,23,-1,-1,-1,25,-1,-1,27,-1,-1,29,31,33,-1,35,37,-1,39,-1,41,43,45,-1,-1,47,49,51,-1,-1,-1,-1,-1,-1,-1,-1,-1,53,55,57,59,-1,-1,-1,-1,-1,-1,-1,-1,-1,-1],"loss_changes":[1.9515834E4,7.32141E3,1.1443455E4,6.1727266E3,3.0731006E2,8.216375E3,9.159326E1,1.3317362E3,1.5003535E3,2.9998364E2,5.443506E1,2.863329E3,0E0,0E0,0E0,5.074778E2,0E0,0E0,1.62441E3,0E0,0E0,1.1643164E2,3.1581244E2,9.493701E1,0E0,5.9246497E2,4.3509906E2,0E0,1.6631176E3,0E0,8.8705475E1,6.2306075E0,4.1606445E1,0E0,0E0,4.242572E1,5.4453406E2,1.4933278E2,0E0,0E0,0E0,0E0,0E0,0E0,0E0,0E0,0E0,6.6061874E1,3.5406128E1,8.38374E2,4.3855225E1,0E0,0E0,0E0,0E0,0E0,0E0,0E0,0E0,0E0,0E0],"parents":[2147483647,0,0,1,1,2,2,3,3,4,4,5,5,6,6,7,7,8,8,9,9,10,10,11,11,15,15,18,18,21,21,22,22,23,23,25,25,26,26,28,28,30,30,31,31,32,32,35,35,36,36,37,37,47,47,48,48,49,49,50,50],"right_children":[2,4,6,8,10,12,14,16,18,20,22,24,-1,-1,-1,26,-1,-1,28,-1,-1,30,32,34,-1,36,38,-1,40,-1,42,44,46,-1,-1,48,50,52,-1,-1,-1,-1,-1,-1,-1,-1,-1,54,56,58,60,-1,-1,-1,-1,-1,-1,-1,-1,-1,-1],"split_conditions":[1E0,1E0,1E0,5.1E1,4.5E-1,1E1,3.8E1,9E0,3.6E1,3.6E1,5E1,5.1E1,1.0517444E1,1.5702313E-2,-6.68455E-1,1E0,-2.307307E0,4.2190676E0,8E0,-6.138077E-2,-2.6085832E0,1E1,9E0,9E0,-9.8349917E-1,8E0,2.9E1,2.707463E0,5.8E1,-1.6361176E0,4.6E-1,5.1E-1,1E0,4.247703E0,7.678589E-1,7E0,3E0,4E0,1.1888874E0,-1.7621024E0,1.5618571E0,-0E0,-7.888881E-1,1.7650223E-1,-0E0,-4.4246626E-1,-1.4769471E0,3.5E-1,1E0,1E0,4E-1,1.8437195E-1,-8.6838835E-1,-0E0,-6.094635E-1,-1.6736243E0,-7.882767E-2,-1.1853546E0,8.9878434E-1,2.1363018E-1,1.5463829E0],"split_indices":[4,18,18,2,1,21,2,22,0,0,2,2,0,0,0,7,0,0,22,0,0,21,22,22,0,21,2,0,2,0,1,1,5,0,0,21,22,22,0,0,0,0,0,0,0,0,0,1,3,5,1,0,0,0,0,0,0,0,0,0,0],"split_type":[0,0,0,0,0,0,0,0,0,0,0,0,0,0,0,0,0,0,0,0,0,0,0,0,0,0,0,0,0,0,0,0,0,0,0,0,0,0,0,0,0,0,0,0,0,0,0,0,0,0,0,0,0,0,0,0,0,0,0,0,0],"sum_hessian":[7.9E1,6.8E1,1.1E1,3.4E1,3.4E1,7E0,4E0,2.4E1,1E1,6E0,2.8E1,5E0,2E0,2E0,2E0,2.2E1,2E0,3E0,7E0,1E0,5E0,1.8E1,1E1,4E0,1E0,1.5E1,7E0,3E0,4E0,1.3E1,5E0,3E0,7E0,3E0,1E0,6E0,9E0,3E0,4E0,2E0,2E0,1E0,4E0,1E0,2E0,4E0,3E0,3E0,3E0,6E0,3E0,2E0,1E0,1E0,2E0,2E0,1E0,4E0,2E0,2E0,1E0],"tree_param":{"num_deleted":"0","num_feature":"24","num_nodes":"61","size_leaf_vector":"1"}}]},"name":"gbtree"},"learner_model_param":{"base_score":"2.3431522E2","boost_from_average":"1","num_class":"0","num_feature":"24","num_target":"1"},"objective":{"name":"reg:squarederror","reg_loss_param":{"scale_pos_weight":"1"}}},"version":[3,0,2]}