{"learner":{"attributes":{"scikit_learn":"{\"_estimator_type\": \"regressor\"}"},"feature_names":[],"feature_types":[],"gradient_booster":{"model":{"gbtree_model_param":{"num_parallel_tree":"1","num_trees":"25"},"iteration_indptr":[0,1,2,3,4,5,6,7,8,9,10,11,12,13,14,15,16,17,18,19,20,21,22,23,24,25],"tree_info":[0,0,0,0,0,0,0,0,0,0,0,0,0,0,0,0,0,0,0,0,0,0,0,0,0],"trees":[{"base_weights":[1.2085735E1,1.1587171E2,-1.1699637E2,3.1160528E1,6.617149E1,-2.6800438E1,-1.3446217E2,1.2662829E1,2.3946241E1,-3.336842E1,5.1973727E-2,-1.43771925E1,-5.0720396E0,-1.0512499E1,1.0383158E2,-4.1470394E0,-0E0,-2.6177631E1,2.1605265E1,1.157796E1,2.5519738E0,-3.4964115E1,3.2796059E0,2.883158E1,6.92983E-2,-5.6720395E0,-1.909046E1,-1.0973683E1,2.5519738E0,5.1973727E-2,3.4529607E0,-2.4671046E-1,-4.4307017E0,5.1973727E-2,-1.9480263E0],"categories":[],"categories_nodes":[],"categories_segments":[],"categories_sizes":[],"default_left":[0,0,0,0,0,0,0,0,0,0,0,0,0,0,0,0,0,0,0,0,0,0,0,0,0,0,0,0,0,0,0,0,0,0,0],"id":0,"left_children":[1,3,5,-1,7,9,11,13,-1,15,-1,-1,-1,17,19,-1,-1,21,23,-1,-1,25,27,29,-1,-1,31,33,-1,-1,-1,-1,-1,-1,-1],"loss_changes":[8.709533E5,3.2769978E5,4.1275E4,0E0,2.738841E5,1.2582168E3,1.0446156E4,5.2266906E4,0E0,1.311917E3,0E0,0E0,0E0,1.0651016E4,1.0171953E3,0E0,0E0,3.8966484E3,8.9022876E2,0E0,0E0,2.336996E3,1.620756E3,6.1341504E2,0E0,0E0,3.0102898E3,3.9823636E2,0E0,0E0,0E0,0E0,0E0,0E0,0E0],"parents":[2147483647,0,0,1,1,2,2,4,4,5,5,6,6,7,7,9,9,13,13,14,14,17,17,18,18,21,21,22,22,23,23,26,26,27,27],"right_children":[2,4,6,-1,8,10,12,14,-1,16,-1,-1,-1,18,20,-1,-1,22,24,-1,-1,26,28,30,-1,-1,32,34,-1,-1,-1,-1,-1,-1,-1],"split_conditions":[4.7E-1,2.9E1,2.9E1,3.1160528E1,1E0,5.4E-1,1E0,1E0,2.3946241E1,1E0,5.1973727E-2,-1.43771925E1,-5.0720396E0,1E0,2.3E1,-4.1470394E0,-0E0,1E0,9E0,1.157796E1,2.5519738E0,6E0,5E0,3.2E1,6.92983E-2,-5.6720395E0,1E1,2.2E1,2.5519738E0,5.1973727E-2,3.4529607E0,-2.4671046E-1,-4.4307017E0,5.1973727E-2,-1.9480263E0],"split_indices":[1,0,0,0,4,1,4,5,0,7,0,0,0,7,21,0,0,3,22,0,0,22,22,2,0,0,22,21,0,0,0,0,0,0,0],"split_type":[0,0,0,0,0,0,0,0,0,0,0,0,0,0,0,0,0,0,0,0,0,0,0,0,0,0,0,0,0,0,0,0,0,0,0],"sum_hessian":[6.3E1,3.5E1,2.8E1,6E0,2.9E1,5E0,2.3E1,2.3E1,6E0,4E0,1E0,2E1,3E0,1.9E1,4E0,3E0,1E0,1.3E1,6E0,3E0,1E0,1E1,3E0,4E0,2E0,3E0,7E0,2E0,1E0,1E0,3E0,5E0,2E0,1E0,1E0],"tree_param":{"num_deleted":"0","num_feature":"24","num_nodes":"35","size_leaf_vector":"1"}},{"base_weights":[-1.1590375E1,8.654145E1,-9.465403E1,4.8595406E1,2.1674437E1,4.173125E1,-1.2067752E2,2.1890318E1,9.5676464E-1,1.7759327E1,-1.9959803E1,-1.2976735E1,-5.191079E0,-1.65145E1,7.185263E0,-4.090675E0,-3.2463799E0,-4.7739845E1,6.4946914E0,8.9925126E-4,-9.006249E-1,-5.963079E0,-1.0341664E1,1.4386305E1,-2.9764917E0,4.9375154E-2,-1.8506249E0,-2.5754395E0,2.0314724E1,-6.8569106E-1,4.9375154E-2,2.6819482E0,-6.8569106E-1],"categories":[],"categories_nodes":[],"categories_segments":[],"categories_sizes":[],"default_left":[0,0,0,0,0,0,0,0,0,0,0,0,0,0,0,0,0,0,0,0,0,0,0,0,0,0,0,0,0,0,0,0,0],"id":1,"left_children":[1,3,5,7,-1,9,11,-1,13,-1,15,-1,-1,17,-1,-1,19,21,23,-1,-1,-1,25,27,-1,-1,-1,29,31,-1,-1,-1,-1],"loss_changes":[4.9730334E5,1.264797E5,1.2255503E5,1.8529555E5,0E0,5.462172E4,9.857469E3,0E0,2.4997473E4,0E0,1.3969111E3,0E0,0E0,1.2011801E4,0E0,0E0,1.20069336E2,2.1463516E3,3.2127822E3,0E0,0E0,0E0,3.646E2,1.0460226E3,0E0,0E0,0E0,7.462336E1,1.5209263E3,0E0,0E0,0E0,0E0],"parents":[2147483647,0,0,1,1,2,2,3,3,5,5,6,6,8,8,10,10,13,13,16,16,17,17,18,18,22,22,23,23,27,27,28,28],"right_children":[2,4,6,8,-1,10,12,-1,14,-1,16,-1,-1,18,-1,-1,20,22,24,-1,-1,-1,26,28,-1,-1,-1,30,32,-1,-1,-1,-1],"split_conditions":[4.7E-1,1E0,2.9E1,2.9E1,2.1674437E1,3.6E1,1E0,2.1890318E1,1E0,1.7759327E1,5.1E-1,-1.2976735E1,-5.191079E0,6E0,7.185263E0,-4.090675E0,1E0,1E0,1E0,8.9925126E-4,-9.006249E-1,-5.963079E0,2.2E1,7E0,-2.9764917E0,4.9375154E-2,-1.8506249E0,4E-1,2.3E1,-6.8569106E-1,4.9375154E-2,2.6819482E0,-6.8569106E-1],"split_indices":[1,4,0,0,0,2,4,0,5,0,1,0,0,22,0,0,6,3,6,0,0,0,21,22,0,0,0,1,21,0,0,0,0],"split_type":[0,0,0,0,0,0,0,0,0,0,0,0,0,0,0,0,0,0,0,0,0,0,0,0,0,0,0,0,0,0,0,0,0],"sum_hessian":[5.9E1,2.7E1,3.2E1,2.2E1,5E0,5E0,2.7E1,4E0,1.8E1,1E0,4E0,2.3E1,4E0,1.5E1,3E0,1E0,3E0,6E0,9E0,2E0,1E0,4E0,2E0,8E0,1E0,1E0,1E0,2E0,6E0,1E0,1E0,5E0,1E0],"tree_param":{"num_deleted":"0","num_feature":"24","num_nodes":"33","size_leaf_vector":"1"}},{"base_weights":[-1.206784E1,7.836152E1,-8.420939E1,2.836591E1,5.146712E1,1.9665253E1,-1.11058945E2,-2.96838E0,2.0035896E1,-3.0181961E1,1.1447126E2,-1.1794234E1,-3.9023054E0,5.308735E0,-3.8654022E1,-3.602607E0,-0E0,1.6871359E1,4.933014E-2,-1.6952328E1,2.7535494E1,-5.368668E-1,-4.629292E0,-2.990209E1,1.7247894E1,3.1191402E1,-0E0,1.1802117E0,-3.9653145E1,4.690628E-2,2.290278E0,1.0285892E0,4.067753E0,-6.514069E-1,-4.3978148E0],"categories":[],"categories_nodes":[],"categories_segments":[],"categories_sizes":[],"default_left":[0,0,0,0,0,0,0,0,0,0,0,0,0,0,0,0,0,0,0,0,0,0,0,0,0,0,0,0,0,0,0,0,0,0,0],"id":2,"left_children":[1,3,5,-1,7,9,11,13,-1,15,17,-1,-1,19,21,-1,-1,-1,-1,23,25,-1,-1,27,29,31,-1,-1,33,-1,-1,-1,-1,-1,-1],"loss_changes":[4.1109828E5,1.3832317E5,1.0025556E5,0E0,2.1231173E5,4.1682938E4,8.4965E3,6.2794136E3,0E0,1.0236831E3,1.7618027E4,0E0,0E0,8.931158E3,5.1021436E2,0E0,0E0,0E0,0E0,4.5649824E3,9.5939795E2,0E0,0E0,3.4538662E3,1.570451E2,9.1327637E2,0E0,0E0,3.2102148E2,0E0,0E0,0E0,0E0,0E0,0E0],"parents":[2147483647,0,0,1,1,2,2,4,4,5,5,6,6,7,7,9,9,10,10,13,13,14,14,19,19,20,20,23,23,24,24,25,25,28,28],"right_children":[2,4,6,-1,8,10,12,14,-1,16,18,-1,-1,20,22,-1,-1,-1,-1,24,26,-1,-1,28,30,32,-1,-1,34,-1,-1,-1,-1,-1,-1],"split_conditions":[4.7E-1,2.9E1,2.9E1,2.836591E1,1E0,1E0,1E0,1E0,2.0035896E1,1E0,5.1E-1,-1.1794234E1,-3.9023054E0,4E-1,3.2E1,-3.602607E0,-0E0,1.6871359E1,4.933014E-2,1E0,1E1,-5.368668E-1,-4.629292E0,2.2E1,2.2E1,3.6E1,-0E0,1.1802117E0,4.6E1,4.690628E-2,2.290278E0,1.0285892E0,4.067753E0,-6.514069E-1,-4.3978148E0],"split_indices":[1,0,0,0,4,5,4,6,0,7,1,0,0,1,2,0,0,0,0,3,22,0,0,21,21,2,0,0,2,0,0,0,0,0,0],"split_type":[0,0,0,0,0,0,0,0,0,0,0,0,0,0,0,0,0,0,0,0,0,0,0,0,0,0,0,0,0,0,0,0,0,0,0],"sum_hessian":[6.1E1,2.7E1,3.4E1,2E0,2.5E1,7E0,2.7E1,1.9E1,6E0,5E0,2E0,2.4E1,3E0,1.6E1,3E0,4E0,1E0,1E0,1E0,8E0,8E0,1E0,2E0,6E0,2E0,7E0,1E0,1E0,5E0,1E0,1E0,3E0,4E0,1E0,4E0],"tree_param":{"num_deleted":"0","num_feature":"24","num_nodes":"35","size_leaf_vector":"1"}},{"base_weights":[-1.3257859E0,7.259597E1,-7.5355606E1,2.386982E1,4.2325733E1,1.599522E1,-9.981676E1,-3.1355858E-1,1.8318535E1,-3.2255226E1,1.0883104E2,-1.0725531E1,-4.4636087E0,3.8732117E1,-1.5758346E1,-3.8513985E1,-0E0,1.6027792E1,4.6863556E-2,5.4938407E0,-2.6752808E0,-2.4005827E1,3.1814337E0,-4.3515162E0,-6.7546386E-1,-5.3949933E0,-5.035786E0,-1.0390892E1,2.1757638E0,-2.1849072E0,1.1008644E0],"categories":[],"categories_nodes":[],"categories_segments":[],"categories_sizes":[],"default_left":[0,0,0,0,0,0,0,0,0,0,0,0,0,0,0,0,0,0,0,0,0,0,0,0,0,0,0,0,0,0,0],"id":3,"left_children":[1,3,5,-1,7,9,11,13,-1,15,17,-1,-1,19,21,23,-1,-1,-1,-1,-1,25,-1,-1,-1,-1,27,29,-1,-1,-1],"loss_changes":[3.7213603E5,1.5944225E5,7.7990266E4,0E0,1.8115642E5,3.9728207E4,5.535625E3,1.4968736E4,0E0,1.1742378E3,1.5845879E4,0E0,0E0,9.039558E3,7.7870737E3,2.4889258E2,0E0,0E0,0E0,0E0,0E0,8.522046E3,0E0,0E0,0E0,0E0,1.7475453E3,2.746728E3,0E0,0E0,0E0],"parents":[2147483647,0,0,1,1,2,2,4,4,5,5,6,6,7,7,9,9,10,10,13,13,14,14,15,15,21,21,26,26,27,27],"right_children":[2,4,6,-1,8,10,12,14,-1,16,18,-1,-1,20,22,24,-1,-1,-1,-1,-1,26,-1,-1,-1,-1,28,30,-1,-1,-1],"split_conditions":[4.7E-1,1.3E1,2.9E1,2.386982E1,1E0,1E0,1E0,2.2E1,1.8318535E1,1E0,5.1E-1,-1.0725531E1,-4.4636087E0,4.6E1,1E0,5.4E-1,-0E0,1.6027792E1,4.6863556E-2,5.4938407E0,-2.6752808E0,6E0,3.1814337E0,-4.3515162E0,-6.7546386E-1,-5.3949933E0,1E0,1E0,2.1757638E0,-2.1849072E0,1.1008644E0],"split_indices":[1,21,0,0,4,5,4,21,0,7,1,0,0,2,5,1,0,0,0,0,0,22,0,0,0,0,3,7,0,0,0],"split_type":[0,0,0,0,0,0,0,0,0,0,0,0,0,0,0,0,0,0,0,0,0,0,0,0,0,0,0,0,0,0,0],"sum_hessian":[6.6E1,3.3E1,3.3E1,4E0,2.9E1,7E0,2.6E1,2.3E1,6E0,5E0,2E0,2.2E1,4E0,6E0,1.7E1,4E0,1E0,1E0,1E0,5E0,1E0,1.5E1,2E0,3E0,1E0,5E0,1E1,9E0,1E0,6E0,3E0],"tree_param":{"num_deleted":"0","num_feature":"24","num_nodes":"31","size_leaf_vector":"1"}},{"base_weights":[-5.5569267E0,5.9458286E1,-6.649128E1,2.0285677E2,2.2464317E1,2.1918362E1,-8.792883E1,2.1960234E1,5.706445E0,3.2006738E0,1.2154827E1,-3.0397985E0,1.0347282E2,-9.435562E0,-4.1065197E0,-1.0502585E1,6.874098E1,1.5226402E1,4.4520568E-2,2.2471617E1,-2.7834648E1,7.8636956E0,1.7026535E0,3.5521942E1,-2.541517E0,-4.1492146E1,1.2017757E1,7.4748483E0,4.642678E0,-4.007782E-1,-4.4656215E0,1.1116892E-1,1.9867982E0,-0E0,1.101358E0],"categories":[],"categories_nodes":[],"categories_segments":[],"categories_sizes":[],"default_left":[0,0,0,0,0,0,0,0,0,0,0,0,0,0,0,0,0,0,0,0,0,0,0,0,0,0,0,0,0,0,0,0,0,0,0],"id":4,"left_children":[1,3,5,7,9,11,13,-1,-1,15,-1,-1,17,-1,-1,19,21,-1,-1,23,25,-1,-1,27,-1,29,31,33,-1,-1,-1,-1,-1,-1,-1],"loss_changes":[2.4564989E5,1.5346272E5,6.290647E4,7.334531E2,4.6705168E4,3.337716E4,3.2788906E3,0E0,0E0,2.07717E4,0E0,0E0,1.4249186E4,0E0,0E0,1.1511012E4,2.2982812E2,0E0,0E0,5.3278975E3,7.721708E3,0E0,0E0,1.2185522E3,0E0,7.637383E2,2.1547491E2,7.497783E1,0E0,0E0,0E0,0E0,0E0,0E0,0E0],"parents":[2147483647,0,0,1,1,2,2,3,3,4,4,5,5,6,6,9,9,12,12,15,15,16,16,19,19,20,20,23,23,25,25,26,26,27,27],"right_children":[2,4,6,8,10,12,14,-1,-1,16,-1,-1,18,-1,-1,20,22,-1,-1,24,26,-1,-1,28,-1,30,32,34,-1,-1,-1,-1,-1,-1,-1],"split_conditions":[4.7E-1,2.9E1,2.9E1,1E0,1E0,1E0,1E0,2.1960234E1,5.706445E0,1E0,1.2154827E1,-3.0397985E0,5.1E-1,-9.435562E0,-4.1065197E0,2.2E1,2.3E1,1.5226402E1,4.4520568E-2,5.1E1,1E0,7.8636956E0,1.7026535E0,4E0,-2.541517E0,3.2E1,3.6E1,4E-1,4.642678E0,-4.007782E-1,-4.4656215E0,1.1116892E-1,1.9867982E0,-0E0,1.101358E0],"split_indices":[1,0,0,6,4,5,4,0,0,5,0,0,1,0,0,21,21,0,0,2,7,0,0,22,0,2,2,1,0,0,0,0,0,0,0],"split_type":[0,0,0,0,0,0,0,0,0,0,0,0,0,0,0,0,0,0,0,0,0,0,0,0,0,0,0,0,0,0,0,0,0,0,0],"sum_hessian":[6E1,2.9E1,3.1E1,5E0,2.4E1,6E0,2.5E1,4E0,1E0,2.1E1,3E0,4E0,2E0,2.1E1,4E0,1.8E1,3E0,1E0,1E0,6E0,1.2E1,2E0,1E0,5E0,1E0,9E0,3E0,2E0,3E0,1E0,8E0,2E0,1E0,1E0,1E0],"tree_param":{"num_deleted":"0","num_feature":"24","num_nodes":"35","size_leaf_vector":"1"}},{"base_weights":[1.1922827E1,7.7860405E1,-7.136607E1,2.4528492E1,4.7194305E1,-7.863363E1,-8.669262E0,1.6851255E1,1.6492462E1,-8.766991E0,-3.60798E0,-1.3507645E0,4.2294312E-2,5.516241E-1,8.093946E1,3.2279484E1,-1.726084E1,2.6504602E0,1.0672783E1,4.450353E0,-2.4144409E0,-4.1312203E0,-3.0090744E0,-8.98843E0,2.2902565E0,2.220156E-1,-3.381232E0],"categories":[],"categories_nodes":[],"categories_segments":[],"categories_sizes":[],"default_left":[0,0,0,0,0,0,0,0,0,0,0,0,0,0,0,0,0,0,0,0,0,0,0,0,0,0,0],"id":5,"left_children":[1,3,5,-1,7,9,11,13,-1,-1,-1,-1,-1,15,17,19,21,-1,-1,-1,-1,-1,23,25,-1,-1,-1],"loss_changes":[3.3510116E5,1.6152627E5,1.1184406E4,0E0,1.03480836E5,5.4468125E3,2.4710275E2,2.566325E4,0E0,0E0,0E0,0E0,0E0,1.2500443E4,3.5239883E3,6.694132E3,4.452923E3,0E0,0E0,0E0,0E0,0E0,1.6856366E3,2.737196E3,0E0,0E0,0E0],"parents":[2147483647,0,0,1,1,2,2,4,4,5,5,6,6,7,7,13,13,14,14,15,15,16,16,22,22,23,23],"right_children":[2,4,6,-1,8,10,12,14,-1,-1,-1,-1,-1,16,18,20,22,-1,-1,-1,-1,-1,24,26,-1,-1,-1],"split_conditions":[4.7E-1,1.3E1,5.5E1,2.4528492E1,1E0,1E0,5.5E-1,1E0,1.6492462E1,-8.766991E0,-3.60798E0,-1.3507645E0,4.2294312E-2,2.2E1,5.1E1,5.1E1,6E0,2.6504602E0,1.0672783E1,4.450353E0,-2.4144409E0,-4.1312203E0,1E0,1E1,2.2902565E0,2.220156E-1,-3.381232E0],"split_indices":[1,21,2,0,4,4,1,5,0,0,0,0,0,21,2,2,22,0,0,0,0,0,3,22,0,0,0],"split_type":[0,0,0,0,0,0,0,0,0,0,0,0,0,0,0,0,0,0,0,0,0,0,0,0,0,0,0],"sum_hessian":[5.9E1,3.3E1,2.6E1,4E0,2.9E1,2.3E1,3E0,2.4E1,5E0,1.8E1,5E0,2E0,1E0,2E1,4E0,7E0,1.3E1,2E0,2E0,6E0,1E0,4E0,9E0,8E0,1E0,6E0,2E0],"tree_param":{"num_deleted":"0","num_feature":"24","num_nodes":"27","size_leaf_vector":"1"}},{"base_weights":[1.17144375E1,6.3690956E1,-4.766279E1,1.7017148E2,3.8420452E1,2.2193392E1,-7.1125817E0,9.062512E0,2.1784279E1,1.4725533E1,1.2201424E1,-2.0220848E1,1.0129074E2,-0E0,8.583771E1,-2.4950846E1,-0E0,1.4903432E1,4.0179443E-2,2.9308416E1,-1.2034273E1,1.9756463E0,9.961265E0,-2.7827744E0,-4.2216262E-1,4.1408286E0,3.9607002E1,-4.0393953E0,-1.1615244E0,-0E0,8.2377243E-1,4.5807247E0,8.003136E-1,-5.677561E0,2.1757438E0,3.5799447E-1,-2.4023182E0],"categories":[],"categories_nodes":[],"categories_segments":[],"categories_sizes":[],"default_left":[0,0,0,0,0,0,0,0,0,0,0,0,0,0,0,0,0,0,0,0,0,0,0,0,0,0,0,0,0,0,0,0,0,0,0,0,0],"id":6,"left_children":[1,3,5,7,9,11,-1,-1,-1,13,-1,15,17,19,21,23,-1,-1,-1,25,27,-1,-1,-1,-1,29,31,-1,33,-1,-1,-1,-1,35,-1,-1,-1],"loss_changes":[1.9137534E5,8.121591E4,4.935528E4,1.468125E3,5.298052E4,2.9292365E4,0E0,0E0,0E0,2.4485102E4,0E0,6.5942725E2,1.3643338E4,7.3262554E3,1.0762168E3,2.0454102E1,0E0,0E0,0E0,1.1723984E3,4.3705186E3,0E0,0E0,0E0,0E0,8.428082E1,1.4815381E2,0E0,1.2851643E3,0E0,0E0,0E0,0E0,2.0563994E3,0E0,0E0,0E0],"parents":[2147483647,0,0,1,1,2,2,3,3,4,4,5,5,9,9,11,11,12,12,13,13,14,14,15,15,19,19,20,20,25,25,26,26,28,28,33,33],"right_children":[2,4,6,8,10,12,-1,-1,-1,14,-1,16,18,20,22,24,-1,-1,-1,26,28,-1,-1,-1,-1,30,32,-1,34,-1,-1,-1,-1,36,-1,-1,-1],"split_conditions":[4.7E-1,2.9E1,2.9E1,3.6E1,1E0,1E0,-7.1125817E0,9.062512E0,2.1784279E1,1E0,1.2201424E1,1E0,5.1E-1,2.2E1,4.1E1,5.4E-1,-0E0,1.4903432E1,4.0179443E-2,4E0,6E0,1.9756463E0,9.961265E0,-2.7827744E0,-4.2216262E-1,4E-1,4.6E1,-4.0393953E0,1E0,-0E0,8.2377243E-1,4.5807247E0,8.003136E-1,1E1,2.1757438E0,3.5799447E-1,-2.4023182E0],"split_indices":[1,0,0,2,4,5,0,0,0,5,0,7,1,21,2,1,0,0,0,22,22,0,0,0,0,1,2,0,3,0,0,0,0,22,0,0,0],"split_type":[0,0,0,0,0,0,0,0,0,0,0,0,0,0,0,0,0,0,0,0,0,0,0,0,0,0,0,0,0,0,0,0,0,0,0,0,0],"sum_hessian":[6E1,3.2E1,2.8E1,5E0,2.7E1,7E0,2.1E1,3E0,2E0,2.2E1,5E0,5E0,2E0,1.9E1,3E0,4E0,1E0,1E0,1E0,5E0,1.4E1,1E0,2E0,3E0,1E0,2E0,3E0,3E0,1.1E1,1E0,1E0,2E0,1E0,1E1,1E0,7E0,3E0],"tree_param":{"num_deleted":"0","num_feature":"24","num_nodes":"37","size_leaf_vector":"1"}},{"base_weights":[7.234053E0,6.796565E1,-5.7915306E1,1.733234E2,4.4898174E1,-6.6300197E0,-5.0847807E0,4.5100846E0,1.9285383E1,2.339401E1,1.1184639E1,-7.796829E0,3.8170625E-2,6.0916225E1,3.9907084E0,-1.1538819E0,-0E0,7.5818534E0,1.4106969E0,-1.0328724E1,4.720133E1,1.2475485E0,-3.5043156E0,5.4688873E0,9.8693466E-1,6.9647408E0,-1.9744996E0,-9.710457E-1,1.1448406E0],"categories":[],"categories_nodes":[],"categories_segments":[],"categories_sizes":[],"default_left":[0,0,0,0,0,0,0,0,0,0,0,0,0,0,0,0,0,0,0,0,0,0,0,0,0,0,0,0,0],"id":7,"left_children":[1,3,5,7,9,-1,11,-1,-1,13,-1,15,-1,17,19,-1,-1,-1,-1,21,23,25,-1,-1,-1,27,-1,-1,-1],"loss_changes":[2.2951411E5,6.4037125E4,1.1709344E4,2.6335469E3,3.4138562E4,0E0,1.1417859E2,0E0,0E0,1.4721519E4,0E0,1.562708E2,0E0,3.3637676E3,9.953165E3,0E0,0E0,0E0,0E0,3.6459077E3,2.5556445E2,1.1537831E3,0E0,0E0,0E0,7.1798694E2,0E0,0E0,0E0],"parents":[2147483647,0,0,1,1,2,2,3,3,4,4,6,6,9,9,11,11,13,13,14,14,19,19,20,20,21,21,25,25],"right_children":[2,4,6,8,10,-1,12,-1,-1,14,-1,16,-1,18,20,-1,-1,-1,-1,22,24,26,-1,-1,-1,28,-1,-1,-1],"split_conditions":[4.7E-1,1.3E1,5.5E1,4E-1,1E0,-6.6300197E0,5.5E-1,4.5100846E0,1.9285383E1,2.2E1,1.1184639E1,1E0,3.8170625E-2,1E0,1E0,-1.1538819E0,-0E0,7.5818534E0,1.4106969E0,4.6E1,2.3E1,1E0,-3.5043156E0,5.4688873E0,9.8693466E-1,5E0,-1.9744996E0,-9.710457E-1,1.1448406E0],"split_indices":[1,21,2,1,4,0,1,0,0,21,0,7,0,7,5,0,0,0,0,2,21,6,0,0,0,22,0,0,0],"split_type":[0,0,0,0,0,0,0,0,0,0,0,0,0,0,0,0,0,0,0,0,0,0,0,0,0,0,0,0,0],"sum_hessian":[5.6E1,2.9E1,2.7E1,4E0,2.5E1,2.3E1,4E0,1E0,3E0,2E1,5E0,3E0,1E0,6E0,1.4E1,2E0,1E0,4E0,2E0,1.1E1,3E0,8E0,3E0,2E0,1E0,7E0,1E0,1E0,6E0],"tree_param":{"num_deleted":"0","num_feature":"24","num_nodes":"29","size_leaf_vector":"1"}},{"base_weights":[1.1612853E1,6.95316E1,-3.968642E1,4.5012417E1,2.1640318E1,1.2570502E1,-5.644126E1,1.6673765E1,1.2288374E2,-2.5340845E1,9.850681E1,-6.104433E1,-2.3899512E0,1.0861331E0,6.533696E1,1.3169253E1,3.2515519E0,-3.0135841E1,-0E0,1.448976E1,3.626175E-2,-6.5633807E0,-3.1313343E1,-1.4278848E1,3.2468407E1,1.8606726E0,8.862155E0,-3.378957E1,-3.4336016E-1,-3.485626E0,-6.070839E-1,-2.756359E1,8.832507E0,4.3266506E0,5.581472E0,-3.859743E0,-4.7790605E-1,-4.1884665E0,-9.594012E0,1.3166509E0,-0E0,-9.2249376E-1,2.0097146E0,4.521891E-2,-1.8108877E0],"categories":[],"categories_nodes":[],"categories_segments":[],"categories_sizes":[],"default_left":[0,0,0,0,0,0,0,0,0,0,0,0,0,0,0,0,0,0,0,0,0,0,0,0,0,0,0,0,0,0,0,0,0,0,0,0,0,0,0,0,0,0,0,0,0],"id":8,"left_children":[1,3,5,7,-1,9,11,13,15,17,19,21,-1,23,25,-1,-1,27,-1,-1,-1,-1,29,31,33,-1,-1,35,-1,-1,-1,37,39,-1,41,-1,-1,-1,43,-1,-1,-1,-1,-1,-1],"loss_changes":[1.9009362E5,9.6987234E4,3.0697766E4,5.6836023E4,0E0,3.2183725E4,2.0109375E3,1.5526344E4,4.6914844E2,9.539048E2,1.2880115E4,4.619453E2,0E0,8.751756E3,3.255373E3,0E0,0E0,2.8324023E2,0E0,0E0,0E0,0E0,3.0917969E1,4.0214517E3,1.2562358E3,0E0,0E0,2.9605078E2,0E0,0E0,0E0,1.3995137E3,1.3000494E2,0E0,8.845309E2,0E0,0E0,0E0,5.241822E2,0E0,0E0,0E0,0E0,0E0,0E0],"parents":[2147483647,0,0,1,1,2,2,3,3,5,5,6,6,7,7,8,8,9,9,10,10,11,11,13,13,14,14,17,17,22,22,23,23,24,24,27,27,31,31,32,32,34,34,38,38],"right_children":[2,4,6,8,-1,10,12,14,16,18,20,22,-1,24,26,-1,-1,28,-1,-1,-1,-1,30,32,34,-1,-1,36,-1,-1,-1,38,40,-1,42,-1,-1,-1,44,-1,-1,-1,-1,-1,-1],"split_conditions":[4.7E-1,6E1,2.9E1,1E0,2.1640318E1,1E0,1E0,1E0,1.1E1,1E0,5.1E-1,4.9E1,-2.3899512E0,1E0,5.1E1,1.3169253E1,3.2515519E0,5.4E-1,-0E0,1.448976E1,3.626175E-2,-6.5633807E0,5.4E-1,1E0,2.2E1,1.8606726E0,8.862155E0,1E0,-3.4336016E-1,-3.485626E0,-6.070839E-1,5E0,2.2E1,4.3266506E0,5E0,-3.859743E0,-4.7790605E-1,-4.1884665E0,9E0,1.3166509E0,-0E0,-9.2249376E-1,2.0097146E0,4.521891E-2,-1.8108877E0],"split_indices":[1,2,0,4,0,5,4,5,22,7,1,2,0,3,2,0,0,1,0,0,0,0,1,7,21,0,0,4,0,0,0,22,21,0,22,0,0,0,22,0,0,0,0,0,0],"split_type":[0,0,0,0,0,0,0,0,0,0,0,0,0,0,0,0,0,0,0,0,0,0,0,0,0,0,0,0,0,0,0,0,0,0,0,0,0,0,0,0,0,0,0,0,0],"sum_hessian":[6.2E1,2.9E1,3.3E1,2.6E1,3E0,8E0,2.5E1,2E1,6E0,6E0,2E0,2.1E1,4E0,1.6E1,4E0,5E0,1E0,5E0,1E0,1E0,1E0,1.7E1,4E0,1.1E1,5E0,2E0,2E0,4E0,1E0,3E0,1E0,7E0,4E0,3E0,2E0,3E0,1E0,3E0,4E0,2E0,2E0,1E0,1E0,2E0,2E0],"tree_param":{"num_deleted":"0","num_feature":"24","num_nodes":"45","size_leaf_vector":"1"}},{"base_weights":[1.3361952E1,5.836975E1,-3.659017E1,3.6625526E1,2.0017294E1,2.0952993E1,-5.2729824E1,1.3867974E1,1.20718155E1,-2.5864695E1,9.366481E1,-5.5916634E0,-2.2363327E0,7.5620217E0,1.2071679E0,-4.040959E0,-1.0315704E0,1.3765273E1,3.4449007E-2,-1.9402895E1,2.2162035E1,-0E0,-3.2619247E-1,-2.4863958E1,1.5103867E0,4.242252E0,-9.635046E0,-2.9618214E1,6.462166E-1,-1.6901621E0,-0E0,-3.5885384E0,-3.4554088E-1],"categories":[],"categories_nodes":[],"categories_segments":[],"categories_sizes":[],"default_left":[0,0,0,0,0,0,0,0,0,0,0,0,0,0,0,0,0,0,0,0,0,0,0,0,0,0,0,0,0,0,0,0,0],"id":9,"left_children":[1,3,5,7,-1,9,11,13,-1,15,17,-1,-1,-1,19,-1,21,-1,-1,23,25,-1,-1,27,-1,-1,29,31,-1,-1,-1,-1,-1],"loss_changes":[1.3713878E5,9.015338E4,2.8196809E4,5.315149E4,0E0,2.6591006E4,5.838789E2,1.8288572E4,0E0,1.5570845E3,1.1577496E4,0E0,0E0,0E0,9.513307E3,0E0,1.8087893E1,0E0,0E0,2.4972222E3,7.659146E3,0E0,0E0,1.796501E3,0E0,0E0,3.9282385E2,1.154999E3,0E0,0E0,0E0,0E0,0E0],"parents":[2147483647,0,0,1,1,2,2,3,3,5,5,6,6,7,7,9,9,10,10,14,14,16,16,19,19,20,20,23,23,26,26,27,27],"right_children":[2,4,6,8,-1,10,12,14,-1,16,18,-1,-1,-1,20,-1,22,-1,-1,24,26,-1,-1,28,-1,-1,30,32,-1,-1,-1,-1,-1],"split_conditions":[4.7E-1,6E1,2.9E1,1E0,2.0017294E1,1E0,1E0,2.9E1,1.20718155E1,4.5E1,5.1E-1,-5.5916634E0,-2.2363327E0,7.5620217E0,7E0,-4.040959E0,5.2E-1,1.3765273E1,3.4449007E-2,1E0,9E0,-0E0,-3.2619247E-1,1E0,1.5103867E0,4.242252E0,4E-1,6E0,6.462166E-1,-1.6901621E0,-0E0,-3.5885384E0,-3.4554088E-1],"split_indices":[1,2,0,4,0,5,4,0,0,2,1,0,0,0,22,0,1,0,0,5,22,0,0,7,0,0,1,22,0,0,0,0,0],"split_type":[0,0,0,0,0,0,0,0,0,0,0,0,0,0,0,0,0,0,0,0,0,0,0,0,0,0,0,0,0,0,0,0,0],"sum_hessian":[5.9E1,3.1E1,2.8E1,2.8E1,3E0,6E0,2.2E1,2.3E1,5E0,4E0,2E0,1.9E1,3E0,3E0,2E1,2E0,2E0,1E0,1E0,1E1,1E1,1E0,1E0,9E0,1E0,6E0,4E0,8E0,1E0,2E0,2E0,6E0,2E0],"tree_param":{"num_deleted":"0","num_feature":"24","num_nodes":"33","size_leaf_vector":"1"}},{"base_weights":[1.0239271E1,5.0258663E1,-3.3821976E1,1.2564963E1,3.2755062E1,1.9413345E1,-5.036617E0,9.83649E0,1.0266537E2,-1.781466E1,8.90649E1,-3.3686836E0,5.904885E1,1.1883199E1,3.9832551E0,-3.3749216E0,-6.8779054E0,1.307701E1,3.2726288E-2,-2.7635649E1,9.572658E0,1.6862814E0,7.988528E0,-9.4546664E-1,-0E0,-3.5121277E1,6.139061E-1,-7.913485E-2,4.3438344E0,-3.967095E0,-3.6864623E-1,9.171175E0,-1.980997E1,-0E0,1.2633023E0,-2.6359718E0,-0E0],"categories":[],"categories_nodes":[],"categories_segments":[],"categories_sizes":[],"default_left":[0,0,0,0,0,0,0,0,0,0,0,0,0,0,0,0,0,0,0,0,0,0,0,0,0,0,0,0,0,0,0,0,0,0,0,0,0],"id":10,"left_children":[1,3,5,-1,7,9,-1,11,13,15,17,19,21,-1,-1,-1,23,-1,-1,25,27,-1,-1,-1,-1,29,-1,31,-1,-1,-1,33,35,-1,-1,-1,-1],"loss_changes":[1.14633516E5,3.9959164E4,2.8435332E4,0E0,4.489271E4,2.268682E4,0E0,1.5424047E4,1.5838594E3,6.1037415E2,1.040418E4,6.3217554E3,2.5641992E3,0E0,0E0,0E0,1.2103493E2,0E0,0E0,2.1302979E3,4.469473E3,0E0,0E0,0E0,0E0,4.9507568E2,0E0,2.2425544E3,0E0,0E0,0E0,2.8467615E2,5.1476416E2,0E0,0E0,0E0,0E0],"parents":[2147483647,0,0,1,1,2,2,4,4,5,5,7,7,8,8,9,9,10,10,11,11,12,12,16,16,19,19,20,20,25,25,27,27,31,31,32,32],"right_children":[2,4,6,-1,8,10,-1,12,14,16,18,20,22,-1,-1,-1,24,-1,-1,26,28,-1,-1,-1,-1,30,-1,32,-1,-1,-1,34,36,-1,-1,-1,-1],"split_conditions":[4.7E-1,2.9E1,2.9E1,1.2564963E1,1E0,1E0,-5.036617E0,1E0,8E0,3E1,5.1E-1,6E0,5.1E1,1.1883199E1,3.9832551E0,-3.3749216E0,1E0,1.307701E1,3.2726288E-2,1E0,1E0,1.6862814E0,7.988528E0,-9.4546664E-1,-0E0,1E0,6.139061E-1,1E1,4.3438344E0,-3.967095E0,-3.6864623E-1,7E0,1E0,-0E0,1.2633023E0,-2.6359718E0,-0E0],"split_indices":[1,0,0,0,4,5,0,5,22,2,1,22,2,0,0,0,7,0,0,7,3,0,0,0,0,3,0,22,0,0,0,22,7,0,0,0,0],"split_type":[0,0,0,0,0,0,0,0,0,0,0,0,0,0,0,0,0,0,0,0,0,0,0,0,0,0,0,0,0,0,0,0,0,0,0,0,0],"sum_hessian":[6.3E1,3.3E1,3E1,5E0,2.8E1,7E0,2.3E1,2.2E1,6E0,5E0,2E0,1.8E1,4E0,4E0,2E0,1E0,4E0,1E0,1E0,6E0,1.2E1,2E0,2E0,3E0,1E0,5E0,1E0,1E1,2E0,4E0,1E0,7E0,3E0,2E0,5E0,2E0,1E0],"tree_param":{"num_deleted":"0","num_feature":"24","num_nodes":"37","size_leaf_vector":"1"}},{"base_weights":[4.2617407E0,4.222833E1,-3.3681778E1,2.2184883E1,1.7573624E1,1.42446995E1,-4.787098E1,2.421255E0,9.670858E1,-2.2521233E1,8.4695E1,-5.2460907E1,-9.408615E0,5.523689E0,-4.663661E0,1.1593008E1,3.7177052E0,-2.7711308E1,-0E0,1.242316E1,3.1089783E-2,-5.6346006E0,-2.698238E1,-1.1807659E0,-0E0,-2.4475355E1,8.048404E0,-3.2365685E0,-2.0468979E-1,-3.2251396E0,-4.5315932E-2,-2.9617802E1,5.8321077E-1,-3.29141E-1,4.054245E0,-3.4394658E0,-8.5248214E-1,7.22425E0,-1.8491985E1,-4.737854E-2,1.1985565E0,-2.4602401E0,-0E0],"categories":[],"categories_nodes":[],"categories_segments":[],"categories_sizes":[],"default_left":[0,0,0,0,0,0,0,0,0,0,0,0,0,0,0,0,0,0,0,0,0,0,0,0,0,0,0,0,0,0,0,0,0,0,0,0,0,0,0,0,0,0,0],"id":11,"left_children":[1,3,5,7,-1,9,11,13,15,17,19,21,23,-1,25,-1,-1,27,-1,-1,-1,-1,29,-1,-1,31,33,-1,-1,-1,-1,35,-1,37,-1,-1,-1,39,41,-1,-1,-1,-1],"loss_changes":[9.222197E4,8.0742375E4,2.2611273E4,4.1983094E4,0E0,2.2939674E4,3.6105586E3,9.491136E3,1.7902344E3,7.9634717E2,9.347445E3,2.4071094E2,6.4174194E1,0E0,5.8197686E3,0E0,0E0,3.5894678E2,0E0,0E0,0E0,0E0,5.2077686E2,0E0,0E0,1.694353E3,4.025495E3,0E0,0E0,0E0,0E0,2.9825928E2,0E0,1.8362222E3,0E0,0E0,0E0,3.9311243E2,4.480204E2,0E0,0E0,0E0,0E0],"parents":[2147483647,0,0,1,1,2,2,3,3,5,5,6,6,7,7,8,8,9,9,10,10,11,11,12,12,14,14,17,17,22,22,25,25,26,26,31,31,33,33,37,37,38,38],"right_children":[2,4,6,8,-1,10,12,14,16,18,20,22,24,-1,26,-1,-1,28,-1,-1,-1,-1,30,-1,-1,32,34,-1,-1,-1,-1,36,-1,38,-1,-1,-1,40,42,-1,-1,-1,-1],"split_conditions":[4.7E-1,6E1,2.9E1,1E0,1.7573624E1,1E0,1E0,2.9E1,8E0,1E0,5.1E-1,1E0,5.2E-1,5.523689E0,6E0,1.1593008E1,3.7177052E0,1E0,-0E0,1.242316E1,3.1089783E-2,-5.6346006E0,5.4E-1,-1.1807659E0,-0E0,1E0,1E0,-3.2365685E0,-2.0468979E-1,-3.2251396E0,-4.5315932E-2,1E0,5.8321077E-1,1E1,4.054245E0,-3.4394658E0,-8.5248214E-1,4E-1,1E0,-4.737854E-2,1.1985565E0,-2.4602401E0,-0E0],"split_indices":[1,2,0,4,0,5,4,0,22,7,1,5,1,0,22,0,0,4,0,0,0,0,1,0,0,7,3,0,0,0,0,3,0,22,0,0,0,1,7,0,0,0,0],"split_type":[0,0,0,0,0,0,0,0,0,0,0,0,0,0,0,0,0,0,0,0,0,0,0,0,0,0,0,0,0,0,0,0,0,0,0,0,0,0,0,0,0,0,0],"sum_hessian":[6.2E1,3.1E1,3.1E1,2.8E1,3E0,7E0,2.4E1,2.3E1,5E0,5E0,2E0,2.1E1,3E0,2E0,2.1E1,3E0,2E0,4E0,1E0,1E0,1E0,1.7E1,4E0,2E0,1E0,8E0,1.3E1,3E0,1E0,3E0,1E0,7E0,1E0,1.1E1,2E0,5E0,2E0,8E0,3E0,3E0,5E0,2E0,1E0],"tree_param":{"num_deleted":"0","num_feature":"24","num_nodes":"43","size_leaf_vector":"1"}},{"base_weights":[1.1045363E1,5.167149E1,-3.099505E1,3.5535698E1,1.6255602E1,1.2621624E1,-4.3415756E1,1.9490234E1,8.70501E1,-2.2609625E1,8.054358E1,-4.5972E0,-1.6613423E0,4.7236667E0,3.360346E0,1.00051E1,3.469858E0,-2.5728424E1,-1.00781254E-1,1.1802002E1,2.9534912E-2,-6.1499887E0,3.705643E1,-2.9938257E0,-1.9445495E-1,-2.86347E0,5.207367E0,4.3073163E0,7.003121E-1,-2.6746178E0,9.681734E0,-3.60878E-1,-0E0,1.5541916E0,-1.645813E-1],"categories":[],"categories_nodes":[],"categories_segments":[],"categories_sizes":[],"default_left":[0,0,0,0,0,0,0,0,0,0,0,0,0,0,0,0,0,0,0,0,0,0,0,0,0,0,0,0,0,0,0,0,0,0,0],"id":12,"left_children":[1,3,5,7,-1,9,11,13,15,17,19,-1,-1,-1,21,-1,-1,23,-1,-1,-1,25,27,-1,-1,-1,29,-1,-1,31,33,-1,-1,-1,-1],"loss_changes":[1.1442894E5,5.4066125E4,1.8579691E4,2.3394414E4,0E0,2.1254531E4,7.0466406E2,1.0776955E4,6.189414E2,2.4461987E2,8.395818E3,0E0,0E0,0E0,5.8302666E3,0E0,0E0,2.83E2,0E0,0E0,0E0,3.841384E3,1.712622E2,0E0,0E0,0E0,4.135995E2,0E0,0E0,1.0455557E1,5.5973E2,0E0,0E0,0E0,0E0],"parents":[2147483647,0,0,1,1,2,2,3,3,5,5,6,6,7,7,8,8,9,9,10,10,14,14,17,17,21,21,22,22,26,26,29,29,30,30],"right_children":[2,4,6,8,-1,10,12,14,16,18,20,-1,-1,-1,22,-1,-1,24,-1,-1,-1,26,28,-1,-1,-1,30,-1,-1,32,34,-1,-1,-1,-1],"split_conditions":[4.7E-1,6E1,2.9E1,1E0,1.6255602E1,1E0,1E0,2.2E1,8E0,5.4E-1,5.1E-1,-4.5972E0,-1.6613423E0,4.7236667E0,1E0,1.00051E1,3.469858E0,1E0,-1.00781254E-1,1.1802002E1,2.9534912E-2,6E0,2.3E1,-2.9938257E0,-1.9445495E-1,-2.86347E0,7E0,4.3073163E0,7.003121E-1,1E0,2.3E1,-3.60878E-1,-0E0,1.5541916E0,-1.645813E-1],"split_indices":[1,2,0,4,0,5,4,21,22,1,1,0,0,0,5,0,0,4,0,0,0,22,21,0,0,0,22,0,0,7,21,0,0,0,0],"split_type":[0,0,0,0,0,0,0,0,0,0,0,0,0,0,0,0,0,0,0,0,0,0,0,0,0,0,0,0,0,0,0,0,0,0,0],"sum_hessian":[6.5E1,3.3E1,3.2E1,3E1,3E0,7E0,2.5E1,2.4E1,6E0,5E0,2E0,2.2E1,3E0,8E0,1.6E1,4E0,2E0,4E0,1E0,1E0,1E0,1.3E1,3E0,3E0,1E0,4E0,9E0,2E0,1E0,3E0,6E0,2E0,1E0,4E0,2E0],"tree_param":{"num_deleted":"0","num_feature":"24","num_nodes":"35","size_leaf_vector":"1"}},{"base_weights":[9.011889E0,6.0088047E1,-1.724692E1,9.167238E1,-1.5462386E1,9.059884E0,-3.844615E1,1.4778098E2,4.833998E1,-2.8326494E1,1.7318726E-2,-6.175703E0,5.3954673E0,-4.2495922E1,-1.4367803E0,1.6613905E1,2.5495317E0,1.0383129E0,6.7749504E1,-3.4870446E0,-1.8473206E-1,2.3280385E-1,-9.574204E-2,-1.0929592E1,1.4816387E0,-4.9315333E0,-1.866797E1,6.290492E-1,-4.859112E-1,1.4710045E1,1.02601595E1,-1.9295189E0,5.314401E0,-2.2148805E0,-0E0,-5.437729E-1,2.4905212E1,9.297954E0,-0E0,3.6159286E0,-0E0,-0E0,1.3882996E0],"categories":[],"categories_nodes":[],"categories_segments":[],"categories_sizes":[],"default_left":[0,0,0,0,0,0,0,0,0,0,0,0,0,0,0,0,0,0,0,0,0,0,0,0,0,0,0,0,0,0,0,0,0,0,0,0,0,0,0,0,0,0,0],"id":13,"left_children":[1,3,5,7,9,11,13,15,17,19,21,23,-1,25,-1,-1,-1,27,29,-1,-1,-1,-1,31,-1,-1,33,-1,-1,35,-1,-1,37,-1,-1,-1,39,41,-1,-1,-1,-1,-1],"loss_changes":[8.306368E4,5.190893E4,2.3360293E4,2.8345469E4,1.5359646E3,1.3568072E4,1.347875E3,8.275625E3,8.766746E3,4.451079E2,1.8091398E1,1.6394141E3,0E0,1.8268242E3,0E0,0E0,0E0,1.616204E2,1.084392E4,0E0,0E0,0E0,0E0,1.9390258E3,0E0,0E0,3.6188867E2,0E0,0E0,1.0544048E3,0E0,0E0,1.18141495E2,0E0,0E0,0E0,7.541793E2,1.2611932E2,0E0,0E0,0E0,0E0,0E0],"parents":[2147483647,0,0,1,1,2,2,3,3,4,4,5,5,6,6,7,7,8,8,9,9,10,10,11,11,13,13,17,17,18,18,23,23,26,26,29,29,32,32,36,36,37,37],"right_children":[2,4,6,8,10,12,14,16,18,20,22,24,-1,26,-1,-1,-1,28,30,-1,-1,-1,-1,32,-1,-1,34,-1,-1,36,-1,-1,38,-1,-1,-1,40,42,-1,-1,-1,-1,-1],"split_conditions":[2.2E1,5.1E-1,4.7E-1,2.9E1,3.8E1,1E0,1E0,1E0,4.5E1,1E0,1E0,1E0,5.3954673E0,1E0,-1.4367803E0,1.6613905E1,2.5495317E0,4.7E-1,4E-1,-3.4870446E0,-1.8473206E-1,2.3280385E-1,-9.574204E-2,1E0,1.4816387E0,-4.9315333E0,5.4E-1,6.290492E-1,-4.859112E-1,4E0,1.02601595E1,-1.9295189E0,9E0,-2.2148805E0,-0E0,-5.437729E-1,4.6E1,3.2E1,-0E0,3.6159286E0,-0E0,-0E0,1.3882996E0],"split_indices":[21,1,1,0,2,4,4,3,2,4,6,5,0,5,0,0,0,1,1,0,0,0,0,7,0,0,1,0,0,22,0,0,22,0,0,0,2,2,0,0,0,0,0],"split_type":[0,0,0,0,0,0,0,0,0,0,0,0,0,0,0,0,0,0,0,0,0,0,0,0,0,0,0,0,0,0,0,0,0,0,0,0,0,0,0,0,0,0,0],"sum_hessian":[6E1,2E1,4E1,1.4E1,6E0,1.8E1,2.2E1,5E0,9E0,3E0,3E0,1.4E1,4E0,1.8E1,4E0,4E0,1E0,3E0,6E0,2E0,1E0,2E0,1E0,1.2E1,2E0,1.3E1,5E0,2E0,1E0,3E0,3E0,8E0,4E0,4E0,1E0,1E0,2E0,2E0,2E0,1E0,1E0,1E0,1E0],"tree_param":{"num_deleted":"0","num_feature":"24","num_nodes":"43","size_leaf_vector":"1"}},{"base_weights":[6.7631006E0,3.283179E1,-2.1971228E1,6.529645E1,5.2106514E0,-3.2011776E1,1.4877967E1,1.0292763E1,9.126901E1,-9.612604E0,4.9638286E0,-3.6246357E1,-1.2433633E0,1.0381207E1,-1.6413063E1,2.6703014E0,-1.3351827E1,2.8950567E1,1.2715621E1,-1.4667304E1,1.3828634E0,-3.828482E1,-1.0946294E0,1.6417695E-2,-2.0761347E0,-0E0,-2.1226273E0,4.0713153E0,5.871124E-1,-2.453985E1,5.0367403E0,-4.5344386E0,-2.404976E0,-2.5991743E0,-3.9623642E-1,8.835185E0,-0E0,-0E0,1.3188843E0],"categories":[],"categories_nodes":[],"categories_segments":[],"categories_sizes":[],"default_left":[0,0,0,0,0,0,0,0,0,0,0,0,0,0,0,0,0,0,0,0,0,0,0,0,0,0,0,0,0,0,0,0,0,0,0,0,0,0,0],"id":14,"left_children":[1,3,5,7,9,11,13,15,17,19,-1,21,-1,-1,23,-1,25,27,-1,29,-1,31,-1,-1,-1,-1,-1,-1,-1,33,35,-1,-1,-1,-1,37,-1,-1,-1],"loss_changes":[4.7217766E4,2.8898684E4,1.1661522E4,1.998159E4,1.3189963E4,1.2956504E3,2.1620748E4,2.7513718E3,1.790257E4,1.9843485E3,0E0,3.146582E2,0E0,0E0,5.388895E2,0E0,3.6629547E2,8.854165E2,0E0,2.7499946E3,0E0,2.7089453E2,0E0,0E0,0E0,0E0,0E0,0E0,0E0,1.6127441E1,1.0733772E2,0E0,0E0,0E0,0E0,1.1370967E2,0E0,0E0,0E0],"parents":[2147483647,0,0,1,1,2,2,3,3,4,4,5,5,6,6,7,7,8,8,9,9,11,11,14,14,16,16,17,17,19,19,21,21,29,29,30,30,35,35],"right_children":[2,4,6,8,10,12,14,16,18,20,-1,22,-1,-1,24,-1,26,28,-1,30,-1,32,-1,-1,-1,-1,-1,-1,-1,34,36,-1,-1,-1,-1,38,-1,-1,-1],"split_conditions":[4.7E-1,2.2E1,1E0,4E-1,1E0,1E0,3.6E1,4.6E1,4.1E1,1E0,4.9638286E0,4.5E1,-1.2433633E0,1.0381207E1,2.9E1,2.6703014E0,5.1E1,2.9E1,1.2715621E1,1E0,1.3828634E0,1E0,-1.0946294E0,1.6417695E-2,-2.0761347E0,-0E0,-2.1226273E0,4.0713153E0,5.871124E-1,1E0,9E0,-4.5344386E0,-2.404976E0,-2.5991743E0,-3.9623642E-1,3.2E1,-0E0,-0E0,1.3188843E0],"split_indices":[1,21,5,1,4,4,2,2,2,5,0,2,0,0,0,0,2,0,0,7,0,3,0,0,0,0,0,0,0,3,22,0,0,0,0,2,0,0,0],"split_type":[0,0,0,0,0,0,0,0,0,0,0,0,0,0,0,0,0,0,0,0,0,0,0,0,0,0,0,0,0,0,0,0,0,0,0,0,0,0,0],"sum_hessian":[6.1E1,3.2E1,2.9E1,1.4E1,1.8E1,2.3E1,6E0,5E0,9E0,1.4E1,4E0,1.8E1,5E0,1E0,5E0,3E0,2E0,4E0,5E0,1.2E1,2E0,1.6E1,2E0,1E0,4E0,1E0,1E0,2E0,2E0,8E0,4E0,9E0,7E0,7E0,1E0,2E0,2E0,1E0,1E0],"tree_param":{"num_deleted":"0","num_feature":"24","num_nodes":"39","size_leaf_vector":"1"}},{"base_weights":[6.3425927E0,3.610935E1,-2.3462523E1,2.282876E1,1.3207672E1,-3.3239403E1,3.8036163E0,9.6353245E0,6.785741E1,-3.6277546E1,-1.2223688E0,9.862147E0,-1.7134087E1,6.9944835E-1,4.6026115E1,7.3637385E0,1.4088776E0,-3.8773285E1,-5.8801217E0,-2.2904437E0,3.7475586E-2,3.9770315E0,-4.946154E0,1.2906718E0,6.213681E0,-4.533447E0,-2.2639702E1,-1.2462578E0,1.1423951E-1,-2.402372E0,6.7897434E0,-2.4184327E0,-3.4136698E-1,-9.103546E-1,3.4426854E0,7.873065E-1,-1.4025071E0],"categories":[],"categories_nodes":[],"categories_segments":[],"categories_sizes":[],"default_left":[0,0,0,0,0,0,0,0,0,0,0,0,0,0,0,0,0,0,0,0,0,0,0,0,0,0,0,0,0,0,0,0,0,0,0,0,0],"id":15,"left_children":[1,3,5,7,-1,9,11,13,15,17,-1,-1,19,21,23,-1,-1,25,27,-1,-1,-1,29,-1,-1,-1,31,-1,-1,-1,33,-1,-1,35,-1,-1,-1],"loss_changes":[6.212736E4,4.0817938E4,9.60383E3,1.796935E4,0E0,9.741172E2,2.1949906E4,8.1889536E3,6.993789E2,1.2177461E3,0E0,0E0,1.0305215E3,5.223559E3,1.4906816E3,0E0,0E0,7.508789E2,2.0951431E2,0E0,0E0,0E0,4.727132E3,0E0,0E0,0E0,1.702832E1,0E0,0E0,0E0,2.965433E3,0E0,0E0,1.4082927E3,0E0,0E0,0E0],"parents":[2147483647,0,0,1,1,2,2,3,3,5,5,6,6,7,7,8,8,9,9,12,12,13,13,14,14,17,17,18,18,22,22,26,26,30,30,33,33],"right_children":[2,4,6,8,-1,10,12,14,16,18,-1,-1,20,22,24,-1,-1,26,28,-1,-1,-1,30,-1,-1,-1,32,-1,-1,-1,34,-1,-1,36,-1,-1,-1],"split_conditions":[4.7E-1,6E1,1E0,1E0,1.3207672E1,1E0,3.6E1,1E0,1.1E1,5.5E1,-1.2223688E0,9.862147E0,5.4E-1,2.9E1,5.1E1,7.3637385E0,1.4088776E0,1E0,5E-1,-2.2904437E0,3.7475586E-2,3.9770315E0,6E0,1.2906718E0,6.213681E0,-4.533447E0,4.3E1,-1.2462578E0,1.1423951E-1,-2.402372E0,1E0,-2.4184327E0,-3.4136698E-1,9E0,3.4426854E0,7.873065E-1,-1.4025071E0],"split_indices":[1,2,5,4,0,4,2,5,22,2,0,0,1,0,2,0,0,3,1,0,0,0,22,0,0,0,2,0,0,0,3,0,0,22,0,0,0],"split_type":[0,0,0,0,0,0,0,0,0,0,0,0,0,0,0,0,0,0,0,0,0,0,0,0,0,0,0,0,0,0,0,0,0,0,0,0,0],"sum_hessian":[6.8E1,3.4E1,3.4E1,3.1E1,3E0,2.5E1,9E0,2.5E1,6E0,2.1E1,4E0,1E0,8E0,2.1E1,4E0,5E0,1E0,1.9E1,2E0,6E0,2E0,2E0,1.9E1,2E0,2E0,1.2E1,7E0,1E0,1E0,7E0,1.2E1,6E0,1E0,1E1,2E0,6E0,4E0],"tree_param":{"num_deleted":"0","num_feature":"24","num_nodes":"37","size_leaf_vector":"1"}},{"base_weights":[2.0404327E0,2.8921534E1,-2.149267E1,5.9788277E1,6.459177E0,8.593246E0,-3.0115541E1,2.2852766E1,1.0592744E1,-3.453476E0,4.326683E0,-1.9818214E1,6.421842E1,-3.24954E0,-0E0,3.2249954E1,-1.8963776E0,3.2572937E0,-2.3972416E0,-2.5215967E1,1.0852738E-1,9.3690405E0,1.37229925E-2,8.731395E0,3.89111E0,6.6353498E0,-1.4450661E0,-3.0008914E0,-5.220871E-2,2.0896897E0,-5.299805E-1,-1.4781532E0,1.0487682E1,-0E0,-2.8238145E-1,1.4405054E1,1.7190475E0,1.8084424E0,-0E0,-0E0,4.5753786E-1],"categories":[],"categories_nodes":[],"categories_segments":[],"categories_sizes":[],"default_left":[0,0,0,0,0,0,0,0,0,0,0,0,0,0,0,0,0,0,0,0,0,0,0,0,0,0,0,0,0,0,0,0,0,0,0,0,0,0,0,0,0],"id":16,"left_children":[1,3,5,7,9,11,13,15,-1,17,-1,19,21,-1,-1,23,-1,25,-1,27,-1,-1,-1,29,-1,31,-1,-1,-1,-1,-1,33,35,-1,-1,37,39,-1,-1,-1,-1],"loss_changes":[3.9247082E4,1.938943E4,8.927494E3,1.7385445E4,6.9159946E3,1.4137834E4,1.7622305E3,3.8216753E3,0E0,2.247129E3,0E0,8.250112E2,5.1838027E3,0E0,0E0,5.186631E2,0E0,7.746301E2,0E0,4.2345996E2,0E0,0E0,0E0,7.0082465E2,0E0,4.0436505E2,0E0,0E0,0E0,0E0,0E0,7.208107E0,1.6941656E2,0E0,0E0,2.706576E2,3.0047678E1,0E0,0E0,0E0,0E0],"parents":[2147483647,0,0,1,1,2,2,3,3,4,4,5,5,6,6,7,7,9,9,11,11,12,12,15,15,17,17,19,19,23,23,25,25,31,31,32,32,35,35,36,36],"right_children":[2,4,6,8,10,12,14,16,-1,18,-1,20,22,-1,-1,24,-1,26,-1,28,-1,-1,-1,30,-1,32,-1,-1,-1,-1,-1,34,36,-1,-1,38,40,-1,-1,-1,-1],"split_conditions":[4.7E-1,2.2E1,2.9E1,4E0,1E0,1E0,1E0,4.6E1,1.0592744E1,1E0,4.326683E0,1E0,5.1E-1,-3.24954E0,-0E0,4E-1,-1.8963776E0,5.1E1,-2.3972416E0,1E0,1.0852738E-1,9.3690405E0,1.37229925E-2,2.9E1,3.89111E0,7E0,-1.4450661E0,-3.0008914E0,-5.220871E-2,2.0896897E0,-5.299805E-1,2.3E1,2.3E1,-0E0,-2.8238145E-1,1.1E1,4.6E1,1.8084424E0,-0E0,-0E0,4.5753786E-1],"split_indices":[1,21,0,22,4,5,4,2,0,6,0,7,1,0,0,1,0,2,0,4,0,0,0,0,0,22,0,0,0,0,0,21,21,0,0,22,2,0,0,0,0],"split_type":[0,0,0,0,0,0,0,0,0,0,0,0,0,0,0,0,0,0,0,0,0,0,0,0,0,0,0,0,0,0,0,0,0,0,0,0,0,0,0,0,0],"sum_hessian":[6E1,2.8E1,3.2E1,1.1E1,1.7E1,7E0,2.5E1,7E0,4E0,1.4E1,3E0,5E0,2E0,2.3E1,2E0,6E0,1E0,1.1E1,3E0,4E0,1E0,1E0,1E0,2E0,4E0,1E1,1E0,3E0,1E0,1E0,1E0,3E0,7E0,2E0,1E0,4E0,3E0,3E0,1E0,2E0,1E0],"tree_param":{"num_deleted":"0","num_feature":"24","num_nodes":"41","size_leaf_vector":"1"}},{"base_weights":[6.0760474E0,2.9834795E1,-1.8413136E1,1.819726E1,1.1422638E1,-2.6589758E1,1.085961E1,9.688427E0,5.2620792E1,-3.0000124E1,-4.584131E0,8.900588E0,-1.2304982E1,2.6985047E0,4.7955856E1,7.081815E0,2.4567583E0,-3.334482E1,-4.5266113E0,-7.4956703E0,1.0310135E-1,-1.9084004E0,1.4283805E-1,3.5741165E0,-3.4857402E0,1.0994018E0,5.494513E0,-4.288446E0,-2.452467E1,-7.152939E-1,-0E0,-9.0482897E-1,-0E0,-1.6112799E1,3.6215603E0,-2.5882022E0,-1.6182137E-1,1.8262254E-1,-1.9650692E0,-2.35768E0,2.7998002E0,2.5900742E-1,-1.4150708E0],"categories":[],"categories_nodes":[],"categories_segments":[],"categories_sizes":[],"default_left":[0,0,0,0,0,0,0,0,0,0,0,0,0,0,0,0,0,0,0,0,0,0,0,0,0,0,0,0,0,0,0,0,0,0,0,0,0,0,0,0,0,0,0],"id":17,"left_children":[1,3,5,7,-1,9,11,13,15,17,19,-1,21,23,25,-1,-1,27,29,31,-1,-1,-1,-1,33,-1,-1,-1,35,-1,-1,-1,-1,37,39,-1,-1,-1,-1,41,-1,-1,-1],"loss_changes":[4.017106E4,3.1633127E4,8.505381E3,8.55157E3,0E0,1.7158281E3,1.5960531E4,6.839451E3,8.462051E2,1.6193301E3,1.21795E2,0E0,7.672285E2,5.1901157E3,9.958203E1,0E0,0E0,2.9404883E2,7.153277E1,2.0874313E1,0E0,0E0,0E0,0E0,2.0054401E3,0E0,0E0,0E0,2.2481445E2,0E0,0E0,0E0,0E0,6.327395E2,2.2347483E3,0E0,0E0,0E0,0E0,7.946425E2,0E0,0E0,0E0],"parents":[2147483647,0,0,1,1,2,2,3,3,5,5,6,6,7,7,8,8,9,9,10,10,12,12,13,13,14,14,17,17,18,18,19,19,24,24,28,28,33,33,34,34,39,39],"right_children":[2,4,6,8,-1,10,12,14,16,18,20,-1,22,24,26,-1,-1,28,30,32,-1,-1,-1,-1,34,-1,-1,-1,36,-1,-1,-1,-1,38,40,-1,-1,-1,-1,42,-1,-1,-1],"split_conditions":[4.7E-1,6E1,1E0,1E0,1.1422638E1,4.9E1,3.6E1,1E0,2.2E1,1E0,1E0,8.900588E0,5.4E-1,2.9E1,4.1E1,7.081815E0,2.4567583E0,5E0,5.4E-1,5.2E-1,1.0310135E-1,-1.9084004E0,1.4283805E-1,3.5741165E0,6E0,1.0994018E0,5.494513E0,-4.288446E0,4.4E1,-7.152939E-1,-0E0,-9.0482897E-1,-0E0,3.6E1,1E0,-2.5882022E0,-1.6182137E-1,1.8262254E-1,-1.9650692E0,1E1,2.7998002E0,2.5900742E-1,-1.4150708E0],"split_indices":[1,2,5,4,0,2,2,5,21,4,7,0,1,0,2,0,0,22,1,1,0,0,0,0,22,0,0,0,2,0,0,0,0,2,3,0,0,0,0,22,0,0,0],"split_type":[0,0,0,0,0,0,0,0,0,0,0,0,0,0,0,0,0,0,0,0,0,0,0,0,0,0,0,0,0,0,0,0,0,0,0,0,0,0,0,0,0,0,0],"sum_hessian":[6.7E1,3.4E1,3.3E1,3.1E1,3E0,2.6E1,7E0,2.6E1,5E0,2.2E1,4E0,1E0,6E0,2.3E1,3E0,2E0,3E0,1.9E1,3E0,3E0,1E0,4E0,2E0,3E0,2E1,1E0,2E0,7E0,1.2E1,2E0,1E0,2E0,1E0,7E0,1.3E1,1.1E1,1E0,1E0,6E0,1.1E1,2E0,8E0,3E0],"tree_param":{"num_deleted":"0","num_feature":"24","num_nodes":"43","size_leaf_vector":"1"}},{"base_weights":[4.2158985E0,2.5000011E1,-1.654371E1,5.0776646E1,6.7451982E0,-2.4485561E1,9.717536E0,2.2104631E1,6.530858E1,-7.53707E-1,3.8179245E0,-2.688577E1,-3.9130173E0,8.455559E0,-1.2338698E1,3.433878E0,-1.7033051E0,-0E0,7.4687095E0,-5.8841896E0,3.8167007E0,-2.997504E0,-4.240303E0,-9.886589E-1,-0E0,-1.5042075E0,-0E0,-1.9186076E0,-0E0,-6.7711943E-1,-0E0,2.5295022E0,-1.3020592E0,6.7912936E0,-9.432373E-1,9.130602E-1,-0E0],"categories":[],"categories_nodes":[],"categories_segments":[],"categories_sizes":[],"default_left":[0,0,0,0,0,0,0,0,0,0,0,0,0,0,0,0,0,0,0,0,0,0,0,0,0,0,0,0,0,0,0,0,0,0,0,0,0],"id":18,"left_children":[1,3,5,7,9,11,13,15,17,19,-1,21,23,-1,25,-1,-1,-1,-1,27,-1,-1,29,-1,-1,-1,-1,-1,31,-1,-1,33,-1,35,-1,-1,-1],"loss_changes":[2.7638488E4,1.4427416E4,6.985792E3,3.5358867E3,4.9303223E3,9.752637E2,1.4609555E4,3.5443198E3,4.925453E3,3.4577627E3,0E0,1.2408926E3,1.3424246E2,0E0,2.9187976E2,0E0,0E0,0E0,0E0,1.2865483E3,0E0,0E0,6.562655E1,0E0,0E0,0E0,0E0,0E0,4.0945383E2,0E0,0E0,6.116218E2,0E0,1.6848022E2,0E0,0E0,0E0],"parents":[2147483647,0,0,1,1,2,2,3,3,4,4,5,5,6,6,7,7,8,8,9,9,11,11,12,12,14,14,19,19,22,22,28,28,31,31,33,33],"right_children":[2,4,6,8,10,12,14,16,18,20,-1,22,24,-1,26,-1,-1,-1,-1,28,-1,-1,30,-1,-1,-1,-1,-1,32,-1,-1,34,-1,36,-1,-1,-1],"split_conditions":[4.7E-1,2.2E1,1E0,4E0,1E0,5.5E1,2.9E1,4.6E1,4.1E1,1E0,3.8179245E0,1E0,5E-1,8.455559E0,5.4E-1,3.433878E0,-1.7033051E0,-0E0,7.4687095E0,6E0,3.8167007E0,-2.997504E0,5.2E-1,-9.886589E-1,-0E0,-1.5042075E0,-0E0,-1.9186076E0,5.1E1,-6.7711943E-1,-0E0,1E0,-1.3020592E0,2.3E1,-9.432373E-1,9.130602E-1,-0E0],"split_indices":[1,21,5,22,4,2,0,2,2,5,0,4,1,0,1,0,0,0,0,22,0,0,1,0,0,0,0,0,2,0,0,6,0,21,0,0,0],"split_type":[0,0,0,0,0,0,0,0,0,0,0,0,0,0,0,0,0,0,0,0,0,0,0,0,0,0,0,0,0,0,0,0,0,0,0,0,0],"sum_hessian":[6.2E1,3.1E1,3.1E1,1.2E1,1.9E1,2.4E1,7E0,5E0,7E0,1.6E1,3E0,2.1E1,3E0,1E0,6E0,4E0,1E0,1E0,6E0,1.5E1,1E0,1.8E1,3E0,1E0,2E0,5E0,1E0,4E0,1.1E1,2E0,1E0,1E1,1E0,8E0,2E0,6E0,2E0],"tree_param":{"num_deleted":"0","num_feature":"24","num_nodes":"37","size_leaf_vector":"1"}},{"base_weights":[5.66327E0,2.403954E1,-2.0090038E1,1.3629757E1,1.0005791E1,-2.2821423E1,-3.6002107E0,3.9491956E0,5.4087326E1,-4.7520194E0,-2.4210203E0,-9.392258E-1,-0E0,-2.4950688E0,3.380297E1,6.0671334E0,8.0836487E-1,-7.0640147E-1,-0E0,-8.184135E0,1.4154643E1,7.151306E-1,4.7520313E0,-1.3692724E1,4.28183E0,2.4788094E0,2.333754E0,1.2790283E0,-1.7382166E1,-0E0,7.609197E0,1.6348053E0,-5.9269565E-1,-0E0,-1.8513745E0,-0E0,1.06455E0],"categories":[],"categories_nodes":[],"categories_segments":[],"categories_sizes":[],"default_left":[0,0,0,0,0,0,0,0,0,0,0,0,0,0,0,0,0,0,0,0,0,0,0,0,0,0,0,0,0,0,0,0,0,0,0,0,0],"id":19,"left_children":[1,3,5,7,-1,9,11,13,15,17,-1,-1,-1,19,21,-1,-1,-1,-1,23,25,-1,-1,27,29,31,-1,-1,33,-1,35,-1,-1,-1,-1,-1,-1],"loss_changes":[2.8424436E4,2.5764508E4,9.1173145E2,1.2029079E4,0E0,2.67125E2,1.1162144E2,5.4352925E3,9.831113E2,3.2055534E1,0E0,0E0,0E0,2.264581E3,1.2147598E3,0E0,0E0,0E0,0E0,1.3417423E3,4.5637683E2,0E0,0E0,1.5154795E3,6.3695244E1,6.153261E2,0E0,0E0,1.4466992E2,0E0,5.2953705E1,0E0,0E0,0E0,0E0,0E0,0E0],"parents":[2147483647,0,0,1,1,2,2,3,3,5,5,6,6,7,7,8,8,9,9,13,13,14,14,19,19,20,20,23,23,24,24,25,25,28,28,30,30],"right_children":[2,4,6,8,-1,10,12,14,16,18,-1,-1,-1,20,22,-1,-1,-1,-1,24,26,-1,-1,28,30,32,-1,-1,34,-1,36,-1,-1,-1,-1,-1,-1],"split_conditions":[4.7E-1,6E1,5.5E1,1E0,1.0005791E1,4.8E-1,5E-1,1E0,8E0,4E1,-2.4210203E0,-9.392258E-1,-0E0,1E0,5.1E1,6.0671334E0,8.0836487E-1,-7.0640147E-1,-0E0,1E0,5E0,7.151306E-1,4.7520313E0,2.9E1,8E0,2.9E1,2.333754E0,1.2790283E0,3.2E1,-0E0,3.6E1,1.6348053E0,-5.9269565E-1,-0E0,-1.8513745E0,-0E0,1.06455E0],"split_indices":[1,2,2,4,0,1,1,5,22,2,0,0,0,3,2,0,0,0,0,7,22,0,0,0,22,0,0,0,2,0,2,0,0,0,0,0,0],"split_type":[0,0,0,0,0,0,0,0,0,0,0,0,0,0,0,0,0,0,0,0,0,0,0,0,0,0,0,0,0,0,0,0,0,0,0,0,0],"sum_hessian":[5.8E1,3.4E1,2.4E1,3.1E1,3E0,2E1,4E0,2.6E1,5E0,2E0,1.8E1,1E0,3E0,2.2E1,4E0,4E0,1E0,1E0,1E0,1.7E1,5E0,2E0,2E0,1.2E1,5E0,3E0,2E0,1E0,1.1E1,3E0,2E0,1E0,2E0,1E0,1E1,1E0,1E0],"tree_param":{"num_deleted":"0","num_feature":"24","num_nodes":"37","size_leaf_vector":"1"}},{"base_weights":[6.244745E0,4.6355812E1,-4.0040517E0,7.105249E1,-6.3693724E0,9.725855E0,-2.0063774E1,7.542639E1,1.5530655E0,-1.6315163E0,-0E0,-5.722634E0,2.1982386E1,-3.0049953E0,-1.47878275E1,2.7655182E0,8.590759E1,-8.442611E0,1.0958542E0,4.071361E1,2.3343642E0,-6.661388E0,-2.3488203E1,1.0389041E1,3.1627985E1,-1.11516485E1,8.178406E-1,9.416714E0,5.6608406E1,-2.6908658E0,1.4948446E0,-1.153724E1,4.9708253E-1,-2.7296164E0,-6.3762134E-1,5.8864627E0,-8.9226454E-1,-1.3985844E1,-0E0,1.9697326E0,-0E0,1.0113229E0,6.4453897E0,-7.4644217E0,1.0475235E0,-1.3703311E1,-0E0,-0E0,2.3586579E-1,-1.7430223E1,-0E0,-4.9296722E-1,4.0657732E-1,-1.5837402E0,-0E0,-0E0,-1.5912756E0,-1.9393638E0,-3.2486726E-2],"categories":[],"categories_nodes":[],"categories_segments":[],"categories_sizes":[],"default_left":[0,0,0,0,0,0,0,0,0,0,0,0,0,0,0,0,0,0,0,0,0,0,0,0,0,0,0,0,0,0,0,0,0,0,0,0,0,0,0,0,0,0,0,0,0,0,0,0,0,0,0,0,0,0,0,0,0,0,0],"id":20,"left_children":[1,3,5,7,9,11,13,15,-1,-1,-1,17,19,-1,21,-1,23,25,-1,27,29,31,33,-1,35,37,-1,39,41,43,-1,45,47,-1,-1,-1,-1,49,-1,-1,51,-1,-1,53,-1,55,-1,-1,-1,57,-1,-1,-1,-1,-1,-1,-1,-1,-1],"loss_changes":[2.629605E4,1.7703756E4,1.1492249E4,5.5941406E2,3.2952454E2,5.508753E3,5.9591406E2,1.0619922E3,0E0,0E0,0E0,6.697804E2,5.5782236E3,0E0,9.654436E2,0E0,1.8931641E3,6.463926E2,0E0,3.1164727E3,6.7201013E2,4.4487582E2,1.7888623E2,0E0,4.0883267E3,3.9248218E2,0E0,4.2127136E2,7.9921387E2,5.030813E2,0E0,1.9492896E2,1.5454345E1,0E0,0E0,0E0,0E0,3.6625476E2,0E0,0E0,8.166435E1,0E0,0E0,4.1816443E2,0E0,1.3939478E2,0E0,0E0,0E0,1.3020166E2,0E0,0E0,0E0,0E0,0E0,0E0,0E0,0E0,0E0],"parents":[2147483647,0,0,1,1,2,2,3,3,4,4,5,5,6,6,7,7,11,11,12,12,14,14,16,16,17,17,19,19,20,20,21,21,22,22,24,24,25,25,27,27,28,28,29,29,31,31,32,32,37,37,40,40,43,43,45,45,49,49],"right_children":[2,4,6,8,10,12,14,16,-1,-1,-1,18,20,-1,22,-1,24,26,-1,28,30,32,34,-1,36,38,-1,40,42,44,-1,46,48,-1,-1,-1,-1,50,-1,-1,52,-1,-1,54,-1,56,-1,-1,-1,58,-1,-1,-1,-1,-1,-1,-1,-1,-1],"split_conditions":[2.9E1,5.1E-1,4.7E-1,1E0,3E1,7E0,5E0,3.2E1,1.5530655E0,-1.6315163E0,-0E0,1E0,9E0,-3.0049953E0,9E0,2.7655182E0,6.5E1,1E0,1.0958542E0,4E-1,1E0,8E0,1E0,1.0389041E1,4E-1,1E0,8.178406E-1,4.6E1,4.1E1,1E0,1.4948446E0,5.2E1,4.2E1,-2.7296164E0,-6.3762134E-1,5.8864627E0,-8.9226454E-1,6E0,-0E0,1.9697326E0,2.2E1,1.0113229E0,6.4453897E0,2.3E1,1.0475235E0,5E-1,-0E0,-0E0,2.3586579E-1,1E0,-0E0,-4.9296722E-1,4.0657732E-1,-1.5837402E0,-0E0,-0E0,-1.5912756E0,-1.9393638E0,-3.2486726E-2],"split_indices":[0,1,1,3,2,22,22,2,0,0,0,4,22,0,22,0,2,5,0,1,4,22,3,0,1,7,0,2,2,3,0,2,2,0,0,0,0,22,0,0,21,0,0,21,0,1,0,0,0,3,0,0,0,0,0,0,0,0,0],"split_type":[0,0,0,0,0,0,0,0,0,0,0,0,0,0,0,0,0,0,0,0,0,0,0,0,0,0,0,0,0,0,0,0,0,0,0,0,0,0,0,0,0,0,0,0,0,0,0,0,0,0,0,0,0,0,0,0,0,0,0],"sum_hessian":[6.2E1,1.2E1,5E1,8E0,4E0,2.7E1,2.3E1,7E0,1E0,1E0,3E0,1.2E1,1.5E1,6E0,1.7E1,2E0,5E0,1.1E1,1E0,7E0,8E0,1E1,7E0,3E0,2E0,1E1,1E0,3E0,4E0,6E0,2E0,6E0,4E0,5E0,2E0,1E0,1E0,8E0,2E0,1E0,2E0,1E0,3E0,5E0,1E0,5E0,1E0,2E0,2E0,6E0,2E0,1E0,1E0,2E0,3E0,1E0,4E0,5E0,1E0],"tree_param":{"num_deleted":"0","num_feature":"24","num_nodes":"59","size_leaf_vector":"1"}},{"base_weights":[5.412471E0,4.2599438E1,-5.3395967E0,6.578463E1,1.2614321E1,1.0598003E1,-1.9934914E1,2.7985687E0,8.588742E0,-9.897891E0,7.63438E0,-1.8867645E0,2.3708841E1,-2.286273E1,-6.5076737E0,-2.02176E0,-0E0,-9.372423E0,1.4177658E1,3.415103E1,3.3480072E0,-2.6816328E1,-1.1539946E1,-9.0225524E-1,5.3335954E-2,-3.4965363E0,-1.8292017E0,-3.0862426E-2,2.0775962E0,4.330525E1,5.8436584E-1,-0E0,6.6413064E0,-3.0659065E0,-9.255402E0,-1.3020589E0,-0E0,-6.944589E0,1.7490641E0,7.769486E-1,4.899682E0,9.607567E-1,-0E0,-1.5082041E0,-1.3748497E0,-8.00803E-1,-0E0,-0E0,3.862488E-1,-5.031067E-1,2.6876068E-2],"categories":[],"categories_nodes":[],"categories_segments":[],"categories_sizes":[],"default_left":[0,0,0,0,0,0,0,0,0,0,0,0,0,0,0,0,0,0,0,0,0,0,0,0,0,0,0,0,0,0,0,0,0,0,0,0,0,0,0,0,0,0,0,0,0,0,0,0,0,0,0],"id":21,"left_children":[1,3,5,7,9,11,13,-1,-1,15,-1,17,19,21,23,-1,-1,25,27,29,31,33,35,-1,-1,37,-1,-1,-1,39,-1,-1,41,-1,43,-1,-1,45,47,-1,-1,-1,-1,49,-1,-1,-1,-1,-1,-1,-1],"loss_changes":[2.3204459E4,7.815916E3,1.07256E4,2.3460645E3,1.1130712E4,3.754931E3,6.4786523E2,0E0,0E0,6.384447E2,0E0,1.5518862E3,2.0368955E3,3.493086E2,1.535023E2,0E0,0E0,2.987932E2,4.9108813E2,1.3151172E3,7.62751E1,3.9393164E2,8.502203E1,0E0,0E0,1.6473392E2,0E0,0E0,0E0,3.4675977E2,0E0,0E0,5.2289825E1,0E0,4.2216522E1,0E0,0E0,1.5377563E1,2.0659946E1,0E0,0E0,0E0,0E0,4.3943695E1,0E0,0E0,0E0,0E0,0E0,0E0,0E0],"parents":[2147483647,0,0,1,1,2,2,3,3,4,4,5,5,6,6,9,9,11,11,12,12,13,13,14,14,17,17,18,18,19,19,20,20,21,21,22,22,25,25,29,29,32,32,34,34,37,37,38,38,43,43],"right_children":[2,4,6,8,10,12,14,-1,-1,16,-1,18,20,22,24,-1,-1,26,28,30,32,34,36,-1,-1,38,-1,-1,-1,40,-1,-1,42,-1,44,-1,-1,46,48,-1,-1,-1,-1,50,-1,-1,-1,-1,-1,-1,-1],"split_conditions":[2.9E1,4.7E-1,4.7E-1,3.6E1,1E0,4E-1,1E0,2.7985687E0,8.588742E0,5.1E-1,7.63438E0,1E0,1E0,1E0,5.4E-1,-2.02176E0,-0E0,5.1E1,5E0,9E0,8E0,1E0,4.3E1,-9.0225524E-1,5.3335954E-2,8E0,-1.8292017E0,-3.0862426E-2,2.0775962E0,3E0,5.8436584E-1,-0E0,4.1E1,-3.0659065E0,5.5E-1,-1.3020589E0,-0E0,2.3E1,4.6E1,7.769486E-1,4.899682E0,9.607567E-1,-0E0,5.1E-1,-1.3748497E0,-8.00803E-1,-0E0,-0E0,3.862488E-1,-5.031067E-1,2.6876068E-2],"split_indices":[0,1,1,2,5,1,5,0,0,1,0,3,7,3,1,0,0,2,22,22,22,4,2,0,0,22,0,0,0,22,0,0,2,0,1,0,0,21,2,0,0,0,0,1,0,0,0,0,0,0,0],"split_type":[0,0,0,0,0,0,0,0,0,0,0,0,0,0,0,0,0,0,0,0,0,0,0,0,0,0,0,0,0,0,0,0,0,0,0,0,0,0,0,0,0,0,0,0,0,0,0,0,0,0,0],"sum_hessian":[5.6E1,1.2E1,4.4E1,6E0,6E0,2.1E1,2.3E1,3E0,3E0,5E0,1E0,1.1E1,1E1,1.8E1,5E0,2E0,3E0,8E0,3E0,6E0,4E0,1.2E1,6E0,4E0,1E0,6E0,2E0,1E0,2E0,4E0,2E0,2E0,2E0,9E0,3E0,5E0,1E0,4E0,2E0,1E0,3E0,1E0,1E0,2E0,1E0,3E0,1E0,1E0,1E0,1E0,1E0],"tree_param":{"num_deleted":"0","num_feature":"24","num_nodes":"51","size_leaf_vector":"1"}},{"base_weights":[1.2229952E0,1.9227787E1,-1.4717818E1,6.5657334E0,9.684788E0,-2.3022621E1,-1.061514E0,-1.7606142E0,4.9951277E0,-0E0,-2.5903616E0,-5.265424E0,1.0572575E1,9.3687135E-1,-7.3370557E0,-5.441193E-1,1.9390894E0,-1.0463611E1,5.948181E-1,-1.367647E1,-0E0,-1.5049676E0,-0E0],"categories":[],"categories_nodes":[],"categories_segments":[],"categories_sizes":[],"default_left":[0,0,0,0,0,0,0,0,0,0,0,0,0,0,0,0,0,0,0,0,0,0,0],"id":22,"left_children":[1,3,5,-1,7,9,-1,11,-1,-1,-1,13,15,-1,17,-1,-1,19,-1,21,-1,-1,-1],"loss_changes":[1.5230113E4,1.0064339E4,5.414365E2,0E0,1.0467954E4,4.5665283E2,0E0,8.071919E2,0E0,0E0,0E0,5.1332874E2,7.401162E2,0E0,6.663349E2,0E0,0E0,3.6956677E2,0E0,1.285293E2,0E0,0E0,0E0],"parents":[2147483647,0,0,1,1,2,2,4,4,5,5,7,7,11,11,12,12,14,14,17,17,19,19],"right_children":[2,4,6,-1,8,10,-1,12,-1,-1,-1,14,16,-1,18,-1,-1,20,-1,22,-1,-1,-1],"split_conditions":[4.7E-1,1.3E1,5E0,6.5657334E0,1E0,2.9E1,-1.061514E0,1E0,4.9951277E0,-0E0,-2.5903616E0,2.9E1,4E0,9.3687135E-1,1E0,-5.441193E-1,1.9390894E0,1E0,5.948181E-1,2.3E1,-0E0,-1.5049676E0,-0E0],"split_indices":[1,21,22,0,4,0,0,3,0,0,0,0,22,0,5,0,0,7,0,21,0,0,0],"split_type":[0,0,0,0,0,0,0,0,0,0,0,0,0,0,0,0,0,0,0,0,0,0,0],"sum_hessian":[5.1E1,2.4E1,2.7E1,3E0,2.1E1,7E0,2E1,1.7E1,4E0,1E0,6E0,1.4E1,3E0,1E0,1.3E1,1E0,2E0,1.1E1,2E0,8E0,3E0,7E0,1E0],"tree_param":{"num_deleted":"0","num_feature":"24","num_nodes":"23","size_leaf_vector":"1"}},{"base_weights":[6.0605564E0,3.9774727E1,-2.3900812E0,7.425965E1,-6.2534766E0,-8.794204E0,3.566181E1,8.244561E1,1.0071961E0,-1.5499405E0,-3.044098E-1,1.1908836E0,-1.7311924E1,4.595518E1,4.9522552E-1,2.076709E0,8.96279E0,1.5102158E-1,-2.3856202E-1,-6.3758917E0,2.6166388E1,-1.9352096E0,-9.169798E0,1.847699E0,5.6448317E0,-1.6115461E1,5.7939607E-1,3.208606E0,-0E0,-1.1152819E0,-1.1414948E0,-1.9640696E0,1.7974854E-3,3.1015642E0,-8.5600585E-1,-3.4237176E-1,-0E0,-2.8043213E-1,5.903863E0,8.645798E-1,-0E0],"categories":[],"categories_nodes":[],"categories_segments":[],"categories_sizes":[],"default_left":[0,0,0,0,0,0,0,0,0,0,0,0,0,0,0,0,0,0,0,0,0,0,0,0,0,0,0,0,0,0,0,0,0,0,0,0,0,0,0,0,0],"id":23,"left_children":[1,3,5,7,9,11,13,15,-1,-1,17,19,21,23,-1,-1,-1,-1,-1,25,27,-1,29,-1,-1,31,33,-1,-1,-1,35,-1,-1,37,-1,-1,-1,-1,39,-1,-1],"loss_changes":[1.7091455E4,1.9851764E4,1.1876352E4,2.385086E3,2.4629062E2,3.6733286E3,1.7306143E3,2.4467188E2,0E0,0E0,2.686291E1,4.045467E3,6.199707E1,2.404004E1,0E0,0E0,0E0,0E0,0E0,1.1708818E3,6.9466187E2,0E0,3.7239685E1,0E0,0E0,4.9658582E2,2.2976952E2,0E0,0E0,0E0,1.9534653E1,0E0,0E0,1.8100455E2,0E0,0E0,0E0,0E0,1.297599E2,0E0,0E0],"parents":[2147483647,0,0,1,1,2,2,3,3,4,4,5,5,6,6,7,7,10,10,11,11,12,12,13,13,19,19,20,20,22,22,25,25,26,26,30,30,33,33,38,38],"right_children":[2,4,6,8,10,12,14,16,-1,-1,18,20,22,24,-1,-1,-1,-1,-1,26,28,-1,30,-1,-1,32,34,-1,-1,-1,36,-1,-1,38,-1,-1,-1,-1,40,-1,-1],"split_conditions":[2.9E1,5.1E-1,1E0,1E0,3E1,4.7E-1,8E0,2.8E1,1.0071961E0,-1.5499405E0,5.2E-1,1E0,1E0,5E0,4.9522552E-1,2.076709E0,8.96279E0,1.5102158E-1,-2.3856202E-1,6E0,2.3E1,-1.9352096E0,5.2E1,1.847699E0,5.6448317E0,1E0,1E0,3.208606E0,-0E0,-1.1152819E0,5.1E-1,-1.9640696E0,1.7974854E-3,2.2E1,-8.5600585E-1,-3.4237176E-1,-0E0,-2.8043213E-1,2.3E1,8.645798E-1,-0E0],"split_indices":[0,1,4,3,2,1,22,2,0,0,1,5,5,22,0,0,0,0,0,22,21,0,2,0,0,7,6,0,0,0,1,0,0,21,0,0,0,0,21,0,0],"split_type":[0,0,0,0,0,0,0,0,0,0,0,0,0,0,0,0,0,0,0,0,0,0,0,0,0,0,0,0,0,0,0,0,0,0,0,0,0,0,0,0,0],"sum_hessian":[5.8E1,1.1E1,4.7E1,6E0,5E0,4.1E1,6E0,5E0,1E0,1E0,4E0,1.9E1,2.2E1,4E0,2E0,1E0,4E0,1E0,3E0,1.5E1,4E0,1.6E1,6E0,2E0,2E0,6E0,9E0,3E0,1E0,4E0,2E0,5E0,1E0,8E0,1E0,1E0,1E0,2E0,6E0,4E0,2E0],"tree_param":{"num_deleted":"0","num_feature":"24","num_nodes":"41","size_leaf_vector":"1"}},{"base_weights":[-1.8065901E-1,1.5429512E1,-1.5936871E1,5.663202E1,5.870778E0,-2.4285295E1,-1.1033847E1,6.313108E0,9.568359E-1,5.503666E-1,2.4453894E1,-2.6452116E1,-0E0,-1.3145879E1,-2.025444E0,-4.379453E0,2.6311874E1,2.67868E0,3.894684E-1,-2.9977605E0,-6.566778E-1,-2.0987484E0,-9.049171E0,-5.297819E-1,-0E0,-1.0125568E1,-1.2188603E-1,-0E0,3.4253266E0,-4.5923004E0,-1.7793274E0,4.4188842E-1,-1.3548902E0,-3.3560982E0,1.684433E0,-9.798712E-1,-0E0,-8.47357E0,2.3403015E0,2.16631E0,-4.117765E-1,-0E0,-1.087129E0,-0E0,4.4524613E-1,3.0923253E-1,-0E0],"categories":[],"categories_nodes":[],"categories_segments":[],"categories_sizes":[],"default_left":[0,0,0,0,0,0,0,0,0,0,0,0,0,0,0,0,0,0,0,0,0,0,0,0,0,0,0,0,0,0,0,0,0,0,0,0,0,0,0,0,0,0,0,0,0,0,0],"id":24,"left_children":[1,3,5,7,9,11,13,-1,-1,15,17,19,-1,21,23,25,27,-1,-1,-1,-1,-1,29,-1,-1,31,33,-1,-1,35,-1,-1,-1,37,-1,-1,39,41,43,45,-1,-1,-1,-1,-1,-1,-1],"loss_changes":[1.623565E4,1.2351857E4,9.062178E2,8.6766016E2,2.629875E3,5.0961328E2,3.3511597E2,0E0,0E0,3.1458845E3,3.0042725E1,3.2147656E2,0E0,2.3814307E2,5.9586105E1,4.36818E2,7.505996E2,0E0,0E0,0E0,0E0,0E0,3.5195874E2,0E0,0E0,5.0384515E2,7.0243054E2,0E0,0E0,2.4809235E2,0E0,0E0,0E0,4.00311E2,0E0,0E0,7.433246E1,8.831494E1,4.6435577E1,1.4785404E1,0E0,0E0,0E0,0E0,0E0,0E0,0E0],"parents":[2147483647,0,0,1,1,2,2,3,3,4,4,5,5,6,6,9,9,10,10,11,11,13,13,14,14,15,15,16,16,22,22,25,25,26,26,29,29,33,33,36,36,37,37,38,38,39,39],"right_children":[2,4,6,8,10,12,14,-1,-1,16,18,20,-1,22,24,26,28,-1,-1,-1,-1,-1,30,-1,-1,32,34,-1,-1,36,-1,-1,-1,38,-1,-1,40,42,44,46,-1,-1,-1,-1,-1,-1,-1],"split_conditions":[4.7E-1,1.3E1,5E0,1E0,1E0,1E0,1E0,6.313108E0,9.568359E-1,1E0,1.1E1,1E0,-0E0,5.1E-1,4E1,6E0,5.1E1,2.67868E0,3.894684E-1,-2.9977605E0,-6.566778E-1,-2.0987484E0,5.5E-1,-5.297819E-1,-0E0,2.9E1,1E0,-0E0,3.4253266E0,4.2E1,-1.7793274E0,4.4188842E-1,-1.3548902E0,1E0,1.684433E0,-9.798712E-1,2.3E1,7E0,8E0,1E0,-4.117765E-1,-0E0,-1.087129E0,-0E0,4.4524613E-1,3.0923253E-1,-0E0],"split_indices":[1,21,22,3,4,4,3,0,0,5,22,5,0,1,2,22,2,0,0,0,0,0,1,0,0,0,3,0,0,2,0,0,0,7,0,0,21,22,22,6,0,0,0,0,0,0,0],"split_type":[0,0,0,0,0,0,0,0,0,0,0,0,0,0,0,0,0,0,0,0,0,0,0,0,0,0,0,0,0,0,0,0,0,0,0,0,0,0,0,0,0,0,0,0,0,0,0],"sum_hessian":[6.4E1,3.2E1,3.2E1,5E0,2.7E1,1E1,2.2E1,4E0,1E0,2.2E1,5E0,9E0,1E0,1.7E1,5E0,1.9E1,3E0,4E0,1E0,7E0,2E0,4E0,1.3E1,2E0,3E0,7E0,1.2E1,1E0,2E0,1E1,3E0,1E0,6E0,1.1E1,1E0,4E0,6E0,6E0,5E0,4E0,2E0,2E0,4E0,2E0,3E0,3E0,1E0],"tree_param":{"num_deleted":"0","num_feature":"24","num_nodes":"47","size_leaf_vector":"1"}}]},"name":"gbtree"},"learner_model_param":{"base_score":"2.1896053E2","boost_from_average":"1","num_class":"0","num_feature":"24","num_target":"1"},"objective":{"name":"reg:squarederror","reg_loss_param":{"scale_pos_weight":"1"}}},"version":[3,0,2]}