{"learner":{"attributes":{"scikit_learn":"{\"_estimator_type\": \"regressor\"}"},"feature_names":[],"feature_types":[],"gradient_booster":{"model":{"gbtree_model_param":{"num_parallel_tree":"1","num_trees":"25"},"iteration_indptr":[0,1,2,3,4,5,6,7,8,9,10,11,12,13,14,15,16,17,18,19,20,21,22,23,24,25],"tree_info":[0,0,0,0,0,0,0,0,0,0,0,0,0,0,0,0,0,0,0,0,0,0,0,0,0],"trees":[{"base_weights":[-6.5209603E0,1.04207794E2,-9.0922874E1,3.098826E2,-5.3744626E-1,-1.456654E2,1.693158E2,-6.292105E0,3.275116E2,5.6538464E1,-1.5985338E2,-1.5635002E2,3.6807896E1,3.5741626E2,-1.0986184E1,2.2404211E1,3.7139805E1,-3.897697E1,1.18067986E2,-5.5381577E1,-1.8285646E1,-1.7854301E1,-8.2087715E1,3.8654213E1,3.057895E0,1.16926315E2,-1.0110526E2,8.2200005E1,2.3692633E1,-9.589474E0,3.057895E0,-1.15557274E2,4.712632E1,1.2961843E1,3.057895E0,-1.2955789E2,2.5771933E0,2.2577192E1,5.3426903E1,-1.336579E1,-7.786184E0,2.0557896E1,-4.2631577E1,-5.320175E1,-1.9427368E1,1.4214038E1,1.8586843E1,-5.322807E0,-2.921051E-1,-1.1692105E1,-1.6073681E0,1.0461843E1,-1.6688594E0],"categories":[],"categories_nodes":[],"categories_segments":[],"categories_sizes":[],"default_left":[0,0,0,0,0,0,0,0,0,0,0,0,0,0,0,0,0,0,0,0,0,0,0,0,0,0,0,0,0,0,0,0,0,0,0,0,0,0,0,0,0,0,0,0,0,0,0,0,0,0,0,0,0],"id":0,"left_children":[1,3,5,7,9,11,13,-1,15,17,19,21,-1,23,-1,-1,-1,25,27,29,-1,-1,31,-1,-1,33,35,37,-1,-1,-1,39,41,-1,-1,43,-1,-1,45,-1,-1,-1,47,49,-1,51,-1,-1,-1,-1,-1,-1,-1],"loss_changes":[1.6636008E6,1.6605594E6,1.4634039E6,1.92806E5,4.8239572E5,5.1758012E5,9.857462E5,0E0,2.7337E4,2.3420116E5,2.2326344E4,1.2083325E5,0E0,9.0807875E4,0E0,0E0,0E0,1.6671883E5,8.124603E4,1.7189068E4,0E0,0E0,9.660741E4,0E0,0E0,7.150625E2,4.7177766E4,6.916189E4,0E0,0E0,0E0,1.3484375E2,8.0690766E4,0E0,0E0,3.7841406E4,0E0,0E0,8.983905E4,0E0,0E0,0E0,1.2469419E3,1.1650322E4,0E0,4.4091586E4,0E0,0E0,0E0,0E0,0E0,0E0,0E0],"parents":[2147483647,0,0,1,1,2,2,3,3,4,4,5,5,6,6,8,8,9,9,10,10,11,11,13,13,17,17,18,18,19,19,22,22,25,25,26,26,27,27,31,31,32,32,35,35,38,38,42,42,43,43,45,45],"right_children":[2,4,6,8,10,12,14,-1,16,18,20,22,-1,24,-1,-1,-1,26,28,30,-1,-1,32,-1,-1,34,36,38,-1,-1,-1,40,42,-1,-1,44,-1,-1,46,-1,-1,-1,48,50,-1,52,-1,-1,-1,-1,-1,-1,-1],"split_conditions":[4.1E-1,8E0,1E0,2E0,1E0,6.5E1,5.1E-1,-6.292105E0,4.1E1,5E0,2.6E-1,1E0,3.6807896E1,3.9E1,-1.0986184E1,2.2404211E1,3.7139805E1,4.1E1,1E0,2.4E-1,-1.8285646E1,-1.7854301E1,1.9E1,3.8654213E1,3.057895E0,1E0,1E0,1E0,2.3692633E1,-9.589474E0,3.057895E0,1E1,5.1E-1,1.2961843E1,3.057895E0,5.1E1,2.5771933E0,2.2577192E1,1E0,-1.336579E1,-7.786184E0,2.0557896E1,5.8E1,4.9E1,-1.9427368E1,1.3E1,1.8586843E1,-5.322807E0,-2.921051E-1,-1.1692105E1,-1.6073681E0,1.0461843E1,-1.6688594E0],"split_indices":[1,21,5,21,19,2,1,0,2,22,1,4,0,0,0,0,0,2,4,1,0,0,21,0,0,6,7,18,0,0,0,0,1,0,0,2,0,0,3,0,0,0,2,2,0,21,0,0,0,0,0,0,0],"split_type":[0,0,0,0,0,0,0,0,0,0,0,0,0,0,0,0,0,0,0,0,0,0,0,0,0,0,0,0,0,0,0,0,0,0,0,0,0,0,0,0,0,0,0,0,0,0,0,0,0,0,0,0,0],"sum_hessian":[1.76E2,7.6E1,1E2,2.5E1,5.1E1,8.3E1,1.7E1,1E0,2.4E1,3.8E1,1.3E1,8.2E1,1E0,1E1,7E0,9E0,1.5E1,1.5E1,2.3E1,3E0,1E1,6.2E1,2E1,9E0,1E0,4E0,1.1E1,1.9E1,4E0,2E0,1E0,1.6E1,4E0,3E0,1E0,9E0,2E0,2E0,1.7E1,9E0,7E0,1E0,3E0,5E0,4E0,1.4E1,3E0,2E0,1E0,1E0,4E0,3E0,1.1E1],"tree_param":{"num_deleted":"0","num_feature":"24","num_nodes":"53","size_leaf_vector":"1"}},{"base_weights":[1.2333211E0,8.570872E1,-8.416976E1,3.2561945E2,-9.267487E0,-1.3140863E2,1.0393524E2,3.4437653E2,-5.9774995E0,6.606216E1,-1.7854582E1,-1.6661615E1,-2.78718E1,2.3707507E2,-9.149894E0,3.9745087E1,2.1120253E2,-6.558854E1,1.411311E2,-9.444838E0,1.7643228E2,3.3906574E1,-2.4924995E1,5.6876845E0,2.2275864E1,-1.00653656E2,7.2286515E0,1.6219997E2,3.2500507E1,3.454E1,-4.9679523E0,3.206667E0,-1.0045E1,-1.2385938E2,2.4053812E0,6.910534E1,1.8279826E2,-4.2129936E1,1.2284094E1,-1.3900708E2,1.888263E0,-0E0,2.0679037E1,2.1099262E1,8.5711754E1,6.413376E-1,-6.2115498E0,6.382629E-1,-1.5468431E1,3.1413376E0,-1.5443863E0,-1.0866242E-1,1.0428876E1],"categories":[],"categories_nodes":[],"categories_segments":[],"categories_sizes":[],"default_left":[0,0,0,0,0,0,0,0,0,0,0,0,0,0,0,0,0,0,0,0,0,0,0,0,0,0,0,0,0,0,0,0,0,0,0,0,0,0,0,0,0,0,0,0,0,0,0,0,0,0,0,0,0],"id":1,"left_children":[1,3,5,7,9,11,13,15,-1,17,-1,-1,19,21,-1,-1,23,25,27,-1,29,-1,31,-1,-1,33,-1,35,37,-1,-1,-1,-1,39,-1,41,43,45,-1,47,-1,49,-1,-1,51,-1,-1,-1,-1,-1,-1,-1,-1],"loss_changes":[1.2625378E6,2.0097509E6,7.8686575E5,2.027295E5,8.2846475E5,2.4955288E5,4.9078138E5,8.264925E4,0E0,4.5436394E5,0E0,0E0,2.7468928E5,3.03959E5,0E0,0E0,1.982625E3,8.960602E4,6.0127812E4,0E0,2.0966588E5,0E0,2.0780197E4,0E0,0E0,4.3993297E4,0E0,3.2130375E4,4.603171E4,0E0,0E0,0E0,0E0,2.9172E4,0E0,5.687122E4,3.2440438E4,4.5575415E3,0E0,2.6801188E4,0E0,2.9276519E3,0E0,0E0,1.0304059E4,0E0,0E0,0E0,0E0,0E0,0E0,0E0,0E0],"parents":[2147483647,0,0,1,1,2,2,3,3,4,4,5,5,6,6,7,7,9,9,12,12,13,13,16,16,17,17,18,18,20,20,22,22,25,25,27,27,28,28,33,33,35,35,36,36,37,37,39,39,41,41,44,44],"right_children":[2,4,6,8,10,12,14,16,-1,18,-1,-1,20,22,-1,-1,24,26,28,-1,30,-1,32,-1,-1,34,-1,36,38,-1,-1,-1,-1,40,-1,42,44,46,-1,48,-1,50,-1,-1,52,-1,-1,-1,-1,-1,-1,-1,-1],"split_conditions":[4.1E-1,7E0,1E0,3.1E1,1E0,1E0,5.1E-1,1E0,-5.9774995E0,5E0,-1.7854582E1,-1.6661615E1,1.9E1,3.9E1,-9.149894E0,3.9745087E1,2.6E1,4.4E1,1E0,-9.444838E0,5.1E-1,3.3906574E1,4.6E-1,5.6876845E0,2.2275864E1,1E0,7.2286515E0,6E0,5.3E1,3.454E1,-4.9679523E0,3.206667E0,-1.0045E1,1E0,2.4053812E0,1E1,1E1,1E1,1.2284094E1,2.6E-1,1.888263E0,2.6E-1,2.0679037E1,2.1099262E1,4.6E1,6.413376E-1,-6.2115498E0,6.382629E-1,-1.5468431E1,3.1413376E0,-1.5443863E0,-1.0866242E-1,1.0428876E1],"split_indices":[1,21,5,0,19,4,1,6,0,22,0,0,21,0,0,0,2,0,7,0,1,0,1,0,0,7,0,22,2,0,0,0,0,3,0,0,22,0,0,1,0,1,0,0,2,0,0,0,0,0,0,0,0],"split_type":[0,0,0,0,0,0,0,0,0,0,0,0,0,0,0,0,0,0,0,0,0,0,0,0,0,0,0,0,0,0,0,0,0,0,0,0,0,0,0,0,0,0,0,0,0,0,0,0,0,0,0,0,0],"sum_hessian":[1.73E2,8.7E1,8.6E1,2.4E1,6.3E1,6.9E1,1.7E1,2.3E1,1E0,4.4E1,1.9E1,5.1E1,1.8E1,1E1,7E0,1.5E1,8E0,1.6E1,2.8E1,1.4E1,4E0,7E0,3E0,1E0,7E0,1.3E1,3E0,2.3E1,5E0,2E0,2E0,2E0,1E0,1.1E1,2E0,5E0,1.8E1,3E0,2E0,1E1,1E0,4E0,1E0,1.3E1,5E0,1E0,2E0,1E0,9E0,1E0,3E0,1E0,4E0],"tree_param":{"num_deleted":"0","num_feature":"24","num_nodes":"53","size_leaf_vector":"1"}},{"base_weights":[6.698406E0,8.816145E1,-6.62966E1,2.7827487E2,5.6022644E0,-9.656155E1,2.78063E2,2.9414877E2,-5.678624E0,7.167522E1,-1.5594287E1,-1.051895E2,1.8416956E2,6.2225677E1,3.941203E1,2.3988095E2,4.2518345E1,-2.5304064E1,1.3385863E2,-1.2536848E2,8.627204E0,3.0303E1,-2.4275665E0,-6.9898133E0,2.3179855E1,5.403301E0,2.4655542E1,1.1012582E2,-6.0065094E1,2.310827E2,1.0103121E2,-1.4245624E1,-5.4209328E1,1.24960434E2,-9.361777E0,1.2821063E1,2.5435684E0,-8.5745575E1,3.0742622E1,2.5566889E1,5.157593E0,5.3246246E1,2.1875006E1,-8.1275566E1,8.850289E1,2.4394783E1,-2.4017075E1,2.5604136E0,-1.1107593E2,5.491226E0,-1.8383149E0,7.646122E1,-7.8910685E0,-8.709815E0,-2.9101564E-2,1.7803E1,-4.2775664E0,2.9928894E0,-9.542749E0,-1.5787833E1,-1.5276337E-2,1.1165759E1,4.0035014E0],"categories":[],"categories_nodes":[],"categories_segments":[],"categories_sizes":[],"default_left":[0,0,0,0,0,0,0,0,0,0,0,0,0,0,0,0,0,0,0,0,0,0,0,0,0,0,0,0,0,0,0,0,0,0,0,0,0,0,0,0,0,0,0,0,0,0,0,0,0,0,0,0,0,0,0,0,0,0,0,0,0,0,0],"id":2,"left_children":[1,3,5,7,9,11,13,15,-1,17,-1,19,21,23,-1,25,-1,27,29,31,33,-1,-1,-1,-1,-1,-1,35,37,39,41,-1,43,45,-1,-1,-1,47,49,-1,-1,51,-1,53,55,-1,57,-1,59,-1,-1,61,-1,-1,-1,-1,-1,-1,-1,-1,-1,-1,-1],"loss_changes":[1.0822518E6,1.3468442E6,1.026457E6,1.5617725E5,6.618555E5,2.3454769E5,1.7358975E5,7.245525E4,0E0,2.6927203E5,0E0,2.0147862E5,8.3077695E4,1.0663025E5,0E0,9.98375E3,0E0,9.1102695E4,6.1166438E4,8.12745E4,1.7837806E5,0E0,0E0,0E0,0E0,0E0,0E0,2.0970703E3,3.789085E4,1.1757719E4,1.1074661E5,0E0,6.895991E4,1.3104369E5,0E0,0E0,0E0,3.7117695E4,5.9415137E3,0E0,0E0,5.8177684E4,0E0,6.13925E3,4.3550594E4,0E0,1.859275E4,0E0,5.110042E4,0E0,0E0,1.4002375E4,0E0,0E0,0E0,0E0,0E0,0E0,0E0,0E0,0E0,0E0,0E0],"parents":[2147483647,0,0,1,1,2,2,3,3,4,4,5,5,6,6,7,7,9,9,11,11,12,12,13,13,15,15,17,17,18,18,19,19,20,20,27,27,28,28,29,29,30,30,32,32,33,33,37,37,38,38,41,41,43,43,44,44,46,46,48,48,51,51],"right_children":[2,4,6,8,10,12,14,16,-1,18,-1,20,22,24,-1,26,-1,28,30,32,34,-1,-1,-1,-1,-1,-1,36,38,40,42,-1,44,46,-1,-1,-1,48,50,-1,-1,52,-1,54,56,-1,58,-1,60,-1,-1,62,-1,-1,-1,-1,-1,-1,-1,-1,-1,-1,-1],"split_conditions":[4.1E-1,7E0,6.5E1,3.1E1,1E0,2.7E1,1.1E1,1E0,-5.678624E0,6E0,-1.5594287E1,1E0,4.6E-1,7E1,3.941203E1,2.6E1,4.2518345E1,4.1E1,1E0,1E0,5.1E-1,3.0303E1,-2.4275665E0,-6.9898133E0,2.3179855E1,5.403301E0,2.4655542E1,1E0,3.8E-1,3.6E-1,1E0,-1.4245624E1,3.9E1,3.1E1,-9.361777E0,1.2821063E1,2.5435684E0,2.6E-1,1E0,2.5566889E1,5.157593E0,1E1,2.1875006E1,1.6E1,5.1E-1,2.4394783E1,4.6E-1,2.5604136E0,1E0,5.491226E0,-1.8383149E0,8E0,-7.8910685E0,-8.709815E0,-2.9101564E-2,1.7803E1,-4.2775664E0,2.9928894E0,-9.542749E0,-1.5787833E1,-1.5276337E-2,1.1165759E1,4.0035014E0],"split_indices":[1,21,2,0,19,21,0,4,0,22,0,5,1,2,0,2,0,2,18,4,1,0,0,0,0,0,0,6,1,1,4,0,0,0,0,0,0,1,6,0,0,0,0,21,1,0,1,0,7,0,0,22,0,0,0,0,0,0,0,0,0,0,0],"split_type":[0,0,0,0,0,0,0,0,0,0,0,0,0,0,0,0,0,0,0,0,0,0,0,0,0,0,0,0,0,0,0,0,0,0,0,0,0,0,0,0,0,0,0,0,0,0,0,0,0,0,0,0,0,0,0,0,0,0,0,0,0,0,0],"sum_hessian":[1.8E2,8.5E1,9.5E1,2.5E1,6E1,8.8E1,7E0,2.4E1,1E0,4.3E1,1.7E1,8.6E1,2E0,3E0,4E0,1.9E1,5E0,1.7E1,2.6E1,7.3E1,1.3E1,1E0,1E0,2E0,1E0,1E0,1.8E1,3E0,1.4E1,5E0,2.1E1,5.8E1,1.5E1,6E0,7E0,2E0,1E0,1.1E1,3E0,4E0,1E0,1.6E1,5E0,1.3E1,2E0,3E0,3E0,2E0,9E0,2E0,1E0,1.4E1,2E0,1.2E1,1E0,1E0,1E0,2E0,1E0,6E0,3E0,6E0,8E0],"tree_param":{"num_deleted":"0","num_feature":"24","num_nodes":"63","size_leaf_vector":"1"}},{"base_weights":[7.8014927E0,-4.5376625E1,1.21085976E2,4.1776688E1,-1.119626E2,2.751864E1,1.9949103E2,1.1792664E2,-1.44042425E1,-1.5738211E1,-1.2496693E2,-7.6444305E1,7.100187E1,2.7182645E2,-5.9910458E1,2.0061808E1,2.1943164E2,-9.51087E0,1.25844696E2,-1.4240338E2,-1.0473359E2,1.9113998E0,-1.16774055E2,1.04904495E2,-9.806041E0,2.1876471E2,4.4993282E1,-6.767582E0,-2.7645875E-2,-1.3340297E1,1.7495636E1,1.635549E2,3.5335087E1,-6.2040267E0,2.1081978E1,-1.4651687E1,-5.2134075E0,-1.1213769E2,-5.0658184E1,-5.5401874E0,4.1149783E0,-3.0655945E1,-1.5091913E1,1.4293071E2,3.888038E1,1.4884148E2,3.4662285E1,1.5845728E1,-3.1965567E1,1.81844E1,8.595012E0,-1.2075823E1,-4.560747E0,-7.216991E0,2.5950227E0,-6.4079223E0,1.5595306E0,1.9312104E0,1.5286138E1,1.0690444E2,-1.0846121E1,2.9928648E1,-8.662875E0,-8.0485054E1,2.4941149E1,2.85625E0,1.1586033E1,4.7832796E-1,-9.104634E0,2.502594E-2,1.0873413E1],"categories":[],"categories_nodes":[],"categories_segments":[],"categories_sizes":[],"default_left":[0,0,0,0,0,0,0,0,0,0,0,0,0,0,0,0,0,0,0,0,0,0,0,0,0,0,0,0,0,0,0,0,0,0,0,0,0,0,0,0,0,0,0,0,0,0,0,0,0,0,0,0,0,0,0,0,0,0,0,0,0,0,0,0,0,0,0,0,0,0,0],"id":3,"left_children":[1,3,5,7,9,11,13,15,-1,17,19,21,23,25,27,29,31,-1,33,35,37,39,41,43,-1,45,-1,-1,-1,47,-1,49,-1,-1,-1,-1,-1,51,53,-1,-1,55,-1,57,59,61,-1,-1,63,-1,-1,-1,-1,-1,-1,-1,-1,-1,-1,65,-1,-1,-1,67,69,-1,-1,-1,-1,-1,-1],"loss_changes":[1.1504815E6,7.594428E5,4.408805E5,8.2341256E5,8.992844E4,1.3649919E5,6.36554E5,4.0168494E5,0E0,1.2419029E5,6.78175E3,2.9238113E4,1.30685945E5,1.4394375E5,3.346164E3,1.1696573E5,8.9282625E4,0E0,7.768536E4,3.2505E3,7.11825E3,1.1204034E4,1.2108602E4,3.8725406E4,0E0,1.426165E5,0E0,0E0,0E0,6.522847E4,0E0,5.7406562E3,0E0,0E0,0E0,0E0,0E0,1.02929375E4,1.19918E4,0E0,0E0,5.8793594E3,0E0,9.690797E3,9.1769375E4,5.9379525E5,0E0,0E0,5.1984633E4,0E0,0E0,0E0,0E0,0E0,0E0,0E0,0E0,0E0,0E0,1.7835938E2,0E0,0E0,0E0,9.87225E3,1.8048176E4,0E0,0E0,0E0,0E0,0E0,0E0],"parents":[2147483647,0,0,1,1,2,2,3,3,4,4,5,5,6,6,7,7,9,9,10,10,11,11,12,12,13,13,14,14,15,15,16,16,18,18,19,19,20,20,21,21,22,22,23,23,25,25,29,29,31,31,37,37,38,38,41,41,43,43,44,44,45,45,48,48,59,59,63,63,64,64],"right_children":[2,4,6,8,10,12,14,16,-1,18,20,22,24,26,28,30,32,-1,34,36,38,40,42,44,-1,46,-1,-1,-1,48,-1,50,-1,-1,-1,-1,-1,52,54,-1,-1,56,-1,58,60,62,-1,-1,64,-1,-1,-1,-1,-1,-1,-1,-1,-1,-1,66,-1,-1,-1,68,70,-1,-1,-1,-1,-1,-1],"split_conditions":[5.5E1,4.1E-1,1.185732E6,1E0,2E0,5E0,5.1E-1,3.2E1,-1.44042425E1,3.5E1,1E1,1E0,4.1E-1,1E0,1.2E1,1E0,1E0,-9.51087E0,4.7E-1,1.2E1,5E1,2.4E-1,5.6E1,1E0,-9.806041E0,1E0,4.4993282E1,-6.767582E0,-2.7645875E-2,1E0,1.7495636E1,3.1E1,3.5335087E1,-6.2040267E0,2.1081978E1,-1.4651687E1,-5.2134075E0,1E0,3.1E1,-5.5401874E0,4.1149783E0,1E0,-1.5091913E1,6E0,3.1E-1,4.1E-1,3.4662285E1,1.5845728E1,4E-1,1.81844E1,8.595012E0,-1.2075823E1,-4.560747E0,-7.216991E0,2.5950227E0,-6.4079223E0,1.5595306E0,1.9312104E0,1.5286138E1,6E0,-1.0846121E1,2.9928648E1,-8.662875E0,2.6E-1,1E0,2.85625E0,1.1586033E1,4.7832796E-1,-9.104634E0,2.502594E-2,1.0873413E1],"split_indices":[2,1,12,19,22,22,1,20,0,2,0,18,1,4,21,4,4,0,1,22,2,1,2,5,0,5,0,0,0,18,0,0,0,0,0,0,0,4,0,0,0,7,0,22,1,1,0,0,1,0,0,0,0,0,0,0,0,0,0,22,0,0,0,1,3,0,0,0,0,0,0],"split_type":[0,0,0,0,0,0,0,0,0,0,0,0,0,0,0,0,0,0,0,0,0,0,0,0,0,0,0,0,0,0,0,0,0,0,0,0,0,0,0,0,0,0,0,0,0,0,0,0,0,0,0,0,0,0,0,0,0,0,0,0,0,0,0,0,0,0,0,0,0,0,0],"sum_hessian":[1.89E2,1.29E2,6E1,5.6E1,7.3E1,2.8E1,3.2E1,4E1,1.6E1,9E0,6.4E1,8E0,2E1,2.5E1,7E0,2.1E1,1.9E1,6E0,3E0,3.1E1,3.3E1,3E0,5E0,1.7E1,3E0,2.1E1,4E0,6E0,1E0,1.8E1,3E0,1.5E1,4E0,1E0,2E0,2.9E1,2E0,2.8E1,5E0,1E0,2E0,2E0,3E0,1E1,7E0,1.5E1,6E0,1E0,1.7E1,1.1E1,4E0,2.4E1,4E0,4E0,1E0,1E0,1E0,1E0,9E0,5E0,2E0,9E0,6E0,9E0,8E0,1E0,4E0,1E0,8E0,7E0,1E0],"tree_param":{"num_deleted":"0","num_feature":"24","num_nodes":"71","size_leaf_vector":"1"}},{"base_weights":[-3.098301E0,-4.6778046E1,8.924245E1,2.4764082E1,-9.70609E1,-7.69553E1,1.195835E2,1.00447586E2,-1.3190558E1,-1.0698773E2,-1.0718061E1,7.4889526E0,-1.14929825E2,1.5845032E2,-5.9002117E1,2.972255E1,2.0186281E2,-1.2389141E2,-5.661028E1,1.1189129E2,-9.150462E0,-4.0131774E0,3.8406453E0,-2.0706482E1,-1.4747787E1,1.1782681E2,3.4982446E2,-1.1700643E1,-6.8739905E0,2.1329527E1,1.84442E0,1.4866231E2,3.097486E1,-1.4310214E1,-1.035079E2,-7.770632E1,8.013737E1,1.8313284E1,-4.8416686E0,-4.837526E0,1.4815537E0,1.5507616E2,1.5230524E1,3.8814934E1,5.743764E0,-1.4788331E0,-2.6263429E-2,3.9572388E1,-9.823756E0,1.6556803E1,7.220886E0,-1.0523534E1,-2.5933564E0,-8.796073E0,-4.34131E0,1.5858751E1,-3.5881455E0,7.123371E1,2.274846E2,-4.8857513E1,1.4084897E1,1.5201076E1,1.3844771E1,8.8195885E1,-7.2137256E0,2.7017033E1,1.4548885E2,1.6107903E1,-1.0257402E1,-1.5826855E0,4.9204273E0,1.04737096E-1,1.137357E1,-6.327844E0,2.4265144E1],"categories":[],"categories_nodes":[],"categories_segments":[],"categories_sizes":[],"default_left":[0,0,0,0,0,0,0,0,0,0,0,0,0,0,0,0,0,0,0,0,0,0,0,0,0,0,0,0,0,0,0,0,0,0,0,0,0,0,0,0,0,0,0,0,0,0,0,0,0,0,0,0,0,0,0,0,0,0,0,0,0,0,0,0,0,0,0,0,0,0,0,0,0,0,0],"id":4,"left_children":[1,3,5,7,9,11,13,15,-1,17,19,21,23,25,27,29,31,33,35,37,-1,-1,-1,39,-1,41,43,45,-1,-1,47,49,-1,-1,51,53,55,-1,-1,-1,-1,57,59,-1,-1,-1,-1,61,-1,-1,-1,-1,-1,-1,-1,-1,-1,63,65,67,-1,69,-1,71,-1,-1,73,-1,-1,-1,-1,-1,-1,-1,-1],"loss_changes":[7.662787E5,4.6682222E5,3.1701525E5,6.53387E5,6.3405188E4,3.346521E4,3.7078088E5,2.5822822E5,0E0,4.9990312E4,9.928333E4,7.421948E3,1.7572828E4,2.907375E5,3.3996133E3,1.1623717E5,3.7753625E4,3.5339375E3,6.1026867E4,5.5222625E4,0E0,0E0,0E0,3.833057E3,0E0,1.381875E5,5.3917562E4,2.6812225E1,0E0,0E0,8.288786E4,2.365625E3,0E0,0E0,3.6715625E2,1.5026562E3,3.360896E4,0E0,0E0,0E0,0E0,1.4621612E5,9.589852E4,0E0,0E0,0E0,0E0,3.5682746E4,0E0,0E0,0E0,0E0,0E0,0E0,0E0,0E0,0E0,4.0488867E4,7.6155625E3,1.0644646E5,0E0,1.5716318E4,0E0,2.8241797E4,0E0,0E0,1.5824205E5,0E0,0E0,0E0,0E0,0E0,0E0,0E0,0E0],"parents":[2147483647,0,0,1,1,2,2,3,3,4,4,5,5,6,6,7,7,9,9,10,10,11,11,12,12,13,13,14,14,15,15,16,16,17,17,18,18,19,19,23,23,25,25,26,26,27,27,30,30,31,31,34,34,35,35,36,36,41,41,42,42,47,47,57,57,58,58,59,59,61,61,63,63,66,66],"right_children":[2,4,6,8,10,12,14,16,-1,18,20,22,24,26,28,30,32,34,36,38,-1,-1,-1,40,-1,42,44,46,-1,-1,48,50,-1,-1,52,54,56,-1,-1,-1,-1,58,60,-1,-1,-1,-1,62,-1,-1,-1,-1,-1,-1,-1,-1,-1,64,66,68,-1,70,-1,72,-1,-1,74,-1,-1,-1,-1,-1,-1,-1,-1],"split_conditions":[5.5E1,4.1E-1,5E0,1E0,1E0,1E0,5.1E-1,3.2E1,-1.3190558E1,1E0,3E0,2.4E-1,5.6E1,1E0,8E0,1E0,1E0,6E0,1.9E1,3.1E1,-9.150462E0,-4.0131774E0,3.8406453E0,1E0,-1.4747787E1,1.2E1,1E1,3.1E1,-6.8739905E0,2.1329527E1,1E1,3.1E1,3.097486E1,-1.4310214E1,1.2E1,1.1E1,5.1E-1,1.8313284E1,-4.8416686E0,-4.837526E0,1.4815537E0,1E1,6.8E1,3.8814934E1,5.743764E0,-1.4788331E0,-2.6263429E-2,1E0,-9.823756E0,1.6556803E1,7.220886E0,-1.0523534E1,-2.5933564E0,-8.796073E0,-4.34131E0,1.5858751E1,-3.5881455E0,4.1E-1,6.1E1,3.1E-1,1.4084897E1,6E0,1.3844771E1,6E0,-7.2137256E0,2.7017033E1,6.5E1,1.6107903E1,-1.0257402E1,-1.5826855E0,4.9204273E0,1.04737096E-1,1.137357E1,-6.327844E0,2.4265144E1],"split_indices":[2,1,22,19,5,18,1,20,0,4,22,1,2,4,22,18,4,22,21,0,0,0,0,7,0,22,22,0,0,0,0,0,0,0,22,0,1,0,0,0,0,0,2,0,0,0,0,4,0,0,0,0,0,0,0,0,0,1,2,1,0,22,0,22,0,0,2,0,0,0,0,0,0,0,0],"split_type":[0,0,0,0,0,0,0,0,0,0,0,0,0,0,0,0,0,0,0,0,0,0,0,0,0,0,0,0,0,0,0,0,0,0,0,0,0,0,0,0,0,0,0,0,0,0,0,0,0,0,0,0,0,0,0,0,0,0,0,0,0,0,0,0,0,0,0,0,0,0,0,0,0,0,0],"sum_hessian":[1.88E2,1.28E2,6E1,5.3E1,7.5E1,9E0,5.1E1,3.6E1,1.7E1,6.7E1,8E0,3E0,6E0,4.2E1,9E0,2.2E1,1.4E1,4.9E1,1.8E1,3E0,5E0,1E0,2E0,2E0,4E0,3.6E1,6E0,2E0,7E0,2E0,2E1,1.1E1,3E0,2.2E1,2.7E1,1.6E1,2E0,2E0,1E0,1E0,1E0,2.6E1,1E1,5E0,1E0,1E0,1E0,1.5E1,5E0,8E0,3E0,2.6E1,1E0,1.1E1,5E0,1E0,1E0,1.3E1,1.3E1,7E0,3E0,1.3E1,2E0,1.2E1,1E0,7E0,6E0,1E0,6E0,7E0,6E0,3E0,9E0,2E0,4E0],"tree_param":{"num_deleted":"0","num_feature":"24","num_nodes":"75","size_leaf_vector":"1"}},{"base_weights":[1.0087307E1,-2.0145483E1,1.2770219E2,4.871258E1,-7.7765274E1,1.5020329E1,2.1796748E2,9.147642E1,-1.2241053E1,-9.808579E1,4.683486E1,-1.4034324E1,1.214702E1,3.0055945E2,-3.777231E1,6.0894615E1,2.4046179E2,-1.1331601E2,-5.0977524E1,1.8008203E2,-7.335341E0,-7.6328964E1,9.1295805E0,3.1156849E1,6.521184E0,-2.4949646E-2,-4.422697E0,-4.8442802E0,1.099547E2,2.5625309E1,5.456575E0,-8.834919E0,-1.2989835E2,-7.234327E1,4.5979836E1,2.0426903E1,2.7073548E0,-1.0837898E1,-1.0213401E2,-5.5319668E1,6.804731E1,1.2341656E2,-1.1752688E1,-1.3416819E1,-4.6503663E0,-8.578654E0,-4.208956E0,1.5065813E1,-3.7465637E0,2.9569733E0,-6.8530397E0,-1.274129E1,-5.007161E1,-7.2653015E1,2.5009146E0,8.532768E0,9.5549126E1,1.8348064E2,7.409647E1,-9.13266E-1,-5.900704E0,-9.808436E0,-2.3770599E-1,-0E0,1.6389252E0,1.0596184E1,1.9242767E0,2.437879E1,1.1347821E1,-6.721531E0,1.2721835E1],"categories":[],"categories_nodes":[],"categories_segments":[],"categories_sizes":[],"default_left":[0,0,0,0,0,0,0,0,0,0,0,0,0,0,0,0,0,0,0,0,0,0,0,0,0,0,0,0,0,0,0,0,0,0,0,0,0,0,0,0,0,0,0,0,0,0,0,0,0,0,0,0,0,0,0,0,0,0,0,0,0,0,0,0,0,0,0,0,0,0,0],"id":5,"left_children":[1,3,5,7,9,11,13,15,-1,17,19,21,-1,23,25,27,29,31,33,35,-1,37,-1,-1,-1,-1,-1,39,41,-1,-1,-1,43,45,47,-1,-1,49,51,53,55,57,-1,-1,-1,-1,-1,-1,-1,-1,-1,-1,59,61,-1,63,65,67,69,-1,-1,-1,-1,-1,-1,-1,-1,-1,-1,-1,-1],"loss_changes":[6.609382E5,5.911363E5,3.8206906E5,5.0865888E5,2.0993722E5,5.791349E4,4.562298E5,2.3444369E5,0E0,4.3624812E4,2.0592025E5,1.053162E5,0E0,1.9253375E4,1.2197656E3,1.526405E5,1.0883031E4,8.96075E3,4.2817902E4,1.5517891E4,0E0,1.5228223E4,0E0,0E0,0E0,0E0,0E0,8.096458E4,9.7217E4,0E0,0E0,0E0,3.18375E3,2.2572422E3,4.1150184E4,0E0,0E0,1.1546098E4,1.945375E3,2.015598E4,1.3395113E4,6.2138344E4,0E0,0E0,0E0,0E0,0E0,0E0,0E0,0E0,0E0,0E0,5.836387E2,1.8923875E4,0E0,2.459826E2,2.1023125E3,1.698725E4,1.2895896E5,0E0,0E0,0E0,0E0,0E0,0E0,0E0,0E0,0E0,0E0,0E0,0E0],"parents":[2147483647,0,0,1,1,2,2,3,3,4,4,5,5,6,6,7,7,9,9,10,10,11,11,13,13,14,14,15,15,16,16,17,17,18,18,19,19,21,21,27,27,28,28,32,32,33,33,34,34,37,37,38,38,39,39,40,40,41,41,52,52,53,53,55,55,56,56,57,57,58,58],"right_children":[2,4,6,8,10,12,14,16,-1,18,20,22,-1,24,26,28,30,32,34,36,-1,38,-1,-1,-1,-1,-1,40,42,-1,-1,-1,44,46,48,-1,-1,50,52,54,56,58,-1,-1,-1,-1,-1,-1,-1,-1,-1,-1,60,62,-1,64,66,68,70,-1,-1,-1,-1,-1,-1,-1,-1,-1,-1,-1,-1],"split_conditions":[6E1,4.1E-1,1.185732E6,1E0,1E0,1E0,5.1E-1,1E0,-1.2241053E1,1E0,5.1E-1,7E1,1.214702E1,7.5E1,6.4E1,1.185732E6,5.1E1,9E0,1.9E1,3.1E1,-7.335341E0,6.1E1,9.1295805E0,3.1156849E1,6.521184E0,-2.4949646E-2,-4.422697E0,6E0,5.6E1,2.5625309E1,5.456575E0,-8.834919E0,2.4E1,1E1,5.1E-1,2.0426903E1,2.7073548E0,4.6E-1,9E0,1E0,4.6E1,3.6E-1,-1.1752688E1,-1.3416819E1,-4.6503663E0,-8.578654E0,-4.208956E0,1.5065813E1,-3.7465637E0,2.9569733E0,-6.8530397E0,-1.274129E1,1E1,3.7E-1,2.5009146E0,1.4E1,1E0,9E0,4E-1,-9.13266E-1,-5.900704E0,-9.808436E0,-2.3770599E-1,-0E0,1.6389252E0,1.0596184E1,1.9242767E0,2.437879E1,1.1347821E1,-6.721531E0,1.2721835E1],"split_indices":[2,1,12,19,5,3,1,4,0,4,1,2,0,2,2,12,2,21,21,0,0,2,0,0,0,0,0,22,2,0,0,0,21,0,1,0,0,1,22,7,2,1,0,0,0,0,0,0,0,0,0,0,0,1,0,21,6,20,1,0,0,0,0,0,0,0,0,0,0,0,0],"split_type":[0,0,0,0,0,0,0,0,0,0,0,0,0,0,0,0,0,0,0,0,0,0,0,0,0,0,0,0,0,0,0,0,0,0,0,0,0,0,0,0,0,0,0,0,0,0,0,0,0,0,0,0,0,0,0,0,0,0,0,0,0,0,0,0,0,0,0,0,0,0,0],"sum_hessian":[1.84E2,1.47E2,3.7E1,6.7E1,8E1,1.7E1,2E1,5.4E1,1.3E1,6.9E1,1.1E1,1.4E1,3E0,1.5E1,5E0,4.6E1,8E0,5.1E1,1.8E1,5E0,6E0,9E0,5E0,1.4E1,1E0,1E0,4E0,2E1,2.6E1,7E0,1E0,2.3E1,2.8E1,1.5E1,3E0,4E0,1E0,3E0,6E0,1.2E1,8E0,2.5E1,1E0,2.6E1,2E0,9E0,6E0,1E0,2E0,2E0,1E0,3E0,3E0,1E1,2E0,3E0,5E0,1E1,1.5E1,1E0,2E0,7E0,3E0,2E0,1E0,4E0,1E0,4E0,6E0,4E0,1.1E1],"tree_param":{"num_deleted":"0","num_feature":"24","num_nodes":"71","size_leaf_vector":"1"}},{"base_weights":[7.2019415E0,6.567764E1,-4.65227E1,-1.6566797E0,1.7167891E2,-6.8688095E1,1.0330396E2,4.383837E1,-1.0041503E2,2.160941E2,3.8531517E1,-8.6917885E1,3.9980583E1,2.20259E2,-6.9020076E0,-2.9539993E1,9.638593E1,-1.1367584E1,2.1143036E0,1.764273E2,3.180789E1,1.8912886E1,-5.2314323E1,-9.767794E1,-4.4800175E1,1.4374634E2,-6.87824E0,2.5250658E1,-2.3701478E-2,-5.372325E1,1.1967987E1,1.181293E2,2.9096893E1,3.5723114E0,-3.0051658E0,2.063487E1,8.639186E0,-9.039043E1,8.557116E0,-1.1418227E2,-7.945862E0,7.227407E1,-6.556168E1,1.9566961E1,-8.139666E0,2.3504589E0,-7.405217E1,4.6759095E0,-2.4565117E1,1.3956847E2,1.2309914E1,-8.113807E1,9.04185E0,-9.800921E0,-2.364824E0,-8.045546E0,-1.3097872E1,1.4312522E1,-3.2214112E0,-7.7309585E0,-3.4221559E0,-1.0592788E1,2.3341868E0,-3.208842E0,-0E0,6.513051E1,1.623306E1,-5.506775E-1,2.1751068E0,-8.676025E-1,-1.1053108E1,6.18306E-1,7.7071605E0],"categories":[],"categories_nodes":[],"categories_segments":[],"categories_sizes":[],"default_left":[0,0,0,0,0,0,0,0,0,0,0,0,0,0,0,0,0,0,0,0,0,0,0,0,0,0,0,0,0,0,0,0,0,0,0,0,0,0,0,0,0,0,0,0,0,0,0,0,0,0,0,0,0,0,0,0,0,0,0,0,0,0,0,0,0,0,0,0,0,0,0,0,0],"id":6,"left_children":[1,3,5,7,9,11,13,15,17,19,21,23,25,27,-1,29,31,-1,33,35,-1,-1,37,39,41,43,-1,-1,-1,45,47,49,51,-1,-1,-1,-1,53,-1,55,-1,57,59,-1,-1,-1,61,-1,63,65,67,69,-1,-1,-1,-1,-1,-1,-1,-1,-1,-1,-1,-1,-1,71,-1,-1,-1,-1,-1,-1,-1],"loss_changes":[5.906279E5,6.435116E5,3.3237744E5,2.5629383E5,1.9738219E5,1.7407638E5,2.779626E5,1.5355978E5,2.5271344E4,4.6590375E4,1.4738962E5,2.8447562E4,1.569784E5,5.8204906E4,0E0,1.7916305E4,2.947775E4,0E0,4.3450757E3,3.7283125E4,0E0,0E0,4.45099E4,7.3995E3,4.6025684E4,9.832933E4,0E0,0E0,0E0,1.926285E4,1.0156803E4,3.6090047E4,5.4701273E4,0E0,0E0,0E0,0E0,1.2493359E2,0E0,4.266625E3,0E0,2.7374527E4,2.3193984E3,0E0,0E0,0E0,3.0826023E4,0E0,6.752202E2,1.2011156E4,8.7384E2,4.834627E3,0E0,0E0,0E0,0E0,0E0,0E0,0E0,0E0,0E0,0E0,0E0,0E0,0E0,2.6266738E3,0E0,0E0,0E0,0E0,0E0,0E0,0E0],"parents":[2147483647,0,0,1,1,2,2,3,3,4,4,5,5,6,6,7,7,8,8,9,9,10,10,11,11,12,12,13,13,15,15,16,16,18,18,19,19,22,22,23,23,24,24,25,25,29,29,30,30,31,31,32,32,37,37,39,39,41,41,42,42,46,46,48,48,49,49,50,50,51,51,65,65],"right_children":[2,4,6,8,10,12,14,16,18,20,22,24,26,28,-1,30,32,-1,34,36,-1,-1,38,40,42,44,-1,-1,-1,46,48,50,52,-1,-1,-1,-1,54,-1,56,-1,58,60,-1,-1,-1,62,-1,64,66,68,70,-1,-1,-1,-1,-1,-1,-1,-1,-1,-1,-1,-1,-1,72,-1,-1,-1,-1,-1,-1,-1],"split_conditions":[4.1E-1,1.185732E6,6E1,1E0,1E0,1E0,1E1,6E0,5.6E1,1E0,3.1E-1,1E0,5.1E-1,5.1E-1,-6.9020076E0,3.7E-1,6.1E1,-1.1367584E1,4.4E1,3.6E-1,3.180789E1,1.8912886E1,4E-1,7E0,2E0,3.1E1,-6.87824E0,2.5250658E1,-2.3701478E-2,2.6E-1,1E0,1E0,7E1,3.5723114E0,-3.0051658E0,2.063487E1,8.639186E0,1.9E1,8.557116E0,7E0,-7.945862E0,5.1E-1,1E1,1.9566961E1,-8.139666E0,2.3504589E0,1E0,4.6759095E0,1.4E1,3.6E-1,4.6E1,6.6E1,9.04185E0,-9.800921E0,-2.364824E0,-8.045546E0,-1.3097872E1,1.4312522E1,-3.2214112E0,-7.7309585E0,-3.4221559E0,-1.0592788E1,2.3341868E0,-3.208842E0,-0E0,4.6E1,1.623306E1,-5.506775E-1,2.1751068E0,-8.676025E-1,-1.1053108E1,6.18306E-1,7.7071605E0],"split_indices":[1,12,2,19,7,5,22,22,2,4,1,4,1,1,0,1,2,0,0,1,0,0,1,22,22,0,0,0,0,1,6,6,2,0,0,0,0,21,0,21,0,1,0,0,0,0,7,0,21,1,2,2,0,0,0,0,0,0,0,0,0,0,0,0,0,2,0,0,0,0,0,0,0],"split_type":[0,0,0,0,0,0,0,0,0,0,0,0,0,0,0,0,0,0,0,0,0,0,0,0,0,0,0,0,0,0,0,0,0,0,0,0,0,0,0,0,0,0,0,0,0,0,0,0,0,0,0,0,0,0,0,0,0,0,0,0,0,0,0,0,0,0,0,0,0,0,0,0,0],"sum_hessian":[1.86E2,8.9E1,9.7E1,5.5E1,3.4E1,8.5E1,1.2E1,3.8E1,1.7E1,2.5E1,9E0,7.3E1,1.2E1,7E0,5E0,1.6E1,2.2E1,1.5E1,2E0,2E1,5E0,3E0,6E0,5.7E1,1.6E1,6E0,6E0,6E0,1E0,1E1,6E0,1.6E1,6E0,1E0,1E0,1.4E1,6E0,5E0,1E0,2.7E1,3E1,2E0,1.4E1,5E0,1E0,2E0,8E0,3E0,3E0,1.3E1,3E0,2E0,4E0,4E0,1E0,1.1E1,1.6E1,1E0,1E0,9E0,5E0,6E0,2E0,2E0,1E0,4E0,9E0,1E0,2E0,1E0,1E0,1E0,3E0],"tree_param":{"num_deleted":"0","num_feature":"24","num_nodes":"73","size_leaf_vector":"1"}},{"base_weights":[5.2047977E0,-4.3792732E1,5.42E1,-8.68165E0,-9.412869E1,1.0576164E2,-6.602303E1,-8.012775E1,4.859795E1,-2.9533463E1,-9.691272E1,7.044952E1,2.8183975E2,-7.6081557E0,-3.6896923E0,-9.273429E1,4.8385544E0,8.298156E1,-7.551698E0,-7.65899E0,2.9789703E0,-1.1915816E1,-8.087542E1,3.983492E1,2.3705225E1,-3.1848953E0,3.207884E1,-1.0758642E2,-2.2690216E1,5.7100906E0,-2.9949198E0,1.2726074E0,9.900972E1,-4.71009E0,-9.541511E0,1.036364E2,-7.480504E1,-1.1966259E2,-9.676747E0,-6.126943E0,2.1785736E0,2.134198E0,-7.8302307E0,1.1367353E2,1.0686066E1,1.4763692E2,1.3759439E1,-1.7442474E0,-7.698755E0,-1.2393105E2,-2.7452073E0,3.393695E0,-5.095207E0,-3.3237884E0,1.0051616E1,7.2392654E1,1.41768465E1,1.9402374E0,-5.23143E-1,7.158882E0,1.8269444E1,1.3542186E1,-2.7767973E1,-4.99077E0,-1.3169263E1,-0E0,1.6075028E0,5.873901E-1,7.934827E0,-8.083283E0,1.0363936E1],"categories":[],"categories_nodes":[],"categories_segments":[],"categories_sizes":[],"default_left":[0,0,0,0,0,0,0,0,0,0,0,0,0,0,0,0,0,0,0,0,0,0,0,0,0,0,0,0,0,0,0,0,0,0,0,0,0,0,0,0,0,0,0,0,0,0,0,0,0,0,0,0,0,0,0,0,0,0,0,0,0,0,0,0,0,0,0,0,0,0,0],"id":7,"left_children":[1,3,5,7,9,11,13,15,17,19,21,23,25,-1,-1,27,29,31,-1,-1,-1,-1,33,35,-1,-1,-1,37,39,-1,-1,41,43,-1,-1,45,47,49,51,-1,-1,-1,53,55,57,59,61,-1,-1,63,-1,-1,-1,-1,65,67,-1,-1,-1,-1,-1,-1,69,-1,-1,-1,-1,-1,-1,-1,-1],"loss_changes":[4.2253825E5,1.5419556E5,5.526843E5,2.2094911E5,2.9796562E3,3.6388E5,4.538008E3,2.6595312E4,1.343294E5,1.0890201E4,1.492625E3,2.5949778E5,1.3383894E5,0E0,0E0,1.8753844E4,9.118244E3,3.0804031E4,0E0,0E0,0E0,0E0,6.0879062E3,3.4434984E5,0E0,0E0,0E0,1.8295719E4,1.0111454E4,0E0,0E0,1.1481125E3,2.4066719E4,0E0,0E0,1.1580059E5,3.1329688E2,1.744875E3,7.2147427E3,0E0,0E0,0E0,2.267369E3,8.382531E3,7.2732404E2,3.8970875E4,5.9874246E4,0E0,0E0,5.630469E2,0E0,0E0,0E0,0E0,2.1370807E2,3.2719102E3,0E0,0E0,0E0,0E0,0E0,0E0,7.102144E4,0E0,0E0,0E0,0E0,0E0,0E0,0E0,0E0],"parents":[2147483647,0,0,1,1,2,2,3,3,4,4,5,5,6,6,7,7,8,8,9,9,10,10,11,11,12,12,15,15,16,16,17,17,22,22,23,23,27,27,28,28,31,31,32,32,35,35,36,36,37,37,38,38,42,42,43,43,44,44,45,45,46,46,49,49,54,54,55,55,62,62],"right_children":[2,4,6,8,10,12,14,16,18,20,22,24,26,-1,-1,28,30,32,-1,-1,-1,-1,34,36,-1,-1,-1,38,40,-1,-1,42,44,-1,-1,46,48,50,52,-1,-1,-1,54,56,58,60,62,-1,-1,64,-1,-1,-1,-1,66,68,-1,-1,-1,-1,-1,-1,70,-1,-1,-1,-1,-1,-1,-1,-1],"split_conditions":[1.185732E6,4.1E-1,5.1E-1,5E0,3E0,1E0,1E0,4E-1,1E0,4.5E-1,6E0,1E0,3.4E1,-7.6081557E0,-3.6896923E0,1E0,4.1E1,6E0,-7.551698E0,-7.65899E0,2.9789703E0,-1.1915816E1,1E0,4.1E-1,2.3705225E1,-3.1848953E0,3.207884E1,1E0,4.8E1,5.7100906E0,-2.9949198E0,2.6E-1,1E0,-4.71009E0,-9.541511E0,1E0,4.4E-1,1E0,2.6E-1,-6.126943E0,2.1785736E0,2.134198E0,3.6E-1,3.6E-1,1E1,4E0,3.1E-1,-1.7442474E0,-7.698755E0,2.4E-1,-2.7452073E0,3.393695E0,-5.095207E0,-3.3237884E0,5.1E1,4.6E1,1.41768465E1,1.9402374E0,-5.23143E-1,7.158882E0,1.8269444E1,1.3542186E1,4E-1,-4.99077E0,-1.3169263E1,-0E0,1.6075028E0,5.873901E-1,7.934827E0,-8.083283E0,1.0363936E1],"split_indices":[12,1,1,22,22,4,4,1,19,1,22,5,2,0,0,7,2,22,0,0,0,0,18,1,0,0,0,3,2,0,0,1,6,0,0,7,1,4,1,0,0,0,1,1,22,22,1,0,0,1,0,0,0,0,2,2,0,0,0,0,0,0,1,0,0,0,0,0,0,0,0],"split_type":[0,0,0,0,0,0,0,0,0,0,0,0,0,0,0,0,0,0,0,0,0,0,0,0,0,0,0,0,0,0,0,0,0,0,0,0,0,0,0,0,0,0,0,0,0,0,0,0,0,0,0,0,0,0,0,0,0,0,0,0,0,0,0,0,0,0,0,0,0,0,0],"sum_hessian":[1.74E2,8.7E1,8.7E1,5.2E1,3.5E1,6.1E1,2.6E1,2.3E1,2.9E1,2E0,3.3E1,5.2E1,9E0,1.8E1,8E0,2E1,3E0,2.3E1,6E0,1E0,1E0,1.1E1,2.2E1,4.5E1,7E0,1E0,8E0,1.6E1,4E0,1E0,2E0,4E0,1.9E1,8E0,1.4E1,2.9E1,1.6E1,1.4E1,2E0,2E0,2E0,1E0,3E0,1.6E1,3E0,1.9E1,1E1,1E0,1.5E1,1.3E1,1E0,1E0,1E0,1E0,2E0,8E0,8E0,2E0,1E0,7E0,1.2E1,2E0,8E0,2E0,1.1E1,1E0,1E0,1E0,7E0,6E0,2E0],"tree_param":{"num_deleted":"0","num_feature":"24","num_nodes":"71","size_leaf_vector":"1"}},{"base_weights":[1.8963151E0,-4.2719322E1,4.3755806E1,-8.261556E1,-5.984788E0,9.473093E1,-6.0998535E1,-9.7089264E1,-2.4643442E1,1.4560595E1,-6.9250984E1,6.1920696E1,2.6849515E2,-7.033208E0,-3.2931534E1,-1.1701905E1,-5.038306E1,4.0862045E1,-5.9268947E0,-4.9667408E1,4.383657E1,-9.002653E0,2.1417807E1,2.869907E1,2.1137026E1,-3.02565E0,3.0560719E1,-3.6773872E0,-1.0041453E1,-5.815621E1,-1.904771E1,7.3535705E0,-2.6079469E0,1.1593984E0,-8.685218E1,6.1743393E1,-4.2720757E0,2.8300216E0,1.3264923E-1,1.12332466E2,-7.121763E1,-0E0,-1.418187E0,-6.190061E0,-1.160051E0,4.9367676E0,-4.8000574E0,2.395353E0,-2.7952576E0,-1.1290758E1,3.2240098E0,1.1890259E0,7.485609E1,1.4682266E2,1.5751696E1,-3.1285992E0,-7.561283E0,-4.969864E-1,1.4875015E0,2.0274887E0,-7.401161E0,1.01402405E2,1.7940098E1,1.5507001E1,-0E0,1.2639375E1,-4.136128E1,-3.157599E0,9.515778E-1,1.0838656E1,9.7883E-1,-8.245438E0,7.558876E0,-7.7227335E0,6.64845E0],"categories":[],"categories_nodes":[],"categories_segments":[],"categories_sizes":[],"default_left":[0,0,0,0,0,0,0,0,0,0,0,0,0,0,0,0,0,0,0,0,0,0,0,0,0,0,0,0,0,0,0,0,0,0,0,0,0,0,0,0,0,0,0,0,0,0,0,0,0,0,0,0,0,0,0,0,0,0,0,0,0,0,0,0,0,0,0,0,0,0,0,0,0,0,0],"id":8,"left_children":[1,3,5,7,9,11,13,15,17,19,21,23,25,-1,27,-1,29,31,-1,33,35,-1,37,39,-1,-1,-1,-1,41,43,45,-1,-1,47,49,51,-1,-1,-1,53,55,-1,-1,-1,-1,57,-1,-1,-1,-1,-1,59,61,63,65,-1,-1,-1,-1,-1,67,69,71,-1,-1,-1,73,-1,-1,-1,-1,-1,-1,-1,-1],"loss_changes":[3.473782E5,1.3096384E5,5.185742E5,3.307878E4,6.367354E4,3.5230344E5,5.5503984E3,2.4915938E4,2.5195488E4,7.1720586E4,2.4875527E4,2.707711E5,1.21496125E5,0E0,2.761748E2,0E0,1.4291309E3,1.090395E4,0E0,2.3208963E4,4.303197E4,0E0,2.2915637E2,4.0095512E5,0E0,0E0,0E0,0E0,9.9758514E1,4.8332422E2,3.2299639E3,0E0,0E0,4.63106E3,2.5764465E4,1.6999445E4,0E0,0E0,0E0,8.348275E4,9.610469E2,0E0,0E0,0E0,0E0,4.1881625E2,0E0,0E0,0E0,0E0,0E0,1.0341819E3,2.47805E4,2.3259781E4,5.6205746E4,0E0,0E0,0E0,0E0,0E0,2.0466276E3,6.026383E3,4.6711547E4,0E0,0E0,0E0,2.8396152E4,0E0,0E0,0E0,0E0,0E0,0E0,0E0,0E0],"parents":[2147483647,0,0,1,1,2,2,3,3,4,4,5,5,6,6,7,7,8,8,9,9,10,10,11,11,12,12,14,14,16,16,17,17,19,19,20,20,22,22,23,23,28,28,29,29,30,30,33,33,34,34,35,35,39,39,40,40,45,45,51,51,52,52,53,53,54,54,60,60,61,61,62,62,66,66],"right_children":[2,4,6,8,10,12,14,16,18,20,22,24,26,-1,28,-1,30,32,-1,34,36,-1,38,40,-1,-1,-1,-1,42,44,46,-1,-1,48,50,52,-1,-1,-1,54,56,-1,-1,-1,-1,58,-1,-1,-1,-1,-1,60,62,64,66,-1,-1,-1,-1,-1,68,70,72,-1,-1,-1,74,-1,-1,-1,-1,-1,-1,-1,-1],"split_conditions":[1.185732E6,5E1,5.1E-1,1E0,4.1E-1,1E0,1E0,7E0,4.1E-1,5E0,1E0,1E0,3.4E1,-7.033208E0,2.3E1,-1.1701905E1,1E0,1E1,-5.9268947E0,5.1E1,1E0,-9.002653E0,5.1E1,4.1E-1,2.1137026E1,-3.02565E0,3.0560719E1,-3.6773872E0,5.8E-1,1.1E1,4.1E-1,7.3535705E0,-2.6079469E0,1E0,1E0,6E0,-4.2720757E0,2.8300216E0,1.3264923E-1,1E0,4.5E-1,-0E0,-1.418187E0,-6.190061E0,-1.160051E0,1.4E1,-4.8000574E0,2.395353E0,-2.7952576E0,-1.1290758E1,3.2240098E0,2.6E-1,6.1E1,3.9E1,3.1E-1,-3.1285992E0,-7.561283E0,-4.969864E-1,1.4875015E0,2.0274887E0,3.6E-1,1E0,7E1,1.5507001E1,-0E0,1.2639375E1,4E-1,-3.157599E0,9.515778E-1,1.0838656E1,9.7883E-1,-8.245438E0,7.558876E0,-7.7227335E0,6.64845E0],"split_indices":[12,2,1,4,1,4,4,22,1,22,5,5,2,0,21,0,6,0,0,2,19,0,2,1,0,0,0,0,1,22,1,0,0,6,3,22,0,0,0,7,1,0,0,0,0,21,0,0,0,0,0,1,2,0,1,0,0,0,0,0,1,6,2,0,0,0,1,0,0,0,0,0,0,0,0],"split_type":[0,0,0,0,0,0,0,0,0,0,0,0,0,0,0,0,0,0,0,0,0,0,0,0,0,0,0,0,0,0,0,0,0,0,0,0,0,0,0,0,0,0,0,0,0,0,0,0,0,0,0,0,0,0,0,0,0,0,0,0,0,0,0,0,0,0,0,0,0,0,0,0,0,0,0],"sum_hessian":[1.84E2,8.9E1,9.5E1,4.2E1,4.7E1,6.4E1,3.1E1,3.3E1,9E0,3.6E1,1.1E1,5.5E1,9E0,2.2E1,9E0,2.2E1,1.1E1,3E0,6E0,1.1E1,2.5E1,9E0,2E0,4.6E1,9E0,1E0,8E0,7E0,2E0,8E0,3E0,2E0,1E0,5E0,6E0,2.1E1,4E0,1E0,1E0,2.5E1,2.1E1,1E0,1E0,7E0,1E0,2E0,1E0,3E0,2E0,5E0,1E0,4E0,1.7E1,1.8E1,7E0,3E0,1.8E1,1E0,1E0,1E0,3E0,1.1E1,6E0,1.7E1,1E0,2E0,5E0,1E0,2E0,1E1,1E0,2E0,4E0,4E0,1E0],"tree_param":{"num_deleted":"0","num_feature":"24","num_nodes":"75","size_leaf_vector":"1"}},{"base_weights":[-6.089502E-1,-4.5519756E1,3.9577908E1,-7.69349E1,-1.5076297E1,1.2690066E2,-1.0274899E1,-9.040608E1,-4.632637E1,9.127647E0,-7.574198E1,1.02342896E2,2.2770601E1,-4.1645794E1,7.492134E1,-1.0398204E1,-2.2463905E1,-5.201129E1,1.4131272E0,-2.7417051E1,4.5429543E1,-8.2680504E1,1.2601624E-1,1.5449492E2,4.6741455E1,9.288811E1,-5.6789215E1,1.9166996E1,-4.9596305E0,5.0569077E0,-4.818432E0,8.675232E-1,-5.7731426E1,-4.2085243E1,2.9525888E0,-4.2727585E0,1.0250372E2,-9.179931E0,-4.024307E0,5.774475E0,1.6455304E2,-3.7335439E0,7.829504E1,-3.9253159E0,1.9573334E1,-6.3184223E1,-2.5764823E0,-6.0288963E1,-1.1020485E0,-1.640386E0,-6.3816788E1,5.7767525E0,-3.982824E1,1.1377601E1,9.298889E-1,1.720582E1,3.4745576E0,8.188454E0,1.6905273E0,-2.893954E0,-6.5403404E1,-3.2770975E0,-6.932659E0,2.2123892E0,-2.0303497E1,-7.723417E0,1.926114E0,-6.2051228E1,4.4254837E0,-7.044931E0,-4.146525E0,-2.6089072E0,-0E0,-3.1521785E0,-1.0484921E1],"categories":[],"categories_nodes":[],"categories_segments":[],"categories_sizes":[],"default_left":[0,0,0,0,0,0,0,0,0,0,0,0,0,0,0,0,0,0,0,0,0,0,0,0,0,0,0,0,0,0,0,0,0,0,0,0,0,0,0,0,0,0,0,0,0,0,0,0,0,0,0,0,0,0,0,0,0,0,0,0,0,0,0,0,0,0,0,0,0,0,0,0,0,0,0],"id":9,"left_children":[1,3,5,7,9,11,13,15,17,19,21,23,-1,25,27,-1,29,31,-1,33,35,37,-1,39,41,43,45,-1,-1,-1,-1,-1,47,49,-1,51,53,-1,-1,-1,55,-1,57,-1,-1,59,-1,61,-1,63,65,-1,67,-1,-1,-1,-1,-1,-1,-1,69,-1,-1,-1,71,-1,-1,73,-1,-1,-1,-1,-1,-1,-1],"loss_changes":[3.2850447E5,8.0629234E4,4.198023E5,1.2446125E4,6.710011E4,6.1690062E4,1.6866006E5,2.2858562E4,6.07984E3,4.511479E4,7.456953E3,7.876431E4,0E0,9.881051E4,2.5734995E5,0E0,1.3695343E4,5.606008E3,0E0,1.550465E4,4.9153332E4,2.8925E2,0E0,3.9833438E3,4.557481E4,7.641605E4,6.2601875E3,0E0,0E0,0E0,0E0,0E0,5.3208594E2,1.1873039E4,0E0,2.4269805E4,6.7316875E3,0E0,0E0,0E0,5.652625E3,0E0,7.660703E2,0E0,0E0,2.19375E2,0E0,2.0197656E2,0E0,3.1011824E3,1.180968E4,0E0,1.5915086E4,0E0,0E0,0E0,0E0,0E0,0E0,0E0,2.6370312E2,0E0,0E0,0E0,3.9299084E2,0E0,0E0,3.8527031E3,0E0,0E0,0E0,0E0,0E0,0E0,0E0],"parents":[2147483647,0,0,1,1,2,2,3,3,4,4,5,5,6,6,7,7,8,8,9,9,10,10,11,11,13,13,14,14,16,16,17,17,19,19,20,20,21,21,23,23,24,24,25,25,26,26,32,32,33,33,35,35,36,36,40,40,42,42,45,45,47,47,49,49,50,50,52,52,60,60,64,64,67,67],"right_children":[2,4,6,8,10,12,14,16,18,20,22,24,-1,26,28,-1,30,32,-1,34,36,38,-1,40,42,44,46,-1,-1,-1,-1,-1,48,50,-1,52,54,-1,-1,-1,56,-1,58,-1,-1,60,-1,62,-1,64,66,-1,68,-1,-1,-1,-1,-1,-1,-1,70,-1,-1,-1,72,-1,-1,74,-1,-1,-1,-1,-1,-1,-1],"split_conditions":[1.185732E6,5E1,4.1E-1,7E0,4.1E-1,1E0,1E0,1E0,1E0,6E0,1E0,3.6E-1,2.2770601E1,1E0,5.1E-1,-1.0398204E1,1.3E1,3.6E-1,1.4131272E0,1E0,3.6E-1,5.1E-1,1.2601624E-1,3E0,4E-1,2.8E1,1E0,1.9166996E1,-4.9596305E0,5.0569077E0,-4.818432E0,8.675232E-1,1.1E1,5.1E1,2.9525888E0,2.6E-1,1E0,-9.179931E0,-4.024307E0,5.774475E0,7.5E1,-3.7335439E0,1E0,-3.9253159E0,1.9573334E1,4.5E-1,-2.5764823E0,9E0,-1.1020485E0,3.6E-1,6.6E1,5.7767525E0,1E0,1.1377601E1,9.298889E-1,1.720582E1,3.4745576E0,8.188454E0,1.6905273E0,-2.893954E0,1E0,-3.2770975E0,-6.932659E0,2.2123892E0,1.4E1,-7.723417E0,1.926114E0,6.6E1,4.4254837E0,-7.044931E0,-4.146525E0,-2.6089072E0,-0E0,-3.1521785E0,-1.0484921E1],"split_indices":[12,2,1,22,1,4,5,4,6,22,5,1,0,18,1,0,21,1,0,3,1,1,0,21,1,2,4,0,0,0,0,0,22,2,0,1,6,0,0,0,2,0,3,0,0,1,0,22,0,1,2,0,7,0,0,0,0,0,0,0,3,0,0,0,21,0,0,2,0,0,0,0,0,0,0],"split_type":[0,0,0,0,0,0,0,0,0,0,0,0,0,0,0,0,0,0,0,0,0,0,0,0,0,0,0,0,0,0,0,0,0,0,0,0,0,0,0,0,0,0,0,0,0,0,0,0,0,0,0,0,0,0,0,0,0,0,0,0,0,0,0,0,0,0,0,0,0,0,0,0,0,0,0],"sum_hessian":[1.8E2,8.5E1,9.5E1,4.1E1,4.4E1,3.4E1,6.1E1,2.7E1,1.4E1,3.2E1,1.2E1,2.9E1,5E0,4.5E1,1.6E1,2.2E1,5E0,1.3E1,1E0,1.6E1,1.6E1,1.1E1,1E0,1.4E1,1.5E1,4E0,4.1E1,8E0,8E0,1E0,4E0,1E0,1.2E1,1.3E1,3E0,9E0,7E0,8E0,3E0,2E0,1.2E1,4E0,1.1E1,2E0,2E0,3.3E1,8E0,1.1E1,1E0,5E0,8E0,3E0,6E0,6E0,1E0,1.1E1,1E0,1E1,1E0,3E0,3E1,4E0,7E0,2E0,3E0,7E0,1E0,5E0,1E0,2.3E1,7E0,2E0,1E0,4E0,1E0],"tree_param":{"num_deleted":"0","num_feature":"24","num_nodes":"75","size_leaf_vector":"1"}},{"base_weights":[6.782554E0,4.7683704E1,-2.6032356E1,-1.8292166E0,1.0910309E2,-4.091002E1,1.6070775E2,-2.1398388E1,1.1513285E2,1.3294337E2,3.804571E1,-5.5915363E1,2.495014E1,1.8854442E2,-1.4574479E0,-5.7986275E1,1.4271793E1,1.2498019E1,2.5524385E0,2.3320465E1,1.5003384E2,1.4240366E1,-1.826398E1,-6.1106907E1,9.776711E1,9.086439E1,-4.2959118E1,7.433782E1,2.183595E1,-8.790421E0,-3.2428764E1,3.3544422E1,-5.696403E0,3.3859444E0,-6.9177246E-1,1.5914029E2,3.1575308E0,-6.860472E1,8.683883E0,-7.074706E1,-3.0874706E1,-2.751352E0,1.7666418E1,1.3832041E1,-1.364975E1,-5.2785563E0,-2.1575562E1,-5.0014086E0,1.6402082E1,-4.5834667E1,2.586914E0,1.7448557E1,7.090396E1,1.6333666E1,3.3008301E0,-9.759625E0,-2.8459892E0,-5.4654675E1,-8.16182E1,-4.383307E1,3.390661E1,2.0346243E1,-6.0318866E0,-2.0252228E-1,-2.470684E0,-6.495421E1,2.5135498E0,3.4499485E1,-9.960675E0,1.5514771E0,7.962257E1,-5.9159733E1,-2.8193688E0,-9.272943E1,-5.4029434E1,-5.2069907E0,-2.6403286E0,9.486249E0,-1.636618E1,2.6822205E0,1.19715884E-1,-2.4349792E0,-7.236264E0,1.0409977E0,6.9960704E0,1.8298081E0,9.229804E0,-6.054929E0,-1.248954E0,-9.561568E0,-1.3559074E0,-5.658312E0,-1.0469459E0,-0E0,-2.49572E0],"categories":[],"categories_nodes":[],"categories_segments":[],"categories_sizes":[],"default_left":[0,0,0,0,0,0,0,0,0,0,0,0,0,0,0,0,0,0,0,0,0,0,0,0,0,0,0,0,0,0,0,0,0,0,0,0,0,0,0,0,0,0,0,0,0,0,0,0,0,0,0,0,0,0,0,0,0,0,0,0,0,0,0,0,0,0,0,0,0,0,0,0,0,0,0,0,0,0,0,0,0,0,0,0,0,0,0,0,0,0,0,0,0,0,0],"id":10,"left_children":[1,3,5,7,9,11,13,15,17,19,21,23,25,27,-1,29,31,-1,-1,33,35,-1,37,39,41,43,45,47,-1,-1,49,51,-1,-1,-1,53,-1,55,-1,57,59,-1,-1,-1,61,-1,63,-1,-1,65,-1,67,69,-1,-1,-1,-1,71,73,75,77,79,-1,-1,-1,81,-1,83,-1,-1,85,87,-1,89,91,-1,-1,-1,93,-1,-1,-1,-1,-1,-1,-1,-1,-1,-1,-1,-1,-1,-1,-1,-1],"loss_changes":[2.5636142E5,2.5922548E5,3.0047072E5,1.1185982E5,5.846025E4,9.938708E4,4.265197E4,5.5860195E4,2.2342734E3,4.809253E4,6.786156E4,7.0416766E4,8.919055E4,6.1396875E3,0E0,1.2604898E4,3.1997559E4,0E0,0E0,1.9623372E3,1.991125E4,0E0,4.8194008E4,2.0331594E4,3.5259234E4,5.210965E4,5.905586E2,4.2230133E4,0E0,0E0,1.14455E4,9.14508E3,0E0,0E0,0E0,5.2713125E3,0E0,3.5753008E3,0E0,5.1794375E3,1.9164521E4,0E0,0E0,0E0,7.773376E3,0E0,1.2239087E2,0E0,0E0,1.6757832E4,0E0,3.1053467E4,7.035703E2,0E0,0E0,0E0,0E0,1.1139297E3,4.372078E3,8.170117E2,1.4202705E4,1.9981897E2,0E0,0E0,0E0,4.6176172E2,0E0,9.975018E3,0E0,0E0,8.674082E2,3.0528906E2,0E0,3.1847969E3,4.0719922E2,0E0,0E0,0E0,4.4216803E2,0E0,0E0,0E0,0E0,0E0,0E0,0E0,0E0,0E0,0E0,0E0,0E0,0E0,0E0,0E0,0E0],"parents":[2147483647,0,0,1,1,2,2,3,3,4,4,5,5,6,6,7,7,8,8,9,9,10,10,11,11,12,12,13,13,15,15,16,16,19,19,20,20,22,22,23,23,24,24,25,25,26,26,27,27,30,30,31,31,35,35,37,37,39,39,40,40,44,44,46,46,49,49,51,51,52,52,57,57,58,58,59,59,60,60,61,61,65,65,67,67,70,70,71,71,73,73,74,74,78,78],"right_children":[2,4,6,8,10,12,14,16,18,20,22,24,26,28,-1,30,32,-1,-1,34,36,-1,38,40,42,44,46,48,-1,-1,50,52,-1,-1,-1,54,-1,56,-1,58,60,-1,-1,-1,62,-1,64,-1,-1,66,-1,68,70,-1,-1,-1,-1,72,74,76,78,80,-1,-1,-1,82,-1,84,-1,-1,86,88,-1,90,92,-1,-1,-1,94,-1,-1,-1,-1,-1,-1,-1,-1,-1,-1,-1,-1,-1,-1,-1,-1],"split_conditions":[4.1E-1,1.185732E6,6.5E1,1E0,1E0,1E0,5.1E-1,5E0,1E1,3.1E1,3.1E-1,2.7E1,5.1E-1,1.1E1,-1.4574479E0,4.9E1,1E0,1.2498019E1,2.5524385E0,3.1E1,3.9E1,1.4240366E1,3.8E-1,1E0,4.8E1,3.1E1,5.2E1,4.6E-1,2.183595E1,-8.790421E0,1E0,7E1,-5.696403E0,3.3859444E0,-6.9177246E-1,7.5E1,3.1575308E0,8E0,8.683883E0,9E0,1.9E1,-2.751352E0,1.7666418E1,1.3832041E1,4.6E-1,-5.2785563E0,3E0,-5.0014086E0,1.6402082E1,1E0,2.586914E0,6.6E1,1.3E1,1.6333666E1,3.3008301E0,-9.759625E0,-2.8459892E0,1E0,1E0,1.1E1,5.1E-1,5.1E1,-6.0318866E0,-2.0252228E-1,-2.470684E0,5.1E1,2.5135498E0,1E0,-9.960675E0,1.5514771E0,6E0,7E0,-2.8193688E0,2.4E1,1.1E1,-5.2069907E0,-2.6403286E0,9.486249E0,3.9E1,2.6822205E0,1.19715884E-1,-2.4349792E0,-7.236264E0,1.0409977E0,6.9960704E0,1.8298081E0,9.229804E0,-6.054929E0,-1.248954E0,-9.561568E0,-1.3559074E0,-5.658312E0,-1.0469459E0,-0E0,-2.49572E0],"split_indices":[1,12,2,4,7,5,1,22,22,2,1,21,1,0,0,2,19,0,0,0,0,0,1,4,2,0,2,1,0,0,3,2,0,0,0,2,0,21,0,21,21,0,0,0,1,0,21,0,0,7,0,2,21,0,0,0,0,3,3,0,1,2,0,0,0,2,0,3,0,0,22,21,0,21,22,0,0,0,0,0,0,0,0,0,0,0,0,0,0,0,0,0,0,0,0],"split_type":[0,0,0,0,0,0,0,0,0,0,0,0,0,0,0,0,0,0,0,0,0,0,0,0,0,0,0,0,0,0,0,0,0,0,0,0,0,0,0,0,0,0,0,0,0,0,0,0,0,0,0,0,0,0,0,0,0,0,0,0,0,0,0,0,0,0,0,0,0,0,0,0,0,0,0,0,0,0,0,0,0,0,0,0,0,0,0,0,0,0,0,0,0,0,0],"sum_hessian":[1.89E2,8.4E1,1.05E2,4.7E1,3.7E1,9.8E1,7E0,4.1E1,6E0,2.7E1,1E1,8E1,1.8E1,6E0,1E0,2E1,2.1E1,5E0,1E0,4E0,2.3E1,3E0,7E0,7.8E1,2E0,9E0,9E0,2E0,4E0,8E0,1.2E1,1.7E1,4E0,3E0,1E0,2.1E1,2E0,5E0,2E0,5.8E1,2E1,1E0,1E0,6E0,3E0,5E0,4E0,1E0,1E0,1E1,2E0,1.3E1,4E0,2E1,1E0,2E0,3E0,2.6E1,3.2E1,1.7E1,3E0,2E0,1E0,1E0,3E0,8E0,2E0,1.2E1,1E0,1E0,3E0,2.1E1,5E0,2.1E1,1.1E1,1E1,7E0,1E0,2E0,1E0,1E0,2E0,6E0,8E0,4E0,1E0,2E0,2E1,1E0,2E1,1E0,1E1,1E0,1E0,1E0],"tree_param":{"num_deleted":"0","num_feature":"24","num_nodes":"95","size_leaf_vector":"1"}},{"base_weights":[3.2121239E0,-3.2982765E1,3.8671577E1,-6.56831E1,-5.211664E0,1.1609498E2,-3.646954E0,-8.116899E1,-4.3565872E1,-1.6763556E1,8.531343E1,1.5034258E2,4.0362522E1,-2.398579E1,1.61776E2,-9.260081E1,-1.820795E1,7.7209777E-1,-4.6934708E1,-2.7987104E1,6.376187E1,1.2490285E1,2.4230652E0,1.765773E1,7.84553E1,1.11653336E2,-2.579568E1,4.7197086E1,-3.338372E1,-4.7513385E0,2.054098E1,-9.651349E0,-3.6591115E0,4.179161E0,-4.4905744E0,-2.4369233E0,-5.099422E0,-4.1249893E1,5.763127E1,2.4268982E0,9.349844E0,2.4248168E0,-1.8113571E0,6.160126E-1,8.718888E1,1.5215541E1,1.8766123E1,-4.000302E0,2.7224183E0,-3.7104206E0,1.7363356E1,-4.9530727E1,2.9380915E1,-5.51947E0,-5.409377E1,6.653578E1,4.0543517E-1,4.50531E0,1.0627744E1,3.7221024E0,-6.571838E-1,-5.3868477E1,-2.4278942E1,1.1513706E1,-3.5356464E1,6.3110895E0,-4.0837994E0,-1.9797276E1,-6.722928E1,1.473903E0,7.455022E1,-5.5604847E1,-1.5724355E0,-2.811605E0,-6.8450828E0,-3.9774551E0,-1.9239655E-1,-7.7123374E-1,3.8595388E0,-3.4487464E0,1.9412262E0,1.4254516E0,-7.282585E0,1.7383178E0,8.614484E0,-2.460413E0,-5.779099E0,-1.0675553E0,-0E0],"categories":[],"categories_nodes":[],"categories_segments":[],"categories_sizes":[],"default_left":[0,0,0,0,0,0,0,0,0,0,0,0,0,0,0,0,0,0,0,0,0,0,0,0,0,0,0,0,0,0,0,0,0,0,0,0,0,0,0,0,0,0,0,0,0,0,0,0,0,0,0,0,0,0,0,0,0,0,0,0,0,0,0,0,0,0,0,0,0,0,0,0,0,0,0,0,0,0,0,0,0,0,0,0,0,0,0,0,0],"id":11,"left_children":[1,3,5,7,9,11,13,15,17,19,21,23,25,27,29,31,33,-1,35,37,39,-1,41,-1,43,45,47,49,51,-1,-1,-1,-1,-1,-1,-1,-1,53,55,-1,-1,-1,-1,-1,57,-1,59,-1,-1,-1,-1,61,63,65,67,69,-1,-1,-1,-1,-1,71,73,-1,75,77,-1,79,81,-1,83,85,-1,-1,87,-1,-1,-1,-1,-1,-1,-1,-1,-1,-1,-1,-1,-1,-1],"loss_changes":[2.4387616E5,8.466689E4,3.155243E5,1.0567844E4,5.5465684E4,8.116253E4,2.1515552E5,1.5034078E4,4.0139883E3,4.4083344E4,1.875021E4,2.8248062E4,5.9907125E4,3.9637926E4,7.447383E4,1.8590625E2,9.901533E3,0E0,1.2098047E2,4.998799E4,4.1883477E3,0E0,1.8145366E3,0E0,4.0473281E3,1.8862773E4,6.425843E3,8.173648E4,5.3242516E4,0E0,0E0,0E0,0E0,0E0,0E0,0E0,0E0,1.6383309E4,2.239746E3,0E0,0E0,0E0,0E0,0E0,8.539844E1,0E0,1.800685E3,0E0,0E0,0E0,0E0,2.7923594E3,6.553765E4,5.026584E3,1.0397461E4,5.3036523E2,0E0,0E0,0E0,0E0,0E0,1.02090625E3,1.6790186E2,0E0,7.489365E2,4.526704E3,0E0,5.9288164E3,9.995523E3,0E0,6.36209E2,3.3482812E2,0E0,0E0,8.7369354E1,0E0,0E0,0E0,0E0,0E0,0E0,0E0,0E0,0E0,0E0,0E0,0E0,0E0,0E0],"parents":[2147483647,0,0,1,1,2,2,3,3,4,4,5,5,6,6,7,7,8,8,9,9,10,10,11,11,12,12,13,13,14,14,15,15,16,16,18,18,19,19,20,20,22,22,24,24,25,25,26,26,27,27,28,28,37,37,38,38,44,44,46,46,51,51,52,52,53,53,54,54,55,55,61,61,62,62,64,64,65,65,67,67,68,68,70,70,71,71,74,74],"right_children":[2,4,6,8,10,12,14,16,18,20,22,24,26,28,30,32,34,-1,36,38,40,-1,42,-1,44,46,48,50,52,-1,-1,-1,-1,-1,-1,-1,-1,54,56,-1,-1,-1,-1,-1,58,-1,60,-1,-1,-1,-1,62,64,66,68,70,-1,-1,-1,-1,-1,72,74,-1,76,78,-1,80,82,-1,84,86,-1,-1,88,-1,-1,-1,-1,-1,-1,-1,-1,-1,-1,-1,-1,-1,-1],"split_conditions":[1.185732E6,5E1,4.1E-1,6E0,1E0,3.1E1,6.5E1,1E0,3.6E-1,1E0,9E0,1E0,3.6E-1,1E0,1.1E1,1E0,1.3E1,7.7209777E-1,1.3E1,7E1,6E0,1.2490285E1,4.1E-1,1.765773E1,2.6E1,3.9E1,4E-1,2.8E1,1E0,-4.7513385E0,2.054098E1,-9.651349E0,-3.6591115E0,4.179161E0,-4.4905744E0,-2.4369233E0,-5.099422E0,1.3E1,3.1E-1,2.4268982E0,9.349844E0,2.4248168E0,-1.8113571E0,6.160126E-1,4.1E1,1.5215541E1,3.1E-1,-4.000302E0,2.7224183E0,-3.7104206E0,1.7363356E1,1E0,5.1E-1,4.1E-1,1E0,1.3E1,4.0543517E-1,4.50531E0,1.0627744E1,3.7221024E0,-6.571838E-1,1.2E1,5.8E1,1.1513706E1,6E1,1E0,-4.0837994E0,4.3E-1,2.6E-1,1.473903E0,6E0,4.5E-1,-1.5724355E0,-2.811605E0,3.1E1,-3.9774551E0,-1.9239655E-1,-7.7123374E-1,3.8595388E0,-3.4487464E0,1.9412262E0,1.4254516E0,-7.282585E0,1.7383178E0,8.614484E0,-2.460413E0,-5.779099E0,-1.0675553E0,-0E0],"split_indices":[12,2,1,22,4,0,2,4,1,3,22,6,1,18,0,7,21,0,21,2,22,0,1,0,2,0,1,2,5,0,0,0,0,0,0,0,0,21,1,0,0,0,0,0,2,0,1,0,0,0,0,4,1,1,18,21,0,0,0,0,0,22,2,0,2,7,0,1,1,0,22,1,0,0,0,0,0,0,0,0,0,0,0,0,0,0,0,0,0],"split_type":[0,0,0,0,0,0,0,0,0,0,0,0,0,0,0,0,0,0,0,0,0,0,0,0,0,0,0,0,0,0,0,0,0,0,0,0,0,0,0,0,0,0,0,0,0,0,0,0,0,0,0,0,0,0,0,0,0,0,0,0,0,0,0,0,0,0,0,0,0,0,0,0,0,0,0,0,0,0,0,0,0,0,0,0,0,0,0,0,0],"sum_hessian":[1.88E2,9.3E1,9.5E1,4.2E1,5.1E1,3.3E1,6.2E1,2.3E1,1.9E1,4.6E1,5E0,2.2E1,1.1E1,5.6E1,6E0,1.9E1,4E0,1E0,1.8E1,4.1E1,5E0,3E0,2E0,1.5E1,7E0,5E0,6E0,6E0,5E1,1E0,5E0,1.7E1,2E0,1E0,3E0,4E0,1.4E1,3.6E1,5E0,3E0,2E0,1E0,1E0,1E0,6E0,3E0,2E0,5E0,1E0,4E0,2E0,4E1,1E1,1E1,2.6E1,4E0,1E0,3E0,3E0,1E0,1E0,3.3E1,7E0,4E0,6E0,8E0,2E0,8E0,1.8E1,1E0,3E0,3.1E1,2E0,5E0,2E0,5E0,1E0,6E0,2E0,6E0,2E0,1E0,1.7E1,1E0,2E0,3E0,2.8E1,1E0,1E0],"tree_param":{"num_deleted":"0","num_feature":"24","num_nodes":"89","size_leaf_vector":"1"}},{"base_weights":[2.9312036E0,-1.290315E1,7.628075E1,1.9107878E1,-4.0775967E1,1.3812733E1,1.22191124E2,4.743278E1,-6.810013E1,-5.2000473E1,2.1109005E1,-5.179645E0,7.333478E0,1.6993332E2,-1.6696218E1,2.7484646E1,1.3993536E2,-7.095108E1,-5.891525E-1,-5.7946846E1,-2.65107E1,7.168428E1,-3.89926E1,-4.0474697E1,5.838738E1,2.1400827E1,1.039917E2,-9.465637E-2,-2.3084404E0,1.1556034E2,1.4736035E1,1.5245903E1,5.8227153E0,-7.3073783E0,-1.4932556E0,-4.148366E1,-6.868496E1,3.8055706E1,-3.880988E1,1.049013E1,-1.6977839E1,-4.5758824E0,-1.3051361E0,-5.8590527E1,-1.3263928E1,6.98084E1,3.8516387E-1,2.126186E1,1.8015608E1,1.4568639E1,3.5205505E0,2.0376362E1,-1.1139902E1,-4.369564E0,-1.7143875E0,-7.8329216E1,-4.669583E1,8.143768E0,-2.1854126E0,-2.211792E0,-5.1627855E0,2.4510484E0,-5.247724E0,-7.863154E0,-1.735267E1,1.3541794E0,-2.4600807E1,1.6514024E0,8.040186E0,8.776125E1,-5.0658154E0,8.5480225E-1,5.295307E1,-1.1683457E0,-8.070838E0,-4.8715897E0,-8.7275237E-1,-2.8695695E0,1.6668702E-2,-3.3900148E-1,-2.88744E0,1.0661285E1,2.2529023E0,-3.1175854E0,3.1026428E0,2.3645017E0,6.76734E0],"categories":[],"categories_nodes":[],"categories_segments":[],"categories_sizes":[],"default_left":[0,0,0,0,0,0,0,0,0,0,0,0,0,0,0,0,0,0,0,0,0,0,0,0,0,0,0,0,0,0,0,0,0,0,0,0,0,0,0,0,0,0,0,0,0,0,0,0,0,0,0,0,0,0,0,0,0,0,0,0,0,0,0,0,0,0,0,0,0,0,0,0,0,0,0,0,0,0,0,0,0,0,0,0,0,0,0],"id":12,"left_children":[1,3,5,7,9,11,13,15,17,19,21,23,-1,25,27,29,31,33,-1,35,37,39,41,43,45,-1,47,-1,-1,49,51,-1,-1,-1,-1,53,55,57,59,-1,61,-1,-1,63,65,67,-1,69,-1,-1,-1,71,-1,-1,-1,73,75,-1,-1,-1,-1,-1,-1,-1,77,-1,79,-1,-1,81,-1,83,85,-1,-1,-1,-1,-1,-1,-1,-1,-1,-1,-1,-1,-1,-1],"loss_changes":[2.2894389E5,1.4542997E5,9.8009734E4,1.9085888E5,6.1684812E4,1.8808066E4,1.3621916E5,1.0234157E5,2.5675E3,9.257797E3,4.551379E4,3.1440467E4,0E0,1.9750531E4,4.6166467E2,5.266491E4,3.0215625E2,6.091797E2,0E0,7.030078E3,1.4186529E4,2.5781348E4,3.3740332E2,3.3000977E3,2.4770918E3,0E0,4.5570992E4,0E0,0E0,8.491219E3,3.3118285E4,0E0,0E0,0E0,0E0,3.465039E2,2.9275781E3,9.874688E3,1.4847715E3,0E0,5.844508E3,0E0,0E0,2.2878535E3,1.9079001E3,4.4594922E2,0E0,2.8544523E4,0E0,0E0,0E0,2.7031467E4,0E0,0E0,0E0,2.0834062E3,2.846953E2,0E0,0E0,0E0,0E0,0E0,0E0,0E0,7.4359564E2,0E0,1.0337842E2,0E0,0E0,6.416035E2,0E0,2.8026205E4,4.8460547E3,0E0,0E0,0E0,0E0,0E0,0E0,0E0,0E0,0E0,0E0,0E0,0E0,0E0,0E0],"parents":[2147483647,0,0,1,1,2,2,3,3,4,4,5,5,6,6,7,7,8,8,9,9,10,10,11,11,13,13,14,14,15,15,16,16,17,17,19,19,20,20,21,21,22,22,23,23,24,24,26,26,29,29,30,30,35,35,36,36,37,37,38,38,40,40,43,43,44,44,45,45,47,47,51,51,55,55,56,56,64,64,66,66,69,69,71,71,72,72],"right_children":[2,4,6,8,10,12,14,16,18,20,22,24,-1,26,28,30,32,34,-1,36,38,40,42,44,46,-1,48,-1,-1,50,52,-1,-1,-1,-1,54,56,58,60,-1,62,-1,-1,64,66,68,-1,70,-1,-1,-1,72,-1,-1,-1,74,76,-1,-1,-1,-1,-1,-1,-1,78,-1,80,-1,-1,82,-1,84,86,-1,-1,-1,-1,-1,-1,-1,-1,-1,-1,-1,-1,-1,-1],"split_conditions":[6E1,4.1E-1,1.185732E6,1E0,1E0,1E0,5.1E-1,1E0,5.2E1,1E0,5.1E-1,6.6E1,7.333478E0,1E1,8E0,3.1E-1,1.1E1,4.4E1,-5.891525E-1,9E0,2E0,3.1E1,6.4E-1,9E0,3.1E-1,2.1400827E1,1E0,-9.465637E-2,-2.3084404E0,9E0,5.6E1,1.5245903E1,5.8227153E0,-7.3073783E0,-1.4932556E0,5E0,1E0,5.1E-1,4.2E1,1.049013E1,4.6E-1,-4.5758824E0,-1.3051361E0,1E1,2.6E-1,6E0,3.8516387E-1,3.6E-1,1.8015608E1,1.4568639E1,3.5205505E0,3.2E1,-1.1139902E1,-4.369564E0,-1.7143875E0,4.2E-1,1E1,8.143768E0,-2.1854126E0,-2.211792E0,-5.1627855E0,2.4510484E0,-5.247724E0,-7.863154E0,2.4E-1,1.3541794E0,1E1,1.6514024E0,8.040186E0,1.1E1,-5.0658154E0,6E0,3E0,-1.1683457E0,-8.070838E0,-4.8715897E0,-8.7275237E-1,-2.8695695E0,1.6668702E-2,-3.3900148E-1,-2.88744E0,1.0661285E1,2.2529023E0,-3.1175854E0,3.1026428E0,2.3645017E0,6.76734E0],"split_indices":[2,1,12,19,5,3,1,4,2,4,1,2,0,22,22,1,22,0,0,21,22,0,1,22,1,0,5,0,0,20,2,0,0,0,0,21,3,1,2,0,1,0,0,0,1,22,0,1,0,0,0,20,0,0,0,1,22,0,0,0,0,0,0,0,1,0,0,0,0,0,0,22,22,0,0,0,0,0,0,0,0,0,0,0,0,0,0],"split_type":[0,0,0,0,0,0,0,0,0,0,0,0,0,0,0,0,0,0,0,0,0,0,0,0,0,0,0,0,0,0,0,0,0,0,0,0,0,0,0,0,0,0,0,0,0,0,0,0,0,0,0,0,0,0,0,0,0,0,0,0,0,0,0,0,0,0,0,0,0,0,0,0,0,0,0,0,0,0,0,0,0,0,0,0,0,0,0],"sum_hessian":[1.95E2,1.61E2,3.4E1,7.5E1,8.6E1,1.5E1,1.9E1,5.7E1,1.8E1,7.3E1,1.3E1,1.2E1,3E0,1.4E1,5E0,4.8E1,9E0,1.7E1,1E0,5.8E1,1.5E1,7E0,6E0,8E0,4E0,7E0,7E0,2E0,3E0,5E0,4.3E1,7E0,2E0,1.6E1,1E0,2.5E1,3.3E1,2E0,1.3E1,5E0,2E0,4E0,2E0,4E0,4E0,3E0,1E0,4E0,3E0,3E0,2E0,4.2E1,1E0,2.2E1,3E0,2.1E1,1.2E1,1E0,1E0,7E0,6E0,1E0,1E0,2E0,2E0,1E0,3E0,1E0,2E0,2E0,2E0,2.7E1,1.5E1,1E0,2E1,1.1E1,1E0,1E0,1E0,1E0,2E0,1E0,1E0,1.3E1,1.4E1,6E0,9E0],"tree_param":{"num_deleted":"0","num_feature":"24","num_nodes":"87","size_leaf_vector":"1"}},{"base_weights":[3.1406662E0,-1.1132878E1,6.2734863E1,1.7601725E1,-3.789635E1,-1.786033E1,1.113984E2,4.359595E1,-6.108105E1,-4.3927204E1,1.8231802E1,-4.459791E1,3.81869E1,1.4017754E2,-1.3486188E1,3.111746E1,1.22220474E2,-6.6306404E1,-1.1185502E0,-4.9312187E1,-2.4260666E1,7.116596E0,-2.6761887E0,-8.0647766E1,6.5814943E0,5.121748E0,1.0760692E0,1.0619514E2,2.313172E1,-8.834534E-2,-1.9926859E0,1.0367272E2,1.8164976E1,1.3504909E2,2.0124404E0,-6.850204E0,-1.4185928E0,-6.452343E1,-3.8766975E1,-3.504267E1,3.606958E1,-1.6401703E1,-1.0742038E1,3.9585266E0,-2.6949441E0,4.8207054E1,1.6486624E1,1.3467214E1,1.5782806E1,2.389237E1,-1.0582908E1,3.2079072E0,1.4822726E1,-8.962067E-1,-6.671287E0,-2.3363636E1,-4.317764E0,-1.29188E0,-3.9080408E0,7.7365785E0,-2.0761414E0,-2.7260911E0,1.5835572E-2,1.2191091E2,-7.3150496E0,3.35997E0,-7.425491E-1,3.3553688E1,-5.137987E1,-2.8372607E0,-7.507027E-1,1.3673207E1,2.1402557E0,1.3812327E0,5.8288455E0,-6.4899516E0,-1.9066935E0],"categories":[],"categories_nodes":[],"categories_segments":[],"categories_sizes":[],"default_left":[0,0,0,0,0,0,0,0,0,0,0,0,0,0,0,0,0,0,0,0,0,0,0,0,0,0,0,0,0,0,0,0,0,0,0,0,0,0,0,0,0,0,0,0,0,0,0,0,0,0,0,0,0,0,0,0,0,0,0,0,0,0,0,0,0,0,0,0,0,0,0,0,0,0,0,0,0],"id":13,"left_children":[1,3,5,7,9,11,13,15,17,19,21,23,25,27,29,31,33,35,-1,37,39,-1,-1,41,43,-1,-1,45,-1,-1,-1,47,49,51,-1,-1,-1,53,55,57,59,61,-1,-1,-1,63,-1,-1,65,67,-1,-1,-1,-1,-1,69,-1,-1,-1,-1,-1,-1,-1,71,-1,-1,-1,73,75,-1,-1,-1,-1,-1,-1,-1,-1],"loss_changes":[1.5406811E5,1.1304804E5,1.3972895E5,1.4779161E5,2.6655398E4,2.2715057E4,8.159347E4,4.841036E4,3.5638672E3,5.7431562E3,2.118018E4,1.9351215E4,9.258696E2,2.9496281E4,2.841942E2,4.2616605E4,5.6746016E3,4.4578906E2,0E0,5.483664E3,1.2317017E4,0E0,0E0,7.9392227E3,6.663217E3,0E0,0E0,4.202028E4,0E0,0E0,0E0,1.6193961E4,3.1945654E4,2.485211E3,0E0,0E0,0E0,1.4567031E3,9.684258E2,5.7508594E2,8.929957E3,6.79317E2,0E0,0E0,0E0,8.966231E4,0E0,0E0,1.6208647E3,3.1451252E4,0E0,0E0,0E0,0E0,0E0,4.0186084E2,0E0,0E0,0E0,0E0,0E0,0E0,0E0,5.2208203E3,0E0,0E0,0E0,1.6901422E4,5.270283E2,0E0,0E0,0E0,0E0,0E0,0E0,0E0,0E0],"parents":[2147483647,0,0,1,1,2,2,3,3,4,4,5,5,6,6,7,7,8,8,9,9,10,10,11,11,12,12,13,13,14,14,15,15,16,16,17,17,19,19,20,20,23,23,24,24,27,27,31,31,32,32,33,33,37,37,38,38,39,39,40,40,41,41,45,45,48,48,49,49,55,55,63,63,67,67,68,68],"right_children":[2,4,6,8,10,12,14,16,18,20,22,24,26,28,30,32,34,36,-1,38,40,-1,-1,42,44,-1,-1,46,-1,-1,-1,48,50,52,-1,-1,-1,54,56,58,60,62,-1,-1,-1,64,-1,-1,66,68,-1,-1,-1,-1,-1,70,-1,-1,-1,-1,-1,-1,-1,72,-1,-1,-1,74,76,-1,-1,-1,-1,-1,-1,-1,-1],"split_conditions":[6E1,4.1E-1,1.185732E6,1E0,1E0,7E1,5.1E-1,1E0,5.2E1,1E0,5.1E-1,9E0,7E0,1E0,8E0,1E0,1E1,4.4E1,-1.1185502E0,5E0,3.9E1,7.116596E0,-2.6761887E0,1E0,1E1,5.121748E0,1.0760692E0,1E0,2.313172E1,-8.834534E-2,-1.9926859E0,3.9E1,5.6E1,4.1E1,2.0124404E0,-6.850204E0,-1.4185928E0,2E1,4.6E-1,4E0,5.1E-1,2.4E-1,-1.0742038E1,3.9585266E0,-2.6949441E0,3.6E-1,1.6486624E1,1.3467214E1,3.1E-1,3.1E1,-1.0582908E1,3.2079072E0,1.4822726E1,-8.962067E-1,-6.671287E0,1E0,-4.317764E0,-1.29188E0,-3.9080408E0,7.7365785E0,-2.0761414E0,-2.7260911E0,1.5835572E-2,6.1E1,-7.3150496E0,3.35997E0,-7.425491E-1,1E1,1.9E1,-2.8372607E0,-7.507027E-1,1.3673207E1,2.1402557E0,1.3812327E0,5.8288455E0,-6.4899516E0,-1.9066935E0],"split_indices":[2,1,12,19,5,2,1,4,2,4,1,22,22,4,22,18,22,0,0,22,0,0,0,18,0,0,0,5,0,0,0,0,2,2,0,0,0,2,1,21,1,1,0,0,0,1,0,0,1,0,0,0,0,0,0,3,0,0,0,0,0,0,0,2,0,0,0,0,21,0,0,0,0,0,0,0,0],"split_type":[0,0,0,0,0,0,0,0,0,0,0,0,0,0,0,0,0,0,0,0,0,0,0,0,0,0,0,0,0,0,0,0,0,0,0,0,0,0,0,0,0,0,0,0,0,0,0,0,0,0,0,0,0,0,0,0,0,0,0,0,0,0,0,0,0,0,0,0,0,0,0,0,0,0,0,0,0],"sum_hessian":[1.79E2,1.45E2,3.4E1,7E1,7.5E1,1.3E1,2.1E1,5.3E1,1.7E1,6.8E1,7E0,9E0,4E0,1.7E1,4E0,4.7E1,6E0,1.5E1,2E0,5.2E1,1.6E1,3E0,4E0,5E0,4E0,2E0,2E0,1.4E1,3E0,2E0,2E0,6E0,4.1E1,5E0,1E0,1.4E1,1E0,1.9E1,3.3E1,1.4E1,2E0,2E0,3E0,2E0,2E0,8E0,6E0,4E0,2E0,4E1,1E0,1E0,4E0,1E0,1.8E1,9E0,2.4E1,3E0,1.1E1,1E0,1E0,1E0,1E0,5E0,3E0,1E0,1E0,3.6E1,4E0,6E0,3E0,4E0,1E0,2.1E1,1.5E1,2E0,2E0],"tree_param":{"num_deleted":"0","num_feature":"24","num_nodes":"77","size_leaf_vector":"1"}},{"base_weights":[4.125579E0,3.4134575E1,-2.2903572E1,5.78634E1,-4.747881E1,-3.1643475E1,1.5023125E1,4.0002277E1,1.3408977E2,-5.7655354E1,-1.1594887E1,-3.4874E1,7.953767E1,9.962561E1,2.7177565E1,7.933547E1,1.689741E1,-6.123995E1,-2.0042121E0,-2.4101963E0,2.2970245E0,-4.341581E1,3.800171E0,1.3688303E1,-1.5076523E0,4.7227253E1,1.258533E1,7.6162214E0,8.1881676E1,8.5352E0,1.9118179E0,-1.3517708E0,-6.348645E0,-4.9256424E1,-2.3765203E1,5.1994858E1,-3.1141434E1,9.4439393E-1,5.3062096E0,1.5900806E1,-9.267087E0,4.4502605E1,1.0684909E1,-5.6174484E1,-3.010004E1,-3.4344193E1,2.5886795E1,9.560561E0,-1.4267292E1,-3.9073331E0,-1.7185965E1,-6.061506E0,2.4845129E1,7.0775943E0,1.8838085E0,-3.5745637E0,-6.2987835E1,-3.9203699E0,-1.8396748E1,-1.3756403E0,-3.9236095E1,7.34975E0,-1.2815938E1,1.491806E1,-5.3411674E0,-1.736267E-1,-1.8928651E0,4.938829E0,1.0101354E0,-6.4695244E0,-4.2365035E-1,-3.105062E-1,-2.1206536E0,-1.9975804E0,-4.502114E0,-0E0,-1.9723343E0,1.9726654E0,1.50436405E-2],"categories":[],"categories_nodes":[],"categories_segments":[],"categories_sizes":[],"default_left":[0,0,0,0,0,0,0,0,0,0,0,0,0,0,0,0,0,0,0,0,0,0,0,0,0,0,0,0,0,0,0,0,0,0,0,0,0,0,0,0,0,0,0,0,0,0,0,0,0,0,0,0,0,0,0,0,0,0,0,0,0,0,0,0,0,0,0,0,0,0,0,0,0,0,0,0,0,0,0],"id":14,"left_children":[1,3,5,7,9,11,-1,13,15,17,19,21,23,25,27,29,-1,31,-1,-1,-1,33,35,-1,-1,37,-1,39,41,-1,-1,-1,-1,43,45,47,49,-1,-1,51,-1,53,-1,55,57,59,61,-1,63,-1,65,-1,67,-1,-1,-1,69,-1,71,-1,73,-1,75,77,-1,-1,-1,-1,-1,-1,-1,-1,-1,-1,-1,-1,-1,-1,-1],"loss_changes":[1.5576145E5,1.7902884E5,1.5699222E5,9.043131E4,6.6539023E3,3.7390305E4,0E0,4.1772883E4,1.0183672E4,5.2346094E2,3.153139E3,3.1746062E4,1.8949805E4,6.9337734E3,5.243318E4,3.8196484E2,0E0,2.5770312E2,0E0,0E0,0E0,7.4165E3,3.2035455E4,0E0,0E0,2.8865332E2,0E0,3.266149E4,6.6205312E3,0E0,0E0,0E0,0E0,5.6967344E3,1.1436704E4,2.4888658E4,2.6481836E2,0E0,0E0,2.596491E4,0E0,2.9386943E3,0E0,3.1007188E3,9.0854785E2,9.074219E2,8.616005E3,0E0,5.5590366E3,0E0,2.5354126E1,0E0,1.1145004E4,0E0,0E0,0E0,2.3906328E3,0E0,2.422583E2,0E0,2.2416211E2,0E0,2.8527567E2,1.1068146E2,0E0,0E0,0E0,0E0,0E0,0E0,0E0,0E0,0E0,0E0,0E0,0E0,0E0,0E0,0E0],"parents":[2147483647,0,0,1,1,2,2,3,3,4,4,5,5,7,7,8,8,9,9,10,10,11,11,12,12,13,13,14,14,15,15,17,17,21,21,22,22,25,25,27,27,28,28,33,33,34,34,35,35,36,36,39,39,41,41,43,43,44,44,45,45,46,46,48,48,50,50,52,52,56,56,58,58,60,60,62,62,63,63],"right_children":[2,4,6,8,10,12,-1,14,16,18,20,22,24,26,28,30,-1,32,-1,-1,-1,34,36,-1,-1,38,-1,40,42,-1,-1,-1,-1,44,46,48,50,-1,-1,52,-1,54,-1,56,58,60,62,-1,64,-1,66,-1,68,-1,-1,-1,70,-1,72,-1,74,-1,76,78,-1,-1,-1,-1,-1,-1,-1,-1,-1,-1,-1,-1,-1,-1,-1],"split_conditions":[4.1E-1,1E0,7E1,1E0,5.2E1,2.7E1,1.5023125E1,3.1E-1,1E1,4.4E1,1E0,1E0,4.6E-1,8E0,1E0,1E1,1.689741E1,2.9E1,-2.0042121E0,-2.4101963E0,2.2970245E0,1E0,5.1E-1,1.3688303E1,-1.5076523E0,1.3E1,1.258533E1,1E0,7E0,8.5352E0,1.9118179E0,-1.3517708E0,-6.348645E0,1E0,3.1E1,3.9E1,5.2E1,9.4439393E-1,5.3062096E0,9E0,-9.267087E0,3.6E-1,1.0684909E1,4E0,8E0,4E0,5.1E-1,9.560561E0,4.6E-1,-3.9073331E0,3E0,-6.061506E0,5E0,7.0775943E0,1.8838085E0,-3.5745637E0,5.3E-1,-3.9203699E0,4.5E-1,-1.3756403E0,4.7E-1,7.34975E0,3.9E1,5.1E1,-5.3411674E0,-1.736267E-1,-1.8928651E0,4.938829E0,1.0101354E0,-6.4695244E0,-4.2365035E-1,-3.105062E-1,-2.1206536E0,-1.9975804E0,-4.502114E0,-0E0,-1.9723343E0,1.9726654E0,1.50436405E-2],"split_indices":[1,19,2,4,2,21,0,1,0,0,3,5,1,22,3,22,0,2,0,0,0,4,1,0,0,21,0,5,22,0,0,0,0,3,0,0,2,0,0,20,0,1,0,21,22,21,1,0,1,0,21,0,21,0,0,0,1,0,1,0,1,0,0,2,0,0,0,0,0,0,0,0,0,0,0,0,0,0,0],"split_type":[0,0,0,0,0,0,0,0,0,0,0,0,0,0,0,0,0,0,0,0,0,0,0,0,0,0,0,0,0,0,0,0,0,0,0,0,0,0,0,0,0,0,0,0,0,0,0,0,0,0,0,0,0,0,0,0,0,0,0,0,0,0,0,0,0,0,0,0,0,0,0,0,0,0,0,0,0,0,0],"sum_hessian":[1.9E2,9E1,1E2,7E1,2E1,9.6E1,4E0,5.8E1,1.2E1,1.5E1,5E0,9.4E1,2E0,9E0,4.9E1,6E0,6E0,1.3E1,2E0,4E0,1E0,7.7E1,1.7E1,1E0,1E0,4E0,5E0,3.7E1,1.2E1,5E0,1E0,1E0,1.2E1,5.8E1,1.9E1,7E0,1E1,1E0,3E0,3.5E1,2E0,6E0,6E0,4.1E1,1.7E1,1.6E1,3E0,4E0,3E0,5E0,5E0,3E0,3.2E1,2E0,4E0,1.2E1,2.9E1,8E0,9E0,4E0,1.2E1,1E0,2E0,2E0,1E0,1E0,4E0,1.1E1,2.1E1,2.8E1,1E0,2E0,7E0,4E0,8E0,1E0,1E0,1E0,1E0],"tree_param":{"num_deleted":"0","num_feature":"24","num_nodes":"79","size_leaf_vector":"1"}},{"base_weights":[3.5218594E0,-2.219314E1,3.0967615E1,-5.1232424E0,-4.688188E1,5.4866016E1,-2.977714E1,-2.6281097E1,2.7998758E1,-2.9148739E1,-5.6542233E1,3.607686E1,1.6721223E2,-1.1959349E1,-3.427451E1,-3.5700123E1,5.674613E1,7.5418205E0,7.296578E1,1.8740326E0,-3.392403E1,-5.8789096E0,-1.9551172E0,1.5562399E1,1.199953E1,-2.3312943E0,1.94567E1,-1.3656405E0,-0E0,-3.628247E1,-9.135234E-1,-4.862027E1,1.0127872E1,1.047435E0,6.7011943E0,-1.4171699E1,5.0545223E1,7.823932E0,1.8162278E0,-4.9608665E1,-1.7399979E0,5.0289005E1,-3.7997284E1,-4.0246812E-1,-3.7649124E1,2.2766724E0,-6.10851E1,-2.6342583E0,3.8278664E1,-3.5343937E1,2.0741272E-1,1.4730209E0,7.97835E0,-5.875775E0,1.4291382E-2,6.954667E1,-0E0,-2.910626E1,-6.281206E0,-4.296046E0,-1.9918274E1,-2.27398E0,2.1719856E0,-6.436071E1,-1.8311173E0,4.5879364E-1,4.430436E0,-4.6737896E1,2.6159516E-1,-1.9557718E0,1.0888743E1,2.1498816E1,8.290544E1,8.815295E0,-2.2300594E1,-3.434661E1,-9.70817E-1,-1.5466462E-1,-2.228327E0,-1.284182E0,-6.623166E0,-5.6353273E0,-6.445885E-1,1.6524775E0,-6.145706E-1,2.982229E0,-7.5592804E-1,6.05856E0,1.0917426E1,-5.9361334E0,5.758775E0,-2.9620972E-1,-3.6475923E0],"categories":[],"categories_nodes":[],"categories_segments":[],"categories_sizes":[],"default_left":[0,0,0,0,0,0,0,0,0,0,0,0,0,0,0,0,0,0,0,0,0,0,0,0,0,0,0,0,0,0,0,0,0,0,0,0,0,0,0,0,0,0,0,0,0,0,0,0,0,0,0,0,0,0,0,0,0,0,0,0,0,0,0,0,0,0,0,0,0,0,0,0,0,0,0,0,0,0,0,0,0,0,0,0,0,0,0,0,0,0,0,0,0],"id":15,"left_children":[1,3,5,7,9,11,13,15,17,19,21,23,25,27,29,31,33,35,37,-1,39,-1,-1,41,-1,-1,-1,-1,-1,43,-1,45,47,-1,-1,49,51,-1,-1,53,-1,55,57,-1,59,61,63,-1,65,67,69,-1,-1,-1,-1,71,73,75,-1,-1,77,-1,-1,79,-1,-1,-1,81,-1,-1,83,85,87,-1,89,91,-1,-1,-1,-1,-1,-1,-1,-1,-1,-1,-1,-1,-1,-1,-1,-1,-1],"loss_changes":[1.3129816E5,3.995747E4,1.3241242E5,4.1373094E4,4.6044453E3,1.3015894E5,1.4423926E3,3.0073896E4,2.020458E4,4.370615E3,4.536328E2,9.558265E4,5.229817E4,1.17802246E2,4.510371E2,2.0224328E4,8.1073047E2,1.6772018E4,1.2005078E2,0E0,2.689373E3,0E0,0E0,8.938976E4,0E0,0E0,0E0,0E0,0E0,4.3364062E2,0E0,1.6928078E4,9.281415E3,0E0,0E0,3.836269E3,4.6352197E3,0E0,0E0,3.4877402E3,0E0,2.8230984E4,1.9041328E3,0E0,4.3087305E2,3.4072043E3,1.3504531E3,0E0,5.6732324E2,2.505441E3,1.8585573E3,0E0,0E0,0E0,0E0,1.11746875E4,1.9520418E4,1.0727275E3,0E0,0E0,1.070791E2,0E0,0E0,5.854922E2,0E0,0E0,0E0,8.7244824E2,0E0,0E0,7.294919E2,1.787936E3,1.9178672E3,0E0,2.7113121E4,4.9669434E2,0E0,0E0,0E0,0E0,0E0,0E0,0E0,0E0,0E0,0E0,0E0,0E0,0E0,0E0,0E0,0E0,0E0],"parents":[2147483647,0,0,1,1,2,2,3,3,4,4,5,5,6,6,7,7,8,8,9,9,10,10,11,11,12,12,13,13,14,14,15,15,16,16,17,17,18,18,20,20,23,23,29,29,31,31,32,32,35,35,36,36,39,39,41,41,42,42,44,44,45,45,46,46,48,48,49,49,50,50,55,55,56,56,57,57,60,60,63,63,67,67,70,70,71,71,72,72,74,74,75,75],"right_children":[2,4,6,8,10,12,14,16,18,20,22,24,26,28,30,32,34,36,38,-1,40,-1,-1,42,-1,-1,-1,-1,-1,44,-1,46,48,-1,-1,50,52,-1,-1,54,-1,56,58,-1,60,62,64,-1,66,68,70,-1,-1,-1,-1,72,74,76,-1,-1,78,-1,-1,80,-1,-1,-1,82,-1,-1,84,86,88,-1,90,92,-1,-1,-1,-1,-1,-1,-1,-1,-1,-1,-1,-1,-1,-1,-1,-1,-1],"split_conditions":[1.185732E6,4.2E-1,5.1E-1,4E-1,1E0,1E0,3E0,7E1,1E0,3E0,5.5E-1,1E0,3.4E1,1E0,6.4E-1,1E0,6E0,1E0,1E1,1.8740326E0,6E0,-5.8789096E0,-1.9551172E0,4.1E-1,1.199953E1,-2.3312943E0,1.94567E1,-1.3656405E0,-0E0,1.1E1,-9.135234E-1,2.6E-1,1E0,1.047435E0,6.7011943E0,1E0,7E0,7.823932E0,1.8162278E0,4.9E1,-1.7399979E0,1E0,6E1,-4.0246812E-1,1E0,2.4E-1,4.4E1,-2.6342583E0,4.6E1,1E1,5E0,1.4730209E0,7.97835E0,-5.875775E0,1.4291382E-2,3.1E1,2.6E-1,1E1,-6.281206E0,-4.296046E0,4E0,-2.27398E0,2.1719856E0,2.9E1,-1.8311173E0,4.5879364E-1,4.430436E0,4.1E-1,2.6159516E-1,-1.9557718E0,1E1,3.1E1,5E0,8.815295E0,4E-1,4.4E-1,-9.70817E-1,-1.5466462E-1,-2.228327E0,-1.284182E0,-6.623166E0,-5.6353273E0,-6.445885E-1,1.6524775E0,-6.145706E-1,2.982229E0,-7.5592804E-1,6.05856E0,1.0917426E1,-5.9361334E0,5.758775E0,-2.9620972E-1,-3.6475923E0],"split_indices":[12,1,1,1,18,4,21,2,4,22,1,5,2,6,1,7,22,3,22,0,22,0,0,1,0,0,0,0,0,0,0,1,18,0,0,6,22,0,0,2,0,7,2,0,4,1,0,0,2,0,22,0,0,0,0,2,1,22,0,0,21,0,0,2,0,0,0,1,0,0,22,0,21,0,1,1,0,0,0,0,0,0,0,0,0,0,0,0,0,0,0,0,0],"split_type":[0,0,0,0,0,0,0,0,0,0,0,0,0,0,0,0,0,0,0,0,0,0,0,0,0,0,0,0,0,0,0,0,0,0,0,0,0,0,0,0,0,0,0,0,0,0,0,0,0,0,0,0,0,0,0,0,0,0,0,0,0,0,0,0,0,0,0,0,0,0,0,0,0,0,0,0,0,0,0,0,0,0,0,0,0,0,0,0,0,0,0,0,0],"sum_hessian":[1.84E2,9.5E1,8.9E1,5.7E1,3.8E1,6.4E1,2.5E1,3.5E1,2.2E1,1.5E1,2.3E1,5.6E1,8E0,6E0,1.9E1,3.2E1,3E0,1.6E1,6E0,1E0,1.4E1,2.1E1,2E0,4.6E1,1E1,1E0,7E0,5E0,1E0,1.7E1,2E0,2.5E1,7E0,1E0,2E0,1.1E1,5E0,5E0,1E0,6E0,8E0,2.8E1,1.8E1,1E0,1.6E1,5E0,2E1,3E0,4E0,4E0,7E0,3E0,2E0,5E0,1E0,2E1,8E0,1.5E1,3E0,1.1E1,5E0,2E0,3E0,1.8E1,2E0,1E0,3E0,3E0,1E0,2E0,5E0,5E0,1.5E1,1E0,7E0,1.1E1,4E0,1E0,4E0,1E0,1.7E1,2E0,1E0,4E0,1E0,4E0,1E0,1E1,5E0,5E0,2E0,1E0,1E1],"tree_param":{"num_deleted":"0","num_feature":"24","num_nodes":"93","size_leaf_vector":"1"}},{"base_weights":[8.5010797E-1,-1.4753224E1,3.446644E1,7.4996433E0,-3.0941952E1,6.131169E0,6.0614555E1,2.5380846E1,-3.735959E1,-3.634788E1,3.3605375E0,-3.087988E1,2.1220636E1,8.377423E1,-1.5816296E1,2.9910316E1,-3.878606E1,-3.944743E0,-5.2098848E-2,-4.4849274E1,-2.6023031E1,3.544231E1,-2.844799E1,-3.0730412E0,-6.362017E0,3.25863E1,-3.6821423E0,1.15582634E2,5.2440903E1,-0E0,-2.0470712E0,6.978388E1,2.3019783E1,-7.6193236E-2,-5.491716E0,-6.32988E0,-3.845656E1,2.9557886E1,-3.0880356E1,6.816341E0,-1.8333258E1,-3.215231E0,-2.4631958E-1,2.0735734E0,-1.2981943E1,4.5491837E1,8.529705E0,1.2367415E1,1.483374E0,-8.776682E0,1.1562659E2,1.093921E0,8.051024E0,3.582879E0,4.1951813E1,-3.090598E1,-5.2844765E1,-1.3257439E0,6.009427E0,-3.39794E1,-1.1987615E1,1.7803315E0,-4.78032E0,-2.9554815E0,6.251577E0,6.1885943E0,-1.517868E0,-5.516988E1,3.9791214E1,-4.5119213E1,1.2031052E1,1.7003723E0,1.2839644E1,-2.4641254E1,2.423835E1,9.494641E0,5.082366E1,-1.7962133E1,-3.573775E1,-5.6981483E0,-9.443863E-1,-2.8139955E-1,-3.4952374E1,-0E0,-1.4029737E0,-8.7300414E-1,2.0607407E0,-8.888804E0,7.79747E-1,-2.3932648E-1,-7.7861557E0,4.5755394E1,2.4851532E-1,-5.039656E1,-4.227562E-1,2.5379106E-1,-4.2456336E0,5.209512E0,-6.824814E-1,2.9894395E0,-1.8288957E-1,5.4610386E0,1.8331116E0,-1.9916824E0,-0E0,-6.1235887E-1,-3.7160103E0,-3.599741E0,-2.9582825E-1,3.506775E-1,-1.9339981E0,5.6211394E-1,5.3133674E0,-5.184677E-1,-5.7402E0],"categories":[],"categories_nodes":[],"categories_segments":[],"categories_sizes":[],"default_left":[0,0,0,0,0,0,0,0,0,0,0,0,0,0,0,0,0,0,0,0,0,0,0,0,0,0,0,0,0,0,0,0,0,0,0,0,0,0,0,0,0,0,0,0,0,0,0,0,0,0,0,0,0,0,0,0,0,0,0,0,0,0,0,0,0,0,0,0,0,0,0,0,0,0,0,0,0,0,0,0,0,0,0,0,0,0,0,0,0,0,0,0,0,0,0,0,0,0,0,0,0,0,0,0,0,0,0,0,0,0,0,0,0,0,0],"id":16,"left_children":[1,3,5,7,9,11,13,15,17,19,21,23,25,27,29,31,33,-1,-1,35,37,39,41,43,-1,45,-1,47,49,-1,-1,51,53,-1,-1,-1,55,57,59,-1,61,-1,-1,-1,63,65,67,-1,-1,69,71,-1,-1,73,75,77,79,-1,-1,81,83,-1,-1,-1,85,-1,87,89,91,93,-1,-1,-1,95,97,99,101,103,105,-1,-1,-1,107,-1,-1,-1,-1,109,-1,-1,-1,111,-1,113,-1,-1,-1,-1,-1,-1,-1,-1,-1,-1,-1,-1,-1,-1,-1,-1,-1,-1,-1,-1,-1],"loss_changes":[9.921809E4,4.6820945E4,4.374946E4,4.5005863E4,1.4194852E4,1.7361307E4,5.6538305E4,1.2741404E4,1.0102168E3,4.1839375E3,1.2268446E4,7.664662E3,1.56918E4,1.7018547E4,5.1305884E2,8.370078E3,1.5198745E3,0E0,0E0,1.0670156E3,9.558557E3,1.2056381E4,3.2526074E2,1.645934E3,0E0,5.240662E3,0E0,6.4402344E3,5.5702117E4,0E0,0E0,1.8179824E3,1.213334E4,0E0,0E0,0E0,9.899258E2,4.9531553E3,1.1193145E3,0E0,4.195883E3,0E0,0E0,0E0,1.8950536E3,9.643961E3,1.8049145E4,0E0,0E0,4.2583203E4,5.905578E3,0E0,0E0,1.1088938E4,4.1110938E3,4.0294727E2,5.660469E2,0E0,0E0,4.7089258E2,1.2195001E2,0E0,0E0,0E0,8.8451105E2,0E0,3.494179E2,3.0051514E3,9.8008887E2,1.0244209E3,0E0,0E0,0E0,4.1809346E3,1.0100405E4,1.3499879E3,2.337461E2,1.9565332E2,1.4573438E2,0E0,0E0,0E0,5.0116992E2,0E0,0E0,0E0,0E0,5.3563214E2,0E0,0E0,0E0,8.881631E2,0E0,1.289831E3,0E0,0E0,0E0,0E0,0E0,0E0,0E0,0E0,0E0,0E0,0E0,0E0,0E0,0E0,0E0,0E0,0E0,0E0,0E0,0E0,0E0],"parents":[2147483647,0,0,1,1,2,2,3,3,4,4,5,5,6,6,7,7,8,8,9,9,10,10,11,11,12,12,13,13,14,14,15,15,16,16,19,19,20,20,21,21,22,22,23,23,25,25,27,27,28,28,31,31,32,32,36,36,37,37,38,38,40,40,44,44,45,45,46,46,49,49,50,50,53,53,54,54,55,55,56,56,59,59,60,60,64,64,66,66,67,67,68,68,69,69,73,73,74,74,75,75,76,76,77,77,78,78,82,82,87,87,91,91,93,93],"right_children":[2,4,6,8,10,12,14,16,18,20,22,24,26,28,30,32,34,-1,-1,36,38,40,42,44,-1,46,-1,48,50,-1,-1,52,54,-1,-1,-1,56,58,60,-1,62,-1,-1,-1,64,66,68,-1,-1,70,72,-1,-1,74,76,78,80,-1,-1,82,84,-1,-1,-1,86,-1,88,90,92,94,-1,-1,-1,96,98,100,102,104,106,-1,-1,-1,108,-1,-1,-1,-1,110,-1,-1,-1,112,-1,114,-1,-1,-1,-1,-1,-1,-1,-1,-1,-1,-1,-1,-1,-1,-1,-1,-1,-1,-1,-1,-1],"split_conditions":[5.5E1,4.1E-1,1.185732E6,1E0,1E0,5E0,5.1E-1,5.1E1,5.2E1,1.185732E6,5.1E-1,6.1E1,4.1E-1,4.1E-1,8E0,3.1E-1,3.9E1,-3.944743E0,-5.2098848E-2,4E0,1E0,3.1E1,6.4E-1,2.6E-1,-6.362017E0,6.1E1,-3.6821423E0,7.5E1,1E0,-0E0,-2.0470712E0,1E1,3.2E1,-7.6193236E-2,-5.491716E0,-6.32988E0,1E1,4.6E-1,4.8E1,6.816341E0,4.6E-1,-3.215231E0,-2.4631958E-1,2.0735734E0,4E0,1.4E1,7E1,1.2367415E1,1.483374E0,1E0,5.6E1,1.093921E0,8.051024E0,4E-1,3.1E1,3.9E1,5.3E-1,-1.3257439E0,6.009427E0,4.4E-1,8E0,1.7803315E0,-4.78032E0,-2.9554815E0,1E0,6.1885943E0,3.6E-1,6.6E1,3.1E-1,1E0,1.2031052E1,1.7003723E0,1.2839644E1,3.6E-1,1E0,1.1E1,3.1E1,3.8E1,4.2E-1,-5.6981483E0,-9.443863E-1,-2.8139955E-1,1.1E1,-0E0,-1.4029737E0,-8.7300414E-1,2.0607407E0,2.6E-1,7.79747E-1,-2.3932648E-1,-7.7861557E0,1.3E1,2.4851532E-1,5.6E1,-4.227562E-1,2.5379106E-1,-4.2456336E0,5.209512E0,-6.824814E-1,2.9894395E0,-1.8288957E-1,5.4610386E0,1.8331116E0,-1.9916824E0,-0E0,-6.1235887E-1,-3.7160103E0,-3.599741E0,-2.9582825E-1,3.506775E-1,-1.9339981E0,5.6211394E-1,5.3133674E0,-5.184677E-1,-5.7402E0],"split_indices":[2,1,12,19,5,22,1,2,2,12,1,2,1,1,22,1,0,0,0,22,18,0,1,1,0,2,0,2,5,0,0,0,20,0,0,0,22,1,2,0,1,0,0,0,22,21,2,0,0,4,2,0,0,1,2,2,1,0,0,1,22,0,0,0,7,0,1,2,1,6,0,0,0,1,6,0,0,2,1,0,0,0,22,0,0,0,0,1,0,0,0,21,0,2,0,0,0,0,0,0,0,0,0,0,0,0,0,0,0,0,0,0,0,0,0],"split_type":[0,0,0,0,0,0,0,0,0,0,0,0,0,0,0,0,0,0,0,0,0,0,0,0,0,0,0,0,0,0,0,0,0,0,0,0,0,0,0,0,0,0,0,0,0,0,0,0,0,0,0,0,0,0,0,0,0,0,0,0,0,0,0,0,0,0,0,0,0,0,0,0,0,0,0,0,0,0,0,0,0,0,0,0,0,0,0,0,0,0,0,0,0,0,0,0,0,0,0,0,0,0,0,0,0,0,0,0,0,0,0,0,0,0,0],"sum_hessian":[1.87E2,1.28E2,5.9E1,5.4E1,7.4E1,2.9E1,3E1,3.9E1,1.5E1,6.4E1,1E1,8E0,2.1E1,2.3E1,7E0,3.7E1,2E0,1.4E1,1E0,3.3E1,3.1E1,5E0,5E0,5E0,3E0,1.8E1,3E0,1E1,1.3E1,2E0,5E0,4E0,3.3E1,1E0,1E0,6E0,2.7E1,2E0,2.9E1,3E0,2E0,4E0,1E0,1E0,4E0,1.1E1,7E0,9E0,1E0,7E0,6E0,1E0,3E0,1.7E1,1.6E1,2E1,7E0,1E0,1E0,2.4E1,5E0,1E0,1E0,2E0,2E0,8E0,3E0,2E0,5E0,6E0,1E0,1E0,5E0,7E0,1E1,4E0,1.2E1,7E0,1.3E1,6E0,1E0,1E0,2.3E1,1E0,4E0,1E0,1E0,2E0,1E0,1E0,1E0,4E0,1E0,5E0,1E0,3E0,4E0,5E0,5E0,1E0,3E0,1E1,2E0,6E0,1E0,1E0,1.2E1,2.2E1,1E0,1E0,1E0,1E0,3E0,1E0,4E0],"tree_param":{"num_deleted":"0","num_feature":"24","num_nodes":"115","size_leaf_vector":"1"}},{"base_weights":[4.359392E0,-5.592486E0,4.722555E1,1.8082497E1,-2.536109E1,-3.520775E-2,8.122301E1,3.3581547E1,-3.2831043E1,-3.2354565E1,1.9462107E1,-4.5433525E1,1.8467024E1,1.04687294E2,-1.38001585E1,3.8157436E1,-1.0425832E1,-2.0360485E1,-4.3690365E1,-2.3441872E1,-3.8118557E1,4.345106E1,-2.1812643E1,-5.884866E0,1.6135101E-1,3.9142137E0,5.9154053E0,7.51104E1,1.807846E1,-1.5516876E0,-9.666443E-2,1.1638602E1,6.0444756E1,-2.1957219E0,-4.9494173E-2,-4.6478534E0,-9.5865935E-1,-2.5358183E1,-1.0078158E0,-4.808852E1,-2.9557869E1,6.7434715E1,-1.7333261E1,-2.4845788E0,-2.3400345E-1,3.732295E1,-3.595911E1,-1.3412953E1,9.13987E1,-1.3276631E1,4.2229427E1,-1.8978195E0,6.413766E1,-2.729329E1,-1.0385058E1,-4.9759727E0,-7.33902E-1,-1.941119E1,-3.7826765E0,7.3460245E0,1.6153535E0,1.6913147E0,-4.541304E0,3.3314362E-1,4.2454964E1,-6.714649E0,-7.3968477E0,-5.997658E0,3.7357147E0,9.669094E0,1.4092041E0,-2.0632998E1,2.1359832E0,5.092842E1,-0E0,5.2574654E1,1.0581254E1,-2.7948677E1,-3.937378E-1,-0E0,-1.18966E0,-2.31124E1,-7.126535E0,5.340088E-1,4.914866E1,-1.2193466E0,2.360901E-1,-4.0648603E0,1.6158926E-1,6.122733E0,1.8923225E0,4.2316437E-1,-5.497177E-1,9.409194E0,3.9316602E0,-2.865898E0,-4.016182E-1,-2.4530823E0,-2.6732942E-1,-4.9938966E-2,-9.711502E-1,7.2939605E-1,5.900224E0],"categories":[],"categories_nodes":[],"categories_segments":[],"categories_sizes":[],"default_left":[0,0,0,0,0,0,0,0,0,0,0,0,0,0,0,0,0,0,0,0,0,0,0,0,0,0,0,0,0,0,0,0,0,0,0,0,0,0,0,0,0,0,0,0,0,0,0,0,0,0,0,0,0,0,0,0,0,0,0,0,0,0,0,0,0,0,0,0,0,0,0,0,0,0,0,0,0,0,0,0,0,0,0,0,0,0,0,0,0,0,0,0,0,0,0,0,0,0,0,0,0,0,0],"id":17,"left_children":[1,3,5,7,9,11,13,15,17,19,21,23,25,27,29,31,-1,33,35,37,39,41,43,-1,-1,45,-1,47,-1,-1,-1,49,51,-1,-1,-1,-1,53,-1,55,57,59,61,-1,-1,63,65,67,69,71,73,-1,75,77,79,-1,-1,81,-1,-1,-1,-1,-1,-1,83,85,-1,-1,-1,-1,-1,87,-1,89,91,93,-1,95,-1,-1,-1,97,99,-1,101,-1,-1,-1,-1,-1,-1,-1,-1,-1,-1,-1,-1,-1,-1,-1,-1,-1,-1],"loss_changes":[8.152604E4,7.303829E4,5.825164E4,5.7133188E4,2.7339094E4,1.4413378E4,4.8721797E4,3.8338445E4,1.0923594E3,2.600211E3,1.2937631E4,3.5368408E3,6.5584453E3,2.3404E4,1.2740723E1,3.0851914E4,0E0,1.9407129E2,3.4799805E1,3.8674414E2,1.8604141E3,1.3082011E4,1.01246826E2,0E0,0E0,1.4670092E4,0E0,2.1802383E4,0E0,0E0,0E0,2.0522047E4,9.948734E3,0E0,0E0,0E0,0E0,3.1048047E2,0E0,5.751289E2,1.1609961E3,2.1926562E2,3.7954714E3,0E0,0E0,6.7630176E2,4.6577285E3,9.4457705E3,2.9930156E3,4.259061E3,4.5371445E3,0E0,7.137836E3,8.25918E1,2.686908E1,0E0,0E0,3.2064697E2,0E0,0E0,0E0,0E0,0E0,0E0,7.0727637E2,2.768435E2,0E0,0E0,0E0,0E0,0E0,6.0500728E3,0E0,1.7368145E3,9.6251526E1,8.844102E3,0E0,9.550781E1,0E0,0E0,0E0,8.831445E1,2.9750488E1,0E0,8.87833E2,0E0,0E0,0E0,0E0,0E0,0E0,0E0,0E0,0E0,0E0,0E0,0E0,0E0,0E0,0E0,0E0,0E0,0E0],"parents":[2147483647,0,0,1,1,2,2,3,3,4,4,5,5,6,6,7,7,8,8,9,9,10,10,11,11,12,12,13,13,14,14,15,15,17,17,18,18,19,19,20,20,21,21,22,22,25,25,27,27,31,31,32,32,37,37,39,39,40,40,41,41,42,42,45,45,46,46,47,47,48,48,49,49,50,50,52,52,53,53,54,54,57,57,64,64,65,65,71,71,73,73,74,74,75,75,77,77,81,81,82,82,84,84],"right_children":[2,4,6,8,10,12,14,16,18,20,22,24,26,28,30,32,-1,34,36,38,40,42,44,-1,-1,46,-1,48,-1,-1,-1,50,52,-1,-1,-1,-1,54,-1,56,58,60,62,-1,-1,64,66,68,70,72,74,-1,76,78,80,-1,-1,82,-1,-1,-1,-1,-1,-1,84,86,-1,-1,-1,-1,-1,88,-1,90,92,94,-1,96,-1,-1,-1,98,100,-1,102,-1,-1,-1,-1,-1,-1,-1,-1,-1,-1,-1,-1,-1,-1,-1,-1,-1,-1],"split_conditions":[6E1,4.1E-1,1.185732E6,1E0,1E0,5E0,5.1E-1,5.6E1,3.7E-1,9E0,5.1E-1,4.1E-1,1E0,1E0,6.1E-1,1.185732E6,-1.0425832E1,4E0,4.4E1,1E0,6E0,3.1E1,6.3E-1,-5.884866E0,1.6135101E-1,3.1E-1,5.9154053E0,7E0,1.807846E1,-1.5516876E0,-9.666443E-2,6E0,2E0,-2.1957219E0,-4.9494173E-2,-4.6478534E0,-9.5865935E-1,1E0,-1.0078158E0,5.5E-1,4.5E1,4.6E1,4.6E-1,-2.4845788E0,-2.3400345E-1,6.1E1,1E0,5E-1,7.5E1,1E0,1E1,-1.8978195E0,1E0,7E0,5.5E-1,-4.9759727E0,-7.33902E-1,1E0,-3.7826765E0,7.3460245E0,1.6153535E0,1.6913147E0,-4.541304E0,3.3314362E-1,1.3E1,6.6E1,-7.3968477E0,-5.997658E0,3.7357147E0,9.669094E0,1.4092041E0,3.7E-1,2.1359832E0,1E0,3.6E-1,3.1E-1,1.0581254E1,1.2E1,-3.937378E-1,-0E0,-1.18966E0,1E1,4.5E-1,5.340088E-1,6E0,-1.2193466E0,2.360901E-1,-4.0648603E0,1.6158926E-1,6.122733E0,1.8923225E0,4.2316437E-1,-5.497177E-1,9.409194E0,3.9316602E0,-2.865898E0,-4.016182E-1,-2.4530823E0,-2.6732942E-1,-4.9938966E-2,-9.711502E-1,7.2939605E-1,5.900224E0],"split_indices":[2,1,12,19,5,22,1,2,1,21,1,1,3,4,1,12,0,22,0,3,22,0,1,0,0,1,0,22,0,0,0,22,21,0,0,0,0,4,0,1,2,2,1,0,0,2,5,1,2,7,22,0,4,21,1,0,0,3,0,0,0,0,0,0,21,2,0,0,0,0,0,1,0,6,1,1,0,22,0,0,0,0,1,0,22,0,0,0,0,0,0,0,0,0,0,0,0,0,0,0,0,0,0],"split_type":[0,0,0,0,0,0,0,0,0,0,0,0,0,0,0,0,0,0,0,0,0,0,0,0,0,0,0,0,0,0,0,0,0,0,0,0,0,0,0,0,0,0,0,0,0,0,0,0,0,0,0,0,0,0,0,0,0,0,0,0,0,0,0,0,0,0,0,0,0,0,0,0,0,0,0,0,0,0,0,0,0,0,0,0,0,0,0,0,0,0,0,0,0,0,0,0,0,0,0,0,0,0,0],"sum_hessian":[1.89E2,1.54E2,3.5E1,7E1,8.4E1,1.5E1,2E1,5.4E1,1.6E1,7.3E1,1.1E1,4E0,1.1E1,1.6E1,4E0,5.3E1,1E0,9E0,7E0,3.1E1,4.2E1,7E0,4E0,3E0,1E0,9E0,2E0,1.3E1,3E0,3E0,1E0,2.5E1,2.8E1,8E0,1E0,6E0,1E0,2.6E1,5E0,1.7E1,2.5E1,5E0,2E0,3E0,1E0,5E0,4E0,2E0,1.1E1,1.4E1,1.1E1,1E0,2.7E1,2.2E1,4E0,1.6E1,1E0,1.3E1,1.2E1,4E0,1E0,1E0,1E0,1E0,4E0,3E0,1E0,1E0,1E0,1E1,1E0,1.2E1,2E0,9E0,2E0,2.3E1,4E0,2.1E1,1E0,1E0,3E0,9E0,4E0,1E0,3E0,2E0,1E0,6E0,6E0,6E0,3E0,1E0,1E0,4E0,1.9E1,2E1,1E0,8E0,1E0,2E0,2E0,1E0,2E0],"tree_param":{"num_deleted":"0","num_feature":"24","num_nodes":"103","size_leaf_vector":"1"}},{"base_weights":[5.0085936E0,-2.5785596E0,7.9094406E1,2.2101871E1,-2.2242788E1,1.9024092E1,1.09676025E2,3.8131138E1,-2.9607576E1,-2.9501009E1,1.7133354E1,-1.8460611E0,3.8710094E1,1.27292E1,6.2078453E1,2.5111416E1,8.983984E1,-3.73894E1,5.726158E0,-3.7856323E1,-2.028317E1,6.8344736E0,-2.4045872E1,4.601619E1,2.2428589E-1,-3.4536347E0,9.611624E1,8.826463E1,1.3594735E1,1.0365666E1,3.8496246E0,-4.2055172E1,-1.864683E0,-5.792704E-1,2.2641373E0,-3.9815968E1,-1.5175613E1,-2.613096E1,-0E0,-2.5870848E1,-2.2230302E-1,6.9292605E-1,5.5068746E0,1.1756335E1,1.3387451E0,3.1648713E-1,1.0108711E2,1.9011873E1,-9.90454E0,-4.6445663E1,-1.3198634E0,-2.3947876E1,-4.3315853E1,-8.672867E-2,-1.7285874E0,-2.5396273E-1,-2.6666018E1,5.9577546E0,-1.3380236E1,-8.506002E-1,-2.9408128E0,1.1090271E1,2.3504562E0,5.837222E0,5.7452106E1,-4.9349556E1,-9.107262E-1,-2.9739091E0,-1.2367086E0,-4.5908663E-1,-4.4394897E1,-2.263388E1,-3.818892E0,-1.579409E0,-1.6211649E0,1.190899E0,-5.313561E0,1.502085E0,8.24028E0,-5.290376E0,-9.735069E-1,-4.8252463E0,-2.5765789E0,-2.8110352E-1,-2.3134372E0,-4.8211977E-1,-0E0],"categories":[],"categories_nodes":[],"categories_segments":[],"categories_sizes":[],"default_left":[0,0,0,0,0,0,0,0,0,0,0,0,0,0,0,0,0,0,0,0,0,0,0,0,0,0,0,0,0,0,0,0,0,0,0,0,0,0,0,0,0,0,0,0,0,0,0,0,0,0,0,0,0,0,0,0,0,0,0,0,0,0,0,0,0,0,0,0,0,0,0,0,0,0,0,0,0,0,0,0,0,0,0,0,0,0,0],"id":18,"left_children":[1,3,5,7,9,11,13,15,17,19,21,-1,23,-1,25,27,29,31,33,35,37,-1,39,41,-1,-1,43,45,47,-1,-1,49,-1,-1,-1,51,53,55,57,59,-1,-1,-1,-1,-1,-1,61,63,-1,65,-1,67,69,-1,-1,-1,71,-1,73,-1,-1,-1,-1,75,77,79,-1,-1,-1,-1,81,83,-1,-1,85,-1,-1,-1,-1,-1,-1,-1,-1,-1,-1,-1,-1],"loss_changes":[1.028888E5,8.105571E4,2.849982E4,6.2507562E4,2.7146754E4,5.981327E3,3.7429688E2,3.5543523E4,5.321711E3,5.025867E3,3.349758E4,0E0,9.876626E2,0E0,2.0070176E4,3.2474588E4,3.1022969E3,2.2402344E2,9.947743E2,8.9865625E2,4.7113613E3,0E0,1.6045459E2,7.237705E2,0E0,0E0,4.868547E3,6.7971445E3,2.6500541E4,0E0,0E0,4.8239648E2,0E0,0E0,0E0,6.256758E2,4.5213867E1,1.7755273E2,8.710244E3,5.1678223E1,0E0,0E0,0E0,0E0,0E0,0E0,1.2903594E3,1.9605662E4,0E0,2.3411719E2,0E0,2.5284668E1,7.212656E2,0E0,0E0,0E0,2.2538086E2,0E0,1.42781E2,0E0,0E0,0E0,0E0,1.1526809E4,8.862016E3,2.9816797E2,0E0,0E0,0E0,0E0,3.269453E2,5.3271484E1,0E0,0E0,3.8603363E1,0E0,0E0,0E0,0E0,0E0,0E0,0E0,0E0,0E0,0E0,0E0,0E0],"parents":[2147483647,0,0,1,1,2,2,3,3,4,4,5,5,6,6,7,7,8,8,9,9,10,10,12,12,14,14,15,15,16,16,17,17,18,18,19,19,20,20,22,22,23,23,26,26,27,27,28,28,31,31,35,35,36,36,37,37,38,38,39,39,46,46,47,47,49,49,51,51,52,52,56,56,58,58,63,63,64,64,65,65,70,70,71,71,74,74],"right_children":[2,4,6,8,10,12,14,16,18,20,22,-1,24,-1,26,28,30,32,34,36,38,-1,40,42,-1,-1,44,46,48,-1,-1,50,-1,-1,-1,52,54,56,58,60,-1,-1,-1,-1,-1,-1,62,64,-1,66,-1,68,70,-1,-1,-1,72,-1,74,-1,-1,-1,-1,76,78,80,-1,-1,-1,-1,82,84,-1,-1,86,-1,-1,-1,-1,-1,-1,-1,-1,-1,-1,-1,-1],"split_conditions":[6.5E1,4.1E-1,1.185732E6,1E0,1E0,6.6E1,1.1E1,1E0,5.2E1,1.185732E6,5.1E-1,-1.8460611E0,3.1E-1,1.27292E1,6.8E1,3.1E-1,1.3E1,1E0,5.6E1,1.2E1,1E0,6.8344736E0,6.4E-1,6E0,2.2428589E-1,-3.4536347E0,1.1E1,1E1,1.1E1,1.0365666E1,3.8496246E0,1E0,-1.864683E0,-5.792704E-1,2.2641373E0,3.8E1,4E1,4.4E-1,5.1E-1,3E0,-2.2230302E-1,6.9292605E-1,5.5068746E0,1.1756335E1,1.3387451E0,3.1648713E-1,3.9E1,1E0,-9.90454E0,4.4E1,-1.3198634E0,1E0,4.2E-1,-8.672867E-2,-1.7285874E0,-2.5396273E-1,7E0,5.9577546E0,5.8E1,-8.506002E-1,-2.9408128E0,1.1090271E1,2.3504562E0,1E0,7E0,1E0,-9.107262E-1,-2.9739091E0,-1.2367086E0,-4.5908663E-1,1E0,2E1,-3.818892E0,-1.579409E0,3.1E1,1.190899E0,-5.313561E0,1.502085E0,8.24028E0,-5.290376E0,-9.735069E-1,-4.8252463E0,-2.5765789E0,-2.8110352E-1,-2.3134372E0,-4.8211977E-1,-0E0],"split_indices":[2,1,12,19,5,2,22,4,2,12,1,0,1,0,2,1,21,7,2,22,4,0,1,22,0,0,0,0,22,0,0,5,0,0,0,2,2,1,1,21,0,0,0,0,0,0,0,3,0,0,0,4,1,0,0,0,21,0,2,0,0,0,0,5,22,4,0,0,0,0,3,2,0,0,0,0,0,0,0,0,0,0,0,0,0,0,0],"split_type":[0,0,0,0,0,0,0,0,0,0,0,0,0,0,0,0,0,0,0,0,0,0,0,0,0,0,0,0,0,0,0,0,0,0,0,0,0,0,0,0,0,0,0,0,0,0,0,0,0,0,0,0,0,0,0,0,0,0,0,0,0,0,0,0,0,0,0,0,0,0,0,0,0,0,0,0,0,0,0,0,0,0,0,0,0,0,0],"sum_hessian":[1.81E2,1.65E2,1.6E1,7.3E1,9.2E1,6E0,1E1,5.6E1,1.7E1,7.8E1,1.4E1,2E0,4E0,6E0,4E0,4.6E1,1E1,1.4E1,3E0,3.9E1,3.9E1,6E0,8E0,3E0,1E0,1E0,3E0,6E0,4E1,7E0,3E0,1E1,4E0,2E0,1E0,3.5E1,4E0,3E1,9E0,7E0,1E0,1E0,2E0,2E0,1E0,1E0,5E0,3.9E1,1E0,8E0,2E0,8E0,2.7E1,1E0,3E0,1E0,2.9E1,1E0,8E0,2E0,5E0,4E0,1E0,3E1,9E0,7E0,1E0,4E0,4E0,1E0,2.6E1,2.4E1,5E0,6E0,2E0,2.8E1,2E0,4E0,5E0,6E0,1E0,2E1,6E0,1E0,2.3E1,1E0,1E0],"tree_param":{"num_deleted":"0","num_feature":"24","num_nodes":"87","size_leaf_vector":"1"}},{"base_weights":[3.4012268E0,-2.3840327E0,6.675998E1,1.82707E1,-2.1387985E1,2.4548624E0,1.0880174E2,-6.1392026E0,5.090555E1,-2.7437607E1,8.742727E0,-5.314517E1,3.6323906E1,1.2608962E2,-1.2250642E0,-2.6103977E1,2.6089556E1,5.698826E1,-2.9278513E1,-3.1083044E1,-1.1179403E1,3.803662E1,-2.1019005E1,-7.038219E0,-6.835564E-1,4.3089523E1,2.1307221E-1,4.1917586E0,1.4632738E1,-3.2251E1,8.851932E0,-2.3617594E1,4.2335712E1,4.5095184E1,1.0017571E2,4.7675357E0,-9.409312E0,-3.9807007E1,-2.1447111E1,-1.8937563E1,2.4499084E1,6.201862E0,-2.093958E1,-3.4032592E-1,-2.5490377E0,6.582794E-1,5.1397505E0,-3.9332813E1,2.9428132E0,-3.9701588E0,2.0390046E0,-2.8181713E0,-1.8055726E-2,4.1436005E0,5.1920506E1,3.223473E1,8.390098E0,1.0860831E1,2.6506348E0,-4.514343E1,-2.465347E1,-1.1509186E1,-2.715522E1,-0E0,-2.0285735E0,5.6598663E0,-1.7350037E0,1.2650254E0,-4.6559625E0,-4.401825E1,1.7859039E0,-1.2570561E0,1.9141916E0,3.9816286E-2,-8.8534015E-1,-0E0,1.0680344E0,3.0066225E-1,5.6011233E0,6.1282344E0,2.4159723E1,-4.976852E0,-2.031446E0,-2.9509177E0,-8.742615E-1,-1.517601E-1,-1.3854901E1,-1.3829933E1,-3.3923135E0,-5.0723605E0,-2.020272E0,1.442717E0,-9.248314E-1,3.4246215E-1,-5.8177644E-1,3.5625522E0,-5.787094E-1,-1.4856218E0,-0E0,-1.6291684E0,-0E0],"categories":[],"categories_nodes":[],"categories_segments":[],"categories_sizes":[],"default_left":[0,0,0,0,0,0,0,0,0,0,0,0,0,0,0,0,0,0,0,0,0,0,0,0,0,0,0,0,0,0,0,0,0,0,0,0,0,0,0,0,0,0,0,0,0,0,0,0,0,0,0,0,0,0,0,0,0,0,0,0,0,0,0,0,0,0,0,0,0,0,0,0,0,0,0,0,0,0,0,0,0,0,0,0,0,0,0,0,0,0,0,0,0,0,0,0,0,0,0,0,0],"id":19,"left_children":[1,3,5,7,9,11,13,15,17,19,21,23,25,27,-1,29,31,33,35,37,39,41,43,-1,-1,45,-1,-1,-1,47,49,51,53,55,57,-1,-1,59,61,63,65,-1,67,-1,-1,-1,-1,69,71,73,-1,-1,-1,75,77,79,-1,-1,-1,81,83,85,87,-1,-1,-1,-1,-1,-1,89,91,-1,-1,-1,-1,93,-1,-1,-1,-1,95,-1,-1,-1,-1,-1,97,99,-1,-1,-1,-1,-1,-1,-1,-1,-1,-1,-1,-1,-1],"loss_changes":[6.5726375E4,6.4779895E4,3.9729133E4,6.346882E4,1.6009387E4,1.5028173E4,2.0948523E4,3.0279348E4,1.839011E4,3.7085156E3,1.3962135E4,1.5275283E3,8.3877686E2,6.552711E3,0E0,6.6338496E3,1.5629361E4,1.1192414E4,1.9681217E4,3.715668E3,4.5881357E3,1.2818975E4,3.9891406E2,0E0,0E0,5.8494775E2,0E0,0E0,0E0,6.5285977E3,9.027649E2,3.8794727E2,4.6294316E3,1.0189418E4,1.7296875E2,0E0,0E0,8.831797E2,1.1959463E3,2.7592578E2,5.2082495E3,0E0,3.3402568E3,0E0,0E0,0E0,0E0,4.335617E3,1.5299951E3,1.09796005E2,0E0,0E0,0E0,1.5946179E2,1.7375312E3,3.252539E3,0E0,0E0,0E0,9.3528516E2,3.233379E2,2.067976E2,9.153994E2,0E0,0E0,0E0,0E0,0E0,0E0,1.65475E3,5.7778076E2,0E0,0E0,0E0,0E0,9.1148834E1,0E0,0E0,0E0,0E0,6.8792803E3,0E0,0E0,0E0,0E0,0E0,6.678223E1,3.2779614E2,0E0,0E0,0E0,0E0,0E0,0E0,0E0,0E0,0E0,0E0,0E0,0E0,0E0],"parents":[2147483647,0,0,1,1,2,2,3,3,4,4,5,5,6,6,7,7,8,8,9,9,10,10,11,11,12,12,13,13,15,15,16,16,17,17,18,18,19,19,20,20,21,21,22,22,25,25,29,29,30,30,31,31,32,32,33,33,34,34,37,37,38,38,39,39,40,40,42,42,47,47,48,48,49,49,53,53,54,54,55,55,59,59,60,60,61,61,62,62,69,69,70,70,75,75,80,80,86,86,87,87],"right_children":[2,4,6,8,10,12,14,16,18,20,22,24,26,28,-1,30,32,34,36,38,40,42,44,-1,-1,46,-1,-1,-1,48,50,52,54,56,58,-1,-1,60,62,64,66,-1,68,-1,-1,-1,-1,70,72,74,-1,-1,-1,76,78,80,-1,-1,-1,82,84,86,88,-1,-1,-1,-1,-1,-1,90,92,-1,-1,-1,-1,94,-1,-1,-1,-1,96,-1,-1,-1,-1,-1,98,100,-1,-1,-1,-1,-1,-1,-1,-1,-1,-1,-1,-1,-1],"split_conditions":[6.5E1,4.1E-1,1.185732E6,1.185732E6,1E0,7E1,5.1E-1,6E0,1.2E1,1E0,5.1E-1,1E1,3.1E-1,3.6E-1,-1.2250642E0,1E0,1E0,1E0,3.1E-1,7E0,3.9E1,3.1E1,4E0,-7.038219E0,-6.835564E-1,6E0,2.1307221E-1,4.1917586E0,1.4632738E1,1E0,5.1E1,5.2E1,4.6E1,5.3E1,1.1E1,4.7675357E0,-9.409312E0,1E0,4.5E1,2.8E1,5.1E-1,6.201862E0,4.6E-1,-3.4032592E-1,-2.5490377E0,6.582794E-1,5.1397505E0,1E0,4.8E1,1E1,2.0390046E0,-2.8181713E0,-1.8055726E-2,1.4E1,2.6E-1,3.1E-1,8.390098E0,1.0860831E1,2.6506348E0,1E0,5E0,4.5E-1,9E0,-0E0,-2.0285735E0,5.6598663E0,-1.7350037E0,1.2650254E0,-4.6559625E0,1E0,1E1,-1.2570561E0,1.9141916E0,3.9816286E-2,-8.8534015E-1,3.6E-1,1.0680344E0,3.0066225E-1,5.6011233E0,6.1282344E0,3.1E1,-4.976852E0,-2.031446E0,-2.9509177E0,-8.742615E-1,-1.517601E-1,4.3E1,5.1E-1,-3.3923135E0,-5.0723605E0,-2.020272E0,1.442717E0,-9.248314E-1,3.4246215E-1,-5.8177644E-1,3.5625522E0,-5.787094E-1,-1.4856218E0,-0E0,-1.6291684E0,-0E0],"split_indices":[2,1,12,12,5,2,1,22,22,4,1,0,1,1,0,3,18,4,1,22,0,0,21,0,0,22,0,0,0,7,2,2,2,2,22,0,0,3,2,2,1,0,1,0,0,0,0,4,2,0,0,0,0,21,1,1,0,0,0,7,22,1,21,0,0,0,0,0,0,6,0,0,0,0,0,1,0,0,0,0,0,0,0,0,0,0,2,1,0,0,0,0,0,0,0,0,0,0,0,0,0],"split_type":[0,0,0,0,0,0,0,0,0,0,0,0,0,0,0,0,0,0,0,0,0,0,0,0,0,0,0,0,0,0,0,0,0,0,0,0,0,0,0,0,0,0,0,0,0,0,0,0,0,0,0,0,0,0,0,0,0,0,0,0,0,0,0,0,0,0,0,0,0,0,0,0,0,0,0,0,0,0,0,0,0,0,0,0,0,0,0,0,0,0,0,0,0,0,0,0,0,0,0,0,0],"sum_hessian":[1.77E2,1.63E2,1.4E1,7.8E1,8.5E1,6E0,8E0,4.5E1,3.3E1,7.1E1,1.4E1,2E0,4E0,7E0,1E0,2.8E1,1.7E1,3.1E1,2E0,5.7E1,1.4E1,7E0,7E0,1E0,1E0,3E0,1E0,2E0,5E0,2.4E1,4E0,4E0,1.3E1,2.6E1,5E0,1E0,1E0,2.8E1,2.9E1,1.2E1,2E0,5E0,2E0,2E0,5E0,1E0,2E0,2E1,4E0,2E0,2E0,3E0,1E0,3E0,1E1,2.1E1,5E0,4E0,1E0,1.9E1,9E0,1.2E1,1.7E1,1E0,1.1E1,1E0,1E0,1E0,1E0,1.8E1,2E0,2E0,2E0,1E0,1E0,2E0,1E0,1E0,9E0,3E0,1.8E1,1.5E1,4E0,6E0,3E0,3E0,9E0,7E0,1E1,1.3E1,5E0,1E0,1E0,1E0,1E0,1.3E1,5E0,8E0,1E0,6E0,1E0],"tree_param":{"num_deleted":"0","num_feature":"24","num_nodes":"101","size_leaf_vector":"1"}},{"base_weights":[2.8365347E0,-5.3690104E0,3.759608E1,1.3893747E1,-2.1103592E1,2.6287836E1,1.4778809E1,1.8082112E0,7.4801186E1,-2.6233456E1,7.7574816E0,4.6096373E0,6.342388E1,1.3416154E1,-3.4445908E1,8.453849E0,-8.7858963E-1,-1.8913042E1,-3.143909E1,3.0499939E1,-2.3025377E0,6.323795E1,-3.305211E1,2.9161383E1,8.30169E1,1.8002039E1,-8.938848E0,-4.4734173E1,-1.2439194E0,-1.929627E1,-1.0164795E-1,-3.5139786E1,-1.9767542E1,5.1404552E1,-1.9809265E1,7.9780397E0,1.892924E0,-5.145695E1,4.991797E1,-0E0,3.4093742E1,4.0636077E0,1.033935E1,6.681105E1,1.1154678E1,-1.322228E0,-5.1134388E1,-1.998606E1,-4.5295462E-1,-4.2854387E-1,-3.5938637E1,-5.280802E-1,-2.1636808E0,5.7154384E0,8.8276976E-1,1.2017746E0,-4.4231644E0,2.8562927E-1,-0E0,-6.1557484E1,-1.461652E1,8.094281E0,-3.565857E-1,4.0355087E1,2.0241852E-1,8.530654E0,2.437854E0,-3.5445015E1,1.763593E1,-5.601988E0,-8.4107286E-1,-2.2724957E1,-1.2983777E1,-6.7216796E-1,-3.661153E1,-1.67742E0,-7.12421E1,-3.2284547E-2,-1.7606796E0,6.253662E-1,4.797101E0,-4.6022353E0,-1.1386007E0,9.641841E-1,4.278575E0,-2.5696142E0,-1.1171364E0,-0E0,-1.4098517E0,-3.731407E0,-7.0240325E-1,-8.279987E0,-2.6565125E0],"categories":[],"categories_nodes":[],"categories_segments":[],"categories_sizes":[],"default_left":[0,0,0,0,0,0,0,0,0,0,0,0,0,0,0,0,0,0,0,0,0,0,0,0,0,0,0,0,0,0,0,0,0,0,0,0,0,0,0,0,0,0,0,0,0,0,0,0,0,0,0,0,0,0,0,0,0,0,0,0,0,0,0,0,0,0,0,0,0,0,0,0,0,0,0,0,0,0,0,0,0,0,0,0,0,0,0,0,0,0,0,0,0],"id":20,"left_children":[1,3,5,7,9,11,-1,13,15,17,19,21,23,25,27,-1,-1,29,31,33,-1,35,37,39,41,43,-1,45,-1,47,-1,49,51,53,55,-1,57,59,61,-1,63,-1,-1,65,67,-1,69,71,-1,-1,73,-1,-1,-1,-1,-1,-1,-1,-1,75,77,-1,-1,79,-1,-1,-1,81,83,-1,-1,85,87,-1,89,-1,91,-1,-1,-1,-1,-1,-1,-1,-1,-1,-1,-1,-1,-1,-1,-1,-1],"loss_changes":[5.2273215E4,4.518679E4,3.8857324E4,4.8800332E4,1.2436262E4,2.5933875E4,0E0,2.434462E4,1.0074539E4,1.8211484E3,9.840657E3,5.081806E4,5.0738906E3,2.1996057E4,2.3274277E3,0E0,0E0,9.829199E1,7.1535156E2,9.589818E3,0E0,8.573785E3,2.395504E4,7.096001E2,1.1233867E3,1.3236069E4,0E0,8.1725E2,0E0,1.0265918E2,0E0,3.3501172E2,7.610693E1,6.344072E2,3.024508E3,0E0,5.5673323E0,3.18467E3,5.6534966E3,0E0,7.1041016E2,0E0,0E0,1.2959766E3,1.2315009E4,0E0,6.6775977E2,8.2578125E1,0E0,0E0,6.80625E1,0E0,0E0,0E0,0E0,0E0,0E0,0E0,0E0,2.2682734E3,7.563562E1,0E0,0E0,4.677373E2,0E0,0E0,0E0,4.6134814E2,6.362073E3,0E0,0E0,1.8083105E2,1.3331873E2,0E0,5.6664062E1,0E0,8.6814844E2,0E0,0E0,0E0,0E0,0E0,0E0,0E0,0E0,0E0,0E0,0E0,0E0,0E0,0E0,0E0,0E0],"parents":[2147483647,0,0,1,1,2,2,3,3,4,4,5,5,7,7,8,8,9,9,10,10,11,11,12,12,13,13,14,14,17,17,18,18,19,19,21,21,22,22,23,23,24,24,25,25,27,27,29,29,31,31,32,32,33,33,34,34,36,36,37,37,38,38,40,40,43,43,44,44,46,46,47,47,50,50,59,59,60,60,63,63,67,67,68,68,71,71,72,72,74,74,76,76],"right_children":[2,4,6,8,10,12,-1,14,16,18,20,22,24,26,28,-1,-1,30,32,34,-1,36,38,40,42,44,-1,46,-1,48,-1,50,52,54,56,-1,58,60,62,-1,64,-1,-1,66,68,-1,70,72,-1,-1,74,-1,-1,-1,-1,-1,-1,-1,-1,76,78,-1,-1,80,-1,-1,-1,82,84,-1,-1,86,88,-1,90,-1,92,-1,-1,-1,-1,-1,-1,-1,-1,-1,-1,-1,-1,-1,-1,-1,-1],"split_conditions":[6E1,4.1E-1,2.4E1,1E0,1E0,7E1,1.4778809E1,1E0,3.1E1,9E0,5.1E-1,6.1E1,1.185732E6,5.6E1,4.5E1,8.453849E0,-8.7858963E-1,7E0,1E0,3.1E1,-2.3025377E0,1.4E1,1E0,1.3E1,5E0,3.1E-1,-8.938848E0,3.3E1,-1.2439194E0,1.2E1,-1.0164795E-1,4.2E-1,1.3E1,4.6E1,4.6E-1,7.9780397E0,1E1,5E-1,4.1E-1,-0E0,3.1E-1,4.0636077E0,1.033935E1,9E0,9E0,-1.322228E0,1E0,5.2E-1,-4.5295462E-1,-4.2854387E-1,2.8E1,-5.280802E-1,-2.1636808E0,5.7154384E0,8.8276976E-1,1.2017746E0,-4.4231644E0,2.8562927E-1,-0E0,1E0,3.1E1,8.094281E0,-3.565857E-1,6E0,2.0241852E-1,8.530654E0,2.437854E0,1.9E1,1E0,-5.601988E0,-8.4107286E-1,1E0,1.1E1,-6.7216796E-1,1.2E1,-1.67742E0,9E0,-3.2284547E-2,-1.7606796E0,6.253662E-1,4.797101E0,-4.6022353E0,-1.1386007E0,9.641841E-1,4.278575E0,-2.5696142E0,-1.1171364E0,-0E0,-1.4098517E0,-3.731407E0,-7.0240325E-1,-8.279987E0,-2.6565125E0],"split_indices":[2,1,21,4,5,2,0,19,0,21,1,2,12,2,2,0,0,21,4,0,0,21,4,21,21,1,0,2,0,22,0,1,21,2,1,0,0,1,1,0,1,0,0,20,20,0,3,1,0,0,2,0,0,0,0,0,0,0,0,18,0,0,0,22,0,0,0,21,7,0,0,3,0,0,22,0,22,0,0,0,0,0,0,0,0,0,0,0,0,0,0,0,0],"split_type":[0,0,0,0,0,0,0,0,0,0,0,0,0,0,0,0,0,0,0,0,0,0,0,0,0,0,0,0,0,0,0,0,0,0,0,0,0,0,0,0,0,0,0,0,0,0,0,0,0,0,0,0,0,0,0,0,0,0,0,0,0,0,0,0,0,0,0,0,0,0,0,0,0,0,0,0,0,0,0,0,0,0,0,0,0,0,0,0,0,0,0,0,0],"sum_hessian":[1.81E2,1.47E2,3.4E1,6.6E1,8.1E1,3.2E1,2E0,5.6E1,1E1,6.9E1,1.2E1,2.1E1,1.1E1,4.3E1,1.3E1,9E0,1E0,3.1E1,3.8E1,7E0,5E0,8E0,1.3E1,5E0,6E0,4.2E1,1E0,8E0,5E0,3E1,1E0,2.7E1,1.1E1,5E0,2E0,6E0,2E0,1.1E1,2E0,1E0,4E0,3E0,3E0,4E0,3.8E1,2E0,6E0,2.8E1,2E0,1E0,2.6E1,2E0,9E0,4E0,1E0,1E0,1E0,1E0,1E0,8E0,3E0,1E0,1E0,3E0,1E0,2E0,2E0,4E0,3.4E1,5E0,1E0,1.8E1,1E1,1E0,2.5E1,2E0,6E0,1E0,2E0,1E0,2E0,2E0,2E0,2.7E1,7E0,1.3E1,5E0,1E0,9E0,2.4E1,1E0,4E0,2E0],"tree_param":{"num_deleted":"0","num_feature":"24","num_nodes":"93","size_leaf_vector":"1"}},{"base_weights":[2.4469237E0,-1.6830856E1,2.1123833E1,-3.4969093E1,-5.9467764E0,7.0669127E0,7.4496895E1,-3.9220413E1,-2.3176026E0,1.0808652E1,-2.3865208E1,3.088489E1,-8.85767E0,9.215193E1,-1.3497463E0,-4.2209503E1,-0E0,1.5257314E1,-2.0786653E0,2.2590044E1,-2.3788935E1,-1.0817332E0,-2.6704748E1,5.0002758E1,-1.8723772E1,-1.4741051E1,1.9570597E1,6.8987144E1,1.4314949E1,-4.6293415E1,-1.3981603E0,9.478882E-1,-8.3466035E-1,-0E0,2.0489807E0,6.4043093E0,3.4163357E1,-7.8410643E-1,-3.0789444E0,-2.9957039E1,-1.22058E1,1.1909465E1,6.021199E1,-4.3364864E1,4.33467E0,1.4032146E1,-1.77511E1,4.413678E1,-1.4779781E1,4.215106E1,9.243741E0,-2.2710876E-1,-4.7963924E1,3.114007E1,-1.1464706E1,4.3633076E1,6.982193E-1,-2.978569E-1,-3.1144533E0,-0E0,-1.5505124E0,1.9228912E1,-9.8438877E-1,6.5240265E1,1.3333303E0,-8.491905E0,-2.1452658E1,-1.6190863E0,5.485059E0,-4.7106173E-2,-1.8098423E1,4.9727817E0,8.386322E-1,-1.7512747E0,-7.904434E-2,7.5221367E0,-3.637324E0,-5.481157E1,-2.8504107E1,-0E0,3.7800194E1,6.698873E0,-6.2723093E0,5.4292904E1,1.2820107E0,-6.008957E-1,6.6035974E-1,-4.1397247E-1,2.7356002E0,3.1198984E1,7.864101E0,-2.377261E0,-2.4264526E-1,-9.4983675E-2,-1.8437778E1,-7.159426E0,-3.5112634E0,2.4297284E-1,-4.0053673E0,5.940979E-1,4.477294E0,1.4991412E0,-1.4881912E0,5.074173E-1,6.0817E0,7.0142823E-1,5.1378927E0,-2.5152805E0,-1.5470165E0],"categories":[],"categories_nodes":[],"categories_segments":[],"categories_sizes":[],"default_left":[0,0,0,0,0,0,0,0,0,0,0,0,0,0,0,0,0,0,0,0,0,0,0,0,0,0,0,0,0,0,0,0,0,0,0,0,0,0,0,0,0,0,0,0,0,0,0,0,0,0,0,0,0,0,0,0,0,0,0,0,0,0,0,0,0,0,0,0,0,0,0,0,0,0,0,0,0,0,0,0,0,0,0,0,0,0,0,0,0,0,0,0,0,0,0,0,0,0,0,0,0,0,0,0,0,0,0,0,0],"id":21,"left_children":[1,3,5,7,9,11,13,15,17,19,21,23,25,27,-1,29,31,33,-1,35,37,-1,39,41,43,45,47,49,-1,51,-1,-1,-1,-1,-1,53,55,-1,-1,57,59,61,63,65,-1,67,69,71,73,75,-1,-1,77,79,81,83,85,-1,-1,-1,-1,87,-1,89,-1,-1,91,-1,-1,-1,93,-1,-1,-1,-1,-1,-1,95,97,-1,99,101,-1,103,-1,-1,-1,-1,-1,105,-1,-1,-1,-1,107,-1,-1,-1,-1,-1,-1,-1,-1,-1,-1,-1,-1,-1,-1],"loss_changes":[6.518588E4,1.7157672E4,6.808972E4,4.282211E3,1.74364E4,2.8451264E4,3.1154414E4,3.4953516E3,1.9677551E3,1.2759631E4,5.6091504E2,2.9544986E4,7.790788E3,7.9653906E3,0E0,2.1639336E3,3.1902997E2,1.4130743E2,0E0,3.886788E3,4.585713E2,0E0,4.609414E2,7.478176E3,1.5645172E4,3.5588125E3,7.549978E3,3.6118008E3,0E0,1.3313086E3,0E0,0E0,0E0,0E0,0E0,5.317429E3,3.8676465E3,0E0,0E0,2.8124414E2,3.081549E2,1.1915474E3,2.7444844E3,4.020209E3,0E0,6.016001E3,1.0868848E2,2.9180664E2,4.757068E1,2.3704865E4,0E0,0E0,9.5265234E2,8.668989E2,7.2175454E3,2.253004E3,2.0108755E2,0E0,0E0,0E0,0E0,1.178923E3,0E0,3.839957E3,0E0,0E0,7.616089E1,0E0,0E0,0E0,8.341113E1,0E0,0E0,0E0,0E0,0E0,0E0,1.9116211E3,3.1436187E3,0E0,3.6902002E2,1.2974054E3,0E0,1.6097012E3,0E0,0E0,0E0,0E0,0E0,2.2759233E3,0E0,0E0,0E0,0E0,6.537891E1,0E0,0E0,0E0,0E0,0E0,0E0,0E0,0E0,0E0,0E0,0E0,0E0,0E0,0E0],"parents":[2147483647,0,0,1,1,2,2,3,3,4,4,5,5,6,6,7,7,8,8,9,9,10,10,11,11,12,12,13,13,15,15,16,16,17,17,19,19,20,20,22,22,23,23,24,24,25,25,26,26,27,27,29,29,35,35,36,36,39,39,40,40,41,41,42,42,43,43,45,45,46,46,47,47,48,48,49,49,52,52,53,53,54,54,55,55,56,56,61,61,63,63,66,66,70,70,77,77,78,78,80,80,81,81,83,83,89,89,94,94],"right_children":[2,4,6,8,10,12,14,16,18,20,22,24,26,28,-1,30,32,34,-1,36,38,-1,40,42,44,46,48,50,-1,52,-1,-1,-1,-1,-1,54,56,-1,-1,58,60,62,64,66,-1,68,70,72,74,76,-1,-1,78,80,82,84,86,-1,-1,-1,-1,88,-1,90,-1,-1,92,-1,-1,-1,94,-1,-1,-1,-1,-1,-1,96,98,-1,100,102,-1,104,-1,-1,-1,-1,-1,106,-1,-1,-1,-1,108,-1,-1,-1,-1,-1,-1,-1,-1,-1,-1,-1,-1,-1,-1],"split_conditions":[1.185732E6,5E0,6E1,1E0,4.1E-1,4.1E-1,5.1E-1,1E0,4.1E-1,1E0,1.3E1,1E0,1E0,1E0,-1.3497463E0,1E0,1E1,1E1,-2.0786653E0,3.6E-1,3.6E-1,-1.0817332E0,1E0,3.1E1,4E-1,1E0,5.1E-1,1E0,1.4314949E1,2.4E-1,-1.3981603E0,9.478882E-1,-8.3466035E-1,-0E0,2.0489807E0,3.1E-1,1E1,-7.8410643E-1,-3.0789444E0,3.2E1,4.3E-1,3.1E1,3.9E1,1.1E1,4.33467E0,2.8E1,4.4E-1,4.6E1,6.4E-1,3.6E-1,9.243741E0,-2.2710876E-1,1E0,1.3E1,6.6E1,1E0,4.6E1,-2.978569E-1,-3.1144533E0,-0E0,-1.5505124E0,2.6E1,-9.8438877E-1,4E0,1.3333303E0,-8.491905E0,4.8E1,-1.6190863E0,5.485059E0,-4.7106173E-2,2E1,4.9727817E0,8.386322E-1,-1.7512747E0,-7.904434E-2,7.5221367E0,-3.637324E0,1E0,3E0,-0E0,6E0,1.4E1,-6.2723093E0,6E0,1.2820107E0,-6.008957E-1,6.6035974E-1,-4.1397247E-1,2.7356002E0,1E0,7.864101E0,-2.377261E0,-2.4264526E-1,-9.4983675E-2,5E0,-7.159426E0,-3.5112634E0,2.4297284E-1,-4.0053673E0,5.940979E-1,4.477294E0,1.4991412E0,-1.4881912E0,5.074173E-1,6.0817E0,7.0142823E-1,5.1378927E0,-2.5152805E0,-1.5470165E0],"split_indices":[12,22,2,3,1,1,1,4,1,19,21,7,5,4,0,7,0,0,0,1,1,0,3,2,1,18,1,5,0,1,0,0,0,0,0,1,22,0,0,2,1,0,0,0,0,2,1,2,1,1,0,0,5,21,2,6,2,0,0,0,0,2,0,21,0,0,2,0,0,0,2,0,0,0,0,0,0,6,22,0,22,21,0,22,0,0,0,0,0,4,0,0,0,0,22,0,0,0,0,0,0,0,0,0,0,0,0,0,0],"split_type":[0,0,0,0,0,0,0,0,0,0,0,0,0,0,0,0,0,0,0,0,0,0,0,0,0,0,0,0,0,0,0,0,0,0,0,0,0,0,0,0,0,0,0,0,0,0,0,0,0,0,0,0,0,0,0,0,0,0,0,0,0,0,0,0,0,0,0,0,0,0,0,0,0,0,0,0,0,0,0,0,0,0,0,0,0,0,0,0,0,0,0,0,0,0,0,0,0,0,0,0,0,0,0,0,0,0,0,0,0],"sum_hessian":[1.79E2,8.8E1,9.1E1,3.2E1,5.6E1,7.3E1,1.8E1,2.8E1,4E0,2.9E1,2.7E1,2.9E1,4.4E1,1.5E1,3E0,2.6E1,2E0,2E0,2E0,2.2E1,7E0,6E0,2.1E1,2.1E1,8E0,3.7E1,7E0,1.2E1,3E0,2.2E1,4E0,1E0,1E0,1E0,1E0,1E1,1.2E1,3E0,4E0,1.6E1,5E0,5E0,1.6E1,6E0,2E0,3E0,3.4E1,4E0,3E0,7E0,5E0,1E0,2.1E1,4E0,6E0,9E0,3E0,1E0,1.5E1,1E0,4E0,4E0,1E0,1.4E1,2E0,1E0,5E0,2E0,1E0,1E0,3.3E1,3E0,1E0,2E0,1E0,5E0,2E0,1.4E1,7E0,1E0,3E0,5E0,1E0,6E0,3E0,1E0,2E0,1E0,3E0,5E0,9E0,4E0,1E0,1E0,3.2E1,6E0,8E0,2E0,5E0,1E0,2E0,4E0,1E0,1E0,5E0,3E0,2E0,7E0,2.5E1],"tree_param":{"num_deleted":"0","num_feature":"24","num_nodes":"109","size_leaf_vector":"1"}},{"base_weights":[9.405965E-1,-1.3954966E1,1.7157236E1,-2.834788E1,6.369483E-1,3.1921211E1,-1.9644089E1,-3.856382E1,-1.6682034E1,1.0750678E1,-2.21685E1,1.9136736E1,1.0026421E2,-2.2631441E1,-1.021545E1,-4.187139E1,-1.113501E0,-2.275375E1,-1.8283424E0,-1.8924194E1,2.7433907E1,-2.8493443E1,8.854095E0,5.3425465E1,4.583556E0,-1.9769577E0,1.1836463E2,-2.4334295E1,-4.906698E-1,-0E0,-1.2789439E0,-4.460377E1,-9.853307E-1,-2.6829828E1,-2.5680618E0,-9.529947E0,7.0057487E0,-2.7992691E1,1.5945526E0,3.783972E1,-1.2432648E1,-4.9533996E-1,-2.9728592E1,1.1295365E0,-0E0,2.7316628E1,7.2231116E0,-7.1898093E0,8.237105E0,1.2930667E1,1.8385162E0,-1.1046356E1,-2.7707512E0,-4.7775726E0,-2.0307999E0,-1.8088266E1,-3.6198673E1,-0E0,-4.854355E-1,-1.2857659E0,-0E0,1.5043019E0,-6.053032E-1,7.2858787E0,-3.834807E1,8.642934E-1,4.0823097E0,-0E0,-1.4712048E0,-5.115601E-1,-3.1178331E0,-3.3825226E0,4.741262E0,1.0658098E1,-2.7131842E1,1.259468E-1,-1.5687679E0,-2.1853297E0,-6.668655E-1,-4.1144085E0,-5.7085115E-1,1.558635E0,-2.1575318E-1,-4.4510984E0,-0E0,-9.39624E-1,4.8293152E-1,-1.9827377E1,2.429308E1,-1.750127E1,-5.039824E1,-5.853221E-1,-2.410115E0,2.7871814E0,-6.8258667E-1,-1.9357073E0,-3.1962332E-1,-5.790195E0,-1.1443558E0],"categories":[],"categories_nodes":[],"categories_segments":[],"categories_sizes":[],"default_left":[0,0,0,0,0,0,0,0,0,0,0,0,0,0,0,0,0,0,0,0,0,0,0,0,0,0,0,0,0,0,0,0,0,0,0,0,0,0,0,0,0,0,0,0,0,0,0,0,0,0,0,0,0,0,0,0,0,0,0,0,0,0,0,0,0,0,0,0,0,0,0,0,0,0,0,0,0,0,0,0,0,0,0,0,0,0,0,0,0,0,0,0,0,0,0,0,0,0,0],"id":22,"left_children":[1,3,5,7,9,11,13,15,17,19,21,23,25,27,29,31,-1,33,35,37,39,41,43,45,47,-1,49,51,-1,-1,-1,53,-1,55,57,59,61,63,-1,65,67,-1,69,-1,-1,71,-1,73,-1,-1,-1,75,-1,-1,-1,77,79,-1,-1,-1,-1,-1,-1,81,83,-1,-1,-1,-1,-1,-1,85,-1,87,89,-1,-1,-1,-1,-1,-1,-1,-1,-1,-1,-1,-1,91,93,95,97,-1,-1,-1,-1,-1,-1,-1,-1],"loss_changes":[4.131995E4,1.8848406E4,4.524183E4,4.4434414E3,1.0560404E4,4.9034297E4,2.8057617E2,1.3553516E3,1.9097983E3,1.6404037E4,3.0975044E3,2.4914586E4,2.2386945E4,2.4749902E2,1.4657507E2,1.0379297E3,0E0,1.1005654E3,6.2367883E2,4.301186E3,9.309208E3,2.8238281E1,1.9985504E1,4.8940586E3,3.4853504E4,0E0,5.6360625E3,1.7250977E2,0E0,0E0,0E0,7.652734E1,0E0,1.3847266E2,4.4314514E1,2.0717807E2,5.558336E2,4.087939E3,0E0,8.8062305E2,9.292377E1,0E0,5.1541992E1,0E0,0E0,5.315964E3,0E0,1.211702E4,0E0,0E0,0E0,3.7747577E2,0E0,0E0,0E0,9.86145E1,2.8479736E2,0E0,0E0,0E0,0E0,0E0,0E0,3.359264E2,2.103998E3,0E0,0E0,0E0,0E0,0E0,0E0,2.6574673E2,0E0,7.986036E3,2.3635684E3,0E0,0E0,0E0,0E0,0E0,0E0,0E0,0E0,0E0,0E0,0E0,0E0,6.7493164E1,1.7432422E3,1.7047974E2,1.5988672E2,0E0,0E0,0E0,0E0,0E0,0E0,0E0,0E0],"parents":[2147483647,0,0,1,1,2,2,3,3,4,4,5,5,6,6,7,7,8,8,9,9,10,10,11,11,12,12,13,13,14,14,15,15,17,17,18,18,19,19,20,20,21,21,22,22,23,23,24,24,26,26,27,27,31,31,33,33,34,34,35,35,36,36,37,37,39,39,40,40,42,42,45,45,47,47,51,51,55,55,56,56,63,63,64,64,71,71,73,73,74,74,87,87,88,88,89,89,90,90],"right_children":[2,4,6,8,10,12,14,16,18,20,22,24,26,28,30,32,-1,34,36,38,40,42,44,46,48,-1,50,52,-1,-1,-1,54,-1,56,58,60,62,64,-1,66,68,-1,70,-1,-1,72,-1,74,-1,-1,-1,76,-1,-1,-1,78,80,-1,-1,-1,-1,-1,-1,82,84,-1,-1,-1,-1,-1,-1,86,-1,88,90,-1,-1,-1,-1,-1,-1,-1,-1,-1,-1,-1,-1,92,94,96,98,-1,-1,-1,-1,-1,-1,-1,-1],"split_conditions":[1.185732E6,5E1,5.1E-1,6E0,4.1E-1,1E0,1E0,1E0,1.4E1,5E0,1E0,3.6E-1,3.4E1,6.4E-1,4E0,1E0,-1.113501E0,1E0,4.3E1,1E0,1E0,1.3E1,5.1E1,5E0,1E0,-1.9769577E0,1E1,5.2E-1,-4.906698E-1,-0E0,-1.2789439E0,1E0,-9.853307E-1,8E0,4.3E-1,1E0,4.1E-1,2.6E-1,1.5945526E0,6E0,3.3E-1,-4.9533996E-1,1E0,1.1295365E0,-0E0,1E0,7.2231116E0,4.4E-1,8.237105E0,1.2930667E1,1.8385162E0,3E0,-2.7707512E0,-4.7775726E0,-2.0307999E0,1E0,4.3E1,-0E0,-4.854355E-1,-1.2857659E0,-0E0,1.5043019E0,-6.053032E-1,1E1,1E0,8.642934E-1,4.0823097E0,-0E0,-1.4712048E0,-5.115601E-1,-3.1178331E0,5.1E1,4.741262E0,4E-1,6E1,1.259468E-1,-1.5687679E0,-2.1853297E0,-6.668655E-1,-4.1144085E0,-5.7085115E-1,1.558635E0,-2.1575318E-1,-4.4510984E0,-0E0,-9.39624E-1,4.8293152E-1,6E0,1E1,1.1E1,3.1E1,-5.853221E-1,-2.410115E0,2.7871814E0,-6.8258667E-1,-1.9357073E0,-3.1962332E-1,-5.790195E0,-1.1443558E0],"split_indices":[12,2,1,22,1,4,4,7,21,22,5,1,2,1,21,4,0,3,2,7,19,21,2,21,5,0,22,1,0,0,0,3,0,22,1,3,1,1,0,22,1,0,18,0,0,3,0,1,0,0,0,21,0,0,0,4,2,0,0,0,0,0,0,0,3,0,0,0,0,0,0,2,0,1,2,0,0,0,0,0,0,0,0,0,0,0,0,22,22,22,0,0,0,0,0,0,0,0,0],"split_type":[0,0,0,0,0,0,0,0,0,0,0,0,0,0,0,0,0,0,0,0,0,0,0,0,0,0,0,0,0,0,0,0,0,0,0,0,0,0,0,0,0,0,0,0,0,0,0,0,0,0,0,0,0,0,0,0,0,0,0,0,0,0,0,0,0,0,0,0,0,0,0,0,0,0,0,0,0,0,0,0,0,0,0,0,0,0,0,0,0,0,0,0,0,0,0,0,0,0,0],