{"learner":{"attributes":{"scikit_learn":"{\"_estimator_type\": \"regressor\"}"},"feature_names":[],"feature_types":[],"gradient_booster":{"model":{"gbtree_model_param":{"num_parallel_tree":"1","num_trees":"25"},"iteration_indptr":[0,1,2,3,4,5,6,7,8,9,10,11,12,13,14,15,16,17,18,19,20,21,22,23,24,25],"tree_info":[0,0,0,0,0,0,0,0,0,0,0,0,0,0,0,0,0,0,0,0,0,0,0,0,0],"trees":[{"base_weights":[-1.25502405E1,1.6961418E2,-1.1646443E2,2.8498331E1,6.9067383E0,-1.27831795E2,1.7229872E1,-7.924674E1,2.647316E1,-1.4181464E2,-6.18023E1,-1.4152206E1,-1.2207031E-1,-4.726839E0,-1.4622832E1,4.198059E0,-9.633549E0,-2.505194E1,4.729871E0,3.4798706E0,-1.5935059E1,-3.3268392E0,-0E0,-0E0,-2.3701293E0],"categories":[],"categories_nodes":[],"categories_segments":[],"categories_sizes":[],"default_left":[0,0,0,0,0,0,0,0,0,0,0,0,0,0,0,0,0,0,0,0,0,0,0,0,0],"id":0,"left_children":[1,3,5,-1,7,9,-1,11,-1,13,15,-1,17,-1,-1,19,-1,21,-1,-1,23,-1,-1,-1,-1],"loss_changes":[1.2499038E6,4.470863E5,1.5966688E5,0E0,2.662442E5,2.8071938E4,0E0,4.362214E4,0E0,5.89125E3,2.1377938E4,0E0,6.984659E3,0E0,0E0,3.1131833E3,0E0,8.0995874E2,0E0,0E0,3.6172443E2,0E0,0E0,0E0,0E0],"parents":[2147483647,0,0,1,1,2,2,4,4,5,5,7,7,9,9,10,10,12,12,15,15,17,17,20,20],"right_children":[2,4,6,-1,8,10,-1,12,-1,14,16,-1,18,-1,-1,20,-1,22,-1,-1,24,-1,-1,-1,-1],"split_conditions":[3.1E-1,1E0,8.9E1,2.8498331E1,1E0,7.4E1,1.7229872E1,2.7E-1,2.647316E1,1.7E1,1E0,-1.4152206E1,6.1E1,-4.726839E0,-1.4622832E1,5E0,-9.633549E0,3E-1,4.729871E0,3.4798706E0,4.7E-1,-3.3268392E0,-0E0,-0E0,-2.3701293E0],"split_indices":[1,19,2,0,4,2,0,1,0,21,18,0,2,0,0,22,0,1,0,0,1,0,0,0,0],"split_type":[0,0,0,0,0,0,0,0,0,0,0,0,0,0,0,0,0,0,0,0,0,0,0,0,0],"sum_hessian":[6.4E1,2.3E1,4.1E1,1.3E1,1E1,4E1,1E0,8E0,2E0,3.2E1,8E0,4E0,4E0,2E0,3E1,3E0,5E0,3E0,1E0,1E0,2E0,2E0,1E0,1E0,1E0],"tree_param":{"num_deleted":"0","num_feature":"24","num_nodes":"25","size_leaf_vector":"1"}},{"base_weights":[1.0702246E1,1.8112491E2,-1.0780522E2,2.522804E2,4.8663628E1,-1.20381584E2,1.6368378E1,2.6435917E1,3.3049545E0,-2.807653E1,2.3874952E1,-7.8007517E0,-1.2801054E2,-1.0818778E1,4.062777E1,-4.8186504E1,-1.3210523E1,-6.826111E0,7.6205726E0,-6.5389876E0,-4.3898773E-1,-1.0037873E0,-0E0],"categories":[],"categories_nodes":[],"categories_segments":[],"categories_sizes":[],"default_left":[0,0,0,0,0,0,0,0,0,0,0,0,0,0,0,0,0,0,0,0,0,0,0],"id":1,"left_children":[1,3,5,7,9,11,-1,-1,-1,13,-1,-1,15,-1,17,19,-1,21,-1,-1,-1,-1,-1],"loss_changes":[1.2316742E6,2.2185206E5,1.4240444E5,3.21445E4,1.5362883E5,2.985625E2,0E0,0E0,0E0,4.8765125E4,0E0,0E0,1.88475E3,0E0,9.308647E3,1.624397E3,0E0,6.1730392E1,0E0,0E0,0E0,0E0,0E0],"parents":[2147483647,0,0,1,1,2,2,3,3,4,4,5,5,9,9,12,12,14,14,15,15,17,17],"right_children":[2,4,6,8,10,12,-1,-1,-1,14,-1,-1,16,-1,18,20,-1,22,-1,-1,-1,-1,-1],"split_conditions":[3.1E-1,1E0,9E1,1E0,1E0,1.7E1,1.6368378E1,2.6435917E1,3.3049545E0,2.5E-1,2.3874952E1,-7.8007517E0,3.3E-1,-1.0818778E1,6.1E1,3.2E-1,-1.3210523E1,2.9E-1,7.6205726E0,-6.5389876E0,-4.3898773E-1,-1.0037873E0,-0E0],"split_indices":[1,19,2,7,4,21,0,0,0,1,0,0,1,0,2,1,0,1,0,0,0,0,0],"split_type":[0,0,0,0,0,0,0,0,0,0,0,0,0,0,0,0,0,0,0,0,0,0,0],"sum_hessian":[5.9E1,2.4E1,3.5E1,1.5E1,9E0,3.4E1,1E0,1.4E1,1E0,7E0,2E0,7E0,2.7E1,3E0,4E0,2E0,2.5E1,2E0,2E0,1E0,1E0,1E0,1E0],"tree_param":{"num_deleted":"0","num_feature":"24","num_nodes":"23","size_leaf_vector":"1"}},{"base_weights":[1.0215417E1,1.5801534E2,-7.859492E1,2.4454532E2,5.0689915E1,-1.01994606E2,2.4233278E1,2.5927457E2,3.1397064E0,-3.105211E1,2.23187E1,-7.161295E1,-1.1847774E2,2.696938E1,6.983159E0,-1.0007369E1,1.930429E1,-8.8781654E1,3.0711996E1,-7.4225693E0,-1.2943578E1,-2.3137573E1,7.1125345E0,1.1215378E0,-9.772108E1,3.9664032E0,3.9039612E-1,-3.0715902E0,-0E0,-2.0893838E0,-1.0933568E1],"categories":[],"categories_nodes":[],"categories_segments":[],"categories_sizes":[],"default_left":[0,0,0,0,0,0,0,0,0,0,0,0,0,0,0,0,0,0,0,0,0,0,0,0,0,0,0,0,0,0,0],"id":2,"left_children":[1,3,5,7,9,11,-1,13,-1,15,-1,17,19,-1,-1,-1,21,23,25,-1,-1,27,-1,-1,29,-1,-1,-1,-1,-1,-1],"loss_changes":[8.397644E5,2.0901262E5,3.243993E5,3.1219938E4,1.7709423E5,9.5948125E3,0E0,3.155375E3,0E0,3.36168E4,0E0,3.112561E4,5.2728125E2,0E0,0E0,0E0,1.50819E4,1.40433125E4,3.4727295E2,0E0,0E0,6.890105E2,0E0,0E0,8.664539E3,0E0,0E0,0E0,0E0,0E0,0E0],"parents":[2147483647,0,0,1,1,2,2,3,3,4,4,5,5,7,7,9,9,11,11,12,12,16,16,17,17,18,18,21,21,24,24],"right_children":[2,4,6,8,10,12,-1,14,-1,16,-1,18,20,-1,-1,-1,22,24,26,-1,-1,28,-1,-1,30,-1,-1,-1,-1,-1,-1],"split_conditions":[3.1E-1,1E0,9E1,1E0,1E0,1E0,2.4233278E1,1.8E1,3.1397064E0,2.5E-1,2.23187E1,6.5E1,1.7E1,2.696938E1,6.983159E0,-1.0007369E1,6.1E1,1E0,7.7E1,-7.4225693E0,-1.2943578E1,3E-1,7.1125345E0,1.1215378E0,3.3E-1,3.9664032E0,3.9039612E-1,-3.0715902E0,-0E0,-2.0893838E0,-1.0933568E1],"split_indices":[1,19,2,7,4,18,0,21,0,1,0,2,21,0,0,0,2,19,2,0,0,1,0,0,1,0,0,0,0,0,0],"split_type":[0,0,0,0,0,0,0,0,0,0,0,0,0,0,0,0,0,0,0,0,0,0,0,0,0,0,0,0,0,0,0],"sum_hessian":[6.2E1,2.3E1,3.9E1,1.2E1,1.1E1,3.7E1,2E0,1.1E1,1E0,8E0,3E0,1.5E1,2.2E1,1E1,1E0,3E0,5E0,1.3E1,2E0,6E0,1.6E1,3E0,2E0,1E0,1.2E1,1E0,1E0,2E0,1E0,2E0,1E1],"tree_param":{"num_deleted":"0","num_feature":"24","num_nodes":"31","size_leaf_vector":"1"}},{"base_weights":[3.0906358E0,1.4428824E2,-7.709188E1,-1.2115084E2,1.8621861E2,-9.703749E1,2.2617727E1,-1.3819974E1,-3.2502077E0,3.7107826E1,2.1701501E2,-1.1021074E2,-4.9439186E1,1.1846252E1,-5.4949484E0,2.3509259E2,4.6596284E0,-3.7764606E0,-1.13615E1,-7.447774E0,1.1747711E1,2.5862347E2,9.859414E0,2.9259735E1,-1.7894181E0,2.8590237E2,1.2452034E1,3.7680833E0,3.708771E-1,1.335968E2,3.3137662E2,1.851292E1,-8.000183E-1,8.596532E0,3.571176E1],"categories":[],"categories_nodes":[],"categories_segments":[],"categories_sizes":[],"default_left":[0,0,0,0,0,0,0,0,0,0,0,0,0,0,0,0,0,0,0,0,0,0,0,0,0,0,0,0,0,0,0,0,0,0,0],"id":3,"left_children":[1,3,5,7,9,11,-1,-1,-1,13,15,17,19,-1,-1,21,-1,-1,-1,-1,23,25,-1,27,-1,29,-1,-1,-1,31,33,-1,-1,-1,-1],"loss_changes":[7.813269E5,3.0113488E5,2.87453E5,7.0016406E2,9.170206E4,2.0088031E4,0E0,0E0,0E0,4.4273492E4,4.309075E4,2.8444688E3,1.804094E4,0E0,0E0,2.4106062E4,0E0,0E0,0E0,0E0,2.6567646E3,9.903625E3,0E0,2.9880396E2,0E0,2.2664125E4,0E0,0E0,0E0,3.1554031E4,1.130475E4,0E0,0E0,0E0,0E0],"parents":[2147483647,0,0,1,1,2,2,3,3,4,4,5,5,9,9,10,10,11,11,12,12,15,15,20,20,21,21,23,23,25,25,29,29,30,30],"right_children":[2,4,6,8,10,12,-1,-1,-1,14,16,18,20,-1,-1,22,-1,-1,-1,-1,24,26,-1,28,-1,30,-1,-1,-1,32,34,-1,-1,-1,-1],"split_conditions":[3.1E-1,5.5E1,9E1,2.7E-1,2.5E-1,7.4E1,2.2617727E1,-1.3819974E1,-3.2502077E0,2.2E-1,1E0,1.7E1,4.5E-1,1.1846252E1,-5.4949484E0,1.8E1,4.6596284E0,-3.7764606E0,-1.13615E1,-7.447774E0,4.7E-1,1E0,9.859414E0,7.7E1,-1.7894181E0,6.1E1,1.2452034E1,3.7680833E0,3.708771E-1,1E0,5E0,1.851292E1,-8.000183E-1,8.596532E0,3.571176E1],"split_indices":[1,2,2,1,1,2,0,0,0,1,7,21,1,0,0,21,0,0,0,0,1,6,0,2,0,2,0,0,0,19,22,0,0,0,0],"split_type":[0,0,0,0,0,0,0,0,0,0,0,0,0,0,0,0,0,0,0,0,0,0,0,0,0,0,0,0,0,0,0,0,0,0,0],"sum_hessian":[6.7E1,2.4E1,4.3E1,3E0,2.1E1,4.1E1,2E0,2E0,1E0,4E0,1.7E1,3.1E1,1E1,2E0,2E0,1.5E1,2E0,2E0,2.9E1,7E0,3E0,1.2E1,3E0,2E0,1E0,9E0,3E0,1E0,1E0,3E0,6E0,2E0,1E0,1E0,5E0],"tree_param":{"num_deleted":"0","num_feature":"24","num_nodes":"35","size_leaf_vector":"1"}},{"base_weights":[-1.6203133E1,1.0620384E2,-7.713988E1,-1.134283E2,1.4938855E2,-8.8024956E1,1.8207409E1,-1.2898643E1,-3.0876968E0,9.278514E1,2.4629786E1,-1.0203747E1,-4.9610508E1,1.604954E2,-1.2126073E1,-0E0,-7.161255E0,1.7187367E2,3.7923768E0,-3.738271E1,5.457855E0,-2.8021293E0,2.7880075E1,9.00111E0,2.0951782E1,-5.1286197E0,-9.351654E-1,3.5796783E0,3.5233307E-1],"categories":[],"categories_nodes":[],"categories_segments":[],"categories_sizes":[],"default_left":[0,0,0,0,0,0,0,0,0,0,0,0,0,0,0,0,0,0,0,0,0,0,0,0,0,0,0,0,0],"id":4,"left_children":[1,3,5,7,9,11,-1,-1,-1,13,-1,-1,15,17,19,21,-1,23,-1,25,-1,-1,27,-1,-1,-1,-1,-1,-1],"loss_changes":[4.7051038E5,2.1630444E5,1.3406245E5,3.5534766E2,7.418894E4,1.6249219E4,0E0,0E0,0E0,9.503438E4,0E0,0E0,1.4159586E4,3.5901406E3,1.2062721E4,4.6874746E3,0E0,1.2149531E3,0E0,1.1658467E3,0E0,0E0,2.5575098E2,0E0,0E0,0E0,0E0,0E0,0E0],"parents":[2147483647,0,0,1,1,2,2,3,3,4,4,5,5,9,9,12,12,13,13,14,14,15,15,17,17,19,19,22,22],"right_children":[2,4,6,8,10,12,-1,-1,-1,14,-1,-1,16,18,20,22,-1,24,-1,26,-1,-1,28,-1,-1,-1,-1,-1,-1],"split_conditions":[3.1E-1,5.5E1,9E1,2.7E-1,1E0,6.8E1,1.8207409E1,-1.2898643E1,-3.0876968E0,1E0,2.4629786E1,-1.0203747E1,1E0,1.1E1,1.8E1,7.5E1,-7.161255E0,8.2E1,3.7923768E0,2.5E-1,5.457855E0,-2.8021293E0,7.7E1,9.00111E0,2.0951782E1,-5.1286197E0,-9.351654E-1,3.5796783E0,3.5233307E-1],"split_indices":[1,2,2,1,4,2,0,0,0,19,0,0,18,22,21,2,0,2,0,1,0,0,2,0,0,0,0,0,0],"split_type":[0,0,0,0,0,0,0,0,0,0,0,0,0,0,0,0,0,0,0,0,0,0,0,0,0,0,0,0,0],"sum_hessian":[6.1E1,2E1,4.1E1,3E0,1.7E1,4E1,1E0,2E0,1E0,1.2E1,5E0,2.8E1,1.2E1,7E0,5E0,4E0,8E0,6E0,1E0,4E0,1E0,2E0,2E0,3E0,3E0,2E0,2E0,1E0,1E0],"tree_param":{"num_deleted":"0","num_feature":"24","num_nodes":"29","size_leaf_vector":"1"}},{"base_weights":[-1.5248263E1,1.01174225E2,-7.044354E1,1.7546565E2,8.836235E0,-7.828218E1,1.2297038E1,2.6115005E1,1.1006525E2,-8.057674E1,5.938133E1,-5.6074383E1,-9.300679E1,1.3207596E1,5.3785563E0,-2.0900338E0,-9.183543E0,-2.3528555E1,9.825099E0,-9.2342125E1,-2.0848557E1,-4.763763E0,-9.978779E0,-2.9333115E0,-3.4597167E-1,-1.0170547E1,-3.8046956E0,-3.4893593E1,2.6569407E1,2.1437232E0,-4.52396E1,3.4006944E0,3.347168E-1,-5.317581E1,2.6569366E-1,-6.317949E0,-1.7111084E0],"categories":[],"categories_nodes":[],"categories_segments":[],"categories_sizes":[],"default_left":[0,0,0,0,0,0,0,0,0,0,0,0,0,0,0,0,0,0,0,0,0,0,0,0,0,0,0,0,0,0,0,0,0,0,0,0,0],"id":5,"left_children":[1,3,5,7,9,11,-1,-1,13,15,17,19,21,-1,-1,-1,-1,23,-1,25,27,-1,-1,-1,-1,-1,-1,29,31,-1,33,-1,-1,35,-1,-1,-1],"loss_changes":[3.9895766E5,1.3472645E5,7.3079266E4,3.1042125E4,4.987265E4,7.4463438E3,0E0,0E0,1.8769609E3,2.044414E2,2.524407E4,2.178252E4,1.585125E3,0E0,0E0,0E0,0E0,8.4023926E1,0E0,7.109375E0,8.29458E3,0E0,0E0,0E0,0E0,0E0,0E0,6.3340156E3,2.1755127E2,0E0,3.4348174E3,0E0,0E0,1.0429355E3,0E0,0E0,0E0],"parents":[2147483647,0,0,1,1,2,2,3,3,4,4,5,5,8,8,9,9,10,10,11,11,12,12,17,17,19,19,20,20,27,27,28,28,30,30,33,33],"right_children":[2,4,6,8,10,12,-1,-1,14,16,18,20,22,-1,-1,-1,-1,24,-1,26,28,-1,-1,-1,-1,-1,-1,30,32,-1,34,-1,-1,36,-1,-1,-1],"split_conditions":[3.1E-1,1E0,9E1,1.7E1,2.5E-1,1E0,1.2297038E1,2.6115005E1,6.6E1,1.7E1,5.7E1,4.6E1,1.7E1,1.3207596E1,5.3785563E0,-2.0900338E0,-9.183543E0,3E-1,9.825099E0,1.1E1,7.4E1,-4.763763E0,-9.978779E0,-2.9333115E0,-3.4597167E-1,-1.0170547E1,-3.8046956E0,1E0,7.7E1,2.1437232E0,1E0,3.4006944E0,3.347168E-1,1E0,2.6569366E-1,-6.317949E0,-1.7111084E0],"split_indices":[1,19,2,21,1,18,0,0,2,21,2,2,21,0,0,0,0,1,0,22,2,0,0,0,0,0,0,19,2,0,4,0,0,7,0,0,0],"split_type":[0,0,0,0,0,0,0,0,0,0,0,0,0,0,0,0,0,0,0,0,0,0,0,0,0,0,0,0,0,0,0,0,0,0,0,0,0],"sum_hessian":[6E1,1.9E1,4.1E1,1E1,9E0,4E1,1E0,3E0,7E0,3E0,6E0,1.8E1,2.2E1,4E0,3E0,1E0,2E0,2E0,4E0,8E0,1E1,4E0,1.8E1,1E0,1E0,6E0,2E0,8E0,2E0,1E0,7E0,1E0,1E0,6E0,1E0,4E0,2E0],"tree_param":{"num_deleted":"0","num_feature":"24","num_nodes":"37","size_leaf_vector":"1"}},{"base_weights":[-8.315331E0,9.028366E1,-5.4098225E1,-1.0244451E2,1.3061478E2,-7.0817345E1,1.907625E1,-1.1634838E1,-2.7866457E0,-0E0,1.7074112E2,-7.9051346E1,-4.071996E1,4.438148E0,-4.410926E0,1.8182071E2,1.6393036E0,-8.345679E1,-3.8451683E1,9.093826E0,-6.1161858E1,2.1622036E1,8.941713E0,-9.2660995E1,-4.9389168E1,-1.17966466E-1,-4.622477E0,2.532427E1,-1.7298752E0,-6.544599E0,-1.3086456E0,-9.923633E0,-4.030058E0,2.5240937E-1,-5.7880215E1,3.2306595E0,3.1798097E-1,-6.667998E0,-4.0824893E-3],"categories":[],"categories_nodes":[],"categories_segments":[],"categories_sizes":[],"default_left":[0,0,0,0,0,0,0,0,0,0,0,0,0,0,0,0,0,0,0,0,0,0,0,0,0,0,0,0,0,0,0,0,0,0,0,0,0,0,0],"id":6,"left_children":[1,3,5,7,9,11,-1,-1,-1,13,15,17,19,-1,-1,21,-1,23,25,27,29,-1,-1,31,33,-1,-1,35,-1,-1,-1,-1,-1,-1,37,-1,-1,-1,-1],"loss_changes":[2.8458038E5,1.6898047E5,1.8894538E5,1.8440234E2,8.8959125E4,6.342875E3,0E0,0E0,0E0,1.1746027E4,1.8259844E4,1.7260312E3,1.2017707E4,0E0,0E0,1.7281812E4,0E0,3.1795781E3,1.157041E3,2.191659E3,3.9857227E2,0E0,0E0,2.1887656E3,3.9492617E3,0E0,0E0,1.8369861E2,0E0,0E0,0E0,0E0,0E0,0E0,3.2264805E3,0E0,0E0,0E0,0E0],"parents":[2147483647,0,0,1,1,2,2,3,3,4,4,5,5,9,9,10,10,11,11,12,12,15,15,17,17,18,18,19,19,20,20,23,23,24,24,27,27,34,34],"right_children":[2,4,6,8,10,12,-1,-1,-1,14,16,18,20,-1,-1,22,-1,24,26,28,30,-1,-1,32,34,-1,-1,36,-1,-1,-1,-1,-1,-1,38,-1,-1,-1,-1],"split_conditions":[3.1E-1,5.5E1,9E1,2.7E-1,2.5E-1,7.4E1,1.907625E1,-1.1634838E1,-2.7866457E0,2.2E-1,1E0,1E0,1E0,4.438148E0,-4.410926E0,1.8E1,1.6393036E0,1E0,3.4E-1,4.7E-1,1E0,2.1622036E1,8.941713E0,1.1E1,3.3E-1,-1.17966466E-1,-4.622477E0,7.7E1,-1.7298752E0,-6.544599E0,-1.3086456E0,-9.923633E0,-4.030058E0,2.5240937E-1,4.5E-1,3.2306595E0,3.1798097E-1,-6.667998E0,-4.0824893E-3],"split_indices":[1,2,2,1,1,2,0,0,0,1,7,7,18,0,0,21,0,4,1,1,3,0,0,22,1,0,0,2,0,0,0,0,0,0,1,0,0,0,0],"split_type":[0,0,0,0,0,0,0,0,0,0,0,0,0,0,0,0,0,0,0,0,0,0,0,0,0,0,0,0,0,0,0,0,0,0,0,0,0,0,0],"sum_hessian":[6.1E1,1.9E1,4.2E1,3E0,1.6E1,4E1,2E0,2E0,1E0,4E0,1.2E1,3E1,1E1,2E0,2E0,1.1E1,1E0,2.6E1,4E0,3E0,7E0,7E0,4E0,1.9E1,7E0,1E0,3E0,2E0,1E0,6E0,1E0,1.6E1,3E0,1E0,6E0,1E0,1E0,5E0,1E0],"tree_param":{"num_deleted":"0","num_feature":"24","num_nodes":"39","size_leaf_vector":"1"}},{"base_weights":[-8.1593347E-1,9.314939E1,-6.096556E1,-8.338344E1,1.3496596E2,-4.0423508E1,-7.695458E1,-1.0859182E1,-2.871392E0,1.4045592E2,1.557338E0,-5.0315456E1,2.4141388E1,-4.7651405E0,-8.642901E0,5.5268154E1,1.5347559E2,2.5327187E0,-5.738011E1,3.0691268E0,3.0208132E-1,8.712412E0,-1.7649864E0,1.7143773E2,8.226376E0,-1.8474478E0,-6.539687E1,1.894469E2,5.859767E0,-7.6690596E-1,2.3978882E-1,-7.433455E1,-2.545346E1,6.828217E1,2.1359651E2,-7.838643E0,-1.6433808E0,-1.12068176E-1,-3.152416E0,1.2777944E1,-2.285617E0,5.362859E0,2.304864E1],"categories":[],"categories_nodes":[],"categories_segments":[],"categories_sizes":[],"default_left":[0,0,0,0,0,0,0,0,0,0,0,0,0,0,0,0,0,0,0,0,0,0,0,0,0,0,0,0,0,0,0,0,0,0,0,0,0,0,0,0,0,0,0],"id":7,"left_children":[1,3,5,7,9,11,13,-1,-1,15,-1,17,19,-1,-1,21,23,-1,25,-1,-1,-1,-1,27,-1,29,31,33,-1,-1,-1,35,37,39,41,-1,-1,-1,-1,-1,-1,-1,-1],"loss_changes":[3.3333275E5,1.812978E5,8.126453E3,3.0860273E3,9.486219E3,1.2841662E4,4.8610938E2,0E0,0E0,1.0438094E4,0E0,1.016377E4,1.5373877E2,0E0,0E0,1.1176594E4,3.815125E3,0E0,6.2208438E3,0E0,0E0,0E0,0E0,1.00123125E4,0E0,1.188895E2,2.2500078E3,1.0340531E4,0E0,0E0,0E0,5.8377734E2,3.9231543E2,1.971261E4,5.1316562E3,0E0,0E0,0E0,0E0,0E0,0E0,0E0,0E0],"parents":[2147483647,0,0,1,1,2,2,3,3,4,4,5,5,6,6,9,9,11,11,12,12,15,15,16,16,18,18,23,23,25,25,26,26,27,27,31,31,32,32,33,33,34,34],"right_children":[2,4,6,8,10,12,14,-1,-1,16,-1,18,20,-1,-1,22,24,-1,26,-1,-1,-1,-1,28,-1,30,32,34,-1,-1,-1,36,38,40,42,-1,-1,-1,-1,-1,-1,-1,-1],"split_conditions":[3.1E-1,5.7E1,1E0,2.7E-1,1E0,7.5E1,1.7E1,-1.0859182E1,-2.871392E0,2.5E-1,1.557338E0,1E0,7.7E1,-4.7651405E0,-8.642901E0,2.2E-1,1.8E1,2.5327187E0,3.3E-1,3.0691268E0,3.0208132E-1,8.712412E0,-1.7649864E0,1E0,8.226376E0,4.7E1,1E0,6.1E1,5.859767E0,-7.6690596E-1,2.3978882E-1,6.5E1,3.4E-1,2.7E-1,5E0,-7.838643E0,-1.6433808E0,-1.12068176E-1,-3.152416E0,1.2777944E1,-2.285617E0,5.362859E0,2.304864E1],"split_indices":[1,2,18,1,7,2,21,0,0,1,0,19,2,0,0,1,21,0,1,0,0,0,0,6,0,2,7,2,0,0,0,2,1,1,22,0,0,0,0,0,0,0,0],"split_type":[0,0,0,0,0,0,0,0,0,0,0,0,0,0,0,0,0,0,0,0,0,0,0,0,0,0,0,0,0,0,0,0,0,0,0,0,0,0,0,0,0,0,0],"sum_hessian":[5.7E1,2.2E1,3.5E1,4E0,1.8E1,1.7E1,1.8E1,2E0,2E0,1.7E1,1E0,1.5E1,2E0,6E0,1.2E1,3E0,1.4E1,1E0,1.4E1,1E0,1E0,2E0,1E0,1E1,4E0,2E0,1.2E1,8E0,2E0,1E0,1E0,9E0,3E0,2E0,6E0,8E0,1E0,1E0,2E0,1E0,1E0,1E0,5E0],"tree_param":{"num_deleted":"0","num_feature":"24","num_nodes":"43","size_leaf_vector":"1"}},{"base_weights":[-0E0,8.564628E1,-5.0212467E1,1.3480426E2,1.4841016E1,-5.9449417E1,1.5713269E1,1.4383339E2,5.2086325E0,-3.0081825E1,1.4632921E1,-6.792269E1,-3.360154E1,1.5894417E2,7.262576E1,-5.8170948E1,3.0236602E0,-7.5337036E1,-3.8417908E1,8.207176E0,-4.900524E1,7.5618396E0,1.8717068E1,1.669014E0,8.404093E0,-6.513266E0,-1.2662048E0,-3.999199E0,4.669809E0,-8.002901E0,-3.2965925E0,2.278E-1,-4.5271324E1,2.3017649E1,-1.5612122E0,-5.199351E0,-1.0049568E0,-5.341077E0,-0E0,2.9156709E0,2.8697664E-1],"categories":[],"categories_nodes":[],"categories_segments":[],"categories_sizes":[],"default_left":[0,0,0,0,0,0,0,0,0,0,0,0,0,0,0,0,0,0,0,0,0,0,0,0,0,0,0,0,0,0,0,0,0,0,0,0,0,0,0,0,0],"id":8,"left_children":[1,3,5,7,9,11,-1,13,-1,15,-1,17,19,21,23,25,27,29,31,33,35,-1,-1,-1,-1,-1,-1,-1,-1,-1,-1,-1,37,39,-1,-1,-1,-1,-1,-1,-1],"loss_changes":[2.7941984E5,8.078658E4,8.7377695E4,1.9848281E3,6.995814E4,5.9707344E3,0E0,2.1075E2,0E0,8.820762E3,0E0,2.8809375E3,8.334293E3,5.700453E3,6.477461E2,3.704121E2,1.12945E4,1.1704922E3,2.5493418E3,1.8074822E3,2.1496289E2,0E0,0E0,0E0,0E0,0E0,0E0,0E0,0E0,0E0,0E0,0E0,2.7698115E3,1.2726172E2,0E0,0E0,0E0,0E0,0E0,0E0,0E0],"parents":[2147483647,0,0,1,1,2,2,3,3,4,4,5,5,7,7,9,9,11,11,12,12,13,13,14,14,15,15,16,16,17,17,18,18,19,19,20,20,32,32,33,33],"right_children":[2,4,6,8,10,12,-1,14,-1,16,-1,18,20,22,24,26,28,30,32,34,36,-1,-1,-1,-1,-1,-1,-1,-1,-1,-1,-1,38,40,-1,-1,-1,-1,-1,-1,-1],"split_conditions":[3.1E-1,1E0,9E1,1.8E1,1E0,6.8E1,1.5713269E1,1E0,5.2086325E0,6.1E1,1.4632921E1,1E0,1E0,2.2E-1,8.2E1,3E-1,2.5E-1,1.1E1,3.3E-1,4.7E-1,1E0,7.5618396E0,1.8717068E1,1.669014E0,8.404093E0,-6.513266E0,-1.2662048E0,-3.999199E0,4.669809E0,-8.002901E0,-3.2965925E0,2.278E-1,4.5E-1,7.7E1,-1.5612122E0,-5.199351E0,-1.0049568E0,-5.341077E0,-0E0,2.9156709E0,2.8697664E-1],"split_indices":[1,19,2,21,4,2,0,6,0,2,0,4,18,1,2,1,1,22,1,1,3,0,0,0,0,0,0,0,0,0,0,0,1,2,0,0,0,0,0,0,0],"split_type":[0,0,0,0,0,0,0,0,0,0,0,0,0,0,0,0,0,0,0,0,0,0,0,0,0,0,0,0,0,0,0,0,0,0,0,0,0,0,0,0,0],"sum_hessian":[6.3E1,2.3E1,4E1,1.3E1,1E1,3.9E1,1E0,1.1E1,2E0,8E0,2E0,2.8E1,1.1E1,8E0,3E0,4E0,4E0,2.1E1,7E0,3E0,8E0,3E0,5E0,1E0,2E0,3E0,1E0,2E0,2E0,1.8E1,3E0,1E0,6E0,2E0,1E0,7E0,1E0,5E0,1E0,1E0,1E0],"tree_param":{"num_deleted":"0","num_feature":"24","num_nodes":"41","size_leaf_vector":"1"}},{"base_weights":[6.219252E0,8.7247345E1,-4.159781E1,1.4306932E2,-0E0,-5.7551857E1,1.6736809E1,3.0573232E0,1.5885422E2,-3.983645E1,4.8547443E1,-6.677255E1,-3.5008076E1,1.7185258E2,5.4361725E-1,-6.687334E1,7.82489E0,-1.2028946E0,6.7948775E0,-7.257521E1,-2.8046885E0,6.289444E0,-4.8526278E0,2.0166907E2,6.800647E1,-1.4767777E0,-7.76526E0,3.6018128E0,-2.1780794E0,-9.045657E0,-5.68162E1,-1.7846253E0,2.1950094E1,2.1858818E1,3.9117615E0,1.5855637E0,7.84382E0,-6.2092084E-1,-6.571367E0,2.7698867E0,2.7262726E-1,2.806228E0,-3.1493661E0],"categories":[],"categories_nodes":[],"categories_segments":[],"categories_sizes":[],"default_left":[0,0,0,0,0,0,0,0,0,0,0,0,0,0,0,0,0,0,0,0,0,0,0,0,0,0,0,0,0,0,0,0,0,0,0,0,0,0,0,0,0,0,0],"id":9,"left_children":[1,3,5,7,9,11,-1,-1,13,15,17,19,21,23,-1,25,27,-1,-1,29,-1,31,-1,33,35,-1,-1,-1,-1,-1,37,-1,39,-1,-1,-1,-1,41,-1,-1,-1,-1,-1],"loss_changes":[2.402036E5,1.1148531E5,1.3910352E5,1.9056531E4,2.1305926E4,4.8446797E3,0E0,0E0,2.21095E4,8.550206E3,6.9732637E3,3.0791797E3,7.773873E3,1.8996438E4,0E0,6.377793E2,3.3597302E3,0E0,0E0,4.1875E1,0E0,1.9241688E3,0E0,1.2162625E4,4.609375E2,0E0,0E0,0E0,0E0,0E0,6.6274688E3,0E0,1.038999E2,0E0,0E0,0E0,0E0,3.5575276E3,0E0,0E0,0E0,0E0,0E0],"parents":[2147483647,0,0,1,1,2,2,3,3,4,4,5,5,8,8,9,9,10,10,11,11,12,12,13,13,15,15,16,16,19,19,21,21,23,23,24,24,30,30,32,32,37,37],"right_children":[2,4,6,8,10,12,-1,-1,14,16,18,20,22,24,-1,26,28,-1,-1,30,-1,32,-1,34,36,-1,-1,-1,-1,-1,38,-1,40,-1,-1,-1,-1,42,-1,-1,-1,-1,-1],"split_conditions":[3.1E-1,1E0,9E1,2.2E-1,3E-1,6.8E1,1.6736809E1,3.0573232E0,1E0,1E0,5.7E1,1.1E1,1E0,1E0,5.4361725E-1,1.7E1,2.7E-1,-1.2028946E0,6.7948775E0,5.3E1,-2.8046885E0,3.5E-1,-4.8526278E0,1.8E1,8.2E1,-1.4767777E0,-7.76526E0,3.6018128E0,-2.1780794E0,-9.045657E0,5.7E1,-1.7846253E0,7.7E1,2.1858818E1,3.9117615E0,1.5855637E0,7.84382E0,4.7E-1,-6.571367E0,2.7698867E0,2.7262726E-1,2.806228E0,-3.1493661E0],"split_indices":[1,19,2,1,1,2,0,0,7,3,2,22,18,6,0,21,1,0,0,2,0,1,0,21,2,0,0,0,0,0,2,0,2,0,0,0,0,1,0,0,0,0,0],"split_type":[0,0,0,0,0,0,0,0,0,0,0,0,0,0,0,0,0,0,0,0,0,0,0,0,0,0,0,0,0,0,0,0,0,0,0,0,0,0,0,0,0,0,0],"sum_hessian":[6E1,2.2E1,3.8E1,1.3E1,9E0,3.6E1,2E0,2E0,1.1E1,5E0,4E0,2.4E1,1.2E1,1E1,1E0,3E0,2E0,1E0,3E0,2E1,4E0,3E0,9E0,7E0,3E0,1E0,2E0,1E0,1E0,7E0,1.3E1,1E0,2E0,6E0,1E0,1E0,2E0,2E0,1.1E1,1E0,1E0,1E0,1E0],"tree_param":{"num_deleted":"0","num_feature":"24","num_nodes":"43","size_leaf_vector":"1"}},{"base_weights":[4.5679526E0,-1.3536013E1,1.856796E1,6.103624E1,-4.9704525E1,-7.583877E1,8.994588E1,-5.573474E1,-2.4937384E1,-9.183335E0,-1.1427506E0,-1.5009338E1,1.1386552E2,-6.170317E1,-3.3070625E1,2.631392E0,-3.4111298E1,1.884909E0,-3.4245179E0,1.2723875E2,2.0750754E0,-6.7416167E0,-3.249483E1,6.6869205E-1,-3.9501183E1,-7.4176636E0,-3.99641E1,1.4892398E2,6.6094613E0,-1.3693237E-1,-4.7389545E0,-4.6592307E0,2.568352E-1,2.5899658E-1,-1.6216462E0,-4.341786E0,-7.120773E-1,4.0233245E0,1.5798935E1,-4.2349702E-1,1.5295716E-1],"categories":[],"categories_nodes":[],"categories_segments":[],"categories_sizes":[],"default_left":[0,0,0,0,0,0,0,0,0,0,0,0,0,0,0,0,0,0,0,0,0,0,0,0,0,0,0,0,0,0,0,0,0,0,0,0,0,0,0,0,0],"id":10,"left_children":[1,3,-1,5,7,9,11,13,15,-1,-1,17,19,21,23,-1,25,-1,-1,27,-1,-1,29,-1,31,33,35,37,-1,39,-1,-1,-1,-1,-1,-1,-1,-1,-1,-1,-1],"loss_changes":[2.1649864E5,1.6480717E5,0E0,8.603205E4,4.330164E3,2.5551953E3,4.4881688E4,1.8141875E3,5.638339E3,0E0,0E0,3.3276519E3,1.4053172E4,1.3145859E3,2.7291807E3,0E0,8.7274414E2,0E0,0E0,4.9929375E3,0E0,0E0,2.647649E3,0E0,2.7263486E3,3.7429785E2,2.3216797E2,5.350156E2,0E0,4.0492867E1,0E0,0E0,0E0,0E0,0E0,0E0,0E0,0E0,0E0,0E0,0E0],"parents":[2147483647,0,0,1,1,3,3,4,4,5,5,6,6,7,7,8,8,11,11,12,12,13,13,14,14,16,16,19,19,22,22,24,24,25,25,26,26,27,27,29,29],"right_children":[2,4,-1,6,8,10,12,14,16,-1,-1,18,20,22,24,-1,26,-1,-1,28,-1,-1,30,-1,32,34,36,38,-1,40,-1,-1,-1,-1,-1,-1,-1,-1,-1,-1,-1],"split_conditions":[9E1,3.1E-1,1.856796E1,5.7E1,7.4E1,2.7E-1,2.5E-1,1E0,5E0,-9.183335E0,-1.1427506E0,2.2E-1,1E0,1E0,3.3E-1,2.631392E0,1E0,1.884909E0,-3.4245179E0,1.8E1,2.0750754E0,-6.7416167E0,1.8E1,6.6869205E-1,4.5E-1,4.7E-1,1E0,5E0,6.6094613E0,3.3E-1,-4.7389545E0,-4.6592307E0,2.568352E-1,2.5899658E-1,-1.6216462E0,-4.341786E0,-7.120773E-1,4.0233245E0,1.5798935E1,-4.2349702E-1,1.5295716E-1],"split_indices":[2,1,0,2,2,1,1,4,22,0,0,1,7,3,1,0,18,0,0,21,0,0,21,0,1,1,3,22,0,1,0,0,0,0,0,0,0,0,0,0,0],"split_type":[0,0,0,0,0,0,0,0,0,0,0,0,0,0,0,0,0,0,0,0,0,0,0,0,0,0,0,0,0,0,0,0,0,0,0,0,0,0,0,0,0],"sum_hessian":[6.4E1,5.9E1,5E0,1.9E1,4E1,3E0,1.6E1,3.1E1,9E0,2E0,1E0,3E0,1.3E1,2.3E1,8E0,1E0,8E0,1E0,2E0,1.1E1,2E0,1.8E1,5E0,1E0,7E0,2E0,6E0,7E0,4E0,2E0,3E0,6E0,1E0,1E0,1E0,5E0,1E0,1E0,6E0,1E0,1E0],"tree_param":{"num_deleted":"0","num_feature":"24","num_nodes":"41","size_leaf_vector":"1"}},{"base_weights":[9.9474125E0,8.141126E1,-3.2005756E1,-7.559354E0,1.07678314E2,-4.483925E1,1.4383156E1,7.319031E1,1.5394753E2,-2.6052757E1,-5.655799E1,1.00145676E2,-1.7984524E1,1.7701399E2,5.483207E0,2.332696E1,-3.4525185E1,-6.273762E1,-2.7759424E1,1.2553741E1,4.3568104E1,-4.0595517E0,2.2424226E0,3.8221588E0,1.9612816E1,3.0029976E0,2.4604645E-1,2.2567205E0,-4.5429184E1,-6.830482E0,-3.360195E1,-3.7467937E0,-1.2288185E1,9.193482E-1,6.175336E0,-5.249254E1,-1.5163502E1,-4.447241E0,2.4399339E-1,1.4530945E-1,-1.9019644E0,-6.032606E0,-2.4410732E0,4.5932922E-1,-2.4946864E0],"categories":[],"categories_nodes":[],"categories_segments":[],"categories_sizes":[],"default_left":[0,0,0,0,0,0,0,0,0,0,0,0,0,0,0,0,0,0,0,0,0,0,0,0,0,0,0,0,0,0,0,0,0,0,0,0,0,0,0,0,0,0,0,0,0],"id":11,"left_children":[1,3,5,-1,7,9,-1,11,13,15,17,19,21,23,-1,25,27,29,31,-1,33,-1,-1,-1,-1,-1,-1,-1,35,-1,37,-1,39,-1,-1,41,43,-1,-1,-1,-1,-1,-1,-1,-1],"loss_changes":[1.947333E5,1.0727747E5,9.847523E4,0E0,2.1107219E4,6.6994688E3,0E0,3.6618992E4,7.4246875E3,7.973581E3,1.8991328E3,9.48768E3,4.655907E3,7.249328E3,0E0,1.8326538E2,1.0477551E4,1.1496875E2,1.9202246E2,0E0,2.2030938E3,0E0,0E0,0E0,0E0,0E0,0E0,0E0,1.6448535E3,0E0,2.2776309E3,0E0,4.854655E2,0E0,0E0,3.0350586E2,9.895076E2,0E0,0E0,0E0,0E0,0E0,0E0,0E0,0E0],"parents":[2147483647,0,0,1,1,2,2,4,4,5,5,7,7,8,8,9,9,10,10,11,11,12,12,13,13,15,15,16,16,17,17,18,18,20,20,28,28,30,30,32,32,35,35,36,36],"right_children":[2,4,6,-1,8,10,-1,12,14,16,18,20,22,24,-1,26,28,30,32,-1,34,-1,-1,-1,-1,-1,-1,-1,36,-1,38,-1,40,-1,-1,42,44,-1,-1,-1,-1,-1,-1,-1,-1],"split_conditions":[3.1E-1,5.5E1,9E1,-7.559354E0,1E0,1E0,1.4383156E1,1E0,1.8E1,1E0,1E0,2.7E-1,2.9E-1,5E0,5.483207E0,5.7E1,7E0,1E0,6.1E1,1.2553741E1,8.2E1,-4.0595517E0,2.2424226E0,3.8221588E0,1.9612816E1,3.0029976E0,2.4604645E-1,2.2567205E0,6.1E1,-6.830482E0,4.5E-1,-3.7467937E0,6.5E1,9.193482E-1,6.175336E0,1.1E1,6.4E1,-4.447241E0,2.4399339E-1,1.4530945E-1,-1.9019644E0,-6.032606E0,-2.4410732E0,4.5932922E-1,-2.4946864E0],"split_indices":[1,2,2,0,4,18,0,19,21,19,3,1,1,22,0,2,22,4,2,0,2,0,0,0,0,0,0,0,2,0,1,0,2,0,0,22,2,0,0,0,0,0,0,0,0],"split_type":[0,0,0,0,0,0,0,0,0,0,0,0,0,0,0,0,0,0,0,0,0,0,0,0,0,0,0,0,0,0,0,0,0,0,0,0,0,0,0,0,0,0,0,0,0],"sum_hessian":[6.3E1,2.3E1,4E1,3E0,2E1,3.8E1,2E0,1.3E1,7E0,1.6E1,2.2E1,1E1,3E0,5E0,2E0,2E0,1.4E1,1.7E1,5E0,6E0,4E0,2E0,1E0,1E0,4E0,1E0,1E0,2E0,1.2E1,1.3E1,4E0,2E0,3E0,2E0,2E0,9E0,3E0,3E0,1E0,1E0,2E0,6E0,3E0,1E0,2E0],"tree_param":{"num_deleted":"0","num_feature":"24","num_nodes":"45","size_leaf_vector":"1"}},{"base_weights":[9.934249E0,8.571512E1,-2.9790619E1,-5.456308E0,1.0191128E2,-4.0917038E1,1.342428E1,7.358161E1,1.4734468E2,-3.4834778E1,-6.5637665E0,3.9066402E1,1.0673237E2,1.6330177E2,2.3301027E0,-4.1888016E1,1.6272919E1,1.2672099E1,6.764126E1,1.2321635E1,4.2014923E0,3.6310518E0,1.8043793E2,-3.575702E1,-6.166284E0,2.9858147E1,-1.6533997E0,-1.0287354E0,2.0321462E0,7.9032264E0,1.4234116E0,5.1773467E0,1.9841068E1,-3.931913E1,-1.12199E1,3.6598904E0,2.3179398E-1,-2.3157545E1,-4.6061474E1,1.3804398E-1,-1.5965096E0,5.224213E-1,-2.798329E0,-4.805448E0,-6.5796816E-1],"categories":[],"categories_nodes":[],"categories_segments":[],"categories_sizes":[],"default_left":[0,0,0,0,0,0,0,0,0,0,0,0,0,0,0,0,0,0,0,0,0,0,0,0,0,0,0,0,0,0,0,0,0,0,0,0,0,0,0,0,0,0,0,0,0],"id":12,"left_children":[1,3,5,-1,7,9,-1,11,13,15,-1,17,19,21,-1,23,25,27,29,-1,-1,-1,31,33,-1,35,-1,-1,-1,-1,-1,-1,-1,37,39,-1,-1,41,43,-1,-1,-1,-1,-1,-1],"loss_changes":[2.0151853E5,5.805261E4,8.53308E4,0E0,1.5082875E4,3.526164E3,0E0,1.226443E4,9.117531E3,1.37868125E4,0E0,5.5291973E3,1.4645391E3,5.421297E3,0E0,1.1876797E3,2.7887422E3,1.3129753E3,8.4216016E2,0E0,0E0,0E0,3.8953125E1,1.6660547E3,0E0,4.6314917E2,0E0,0E0,0E0,0E0,0E0,0E0,0E0,1.0934727E3,3.9391748E2,0E0,0E0,1.4926548E3,5.9096094E2,0E0,0E0,0E0,0E0,0E0,0E0],"parents":[2147483647,0,0,1,1,2,2,4,4,5,5,7,7,8,8,9,9,11,11,12,12,13,13,15,15,16,16,17,17,18,18,22,22,23,23,25,25,33,33,34,34,37,37,38,38],"right_children":[2,4,6,-1,8,10,-1,12,14,16,-1,18,20,22,-1,24,26,28,30,-1,-1,-1,32,34,-1,36,-1,-1,-1,-1,-1,-1,-1,38,40,-1,-1,42,44,-1,-1,-1,-1,-1,-1],"split_conditions":[3.1E-1,5.5E1,9E1,-5.456308E0,1E0,4.9E-1,1.342428E1,1E0,1.8E1,4.5E-1,-6.5637665E0,8.2E1,1.8E1,5E0,2.3301027E0,1.8E1,4.7E-1,1.7E1,8E0,1.2321635E1,4.2014923E0,3.6310518E0,5.7E1,1E0,-6.166284E0,1E0,-1.6533997E0,-1.0287354E0,2.0321462E0,7.9032264E0,1.4234116E0,5.1773467E0,1.9841068E1,1E0,7E0,3.6598904E0,2.3179398E-1,3.3E-1,1.2E1,1.3804398E-1,-1.5965096E0,5.224213E-1,-2.798329E0,-4.805448E0,-6.5796816E-1],"split_indices":[1,2,2,0,4,1,0,3,21,1,0,2,21,22,0,21,1,21,22,0,0,0,2,3,0,4,0,0,0,0,0,0,0,18,22,0,0,1,22,0,0,0,0,0,0],"split_type":[0,0,0,0,0,0,0,0,0,0,0,0,0,0,0,0,0,0,0,0,0,0,0,0,0,0,0,0,0,0,0,0,0,0,0,0,0,0,0,0,0,0,0,0,0],"sum_hessian":[6.5E1,2.2E1,4.3E1,2E0,2E1,4.1E1,2E0,1.4E1,6E0,3.5E1,6E0,8E0,6E0,5E0,1E0,3.1E1,4E0,5E0,3E0,4E0,2E0,1E0,4E0,2.6E1,5E0,3E0,1E0,1E0,4E0,2E0,1E0,1E0,3E0,2.2E1,4E0,2E0,1E0,8E0,1.4E1,1E0,3E0,1E0,7E0,1.3E1,1E0],"tree_param":{"num_deleted":"0","num_feature":"24","num_nodes":"45","size_leaf_vector":"1"}},{"base_weights":[8.308455E0,7.125069E1,-3.318797E1,1.11524254E2,1.7910631E1,-3.7880615E1,6.7719955E0,1.2571466E2,4.3369568E1,-2.3785856E1,1.0850007E1,-2.3619184E1,-4.6303448E1,1.6507345E1,7.892773E1,5.687653E-1,5.236766E0,-3.5094467E1,3.0841522E0,-5.101348E0,-6.075098E0,-5.2915337E1,-2.7493223E1,1.9937052E1,9.753659E1,-4.661852E1,2.0286942E0,6.0835366E0,-4.219264E0,-5.890932E0,-2.8145498E1,-2.4049759E-1,-3.0019405E0,1.9262086E-1,2.5479372E0,1.3522415E0,1.1390953E1,-9.7729874E-1,-5.0297276E1,1.870495E1,-2.3727605E0,-3.7532895E0,2.2020416E-1,-5.964294E0,-1.9403971E0,-2.0044327E-1,2.332392E1,2.67857E0,5.0750732E-2],"categories":[],"categories_nodes":[],"categories_segments":[],"categories_sizes":[],"default_left":[0,0,0,0,0,0,0,0,0,0,0,0,0,0,0,0,0,0,0,0,0,0,0,0,0,0,0,0,0,0,0,0,0,0,0,0,0,0,0,0,0,0,0,0,0,0,0,0,0],"id":13,"left_children":[1,3,5,7,9,11,-1,13,15,17,-1,19,21,-1,23,-1,-1,25,-1,-1,27,29,31,33,35,37,-1,39,-1,-1,41,-1,-1,-1,-1,-1,-1,-1,43,45,-1,-1,-1,-1,-1,-1,47,-1,-1],"loss_changes":[1.6449139E5,5.106022E4,2.0410027E4,7.242375E3,4.8331473E4,3.0012422E3,0E0,6.007375E3,7.6813574E2,6.66347E3,0E0,7.09437E3,8.793086E2,0E0,5.1522812E3,0E0,0E0,6.1831514E3,0E0,0E0,5.2677656E3,1.3374219E2,2.7270215E2,1.1335901E2,4.7003047E3,1.5691309E2,0E0,3.8050388E3,0E0,0E0,1.6837251E3,0E0,0E0,0E0,0E0,0E0,0E0,0E0,1.7976562E2,8.229409E2,0E0,0E0,0E0,0E0,0E0,0E0,3.238523E2,0E0,0E0],"parents":[2147483647,0,0,1,1,2,2,3,3,4,4,5,5,7,7,8,8,9,9,11,11,12,12,14,14,17,17,20,20,21,21,22,22,23,23,24,24,25,25,27,27,30,30,38,38,39,39,46,46],"right_children":[2,4,6,8,10,12,-1,14,16,18,-1,20,22,-1,24,-1,-1,26,-1,-1,28,30,32,34,36,38,-1,40,-1,-1,42,-1,-1,-1,-1,-1,-1,-1,44,46,-1,-1,-1,-1,-1,-1,48,-1,-1],"split_conditions":[3.1E-1,1E0,9E1,1E0,1E0,1E0,6.7719955E0,9E0,8.2E1,1.8E1,1.0850007E1,4.5E1,7.8E1,1.6507345E1,1.1E1,5.687653E-1,5.236766E0,1E0,3.0841522E0,-5.101348E0,4.7E-1,1E0,8E1,1.8E1,2.2E-1,1.7E1,2.0286942E0,1E0,-4.219264E0,-5.890932E0,4.5E-1,-2.4049759E-1,-3.0019405E0,1.9262086E-1,2.5479372E0,1.3522415E0,1.1390953E1,-9.7729874E-1,2.9E-1,4.7E1,-2.3727605E0,-3.7532895E0,2.2020416E-1,-5.964294E0,-1.9403971E0,-2.0044327E-1,7.7E1,2.67857E0,5.0750732E-2],"split_indices":[1,19,2,6,4,18,0,22,2,21,0,2,2,0,22,0,0,7,0,0,1,4,2,21,1,21,0,6,0,0,1,0,0,0,0,0,0,0,1,2,0,0,0,0,0,0,2,0,0],"split_type":[0,0,0,0,0,0,0,0,0,0,0,0,0,0,0,0,0,0,0,0,0,0,0,0,0,0,0,0,0,0,0,0,0,0,0,0,0,0,0,0,0,0,0,0,0,0,0,0,0],"sum_hessian":[6.1E1,2.4E1,3.7E1,1.3E1,1.1E1,3.6E1,1E0,1E1,3E0,8E0,3E0,1.5E1,2.1E1,4E0,6E0,1E0,2E0,7E0,1E0,5E0,1E1,1.4E1,7E0,2E0,4E0,6E0,1E0,8E0,2E0,1E1,4E0,1E0,6E0,1E0,1E0,1E0,3E0,1E0,5E0,6E0,2E0,3E0,1E0,3E0,2E0,1E0,5E0,4E0,1E0],"tree_param":{"num_deleted":"0","num_feature":"24","num_nodes":"49","size_leaf_vector":"1"}},{"base_weights":[4.1263943E0,-6.077425E0,1.5740209E1,4.1166126E1,-3.0853354E1,-6.462665E1,6.26664E1,-2.5972185E1,-5.335128E0,-7.6073966E0,-1.2642349E0,-1.2784157E1,7.894212E1,-3.177146E1,1.417775E1,1.2846298E0,-2.7276409E0,9.352536E1,1.4206894E1,-5.671628E0,-2.6894648E1,2.5771015E1,-1.3597656E0,3.389506E0,1.0156192E1,-1.2023209E0,2.8624664E1,-2.0273558E1,-4.0288177E0,3.2373264E0,4.8213195E-2,5.403275E-1,3.5033722E0,-1.290561E0,-2.4370113E1,7.486271E-1,-2.0698946E0,-9.414097E-1,-2.6545396E0],"categories":[],"categories_nodes":[],"categories_segments":[],"categories_sizes":[],"default_left":[0,0,0,0,0,0,0,0,0,0,0,0,0,0,0,0,0,0,0,0,0,0,0,0,0,0,0,0,0,0,0,0,0,0,0,0,0,0,0],"id":14,"left_children":[1,3,-1,5,7,9,11,13,-1,-1,-1,15,17,19,21,-1,-1,23,25,-1,27,29,-1,-1,-1,-1,31,33,-1,-1,-1,-1,-1,35,37,-1,-1,-1,-1],"loss_changes":[1.0024506E5,7.144872E4,0E0,5.180617E4,2.610375E3,9.749883E2,2.3444219E4,8.68783E3,0E0,0E0,0E0,1.9083234E3,1.2293367E4,1.8277676E3,2.0213303E3,0E0,0E0,1.6309375E3,1.939886E3,0E0,1.3634395E3,4.87969E2,0E0,0E0,0E0,0E0,5.5E1,1.4733086E3,0E0,0E0,0E0,0E0,0E0,1.0727418E3,1.2337207E2,0E0,0E0,0E0,0E0],"parents":[2147483647,0,0,1,1,3,3,4,4,5,5,6,6,7,7,11,11,12,12,13,13,14,14,17,17,18,18,20,20,21,21,26,26,27,27,33,33,34,34],"right_children":[2,4,-1,6,8,10,12,14,-1,-1,-1,16,18,20,22,-1,-1,24,26,-1,28,30,-1,-1,-1,-1,32,34,-1,-1,-1,-1,-1,36,38,-1,-1,-1,-1],"split_conditions":[9E1,3.1E-1,1.5740209E1,5.5E1,4.9E-1,2.7E-1,2.5E-1,1E0,-5.335128E0,-7.6073966E0,-1.2642349E0,2.2E-1,1E0,3.2E-1,4.7E-1,1.2846298E0,-2.7276409E0,5E0,5.7E1,-5.671628E0,1E0,7.7E1,-1.3597656E0,3.389506E0,1.0156192E1,-1.2023209E0,8.2E1,7E0,-4.0288177E0,3.2373264E0,4.8213195E-2,5.403275E-1,3.5033722E0,1.8E1,3.4E-1,7.486271E-1,-2.0698946E0,-9.414097E-1,-2.6545396E0],"split_indices":[2,1,0,2,1,1,1,5,0,0,0,1,6,1,1,0,0,22,2,0,6,2,0,0,0,0,2,22,0,0,0,0,0,21,1,0,0,0,0],"split_type":[0,0,0,0,0,0,0,0,0,0,0,0,0,0,0,0,0,0,0,0,0,0,0,0,0,0,0,0,0,0,0,0,0,0,0,0,0,0,0],"sum_hessian":[6.2E1,5.9E1,3E0,2E1,3.9E1,3E0,1.7E1,3.4E1,5E0,2E0,1E0,3E0,1.4E1,3E1,4E0,1E0,2E0,1.1E1,3E0,3E0,2.7E1,3E0,1E0,2E0,9E0,1E0,2E0,2E1,7E0,2E0,1E0,1E0,1E0,4E0,1.6E1,3E0,1E0,3E0,1.3E1],"tree_param":{"num_deleted":"0","num_feature":"24","num_nodes":"39","size_leaf_vector":"1"}},{"base_weights":[5.7896113E0,5.5074635E1,-2.4471416E1,2.8048216E1,1.1513135E2,-3.3633278E1,1.1028512E1,6.3385708E1,-3.2256237E1,4.9245424E0,1.4381381E2,-3.6761936E1,-1.944538E1,3.6773426E1,8.747114E1,-4.26008E1,1.7577851E0,2.7375245E0,1.6482965E1,-4.074212E1,-1.5443809E1,-2.2870884E1,-7.339401E-1,6.0281115E0,9.612592E0,9.631444E0,1.9127305E0,-7.9205173E-1,-4.622743E1,-2.9118114E1,-5.0635807E1,-2.1421558E1,-0E0,-1.4335099E-1,-2.537153E0,-0E0,1.2027397E0,-5.5125003E0,-1.7288183E0,2.3740585E0,-3.4946636E1,-5.899593E0,-1.582655E1,-2.443332E0,-2.1872559E-1,-4.77891E0,-3.915968E1,3.8825685E-1,-2.535711E0,3.249405E-1,-1.291777E0,-4.686973E0,-1.0772145E0],"categories":[],"categories_nodes":[],"categories_segments":[],"categories_sizes":[],"default_left":[0,0,0,0,0,0,0,0,0,0,0,0,0,0,0,0,0,0,0,0,0,0,0,0,0,0,0,0,0,0,0,0,0,0,0,0,0,0,0,0,0,0,0,0,0,0,0,0,0,0,0,0,0],"id":15,"left_children":[1,3,5,7,9,11,-1,13,15,-1,17,19,21,23,25,27,-1,-1,-1,29,31,33,-1,-1,35,-1,-1,-1,37,39,41,43,-1,-1,-1,-1,-1,-1,-1,-1,45,-1,47,-1,-1,49,51,-1,-1,-1,-1,-1,-1],"loss_changes":[1.0589984E5,3.9879055E4,5.7649297E4,4.48204E4,7.0706953E3,8.684531E2,0E0,4.49475E3,4.99804E3,0E0,6.761992E3,1.8899102E3,9.5781006E1,4.1789805E3,1.2068633E3,2.4352246E2,0E0,0E0,0E0,1.2319258E3,6.2483704E2,2.0485522E2,0E0,0E0,1.16623535E2,0E0,0E0,0E0,2.2985742E2,5.507005E3,2.4753086E3,1.0310083E2,0E0,0E0,0E0,0E0,0E0,0E0,0E0,0E0,1.3725371E3,0E0,9.571793E2,0E0,0E0,2.863409E2,1.833334E3,0E0,0E0,0E0,0E0,0E0,0E0],"parents":[2147483647,0,0,1,1,2,2,3,3,4,4,5,5,7,7,8,8,10,10,11,11,12,12,13,13,14,14,15,15,19,19,20,20,21,21,24,24,28,28,29,29,30,30,31,31,40,40,42,42,45,45,46,46],"right_children":[2,4,6,8,10,12,-1,14,16,-1,18,20,22,24,26,28,-1,-1,-1,30,32,34,-1,-1,36,-1,-1,-1,38,40,42,44,-1,-1,-1,-1,-1,-1,-1,-1,46,-1,48,-1,-1,50,52,-1,-1,-1,-1,-1,-1],"split_conditions":[3.1E-1,1E0,9E1,1E0,6.1E1,1.1E1,1.1028512E1,1E0,1E0,4.9245424E0,5E0,7.8E1,1E0,8E0,1.8E1,1.7E1,1.7577851E0,2.7375245E0,1.6482965E1,1E0,1.7E1,3.3E-1,-7.339401E-1,6.0281115E0,6.1E1,9.631444E0,1.9127305E0,-7.9205173E-1,2.9E-1,1E0,1E0,1E0,-0E0,-1.4335099E-1,-2.537153E0,-0E0,1.2027397E0,-5.5125003E0,-1.7288183E0,2.3740585E0,7E0,-5.899593E0,3.7E-1,-2.443332E0,-2.1872559E-1,3.3E-1,6.1E1,3.8825685E-1,-2.535711E0,3.249405E-1,-1.291777E0,-4.686973E0,-1.0772145E0],"split_indices":[1,4,2,19,2,22,0,3,7,0,22,2,4,22,21,21,0,0,0,18,21,1,0,0,2,0,0,0,1,19,3,3,0,0,0,0,0,0,0,0,22,0,1,0,0,1,2,0,0,0,0,0,0],"split_type":[0,0,0,0,0,0,0,0,0,0,0,0,0,0,0,0,0,0,0,0,0,0,0,0,0,0,0,0,0,0,0,0,0,0,0,0,0,0,0,0,0,0,0,0,0,0,0,0,0,0,0,0,0],"sum_hessian":[6.9E1,2.6E1,4.3E1,1.9E1,7E0,4.1E1,2E0,1.2E1,7E0,3E0,4E0,3.2E1,9E0,7E0,5E0,6E0,1E0,1E0,3E0,2.6E1,6E0,6E0,3E0,3E0,4E0,4E0,1E0,1E0,5E0,1.4E1,1.2E1,4E0,2E0,1E0,5E0,1E0,3E0,3E0,2E0,1E0,1.3E1,9E0,3E0,3E0,1E0,2E0,1.1E1,1E0,2E0,1E0,1E0,8E0,3E0],"tree_param":{"num_deleted":"0","num_feature":"24","num_nodes":"53","size_leaf_vector":"1"}},{"base_weights":[-1.4573776E0,-1.4138566E1,1.1842347E2,1.9080675E1,-2.7689507E1,1.3114944E1,2.489682E0,5.7955418E1,-3.1272835E1,-3.1471142E1,-1.0191337E1,6.4400085E1,-0E0,-6.389566E0,1.6073906E1,-3.6163116E1,-1.6563292E1,1.5123932E1,-2.0299118E1,1.1602615E0,6.8924446E1,-1.0557632E0,3.0136964E0,-3.990904E1,-1.2946802E1,-1.999642E1,4.6674272E-1,1.9727875E0,4.5802306E-2,-2.2529818E1,-9.5745854E-2,3.728756E1,8.998944E0,-2.9958986E1,-5.046424E1,-0E0,-2.3129075E0,-0E0,-2.627382E1,-2.5204625E0,-2.0778961E-1,4.9391418E0,-3.0639344E-1,2.2553558E0,-3.663116E1,-5.716436E0,-1.8575928E0,-1.3618317E-1,3.6884385E-1,3.0869293E-1,-1.112442E-1,-3.1797169E1,-6.643636E-1,-4.5646653E0,-1.3880142E0,-3.5570076E0,-5.852768E-1],"categories":[],"categories_nodes":[],"categories_segments":[],"categories_sizes":[],"default_left":[0,0,0,0,0,0,0,0,0,0,0,0,0,0,0,0,0,0,0,0,0,0,0,0,0,0,0,0,0,0,0,0,0,0,0,0,0,0,0,0,0,0,0,0,0,0,0,0,0,0,0,0,0,0,0,0,0],"id":16,"left_children":[1,3,5,7,9,-1,-1,11,13,15,17,19,-1,-1,21,23,25,27,29,-1,31,-1,-1,33,35,37,-1,-1,-1,39,-1,41,-1,43,45,47,-1,49,51,-1,-1,-1,-1,-1,53,-1,-1,-1,-1,-1,-1,55,-1,-1,-1,-1,-1],"loss_changes":[9.5407266E4,2.623004E4,3.0958672E3,3.5223E4,2.183996E3,0E0,0E0,3.738039E3,1.3622838E4,1.4456465E3,2.6358093E3,9.4753125E2,0E0,0E0,1.9141552E3,1.3062246E3,8.9885474E2,9.259772E1,1.630105E2,0E0,1.3395781E3,0E0,0E0,1.8652148E2,7.6676385E2,1.2334846E3,0E0,0E0,0E0,1.3944409E2,0E0,2.8250132E3,0E0,5.4513984E3,2.6866016E2,3.0918327E1,0E0,2.153332E1,3.5551758E2,0E0,0E0,0E0,0E0,0E0,1.5301221E3,0E0,0E0,0E0,0E0,0E0,0E0,7.413135E1,0E0,0E0,0E0,0E0,0E0],"parents":[2147483647,0,0,1,1,2,2,3,3,4,4,7,7,8,8,9,9,10,10,11,11,14,14,15,15,16,16,17,17,18,18,20,20,23,23,24,24,25,25,29,29,31,31,33,33,34,34,35,35,37,37,38,38,44,44,51,51],"right_children":[2,4,6,8,10,-1,-1,12,14,16,18,20,-1,-1,22,24,26,28,30,-1,32,-1,-1,34,36,38,-1,-1,-1,40,-1,42,-1,44,46,48,-1,50,52,-1,-1,-1,-1,-1,54,-1,-1,-1,-1,-1,-1,56,-1,-1,-1,-1,-1],"split_conditions":[8.9E1,3.1E-1,1E0,1E0,7.5E1,1.3114944E1,2.489682E0,1E0,2.9E-1,1E0,1E0,2.2E-1,-0E0,-6.389566E0,5.7E1,1E0,4.5E-1,7.7E1,1E0,1.1602615E0,1.1E1,-1.0557632E0,3.0136964E0,1E0,1.8E1,3.5E-1,4.6674272E-1,1.9727875E0,4.5802306E-2,8.8E1,-9.5745854E-2,1E1,8.998944E0,1E0,1.1E1,3.3E-1,-2.3129075E0,3.3E-1,1.1E1,-2.5204625E0,-2.0778961E-1,4.9391418E0,-3.0639344E-1,2.2553558E0,6.1E1,-5.716436E0,-1.8575928E0,-1.3618317E-1,3.6884385E-1,3.0869293E-1,-1.112442E-1,1.8E1,-6.643636E-1,-4.5646653E0,-1.3880142E0,-3.5570076E0,-5.852768E-1],"split_indices":[2,1,6,19,2,0,0,7,1,4,18,1,0,0,2,3,1,2,7,0,22,0,0,18,21,1,0,0,0,2,0,22,0,19,22,1,0,1,22,0,0,0,0,0,2,0,0,0,0,0,0,21,0,0,0,0,0],"split_type":[0,0,0,0,0,0,0,0,0,0,0,0,0,0,0,0,0,0,0,0,0,0,0,0,0,0,0,0,0,0,0,0,0,0,0,0,0,0,0,0,0,0,0,0,0,0,0,0,0,0,0,0,0,0,0,0,0],"sum_hessian":[6.1E1,5.6E1,5E0,1.6E1,4E1,4E0,1E0,9E0,7E0,3.2E1,8E0,8E0,1E0,4E0,3E0,2.3E1,9E0,2E0,6E0,1E0,7E0,1E0,2E0,1.9E1,4E0,8E0,1E0,1E0,1E0,5E0,1E0,4E0,3E0,1.2E1,7E0,2E0,2E0,2E0,6E0,4E0,1E0,3E0,1E0,1E0,1.1E1,5E0,2E0,1E0,1E0,1E0,1E0,4E0,2E0,7E0,4E0,3E0,1E0],"tree_param":{"num_deleted":"0","num_feature":"24","num_nodes":"57","size_leaf_vector":"1"}},{"base_weights":[-1.8182395E-1,4.4441643E1,-2.7275505E1,-5.3859715E1,5.9822678E1,-3.015788E1,4.4392123E0,-6.306766E0,-1.0617936E0,-4.834567E0,7.395234E1,-3.336821E1,-1.6048014E1,9.3724674E-1,-1.9096746E0,3.36395E1,8.958599E1,-3.7229707E0,-1.6022312E1,-1.0568237E-1,-1.704072E1,8.244898E0,6.3084006E0,1.0425928E2,2.9256294E1,-2.4380209E1,1.8741486E0,-1.2937394E-1,-1.8222376E0,-1.7044281E1,3.2452443E0,3.743206E0,1.2683778E2,2.0621796E-1,3.5966938E0,-2.8440876E0,-7.819031E-1,-2.5543106E0,-0E0,1.5099543E1,4.262913E1,-2.9107362E-1,6.9354434E0],"categories":[],"categories_nodes":[],"categories_segments":[],"categories_sizes":[],"default_left":[0,0,0,0,0,0,0,0,0,0,0,0,0,0,0,0,0,0,0,0,0,0,0,0,0,0,0,0,0,0,0,0,0,0,0,0,0,0,0,0,0,0,0],"id":17,"left_children":[1,3,5,7,9,11,-1,-1,-1,13,15,17,19,-1,-1,21,23,-1,25,-1,27,29,-1,31,33,35,-1,-1,-1,37,-1,-1,39,-1,-1,-1,-1,-1,-1,-1,41,-1,-1],"loss_changes":[8.33393E4,4.2563234E4,1.0150238E4,5.545957E2,2.1715578E4,1.1199141E3,0E0,0E0,0E0,1.2407213E3,8.344742E3,1.3476094E3,4.032202E1,0E0,0E0,4.357354E3,7.7902344E3,0E0,2.8095332E3,0E0,4.6311768E1,3.6911143E3,0E0,9.519445E3,4.6564453E2,6.706641E1,0E0,0E0,0E0,4.33378E2,0E0,0E0,6.835047E3,0E0,0E0,0E0,0E0,0E0,0E0,0E0,4.1852905E3,0E0,0E0],"parents":[2147483647,0,0,1,1,2,2,3,3,4,4,5,5,9,9,10,10,11,11,12,12,15,15,16,16,18,18,20,20,21,21,23,23,24,24,25,25,29,29,32,32,40,40],"right_children":[2,4,6,8,10,12,-1,-1,-1,14,16,18,20,-1,-1,22,24,-1,26,-1,28,30,-1,32,34,36,-1,-1,-1,38,-1,-1,40,-1,-1,-1,-1,-1,-1,-1,42,-1,-1],"split_conditions":[3.1E-1,5.5E1,9E1,2.7E-1,2.5E-1,1.1E1,4.4392123E0,-6.306766E0,-1.0617936E0,2.2E-1,6.1E1,7.5E1,4.2E1,9.3724674E-1,-1.9096746E0,1.1E1,1E0,-3.7229707E0,4.5E-1,-1.0568237E-1,3.3E-1,1E0,6.3084006E0,6E0,8.2E1,1E0,1.8741486E0,-1.2937394E-1,-1.8222376E0,2.9E-1,3.2452443E0,3.743206E0,9E0,2.0621796E-1,3.5966938E0,-2.8440876E0,-7.819031E-1,-2.5543106E0,-0E0,1.5099543E1,2.7E-1,-2.9107362E-1,6.9354434E0],"split_indices":[1,2,2,1,1,22,0,0,0,1,2,2,2,0,0,22,6,0,1,0,1,4,0,22,2,7,0,0,0,1,0,0,22,0,0,0,0,0,0,0,1,0,0],"split_type":[0,0,0,0,0,0,0,0,0,0,0,0,0,0,0,0,0,0,0,0,0,0,0,0,0,0,0,0,0,0,0,0,0,0,0,0,0,0,0,0,0,0,0],"sum_hessian":[6.7E1,2.5E1,4.2E1,3E0,2.2E1,4.1E1,1E0,2E0,1E0,4E0,1.8E1,3.2E1,9E0,2E0,2E0,6E0,1.2E1,2.5E1,7E0,1E0,8E0,4E0,2E0,9E0,3E0,6E0,1E0,1E0,7E0,2E0,2E0,3E0,6E0,1E0,2E0,4E0,2E0,1E0,1E0,4E0,2E0,1E0,1E0],"tree_param":{"num_deleted":"0","num_feature":"24","num_nodes":"43","size_leaf_vector":"1"}},{"base_weights":[1.9681907E0,4.606034E1,-1.9006886E1,-5.886316E0,6.0466137E1,-2.6547453E1,9.123002E0,3.8809322E1,8.47681E1,-3.0387844E1,-1.2507453E1,4.461558E1,-1.0029755E0,8.74763E-1,1.0781698E2,-3.5225613E1,-1.355515E0,1.320164E1,-2.024299E0,5.101967E0,8.864797E0,1.35298605E1,3.3569152E0,-2.6913023E1,-4.3671937E0,1.7804413E0,-0E0,-0E0,1.3320512E0,2.328737E0,-3.251929E1,-4.013133E1,-9.791361E0,-4.5140314E0,-1.1730266E0,7.9883045E-1,-1.7483352E0],"categories":[],"categories_nodes":[],"categories_segments":[],"categories_sizes":[],"default_left":[0,0,0,0,0,0,0,0,0,0,0,0,0,0,0,0,0,0,0,0,0,0,0,0,0,0,0,0,0,0,0,0,0,0,0,0,0],"id":18,"left_children":[1,3,5,-1,7,9,-1,11,13,15,17,19,-1,-1,21,23,-1,25,-1,-1,27,-1,-1,29,-1,-1,-1,-1,-1,-1,31,33,35,-1,-1,-1,-1],"loss_changes":[6.020025E4,3.5308875E4,3.867346E4,0E0,6.092078E3,1.6700508E3,0E0,4.0232793E3,1.2491527E4,1.8844531E3,2.4900571E3,1.7667598E3,0E0,0E0,6.856508E3,1.5679102E2,0E0,1.1114435E2,0E0,0E0,1.1911815E2,0E0,0E0,5.025002E3,0E0,0E0,0E0,0E0,0E0,0E0,1.7795273E3,6.0874414E2,8.709428E2,0E0,0E0,0E0,0E0],"parents":[2147483647,0,0,1,1,2,2,4,4,5,5,7,7,8,8,9,9,10,10,11,11,14,14,15,15,17,17,20,20,23,23,30,30,31,31,32,32],"right_children":[2,4,6,-1,8,10,-1,12,14,16,18,20,-1,-1,22,24,-1,26,-1,-1,28,-1,-1,30,-1,-1,-1,-1,-1,-1,32,34,36,-1,-1,-1,-1],"split_conditions":[3.1E-1,5E1,9E1,-5.886316E0,7.1E1,7.5E1,9.123002E0,1E0,2.2E-1,1.1E1,1E0,1E0,-1.0029755E0,8.74763E-1,1E0,1E0,-1.355515E0,7.7E1,-2.024299E0,5.101967E0,6.1E1,1.35298605E1,3.3569152E0,1E0,-4.3671937E0,1.7804413E0,-0E0,-0E0,1.3320512E0,2.328737E0,6.1E1,1E0,6.4E1,-4.5140314E0,-1.1730266E0,7.9883045E-1,-1.7483352E0],"split_indices":[1,2,2,0,2,2,0,6,1,22,18,7,0,0,6,18,0,2,0,0,2,0,0,19,0,0,0,0,0,0,2,4,2,0,0,0,0],"split_type":[0,0,0,0,0,0,0,0,0,0,0,0,0,0,0,0,0,0,0,0,0,0,0,0,0,0,0,0,0,0,0,0,0,0,0,0,0],"sum_hessian":[6.3E1,2E1,4.3E1,2E0,1.8E1,4.1E1,2E0,1.1E1,7E0,3.1E1,1E1,1E1,1E0,2E0,5E0,2.3E1,8E0,2E0,8E0,8E0,2E0,3E0,2E0,1.4E1,9E0,1E0,1E0,1E0,1E0,1E0,1.3E1,9E0,4E0,7E0,2E0,1E0,3E0],"tree_param":{"num_deleted":"0","num_feature":"24","num_nodes":"37","size_leaf_vector":"1"}},{"base_weights":[2.5604124E0,-8.055698E0,9.8512E1,-2.074573E1,2.932623E1,1.09144335E1,2.017517E0,-3.9739616E1,-9.240025E0,7.2179634E1,-1.1211277E1,-4.612485E1,-9.399002E-1,1.7884546E1,-1.8079641E1,3.4287865E0,9.077649E1,-1.9802942E1,1.0811234E0,-4.8640118E1,-6.728455E-1,-1.6960583E1,4.950854E0,2.137911E0,-2.3621569E1,2.0077057E0,1.0598395E1,-3.2622527E-2,-2.3340565E1,1.0906484E0,-1.169748E0,-5.279285E0,-1.8301896E0,-0E0,-2.4034247E0,-2.7584763E1,5.0437164E0,-2.7379334E0,-3.1121293E-1,-6.723194E0,-3.1217728E1,-0E0,7.58889E-1,7.549095E-1,-1.5663656E0,-3.7448208E0,-1.5835719E0],"categories":[],"categories_nodes":[],"categories_segments":[],"categories_sizes":[],"default_left":[0,0,0,0,0,0,0,0,0,0,0,0,0,0,0,0,0,0,0,0,0,0,0,0,0,0,0,0,0,0,0,0,0,0,0,0,0,0,0,0,0,0,0,0,0,0,0],"id":19,"left_children":[1,3,5,7,9,-1,-1,11,13,15,17,19,-1,21,23,-1,25,27,29,31,-1,33,-1,-1,35,-1,-1,-1,37,-1,-1,-1,-1,-1,-1,39,41,-1,-1,43,45,-1,-1,-1,-1,-1,-1],"loss_changes":[6.134519E4,2.6181893E4,2.1488164E3,8.347967E3,2.543445E4,0E0,0E0,2.194834E3,6.7981343E3,1.1948242E3,9.59916E2,5.849922E2,0E0,8.716027E3,5.108448E3,0E0,1.5424844E3,2.1855823E2,6.2584094E2,6.416992E1,0E0,5.822894E2,0E0,0E0,2.4103506E3,0E0,0E0,0E0,8.9126465E1,0E0,0E0,0E0,0E0,0E0,0E0,8.8883203E2,3.886528E1,0E0,0E0,6.692226E2,4.8228418E2,0E0,0E0,0E0,0E0,0E0,0E0],"parents":[2147483647,0,0,1,1,2,2,3,3,4,4,7,7,8,8,9,9,10,10,11,11,13,13,14,14,16,16,17,17,18,18,19,19,21,21,24,24,28,28,35,35,36,36,39,39,40,40],"right_children":[2,4,6,8,10,-1,-1,12,14,16,18,20,-1,22,24,-1,26,28,30,32,-1,34,-1,-1,36,-1,-1,-1,38,-1,-1,-1,-1,-1,-1,40,42,-1,-1,44,46,-1,-1,-1,-1,-1,-1],"split_conditions":[9E1,1E0,1E0,6E1,3.1E-1,1.09144335E1,2.017517E0,1.1E1,2.7E-1,6.1E1,5E1,5.2E-1,-9.399002E-1,2.5E-1,5E0,3.4287865E0,5E0,3.5E-1,6.2E1,1E0,-6.728455E-1,2.2E-1,4.950854E0,2.137911E0,1E0,2.0077057E0,1.0598395E1,-3.2622527E-2,1.8E1,1.0906484E0,-1.169748E0,-5.279285E0,-1.8301896E0,-0E0,-2.4034247E0,7E0,3.1E-1,-2.7379334E0,-3.1121293E-1,3.7E-1,7.8E1,-0E0,7.58889E-1,7.549095E-1,-1.5663656E0,-3.7448208E0,-1.5835719E0],"split_indices":[2,4,6,2,1,0,0,22,1,2,2,1,0,1,22,0,22,1,2,3,0,1,0,0,7,0,0,0,21,0,0,0,0,0,0,22,1,0,0,1,2,0,0,0,0,0,0],"split_type":[0,0,0,0,0,0,0,0,0,0,0,0,0,0,0,0,0,0,0,0,0,0,0,0,0,0,0,0,0,0,0,0,0,0,0,0,0,0,0,0,0,0,0,0,0,0,0],"sum_hessian":[5.8E1,5.3E1,5E0,4E1,1.3E1,4E0,1E0,1.4E1,2.6E1,6E0,7E0,1.1E1,3E0,6E0,2E1,3E0,3E0,4E0,3E0,1E1,1E0,3E0,3E0,2E0,1.8E1,1E0,2E0,1E0,3E0,2E0,1E0,8E0,2E0,1E0,2E0,1.6E1,2E0,2E0,1E0,3E0,1.3E1,1E0,1E0,1E0,2E0,8E0,5E0],"tree_param":{"num_deleted":"0","num_feature":"24","num_nodes":"47","size_leaf_vector":"1"}},{"base_weights":[2.6060903E0,-5.5045695E0,1.004128E1,2.3961815E1,-2.3326208E1,-4.5676026E0,3.694129E1,-2.602458E1,-9.329245E0,1.8718515E1,6.739523E1,-2.8586943E1,-9.750244E0,1.242337E1,-1.948401E1,3.655964E-1,6.3259415E1,3.1716287E0,8.497537E1,-2.1048088E1,-3.80443E1,3.060196E0,-1.8170513E0,1.5845231E0,2.8982544E-2,-0E0,-2.242644E0,-7.1297965E0,2.4396577E0,1.0116485E0,7.59349E0,1.9073212E0,9.891836E0,2.4762642E0,-2.5771423E1,-4.36163E0,-8.8375396E-1,-8.134461E-3,7.1716386E-1,-1.729074E1,8.644066E0,4.8352662E-1,-2.8467554E1,-2.073956E0,-0E0,-0E0,1.0105286E0,-3.4663281E0,-8.143445E-1],"categories":[],"categories_nodes":[],"categories_segments":[],"categories_sizes":[],"default_left":[0,0,0,0,0,0,0,0,0,0,0,0,0,0,0,0,0,0,0,0,0,0,0,0,0,0,0,0,0,0,0,0,0,0,0,0,0,0,0,0,0,0,0,0,0,0,0,0,0],"id":20,"left_children":[1,3,-1,5,7,-1,9,11,13,15,17,19,21,23,25,27,29,-1,31,33,35,37,-1,-1,-1,-1,-1,39,-1,-1,-1,-1,-1,-1,41,-1,-1,-1,-1,43,45,-1,47,-1,-1,-1,-1,-1,-1],"loss_changes":[5.1796992E4,3.2064115E4,0E0,2.24325E4,1.01566406E3,0E0,9.406998E3,8.223086E2,2.0445023E3,1.1103126E4,1.112123E3,7.575176E2,7.7836096E2,3.9290253E1,2.3696582E2,2.2416145E3,1.495999E3,0E0,1.1988418E3,4.3216636E3,9.796709E2,7.478364E1,0E0,0E0,0E0,0E0,0E0,1.6351913E3,0E0,0E0,0E0,0E0,0E0,0E0,1.576124E3,0E0,0E0,0E0,0E0,3.5682886E2,7.4709167E0,0E0,1.3925273E3,0E0,0E0,0E0,0E0,0E0,0E0],"parents":[2147483647,0,0,1,1,3,3,4,4,6,6,7,7,8,8,9,9,10,10,11,11,12,12,13,13,14,14,15,15,16,16,18,18,19,19,20,20,21,21,27,27,34,34,39,39,40,40,42,42],"right_children":[2,4,-1,6,8,-1,10,12,14,16,18,20,22,24,26,28,30,-1,32,34,36,38,-1,-1,-1,-1,-1,40,-1,-1,-1,-1,-1,-1,42,-1,-1,-1,-1,44,46,-1,48,-1,-1,-1,-1,-1,-1],"split_conditions":[9E1,3.1E-1,1.004128E1,5.5E1,7.5E1,-4.5676026E0,1E0,1E0,1E0,8.2E1,6.1E1,1E0,1.8E1,7.7E1,8E1,1.8E1,2.2E-1,3.1716287E0,5E0,1E0,1.1E1,3.3E-1,-1.8170513E0,1.5845231E0,2.8982544E-2,-0E0,-2.242644E0,7E1,2.4396577E0,1.0116485E0,7.59349E0,1.9073212E0,9.891836E0,2.4762642E0,3.3E-1,-4.36163E0,-8.8375396E-1,-8.134461E-3,7.1716386E-1,1E0,2.2E-1,4.8352662E-1,6.1E1,-2.073956E0,-0E0,-0E0,1.0105286E0,-3.4663281E0,-8.143445E-1],"split_indices":[2,1,0,2,2,0,4,3,18,2,2,18,21,2,2,21,1,0,22,19,22,1,0,0,0,0,0,2,0,0,0,0,0,0,1,0,0,0,0,7,1,0,2,0,0,0,0,0,0],"split_type":[0,0,0,0,0,0,0,0,0,0,0,0,0,0,0,0,0,0,0,0,0,0,0,0,0,0,0,0,0,0,0,0,0,0,0,0,0,0,0,0,0,0,0,0,0,0,0,0,0],"sum_hessian":[6.3E1,5.9E1,4E0,2.2E1,3.7E1,3E0,1.9E1,3E1,7E0,1.3E1,6E0,2.5E1,5E0,2E0,5E0,1E1,3E0,3E0,3E0,1.6E1,9E0,2E0,3E0,1E0,1E0,1E0,4E0,8E0,2E0,1E0,2E0,1E0,2E0,1E0,1.5E1,7E0,2E0,1E0,1E0,5E0,3E0,1E0,1.4E1,4E0,1E0,1E0,2E0,1E1,4E0],"tree_param":{"num_deleted":"0","num_feature":"24","num_nodes":"49","size_leaf_vector":"1"}},{"base_weights":[1.2543483E0,3.2721943E1,-1.8745903E1,-5.9088035E0,5.405226E1,-2.0974823E1,2.7133179E0,-2.925492E1,2.933757E0,1.6587042E1,6.571352E1,-2.364836E1,-3.2780075E0,-4.4967117E0,-8.90704E0,-1.037974E0,3.034971E0,7.9766E1,1.9930176E1,-2.6674086E1,-1.1368355E1,-8.979462E0,1.0114632E0,-1.1860509E0,-0E0,-0E0,-3.6871645E-1,9.413627E1,2.2770133E0,5.6713868E-2,2.4528809E0,-2.946012E1,-1.3036967E1,7.616615E-1,-1.5882868E0,-1.2759938E0,-5.3916425E-2,1.8119553E0,1.047157E1,-3.1172435E0,-8.841054E-1,-2.1791575E0,-1.9617691E0,-6.5721667E-1,9.908549E-3],"categories":[],"categories_nodes":[],"categories_segments":[],"categories_sizes":[],"default_left":[0,0,0,0,0,0,0,0,0,0,0,0,0,0,0,0,0,0,0,0,0,0,0,0,0,0,0,0,0,0,0,0,0,0,0,0,0,0,0,0,0,0,0,0,0],"id":21,"left_children":[1,3,5,7,9,11,-1,13,-1,15,17,19,21,-1,23,25,-1,27,29,31,33,35,-1,-1,-1,-1,-1,37,-1,-1,-1,39,41,-1,-1,-1,-1,-1,-1,-1,-1,-1,43,-1,-1],"loss_changes":[3.718615E4,1.9512242E4,4.219713E3,8.263648E3,5.051875E3,1.4438076E3,0E0,1.2483647E3,0E0,1.3908971E3,4.988836E3,6.212246E2,5.432932E2,0E0,1.04673615E2,2.395819E1,0E0,3.824336E3,2.1678296E2,2.7729492E2,8.47968E2,8.6166534E1,0E0,0E0,0E0,0E0,0E0,2.313707E3,0E0,0E0,0E0,1.5985059E2,4.2023724E2,0E0,0E0,0E0,0E0,0E0,0E0,0E0,0E0,0E0,7.102205E1,0E0,0E0],"parents":[2147483647,0,0,1,1,2,2,3,3,4,4,5,5,7,7,9,9,10,10,11,11,12,12,14,14,15,15,17,17,18,18,19,19,20,20,21,21,27,27,31,31,32,32,42,42],"right_children":[2,4,6,8,10,12,-1,14,-1,16,18,20,22,-1,24,26,-1,28,30,32,34,36,-1,-1,-1,-1,-1,38,-1,-1,-1,40,42,-1,-1,-1,-1,-1,-1,-1,-1,-1,44,-1,-1],"split_conditions":[3.1E-1,6.1E1,9E1,1E0,2.5E-1,1E0,2.7133179E0,2.9E-1,2.933757E0,8.2E1,1E0,1E0,4.3E-1,-4.4967117E0,5.7E1,2.2E-1,3.034971E0,1.8E1,8.2E1,7.8E1,3.4E-1,1.1E1,1.0114632E0,-1.1860509E0,-0E0,-0E0,-3.6871645E-1,5E0,2.2770133E0,5.6713868E-2,2.4528809E0,1.1E1,3.7E-1,7.616615E-1,-1.5882868E0,-1.2759938E0,-5.3916425E-2,1.8119553E0,1.047157E1,-3.1172435E0,-8.841054E-1,-2.1791575E0,8.5E1,-6.5721667E-1,9.908549E-3],"split_indices":[1,2,2,4,1,4,0,1,0,2,6,7,1,0,2,1,0,21,2,2,1,22,0,0,0,0,0,22,0,0,0,22,1,0,0,0,0,0,0,0,0,0,2,0,0],"split_type":[0,0,0,0,0,0,0,0,0,0,0,0,0,0,0,0,0,0,0,0,0,0,0,0,0,0,0,0,0,0,0,0,0,0,0,0,0,0,0,0,0,0,0,0,0],"sum_hessian":[5.7E1,2.2E1,3.5E1,8E0,1.4E1,3.4E1,1E0,5E0,3E0,4E0,1E1,2.9E1,5E0,2E0,3E0,2E0,2E0,7E0,3E0,2.2E1,7E0,4E0,1E0,2E0,1E0,1E0,1E0,5E0,2E0,1E0,2E0,1.7E1,5E0,1E0,6E0,2E0,2E0,1E0,4E0,1.5E1,2E0,2E0,3E0,1E0,2E0],"tree_param":{"num_deleted":"0","num_feature":"24","num_nodes":"45","size_leaf_vector":"1"}},{"base_weights":[-1.522689E-1,-5.7993836E0,6.9224734E0,1.6150068E1,-1.880689E1,1.9910878E0,5.4396996E1,-2.5547676E1,-1.1062216E1,-3.1008778E1,1.3241786E1,8.0931705E-1,6.269966E0,-2.9175676E1,-6.1197585E-1,8.013193E0,-1.7932587E1,-3.5028076E-1,-3.7343166E0,2.9357168E1,-6.933126E0,-3.341467E1,-1.0034275E1,1.5108185E0,-7.683388E-1,-1.9405027E1,-0E0,-8.8461E-1,3.8032062E0,-1.8086464E1,8.5823673E-1,-3.588291E1,-3.1002426E-1,1.4307657E0,-2.4714699E0,-5.9907E0,-2.2655281E1,-2.409974E0,-0E0,-4.3344507E0,-1.4469792E0,5.231506E-1,-5.8535766E-2,-9.8345137E-1,2.7037049E-2,-2.493593E0,-0E0],"categories":[],"categories_nodes":[],"categories_segments":[],"categories_sizes":[],"default_left":[0,0,0,0,0,0,0,0,0,0,0,0,0,0,0,0,0,0,0,0,0,0,0,0,0,0,0,0,0,0,0,0,0,0,0,0,0,0,0,0,0,0,0,0,0,0,0],"id":22,"left_children":[1,3,-1,5,7,9,11,13,15,17,19,-1,-1,21,-1,23,25,-1,-1,27,29,31,33,-1,-1,35,-1,-1,-1,37,-1,39,-1,41,-1,43,45,-1,-1,-1,-1,-1,-1,-1,-1,-1,-1],"loss_changes":[2.0848668E4,1.4592398E4,0E0,9.898965E3,1.2049033E3,5.8908496E3,1.0608223E3,7.727256E2,2.4212317E3,3.6189795E2,4.217174E3,0E0,0E0,5.022871E2,0E0,7.100416E2,3.3815088E2,0E0,0E0,2.8022305E3,1.2410424E3,4.4207227E2,8.250272E2,0E0,0E0,2.4424854E2,0E0,0E0,0E0,4.3391187E2,0E0,5.217256E2,0E0,4.928133E1,0E0,1.4674522E2,3.5504932E2,0E0,0E0,0E0,0E0,0E0,0E0,0E0,0E0,0E0,0E0],"parents":[2147483647,0,0,1,1,3,3,4,4,5,5,6,6,7,7,8,8,9,9,10,10,13,13,15,15,16,16,19,19,20,20,21,21,22,22,25,25,29,29,31,31,33,33,35,35,36,36],"right_children":[2,4,-1,6,8,10,12,14,16,18,20,-1,-1,22,-1,24,26,-1,-1,28,30,32,34,-1,-1,36,-1,-1,-1,38,-1,40,-1,42,-1,44,46,-1,-1,-1,-1,-1,-1,-1,-1,-1,-1],"split_conditions":[9E1,3.1E-1,6.9224734E0,1.1E1,6.1E1,2.5E-1,2.2E-1,1.1E1,6.5E1,1.7E1,7E0,8.0931705E-1,6.269966E0,1E0,-6.1197585E-1,1E0,1E0,-3.5028076E-1,-3.7343166E0,5.5E1,1.8E1,5.2E-1,4E-1,1.5108185E0,-7.683388E-1,1E0,-0E0,-8.8461E-1,3.8032062E0,2.9E-1,8.5823673E-1,1E0,-3.1002426E-1,3.3E-1,-2.4714699E0,7.5E1,1E0,-2.409974E0,-0E0,-4.3344507E0,-1.4469792E0,5.231506E-1,-5.8535766E-2,-9.8345137E-1,2.7037049E-2,-2.493593E0,-0E0],"split_indices":[2,1,0,22,2,1,1,22,2,21,22,0,0,4,0,6,3,0,0,2,21,1,1,0,0,18,0,0,0,1,0,3,0,1,0,2,4,0,0,0,0,0,0,0,0,0,0],"split_type":[0,0,0,0,0,0,0,0,0,0,0,0,0,0,0,0,0,0,0,0,0,0,0,0,0,0,0,0,0,0,0,0,0,0,0,0,0,0,0,0,0,0,0,0,0,0,0],"sum_hessian":[5.2E1,4.9E1,3E0,1.8E1,3.1E1,1.4E1,4E0,1.5E1,1.6E1,3E0,1.1E1,1E0,3E0,1.2E1,3E0,4E0,1.2E1,1E0,2E0,6E0,5E0,9E0,3E0,3E0,1E0,1.1E1,1E0,1E0,5E0,3E0,2E0,8E0,1E0,2E0,1E0,3E0,8E0,2E0,1E0,5E0,3E0,1E0,1E0,2E0,1E0,7E0,1E0],"tree_param":{"num_deleted":"0","num_feature":"24","num_nodes":"47","size_leaf_vector":"1"}},{"base_weights":[5.719378E0,-1.6550786E0,7.319867E1,1.8900763E1,-1.5054297E1,8.305516E0,9.4580996E-1,-3.832957E1,3.0217636E1,-2.2765247E1,-8.958697E0,-4.38369E0,-8.4037936E-1,-6.6077394E0,4.0811584E1,-1.2842064E0,-2.8052422E1,6.4793175E-1,-1.3177877E1,7.7905786E-1,-2.0470145E0,8.2122345E0,4.78604E1,-6.6922253E-1,4.969925E-1,-2.976862E1,-2.9452285E-1,-5.834863E0,1.2903279E1,8.853493E-1,-1.5741082E1,-7.160202E-1,1.738978E0,5.2215588E1,-0E0,-3.3027554E0,-9.488587E-1,6.4803773E-1,-1.1783768E0,1.6598068E0,2.568512E-2,-1.693168E0,-0E0,5.867618E0,2.4990509E1,1.4822693E-1,3.0665834E0],"categories":[],"categories_nodes":[],"categories_segments":[],"categories_sizes":[],"default_left":[0,0,0,0,0,0,0,0,0,0,0,0,0,0,0,0,0,0,0,0,0,0,0,0,0,0,0,0,0,0,0,0,0,0,0,0,0,0,0,0,0,0,0,0,0,0,0],"id":23,"left_children":[1,3,5,7,9,-1,-1,11,13,15,17,-1,-1,19,21,23,25,27,29,-1,-1,31,33,-1,-1,35,-1,37,39,-1,41,-1,-1,43,-1,-1,-1,-1,-1,-1,-1,-1,-1,-1,45,-1,-1],"loss_changes":[3.0336254E4,1.5414077E4,2.5214395E3,1.5366375E4,1.2355298E3,0E0,0E0,2.9644531E1,7.853086E3,1.4073281E3,9.223623E2,0E0,0E0,1.2208486E3,2.7733984E3,1.771612E2,2.2273242E2,6.667733E2,1.020865E3,0E0,0E0,7.399872E2,2.5037266E3,0E0,0E0,1.3494824E2,0E0,4.6919116E2,5.163983E1,0E0,2.5792017E2,0E0,0E0,5.0109375E1,0E0,0E0,0E0,0E0,0E0,0E0,0E0,0E0,0E0,0E0,3.2747217E2,0E0,0E0],"parents":[2147483647,0,0,1,1,2,2,3,3,4,4,7,7,8,8,9,9,10,10,13,13,14,14,15,15,16,16,17,17,18,18,21,21,22,22,25,25,27,27,28,28,30,30,33,33,44,44],"right_children":[2,4,6,8,10,-1,-1,12,14,16,18,-1,-1,20,22,24,26,28,30,-1,-1,32,34,-1,-1,36,-1,38,40,-1,42,-1,-1,44,-1,-1,-1,-1,-1,-1,-1,-1,-1,-1,46,-1,-1],"split_conditions":[8.9E1,3.1E-1,1E0,5.5E1,6.1E1,8.305516E0,9.4580996E-1,2.7E-1,2.5E-1,3.3E-1,1E0,-4.38369E0,-8.4037936E-1,2.2E-1,5E0,4.7E1,5E-1,7.5E1,6.2E1,7.7905786E-1,-2.0470145E0,5.7E1,1E0,-6.6922253E-1,4.969925E-1,1.1E1,-2.9452285E-1,6.4E1,7.7E1,8.853493E-1,8.8E1,-7.160202E-1,1.738978E0,1.8E1,-0E0,-3.3027554E0,-9.488587E-1,6.4803773E-1,-1.1783768E0,1.6598068E0,2.568512E-2,-1.693168E0,-0E0,5.867618E0,1E0,1.4822693E-1,3.0665834E0],"split_indices":[2,1,6,2,2,0,0,1,1,1,18,0,0,1,22,2,1,2,2,0,0,2,7,0,0,22,0,2,2,0,2,0,0,21,0,0,0,0,0,0,0,0,0,0,19,0,0],"split_type":[0,0,0,0,0,0,0,0,0,0,0,0,0,0,0,0,0,0,0,0,0,0,0,0,0,0,0,0,0,0,0,0,0,0,0,0,0,0,0,0,0,0,0,0,0,0,0],"sum_hessian":[5.9E1,5.4E1,5E0,2.1E1,3.3E1,4E0,1E0,3E0,1.8E1,1.3E1,2E1,2E0,1E0,4E0,1.4E1,3E0,1E1,6E0,1.4E1,2E0,2E0,3E0,1.1E1,2E0,1E0,9E0,1E0,4E0,2E0,1E0,1.3E1,1E0,2E0,1E1,1E0,7E0,2E0,1E0,3E0,1E0,1E0,1.2E1,1E0,7E0,3E0,1E0,2E0],"tree_param":{"num_deleted":"0","num_feature":"24","num_nodes":"47","size_leaf_vector":"1"}},{"base_weights":[7.581391E-1,-5.2744594E0,7.6410728E0,-1.36639595E1,2.4108395E1,-2.0932663E1,5.645847E0,5.897061E1,-1.2562375E0,-3.209417E1,-1.3011194E1,3.0334747E1,-1.0885181E1,1.4442505E0,6.3987732E1,-4.140972E0,8.4108204E-1,-3.86042E0,-1.9354969E0,-1.866509E1,1.864151E0,4.9712462E0,1.5516711E1,-2.2123055E0,-7.4573517E-1,1.4908386E0,7.1280475E0,2.9680328E0,-7.838646E0,-2.3383268E1,-1.6648071E0,4.752462E0,-5.232857E-1,2.750551E0,-1.3719238E0,8.462853E-1,-5.280023E0,4.7214356E-1,-0E0,-8.862991E0,-0E0,-1.2822543E1,-4.2689266E0,2.8901742E0,-1.778188E0,5.660962E0,-0E0,-6.5342026E0,-0E0,-1.0376381E0,-0E0,-5.26532E-1,-1.8326702E0,-0E0,6.825409E-1,-0E0,-7.715851E-1],"categories":[],"categories_nodes":[],"categories_segments":[],"categories_sizes":[],"default_left":[0,0,0,0,0,0,0,0,0,0,0,0,0,0,0,0,0,0,0,0,0,0,0,0,0,0,0,0,0,0,0,0,0,0,0,0,0,0,0,0,0,0,0,0,0,0,0,0,0,0,0,0,0,0,0,0,0],"id":24,"left_children":[1,3,-1,5,7,9,11,13,15,17,19,21,23,-1,25,27,-1,-1,-1,29,31,-1,33,-1,35,-1,-1,37,39,41,43,45,-1,-1,-1,-1,47,-1,-1,49,-1,51,-1,-1,-1,53,-1,55,-1,-1,-1,-1,-1,-1,-1,-1,-1],"loss_changes":[3.0879896E4,1.5560657E4,0E0,7.072121E3,1.2742395E4,2.5398506E3,6.1413076E3,2.4123047E1,2.644618E2,1.2407617E2,2.053183E3,6.2531836E2,8.946704E2,0E0,2.9599414E2,2.5791266E2,0E0,0E0,0E0,1.1994072E3,1.6595554E2,0E0,2.1988052E3,0E0,2.7929623E2,0E0,0E0,1.8156252E1,2.4096863E1,1.8255654E3,2.9215442E3,2.4717087E1,0E0,0E0,0E0,0E0,3.139E1,0E0,0E0,3.7914032E1,0E0,2.0150562E2,0E0,0E0,0E0,2.6112381E1,0E0,7.8198547E0,0E0,0E0,0E0,0E0,0E0,0E0,0E0,0E0,0E0],"parents":[2147483647,0,0,1,1,3,3,4,4,5,5,6,6,7,7,8,8,9,9,10,10,11,11,12,12,14,14,15,15,19,19,20,20,22,22,24,24,27,27,28,28,29,29,30,30,31,31,36,36,39,39,41,41,45,45,47,47],"right_children":[2,4,-1,6,8,10,12,14,16,18,20,22,24,-1,26,28,-1,-1,-1,30,32,-1,34,-1,36,-1,-1,38,40,42,44,46,-1,-1,-1,-1,48,-1,-1,50,-1,52,-1,-1,-1,54,-1,56,-1,-1,-1,-1,-1,-1,-1,-1,-1],"split_conditions":[9E1,1E0,7.6410728E0,1E0,3.1E-1,8E0,2.7E-1,5E0,4.3E-1,7.2E1,7.8E1,6.1E1,3.2E-1,1.4442505E0,5.7E1,3.5E-1,8.4108204E-1,-3.86042E0,-1.9354969E0,4.4E-1,4.7E-1,4.9712462E0,1E1,-2.2123055E0,7E0,1.4908386E0,7.1280475E0,3.3E-1,6.4E1,1.8E1,4.7E-1,1E0,-5.232857E-1,2.750551E0,-1.3719238E0,8.462853E-1,4E-1,4.7214356E-1,-0E0,1.8E1,-0E0,1E0,-4.2689266E0,2.8901742E0,-1.778188E0,8E1,-0E0,3.3E-1,-0E0,-1.0376381E0,-0E0,-5.26532E-1,-1.8326702E0,-0E0,6.825409E-1,-0E0,-7.715851E-1],"split_indices":[2,4,0,3,1,22,1,22,1,2,2,2,1,0,2,1,0,0,0,1,1,0,22,0,22,0,0,1,2,21,1,6,0,0,0,0,1,0,0,21,0,18,0,0,0,2,0,1,0,0,0,0,0,0,0,0,0],"split_type":[0,0,0,0,0,0,0,0,0,0,0,0,0,0,0,0,0,0,0,0,0,0,0,0,0,0,0,0,0,0,0,0,0,0,0,0,0,0,0,0,0,0,0,0,0,0,0,0,0,0,0,0,0,0,0,0,0],"sum_hessian":[6.5E1,6.1E1,4E0,4.8E1,1.3E1,3.5E1,1.3E1,5E0,8E0,1.3E1,2.2E1,5E0,8E0,1E0,4E0,7E0,1E0,7E0,6E0,1.6E1,6E0,1E0,4E0,3E0,5E0,1E0,3E0,2E0,5E0,1.2E1,4E0,5E0,1E0,3E0,1E0,1E0,4E0,1E0,1E0,4E0,1E0,9E0,3E0,1E0,3E0,4E0,1E0,3E0,1E0,3E0,1E0,5E0,4E0,1E0,3E0,1E0,2E0],"tree_param":{"num_deleted":"0","num_feature":"24","num_nodes":"57","size_leaf_vector":"1"}}]},"name":"gbtree"},"learner_model_param":{"base_score":"3.004026E2","boost_from_average":"1","num_class":"0","num_feature":"24","num_target":"1"},"objective":{"name":"reg:squarederror","reg_loss_param":{"scale_pos_weight":"1"}}},"version":[3,0,2]}