{"learner":{"attributes":{"scikit_learn":"{\"_estimator_type\": \"regressor\"}"},"feature_names":[],"feature_types":[],"gradient_booster":{"model":{"gbtree_model_param":{"num_parallel_tree":"1","num_trees":"25"},"iteration_indptr":[0,1,2,3,4,5,6,7,8,9,10,11,12,13,14,15,16,17,18,19,20,21,22,23,24,25],"tree_info":[0,0,0,0,0,0,0,0,0,0,0,0,0,0,0,0,0,0,0,0,0,0,0,0,0],"trees":[{"base_weights":[-4.4960928E-1,1.5581306E2,-1.1108785E2,-3.938754E1,1.9832933E2,-1.6657907E2,5.494087E1,3.3674774E-1,-4.9612038E1,1.5064821E2,3.48388E1,-1.8048563E1,-7.772087E0,2.2977913E1,-1.2822087E1,-2.1198784E1,-7.9132524E0,5.6156635E0,1.5774968E1,-7.1766967E-1,-2.9132524E0],"categories":[],"categories_nodes":[],"categories_segments":[],"categories_sizes":[],"default_left":[0,0,0,0,0,0,0,0,0,0,0,0,0,0,0,0,0,0,0,0,0],"id":0,"left_children":[1,3,5,7,9,11,13,-1,15,17,-1,-1,-1,-1,-1,19,-1,-1,-1,-1,-1],"loss_changes":[1.2100005E6,2.4928325E5,3.874488E5,3.0211816E3,1.1673994E5,2.29885E4,3.8223075E5,0E0,2.0146953E3,3.492375E3,0E0,0E0,0E0,0E0,0E0,5.4368896E1,0E0,0E0,0E0,0E0,0E0],"parents":[2147483647,0,0,1,1,2,2,3,3,4,4,5,5,6,6,8,8,9,9,15,15],"right_children":[2,4,6,8,10,12,14,-1,16,18,-1,-1,-1,-1,-1,20,-1,-1,-1,-1,-1],"split_conditions":[4.5E-1,4E0,1E0,2.8E1,1E0,1E0,5.1E-1,3.3674774E-1,1E0,5E0,3.48388E1,-1.8048563E1,-7.772087E0,2.2977913E1,-1.2822087E1,2E0,-7.9132524E0,5.6156635E0,1.5774968E1,-7.1766967E-1,-2.9132524E0],"split_indices":[1,22,5,2,4,4,1,0,6,22,0,0,0,0,0,22,0,0,0,0,0],"split_type":[0,0,0,0,0,0,0,0,0,0,0,0,0,0,0,0,0,0,0,0,0],"sum_hessian":[6.8E1,2.8E1,4E1,5E0,2.3E1,3E1,1E1,1E0,4E0,1.9E1,4E0,2.5E1,5E0,5E0,5E0,3E0,1E0,2E0,1.7E1,2E0,1E0],"tree_param":{"num_deleted":"0","num_feature":"24","num_nodes":"21","size_leaf_vector":"1"}},{"base_weights":[-1.8216387E1,1.6875061E2,-1.2919159E2,1.01326614E2,3.645388E1,-1.5071635E2,-0E0,1.2456866E1,-7.0234537E0,-1.6556591E1,-8.721596E0,1.8250471E1,-1.0955437E1],"categories":[],"categories_nodes":[],"categories_segments":[],"categories_sizes":[],"default_left":[0,0,0,0,0,0,0,0,0,0,0,0,0],"id":1,"left_children":[1,3,5,7,-1,9,11,-1,-1,-1,-1,-1,-1],"loss_changes":[1.3910175E6,2.907537E5,1.1675556E5,8.876934E4,0E0,1.8242438E4,1.599347E5,0E0,0E0,0E0,0E0,0E0,0E0],"parents":[2147483647,0,0,1,1,2,2,3,3,5,5,6,6],"right_children":[2,4,6,8,-1,10,12,-1,-1,-1,-1,-1,-1],"split_conditions":[4.5E-1,1E0,1E0,2.2E1,3.645388E1,1E0,5.1E-1,1.2456866E1,-7.0234537E0,-1.6556591E1,-8.721596E0,1.8250471E1,-1.0955437E1],"split_indices":[1,4,5,21,0,4,1,0,0,0,0,0,0],"split_type":[0,0,0,0,0,0,0,0,0,0,0,0,0],"sum_hessian":[6.5E1,2.4E1,4.1E1,1.9E1,5E0,3.5E1,6E0,1.7E1,2E0,2.7E1,8E0,2E0,4E0],"tree_param":{"num_deleted":"0","num_feature":"24","num_nodes":"13","size_leaf_vector":"1"}},{"base_weights":[8.254814E0,1.398463E2,-8.630457E1,9.1553604E1,3.0082722E1,-1.3362451E2,3.0883987E1,1.15645676E2,-5.0545143E1,-1.44357195E1,-8.008974E1,1.9542217E1,-1.13846445E1,6.2311646E1,1.2893623E1,-6.5552225E0,-2.6194764E-2,-8.597613E0,-1.9885682E0,7.498571E1,-0E0,8.281653E0,1.9331207E0],"categories":[],"categories_nodes":[],"categories_segments":[],"categories_sizes":[],"default_left":[0,0,0,0,0,0,0,0,0,0,0,0,0,0,0,0,0,0,0,0,0,0,0],"id":2,"left_children":[1,3,5,7,-1,9,11,13,15,-1,17,-1,-1,19,-1,-1,-1,-1,-1,21,-1,-1,-1],"loss_changes":[8.33589E5,1.8817394E5,2.209094E5,8.491025E4,0E0,3.40425E3,3.0842016E5,5.1863125E3,2.6721738E3,0E0,2.416914E2,0E0,0E0,4.817838E3,0E0,0E0,0E0,0E0,0E0,6.741992E1,0E0,0E0,0E0],"parents":[2147483647,0,0,1,1,2,2,3,3,5,5,6,6,7,7,8,8,10,10,13,13,19,19],"right_children":[2,4,6,8,-1,10,12,14,16,-1,18,-1,-1,20,-1,-1,-1,-1,-1,22,-1,-1,-1],"split_conditions":[4.5E-1,1E0,1E0,2.2E1,3.0082722E1,1E0,5.1E-1,5E0,3.6E1,-1.44357195E1,6.2E1,1.9542217E1,-1.13846445E1,1E0,1.2893623E1,-6.5552225E0,-2.6194764E-2,-8.597613E0,-1.9885682E0,3.2E1,-0E0,8.281653E0,1.9331207E0],"split_indices":[1,4,5,21,0,4,1,22,2,0,2,0,0,6,0,0,0,0,0,2,0,0,0],"split_type":[0,0,0,0,0,0,0,0,0,0,0,0,0,0,0,0,0,0,0,0,0,0,0],"sum_hessian":[6.5E1,2.7E1,3.8E1,2.2E1,5E0,2.7E1,1.1E1,1.9E1,3E0,2.1E1,6E0,5E0,6E0,5E0,1.4E1,2E0,1E0,5E0,1E0,4E0,1E0,3E0,1E0],"tree_param":{"num_deleted":"0","num_feature":"24","num_nodes":"23","size_leaf_vector":"1"}},{"base_weights":[7.2957215E0,1.4263292E2,-8.8107666E1,9.206846E1,3.0212988E1,-1.27413086E2,4.093705E1,1.0619362E2,-4.5247253E1,-1.3766032E1,-7.627702E0,1.79137E1,-1.032524E1,8.113667E1,1.4240831E1,-0E0,-6.838655E0,8.741218E0,3.9207122E0],"categories":[],"categories_nodes":[],"categories_segments":[],"categories_sizes":[],"default_left":[0,0,0,0,0,0,0,0,0,0,0,0,0,0,0,0,0,0,0],"id":3,"left_children":[1,3,5,7,-1,9,11,13,15,-1,-1,-1,-1,17,-1,-1,-1,-1,-1],"loss_changes":[9.683002E5,2.2022369E5,2.2882316E5,5.359986E4,0E0,6.246125E3,2.3807244E5,8.198609E3,3.2114985E3,0E0,0E0,0E0,0E0,1.4978906E2,0E0,0E0,0E0,0E0,0E0],"parents":[2147483647,0,0,1,1,2,2,3,3,5,5,6,6,7,7,8,8,13,13],"right_children":[2,4,6,8,-1,10,12,14,16,-1,-1,-1,-1,18,-1,-1,-1,-1,-1],"split_conditions":[4.5E-1,1E0,1E0,2.2E1,3.0212988E1,1E0,5.1E-1,4.7E1,3.2E1,-1.3766032E1,-7.627702E0,1.79137E1,-1.032524E1,1.1E1,1.4240831E1,-0E0,-6.838655E0,8.741218E0,3.9207122E0],"split_indices":[1,4,5,21,0,4,1,2,2,0,0,0,0,21,0,0,0,0,0],"split_type":[0,0,0,0,0,0,0,0,0,0,0,0,0,0,0,0,0,0,0],"sum_hessian":[7.3E1,3E1,4.3E1,2.4E1,6E0,3.3E1,1E1,2.2E1,2E0,2.6E1,7E0,5E0,5E0,1.5E1,7E0,1E0,1E0,1.2E1,3E0],"tree_param":{"num_deleted":"0","num_feature":"24","num_nodes":"19","size_leaf_vector":"1"}},{"base_weights":[-2.0526247E0,1.27142784E2,-9.2563095E1,8.267449E1,2.755808E1,-1.1045126E2,6.831303E0,9.72957E1,-9.850204E0,-1.2939842E1,-7.749164E1,9.228802E0,-7.908324E0,4.8102417E1,1.10153305E2,-0E0,-2.0886552E0,-8.659831E0,-4.095863E0,6.785267E0,2.0014122E1,7.0835814E0,1.2793876E1,-2.3999481E-1,2.9952128E0],"categories":[],"categories_nodes":[],"categories_segments":[],"categories_sizes":[],"default_left":[0,0,0,0,0,0,0,0,0,0,0,0,0,0,0,0,0,0,0,0,0,0,0,0,0],"id":4,"left_children":[1,3,5,7,-1,9,11,13,15,-1,17,-1,-1,19,21,-1,-1,-1,-1,-1,23,-1,-1,-1,-1],"loss_changes":[7.950628E5,1.6024719E5,7.239197E4,3.2510562E4,0E0,1.0170969E4,5.8758277E4,6.5602344E3,4.8438992E2,0E0,8.056719E2,0E0,0E0,1.5311602E3,4.3267188E2,0E0,0E0,0E0,0E0,0E0,1.100649E3,0E0,0E0,0E0,0E0],"parents":[2147483647,0,0,1,1,2,2,3,3,5,5,6,6,7,7,8,8,10,10,13,13,14,14,20,20],"right_children":[2,4,6,8,-1,10,12,14,16,-1,18,-1,-1,20,22,-1,-1,-1,-1,-1,24,-1,-1,-1,-1],"split_conditions":[4.5E-1,1E0,1E0,2.2E1,2.755808E1,4.2E1,5.1E-1,6E0,2E0,-1.2939842E1,1E0,9.228802E0,-7.908324E0,2.3E1,3.6E1,-0E0,-2.0886552E0,-8.659831E0,-4.095863E0,6.785267E0,2.8E1,7.0835814E0,1.2793876E1,-2.3999481E-1,2.9952128E0],"split_indices":[1,4,5,21,0,2,1,22,22,0,4,0,0,2,2,0,0,0,0,0,2,0,0,0,0],"split_type":[0,0,0,0,0,0,0,0,0,0,0,0,0,0,0,0,0,0,0,0,0,0,0,0,0],"sum_hessian":[6.6E1,2.7E1,3.9E1,2.2E1,5E0,3.3E1,6E0,1.9E1,3E0,1.9E1,1.4E1,3E0,3E0,5E0,1.4E1,2E0,1E0,1E1,4E0,2E0,3E0,6E0,8E0,1E0,2E0],"tree_param":{"num_deleted":"0","num_feature":"24","num_nodes":"25","size_leaf_vector":"1"}},{"base_weights":[4.1432242E0,1.1130383E2,-6.3791386E1,6.93313E1,2.3882374E1,-9.8329346E1,3.8887535E1,9.079084E1,-4.331949E1,-1.0646299E2,-4.5861983E0,1.5651825E1,-8.439111E0,6.4533875E1,1.0932183E1,-5.82063E0,-0E0,-1.08289585E1,-2.7899156E0,7.4604774E0,2.9526322E0],"categories":[],"categories_nodes":[],"categories_segments":[],"categories_sizes":[],"default_left":[0,0,0,0,0,0,0,0,0,0,0,0,0,0,0,0,0,0,0,0,0],"id":5,"left_children":[1,3,5,7,-1,9,11,13,15,17,-1,-1,-1,19,-1,-1,-1,-1,-1,-1,-1],"loss_changes":[4.878121E5,1.2106194E5,1.4952012E5,5.4936484E4,0E0,7.5850625E3,1.7308427E5,8.339844E2,2.6576074E3,2.896875E1,0E0,0E0,0E0,8.021133E2,0E0,0E0,0E0,0E0,0E0,0E0,0E0],"parents":[2147483647,0,0,1,1,2,2,3,3,5,5,6,6,7,7,8,8,9,9,13,13],"right_children":[2,4,6,8,-1,10,12,14,16,18,-1,-1,-1,20,-1,-1,-1,-1,-1,-1,-1],"split_conditions":[4.5E-1,1E0,1E0,2.2E1,2.3882374E1,1E0,5.1E-1,4.1E1,3.6E1,1.2E1,-4.5861983E0,1.5651825E1,-8.439111E0,1.1E1,1.0932183E1,-5.82063E0,-0E0,-1.08289585E1,-2.7899156E0,7.4604774E0,2.9526322E0],"split_indices":[1,4,5,21,0,4,1,2,2,22,0,0,0,21,0,0,0,0,0,0,0],"split_type":[0,0,0,0,0,0,0,0,0,0,0,0,0,0,0,0,0,0,0,0,0],"sum_hessian":[6.5E1,2.5E1,4E1,2E1,5E0,3E1,1E1,1.7E1,3E0,2.5E1,5E0,5E0,5E0,9E0,8E0,2E0,1E0,2.4E1,1E0,6E0,3E0],"tree_param":{"num_deleted":"0","num_feature":"24","num_nodes":"21","size_leaf_vector":"1"}},{"base_weights":[6.52433E0,1.02194725E2,-7.367314E1,6.152191E1,2.3214123E1,-8.828502E1,-1.7848978E1,8.084917E1,-3.0956951E1,-1.0289576E1,-6.4923816E0,7.362756E0,-7.669184E0,5.9609704E0,1.0728709E1,-6.4177322E0,-6.205692E0,1.0643005E-1,-1.6931915E0],"categories":[],"categories_nodes":[],"categories_segments":[],"categories_sizes":[],"default_left":[0,0,0,0,0,0,0,0,0,0,0,0,0,0,0,0,0,0,0],"id":6,"left_children":[1,3,5,7,-1,9,11,13,15,-1,-1,-1,-1,-1,-1,17,-1,-1,-1],"loss_changes":[5.2173072E5,1.4809384E5,2.8074266E4,4.743639E4,0E0,2.3789375E3,5.4106625E4,4.5622344E3,3.075206E3,0E0,0E0,0E0,0E0,0E0,0E0,4.1202856E2,0E0,0E0,0E0],"parents":[2147483647,0,0,1,1,2,2,3,3,5,5,6,6,7,7,8,8,15,15],"right_children":[2,4,6,8,-1,10,12,14,16,-1,-1,-1,-1,-1,-1,18,-1,-1,-1],"split_conditions":[4.5E-1,1E0,1E0,2.2E1,2.3214123E1,3.9E1,5.1E-1,4.7E1,1E0,-1.0289576E1,-6.4923816E0,7.362756E0,-7.669184E0,5.9609704E0,1.0728709E1,2E0,-6.205692E0,1.0643005E-1,-1.6931915E0],"split_indices":[1,4,5,21,0,2,1,2,6,0,0,0,0,0,0,22,0,0,0],"split_type":[0,0,0,0,0,0,0,0,0,0,0,0,0,0,0,0,0,0,0],"sum_hessian":[6.6E1,3E1,3.6E1,2.4E1,6E0,2.8E1,8E0,2E1,4E0,1.5E1,1.3E1,3E0,5E0,1.3E1,7E0,3E0,1E0,2E0,1E0],"tree_param":{"num_deleted":"0","num_feature":"24","num_nodes":"19","size_leaf_vector":"1"}},{"base_weights":[-5.2536764E0,8.344151E1,-6.210306E1,4.5538948E1,2.2494398E1,-8.137536E1,1.0624095E1,-2.8346685E1,7.071237E1,-8.823333E1,-5.0004535E0,1.3060549E1,-7.030085E0,-6.047653E0,-4.6963165E1,3.7819943E0,8.177076E1,-9.33432E0,-3.8098183E0,9.933472E-2,-1.6085328E0,-8.990677E-1,-5.895407E0,4.1545544E1,9.810723E0,4.6936607E1,7.490646E-1,5.4018283E0,1.0345795E0],"categories":[],"categories_nodes":[],"categories_segments":[],"categories_sizes":[],"default_left":[0,0,0,0,0,0,0,0,0,0,0,0,0,0,0,0,0,0,0,0,0,0,0,0,0,0,0,0,0],"id":7,"left_children":[1,3,5,7,-1,9,11,13,15,17,-1,-1,-1,19,21,-1,23,-1,-1,-1,-1,-1,-1,25,-1,27,-1,-1,-1],"loss_changes":[3.227381E5,1.22486516E5,5.5881453E4,4.1275344E4,0E0,1.5660781E3,9.6868586E4,1.9417056E3,2.1292734E3,1.9350312E3,0E0,0E0,0E0,3.7413928E2,4.962129E2,0E0,2.454336E3,0E0,0E0,0E0,0E0,0E0,0E0,2.9423926E2,0E0,1.5581445E2,0E0,0E0,0E0],"parents":[2147483647,0,0,1,1,2,2,3,3,5,5,6,6,7,7,8,8,9,9,13,13,14,14,16,16,23,23,25,25],"right_children":[2,4,6,8,-1,10,12,14,16,18,-1,-1,-1,20,22,-1,24,-1,-1,-1,-1,-1,-1,26,-1,28,-1,-1,-1],"split_conditions":[4.5E-1,1E0,1E0,4E0,2.2494398E1,1E0,5.1E-1,1E0,6E0,1E0,-5.0004535E0,1.3060549E1,-7.030085E0,2E0,2.8E1,3.7819943E0,4.1E1,-9.33432E0,-3.8098183E0,9.933472E-2,-1.6085328E0,-8.990677E-1,-5.895407E0,3.2E1,9.810723E0,1E0,7.490646E-1,5.4018283E0,1.0345795E0],"split_indices":[1,4,5,22,0,4,1,6,22,3,0,0,0,22,2,0,2,0,0,0,0,0,0,2,0,6,0,0,0],"split_type":[0,0,0,0,0,0,0,0,0,0,0,0,0,0,0,0,0,0,0,0,0,0,0,0,0,0,0,0,0],"sum_hessian":[6.2E1,2.4E1,3.8E1,2E1,4E0,3E1,8E0,5E0,1.5E1,2.3E1,7E0,3E0,5E0,3E0,2E0,5E0,1E1,2E1,3E0,2E0,1E0,1E0,1E0,4E0,6E0,3E0,1E0,2E0,1E0],"tree_param":{"num_deleted":"0","num_feature":"24","num_nodes":"29","size_leaf_vector":"1"}},{"base_weights":[8.3997135E0,8.48299E1,-4.900792E1,5.4886288E1,1.9462332E1,-6.541606E1,1.7349785E1,6.90039E1,-3.5232162E1,-7.696431E1,-2.5646405E0,3.4686684E1,7.939244E1,-7.971975E0,-5.6006365E0,-1.0270507E1,-6.2209007E1,5.8310075E0,-6.4048195E0,4.4643884E0,4.8624573E0,4.6583332E1,9.391957E0,8.231049E-2,-1.5281067E0,-6.4355774E0,-4.990097E-1,-8.5411376E-1,1.8334824E0,5.9226074E0,2.1044755E0],"categories":[],"categories_nodes":[],"categories_segments":[],"categories_sizes":[],"default_left":[0,0,0,0,0,0,0,0,0,0,0,0,0,0,0,0,0,0,0,0,0,0,0,0,0,0,0,0,0,0,0],"id":8,"left_children":[1,3,5,7,-1,9,-1,11,13,15,17,19,21,23,-1,-1,25,-1,-1,-1,27,29,-1,-1,-1,-1,-1,-1,-1,-1,-1],"loss_changes":[3.070861E5,8.669864E4,1.5684538E5,3.4406453E4,0E0,2.6986266E4,0E0,4.518867E3,1.4988613E3,4.9402656E3,2.9962904E4,1.6141494E3,2.5483594E3,2.7771985E2,0E0,0E0,2.1573438E3,0E0,0E0,0E0,7.4730316E2,6.123906E2,0E0,0E0,0E0,0E0,0E0,0E0,0E0,0E0,0E0],"parents":[2147483647,0,0,1,1,2,2,3,3,5,5,7,7,8,8,9,9,10,10,11,11,12,12,13,13,16,16,20,20,21,21],"right_children":[2,4,6,8,-1,10,-1,12,14,16,18,20,22,24,-1,-1,26,-1,-1,-1,28,30,-1,-1,-1,-1,-1,-1,-1,-1,-1],"split_conditions":[4.5E-1,1E0,6.4E1,2.2E1,1.9462332E1,1E0,1.7349785E1,6E0,3.2E1,4E0,5.1E-1,1E0,4.1E1,2E0,-5.6006365E0,-1.0270507E1,6.3E1,5.8310075E0,-6.4048195E0,4.4643884E0,2.8E1,1.1E1,9.391957E0,8.231049E-2,-1.5281067E0,-6.4355774E0,-4.990097E-1,-8.5411376E-1,1.8334824E0,5.9226074E0,2.1044755E0],"split_indices":[1,4,2,21,0,5,0,22,2,22,1,6,2,22,0,0,2,0,0,0,2,21,0,0,0,0,0,0,0,0,0],"split_type":[0,0,0,0,0,0,0,0,0,0,0,0,0,0,0,0,0,0,0,0,0,0,0,0,0,0,0,0,0,0,0],"sum_hessian":[6.8E1,2.9E1,3.9E1,2.4E1,5E0,3.7E1,2E0,2.1E1,3E0,3.1E1,6E0,6E0,1.5E1,2E0,1E0,9E0,2.2E1,3E0,3E0,4E0,2E0,6E0,9E0,1E0,1E0,2.1E1,1E0,1E0,1E0,3E0,3E0],"tree_param":{"num_deleted":"0","num_feature":"24","num_nodes":"31","size_leaf_vector":"1"}},{"base_weights":[1.4217713E1,8.9570114E1,-4.1547676E1,5.7681805E1,1.762805E1,-5.7489048E1,1.6193132E1,2.1822475E1,6.945265E1,-6.486386E1,-2.2944202E1,5.1927934E0,7.31691E0,4.0117058E1,8.25423E0,-7.3591515E1,-3.6736694E1,6.127718E0,-6.2064195E0,-0E0,2.3488266E0,4.8227816E0,1.156011E0,-7.520756E0,-1.8135308E0,-4.4712997E1,-1.4338067E0,-8.114075E-1,3.288269E-1,-4.899673E0,-9.1471714E-1],"categories":[],"categories_nodes":[],"categories_segments":[],"categories_sizes":[],"default_left":[0,0,0,0,0,0,0,0,0,0,0,0,0,0,0,0,0,0,0,0,0,0,0,0,0,0,0,0,0,0,0],"id":9,"left_children":[1,3,5,7,-1,9,-1,11,13,15,17,-1,19,21,-1,23,25,-1,-1,27,-1,-1,-1,-1,-1,29,-1,-1,-1,-1,-1],"loss_changes":[2.770952E5,6.608331E4,1.3204894E5,7.3140703E3,0E0,7.2441484E3,0E0,2.3807007E3,2.2192344E3,3.8638906E3,3.0164969E4,0E0,7.821743E2,7.648711E2,0E0,5.1390625E1,6.715713E2,0E0,0E0,1.7492728E2,0E0,0E0,0E0,0E0,0E0,1.7522559E2,0E0,0E0,0E0,0E0,0E0],"parents":[2147483647,0,0,1,1,2,2,3,3,5,5,7,7,8,8,9,9,10,10,12,12,13,13,15,15,16,16,19,19,25,25],"right_children":[2,4,6,8,-1,10,-1,12,14,16,18,-1,20,22,-1,24,26,-1,-1,28,-1,-1,-1,-1,-1,30,-1,-1,-1,-1,-1],"split_conditions":[4.5E-1,1E0,6.5E1,5E0,1.762805E1,1E0,1.6193132E1,2.3E1,4.1E1,1E0,5.1E-1,5.1927934E0,1E0,1E1,8.25423E0,1.2E1,4.4E1,6.127718E0,-6.2064195E0,2.8E1,2.3488266E0,4.8227816E0,1.156011E0,-7.520756E0,-1.8135308E0,5.4E-1,-1.4338067E0,-8.114075E-1,3.288269E-1,-4.899673E0,-9.1471714E-1],"split_indices":[1,4,2,22,0,5,0,2,2,4,1,0,3,21,0,22,2,0,0,2,0,0,0,0,0,1,0,0,0,0,0],"split_type":[0,0,0,0,0,0,0,0,0,0,0,0,0,0,0,0,0,0,0,0,0,0,0,0,0,0,0,0,0,0,0],"sum_hessian":[6.4E1,2.7E1,3.7E1,2.1E1,6E0,3.5E1,2E0,6E0,1.5E1,2.8E1,7E0,1E0,5E0,6E0,9E0,2E1,8E0,2E0,5E0,4E0,1E0,4E0,2E0,1.9E1,1E0,5E0,3E0,1E0,3E0,4E0,1E0],"tree_param":{"num_deleted":"0","num_feature":"24","num_nodes":"31","size_leaf_vector":"1"}},{"base_weights":[5.688764E0,7.290843E1,-4.0741215E1,4.487736E1,1.72048E1,-5.423847E1,1.5113588E1,6.0525917E1,-2.569234E1,-6.2868774E1,-1.123365E1,4.130759E1,7.511348E1,-4.1801987E0,-5.337045E0,-6.771296E1,-2.8951097E0,4.934104E1,-5.8446674E0,2.1629898E1,5.3267355E0,1.7605972E0,7.899143E1,2.5473532E-1,-1.4681427E0,-7.765445E0,-4.483481E1,1.0394028E0,5.7192035E0,-7.708374E-1,3.0039227E1,8.330825E0,1.972847E0,-5.103802E0,-1.9969677E0,3.3556092E0,5.485886E-1],"categories":[],"categories_nodes":[],"categories_segments":[],"categories_sizes":[],"default_left":[0,0,0,0,0,0,0,0,0,0,0,0,0,0,0,0,0,0,0,0,0,0,0,0,0,0,0,0,0,0,0,0,0,0,0,0,0],"id":10,"left_children":[1,3,5,7,-1,9,-1,11,13,15,17,19,21,23,-1,25,-1,27,-1,29,-1,-1,31,-1,-1,-1,33,-1,-1,-1,35,-1,-1,-1,-1,-1,-1],"loss_changes":[2.2160177E5,7.178497E4,1.1648506E5,2.8232762E4,0E0,1.3769031E4,0E0,1.9221094E3,2.4662253E3,2.9783438E3,2.5808664E4,1.0620938E3,3.5640625E2,3.8065936E2,0E0,2.274336E3,0E0,2.9070508E2,0E0,1.8234988E3,0E0,0E0,1.4371484E2,0E0,0E0,0E0,3.2243164E2,0E0,0E0,0E0,5.2458984E1,0E0,0E0,0E0,0E0,0E0,0E0],"parents":[2147483647,0,0,1,1,2,2,3,3,5,5,7,7,8,8,9,9,10,10,11,11,12,12,13,13,15,15,17,17,19,19,22,22,26,26,30,30],"right_children":[2,4,6,8,-1,10,-1,12,14,16,18,20,22,24,-1,26,-1,28,-1,30,-1,-1,32,-1,-1,-1,34,-1,-1,-1,36,-1,-1,-1,-1,-1,-1],"split_conditions":[4.5E-1,1E0,6.5E1,2.2E1,1.72048E1,1E0,1.5113588E1,4.1E1,1E0,1E0,5.1E-1,1E0,6E0,2E0,-5.337045E0,4.5E1,-2.8951097E0,1E1,-5.8446674E0,4E0,5.3267355E0,1.7605972E0,7E1,2.5473532E-1,-1.4681427E0,-7.765445E0,1E0,1.0394028E0,5.7192035E0,-7.708374E-1,1.1E1,8.330825E0,1.972847E0,-5.103802E0,-1.9969677E0,3.3556092E0,5.485886E-1],"split_indices":[1,4,2,21,0,5,0,2,6,4,1,7,22,22,0,2,0,21,0,22,0,0,2,0,0,0,3,0,0,0,21,0,0,0,0,0,0],"split_type":[0,0,0,0,0,0,0,0,0,0,0,0,0,0,0,0,0,0,0,0,0,0,0,0,0,0,0,0,0,0,0,0,0,0,0,0,0],"sum_hessian":[6.9E1,2.8E1,4.1E1,2.3E1,5E0,3.9E1,2E0,1.9E1,4E0,3.2E1,7E0,1E1,9E0,3E0,1E0,2.7E1,5E0,3E0,4E0,5E0,5E0,1E0,8E0,2E0,1E0,1.7E1,1E1,1E0,2E0,1E0,4E0,7E0,1E0,7E0,3E0,3E0,1E0],"tree_param":{"num_deleted":"0","num_feature":"24","num_nodes":"37","size_leaf_vector":"1"}},{"base_weights":[-2.96864E0,5.1983593E1,-3.834344E1,6.655318E1,-2.4433197E1,-5.9730053E1,2.6903374E1,5.309319E0,1.1596481E1,-3.9405289E0,-5.070194E0,-6.665302E0,-2.476904E1,1.021778E2,-5.2021623E0,2.377533E-1,-1.3947357E0,-2.720517E0,-2.5761262E-1,4.622159E1,1.4106017E1,9.874329E-1,5.337923E0],"categories":[],"categories_nodes":[],"categories_segments":[],"categories_sizes":[],"default_left":[0,0,0,0,0,0,0,0,0,0,0,0,0,0,0,0,0,0,0,0,0,0,0],"id":11,"left_children":[1,3,5,7,9,11,13,-1,-1,15,-1,-1,17,19,-1,-1,-1,-1,-1,21,-1,-1,-1],"loss_changes":[1.3411189E5,3.1897445E4,6.037822E4,8.294602E3,2.2185776E3,5.637039E3,7.091762E4,0E0,0E0,3.4390445E2,0E0,0E0,1.5946387E2,5.597824E3,0E0,0E0,0E0,0E0,0E0,1.9729102E2,0E0,0E0,0E0],"parents":[2147483647,0,0,1,1,2,2,3,3,4,4,5,5,6,6,9,9,12,12,13,13,19,19],"right_children":[2,4,6,8,10,12,14,-1,-1,16,-1,-1,18,20,-1,-1,-1,-1,-1,22,-1,-1,-1],"split_conditions":[4.5E-1,2.2E1,1E0,1E0,1E0,1E0,5.1E-1,5.309319E0,1.1596481E1,2E0,-5.070194E0,-6.665302E0,6.2E1,3.6E1,-5.2021623E0,2.377533E-1,-1.3947357E0,-2.720517E0,-2.5761262E-1,1E1,1.4106017E1,9.874329E-1,5.337923E0],"split_indices":[1,21,5,4,6,4,1,0,0,22,0,0,2,2,0,0,0,0,0,21,0,0,0],"split_type":[0,0,0,0,0,0,0,0,0,0,0,0,0,0,0,0,0,0,0,0,0,0,0],"sum_hessian":[6.7E1,2.6E1,4.1E1,2.2E1,4E0,3.1E1,1E1,1.9E1,3E0,3E0,1E0,2.5E1,6E0,5E0,5E0,2E0,1E0,5E0,1E0,3E0,2E0,1E0,2E0],"tree_param":{"num_deleted":"0","num_feature":"24","num_nodes":"23","size_leaf_vector":"1"}},{"base_weights":[2.477998E0,5.855177E1,-3.6179558E1,3.2070168E1,1.3648392E2,-4.7987747E1,1.3165614E1,-2.940926E1,4.682422E1,1.4804692E1,3.105295E0,-4.1278763E1,-8.569489E0,-1.1428154E1,-4.8166842E0,2.7862576E1,6.0603443E1,-4.4772224E1,-1.9695543E1,3.7129212E-2,-1.7151734E0,3.1241238E1,-0E0,1.4071015E0,6.365471E0,-2.434396E1,-4.9713696E1,-0E0,-2.2470043E0,3.6502664E0,6.8841654E-1,-4.7634196E0,9.604824E0,-5.3134246E0,-2.5772884E0,3.6164052E0,-3.253643E0],"categories":[],"categories_nodes":[],"categories_segments":[],"categories_sizes":[],"default_left":[0,0,0,0,0,0,0,0,0,0,0,0,0,0,0,0,0,0,0,0,0,0,0,0,0,0,0,0,0,0,0,0,0,0,0,0,0],"id":12,"left_children":[1,3,5,7,9,11,-1,13,15,-1,-1,17,-1,19,-1,21,23,25,27,-1,-1,29,-1,-1,-1,31,33,-1,-1,-1,-1,-1,35,-1,-1,-1,-1],"loss_changes":[1.539675E5,5.4629438E4,8.913664E4,2.2326766E4,3.040914E3,5.9468203E3,0E0,8.3797705E2,2.8333594E3,0E0,0E0,1.5102539E3,0E0,3.6041077E2,0E0,1.0209033E3,1.3551172E2,1.4478555E3,3.1401587E2,0E0,0E0,6.8515137E2,0E0,0E0,0E0,6.973067E3,1.1952344E2,0E0,0E0,0E0,0E0,0E0,5.6717437E3,0E0,0E0,0E0,0E0],"parents":[2147483647,0,0,1,1,2,2,3,3,4,4,5,5,7,7,8,8,11,11,13,13,15,15,16,16,17,17,18,18,21,21,25,25,26,26,32,32],"right_children":[2,4,6,8,10,12,-1,14,16,-1,-1,18,-1,20,-1,22,24,26,28,-1,-1,30,-1,-1,-1,32,34,-1,-1,-1,-1,-1,36,-1,-1,-1,-1],"split_conditions":[4.5E-1,1E0,6.5E1,4E0,1.1E1,2.2E1,1.3165614E1,3.2E1,4.7E1,1.4804692E1,3.105295E0,5.5E1,-8.569489E0,2E0,-4.8166842E0,4.1E1,6E0,4E0,4.7E-1,3.7129212E-2,-1.7151734E0,1.1E1,-0E0,1.4071015E0,6.365471E0,1E0,1E0,-0E0,-2.2470043E0,3.6502664E0,6.8841654E-1,-4.7634196E0,5.1E-1,-5.3134246E0,-2.5772884E0,3.6164052E0,-3.253643E0],"split_indices":[1,4,2,22,22,21,0,2,2,0,0,2,0,22,0,2,22,22,1,0,0,21,0,0,0,5,4,0,0,0,0,0,1,0,0,0,0],"split_type":[0,0,0,0,0,0,0,0,0,0,0,0,0,0,0,0,0,0,0,0,0,0,0,0,0,0,0,0,0,0,0,0,0,0,0,0,0],"sum_hessian":[6.9E1,2.8E1,4.1E1,2.2E1,6E0,3.9E1,2E0,4E0,1.8E1,5E0,1E0,3.5E1,4E0,3E0,1E0,9E0,9E0,2.9E1,6E0,1E0,2E0,8E0,1E0,1E0,8E0,7E0,2.2E1,1E0,5E0,6E0,2E0,4E0,3E0,1.8E1,4E0,2E0,1E0],"tree_param":{"num_deleted":"0","num_feature":"24","num_nodes":"37","size_leaf_vector":"1"}},{"base_weights":[9.911119E0,6.4369896E1,-2.5609865E1,4.250761E1,1.2932625E2,-3.679031E1,1.2287907E1,1.0515791E1,5.426995E1,1.4239139E1,2.9500306E0,-4.3488586E1,-9.819362E0,3.9483197E0,-7.96781E0,3.6189835E1,6.9048686E0,-4.7864094E0,-2.4847925E1,4.2825928E1,-4.4112997E0,-1.600828E0,1.0619303E0,4.3061833E0,6.425222E-1,-0E0,-2.7962122E0,7.5724185E-1,5.038629E0,-0E0,2.8655854E-1],"categories":[],"categories_nodes":[],"categories_segments":[],"categories_sizes":[],"default_left":[0,0,0,0,0,0,0,0,0,0,0,0,0,0,0,0,0,0,0,0,0,0,0,0,0,0,0,0,0,0,0],"id":13,"left_children":[1,3,5,7,9,11,-1,13,15,-1,-1,17,19,-1,21,23,-1,-1,25,27,-1,-1,29,-1,-1,-1,-1,-1,-1,-1,-1],"loss_changes":[1.2758022E5,3.0565938E4,7.049722E4,7.0076562E3,2.7653828E3,6.171465E3,0E0,4.2201255E3,9.8296094E2,0E0,0E0,8.939883E2,1.8144197E4,0E0,4.547483E2,1.3167646E3,0E0,0E0,5.3380615E2,3.9477832E2,0E0,0E0,1.3040071E1,0E0,0E0,0E0,0E0,0E0,0E0,0E0,0E0],"parents":[2147483647,0,0,1,1,2,2,3,3,4,4,5,5,7,7,8,8,11,11,12,12,14,14,15,15,18,18,19,19,22,22],"right_children":[2,4,6,8,10,12,-1,14,16,-1,-1,18,20,-1,22,24,-1,-1,26,28,-1,-1,30,-1,-1,-1,-1,-1,-1,-1,-1],"split_conditions":[4.5E-1,1E0,6.5E1,5E0,9E0,1E0,1.2287907E1,2.3E1,4.1E1,1.4239139E1,2.9500306E0,5E1,5.1E-1,3.9483197E0,3.2E1,1.1E1,6.9048686E0,-4.7864094E0,4.7E-1,1E1,-4.4112997E0,-1.600828E0,4E-1,4.3061833E0,6.425222E-1,-0E0,-2.7962122E0,7.5724185E-1,5.038629E0,-0E0,2.8655854E-1],"split_indices":[1,4,2,22,22,5,0,2,2,0,0,2,1,0,2,21,0,0,1,21,0,0,1,0,0,0,0,0,0,0,0],"split_type":[0,0,0,0,0,0,0,0,0,0,0,0,0,0,0,0,0,0,0,0,0,0,0,0,0,0,0,0,0,0,0],"sum_hessian":[6.4E1,2.5E1,3.9E1,2E1,5E0,3.7E1,2E0,6E0,1.4E1,4E0,1E0,2.9E1,8E0,2E0,4E0,8E0,6E0,2.2E1,7E0,3E0,5E0,2E0,2E0,6E0,2E0,1E0,6E0,1E0,2E0,1E0,1E0],"tree_param":{"num_deleted":"0","num_feature":"24","num_nodes":"31","size_leaf_vector":"1"}},{"base_weights":[5.1987934E-1,5.518798E1,-3.1682177E1,3.2168377E1,1.2572526E1,-4.7909557E1,2.0900831E1,3.8109386E1,-1.3582687E0,-6.474982E0,-3.682292E1,8.492177E1,-4.5770245E0,2.4682817E1,5.1182246E0,4.2502952E-1,-1.159198E0,-3.1924536E1,-6.9793687E0,4.0117302E1,1.1468714E1,3.179838E1,8.784467E0,-3.321373E1,-0E0,7.193802E-1,4.70272E0,3.5634289E0,1.8914643E-1,-8.319611E-1,1.6390389E0,-3.5239682E0,-1.45435295E1,-0E0,-1.8375189E0],"categories":[],"categories_nodes":[],"categories_segments":[],"categories_sizes":[],"default_left":[0,0,0,0,0,0,0,0,0,0,0,0,0,0,0,0,0,0,0,0,0,0,0,0,0,0,0,0,0,0,0,0,0,0,0],"id":14,"left_children":[1,3,5,7,-1,9,11,13,15,-1,17,19,-1,21,-1,-1,-1,23,-1,25,-1,27,29,31,-1,-1,-1,-1,-1,-1,-1,-1,33,-1,-1],"loss_changes":[1.2333534E5,3.738339E4,3.8680906E4,4.418342E3,0E0,3.4557188E3,5.1034438E4,1.5167793E3,3.1556342E2,0E0,9.778594E2,2.6267695E3,0E0,7.621362E2,0E0,0E0,0E0,7.4431836E2,0E0,3.00583E2,0E0,5.480117E2,8.27177E2,3.2896484E1,0E0,0E0,0E0,0E0,0E0,0E0,0E0,0E0,1.6688562E2,0E0,0E0],"parents":[2147483647,0,0,1,1,2,2,3,3,5,5,6,6,7,7,8,8,10,10,11,11,13,13,17,17,19,19,21,21,22,22,23,23,32,32],"right_children":[2,4,6,8,-1,10,12,14,16,-1,18,20,-1,22,-1,-1,-1,24,-1,26,-1,28,30,32,-1,-1,-1,-1,-1,-1,-1,-1,34,-1,-1],"split_conditions":[4.5E-1,1E0,1E0,2.2E1,1.2572526E1,5E0,5.1E-1,4.1E1,2E0,-6.474982E0,6.4E1,3.6E1,-4.5770245E0,1E0,5.1182246E0,4.2502952E-1,-1.159198E0,6.3E1,-6.9793687E0,1E1,1.1468714E1,3.6E1,4E0,5.4E1,-0E0,7.193802E-1,4.70272E0,3.5634289E0,1.8914643E-1,-8.319611E-1,1.6390389E0,-3.5239682E0,4.7E-1,-0E0,-1.8375189E0],"split_indices":[1,4,5,21,0,22,1,2,22,0,2,2,0,6,0,0,0,2,0,21,0,2,22,2,0,0,0,0,0,0,0,0,1,0,0],"split_type":[0,0,0,0,0,0,0,0,0,0,0,0,0,0,0,0,0,0,0,0,0,0,0,0,0,0,0,0,0,0,0,0,0,0,0],"sum_hessian":[6.8E1,2.5E1,4.3E1,2E1,5E0,3.3E1,1E1,1.7E1,3E0,1.1E1,2.2E1,5E0,5E0,1E1,7E0,2E0,1E0,2.1E1,1E0,3E0,2E0,6E0,4E0,2E1,1E0,1E0,2E0,5E0,1E0,1E0,3E0,1.7E1,3E0,1E0,2E0],"tree_param":{"num_deleted":"0","num_feature":"24","num_nodes":"35","size_leaf_vector":"1"}},{"base_weights":[2.0949915E-2,4.349351E1,-2.9167536E1,2.9714794E1,1.0819989E1,-4.1831635E1,2.0106384E1,3.818888E1,-2.7308437E1,-3.6170288E1,-6.9830194E0,9.156004E0,-4.1956058E0,1.8384192E1,4.2169895E1,-3.9751115E0,2.5097963E-1,-4.02786E1,-1.4442492E1,3.4475362E0,4.697647E-1,4.346899E1,6.893097E-1,-2.438791E0,-4.542268E1,-1.636202E1,-0E0,-7.8236187E-1,1.5174958E0,4.9791317E0,2.5706573E1,-5.098064E0,-2.4050326E0,-1.8664135E1,-0E0,1.0665337E0,3.3071167E0,-2.0857327E0,-2.4456863E-1],"categories":[],"categories_nodes":[],"categories_segments":[],"categories_sizes":[],"default_left":[0,0,0,0,0,0,0,0,0,0,0,0,0,0,0,0,0,0,0,0,0,0,0,0,0,0,0,0,0,0,0,0,0,0,0,0,0,0,0],"id":15,"left_children":[1,3,5,7,-1,9,11,13,15,17,-1,-1,-1,19,21,-1,-1,23,25,-1,27,29,-1,-1,31,33,-1,-1,-1,-1,35,-1,-1,37,-1,-1,-1,-1,-1],"loss_changes":[9.77765E4,2.3733988E4,2.9654156E4,1.4144221E4,0E0,2.8090742E3,4.8435395E4,8.141953E2,1.7700483E3,2.0904023E3,0E0,0E0,0E0,1.5386637E3,3.1928516E2,0E0,0E0,7.502422E2,1.4619507E2,0E0,6.43303E2,3.639414E2,0E0,0E0,6.556953E2,1.3545569E2,0E0,0E0,0E0,0E0,2.0401025E2,0E0,0E0,1.0325317E1,0E0,0E0,0E0,0E0,0E0],"parents":[2147483647,0,0,1,1,2,2,3,3,5,5,6,6,7,7,8,8,9,9,13,13,14,14,17,17,18,18,20,20,21,21,24,24,25,25,30,30,33,33],"right_children":[2,4,6,8,-1,10,12,14,16,18,-1,-1,-1,20,22,-1,-1,24,26,-1,28,30,-1,-1,32,34,-1,-1,-1,-1,36,-1,-1,38,-1,-1,-1,-1,-1],"split_conditions":[4.5E-1,1E0,1E0,2.2E1,1.0819989E1,2.2E1,5.1E-1,5E0,3.6E1,1E0,-6.9830194E0,9.156004E0,-4.1956058E0,2.3E1,7E1,-3.9751115E0,2.5097963E-1,4.8E-1,5.3E-1,3.4475362E0,1E0,1.1E1,6.893097E-1,-2.438791E0,1E0,6.2E1,-0E0,-7.8236187E-1,1.5174958E0,4.9791317E0,4.1E1,-5.098064E0,-2.4050326E0,1.1E1,-0E0,1.0665337E0,3.3071167E0,-2.0857327E0,-2.4456863E-1],"split_indices":[1,4,5,21,0,21,1,22,2,4,0,0,0,2,2,0,0,1,1,0,3,21,0,0,7,2,0,0,0,0,2,0,0,21,0,0,0,0,0],"split_type":[0,0,0,0,0,0,0,0,0,0,0,0,0,0,0,0,0,0,0,0,0,0,0,0,0,0,0,0,0,0,0,0,0,0,0,0,0,0,0],"sum_hessian":[7.5E1,3E1,4.5E1,2.6E1,4E0,3.6E1,9E0,2.3E1,3E0,3.2E1,4E0,4E0,5E0,5E0,1.8E1,2E0,1E0,2.6E1,6E0,2E0,3E0,1.7E1,1E0,8E0,1.8E1,5E0,1E0,2E0,1E0,1.1E1,6E0,1.3E1,5E0,4E0,1E0,3E0,3E0,3E0,1E0],"tree_param":{"num_deleted":"0","num_feature":"24","num_nodes":"39","size_leaf_vector":"1"}},{"base_weights":[-1.3149261E-1,3.6966972E1,-2.4096422E1,4.5981457E1,-2.5111694E1,-3.913985E1,2.7456532E1,5.4606358E1,2.128086E1,-2.397766E0,-4.412674E0,-4.4358063E1,-1.2706757E1,7.1781395E1,-3.0224607E0,7.2061334E0,3.807989E1,-1.0836996E0,2.9749665E0,2.9281768E-1,-9.024826E-1,-2.1756866E1,-4.827848E1,-1.6404705E1,-6.412557E-2,3.0719086E1,1.0093734E1,4.007819E0,6.548447E-1,-7.5124514E-1,3.386902E-1,-1.9929734E-1,-2.4311051E0,-3.2841473E0,-5.6054756E1,-2.241749E0,-3.2570192E-1,2.2561036E-1,3.7788045E0,-5.811029E0,-1.3194183E0],"categories":[],"categories_nodes":[],"categories_segments":[],"categories_sizes":[],"default_left":[0,0,0,0,0,0,0,0,0,0,0,0,0,0,0,0,0,0,0,0,0,0,0,0,0,0,0,0,0,0,0,0,0,0,0,0,0,0,0,0,0],"id":16,"left_children":[1,3,5,7,9,11,13,15,17,19,-1,21,23,25,-1,-1,27,29,-1,-1,-1,31,33,35,-1,37,-1,-1,-1,-1,-1,-1,-1,-1,39,-1,-1,-1,-1,-1,-1],"loss_changes":[6.1282637E4,1.6368418E4,3.3705453E4,3.571461E3,1.3891975E3,3.702836E3,2.7944432E4,1.6091797E3,1.6907786E3,1.6279556E2,0E0,9.917969E2,2.1657385E2,3.4242793E3,0E0,0E0,1.9751855E2,1.3229285E2,0E0,0E0,0E0,1.229126E2,3.5553906E2,1.9388428E2,0E0,5.1934033E2,0E0,0E0,0E0,0E0,0E0,0E0,0E0,0E0,2.2074219E1,0E0,0E0,0E0,0E0,0E0,0E0],"parents":[2147483647,0,0,1,1,2,2,3,3,4,4,5,5,6,6,7,7,8,8,9,9,11,11,12,12,13,13,16,16,17,17,21,21,22,22,23,23,25,25,34,34],"right_children":[2,4,6,8,10,12,14,16,18,20,-1,22,24,26,-1,-1,28,30,-1,-1,-1,32,34,36,-1,38,-1,-1,-1,-1,-1,-1,-1,-1,40,-1,-1,-1,-1,-1,-1],"split_conditions":[4.5E-1,2.2E1,1E0,1E0,3.2E1,1E0,5.1E-1,1E1,6E0,2E0,-4.412674E0,4.8E-1,5.3E-1,3.6E1,-3.0224607E0,7.2061334E0,7E1,2.8E1,2.9749665E0,2.9281768E-1,-9.024826E-1,1E1,1E1,4.4E1,-6.412557E-2,1E1,1.0093734E1,4.007819E0,6.548447E-1,-7.5124514E-1,3.386902E-1,-1.9929734E-1,-2.4311051E0,-3.2841473E0,5.4E-1,-2.241749E0,-3.2570192E-1,2.2561036E-1,3.7788045E0,-5.811029E0,-1.3194183E0],"split_indices":[1,21,5,6,2,4,1,21,22,22,0,1,1,2,0,0,2,2,0,0,0,21,21,2,0,21,0,0,0,0,0,0,0,0,1,0,0,0,0,0,0],"split_type":[0,0,0,0,0,0,0,0,0,0,0,0,0,0,0,0,0,0,0,0,0,0,0,0,0,0,0,0,0,0,0,0,0,0,0,0,0,0,0,0,0],"sum_hessian":[6.7E1,2.6E1,4.1E1,2.3E1,3E0,3.2E1,9E0,1.6E1,7E0,2E0,1E0,2.6E1,6E0,5E0,4E0,6E0,1E1,2E0,5E0,1E0,1E0,5E0,2.1E1,4E0,2E0,3E0,2E0,9E0,1E0,1E0,1E0,1E0,4E0,9E0,1.2E1,2E0,2E0,1E0,2E0,1.1E1,1E0],"tree_param":{"num_deleted":"0","num_feature":"24","num_nodes":"41","size_leaf_vector":"1"}},{"base_weights":[4.0276262E-1,3.2106586E1,-2.3456293E1,4.005731E1,-1.624863E1,-2.954299E1,3.89814E1,3.1042013E1,8.288475E0,-0E0,-4.1920404E0,-2.5175156E1,-5.912578E0,-6.0849457E0,9.420817E0,1.7261797E1,3.6540756E1,6.581604E-1,-8.573578E-1,-2.7401215E1,-1.1642181E1,2.2705944E0,3.418315E1,4.5240112E1,2.156139E1,-7.2710037E0,-2.925197E0,-1.4939954E1,-5.9850056E-2,-7.136826E-1,6.5794435E0,4.099745E0,4.3701324E-1,1.5289154E0,5.089908E0,2.780399E0,7.1177906E-1,-3.084079E0,2.9219177E0,-1.754351E1,-0E0,1.2086579E0,-0E0,-2.0922995E0,-1.2025299E-1,-2.9445344E-1,1.2632751E-1],"categories":[],"categories_nodes":[],"categories_segments":[],"categories_sizes":[],"default_left":[0,0,0,0,0,0,0,0,0,0,0,0,0,0,0,0,0,0,0,0,0,0,0,0,0,0,0,0,0,0,0,0,0,0,0,0,0,0,0,0,0,0,0,0,0,0,0],"id":17,"left_children":[1,3,5,7,9,11,13,15,-1,17,-1,19,-1,-1,-1,21,23,-1,-1,25,27,29,31,33,35,37,-1,39,-1,-1,41,-1,-1,-1,-1,-1,-1,-1,-1,43,-1,-1,45,-1,-1,-1,-1],"loss_changes":[5.4502406E4,1.2688146E4,1.6686047E4,7.282211E3,2.1945505E3,3.0000781E3,2.7952652E4,9.1880273E2,0E0,2.7696503E2,0E0,5.4015625E2,0E0,0E0,0E0,2.0231582E3,7.755254E2,0E0,0E0,6.851211E2,1.6830286E2,2.8738037E2,4.066167E2,4.162793E2,3.4881348E2,4.349513E3,0E0,1.1508801E2,0E0,0E0,2.2181075E2,0E0,0E0,0E0,0E0,0E0,0E0,0E0,0E0,8.510828E1,0E0,0E0,2.0532293E1,0E0,0E0,0E0,0E0],"parents":[2147483647,0,0,1,1,2,2,3,3,4,4,5,5,6,6,7,7,9,9,11,11,15,15,16,16,19,19,20,20,21,21,22,22,23,23,24,24,25,25,27,27,30,30,39,39,42,42],"right_children":[2,4,6,8,10,12,14,16,-1,18,-1,20,-1,-1,-1,22,24,-1,-1,26,28,30,32,34,36,38,-1,40,-1,-1,42,-1,-1,-1,-1,-1,-1,-1,-1,44,-1,-1,46,-1,-1,-1,-1],"split_conditions":[4.5E-1,2.2E1,6.5E1,1E0,1E0,2.2E1,5E-1,6E0,8.288475E0,2E0,-4.1920404E0,1E0,-5.912578E0,-6.0849457E0,9.420817E0,1E0,1E1,6.581604E-1,-8.573578E-1,3E0,5.3E-1,2.8E1,1E1,3.6E1,1.1E1,3E1,-2.925197E0,4.4E1,-5.9850056E-2,-7.136826E-1,4.1E1,4.099745E0,4.3701324E-1,1.5289154E0,5.089908E0,2.780399E0,7.1177906E-1,-3.084079E0,2.9219177E0,1.1E1,-0E0,1.2086579E0,4.7E1,-2.0922995E0,-1.2025299E-1,-2.9445344E-1,1.2632751E-1],"split_indices":[1,21,2,4,6,21,1,22,0,22,0,4,0,0,0,7,22,0,0,22,1,2,21,2,21,2,0,2,0,0,2,0,0,0,0,0,0,0,0,21,0,0,2,0,0,0,0],"split_type":[0,0,0,0,0,0,0,0,0,0,0,0,0,0,0,0,0,0,0,0,0,0,0,0,0,0,0,0,0,0,0,0,0,0,0,0,0,0,0,0,0,0,0,0,0,0,0],"sum_hessian":[7E1,3E1,4E1,2.6E1,4E0,3.7E1,3E0,2.3E1,3E0,3E0,1E0,3.4E1,3E0,1E0,2E0,8E0,1.5E1,2E0,1E0,2.8E1,6E0,5E0,3E0,8E0,7E0,3E0,2.5E1,4E0,2E0,1E0,4E0,2E0,1E0,2E0,6E0,4E0,3E0,2E0,1E0,3E0,1E0,2E0,2E0,2E0,1E0,1E0,1E0],"tree_param":{"num_deleted":"0","num_feature":"24","num_nodes":"47","size_leaf_vector":"1"}},{"base_weights":[1.664475E0,2.9858938E1,-2.0506535E1,3.7626087E1,-1.5502017E1,-3.3286922E1,2.3817707E1,2.7503826E1,6.5949646E1,-0E0,-3.9824378E0,-5.39828E0,-2.6788435E1,7.491853E0,-3.1046658E0,3.235179E1,1.2471929E0,7.4067216E0,1.0180908E0,6.1428225E-1,-8.144898E-1,-2.14056E1,-4.844692E0,1.6485119E1,4.3549488E1,-2.429211E1,-1.0932732E0,2.014679E0,3.8264294E0,7.984894E-1,4.677516E0,-2.7021948E1,-6.049736E0,-0E0,-3.0398816E-1,-1.3055786E0,1.1807984E0,-2.8659477E0,-8.7061614E-1,-7.1325326E-1,-0E0,-8.051524E-1,4.208893E-1],"categories":[],"categories_nodes":[],"categories_segments":[],"categories_sizes":[],"default_left":[0,0,0,0,0,0,0,0,0,0,0,0,0,0,0,0,0,0,0,0,0,0,0,0,0,0,0,0,0,0,0,0,0,0,0,0,0,0,0,0,0,0,0],"id":18,"left_children":[1,3,5,7,9,11,13,15,17,19,-1,-1,21,-1,-1,23,-1,-1,-1,-1,-1,25,-1,27,29,31,33,35,-1,-1,-1,37,39,-1,-1,41,-1,-1,-1,-1,-1,-1,-1],"loss_changes":[4.2540746E4,1.1263658E4,2.2366441E4,5.1730234E3,1.9703997E3,2.1847852E3,2.7777857E4,9.0274805E2,1.5409277E3,2.458815E2,0E0,0E0,1.5283027E3,0E0,0E0,1.64696E3,0E0,0E0,0E0,0E0,0E0,1.1364141E3,0E0,2.2427485E3,2.704619E2,6.173418E2,2.294165E1,2.6302603E2,0E0,0E0,0E0,4.354004E1,6.2218475E0,0E0,0E0,2.3910275E2,0E0,0E0,0E0,0E0,0E0,0E0,0E0],"parents":[2147483647,0,0,1,1,2,2,3,3,4,4,5,5,6,6,7,7,8,8,9,9,12,12,15,15,21,21,23,23,24,24,25,25,26,26,27,27,31,31,32,32,35,35],"right_children":[2,4,6,8,10,12,14,16,18,20,-1,-1,22,-1,-1,24,-1,-1,-1,-1,-1,26,-1,28,30,32,34,36,-1,-1,-1,38,40,-1,-1,42,-1,-1,-1,-1,-1,-1,-1],"split_conditions":[4.5E-1,2.2E1,1E0,1E0,1E0,3E0,5.1E-1,1E1,1.1E1,2E0,-3.9824378E0,-5.39828E0,1.1E1,7.491853E0,-3.1046658E0,6E0,1.2471929E0,7.4067216E0,1.0180908E0,6.1428225E-1,-8.144898E-1,5.4E1,-4.844692E0,1E0,3.6E1,1E0,4.7E-1,1E0,3.8264294E0,7.984894E-1,4.677516E0,5E1,5.3E-1,-0E0,-3.0398816E-1,5E0,1.1807984E0,-2.8659477E0,-8.7061614E-1,-7.1325326E-1,-0E0,-8.051524E-1,4.208893E-1],"split_indices":[1,21,5,4,6,22,1,22,22,22,0,0,22,0,0,22,0,0,0,0,0,2,0,7,2,4,1,3,0,0,0,2,1,0,0,22,0,0,0,0,0,0,0],"split_type":[0,0,0,0,0,0,0,0,0,0,0,0,0,0,0,0,0,0,0,0,0,0,0,0,0,0,0,0,0,0,0,0,0,0,0,0,0,0,0,0,0,0,0],"sum_hessian":[6.6E1,2.9E1,3.7E1,2.5E1,4E0,2.9E1,8E0,2E1,5E0,3E0,1E0,5E0,2.4E1,4E0,4E0,1.4E1,6E0,4E0,1E0,2E0,1E0,2.1E1,3E0,7E0,7E0,1.8E1,3E0,5E0,2E0,1E0,6E0,1.5E1,3E0,1E0,2E0,4E0,1E0,1.3E1,2E0,2E0,1E0,2E0,2E0],"tree_param":{"num_deleted":"0","num_feature":"24","num_nodes":"43","size_leaf_vector":"1"}},{"base_weights":[1.40027E0,3.395729E1,-1.8857876E1,2.042166E1,7.258318E1,-2.7061193E1,1.6713045E1,2.7464684E1,-1.3366608E1,3.0141494E0,1.0331103E1,-3.1085918E1,-9.973183E0,-1.834912E1,8.293303E0,2.2384186E-1,2.8588924E1,5.733297E-1,-3.7833161E0,-3.583469E1,-1.2362874E1,-1.2184941E1,-5.5860396E-2,-0E0,-2.296293E0,2.9600556E0,4.2072296E-1,-3.880193E0,-1.3015244E0,-1.8696274E0,-1.688755E0,-1.3777582E1,-0E0,-0E0,-3.8338575E-1,-1.557909E0,-7.857742E-2],"categories":[],"categories_nodes":[],"categories_segments":[],"categories_sizes":[],"default_left":[0,0,0,0,0,0,0,0,0,0,0,0,0,0,0,0,0,0,0,0,0,0,0,0,0,0,0,0,0,0,0,0,0,0,0,0,0],"id":19,"left_children":[1,3,5,7,9,11,13,15,17,-1,-1,19,21,23,-1,-1,25,-1,-1,27,29,31,-1,-1,-1,-1,-1,-1,-1,-1,33,35,-1,-1,-1,-1,-1],"loss_changes":[4.292673E4,1.1123354E4,1.2175997E4,5.197032E3,4.0436387E3,1.7542422E3,2.0419191E4,2.639961E2,2.2466433E3,0E0,0E0,1.6276875E3,9.605798E1,6.1633997E2,0E0,0E0,1.0106836E2,0E0,0E0,5.901133E2,3.397257E2,5.827191E1,0E0,0E0,0E0,0E0,0E0,0E0,0E0,0E0,3.268781E1,2.2958313E1,0E0,0E0,0E0,0E0,0E0],"parents":[2147483647,0,0,1,1,2,2,3,3,4,4,5,5,6,6,7,7,8,8,11,11,12,12,13,13,16,16,19,19,20,20,21,21,30,30,31,31],"right_children":[2,4,6,8,10,12,14,16,18,-1,-1,20,22,24,-1,-1,26,-1,-1,28,30,32,-1,-1,-1,-1,-1,-1,-1,-1,34,36,-1,-1,-1,-1,-1],"split_conditions":[4.5E-1,1E0,1E0,2.2E1,4.1E1,1E0,6.5E1,2.3E1,1E0,3.0141494E0,1.0331103E1,1E0,5.3E-1,5.1E-1,8.293303E0,2.2384186E-1,7E1,5.733297E-1,-3.7833161E0,5.3E-1,3E1,6.2E1,-5.5860396E-2,-0E0,-2.296293E0,2.9600556E0,4.2072296E-1,-3.880193E0,-1.3015244E0,-1.8696274E0,4.7E-1,1.1E1,-0E0,-0E0,-3.8338575E-1,-1.557909E0,-7.857742E-2],"split_indices":[1,4,5,21,2,4,2,2,6,0,0,3,1,1,0,0,2,0,0,1,2,2,0,0,0,0,0,0,0,0,1,21,0,0,0,0,0],"split_type":[0,0,0,0,0,0,0,0,0,0,0,0,0,0,0,0,0,0,0,0,0,0,0,0,0,0,0,0,0,0,0,0,0,0,0,0,0],"sum_hessian":[6.3E1,2.4E1,3.9E1,1.9E1,5E0,3.2E1,7E0,1.6E1,3E0,3E0,2E0,2.5E1,7E0,5E0,2E0,1E0,1.5E1,2E0,1E0,1.9E1,6E0,5E0,2E0,1E0,4E0,1.4E1,1E0,1.6E1,3E0,3E0,3E0,4E0,1E0,1E0,2E0,3E0,1E0],"tree_param":{"num_deleted":"0","num_feature":"24","num_nodes":"37","size_leaf_vector":"1"}},{"base_weights":[5.186136E0,3.0312431E1,-1.5435084E1,1.7764801E1,8.089136E1,-2.6688852E1,3.910912E1,2.4196873E1,-1.4375687E1,1.0269426E1,2.319037E0,-2.3519308E1,-4.8877864E0,6.560773E0,-1.6424932E0,1.8840702E1,4.3678505E1,-0E0,-3.5941505E0,-2.0573648E1,-5.3444533E0,1.33142395E1,2.8683412E0,9.7375643E-1,5.007963E0,5.3510743E-1,-8.0243224E-1,-2.4959303E1,-1.2534001E1,-3.5199218E0,2.021029E1,-2.6831114E0,-1.0450184E0,-1.5195378E1,-1.4970589E0,-9.488129E-1,1.9549255E-1,3.6049423E0,2.536168E1,-1.7550395E0,-2.183543E-1,-0E0,-3.5782623E-1,5.273122E-1,-0E0,2.7128527E0,3.996872E-1],"categories":[],"categories_nodes":[],"categories_segments":[],"categories_sizes":[],"default_left":[0,0,0,0,0,0,0,0,0,0,0,0,0,0,0,0,0,0,0,0,0,0,0,0,0,0,0,0,0,0,0,0,0,0,0,0,0,0,0,0,0,0,0,0,0,0,0],"id":20,"left_children":[1,3,5,7,9,11,13,15,17,-1,-1,19,-1,-1,-1,21,23,25,-1,27,-1,29,-1,-1,-1,-1,-1,31,33,35,37,-1,-1,39,41,-1,-1,43,45,-1,-1,-1,-1,-1,-1,-1,-1],"loss_changes":[3.6811703E4,1.8378361E4,2.492096E4,5.97866E3,4.5373516E3,8.093008E2,1.1624542E4,1.2644492E3,1.5502819E3,0E0,0E0,1.2629941E3,0E0,0E0,0E0,4.9602148E2,8.230127E1,2.1468149E2,0E0,5.574668E2,0E0,1.8959292E3,0E0,0E0,0E0,0E0,0E0,2.205371E1,2.756444E2,2.1958972E2,7.0468604E2,0E0,0E0,1.6943896E2,2.9447144E1,0E0,0E0,3.1435013E1,3.7930664E1,0E0,0E0,0E0,0E0,0E0,0E0,0E0,0E0],"parents":[2147483647,0,0,1,1,2,2,3,3,4,4,5,5,6,6,7,7,8,8,11,11,15,15,16,16,17,17,19,19,21,21,27,27,28,28,29,29,30,30,33,33,34,34,37,37,38,38],"right_children":[2,4,6,8,10,12,14,16,18,-1,-1,20,-1,-1,-1,22,24,26,-1,28,-1,30,-1,-1,-1,-1,-1,32,34,36,38,-1,-1,40,42,-1,-1,44,46,-1,-1,-1,-1,-1,-1,-1,-1],"split_conditions":[4.5E-1,1E0,1E0,2.2E1,9E0,2.2E1,5.1E-1,1E0,1E0,1.0269426E1,2.319037E0,6.3E1,-4.8877864E0,6.560773E0,-1.6424932E0,1E0,5E0,2E0,-3.5941505E0,4.5E1,-5.3444533E0,6E0,2.8683412E0,9.7375643E-1,5.007963E0,5.3510743E-1,-8.0243224E-1,1E0,1E0,5E0,4.1E1,-2.6831114E0,-1.0450184E0,1E0,4.7E-1,-9.488129E-1,1.9549255E-1,3.6E1,7E1,-1.7550395E0,-2.183543E-1,-0E0,-3.5782623E-1,5.273122E-1,-0E0,2.7128527E0,3.996872E-1],"split_indices":[1,4,5,21,22,21,1,3,6,0,0,2,0,0,0,7,22,22,0,2,0,22,0,0,0,0,0,7,3,22,2,0,0,4,1,0,0,2,2,0,0,0,0,0,0,0,0],"split_type":[0,0,0,0,0,0,0,0,0,0,0,0,0,0,0,0,0,0,0,0,0,0,0,0,0,0,0,0,0,0,0,0,0,0,0,0,0,0,0,0,0,0,0,0,0,0,0],"sum_hessian":[6.9E1,3.1E1,3.8E1,2.6E1,5E0,3.2E1,6E0,2.2E1,4E0,3E0,2E0,3E1,2E0,4E0,2E0,1.9E1,3E0,3E0,1E0,2.9E1,1E0,1.4E1,5E0,1E0,2E0,2E0,1E0,1.7E1,1.2E1,4E0,1E1,1.4E1,3E0,9E0,3E0,2E0,2E0,3E0,7E0,7E0,2E0,1E0,2E0,2E0,1E0,6E0,1E0],"tree_param":{"num_deleted":"0","num_feature":"24","num_nodes":"47","size_leaf_vector":"1"}},{"base_weights":[5.605966E-1,3.0667131E1,-1.785267E1,1.5005993E1,8.617826E1,-3.816377E0,-1.285175E1,-6.2483196E0,2.7315878E1,9.499221E0,2.2961242E0,-9.923849E0,-5.077231E0,5.511393E0,-2.935164E0,1.9080315E1,4.6740985E0,-1.4664794E1,6.6022735E0,8.97381E-1,-3.4003448E-1,7.127159E-1,2.2046852E1,-1.2030551E1,-2.8188298E0,7.057974E-1,2.5033484E0,1.6691558E0,-1.4591718E1,-4.4737434E0,1.5620377E0,-1.5405387E1,-2.0942383E0,-7.995888E-1,-0E0,-1.6990765E0,-7.512586E-1,-0E0,-3.702713E-1],"categories":[],"categories_nodes":[],"categories_segments":[],"categories_sizes":[],"default_left":[0,0,0,0,0,0,0,0,0,0,0,0,0,0,0,0,0,0,0,0,0,0,0,0,0,0,0,0,0,0,0,0,0,0,0,0,0,0,0],"id":21,"left_children":[1,3,5,7,9,-1,11,13,15,-1,-1,17,-1,19,-1,21,-1,23,-1,-1,-1,-1,25,27,-1,-1,-1,29,31,33,-1,35,37,-1,-1,-1,-1,-1,-1],"loss_changes":[3.4981863E4,1.9065707E4,3.2158438E3,5.5087783E3,1.5050781E1,0E0,2.8565762E3,2.4544768E3,8.587588E2,0E0,0E0,1.2233295E4,0E0,2.4351826E2,0E0,8.705298E1,0E0,5.6413525E2,0E0,0E0,0E0,0E0,2.098706E1,1.0714106E3,0E0,0E0,0E0,5.5411945E2,1.24291016E2,4.781092E1,0E0,2.5126465E1,1.4262666E1,0E0,0E0,0E0,0E0,0E0,0E0],"parents":[2147483647,0,0,1,1,2,2,3,3,4,4,6,6,7,7,8,8,11,11,13,13,15,15,17,17,22,22,23,23,27,27,28,28,29,29,31,31,32,32],"right_children":[2,4,6,8,10,-1,12,14,16,-1,-1,18,-1,20,-1,22,-1,24,-1,-1,-1,-1,26,28,-1,-1,-1,30,32,34,-1,36,38,-1,-1,-1,-1,-1,-1],"split_conditions":[4.5E-1,1E0,3E0,5E0,9E0,-3.816377E0,7.6E1,1E0,1E0,9.499221E0,2.2961242E0,6.5E1,-5.077231E0,4.1E1,-2.935164E0,4E-1,4.6740985E0,6.3E-1,6.6022735E0,8.97381E-1,-3.4003448E-1,7.127159E-1,3.6E1,5E0,-2.8188298E0,7.057974E-1,2.5033484E0,3.2E1,6.3E1,2.3E1,1.5620377E0,1E0,5.3E-1,-7.995888E-1,-0E0,-1.6990765E0,-7.512586E-1,-0E0,-3.702713E-1],"split_indices":[1,4,22,22,22,0,2,6,3,0,0,2,0,2,0,1,0,1,0,0,0,0,2,22,0,0,0,2,2,2,0,3,1,0,0,0,0,0,0],"split_type":[0,0,0,0,0,0,0,0,0,0,0,0,0,0,0,0,0,0,0,0,0,0,0,0,0,0,0,0,0,0,0,0,0,0,0,0,0,0,0],"sum_hessian":[6.1E1,2.3E1,3.8E1,1.9E1,4E0,6E0,3.2E1,7E0,1.2E1,3E0,1E0,3.1E1,1E0,5E0,2E0,1E1,2E0,3E1,1E0,4E0,1E0,3E0,7E0,2.7E1,3E0,2E0,5E0,4E0,2.3E1,3E0,1E0,2.1E1,2E0,1E0,2E0,1.6E1,5E0,1E0,1E0],"tree_param":{"num_deleted":"0","num_feature":"24","num_nodes":"39","size_leaf_vector":"1"}},{"base_weights":[1.8478657E0,3.047025E1,-1.768885E1,3.8660965E1,-1.8898567E1,-2.750563E1,1.317136E1,2.4525635E1,6.2713676E1,-2.8832428E0,2.9515076E-1,-3.7888856E0,-2.0876438E1,-1.1763445E1,6.8628783E0,2.9664751E1,7.314453E0,7.038022E0,5.8572084E-1,-1.6399163E0,-4.8233695E0,9.279297E0,-2.3036402E1,3.144309E0,3.440674E-1,8.549316E0,-0E0,-0E0,1.4839356E0,-2.9426575E-1,-2.6074173E0,-0E0,1.0016866E0],"categories":[],"categories_nodes":[],"categories_segments":[],"categories_sizes":[],"default_left":[0,0,0,0,0,0,0,0,0,0,0,0,0,0,0,0,0,0,0,0,0,0,0,0,0,0,0,0,0,0,0,0,0],"id":22,"left_children":[1,3,5,7,9,11,13,15,17,-1,-1,-1,19,21,-1,23,25,-1,-1,-1,-1,27,29,-1,-1,31,-1,-1,-1,-1,-1,-1,-1],"loss_changes":[3.3035758E4,1.0534232E4,1.1037135E4,5.1655625E3,1.0827262E3,7.736621E2,1.3537019E4,9.2487695E2,2.2578281E3,0E0,0E0,0E0,1.2130781E3,1.9430446E3,0E0,2.3038477E2,2.4857117E1,0E0,0E0,0E0,0E0,1.8209686E2,8.3389404E1,0E0,0E0,8.649567E0,0E0,0E0,0E0,0E0,0E0,0E0,0E0],"parents":[2147483647,0,0,1,1,2,2,3,3,4,4,5,5,6,6,7,7,8,8,12,12,13,13,15,15,16,16,21,21,22,22,25,25],"right_children":[2,4,6,8,10,12,14,16,18,-1,-1,-1,20,22,-1,24,26,-1,-1,-1,-1,28,30,-1,-1,32,-1,-1,-1,-1,-1,-1,-1],"split_conditions":[4.5E-1,2.2E1,1E0,1E0,3.6E1,5E0,5.5E1,1E0,1.1E1,-2.8832428E0,2.9515076E-1,-3.7888856E0,6.1E1,5.1E-1,6.8628783E0,7E1,1E1,7.038022E0,5.8572084E-1,-1.6399163E0,-4.8233695E0,3.2E1,6.2E-1,3.144309E0,3.440674E-1,6E0,-0E0,-0E0,1.4839356E0,-2.9426575E-1,-2.6074173E0,-0E0,1.0016866E0],"split_indices":[1,21,5,4,2,22,2,6,22,0,0,0,2,1,0,2,22,0,0,0,0,2,1,0,0,22,0,0,0,0,0,0,0],"split_type":[0,0,0,0,0,0,0,0,0,0,0,0,0,0,0,0,0,0,0,0,0,0,0,0,0,0,0,0,0,0,0,0,0],"sum_hessian":[5.7E1,2.3E1,3.4E1,2E1,3E0,2.6E1,8E0,1.4E1,6E0,2E0,1E0,8E0,1.8E1,6E0,2E0,1E1,4E0,5E0,1E0,1.7E1,1E0,2E0,4E0,9E0,1E0,3E0,1E0,1E0,1E0,1E0,3E0,1E0,2E0],"tree_param":{"num_deleted":"0","num_feature":"24","num_nodes":"33","size_leaf_vector":"1"}},{"base_weights":[-1.2147586E0,-6.5722275E0,4.1104244E1,1.4223002E1,-1.8659105E1,1.8113812E0,6.405355E0,5.889387E0,4.691852E0,-2.7840405E1,-1.1323714E1,1.2211672E1,-1.1990888E1,-8.055756E0,-3.1698587E1,9.2413025E0,-1.4092281E1,3.614885E0,2.2238241E1,-0E0,-3.123523E0,-1.01274E0,-0E0,-3.5206268E0,-7.773458E0,1.4097382E0,-0E0,-1.7576078E0,-7.3258533E0,-5.915451E-1,6.1706085E0,2.4948566E0,1.8433075E-1,5.258789E-1,-6.630173E-1,-1.3523438E0,-0E0,-1.0862707E0,-1.3603764E0,1.0101618E1,-0E0,3.208504E-2,-4.2670083E-1,1.2033272E0,-0E0],"categories":[],"categories_nodes":[],"categories_segments":[],"categories_sizes":[],"default_left":[0,0,0,0,0,0,0,0,0,0,0,0,0,0,0,0,0,0,0,0,0,0,0,0,0,0,0,0,0,0,0,0,0,0,0,0,0,0,0,0,0,0,0,0,0],"id":23,"left_children":[1,3,5,7,9,-1,-1,11,-1,13,15,17,19,21,23,25,27,29,31,33,-1,-1,-1,-1,35,-1,-1,-1,37,-1,39,-1,-1,-1,-1,-1,-1,41,-1,43,-1,-1,-1,-1,-1],"loss_changes":[1.4154297E4,1.4363136E4,2.12221E3,5.1815483E3,1.9134658E3,0E0,0E0,2.1823284E3,0E0,6.9086426E2,1.4070698E3,9.9709326E2,1.2323723E3,4.811194E1,5.184873E2,1.412673E2,2.181875E2,2.569898E2,1.5171436E2,1.7088297E2,0E0,0E0,0E0,0E0,1.8448677E2,0E0,0E0,0E0,2.6431628E2,0E0,2.0560211E2,0E0,0E0,0E0,0E0,0E0,0E0,4.7953964E1,0E0,6.898517E1,0E0,0E0,0E0,0E0,0E0],"parents":[2147483647,0,0,1,1,2,2,3,3,4,4,7,7,9,9,10,10,11,11,12,12,13,13,14,14,15,15,16,16,17,17,18,18,19,19,24,24,28,28,30,30,37,37,39,39],"right_children":[2,4,6,8,10,-1,-1,12,-1,14,16,18,20,22,24,26,28,30,32,34,-1,-1,-1,-1,36,-1,-1,-1,38,-1,40,-1,-1,-1,-1,-1,-1,42,-1,44,-1,-1,-1,-1,-1],"split_conditions":[6.5E1,4.5E-1,4.5E-1,1E0,3.5E1,1.8113812E0,6.405355E0,2.2E1,4.691852E0,1E1,3.7E1,1E0,1E0,1E0,1E0,5.1E-1,7E0,4E0,7E0,2E0,-3.123523E0,-1.01274E0,-0E0,-3.5206268E0,5.3E-1,1.4097382E0,-0E0,-1.7576078E0,1E1,-5.915451E-1,3.6E1,2.4948566E0,1.8433075E-1,5.258789E-1,-6.630173E-1,-1.3523438E0,-0E0,5.1E-1,-1.3603764E0,1.1E1,-0E0,3.208504E-2,-4.2670083E-1,1.2033272E0,-0E0],"split_indices":[2,1,1,4,2,0,0,21,0,21,2,7,6,5,4,1,22,22,22,22,0,0,0,0,1,0,0,0,22,0,2,0,0,0,0,0,0,1,0,21,0,0,0,0,0],"split_type":[0,0,0,0,0,0,0,0,0,0,0,0,0,0,0,0,0,0,0,0,0,0,0,0,0,0,0,0,0,0,0,0,0,0,0,0,0,0,0,0,0,0,0,0,0],"sum_hessian":[6.1E1,5.5E1,6E0,2E1,3.5E1,4E0,2E0,1.7E1,3E0,1.4E1,2.1E1,1.3E1,4E0,3E0,1.1E1,2E0,1.9E1,8E0,5E0,3E0,1E0,2E0,1E0,9E0,2E0,1E0,1E0,1.1E1,8E0,1E0,7E0,4E0,1E0,2E0,1E0,1E0,1E0,5E0,3E0,4E0,3E0,3E0,2E0,3E0,1E0],"tree_param":{"num_deleted":"0","num_feature":"24","num_nodes":"45","size_leaf_vector":"1"}},{"base_weights":[2.6396003E0,2.4184767E1,-1.3206585E1,1.4671138E1,5.3992764E1,-1.8768812E1,3.7204936E0,1.9084364E1,5.642862E0,6.108541E0,3.218445E-1,-3.1286428E0,-1.3084339E1,3.918401E1,-2.14278E0,1.0180367E1,2.2908726E1,5.497698E-1,1.1895058E0,-9.172815E0,-4.902469E0,1.9686264E1,5.6087494E0,-1.7814865E0,2.084713E1,2.450944E1,1.7511444E-1,4.9082032E-1,-1.1752441E0,-1.3195512E1,-3.9690514E0,-0E0,2.686196E0,-5.619675E-1,-0E0,2.7846801E0,-0E0,2.6357381E0,2.3629609E-1,4.3027496E-1,-6.2986606E-1,-1.451206E0,-2.7418518E-1,-6.052716E0,4.614563E-2,-1.2831116E-2,2.3259075E-1,-8.812127E-1,7.3681645E-2],"categories":[],"categories_nodes":[],"categories_segments":[],"categories_sizes":[],"default_left":[0,0,0,0,0,0,0,0,0,0,0,0,0,0,0,0,0,0,0,0,0,0,0,0,0,0,0,0,0,0,0,0,0,0,0,0,0,0,0,0,0,0,0,0,0,0,0,0,0],"id":24,"left_children":[1,3,5,7,9,11,13,15,17,-1,-1,-1,19,21,-1,23,25,27,-1,29,-1,31,-1,33,35,37,-1,-1,39,41,43,-1,-1,-1,-1,-1,-1,-1,-1,45,-1,-1,-1,47,-1,-1,-1,-1,-1],"loss_changes":[2.4955715E4,7.6555938E3,4.0994653E3,7.6476953E2,2.00275E3,1.6457773E3,1.0738725E4,1.4616846E2,2.4966644E2,0E0,0E0,0E0,2.633275E3,1.6487695E2,0E0,1.025627E3,1.644502E2,7.706163E1,0E0,3.4326636E2,0E0,6.1449866E2,0E0,5.0466713E1,5.87922E2,1.6244482E2,0E0,0E0,7.31808E1,3.909326E1,1.4152968E2,0E0,0E0,0E0,0E0,0E0,0E0,0E0,0E0,1.5521916E1,0E0,0E0,0E0,2.1548547E2,0E0,0E0,0E0,0E0,0E0],"parents":[2147483647,0,0,1,1,2,2,3,3,4,4,5,5,6,6,7,7,8,8,12,12,13,13,15,15,16,16,17,17,19,19,21,21,23,23,24,24,25,25,28,28,29,29,30,30,39,39,43,43],"right_children":[2,4,6,8,10,12,14,16,18,-1,-1,-1,20,22,-1,24,26,28,-1,30,-1,32,-1,34,36,38,-1,-1,40,42,44,-1,-1,-1,-1,-1,-1,-1,-1,46,-1,-1,-1,48,-1,-1,-1,-1,-1],"split_conditions":[4.5E-1,1E0,1E0,1.1E1,1.1E1,5E0,5.1E-1,6E0,4.1E1,6.108541E0,3.218445E-1,-3.1286428E0,6.4E1,3.6E1,-2.14278E0,1E0,1E0,2E0,1.1895058E0,4.5E1,-4.902469E0,1E1,5.6087494E0,2.8E1,1E1,7E1,1.7511444E-1,4.9082032E-1,2.2E1,1E0,1E0,-0E0,2.686196E0,-5.619675E-1,-0E0,2.7846801E0,-0E0,2.6357381E0,2.3629609E-1,4E-1,-6.2986606E-1,-1.451206E0,-2.7418518E-1,1E0,4.614563E-2,-1.2831116E-2,2.3259075E-1,-8.812127E-1,7.3681645E-2],"split_indices":[1,4,5,21,22,22,1,22,2,0,0,0,2,2,0,7,7,22,0,2,0,21,0,2,21,2,0,0,21,7,4,0,0,0,0,0,0,0,0,1,0,0,0,3,0,0,0,0,0],"split_type":[0,0,0,0,0,0,0,0,0,0,0,0,0,0,0,0,0,0,0,0,0,0,0,0,0,0,0,0,0,0,0,0,0,0,0,0,0,0,0,0,0,0,0,0,0,0,0,0,0],"sum_hessian":[7.1E1,3E1,4.1E1,2.4E1,6E0,3.1E1,1E1,1.5E1,9E0,5E0,1E0,8E0,2.3E1,4E0,6E0,6E0,9E0,6E0,3E0,2.2E1,1E0,3E0,1E0,3E0,3E0,8E0,1E0,2E0,4E0,1.1E1,1.1E1,1E0,2E0,1E0,2E0,2E0,1E0,7E0,1E0,3E0,1E0,9E0,2E0,8E0,3E0,1E0,2E0,6E0,2E0],"tree_param":{"num_deleted":"0","num_feature":"24","num_nodes":"49","size_leaf_vector":"1"}}]},"name":"gbtree"},"learner_model_param":{"base_score":"3.1326505E2","boost_from_average":"1","num_class":"0","num_feature":"24","num_target":"1"},"objective":{"name":"reg:squarederror","reg_loss_param":{"scale_pos_weight":"1"}}},"version":[3,0,2]}