{"learner":{"attributes":{"scikit_learn":"{\"_estimator_type\": \"regressor\"}"},"feature_names":[],"feature_types":[],"gradient_booster":{"model":{"gbtree_model_param":{"num_parallel_tree":"1","num_trees":"25"},"iteration_indptr":[0,1,2,3,4,5,6,7,8,9,10,11,12,13,14,15,16,17,18,19,20,21,22,23,24,25],"tree_info":[0,0,0,0,0,0,0,0,0,0,0,0,0,0,0,0,0,0,0,0,0,0,0,0,0],"trees":[{"base_weights":[4.1158924E0,2.2264835E2,-1.3493874E2,3.1325128E2,-3.2683797E0,1.1064954E1,-1.6763899E2,2.4429538E2,4.410373E1,-7.578089E1,1.5591281E1,-1.0731909E2,1.624066E1,-1.26256874E2,-1.9502956E2,1.541234E1,2.7052206E1,-9.065243E1,-4.239319E0,-1.1650161E1,-1.4429489E0,-1.3170462E2,-5.9394236E0,-2.01063E2,5.570511E-1,-1.0087661E1,-1.9294892E-1,-2.692949E0,1.8070511E0,-1.3411486E1,-3.442949E0,-2.0559053E1,-8.2572655E1,-1.4429489E0,-1.0692949E1],"categories":[],"categories_nodes":[],"categories_segments":[],"categories_sizes":[],"default_left":[0,0,0,0,0,0,0,0,0,0,0,0,0,0,0,0,0,0,0,0,0,0,0,0,0,0,0,0,0,0,0,0,0,0,0],"id":0,"left_children":[1,3,5,7,9,11,13,15,-1,17,-1,19,-1,21,23,-1,-1,25,27,-1,-1,29,-1,31,-1,-1,-1,-1,-1,-1,-1,-1,33,-1,-1],"loss_changes":[3.828976E6,1.005541E6,3.702635E5,1.9723575E5,1.8455398E5,2.8645128E5,4.5179E4,1.5305875E4,0E0,1.0844496E4,0E0,5.3409297E3,0E0,1.4210625E3,4.56685E4,0E0,0E0,7.4554062E3,2.049566E3,0E0,0E0,4.01125E2,0E0,3.59375E2,0E0,0E0,0E0,0E0,0E0,0E0,0E0,0E0,2.8295234E3,0E0,0E0],"parents":[2147483647,0,0,1,1,2,2,3,3,4,4,5,5,6,6,7,7,9,9,11,11,13,13,14,14,17,17,18,18,21,21,23,23,32,32],"right_children":[2,4,6,8,10,12,14,16,-1,18,-1,20,-1,22,24,-1,-1,26,28,-1,-1,30,-1,32,-1,-1,-1,-1,-1,-1,-1,-1,34,-1,-1],"split_conditions":[1E0,3.3E1,4E-1,1E0,1E0,1E0,3.3E1,5E0,4.410373E1,4E-1,1.5591281E1,4.6E1,1.624066E1,1E0,6.2E1,1.541234E1,2.7052206E1,1E0,5.1E1,-1.1650161E1,-1.4429489E0,6.1E1,-5.9394236E0,5.7E1,5.570511E-1,-1.0087661E1,-1.9294892E-1,-2.692949E0,1.8070511E0,-1.3411486E1,-3.442949E0,-2.0559053E1,4.1E-1,-1.4429489E0,-1.0692949E1],"split_indices":[18,20,1,4,4,4,20,22,0,1,0,2,0,4,2,0,0,3,2,0,0,2,0,2,0,0,0,0,0,0,0,0,1,0,0],"split_type":[0,0,0,0,0,0,0,0,0,0,0,0,0,0,0,0,0,0,0,0,0,0,0,0,0,0,0,0,0,0,0,0,0,0,0],"sum_hessian":[1.24E2,4.8E1,7.6E1,3.4E1,1.4E1,1.4E1,6.2E1,2.4E1,1E1,1E1,4E0,8E0,6E0,2.7E1,3.5E1,7E0,1.7E1,8E0,2E0,7E0,1E0,2.4E1,3E0,3.4E1,1E0,7E0,1E0,1E0,1E0,2.3E1,1E0,3.2E1,2E0,1E0,1E0],"tree_param":{"num_deleted":"0","num_feature":"24","num_nodes":"35","size_leaf_vector":"1"}},{"base_weights":[6.0789E0,1.9648273E2,-1.2695773E2,2.709517E2,-0E0,1.2704937E0,-1.5228575E2,2.189956E2,3.8883358E1,-7.470837E1,1.6343979E1,-6.867612E1,1.2792029E1,-1.6847945E2,-7.1704926E1,1.1876259E2,2.4651316E1,-8.944E1,-3.9440105E0,-8.6179E0,-3.2773438E0,-1.2204871E1,-1.9283865E1,-1.1562012E1,-8.991234E1,1.4144055E1,3.2152448E0,-1.01804E1,-2.9110678E1,-2.5583007E0,1.7166992E0,-1.3708009E0,6.291992E-1,5.2919924E-1,-2.0610678E0,-1.0591028E1,-2.0946372E0,-1.8330078E-1,-3.9333007E0],"categories":[],"categories_nodes":[],"categories_segments":[],"categories_sizes":[],"default_left":[0,0,0,0,0,0,0,0,0,0,0,0,0,0,0,0,0,0,0,0,0,0,0,0,0,0,0,0,0,0,0,0,0,0,0,0,0,0,0],"id":1,"left_children":[1,3,5,7,9,11,13,15,-1,17,-1,19,-1,21,23,25,-1,27,29,-1,31,-1,-1,33,35,-1,-1,-1,37,-1,-1,-1,-1,-1,-1,-1,-1,-1,-1],"loss_changes":[3.1409668E6,7.474695E5,2.3803562E5,1.3842125E5,1.949576E5,1.2424469E5,6.631725E4,4.612575E4,0E0,1.0647543E4,0E0,9.572285E3,0E0,3.14405E4,1.1593625E4,1.0297508E4,0E0,3.0950547E3,1.8517262E3,0E0,4.2277435E2,0E0,0E0,7.9568994E2,7.0771016E3,0E0,0E0,0E0,5.5859595E2,0E0,0E0,0E0,0E0,0E0,0E0,0E0,0E0,0E0,0E0],"parents":[2147483647,0,0,1,1,2,2,3,3,4,4,5,5,6,6,7,7,9,9,11,11,13,13,14,14,15,15,17,17,18,18,20,20,23,23,24,24,28,28],"right_children":[2,4,6,8,10,12,14,16,-1,18,-1,20,-1,22,24,26,-1,28,30,-1,32,-1,-1,34,36,-1,-1,-1,38,-1,-1,-1,-1,-1,-1,-1,-1,-1,-1],"split_conditions":[1E0,3.3E1,4E-1,1E0,1E0,1E0,5.5E1,5E0,3.8883358E1,4E-1,1.6343979E1,4.6E1,1.2792029E1,3.3E1,4.1E-1,1E0,2.4651316E1,1E0,5.1E1,-8.6179E0,1E0,-1.2204871E1,-1.9283865E1,1.2E1,1E0,1.4144055E1,3.2152448E0,-1.01804E1,3.6E1,-2.5583007E0,1.7166992E0,-1.3708009E0,6.291992E-1,5.2919924E-1,-2.0610678E0,-1.0591028E1,-2.0946372E0,-1.8330078E-1,-3.9333007E0],"split_indices":[18,20,1,4,4,4,2,22,0,1,0,2,0,20,1,6,0,3,2,0,3,0,0,21,4,0,0,0,2,0,0,0,0,0,0,0,0,0,0],"split_type":[0,0,0,0,0,0,0,0,0,0,0,0,0,0,0,0,0,0,0,0,0,0,0,0,0,0,0,0,0,0,0,0,0,0,0,0,0,0,0],"sum_hessian":[1.22E2,5E1,7.2E1,3.6E1,1.4E1,1.2E1,6E1,2.7E1,9E0,1E1,4E0,8E0,4E0,4.9E1,1.1E1,7E0,2E1,8E0,2E0,6E0,2E0,1.9E1,3E1,3E0,8E0,5E0,2E0,6E0,2E0,1E0,1E0,1E0,1E0,1E0,2E0,6E0,2E0,1E0,1E0],"tree_param":{"num_deleted":"0","num_feature":"24","num_nodes":"39","size_leaf_vector":"1"}},{"base_weights":[2.0140817E0,1.7900607E2,-1.0772796E2,2.4245808E2,-1.4973199E1,1.5838936E1,-1.3701456E2,1.877559E2,3.5423084E1,-6.972688E1,1.2440432E1,-7.042271E1,1.3752144E1,-9.95908E1,-1.6695934E2,1.2177179E1,2.088665E1,-8.165401E0,1.630864E0,-8.626708E0,-3.0301514E0,-1.0493873E2,-4.97938E0,-1.7103827E1,-1.3677475E0,-1.3022614E0,5.977387E-1,-1.0667388E1,-2.741249E0],"categories":[],"categories_nodes":[],"categories_segments":[],"categories_sizes":[],"default_left":[0,0,0,0,0,0,0,0,0,0,0,0,0,0,0,0,0,0,0,0,0,0,0,0,0,0,0,0,0],"id":2,"left_children":[1,3,5,7,9,11,13,15,-1,17,-1,19,-1,21,23,-1,-1,-1,-1,-1,25,27,-1,-1,-1,-1,-1,-1,-1],"loss_changes":[2.4864198E6,6.078784E5,2.8866562E5,1.5700675E5,1.07609555E5,1.7796464E5,5.3761E4,1.05228125E4,0E0,1.1919957E4,0E0,9.970039E3,0E0,2.2566875E3,1.7994625E4,0E0,0E0,0E0,0E0,0E0,3.830898E2,3.7375E1,0E0,0E0,0E0,0E0,0E0,0E0,0E0],"parents":[2147483647,0,0,1,1,2,2,3,3,4,4,5,5,6,6,7,7,9,9,11,11,13,13,14,14,20,20,21,21],"right_children":[2,4,6,8,10,12,14,16,-1,18,-1,20,-1,22,24,-1,-1,-1,-1,-1,26,28,-1,-1,-1,-1,-1,-1,-1],"split_conditions":[1E0,3.3E1,4E-1,1E0,1E0,1E0,3.3E1,4E-1,3.5423084E1,5.1E1,1.2440432E1,4.6E1,1.3752144E1,1E0,6.2E1,1.2177179E1,2.088665E1,-8.165401E0,1.630864E0,-8.626708E0,1E0,6.1E1,-4.97938E0,-1.7103827E1,-1.3677475E0,-1.3022614E0,5.977387E-1,-1.0667388E1,-2.741249E0],"split_indices":[18,20,1,4,4,4,20,1,0,2,0,2,0,4,2,0,0,0,0,0,3,2,0,0,0,0,0,0,0],"split_type":[0,0,0,0,0,0,0,0,0,0,0,0,0,0,0,0,0,0,0,0,0,0,0,0,0,0,0,0,0],"sum_hessian":[1.26E2,4.8E1,7.8E1,3.6E1,1.2E1,1.5E1,6.3E1,2.6E1,1E1,9E0,3E0,9E0,6E0,3E1,3.3E1,8E0,1.8E1,8E0,1E0,7E0,2E0,2.6E1,4E0,3.2E1,1E0,1E0,1E0,2.5E1,1E0],"tree_param":{"num_deleted":"0","num_feature":"24","num_nodes":"29","size_leaf_vector":"1"}},{"base_weights":[-1.7876681E0,1.5631767E2,-9.8232544E1,2.0722408E2,1.0256646E1,8.943376E0,-1.2442584E2,1.372853E2,2.3917903E2,-5.5346825E1,1.4041226E1,-6.573635E1,1.2573389E2,-9.298996E1,-1.4790047E2,1.5078313E1,3.586552E1,2.532012E1,1.0451787E1,-6.5494965E1,1.549321E0,-7.8857093E0,-2.7953186E0,1.344635E1,3.4178102E0,-9.801331E0,-3.332905E1,-1.5617212E1,-3.1882324E0,2.6681215E-1,4.8630157E0,-0E0,-7.364217E0,-1.2371491E0,5.6785125E-1,-4.182355E0,-1.4227752E-1,5.711258E-1,-1.2993606E0],"categories":[],"categories_nodes":[],"categories_segments":[],"categories_sizes":[],"default_left":[0,0,0,0,0,0,0,0,0,0,0,0,0,0,0,0,0,0,0,0,0,0,0,0,0,0,0,0,0,0,0,0,0,0,0,0,0,0,0],"id":3,"left_children":[1,3,5,7,9,11,13,15,17,19,-1,21,23,25,27,-1,29,-1,-1,31,-1,-1,33,-1,-1,-1,35,-1,37,-1,-1,-1,-1,-1,-1,-1,-1,-1,-1],"loss_changes":[2.012612E6,3.6855925E5,2.3188806E5,4.7972875E4,1.2773794E5,1.5683728E5,3.3746688E4,1.2824094E4,1.7065125E4,8.453678E3,0E0,8.455477E3,1.5580469E2,5.3672188E3,4.1797688E4,0E0,8.8501587E2,0E0,0E0,4.779039E3,0E0,0E0,3.4715717E2,0E0,0E0,0E0,8.08374E2,0E0,3.724101E2,0E0,0E0,0E0,0E0,0E0,0E0,0E0,0E0,0E0,0E0],"parents":[2147483647,0,0,1,1,2,2,3,3,4,4,5,5,6,6,7,7,8,8,9,9,11,11,12,12,13,13,14,14,16,16,19,19,22,22,26,26,28,28],"right_children":[2,4,6,8,10,12,14,16,18,20,-1,22,24,26,28,-1,30,-1,-1,32,-1,-1,34,-1,-1,-1,36,-1,38,-1,-1,-1,-1,-1,-1,-1,-1,-1,-1],"split_conditions":[1E0,3.3E1,4E-1,6E0,1E0,1E0,3.3E1,1E0,1E0,5.1E1,1.4041226E1,4.6E1,1.2E1,1E0,6.2E1,1.5078313E1,3.2E1,2.532012E1,1.0451787E1,3.6E1,1.549321E0,-7.8857093E0,1E0,1.344635E1,3.4178102E0,-9.801331E0,6.4E-1,-1.5617212E1,1.2E1,2.6681215E-1,4.8630157E0,-0E0,-7.364217E0,-1.2371491E0,5.6785125E-1,-4.182355E0,-1.4227752E-1,5.711258E-1,-1.2993606E0],"split_indices":[18,20,1,22,4,4,20,6,7,2,0,2,21,4,2,0,2,0,0,2,0,0,3,0,0,0,1,0,21,0,0,0,0,0,0,0,0,0,0],"split_type":[0,0,0,0,0,0,0,0,0,0,0,0,0,0,0,0,0,0,0,0,0,0,0,0,0,0,0,0,0,0,0,0,0,0,0,0,0,0,0],"sum_hessian":[1.3E2,4.9E1,8.1E1,3.6E1,1.3E1,1.6E1,6.5E1,1.3E1,2.3E1,9E0,4E0,1E1,6E0,3E1,3.5E1,1.1E1,2E0,2E1,3E0,8E0,1E0,8E0,2E0,5E0,1E0,2.7E1,3E0,3.3E1,2E0,1E0,1E0,1E0,7E0,1E0,1E0,2E0,1E0,1E0,1E0],"tree_param":{"num_deleted":"0","num_feature":"24","num_nodes":"39","size_leaf_vector":"1"}},{"base_weights":[-1.9408454E0,1.26304535E2,-8.747698E1,1.9151048E2,-3.206576E1,-1.0785666E2,1.3034147E1,1.494095E2,2.8974218E1,-7.3555725E1,1.0954307E1,-1.1106106E2,-2.9454956E0,1.0826297E1,-5.1344414E1,1.0712615E2,1.8368385E2,-8.1064E1,-1.984014E1,-5.372663E1,-1.1952926E2,5.42569E-1,-1.2343934E0,-5.679956E0,-1.3516389E-1,1.1994636E1,4.063404E0,1.997222E1,5.6635866E0,-8.53626E0,-1.6539048E0,-0E0,-2.9601548E0,-6.556871E0,-2.5722148E0,-8.976253E0,-1.4578629E1,-1.1752914E0,5.394592E-1],"categories":[],"categories_nodes":[],"categories_segments":[],"categories_sizes":[],"default_left":[0,0,0,0,0,0,0,0,0,0,0,0,0,0,0,0,0,0,0,0,0,0,0,0,0,0,0,0,0,0,0,0,0,0,0,0,0,0,0],"id":4,"left_children":[1,3,5,7,9,11,13,15,-1,17,-1,19,21,-1,23,25,27,29,31,33,35,-1,-1,-1,-1,-1,-1,-1,-1,-1,-1,-1,-1,-1,37,-1,-1,-1,-1],"loss_changes":[1.4259349E6,5.439258E5,1.6165394E5,1.07533125E5,1.0188311E5,2.095425E4,9.1673016E4,1.9447125E4,0E0,3.1302031E3,0E0,2.3299562E4,3.3759375E2,0E0,2.0869316E3,7.1098125E3,1.5933719E4,1.1297109E3,5.7160986E2,5.548385E3,2.7941812E4,0E0,0E0,0E0,0E0,0E0,0E0,0E0,0E0,0E0,0E0,0E0,0E0,0E0,3.1461636E2,0E0,0E0,0E0,0E0],"parents":[2147483647,0,0,1,1,2,2,3,3,4,4,5,5,6,6,7,7,9,9,11,11,12,12,14,14,15,15,16,16,17,17,18,18,19,19,20,20,34,34],"right_children":[2,4,6,8,10,12,14,16,-1,18,-1,20,22,-1,24,26,28,30,32,34,36,-1,-1,-1,-1,-1,-1,-1,-1,-1,-1,-1,-1,-1,38,-1,-1,-1,-1],"split_conditions":[1E0,3.3E1,1E0,1E0,1E0,6.2E1,4E-1,6E0,2.8974218E1,1E0,1.0954307E1,4E-1,1.2E1,1.0826297E1,6.4E-1,1E0,1E0,4E-1,3.6E1,4.6E1,3.3E1,5.42569E-1,-1.2343934E0,-5.679956E0,-1.3516389E-1,1.1994636E1,4.063404E0,1.997222E1,5.6635866E0,-8.53626E0,-1.6539048E0,-0E0,-2.9601548E0,-6.556871E0,1E0,-8.976253E0,-1.4578629E1,-1.1752914E0,5.394592E-1],"split_indices":[18,20,4,4,4,2,1,22,0,3,0,1,21,0,1,6,7,1,2,2,20,0,0,0,0,0,0,0,0,0,0,0,0,0,3,0,0,0,0],"split_type":[0,0,0,0,0,0,0,0,0,0,0,0,0,0,0,0,0,0,0,0,0,0,0,0,0,0,0,0,0,0,0,0,0,0,0,0,0,0,0],"sum_hessian":[1.28E2,5.1E1,7.7E1,3.6E1,1.5E1,6.4E1,1.3E1,2.7E1,9E0,1.2E1,3E0,6.2E1,2E0,5E0,8E0,1.4E1,1.3E1,1E1,2E0,9E0,5.3E1,1E0,1E0,7E0,1E0,1.1E1,3E0,1.1E1,2E0,9E0,1E0,1E0,1E0,7E0,2E0,2.7E1,2.6E1,1E0,1E0],"tree_param":{"num_deleted":"0","num_feature":"24","num_nodes":"39","size_leaf_vector":"1"}},{"base_weights":[-4.0922785E0,1.187336E2,-8.02869E1,1.8728954E2,-9.462175E0,-9.799307E1,1.4589579E0,1.392005E2,2.786654E1,-6.339754E1,1.0814148E2,-1.1321414E2,-7.748564E1,9.507439E0,-5.4356194E1,1.1106518E2,1.8692907E1,-7.489407E1,-0E0,1.2041582E1,2.0884888E0,-6.2150375E1,-1.2830736E1,-1.8007599E1,-8.303659E1,-5.9554873E0,-1.2840576E-1,2.5503006E0,1.1450638E2,-8.469718E0,-1.8853424E1,-1.5712098E0,1.5545502E0,-7.8768044E0,-2.8779099E1,5.9723586E-1,-2.9658372E0,-8.440654E0,-2.0524004E0,1.180638E1,2.8072479E0,-0E0,-2.8121476E0,-8.681102E-1,-3.7617397E0],"categories":[],"categories_nodes":[],"categories_segments":[],"categories_sizes":[],"default_left":[0,0,0,0,0,0,0,0,0,0,0,0,0,0,0,0,0,0,0,0,0,0,0,0,0,0,0,0,0,0,0,0,0,0,0,0,0,0,0,0,0,0,0,0,0],"id":5,"left_children":[1,3,5,7,9,11,13,15,-1,17,19,21,23,-1,25,27,-1,29,31,-1,-1,33,-1,35,37,-1,-1,-1,39,-1,41,-1,-1,-1,43,-1,-1,-1,-1,-1,-1,-1,-1,-1,-1],"loss_changes":[1.1978918E6,4.3330188E5,1.1497075E5,9.9734E4,1.2080612E5,1.05634375E4,8.374886E4,8.634469E3,0E0,9.450121E3,3.2047344E3,1.8048406E4,8.234422E3,0E0,2.3783828E3,1.385125E3,0E0,3.928504E3,9.7706525E2,0E0,0E0,2.740918E3,0E0,1.4131006E3,1.40875E2,0E0,0E0,0E0,8.746875E2,0E0,5.152799E2,0E0,0E0,0E0,3.3010742E2,0E0,0E0,0E0,0E0,0E0,0E0,0E0,0E0,0E0,0E0],"parents":[2147483647,0,0,1,1,2,2,3,3,4,4,5,5,6,6,7,7,9,9,10,10,11,11,12,12,14,14,15,15,17,17,18,18,21,21,23,23,24,24,28,28,30,30,34,34],"right_children":[2,4,6,8,10,12,14,16,-1,18,20,22,24,-1,26,28,-1,30,32,-1,-1,34,-1,36,38,-1,-1,-1,40,-1,42,-1,-1,-1,44,-1,-1,-1,-1,-1,-1,-1,-1,-1,-1],"split_conditions":[1E0,3.3E1,1E0,1E0,1E0,1.2E1,4E-1,4.1E-1,2.786654E1,4E-1,1E1,4E-1,4.1E-1,9.507439E0,6.4E-1,3E0,1.8692907E1,1E0,5.1E1,1.2041582E1,2.0884888E0,1E0,-1.2830736E1,1.1E1,6.2E1,-5.9554873E0,-1.2840576E-1,2.5503006E0,9E0,-8.469718E0,3.6E1,-1.5712098E0,1.5545502E0,-7.8768044E0,4E0,5.9723586E-1,-2.9658372E0,-8.440654E0,-2.0524004E0,1.180638E1,2.8072479E0,-0E0,-2.8121476E0,-8.681102E-1,-3.7617397E0],"split_indices":[18,20,4,4,4,21,1,1,0,1,22,1,1,0,1,22,0,3,2,0,0,7,0,22,2,0,0,0,22,0,2,0,0,0,22,0,0,0,0,0,0,0,0,0,0],"split_type":[0,0,0,0,0,0,0,0,0,0,0,0,0,0,0,0,0,0,0,0,0,0,0,0,0,0,0,0,0,0,0,0,0,0,0,0,0,0,0,0,0,0,0,0,0],"sum_hessian":[1.26E2,4.8E1,7.8E1,3.1E1,1.7E1,6.4E1,1.4E1,2.2E1,9E0,1.2E1,5E0,3.4E1,3E1,5E0,9E0,1.6E1,6E0,1E1,2E0,4E0,1E0,9E0,2.5E1,3E0,2.7E1,8E0,1E0,1E0,1.5E1,8E0,2E0,1E0,1E0,5E0,4E0,1E0,2E0,2.6E1,1E0,1.4E1,1E0,1E0,1E0,2E0,2E0],"tree_param":{"num_deleted":"0","num_feature":"24","num_nodes":"45","size_leaf_vector":"1"}},{"base_weights":[4.964341E0,1.26762314E2,-7.5165436E1,1.7890892E2,-6.507003E0,1.1034567E0,-9.100034E1,1.3174904E2,2.6183292E1,-4.6951897E1,8.277316E1,-4.178846E1,8.7666595E1,-1.1283271E2,-7.1352936E1,1.4804041E1,6.7994026E1,-7.085995E1,-1.4385196E1,9.229613E0,1.9840637E0,-5.218029E1,-0E0,9.718208E0,2.2302322E0,-1.1825349E1,-4.949468E0,1.316235E0,-7.685861E1,1.4218455E1,8.566057E0,-7.806134E0,-1.4926499E0,-2.4169521E1,1.4768219E0,-6.46892E0,-8.1023663E-1,-9.284393E-1,9.063263E-1,-6.1173767E1,-9.453883E0,-4.00177E-2,2.422786E0,-3.0132573E0,-0E0,-6.385747E0,-2.2119074E1,-2.9458764E0,-1.2198486E-1],"categories":[],"categories_nodes":[],"categories_segments":[],"categories_sizes":[],"default_left":[0,0,0,0,0,0,0,0,0,0,0,0,0,0,0,0,0,0,0,0,0,0,0,0,0,0,0,0,0,0,0,0,0,0,0,0,0,0,0,0,0,0,0,0,0,0,0,0,0],"id":6,"left_children":[1,3,5,7,9,11,13,15,-1,17,19,21,23,25,27,-1,29,31,33,-1,-1,35,37,-1,-1,-1,-1,-1,39,41,-1,-1,-1,43,-1,-1,-1,-1,-1,45,-1,-1,-1,-1,-1,-1,47,-1,-1],"loss_changes":[1.2297416E6,3.4950325E5,9.2335875E4,1.04320625E5,5.787115E4,5.5872867E4,1.8051969E4,1.4820375E4,0E0,7.1191074E3,6.04625E2,4.319508E3,3.450586E2,2.9219062E3,1.8081422E4,0E0,4.932842E3,7.866738E2,2.1154263E3,0E0,0E0,3.5228418E3,3.366854E2,0E0,0E0,0E0,0E0,0E0,2.8667344E3,5.6780536E2,0E0,0E0,0E0,7.1105884E2,0E0,0E0,0E0,0E0,0E0,3.586797E2,0E0,0E0,0E0,0E0,0E0,0E0,2.7085315E2,0E0,0E0],"parents":[2147483647,0,0,1,1,2,2,3,3,4,4,5,5,6,6,7,7,9,9,10,10,11,11,12,12,13,13,14,14,16,16,17,17,18,18,21,21,22,22,28,28,29,29,33,33,39,39,46,46],"right_children":[2,4,6,8,10,12,14,16,-1,18,20,22,24,26,28,-1,30,32,34,-1,-1,36,38,-1,-1,-1,-1,-1,40,42,-1,-1,-1,44,-1,-1,-1,-1,-1,46,-1,-1,-1,-1,-1,-1,48,-1,-1],"split_conditions":[1E0,3.3E1,4E-1,1E0,1E0,1E0,1.1E1,1E0,2.6183292E1,6E0,1E1,4.6E1,1.2E1,1E0,4.1E-1,1.4804041E1,3.2E1,4E-1,4E-1,9.229613E0,1.9840637E0,1E0,1E0,9.718208E0,2.2302322E0,-1.1825349E1,-4.949468E0,1.316235E0,1E1,1.6E1,8.566057E0,-7.806134E0,-1.4926499E0,1E0,1.4768219E0,-6.46892E0,-8.1023663E-1,-9.284393E-1,9.063263E-1,1E0,-9.453883E0,-4.00177E-2,2.422786E0,-3.0132573E0,-0E0,-6.385747E0,6.4E-1,-2.9458764E0,-1.2198486E-1],"split_indices":[18,20,1,4,4,4,21,6,0,22,22,2,21,4,1,0,2,1,1,0,0,7,3,0,0,0,0,0,22,21,0,0,0,3,0,0,0,0,0,4,0,0,0,0,0,0,1,0,0],"split_type":[0,0,0,0,0,0,0,0,0,0,0,0,0,0,0,0,0,0,0,0,0,0,0,0,0,0,0,0,0,0,0,0,0,0,0,0,0,0,0,0,0,0,0,0,0,0,0,0,0],"sum_hessian":[1.24E2,4.9E1,7.5E1,3.5E1,1.4E1,1.3E1,6.2E1,2.4E1,1.1E1,1E1,4E0,9E0,4E0,2.7E1,3.5E1,1.8E1,6E0,5E0,5E0,3E0,1E0,7E0,2E0,3E0,1E0,2.4E1,3E0,2E0,3.3E1,2E0,4E0,4E0,1E0,4E0,1E0,5E0,2E0,1E0,1E0,2E1,1.3E1,1E0,1E0,3E0,1E0,1.8E1,2E0,1E0,1E0],"tree_param":{"num_deleted":"0","num_feature":"24","num_nodes":"49","size_leaf_vector":"1"}},{"base_weights":[9.472523E0,1.1177803E2,-5.833075E1,6.795827E1,2.1611612E2,1.2360412E1,-7.659732E1,1.0293431E2,5.28633E0,2.3095646E1,8.30494E0,-4.338974E1,9.0951996E1,-8.6669E1,-2.9510847E1,1.536155E2,7.571651E1,-5.3409206E1,9.328191E1,-1.7922659E1,-7.5859694E0,9.821493E0,2.118721E0,-6.1691944E1,-1.0362553E2,-4.1020103E1,2.5126877E0,1.7575186E1,6.384972E0,2.6762085E1,9.346734E1,-6.139155E0,-1.5314E1,1.0339885E1,1.8848603E0,-2.5007696E1,-0E0,-6.344055E0,-9.9856186E-1,-1.1032466E1,-6.095776E0,-5.073091E0,-2.2105276E1,1.0911667E0,-2.2575276E0,-3.8017273E-2,3.326657E1,3.737021E0,1.0044974E1,-0E0,-2.281234E0,-7.562205E-1,-3.2450624E0,-8.8201755E-1,8.6101073E-1,-1.1588593E-1,-2.5802166E0,5.0156254E-1,-1.0901917E0,3.857956E0,3.507309E-1],"categories":[],"categories_nodes":[],"categories_segments":[],"categories_sizes":[],"default_left":[0,0,0,0,0,0,0,0,0,0,0,0,0,0,0,0,0,0,0,0,0,0,0,0,0,0,0,0,0,0,0,0,0,0,0,0,0,0,0,0,0,0,0,0,0,0,0,0,0,0,0,0,0,0,0,0,0,0,0,0,0],"id":7,"left_children":[1,3,5,7,9,11,13,15,17,-1,-1,19,21,23,25,27,29,31,33,35,-1,-1,-1,37,39,41,43,-1,-1,45,47,-1,49,-1,-1,51,53,-1,-1,-1,-1,-1,55,-1,57,-1,59,-1,-1,-1,-1,-1,-1,-1,-1,-1,-1,-1,-1,-1,-1],"loss_changes":[8.5305844E5,2.0792412E5,9.682308E4,7.782733E4,6.89575E3,7.428807E4,2.4841562E4,1.8949031E4,7.749074E4,0E0,0E0,6.440631E3,8.6897266E2,1.31096875E4,4.718412E3,1.4899062E3,1.1670164E4,1.413123E3,1.9580625E3,8.783721E2,0E0,0E0,0E0,9.8847656E2,1.360625E2,1.6750293E2,2.2816385E2,0E0,0E0,1.2363574E3,2.5739062E2,0E0,3.3724982E2,0E0,0E0,2.0376514E2,3.038589E2,0E0,0E0,0E0,0E0,0E0,2.2247656E2,0E0,2.7272723E2,0E0,4.448086E2,0E0,0E0,0E0,0E0,0E0,0E0,0E0,0E0,0E0,0E0,0E0,0E0,0E0,0E0],"parents":[2147483647,0,0,1,1,2,2,3,3,4,4,5,5,6,6,7,7,8,8,11,11,12,12,13,13,14,14,15,15,16,16,17,17,18,18,19,19,23,23,24,24,25,25,26,26,29,29,30,30,32,32,35,35,36,36,42,42,44,44,46,46],"right_children":[2,4,6,8,10,12,14,16,18,-1,-1,20,22,24,26,28,30,32,34,36,-1,-1,-1,38,40,42,44,-1,-1,46,48,-1,50,-1,-1,52,54,-1,-1,-1,-1,-1,56,-1,58,-1,60,-1,-1,-1,-1,-1,-1,-1,-1,-1,-1,-1,-1,-1,-1],"split_conditions":[1E0,4.1E-1,4E-1,3.3E1,1E1,1E0,5.5E1,1.3E1,1E0,2.3095646E1,8.30494E0,1E0,1.2E1,3.3E1,3.8E1,1E0,5E0,1E0,1E1,4.6E1,-7.5859694E0,9.821493E0,2.118721E0,5.3E1,4.6E1,7E0,1.2E1,1.7575186E1,6.384972E0,1.6E1,3.5E-1,-6.139155E0,3.6E1,1.0339885E1,1.8848603E0,2.7E1,1E0,-6.344055E0,-9.9856186E-1,-1.1032466E1,-6.095776E0,-5.073091E0,5.7E1,1.0911667E0,6.1E1,-3.8017273E-2,4.6E1,3.737021E0,1.0044974E1,-0E0,-2.281234E0,-7.562205E-1,-3.2450624E0,-8.8201755E-1,8.6101073E-1,-1.1588593E-1,-2.5802166E0,5.0156254E-1,-1.0901917E0,3.857956E0,3.507309E-1],"split_indices":[18,1,1,20,22,4,2,21,4,0,0,6,21,20,0,7,22,3,22,2,0,0,0,2,2,22,21,0,0,21,1,0,2,0,0,2,3,0,0,0,0,0,2,0,2,0,2,0,0,0,0,0,0,0,0,0,0,0,0,0,0],"split_type":[0,0,0,0,0,0,0,0,0,0,0,0,0,0,0,0,0,0,0,0,0,0,0,0,0,0,0,0,0,0,0,0,0,0,0,0,0,0,0,0,0,0,0,0,0,0,0,0,0,0,0,0,0,0,0,0,0,0,0,0,0],"sum_hessian":[1.21E2,4.8E1,7.3E1,3.5E1,1.3E1,1.5E1,5.8E1,2.2E1,1.3E1,1.1E1,2E0,9E0,6E0,4.7E1,1.1E1,6E0,1.6E1,8E0,5E0,6E0,3E0,5E0,1E0,2.1E1,2.6E1,8E0,3E0,4E0,2E0,5E0,1.1E1,6E0,2E0,4E0,1E0,4E0,2E0,2E1,1E0,2.1E1,5E0,4E0,4E0,1E0,2E0,1E0,4E0,2E0,9E0,1E0,1E0,2E0,2E0,1E0,1E0,1E0,3E0,1E0,1E0,3E0,1E0],"tree_param":{"num_deleted":"0","num_feature":"24","num_nodes":"61","size_leaf_vector":"1"}},{"base_weights":[-1.1171051E0,9.577741E1,-6.1089806E1,1.3093279E2,3.2016885E0,-7.2752266E1,-3.8880463E0,1.0135695E2,2.0127045E1,-5.1847054E1,8.607452E1,-7.498517E1,-1.43249E0,7.5072985E0,-4.347976E1,7.0605354E1,1.26292755E2,-5.828827E0,-0E0,9.512695E0,1.7906173E0,-4.968056E1,-7.945857E1,-1.5014824E0,1.0366089E0,-4.7510635E1,-1.1009216E-1,8.037326E0,2.4842286E0,1.3823206E2,3.875108E0,-5.889381E0,-7.428792E-1,-5.9935055E0,-9.638469E0,-5.038676E0,-9.750832E-1,1.4511126E1,3.2220047E0,-8.3791655E-1,4.764847E-1],"categories":[],"categories_nodes":[],"categories_segments":[],"categories_sizes":[],"default_left":[0,0,0,0,0,0,0,0,0,0,0,0,0,0,0,0,0,0,0,0,0,0,0,0,0,0,0,0,0,0,0,0,0,0,0,0,0,0,0,0,0],"id":8,"left_children":[1,3,5,7,9,11,13,15,-1,17,19,21,23,-1,25,27,29,-1,-1,-1,-1,31,33,-1,-1,35,-1,-1,-1,37,-1,-1,39,-1,-1,-1,-1,-1,-1,-1,-1],"loss_changes":[7.1462275E5,1.5187331E5,5.003453E4,4.8816688E4,6.8502484E4,9.54325E3,4.6873023E4,1.0035781E4,0E0,2.987125E3,1.4340117E3,2.3118438E3,6.596454E2,0E0,1.412875E3,3.7353906E3,7.3458594E3,0E0,0E0,0E0,0E0,5.0685645E3,9.964469E3,0E0,0E0,1.8541602E2,0E0,0E0,0E0,2.4599062E3,0E0,0E0,1.8417276E2,0E0,0E0,0E0,0E0,0E0,0E0,0E0,0E0],"parents":[2147483647,0,0,1,1,2,2,3,3,4,4,5,5,6,6,7,7,9,9,10,10,11,11,12,12,14,14,15,15,16,16,21,21,22,22,25,25,29,29,32,32],"right_children":[2,4,6,8,10,12,14,16,-1,18,20,22,24,-1,26,28,30,-1,-1,-1,-1,32,34,-1,-1,36,-1,-1,-1,38,-1,-1,40,-1,-1,-1,-1,-1,-1,-1,-1],"split_conditions":[1E0,3.3E1,1E0,1E0,1E0,6.2E1,4E-1,6E0,2.0127045E1,1E0,1E1,4.1E-1,1.9E1,7.5072985E0,6.4E-1,1E0,1E1,-5.828827E0,-0E0,9.512695E0,1.7906173E0,4.6E1,3.3E1,-1.5014824E0,1.0366089E0,5.7E1,-1.1009216E-1,8.037326E0,2.4842286E0,1.9E1,3.875108E0,-5.889381E0,3.5E-1,-5.9935055E0,-9.638469E0,-5.038676E0,-9.750832E-1,1.4511126E1,3.2220047E0,-8.3791655E-1,4.764847E-1],"split_indices":[18,20,4,4,4,2,1,22,0,3,22,1,0,0,1,6,22,0,0,0,0,2,20,0,0,2,0,0,0,0,0,0,1,0,0,0,0,0,0,0,0],"split_type":[0,0,0,0,0,0,0,0,0,0,0,0,0,0,0,0,0,0,0,0,0,0,0,0,0,0,0,0,0,0,0,0,0,0,0,0,0,0,0,0,0],"sum_hessian":[1.21E2,4.6E1,7.5E1,3.3E1,1.3E1,6.2E1,1.3E1,2.5E1,8E0,8E0,5E0,6E1,2E0,4E0,9E0,1.3E1,1.2E1,7E0,1E0,4E0,1E0,1.1E1,4.9E1,1E0,1E0,8E0,1E0,1E1,3E0,1E1,2E0,9E0,2E0,2.5E1,2.4E1,7E0,1E0,9E0,1E0,1E0,1E0],"tree_param":{"num_deleted":"0","num_feature":"24","num_nodes":"41","size_leaf_vector":"1"}},{"base_weights":[1.7763631E0,8.800369E1,-5.3775158E1,1.26066444E2,-6.3429728E0,-6.687556E1,1.4471059E1,7.1657135E1,1.5473299E2,-3.8090214E1,8.9234495E0,-7.724569E1,-3.5804905E1,7.547748E1,-3.2467636E1,8.2389404E1,2.297912E0,1.7155228E2,6.2236958E1,-6.122436E1,-3.9186733E0,-4.4836964E1,-8.261576E1,-4.5219135E0,-1.2840729E0,8.302329E0,1.6374207E0,-3.6092766E1,-1.04586795E-1,8.993098E0,3.063485E0,1.8266073E1,5.345644E0,1.5460755E0,6.881582E0,-6.786303E1,-8.196182E-1,-1.37079315E1,2.001381E0,-5.559104E0,-3.1318054E-1,-6.012704E0,-9.260437E0,-7.1543694E0,8.5985565E-1,-6.792664E-1,-3.9010675E0,-7.417939E0,-1.5640618E0,1.2028555E-1,-2.5716074E0,4.5266038E-1,-1.4223561E0],"categories":[],"categories_nodes":[],"categories_segments":[],"categories_sizes":[],"default_left":[0,0,0,0,0,0,0,0,0,0,0,0,0,0,0,0,0,0,0,0,0,0,0,0,0,0,0,0,0,0,0,0,0,0,0,0,0,0,0,0,0,0,0,0,0,0,0,0,0,0,0,0,0],"id":9,"left_children":[1,3,5,7,9,11,13,15,17,19,-1,21,23,25,27,29,-1,31,33,35,37,39,41,-1,43,-1,-1,45,-1,-1,-1,-1,-1,-1,-1,47,-1,49,-1,-1,-1,-1,-1,51,-1,-1,-1,-1,-1,-1,-1,-1,-1],"loss_changes":[5.9887094E5,1.7736184E5,6.91778E4,4.237075E4,4.8658055E4,1.7290188E4,3.9891926E4,4.893875E3,2.2379938E4,8.920721E3,0E0,3.8382812E3,5.5591875E3,8.1946875E2,6.8782227E2,9.355781E2,0E0,1.26685E4,5.334375E1,1.5277422E3,1.6485061E3,3.568787E3,2.4289062E3,0E0,3.4436615E2,0E0,0E0,1.04461914E2,0E0,0E0,0E0,0E0,0E0,0E0,0E0,3.6982422E2,0E0,1.0487532E3,0E0,0E0,0E0,0E0,0E0,4.4316943E2,0E0,0E0,0E0,0E0,0E0,0E0,0E0,0E0,0E0],"parents":[2147483647,0,0,1,1,2,2,3,3,4,4,5,5,6,6,7,7,8,8,9,9,11,11,12,12,13,13,14,14,15,15,17,17,18,18,19,19,20,20,21,21,22,22,24,24,27,27,35,35,37,37,43,43],"right_children":[2,4,6,8,10,12,14,16,18,20,-1,22,24,26,28,30,-1,32,34,36,38,40,42,-1,44,-1,-1,46,-1,-1,-1,-1,-1,-1,-1,48,-1,50,-1,-1,-1,-1,-1,52,-1,-1,-1,-1,-1,-1,-1,-1,-1],"split_conditions":[1E0,3.3E1,1E0,6E0,1E0,4.6E1,4E-1,1E0,1E1,6E0,8.9234495E0,4E-1,3.8E1,1.2E1,6.4E-1,1E0,2.297912E0,1E0,3.5E-1,4E-1,4E-1,1E0,3.3E1,-4.5219135E0,1E0,8.302329E0,1.6374207E0,1.3E1,-1.04586795E-1,8.993098E0,3.063485E0,1.8266073E1,5.345644E0,1.5460755E0,6.881582E0,1E0,-8.196182E-1,3.5E-1,2.001381E0,-5.559104E0,-3.1318054E-1,-6.012704E0,-9.260437E0,1.1E1,8.5985565E-1,-6.792664E-1,-3.9010675E0,-7.417939E0,-1.5640618E0,1.2028555E-1,-2.5716074E0,4.5266038E-1,-1.4223561E0],"split_indices":[18,20,4,22,4,2,1,6,22,22,0,1,0,21,1,3,0,6,1,1,1,7,20,0,3,0,0,0,0,0,0,0,0,0,0,7,0,1,0,0,0,0,0,22,0,0,0,0,0,0,0,0,0],"split_type":[0,0,0,0,0,0,0,0,0,0,0,0,0,0,0,0,0,0,0,0,0,0,0,0,0,0,0,0,0,0,0,0,0,0,0,0,0,0,0,0,0,0,0,0,0,0,0,0,0,0,0,0,0],"sum_hessian":[1.23E2,4.8E1,7.5E1,3.4E1,1.4E1,6.3E1,1.2E1,1.3E1,2.1E1,1.1E1,3E0,4.6E1,1.7E1,5E0,7E0,1E1,3E0,1.7E1,4E0,6E0,5E0,8E0,3.8E1,1.3E1,4E0,4E0,1E0,6E0,1E0,8E0,2E0,1.5E1,2E0,1E0,3E0,5E0,1E0,4E0,1E0,6E0,2E0,1.4E1,2.4E1,3E0,1E0,1E0,5E0,4E0,1E0,2E0,2E0,1E0,2E0],"tree_param":{"num_deleted":"0","num_feature":"24","num_nodes":"53","size_leaf_vector":"1"}},{"base_weights":[2.6959527E-2,8.372977E1,-4.9736935E1,1.1639814E2,6.7220793E0,-6.0566883E1,8.381852E0,9.0306404E1,1.9254446E2,-2.9039558E1,7.199807E1,-7.018572E1,-4.310989E1,6.633635E1,-3.0630241E1,5.926455E0,1.0957126E2,2.045625E1,5.17092E0,-3.7987625E1,5.8178306E0,8.037803E0,1.2549133E0,-4.7310634E0,-7.911707E1,-9.86528E0,-5.566447E1,7.2381425E0,1.5555496E0,-1.22406E0,-4.1893835E0,1.1849422E1,2.9740305E0,-4.2932215E0,-1.2121043E1,-7.786377E-1,1.9013122E0,-4.836076E1,-8.458279E0,-2.6254318E0,1.8716253E0,-5.942891E1,-1.2856344E0,-0E0,-1.7962754E0,-2.4848469E1,-6.9760995E0,6.14556E0,-7.2490233E-1,-6.7818565E0,-3.051317E0,-9.422608E-2,-2.9339454E0,1.4151723E0,-2.2424572E0,4.30027E-1,-1.0163956E0],"categories":[],"categories_nodes":[],"categories_segments":[],"categories_sizes":[],"default_left":[0,0,0,0,0,0,0,0,0,0,0,0,0,0,0,0,0,0,0,0,0,0,0,0,0,0,0,0,0,0,0,0,0,0,0,0,0,0,0,0,0,0,0,0,0,0,0,0,0,0,0,0,0,0,0,0,0],"id":10,"left_children":[1,3,5,7,9,11,13,15,17,19,21,23,25,27,29,-1,31,-1,-1,33,35,-1,-1,-1,37,39,41,-1,-1,-1,-1,-1,-1,-1,43,-1,-1,45,-1,-1,47,49,-1,-1,-1,51,-1,53,-1,-1,-1,-1,-1,-1,55,-1,-1],"loss_changes":[5.583296E5,1.2438775E5,5.364014E4,5.0735406E4,3.9655605E4,8.329859E3,3.3863395E4,9.406609E3,1.6813438E3,3.8128232E3,1.5157676E3,4.6142188E3,1.0809625E4,2.7622852E2,1.0807227E3,0E0,7.132047E3,0E0,0E0,3.5544727E2,7.4271155E2,0E0,0E0,0E0,2.8795312E2,1.902261E3,2.0975078E3,0E0,0E0,0E0,0E0,0E0,0E0,0E0,2.0456195E2,0E0,0E0,1.3156787E3,0E0,0E0,2.729183E2,1.8056523E3,0E0,0E0,0E0,3.5775806E2,0E0,4.270601E2,0E0,0E0,0E0,0E0,0E0,0E0,2.2851079E2,0E0,0E0],"parents":[2147483647,0,0,1,1,2,2,3,3,4,4,5,5,6,6,7,7,8,8,9,9,10,10,11,11,12,12,13,13,14,14,16,16,19,19,20,20,24,24,25,25,26,26,34,34,37,37,40,40,41,41,45,45,47,47,54,54],"right_children":[2,4,6,8,10,12,14,16,18,20,22,24,26,28,30,-1,32,-1,-1,34,36,-1,-1,-1,38,40,42,-1,-1,-1,-1,-1,-1,-1,44,-1,-1,46,-1,-1,48,50,-1,-1,-1,52,-1,54,-1,-1,-1,-1,-1,-1,56,-1,-1],"split_conditions":[1E0,3.3E1,1E0,1E0,1E0,4.5E1,4E-1,6E0,1.9E1,4E-1,1E1,3.3E1,4.1E-1,1.2E1,3.3E1,5.926455E0,1E1,2.045625E1,5.17092E0,1E0,5.1E1,8.037803E0,1.2549133E0,-4.7310634E0,3.5E-1,4.6E1,1E0,7.2381425E0,1.5555496E0,-1.22406E0,-4.1893835E0,1.1849422E1,2.9740305E0,-4.2932215E0,3.6E1,-7.786377E-1,1.9013122E0,1E0,-8.458279E0,-2.6254318E0,1E0,5.7E-1,-1.2856344E0,-0E0,-1.7962754E0,9E0,-6.9760995E0,1.2E1,-7.2490233E-1,-6.7818565E0,-3.051317E0,-9.422608E-2,-2.9339454E0,1.4151723E0,6.1E1,4.30027E-1,-1.0163956E0],"split_indices":[18,20,4,4,4,2,1,22,0,1,22,20,1,21,20,0,22,0,0,3,2,0,0,0,1,2,3,0,0,0,0,0,0,0,2,0,0,6,0,0,7,1,0,0,0,21,0,21,0,0,0,0,0,0,2,0,0],"split_type":[0,0,0,0,0,0,0,0,0,0,0,0,0,0,0,0,0,0,0,0,0,0,0,0,0,0,0,0,0,0,0,0,0,0,0,0,0,0,0,0,0,0,0,0,0,0,0,0,0,0,0,0,0,0,0,0,0],"sum_hessian":[1.32E2,4.9E1,8.3E1,3.4E1,1.5E1,7E1,1.3E1,2.7E1,7E0,1E1,5E0,4.3E1,2.7E1,5E0,8E0,1.2E1,1.5E1,6E0,1E0,8E0,2E0,4E0,1E0,1.4E1,2.9E1,8E0,1.9E1,4E0,1E0,4E0,4E0,1.3E1,2E0,6E0,2E0,1E0,1E0,6E0,2.3E1,3E0,5E0,1.7E1,2E0,1E0,1E0,4E0,2E0,4E0,1E0,1.2E1,5E0,1E0,3E0,2E0,2E0,1E0,1E0],"tree_param":{"num_deleted":"0","num_feature":"24","num_nodes":"57","size_leaf_vector":"1"}},{"base_weights":[3.0843081E0,7.721249E1,-4.9560505E1,1.10802086E2,-9.1754465E0,-5.8853123E1,4.487886E0,8.007697E1,1.4965213E1,-3.8892056E1,6.2979504E1,-4.443996E0,-6.779301E1,6.059092E0,-3.0512495E1,1.16882805E2,5.7752052E1,-4.880355E1,5.4436088E0,7.1513543E0,1.1921676E0,-6.8968185E1,-9.655762E-1,-3.4048122E1,-3.8154602E-2,1.3459627E1,4.0828266E0,3.338141E1,7.5150246E1,-6.5309844E0,-2.6081045E0,-7.397057E-1,1.806247E0,-4.2662342E1,-7.4581437E0,-1.0714071E0,-4.023893E0,4.2934804E0,1.6151733E1,8.401134E0,2.775762E0,-2.486721E1,-5.7439456E0,2.3012917E0,-3.1464997E-1,-8.9514926E-2,-2.8482594E0],"categories":[],"categories_nodes":[],"categories_segments":[],"categories_sizes":[],"default_left":[0,0,0,0,0,0,0,0,0,0,0,0,0,0,0,0,0,0,0,0,0,0,0,0,0,0,0,0,0,0,0,0,0,0,0,0,0,0,0,0,0,0,0,0,0,0,0],"id":11,"left_children":[1,3,5,7,9,11,13,15,-1,17,19,-1,21,-1,23,25,27,29,31,-1,-1,33,-1,35,-1,-1,-1,37,39,-1,-1,-1,-1,41,-1,-1,-1,-1,43,-1,-1,45,-1,-1,-1,-1,-1],"loss_changes":[5.073828E5,1.5821856E5,3.8707016E4,3.3420875E4,3.6636176E4,4.8015E3,2.5562701E4,1.2097094E4,0E0,5.755658E3,9.089082E2,0E0,1.5371562E3,0E0,6.6711523E2,4.4050625E3,4.1568125E3,1.5903398E3,6.7303986E2,0E0,0E0,1.6954375E3,0E0,3.253086E2,0E0,0E0,0E0,4.925127E2,8.887539E2,0E0,0E0,0E0,0E0,5.267529E2,0E0,0E0,0E0,0E0,8.3378577E2,0E0,0E0,3.4762427E2,0E0,0E0,0E0,0E0,0E0],"parents":[2147483647,0,0,1,1,2,2,3,3,4,4,5,5,6,6,7,7,9,9,10,10,12,12,14,14,15,15,16,16,17,17,18,18,21,21,23,23,27,27,28,28,33,33,38,38,41,41],"right_children":[2,4,6,8,10,12,14,16,-1,18,20,-1,22,-1,24,26,28,30,32,-1,-1,34,-1,36,-1,-1,-1,38,40,-1,-1,-1,-1,42,-1,-1,-1,-1,44,-1,-1,46,-1,-1,-1,-1,-1],"split_conditions":[1E0,3.3E1,1E0,4.1E-1,1E0,1.9E1,4E-1,1.3E1,1.4965213E1,4E-1,1E1,-4.443996E0,6.2E1,6.059092E0,6.4E-1,1E0,6E0,6E0,5.1E1,7.1513543E0,1.1921676E0,4E-1,-9.655762E-1,2E1,-3.8154602E-2,1.3459627E1,4.0828266E0,1.6E1,9E0,-6.5309844E0,-2.6081045E0,-7.397057E-1,1.806247E0,1E0,-7.4581437E0,-1.0714071E0,-4.023893E0,4.2934804E0,4.6E1,8.401134E0,2.775762E0,9E0,-5.7439456E0,2.3012917E0,-3.1464997E-1,-8.9514926E-2,-2.8482594E0],"split_indices":[18,20,4,1,4,0,1,21,0,1,22,0,2,0,1,7,22,22,2,0,0,1,0,2,0,0,0,21,22,0,0,0,0,6,0,0,0,0,2,0,0,21,0,0,0,0,0],"split_type":[0,0,0,0,0,0,0,0,0,0,0,0,0,0,0,0,0,0,0,0,0,0,0,0,0,0,0,0,0,0,0,0,0,0,0,0,0,0,0,0,0,0,0,0,0,0,0],"sum_hessian":[1.28E2,5.3E1,7.5E1,3.8E1,1.5E1,6.4E1,1.1E1,2.3E1,1.5E1,1.1E1,4E0,2.7E1,3.7E1,4E0,7E0,7E0,1.6E1,9E0,2E0,3E0,1E0,3.6E1,1E0,6E0,1E0,5E0,2E0,8E0,8E0,4E0,5E0,1E0,1E0,8E0,2.8E1,2E0,4E0,4E0,4E0,6E0,2E0,5E0,3E0,3E0,1E0,1E0,4E0],"tree_param":{"num_deleted":"0","num_feature":"24","num_nodes":"47","size_leaf_vector":"1"}},{"base_weights":[-2.532381E-3,6.795177E1,-3.9702034E1,2.8113409E1,1.4804878E2,-4.99257E1,6.556411E0,9.02907E0,9.972028E1,1.8469248E1,9.847119E1,-6.0616543E1,-3.2917076E1,6.044917E1,-3.1324162E1,3.0823645E1,-1.1581138E1,5.721403E1,1.3565727E1,1.1091515E1,3.4944897E0,-4.2977524E0,-6.894761E0,-6.211553E0,-4.2556725E1,6.5774636E0,1.1748184E0,-3.4168518E1,-3.6247253E-2,2.2580934E0,4.1524055E1,-2.9952913E1,4.5179477E0,6.3512607E0,1.3509873E0,-2.142513E0,4.1327567E0,-4.8105187E0,-2.387334E1,-9.999797E-1,-3.8931043E0,-3.2186584E0,1.458255E0,4.7254953E0,1.0733653E0,-4.9053234E1,-1.843722E0,8.144281E0,-5.462433E-1,-3.562828E-1,-2.583129E0,-8.90092E-1,4.4140625E-1,-5.4053036E1,-7.0272064E-1,-1.0076205E1,1.7159348E0,1.4479564E0,-0E0,-6.0085053E0,-9.4464797E-1,-1.8328637E0,-2.1809387E-1,7.814331E-1,-9.1729736E-1],"categories":[],"categories_nodes":[],"categories_segments":[],"categories_sizes":[],"default_left":[0,0,0,0,0,0,0,0,0,0,0,0,0,0,0,0,0,0,0,0,0,0,0,0,0,0,0,0,0,0,0,0,0,0,0,0,0,0,0,0,0,0,0,0,0,0,0,0,0,0,0,0,0,0,0,0,0,0,0,0,0,0,0,0,0],"id":12,"left_children":[1,3,5,7,9,11,13,15,17,-1,19,21,23,25,27,29,31,33,-1,-1,-1,-1,-1,35,37,-1,-1,39,-1,41,43,45,-1,-1,-1,-1,47,-1,49,-1,-1,51,-1,-1,-1,53,55,57,-1,-1,-1,-1,-1,59,-1,61,-1,-1,63,-1,-1,-1,-1,-1,-1],"loss_changes":[3.586598E5,1.513128E5,4.027036E4,4.501925E4,9.464594E3,1.008375E4,3.4702965E4,1.3030526E4,1.9669609E3,0E0,2.5094453E3,2.5022031E3,6.95734E3,6.551406E2,6.956211E2,3.9666074E3,1.6919021E4,1.3321094E2,0E0,0E0,0E0,0E0,0E0,1.5913722E3,6.686172E2,0E0,0E0,4.019795E2,0E0,4.4124567E2,9.6740625E2,6.0978096E3,0E0,0E0,0E0,0E0,2.8884482E2,0E0,3.936548E1,0E0,0E0,2.3520798E2,0E0,0E0,0E0,7.856113E2,1.0761401E3,2.9732672E2,0E0,0E0,0E0,0E0,0E0,6.991543E2,0E0,1.8325424E2,0E0,0E0,2.9041443E2,0E0,0E0,0E0,0E0,0E0,0E0],"parents":[2147483647,0,0,1,1,2,2,3,3,4,4,5,5,6,6,7,7,8,8,10,10,11,11,12,12,13,13,14,14,15,15,16,16,17,17,23,23,24,24,27,27,29,29,30,30,31,31,36,36,38,38,41,41,45,45,46,46,47,47,53,53,55,55,58,58],"right_children":[2,4,6,8,10,12,14,16,18,-1,20,22,24,26,28,30,32,34,-1,-1,-1,-1,-1,36,38,-1,-1,40,-1,42,44,46,-1,-1,-1,-1,48,-1,50,-1,-1,52,-1,-1,-1,54,56,58,-1,-1,-1,-1,-1,60,-1,62,-1,-1,64,-1,-1,-1,-1,-1,-1],"split_conditions":[1E0,4.1E-1,1E0,1.197831E6,5.1E-1,4.5E1,4E-1,1.9E1,1E0,1.8469248E1,9E0,3.3E1,4.1E-1,1.2E1,6.4E-1,5E0,1E0,1.8E1,1.3565727E1,1.1091515E1,3.4944897E0,-4.2977524E0,-6.894761E0,4.6E1,5.7E-1,6.5774636E0,1.1748184E0,2E1,-3.6247253E-2,1.7E1,8E0,6E0,4.5179477E0,6.3512607E0,1.3509873E0,-2.142513E0,1E0,-4.8105187E0,4.6E1,-9.999797E-1,-3.8931043E0,1E0,1.458255E0,4.7254953E0,1.0733653E0,4E-1,4E-1,1.2E1,-5.462433E-1,-3.562828E-1,-2.583129E0,-8.90092E-1,4.4140625E-1,1E0,-7.0272064E-1,3.2E1,1.7159348E0,1.4479564E0,6.1E1,-6.0085053E0,-9.4464797E-1,-1.8328637E0,-2.1809387E-1,7.814331E-1,-9.1729736E-1],"split_indices":[18,1,4,12,1,2,1,0,3,0,22,20,1,21,1,22,4,0,0,0,0,0,0,2,1,0,0,2,0,21,22,22,0,0,0,0,7,0,2,0,0,3,0,0,0,1,1,21,0,0,0,0,0,7,0,2,0,0,2,0,0,0,0,0,0],"split_type":[0,0,0,0,0,0,0,0,0,0,0,0,0,0,0,0,0,0,0,0,0,0,0,0,0,0,0,0,0,0,0,0,0,0,0,0,0,0,0,0,0,0,0,0,0,0,0,0,0,0,0,0,0,0,0,0,0,0,0,0,0,0,0,0,0],"sum_hessian":[1.31E2,4.8E1,8.3E1,3.3E1,1.5E1,6.8E1,1.5E1,2.7E1,6E0,7E0,8E0,4E1,2.8E1,6E0,9E0,1.3E1,1.4E1,4E0,2E0,6E0,2E0,1.5E1,2.5E1,8E0,2E1,5E0,1E0,8E0,1E0,4E0,9E0,1.1E1,3E0,3E0,1E0,3E0,5E0,1.4E1,6E0,2E0,6E0,3E0,1E0,7E0,2E0,6E0,5E0,4E0,1E0,1E0,5E0,2E0,1E0,5E0,1E0,4E0,1E0,2E0,2E0,4E0,1E0,1E0,3E0,1E0,1E0],"tree_param":{"num_deleted":"0","num_feature":"24","num_nodes":"65","size_leaf_vector":"1"}},{"base_weights":[-7.754499E-1,6.57386E1,-3.813973E1,3.630944E1,1.3005458E2,-4.6969677E1,1.1955351E1,5.5990036E1,-2.3807766E0,1.5436446E2,8.297835E1,-3.474967E1,-5.3718292E1,5.4955E1,-2.1163807E1,3.2693558E1,9.204718E1,-2.2760014E1,6.4676943E0,1.6567617E1,3.5091217E0,9.560055E0,3.2615235E0,-4.576557E0,-2.4635522E0,-3.3794876E1,-6.0179133E0,6.048169E0,1.1160783E0,-2.3374538E1,-3.443451E-2,5.9022627E0,2.3718117E1,2.0721E0,1.1153574E2,-4.24618E1,-1.7151896E0,-4.426328E0,-2.1094215E1,-2.5522883E0,-2.7422333E-1,7.6961184E0,2.9428324E1,1.2323842E1,2.401117E0,-1.4846019E0,-5.4256988E0,-9.578778E0,1.6301377E0,3.9622497E-2,-2.4935167E0,-8.3075154E-1,2.2801046E0,3.2828672E0,1.0018077E0,-1.257061E1,-0E0,-1.7412201E0,-3.4860128E-1],"categories":[],"categories_nodes":[],"categories_segments":[],"categories_sizes":[],"default_left":[0,0,0,0,0,0,0,0,0,0,0,0,0,0,0,0,0,0,0,0,0,0,0,0,0,0,0,0,0,0,0,0,0,0,0,0,0,0,0,0,0,0,0,0,0,0,0,0,0,0,0,0,0,0,0,0,0,0,0],"id":13,"left_children":[1,3,5,7,9,11,13,15,17,19,21,23,25,27,29,31,33,35,-1,-1,-1,-1,-1,-1,-1,37,-1,-1,-1,39,-1,-1,41,-1,43,45,47,-1,49,-1,-1,51,53,-1,-1,-1,-1,55,-1,-1,-1,-1,-1,-1,-1,57,-1,-1,-1],"loss_changes":[3.1799594E5,8.151319E4,3.7008234E4,2.5529082E4,2.0262031E3,3.4637344E3,1.9845473E4,1.4847047E4,1.7661486E4,3.9758594E3,6.907422E2,1.6401992E3,3.0314219E3,4.1898633E2,2.415664E2,1.7311172E3,8.1479375E3,3.8524912E3,0E0,0E0,0E0,0E0,0E0,0E0,0E0,4.679375E2,0E0,0E0,0E0,9.896167E1,0E0,0E0,7.7725E2,0E0,2.450289E3,4.7765137E2,9.7258344E2,0E0,7.9292505E2,0E0,0E0,1.4705564E3,5.0899902E1,0E0,0E0,0E0,0E0,1.7331598E2,0E0,0E0,0E0,0E0,0E0,0E0,0E0,1.0745422E1,0E0,0E0,0E0],"parents":[2147483647,0,0,1,1,2,2,3,3,4,4,5,5,6,6,7,7,8,8,9,9,10,10,11,11,12,12,13,13,14,14,15,15,16,16,17,17,25,25,29,29,32,32,34,34,35,35,36,36,38,38,41,41,42,42,47,47,55,55],"right_children":[2,4,6,8,10,12,14,16,18,20,22,24,26,28,30,32,34,36,-1,-1,-1,-1,-1,-1,-1,38,-1,-1,-1,40,-1,-1,42,-1,44,46,48,-1,50,-1,-1,52,54,-1,-1,-1,-1,56,-1,-1,-1,-1,-1,-1,-1,58,-1,-1,-1],"split_conditions":[1E0,4.1E-1,1E0,3.3E1,5.1E-1,3.3E1,4E-1,1E0,1E0,1.1E1,9E0,6E0,4.1E-1,1.2E1,6.4E-1,2.7E1,6E0,6E0,6.4676943E0,1.6567617E1,3.5091217E0,9.560055E0,3.2615235E0,-4.576557E0,-2.4635522E0,3.8E1,-6.0179133E0,6.048169E0,1.1160783E0,5.7E1,-3.443451E-2,5.9022627E0,5E0,2.0721E0,9E0,3.5E-1,4E-1,-4.426328E0,2.7E1,-2.5522883E0,-2.7422333E-1,1.7E1,1.6E1,1.2323842E1,2.401117E0,-1.4846019E0,-5.4256988E0,1E0,1.6301377E0,3.9622497E-2,-2.4935167E0,-8.3075154E-1,2.2801046E0,3.2828672E0,1.0018077E0,3.2E1,-0E0,-1.7412201E0,-3.4860128E-1],"split_indices":[18,1,4,20,1,20,1,3,4,22,22,22,1,21,1,2,22,22,0,0,0,0,0,0,0,0,0,0,0,2,0,0,22,0,22,1,1,0,2,0,0,21,21,0,0,0,0,3,0,0,0,0,0,0,0,2,0,0,0],"split_type":[0,0,0,0,0,0,0,0,0,0,0,0,0,0,0,0,0,0,0,0,0,0,0,0,0,0,0,0,0,0,0,0,0,0,0,0,0,0,0,0,0,0,0,0,0,0,0,0,0,0,0,0,0,0,0,0,0,0,0],"sum_hessian":[1.26E2,4.5E1,8.1E1,3.2E1,1.3E1,6.9E1,1.2E1,2.1E1,1.1E1,7E0,6E0,2.7E1,4.2E1,5E0,7E0,1.4E1,7E0,9E0,2E0,6E0,1E0,4E0,2E0,1.1E1,1.6E1,1.2E1,3E1,4E0,1E0,6E0,1E0,2E0,1.2E1,2E0,5E0,4E0,5E0,5E0,7E0,5E0,1E0,4E0,8E0,4E0,1E0,2E0,2E0,4E0,1E0,1E0,6E0,2E0,2E0,6E0,2E0,3E0,1E0,1E0,2E0],"tree_param":{"num_deleted":"0","num_feature":"24","num_nodes":"59","size_leaf_vector":"1"}},{"base_weights":[2.3195877E0,5.6528896E1,-3.378686E1,8.301097E1,-5.697438E0,-4.175792E1,3.736323E0,5.718202E1,1.3379187E2,-3.4642742E1,5.2309414E1,-4.7801754E1,-2.087594E1,4.740355E1,-2.2337645E1,3.2417812E1,7.449886E1,1.3943901E2,3.333667E0,-3.9299633E1,-5.9055276E0,5.9438186E0,5.832779E-1,-4.904106E1,-9.9591476E-1,-2.8038265E1,8.161179E0,5.1643166E1,1.0602738E0,-2.5938993E1,-3.6215007E-1,3.701023E1,1.1582314E1,8.087826E1,3.5485961E0,7.9700317E0,1.6147535E1,-4.223004E1,-3.9629897E-1,-0E0,-1.0052567E0,-1.4789745E0,-5.007751E0,-3.0160165E0,-0E0,1.5176605E0,-3.9425507E-1,1.1651977E0,5.7477965E0,-7.6316124E-1,-2.9936187E0,5.343432E0,2.1623576E0,2.1410725E0,1.7453018E0,9.092097E0,3.6812592E0,-5.936638E0,-2.2934141E1,-7.00177E-1,1.2713379E0,-1.0198826E1,-3.060318E0,5.636818E-1,-1.902298E0],"categories":[],"categories_nodes":[],"categories_segments":[],"categories_sizes":[],"default_left":[0,0,0,0,0,0,0,0,0,0,0,0,0,0,0,0,0,0,0,0,0,0,0,0,0,0,0,0,0,0,0,0,0,0,0,0,0,0,0,0,0,0,0,0,0,0,0,0,0,0,0,0,0,0,0,0,0,0,0,0,0,0,0,0,0],"id":14,"left_children":[1,3,5,7,9,11,13,15,17,19,21,23,25,27,29,31,33,35,-1,37,39,-1,-1,41,-1,43,45,47,-1,49,-1,51,53,55,-1,-1,-1,57,-1,-1,-1,-1,-1,-1,-1,-1,-1,-1,-1,-1,-1,-1,-1,59,-1,-1,-1,-1,61,-1,-1,63,-1,-1,-1],"loss_changes":[2.6430256E5,8.984516E4,2.4573188E4,4.123611E4,3.0267252E4,7.114586E3,1.826288E4,8.628953E3,1.2950938E3,1.1478018E3,1.3148828E3,1.6084219E3,3.8637559E3,7.733789E1,4.3229248E2,5.7228125E2,2.813125E2,4.05125E2,0E0,6.371846E2,9.7482414E1,0E0,0E0,6.7452344E2,0E0,8.192412E2,4.556561E2,1.5132227E2,0E0,1.69125E2,0E0,9.963877E2,8.6368286E1,1.3247578E3,0E0,0E0,0E0,1.2029297E3,0E0,0E0,0E0,0E0,0E0,0E0,0E0,0E0,0E0,0E0,0E0,0E0,0E0,0E0,0E0,4.07557E2,0E0,0E0,0E0,0E0,6.987915E1,0E0,0E0,7.331045E2,0E0,0E0,0E0],"parents":[2147483647,0,0,1,1,2,2,3,3,4,4,5,5,6,6,7,7,8,8,9,9,10,10,11,11,12,12,13,13,14,14,15,15,16,16,17,17,19,19,20,20,23,23,25,25,26,26,27,27,29,29,31,31,32,32,33,33,37,37,53,53,58,58,61,61],"right_children":[2,4,6,8,10,12,14,16,18,20,22,24,26,28,30,32,34,36,-1,38,40,-1,-1,42,-1,44,46,48,-1,50,-1,52,54,56,-1,-1,-1,58,-1,-1,-1,-1,-1,-1,-1,-1,-1,-1,-1,-1,-1,-1,-1,60,-1,-1,-1,-1,62,-1,-1,64,-1,-1,-1],"split_conditions":[1E0,3.3E1,1E0,1E0,1E0,4.6E1,4E-1,6E0,1.1E1,1E0,1E1,6.8E-1,1.2E1,1.2E1,5.4E1,1E0,9E0,3.6E1,3.333667E0,4E-1,3.6E1,5.9438186E0,5.832779E-1,2.1E1,-9.9591476E-1,1E0,1E0,3.8E1,1.0602738E0,2E1,-3.6215007E-1,3.6E1,3.2E1,1E0,3.5485961E0,7.9700317E0,1.6147535E1,6E0,-3.9629897E-1,-0E0,-1.0052567E0,-1.4789745E0,-5.007751E0,-3.0160165E0,-0E0,1.5176605E0,-3.9425507E-1,1.1651977E0,5.7477965E0,-7.6316124E-1,-2.9936187E0,5.343432E0,2.1623576E0,1.6E1,1.7453018E0,9.092097E0,3.6812592E0,-5.936638E0,9E0,-7.00177E-1,1.2713379E0,3.5E-1,-3.060318E0,5.636818E-1,-1.902298E0],"split_indices":[18,20,4,4,4,2,1,22,22,3,22,1,22,21,2,6,22,2,0,1,2,0,0,20,0,3,7,0,0,2,0,2,2,6,0,0,0,22,0,0,0,0,0,0,0,0,0,0,0,0,0,0,0,21,0,0,0,0,22,0,0,1,0,0,0],"split_type":[0,0,0,0,0,0,0,0,0,0,0,0,0,0,0,0,0,0,0,0,0,0,0,0,0,0,0,0,0,0,0,0,0,0,0,0,0,0,0,0,0,0,0,0,0,0,0,0,0,0,0,0,0,0,0,0,0,0,0,0,0,0,0,0,0],"sum_hessian":[1.33E2,5.3E1,8E1,3.7E1,1.6E1,6.6E1,1.4E1,2.6E1,1.1E1,1.1E1,5E0,5E1,1.6E1,5E0,9E0,1.2E1,1.4E1,1E1,1E0,9E0,2E0,4E0,1E0,4.8E1,2E0,1.3E1,3E0,4E0,1E0,7E0,2E0,9E0,3E0,1.1E1,3E0,4E0,6E0,8E0,1E0,1E0,1E0,2E0,4.6E1,1.2E1,1E0,2E0,1E0,1E0,3E0,2E0,5E0,3E0,6E0,2E0,1E0,8E0,3E0,3E0,5E0,1E0,1E0,3E0,2E0,1E0,2E0],"tree_param":{"num_deleted":"0","num_feature":"24","num_nodes":"65","size_leaf_vector":"1"}},{"base_weights":[-1.6502426E0,4.506725E1,-3.039653E1,7.223567E1,-8.476843E0,-3.85892E1,6.0095882E0,3.5092182E1,9.623151E1,-2.3748371E1,3.49788E1,-3.988398E1,1.0923767E0,4.8155884E1,-2.3593777E1,3.978083E1,1.1003197E1,6.7043846E1,1.2390044E1,-3.4055477E1,9.28326E0,3.9702935E0,5.541138E-1,-4.116037E1,-1.9426676E1,1.0098114E0,-5.959549E-1,5.1991E0,1.0072602E0,-3.268564E1,-1.1251597E1,5.5893984E0,2.7643783E0,1.9506836E0,1.6580368E0,7.344516E1,2.1691508E0,-4.87511E1,-1.7979248E1,-3.7648392E-1,1.655424E0,-2.9281693E1,-4.4288597E1,-1.6549607E-1,-2.1650028E0,-5.0111544E-1,-3.7101471E0,-1.2443494E0,-1.4605713E-2,-6.6516876E-1,1.2077713E0,1.0264895E1,4.555083E1,-5.49139E0,-9.549942E-1,-2.137388E1,-0E0,-4.2266636E1,-1.0388416E1,-3.40742E0,-4.9459488E1,2.5067182E0,6.2839966E0,-9.388596E0,-2.8562968E0,-1.4083928E1,-4.7592564E1,-1.5494871E1,1.0178384E0,-5.2183933E0,-2.5490239E0,5.354981E-1,-1.7754782E0,2.3140259E-1,-2.593992E0,-7.6028216E-1,-5.2157054E0,2.8802872E-1,-1.987078E0],"categories":[],"categories_nodes":[],"categories_segments":[],"categories_sizes":[],"default_left":[0,0,0,0,0,0,0,0,0,0,0,0,0,0,0,0,0,0,0,0,0,0,0,0,0,0,0,0,0,0,0,0,0,0,0,0,0,0,0,0,0,0,0,0,0,0,0,0,0,0,0,0,0,0,0,0,0,0,0,0,0,0,0,0,0,0,0,0,0,0,0,0,0,0,0,0,0,0,0],"id":15,"left_children":[1,3,5,7,9,11,13,15,17,19,21,23,25,27,29,31,33,35,-1,37,39,-1,-1,41,43,-1,-1,-1,-1,45,47,-1,-1,49,-1,51,-1,53,55,-1,-1,57,59,-1,-1,-1,-1,-1,-1,-1,-1,-1,61,-1,-1,63,-1,65,67,-1,69,-1,-1,71,-1,73,75,77,-1,-1,-1,-1,-1,-1,-1,-1,-1,-1,-1],"loss_changes":[1.7990947E5,7.512127E4,2.5150648E4,2.6270234E4,1.2719951E4,3.7312969E3,2.1221744E4,1.00253516E3,6.8903594E3,5.2064546E3,2.4911719E2,6.208047E2,2.713964E2,1.8837305E2,5.346826E2,3.8398242E2,7.6951385E1,1.414957E3,0E0,1.3885918E3,5.0576093E2,0E0,0E0,6.0202344E2,8.472168E1,0E0,0E0,0E0,0E0,2.1454492E2,1.4654724E1,0E0,0E0,3.688167E2,0E0,2.7294648E3,0E0,3.612002E2,4.7828296E2,0E0,0E0,3.2228906E3,3.2664844E2,0E0,0E0,0E0,0E0,0E0,0E0,0E0,0E0,0E0,4.642539E2,0E0,0E0,5.905591E1,0E0,3.7221875E2,1.0244825E3,0E0,1.0992969E2,0E0,0E0,6.5046545E2,0E0,7.6139716E2,5.823887E2,7.050421E2,0E0,0E0,0E0,0E0,0E0,0E0,0E0,0E0,0E0,0E0,0E0],"parents":[2147483647,0,0,1,1,2,2,3,3,4,4,5,5,6,6,7,7,8,8,9,9,10,10,11,11,12,12,13,13,14,14,15,15,16,16,17,17,19,19,20,20,23,23,24,24,29,29,30,30,33,33,35,35,37,37,38,38,41,41,42,42,52,52,55,55,57,57,58,58,60,60,63,63,65,65,66,66,67,67],"right_children":[2,4,6,8,10,12,14,16,18,20,22,24,26,28,30,32,34,36,-1,38,40,-1,-1,42,44,-1,-1,-1,-1,46,48,-1,-1,50,-1,52,-1,54,56,-1,-1,58,60,-1,-1,-1,-1,-1,-1,-1,-1,-1,62,-1,-1,64,-1,66,68,-1,70,-1,-1,72,-1,74,76,78,-1,-1,-1,-1,-1,-1,-1,-1,-1,-1,-1],"split_conditions":[1E0,1.9E1,1E0,6E0,1E0,6.2E1,4E-1,1E0,4.1E-1,4E-1,1E1,6.8E-1,1.2E1,1.2E1,5E-1,3.6E1,3.2E1,9E0,1.2390044E1,6E0,5E0,3.9702935E0,5.541138E-1,4.2E-1,6.9E-1,1.0098114E0,-5.959549E-1,5.1991E0,1.0072602E0,4.7E1,6.4E-1,5.5893984E0,2.7643783E0,1.6E1,1.6580368E0,3.5E-1,2.1691508E0,1E0,1E0,-3.7648392E-1,1.655424E0,3.8E1,1.9E1,-1.6549607E-1,-2.1650028E0,-5.0111544E-1,-3.7101471E0,-1.2443494E0,-1.4605713E-2,-6.6516876E-1,1.2077713E0,1.0264895E1,1E0,-5.49139E0,-9.549942E-1,9E0,-0E0,2.3E1,4E-1,-3.40742E0,5.3E-1,2.5067182E0,6.2839966E0,3.5E-1,-2.8562968E0,9E0,1.8E1,2.7E1,1.0178384E0,-5.2183933E0,-2.5490239E0,5.354981E-1,-1.7754782E0,2.3140259E-1,-2.593992E0,-7.6028216E-1,-5.2157054E0,2.8802872E-1,-1.987078E0],"split_indices":[18,0,4,22,4,2,1,6,1,1,22,1,21,21,1,2,2,22,0,22,22,0,0,1,1,0,0,0,0,2,1,0,0,21,0,1,0,3,3,0,0,0,0,0,0,0,0,0,0,0,0,0,3,0,0,22,0,2,1,0,1,0,0,1,0,21,0,2,0,0,0,0,0,0,0,0,0,0,0],"split_type":[0,0,0,0,0,0,0,0,0,0,0,0,0,0,0,0,0,0,0,0,0,0,0,0,0,0,0,0,0,0,0,0,0,0,0,0,0,0,0,0,0,0,0,0,0,0,0,0,0,0,0,0,0,0,0,0,0,0,0,0,0,0,0,0,0,0,0,0,0,0,0,0,0,0,0,0,0,0,0],"sum_hessian":[1.32E2,5E1,8.2E1,3.3E1,1.7E1,6.7E1,1.5E1,1.4E1,1.9E1,1.3E1,4E0,6.5E1,2E0,6E0,9E0,1.1E1,3E0,1.1E1,8E0,1E1,3E0,3E0,1E0,6E1,5E0,1E0,1E0,5E0,1E0,4E0,5E0,3E0,8E0,2E0,1E0,9E0,2E0,4E0,6E0,1E0,2E0,1.5E1,4.5E1,1E0,4E0,1E0,3E0,4E0,1E0,1E0,1E0,3E0,6E0,3E0,1E0,5E0,1E0,8E0,7E0,1.8E1,2.7E1,4E0,2E0,3E0,2E0,2E0,6E0,6E0,1E0,2.3E1,4E0,1E0,2E0,1E0,1E0,1E0,5E0,1E0,5E0],"tree_param":{"num_deleted":"0","num_feature":"24","num_nodes":"79","size_leaf_vector":"1"}},{"base_weights":[1.399495E0,4.929781E1,-3.069542E1,6.766458E1,-3.7189853E0,-3.595265E1,-0E0,5.3557697E1,1.0130809E2,-1.9441925E1,3.9198845E1,-3.7611824E1,-0E0,5.5413446E0,-2.4175941E1,3.4076297E0,6.694406E1,1.0634791E1,2.5474823E0,-2.4857468E1,1.4856751E0,4.708907E0,5.264084E-1,-2.8641658E0,-4.2391888E1,9.5932007E-1,-8.0584824E-1,-3.2023342E0,-1.049335E1,4.7192616E1,9.995873E1,-2.7884804E1,-0E0,-2.4148214E1,-4.7048607E1,-1.1797314E0,-1.3874817E-2,1.734568E0,5.4658737E1,1.1372255E1,1.9951737E0,-2.9851253E0,-3.576599E-1,-1.0502095E1,-4.074187E1,-5.2068195E0,-2.9553053E0,5.773283E0,1.2533005E0,-1.7450135E0,-1.9929865E1,-4.8638415E0,-6.0261154E-1,4.9564004E-1,-9.531423E-1,-2.4642923E0,-2.751877E-1],"categories":[],"categories_nodes":[],"categories_segments":[],"categories_sizes":[],"default_left":[0,0,0,0,0,0,0,0,0,0,0,0,0,0,0,0,0,0,0,0,0,0,0,0,0,0,0,0,0,0,0,0,0,0,0,0,0,0,0,0,0,0,0,0,0,0,0,0,0,0,0,0,0,0,0,0,0],"id":16,"left_children":[1,3,5,7,9,11,13,15,17,19,21,23,25,-1,27,-1,29,-1,-1,31,-1,-1,-1,-1,33,-1,-1,-1,35,37,39,41,-1,43,45,-1,-1,-1,47,-1,-1,-1,-1,49,51,-1,-1,-1,-1,53,55,-1,-1,-1,-1,-1,-1],"loss_changes":[1.9530506E5,5.0232477E4,1.241068E4,1.1834844E4,1.0110438E4,3.6897188E3,1.7542885E4,4.776461E3,4.5354688E2,2.4625103E3,5.613657E2,1.0890938E3,3.788764E2,0E0,4.1773926E2,0E0,4.980328E3,0E0,0E0,8.1912305E2,0E0,0E0,0E0,0E0,1.7361953E3,0E0,0E0,0E0,6.192932E0,1.3659766E3,2.5686758E3,1.5630273E2,0E0,1.5802954E3,5.9991406E2,0E0,0E0,0E0,9.058984E1,0E0,0E0,0E0,0E0,4.34766E2,5.3011523E2,0E0,0E0,0E0,0E0,3.3101642E2,3.8094116E1,0E0,0E0,0E0,0E0,0E0,0E0],"parents":[2147483647,0,0,1,1,2,2,3,3,4,4,5,5,6,6,7,7,8,8,9,9,10,10,11,11,12,12,14,14,16,16,19,19,24,24,28,28,29,29,30,30,31,31,33,33,34,34,38,38,43,43,44,44,49,49,50,50],"right_children":[2,4,6,8,10,12,14,16,18,20,22,24,26,-1,28,-1,30,-1,-1,32,-1,-1,-1,-1,34,-1,-1,-1,36,38,40,42,-1,44,46,-1,-1,-1,48,-1,-1,-1,-1,50,52,-1,-1,-1,-1,54,56,-1,-1,-1,-1,-1,-1],"split_conditions":[1E0,3.3E1,1E0,1E0,1E0,6.2E1,4E-1,6E0,1.1E1,5.1E1,1E1,1.9E1,1.2E1,5.5413446E0,5.1E-1,3.4076297E0,1E0,1.0634791E1,2.5474823E0,1E0,1.4856751E0,4.708907E0,5.264084E-1,-2.8641658E0,4E-1,9.5932007E-1,-8.0584824E-1,-3.2023342E0,6.4E-1,4.1E1,9E0,4E-1,-0E0,1E0,5.1E-1,-1.1797314E0,-1.3874817E-2,1.734568E0,9E0,1.1372255E1,1.9951737E0,-2.9851253E0,-3.576599E-1,4E0,3.2E1,-5.2068195E0,-2.9553053E0,5.773283E0,1.2533005E0,3.5E-1,3.8E1,-4.8638415E0,-6.0261154E-1,4.9564004E-1,-9.531423E-1,-2.4642923E0,-2.751877E-1],"split_indices":[18,20,4,4,4,2,1,22,22,2,22,0,21,0,1,0,3,0,0,3,0,0,0,0,1,0,0,0,1,2,22,1,0,6,1,0,0,0,22,0,0,0,0,22,2,0,0,0,0,1,0,0,0,0,0,0,0],"split_type":[0,0,0,0,0,0,0,0,0,0,0,0,0,0,0,0,0,0,0,0,0,0,0,0,0,0,0,0,0,0,0,0,0,0,0,0,0,0,0,0,0,0,0,0,0,0,0,0,0,0,0,0,0,0,0,0,0],"sum_hessian":[1.25E2,5E1,7.5E1,3.7E1,1.3E1,6.4E1,1.1E1,2.8E1,9E0,1E1,3E0,6.1E1,3E0,3E0,8E0,1.3E1,1.5E1,8E0,1E0,9E0,1E0,2E0,1E0,2.4E1,3.7E1,1E0,2E0,4E0,4E0,1.1E1,4E0,8E0,1E0,9E0,2.8E1,3E0,1E0,3E0,8E0,3E0,1E0,7E0,1E0,6E0,3E0,2E1,8E0,7E0,1E0,4E0,2E0,2E0,1E0,2E0,2E0,1E0,1E0],"tree_param":{"num_deleted":"0","num_feature":"24","num_nodes":"57","size_leaf_vector":"1"}},{"base_weights":[2.9572392E0,4.627202E1,-2.4630398E1,6.3251804E1,-7.8421116E0,-2.07528E0,-3.1539774E1,4.3035336E1,9.592155E1,-4.4912506E1,7.2702575E0,-1.7463175E1,3.5907E1,-2.2581848E1,-4.1112266E0,7.27736E1,3.2251293E1,3.1414247E0,1.0363824E2,-5.216838E0,-9.0724486E-1,-2.7355173E0,2.42128E0,-4.2124844E0,-5.159945E0,5.699158E-1,3.980874E1,-3.1241434E1,-1.62111E1,8.02929E0,1.5088532E0,1.00238905E1,3.8258362E0,1.0820516E1,2.420108E0,-8.729405E0,1.4113907E0,-1.4706822E1,1.2420954E1,4.511178E0,6.798294E-1,-9.242325E-2,-3.327418E0,-1.8801077E1,-0E0,1.554704E1,-6.295929E-1,-9.083252E-1,-1.4581045E0,-3.7704647E0,-3.0010598E0,1.8083336E0,-2.6142883E-1,-1.3357111E0,-2.7536814E1,2.1375835E-1,-2.9182434E-1,2.4747E0,-0E0,-1.2090721E0,5.182714E0,4.6259767E-1,-1.0375179E0,-3.1077356E0,-2.4170533E-1,-8.0229187E-1,9.7700197E-1,-0E0,6.579796E-1],"categories":[],"categories_nodes":[],"categories_segments":[],"categories_sizes":[],"default_left":[0,0,0,0,0,0,0,0,0,0,0,0,0,0,0,0,0,0,0,0,0,0,0,0,0,0,0,0,0,0,0,0,0,0,0,0,0,0,0,0,0,0,0,0,0,0,0,0,0,0,0,0,0,0,0,0,0,0,0,0,0,0,0,0,0,0,0,0,0],"id":17,"left_children":[1,3,5,7,9,11,13,15,17,19,21,23,25,27,-1,29,31,-1,33,-1,-1,35,-1,37,-1,-1,39,41,43,-1,-1,45,-1,-1,-1,47,-1,49,51,-1,-1,-1,-1,53,55,57,-1,59,-1,61,-1,-1,-1,-1,63,-1,-1,-1,65,-1,67,-1,-1,-1,-1,-1,-1,-1,-1],"loss_changes":[1.565917E5,4.7634234E4,1.22338125E4,2.0935406E4,7.797616E3,1.2224179E4,3.983871E3,5.465996E3,3.0379922E3,2.607046E2,1.8688535E3,6.288517E3,2.527627E2,1.1319941E3,0E0,9.1410156E2,2.179045E3,0E0,1.0726719E3,0E0,0E0,8.0323846E2,0E0,2.2887852E3,0E0,0E0,3.0904492E2,5.994082E2,9.3453467E2,0E0,0E0,6.849595E2,0E0,0E0,0E0,1.8390573E2,0E0,1.0568813E3,5.502969E2,0E0,0E0,0E0,0E0,3.3130176E2,3.0740078E1,6.286896E2,0E0,3.696524E2,0E0,4.0947794E2,0E0,0E0,0E0,0E0,2.910376E2,0E0,0E0,0E0,3.1964102E2,0E0,6.0058594E0,0E0,0E0,0E0,0E0,0E0,0E0,0E0,0E0],"parents":[2147483647,0,0,1,1,2,2,3,3,4,4,5,5,6,6,7,7,8,8,9,9,10,10,11,11,12,12,13,13,15,15,16,16,18,18,21,21,23,23,26,26,27,27,28,28,31,31,35,35,37,37,38,38,43,43,44,44,45,45,47,47,49,49,54,54,58,58,60,60],"right_children":[2,4,6,8,10,12,14,16,18,20,22,24,26,28,-1,30,32,-1,34,-1,-1,36,-1,38,-1,-1,40,42,44,-1,-1,46,-1,-1,-1,48,-1,50,52,-1,-1,-1,-1,54,56,58,-1,60,-1,62,-1,-1,-1,-1,64,-1,-1,-1,66,-1,68,-1,-1,-1,-1,-1,-1,-1,-1],"split_conditions":[1E0,3.3E1,4.1E-1,4.1E-1,6E0,1E0,3.3E1,1.8E1,4.1E1,1E0,1E0,1E0,3.8E1,6E0,-4.1112266E0,4E-1,5E0,3.1414247E0,1.1E1,-5.216838E0,-9.0724486E-1,4E-1,2.42128E0,4.6E1,-5.159945E0,5.699158E-1,1.2E1,1.9E1,1E0,8.02929E0,1.5088532E0,4.6E1,3.8258362E0,1.0820516E1,2.420108E0,3.5E-1,1.4113907E0,4E0,1E0,4.511178E0,6.798294E-1,-9.242325E-2,-3.327418E0,9E0,5.2E-1,1E0,-6.295929E-1,3.2E1,-1.4581045E0,2.7E1,-3.0010598E0,1.8083336E0,-2.6142883E-1,-1.3357111E0,5.3E1,2.1375835E-1,-2.9182434E-1,2.4747E0,1.6E1,-1.2090721E0,3.6E1,4.6259767E-1,-1.0375179E0,-3.1077356E0,-2.4170533E-1,-8.0229187E-1,9.7700197E-1,-0E0,6.579796E-1],"split_indices":[18,20,1,1,22,4,20,0,2,3,4,6,0,22,0,1,22,0,22,0,0,1,0,2,0,0,21,2,3,0,0,2,0,0,0,1,0,22,7,0,0,0,0,22,1,6,0,2,0,2,0,0,0,0,2,0,0,0,21,0,2,0,0,0,0,0,0,0,0],"split_type":[0,0,0,0,0,0,0,0,0,0,0,0,0,0,0,0,0,0,0,0,0,0,0,0,0,0,0,0,0,0,0,0,0,0,0,0,0,0,0,0,0,0,0,0,0,0,0,0,0,0,0,0,0,0,0,0,0,0,0,0,0,0,0,0,0,0,0,0,0],"sum_hessian":[1.29E2,5E1,7.9E1,3.8E1,1.2E1,1.9E1,6E1,2.5E1,1.3E1,3E0,9E0,1.4E1,5E0,3.3E1,2.7E1,5E0,2E1,2E0,1.1E1,2E0,1E0,6E0,3E0,1.1E1,3E0,1E0,4E0,1.2E1,2.1E1,4E0,1E0,5E0,1.5E1,1E1,1E0,5E0,1E0,7E0,4E0,3E0,1E0,1E0,1.1E1,1.8E1,3E0,4E0,1E0,3E0,2E0,5E0,2E0,3E0,1E0,1.3E1,5E0,2E0,1E0,2E0,2E0,1E0,2E0,2E0,3E0,4E0,1E0,1E0,1E0,1E0,1E0],"tree_param":{"num_deleted":"0","num_feature":"24","num_nodes":"69","size_leaf_vector":"1"}},{"base_weights":[1.5675648E0,3.9598896E1,-2.2805235E1,5.8384468E1,-2.2175481E0,1.1736531E0,-2.7907892E1,4.190466E1,9.6541504E1,-1.813762E1,3.8618153E1,-1.7151007E1,4.2253175E0,-3.0197716E1,-9.240396E0,3.0312483E1,6.502202E1,6.329639E0,1.2933509E1,-3.0528055E1,-2.441814E0,4.5127563E0,3.7902528E-1,-5.8129654E0,-3.4289337E1,-2.15661E1,-3.6650453E0,6.707638E0,-1.9165686E1,2.2365383E1,4.429482E1,1.7750328E1,8.883498E1,-3.5310444E1,-0E0,-8.151523E0,1.3408219E0,-9.8937025E0,8.876099E-1,-4.195589E0,-3.1448364E-1,-2.326233E1,-4.323143E0,1.1368706E0,-0E0,-7.477054E-1,-3.6304421E0,1.0629837E1,3.7363728E1,4.8692665E0,8.6528015E-1,-0E0,2.3498588E0,1.0127311E1,1.7041229E0,-4.1056797E1,-7.893448E-2,-7.705498E-1,-1.3608979E0,-3.405904E0,-2.1910248E0,-8.780213E-2,-2.395009E0,-0E0,-9.484474E-1,8.209381E-1,-6.1628115E-1,-2.1606903E0,1.7134447E1,4.262088E1,3.0389863E-1,-4.576158E0,-8.618828E-1,-1.1486183E0,4.963389E-1,4.317576E-1,-9.5970386E-1,-1.0735271E0,9.281525E-1,4.268715E-1,2.446657E0,4.9458017E0,5.13617E-1],"categories":[],"categories_nodes":[],"categories_segments":[],"categories_sizes":[],"default_left":[0,0,0,0,0,0,0,0,0,0,0,0,0,0,0,0,0,0,0,0,0,0,0,0,0,0,0,0,0,0,0,0,0,0,0,0,0,0,0,0,0,0,0,0,0,0,0,0,0,0,0,0,0,0,0,0,0,0,0,0,0,0,0,0,0,0,0,0,0,0,0,0,0,0,0,0,0,0,0,0,0,0,0],"id":18,"left_children":[1,3,5,7,9,11,13,15,17,19,21,23,-1,25,27,29,31,-1,-1,33,35,-1,-1,37,39,41,-1,43,45,47,49,51,53,55,-1,57,-1,59,-1,-1,-1,61,63,-1,65,-1,-1,67,69,-1,-1,-1,-1,-1,-1,71,-1,73,-1,75,-1,-1,-1,-1,-1,-1,-1,77,79,81,-1,-1,-1,-1,-1,-1,-1,-1,-1,-1,-1,-1,-1],"loss_changes":[1.2334178E5,4.1258695E4,1.0077266E4,1.7899766E4,1.1649863E4,1.2141719E4,2.3877031E3,4.787824E3,1.7526719E3,2.2888193E3,7.1791113E2,1.7376321E3,0E0,2.204668E3,1.6154465E3,8.984082E2,6.8956523E3,0E0,0E0,9.5723047E2,7.165073E2,0E0,0E0,5.724432E2,5.9763574E2,5.804502E2,0E0,7.8525314E1,7.116128E2,2.0030693E3,2.3243262E2,3.9625403E2,2.1475117E3,9.485835E2,0E0,1.5930399E2,0E0,3.4452155E2,0E0,0E0,0E0,2.3970703E2,1.05152245E2,0E0,2.1074835E2,0E0,0E0,9.43865E2,7.248779E2,0E0,0E0,0E0,0E0,0E0,0E0,9.675488E1,0E0,3.353955E2,0E0,3.5473584E2,0E0,0E0,0E0,0E0,0E0,0E0,0E0,4.9935718E2,4.122146E2,7.5444434E2,0E0,0E0,0E0,0E0,0E0,0E0,0E0,0E0,0E0,0E0,0E0,0E0,0E0],"parents":[2147483647,0,0,1,1,2,2,3,3,4,4,5,5,6,6,7,7,8,8,9,9,10,10,11,11,13,13,14,14,15,15,16,16,19,19,20,20,23,23,24,24,25,25,27,27,28,28,29,29,30,30,31,31,32,32,33,33,35,35,37,37,41,41,42,42,44,44,47,47,48,48,55,55,57,57,59,59,67,67,68,68,69,69],"right_children":[2,4,6,8,10,12,14,16,18,20,22,24,-1,26,28,30,32,-1,-1,34,36,-1,-1,38,40,42,-1,44,46,48,50,52,54,56,-1,58,-1,60,-1,-1,-1,62,64,-1,66,-1,-1,68,70,-1,-1,-1,-1,-1,-1,72,-1,74,-1,76,-1,-1,-1,-1,-1,-1,-1,78,80,82,-1,-1,-1,-1,-1,-1,-1,-1,-1,-1,-1,-1,-1],"split_conditions":[1E0,3.3E1,4E-1,1E0,1E0,1E0,5.7E1,1E0,5.1E1,6E0,1E1,1E0,4.2253175E0,3.3E1,4.1E-1,4.1E-1,7E0,6.329639E0,1.2933509E1,1E0,4E-1,4.5127563E0,3.7902528E-1,4.6E1,3.2E1,5.3E1,-3.6650453E0,6.1E1,1.9E1,1E0,7E0,4.1E1,9E0,4E-1,-0E0,3.5E-1,1.3408219E0,4E0,8.876099E-1,-4.195589E0,-3.1448364E-1,1.9E1,6.5E-1,1.1368706E0,1.2E1,-7.477054E-1,-3.6304421E0,5E0,1.9E1,4.8692665E0,8.6528015E-1,-0E0,2.3498588E0,1.0127311E1,1.7041229E0,1E0,-7.893448E-2,3.2E1,-1.3608979E0,2.7E1,-2.1910248E0,-8.780213E-2,-2.395009E0,-0E0,-9.484474E-1,8.209381E-1,-6.1628115E-1,1.7E1,1E0,1.7E1,3.0389863E-1,-4.576158E0,-8.618828E-1,-1.1486183E0,4.963389E-1,4.317576E-1,-9.5970386E-1,-1.0735271E0,9.281525E-1,4.268715E-1,2.446657E0,4.9458017E0,5.13617E-1],"split_indices":[18,20,1,4,4,4,2,3,2,22,22,6,0,20,1,1,22,0,0,7,1,0,0,2,2,2,0,2,0,7,22,2,22,1,0,1,0,22,0,0,0,2,1,0,21,0,0,22,0,0,0,0,0,0,0,3,0,2,0,2,0,0,0,0,0,0,0,21,6,21,0,0,0,0,0,0,0,0,0,0,0,0,0],"split_type":[0,0,0,0,0,0,0,0,0,0,0,0,0,0,0,0,0,0,0,0,0,0,0,0,0,0,0,0,0,0,0,0,0,0,0,0,0,0,0,0,0,0,0,0,0,0,0,0,0,0,0,0,0,0,0,0,0,0,0,0,0,0,0,0,0,0,0,0,0,0,0,0,0,0,0,0,0,0,0,0,0,0,0],"sum_hessian":[1.31E2,5.1E1,8E1,3.5E1,1.6E1,1.4E1,6.6E1,2.6E1,9E0,1.2E1,4E0,1E1,4E0,5.8E1,8E0,1.9E1,7E0,6E0,3E0,6E0,6E0,3E0,1E0,7E0,3E0,2.7E1,3.1E1,3E0,5E0,1.4E1,5E0,3E0,4E0,5E0,1E0,5E0,1E0,6E0,1E0,2E0,1E0,2.4E1,3E0,1E0,2E0,4E0,1E0,9E0,5E0,4E0,1E0,1E0,2E0,3E0,1E0,4E0,1E0,3E0,2E0,5E0,1E0,1E0,2.3E1,2E0,1E0,1E0,1E0,3E0,6E0,4E0,1E0,3E0,1E0,1E0,2E0,2E0,3E0,2E0,1E0,3E0,3E0,3E0,1E0],"tree_param":{"num_deleted":"0","num_feature":"24","num_nodes":"83","size_leaf_vector":"1"}},{"base_weights":[3.6804605E0,4.2394836E1,-1.9430471E1,6.3787186E1,-1.0701045E1,-6.4574194E-1,-2.5065716E1,2.704228E1,7.837009E1,-2.387596E1,2.695523E1,-1.2523226E1,2.6342676E1,-1.80352E1,-3.1544346E1,4.5651817E0,1.3732227E1,8.8441444E1,4.200106E1,-3.1845713E0,6.325287E0,3.1873147E0,3.6007386E-1,-2.7515089E1,-5.816243E-1,2.8872926E0,4.3457183E-1,-8.641987E0,-2.3249756E1,-3.450015E1,-1.884784E0,1.9712409E0,1.5739441E0,9.5388084E1,2.2561097E0,5.108804E0,1.1189067E0,-7.498779E-2,1.2737808E0,-3.0764896E1,-3.133026E-1,-5.227127E0,3.1802032E0,-1.1429642E0,2.7934113E-1,-2.414788E1,-1.04177095E-1,-3.739375E1,-1.618316E1,-3.4610698E0,1.0839493E0,1.0217343E1,3.2522247E1,-1.1207606E1,-3.8400555E0,2.041275E-1,-8.8045466E-1,8.152592E0,-5.854675E-1,-2.5492475E0,-7.2607523E-1,-4.027898E0,-1.597571E0,-2.1836843E0,-3.4684247E-1,-0E0,-5.444382E-1,4.3396335E0,2.8870392E-1,1.5033264E-1,-2.0814736E0,1.4488378E0,-2.9273835E-1],"categories":[],"categories_nodes":[],"categories_segments":[],"categories_sizes":[],"default_left":[0,0,0,0,0,0,0,0,0,0,0,0,0,0,0,0,0,0,0,0,0,0,0,0,0,0,0,0,0,0,0,0,0,0,0,0,0,0,0,0,0,0,0,0,0,0,0,0,0,0,0,0,0,0,0,0,0,0,0,0,0,0,0,0,0,0,0,0,0,0,0,0,0],"id":19,"left_children":[1,3,5,7,9,11,13,15,17,19,21,23,25,27,29,-1,31,33,35,-1,37,-1,-1,39,41,-1,-1,43,45,47,-1,-1,49,51,-1,-1,-1,-1,-1,53,-1,55,57,-1,-1,59,-1,61,63,65,-1,-1,67,69,-1,-1,-1,71,-1,-1,-1,-1,-1,-1,-1,-1,-1,-1,-1,-1,-1,-1,-1],"loss_changes":[1.1009506E5,5.3196914E4,8.006207E3,1.5036594E4,7.5738403E3,6.351333E3,1.8705352E3,1.800812E3,4.0577344E3,2.9766968E3,1.672854E2,2.349889E3,4.2379883E1,1.158042E3,1.7132812E2,0E0,4.442119E2,5.038203E3,1.0769033E3,0E0,2.0560037E2,0E0,0E0,2.0954541E2,1.8413817E2,0E0,0E0,4.8952216E2,2.2785938E2,2.9301172E2,0E0,0E0,2.61017E2,2.4021094E3,0E0,0E0,0E0,0E0,0E0,6.824512E1,0E0,1.8179947E2,2.83845E2,0E0,0E0,5.9853516E1,0E0,1.875664E2,1.5715967E2,2.3345573E1,0E0,0E0,6.1006323E2,4.9419507E2,0E0,0E0,0E0,3.8101947E2,0E0,0E0,0E0,0E0,0E0,0E0,0E0,0E0,0E0,0E0,0E0,0E0,0E0,0E0,0E0],"parents":[2147483647,0,0,1,1,2,2,3,3,4,4,5,5,6,6,7,7,8,8,9,9,10,10,11,11,12,12,13,13,14,14,16,16,17,17,18,18,20,20,23,23,24,24,27,27,28,28,29,29,32,32,33,33,39,39,41,41,42,42,45,45,47,47,48,48,49,49,52,52,53,53,57,57],"right_children":[2,4,6,8,10,12,14,16,18,20,22,24,26,28,30,-1,32,34,36,-1,38,-1,-1,40,42,-1,-1,44,46,48,-1,-1,50,52,-1,-1,-1,-1,-1,54,-1,56,58,-1,-1,60,-1,62,64,66,-1,-1,68,70,-1,-1,-1,72,-1,-1,-1,-1,-1,-1,-1,-1,-1,-1,-1,-1,-1,-1,-1],"split_conditions":[1E0,3.3E1,4.1E-1,6E0,1E0,1E0,3.3E1,3.6E1,9E0,4E-1,7E0,3.8E1,1.2E1,1.6E1,5.1E-1,4.5651817E0,1.6E1,1E0,5.1E-1,-3.1845713E0,5.1E1,3.1873147E0,3.6007386E-1,2.8E1,4.6E1,2.8872926E0,4.3457183E-1,1E0,6E1,1E0,-1.884784E0,1.9712409E0,1.7E1,1E0,2.2561097E0,5.108804E0,1.1189067E0,-7.498779E-2,1.2737808E0,2.3E1,-3.133026E-1,2.7E1,6.1E1,-1.1429642E0,2.7934113E-1,1E0,-1.04177095E-1,1E0,4.9E-1,4.1E1,1.0839493E0,1.0217343E1,1.9E1,9E0,-3.8400555E0,2.041275E-1,-8.8045466E-1,1E0,-5.854675E-1,-2.5492475E0,-7.2607523E-1,-4.027898E0,-1.597571E0,-2.1836843E0,-3.4684247E-1,-0E0,-5.444382E-1,4.3396335E0,2.8870392E-1,1.5033264E-1,-2.0814736E0,1.4488378E0,-2.9273835E-1],"split_indices":[18,20,1,22,4,4,20,2,22,1,22,0,21,21,1,0,21,6,1,0,2,0,0,2,2,0,0,3,2,4,0,0,21,7,0,0,0,0,0,2,0,2,2,0,0,4,0,3,1,2,0,0,0,21,0,0,0,7,0,0,0,0,0,0,0,0,0,0,0,0,0,0,0],"split_type":[0,0,0,0,0,0,0,0,0,0,0,0,0,0,0,0,0,0,0,0,0,0,0,0,0,0,0,0,0,0,0,0,0,0,0,0,0,0,0,0,0,0,0,0,0,0,0,0,0,0,0,0,0,0,0,0,0,0,0,0,0,0,0,0,0,0,0,0,0,0,0,0,0],"sum_hessian":[1.21E2,4.5E1,7.6E1,3.2E1,1.3E1,1.8E1,5.8E1,1E1,2.2E1,1E1,3E0,1.3E1,5E0,3E1,2.8E1,3E0,7E0,1.6E1,6E0,8E0,2E0,2E0,1E0,5E0,8E0,4E0,1E0,1.2E1,1.8E1,2.1E1,7E0,4E0,3E0,1.4E1,2E0,4E0,2E0,1E0,1E0,4E0,1E0,4E0,4E0,1E1,2E0,1.7E1,1E0,1.7E1,4E0,2E0,1E0,1.2E1,2E0,2E0,2E0,1E0,3E0,3E0,1E0,1.5E1,2E0,1.4E1,3E0,2E0,2E0,1E0,1E0,1E0,1E0,1E0,1E0,2E0,1E0],"tree_param":{"num_deleted":"0","num_feature":"24","num_nodes":"73","size_leaf_vector":"1"}},{"base_weights":[3.274199E0,3.5960964E1,-1.99279E1,1.9088594E1,7.45273E1,-2.603836E-1,-2.5505651E1,5.683588E1,1.1718821E1,5.2545886E0,1.01572014E2,1.0942737E1,-4.345699E0,-2.7404005E1,-1.2963321E1,6.240997E0,1.1982727E0,4.6609235E0,3.7562008E1,2.2658143E0,1.1182316E1,-0E0,3.2471302E1,-2.9629185E1,-1.6366621E1,-1.6022967E0,-3.1181106E-1,1.9630058E1,-1.3736544E1,4.5492415E0,1.0157329E0,-7.05774E0,1.0237744E1,3.7274911E0,4.1284332E-1,-3.0844796E0,-9.727497E-1,-1.8535776E1,1.6246034E-2,3.1756975E1,8.67821E0,-1.830474E1,5.9256897E0,3.9115804E-1,-1.3227786E0,1.5437691E0,-2.7810213E-1,-2.4128642E0,-9.952426E0,3.5441482E0,2.3249665E-1,-0E0,1.7276508E1,-9.546907E0,-2.999422E0,-7.123871E-2,1.2100922E0,-8.6814374E-1,-1.3027531E0,-4.039093E-1,1.0297517E0,-0E0,2.1469247E0,-4.082984E-1,-2.1397188E0,1.2483139E-1,-5.05053E-1],"categories":[],"categories_nodes":[],"categories_segments":[],"categories_sizes":[],"default_left":[0,0,0,0,0,0,0,0,0,0,0,0,0,0,0,0,0,0,0,0,0,0,0,0,0,0,0,0,0,0,0,0,0,0,0,0,0,0,0,0,0,0,0,0,0,0,0,0,0,0,0,0,0,0,0,0,0,0,0,0,0,0,0,0,0,0,0],"id":20,"left_children":[1,3,5,7,9,11,13,15,17,-1,19,21,-1,23,25,-1,-1,27,29,-1,-1,31,33,35,37,-1,-1,39,41,-1,-1,43,45,-1,-1,-1,-1,47,-1,49,51,53,55,-1,-1,-1,-1,-1,57,-1,-1,59,61,63,-1,-1,-1,65,-1,-1,-1,-1,-1,-1,-1,-1,-1],"loss_changes":[9.863059E4,3.324739E4,8.201766E3,9.840546E3,3.403914E3,9.348971E3,8.476953E2,3.802871E2,5.8153613E3,0E0,1.6476367E3,3.4757744E3,0E0,5.1309375E2,1.5556177E2,0E0,0E0,8.010154E3,7.809824E2,0E0,0E0,8.727389E2,3.198369E2,4.648047E2,4.8927344E2,0E0,0E0,1.6472246E3,1.3380354E3,0E0,0E0,5.7209094E2,4.4470032E2,0E0,0E0,0E0,0E0,6.951123E1,0E0,4.8786426E2,7.3927515E2,6.4206226E2,1.8853818E2,0E0,0E0,0E0,0E0,0E0,8.682263E1,0E0,0E0,2.9364905E2,3.5132556E2,3.0322687E2,0E0,0E0,0E0,5.187125E1,0E0,0E0,0E0,0E0,0E0,0E0,0E0,0E0,0E0],"parents":[2147483647,0,0,1,1,2,2,3,3,4,4,5,5,6,6,7,7,8,8,10,10,11,11,13,13,14,14,17,17,18,18,21,21,22,22,23,23,24,24,27,27,28,28,31,31,32,32,37,37,39,39,40,40,41,41,42,42,48,48,51,51,52,52,53,53,57,57],"right_children":[2,4,6,8,10,12,14,16,18,-1,20,22,-1,24,26,-1,-1,28,30,-1,-1,32,34,36,38,-1,-1,40,42,-1,-1,44,46,-1,-1,-1,-1,48,-1,50,52,54,56,-1,-1,-1,-1,-1,58,-1,-1,60,62,64,-1,-1,-1,66,-1,-1,-1,-1,-1,-1,-1,-1,-1],"split_conditions":[1E0,4.1E-1,4.1E-1,1.8E1,5.7E1,1E0,6E-1,4E-1,1E0,5.2545886E0,6E0,1E0,-4.345699E0,1E0,5.7E1,6.240997E0,1.1982727E0,3.3E1,9E0,2.2658143E0,1.1182316E1,4.6E1,3.6E1,1.197831E6,4.8E1,-1.6022967E0,-3.1181106E-1,4E-1,4E-1,4.5492415E0,1.0157329E0,2.7E1,1E0,3.7274911E0,4.1284332E-1,-3.0844796E0,-9.727497E-1,7E0,1.6246034E-2,9E0,1E0,4.6E1,5.1E1,3.9115804E-1,-1.3227786E0,1.5437691E0,-2.7810213E-1,-2.4128642E0,1.9E1,3.5441482E0,2.3249665E-1,1.7E1,4.1E1,1E1,-2.999422E0,-7.123871E-2,1.2100922E0,5.2E-1,-1.3027531E0,-4.039093E-1,1.0297517E0,-0E0,2.1469247E0,-4.082984E-1,-2.1397188E0,1.2483139E-1,-5.05053E-1],"split_indices":[18,1,1,0,2,6,1,1,4,0,22,4,0,3,2,0,0,20,22,0,0,2,2,12,2,0,0,1,1,0,0,2,7,0,0,0,0,22,0,22,3,2,2,0,0,0,0,0,0,0,0,21,2,22,0,0,0,1,0,0,0,0,0,0,0,0,0],"split_type":[0,0,0,0,0,0,0,0,0,0,0,0,0,0,0,0,0,0,0,0,0,0,0,0,0,0,0,0,0,0,0,0,0,0,0,0,0,0,0,0,0,0,0,0,0,0,0,0,0,0,0,0,0,0,0,0,0,0,0,0,0,0,0,0,0,0,0],"sum_hessian":[1.28E2,5.3E1,7.5E1,3.8E1,1.5E1,1.7E1,5.8E1,5E0,3.3E1,1E1,5E0,1.4E1,3E0,4.9E1,9E0,4E0,1E0,2.7E1,6E0,1E0,4E0,1E1,4E0,3.9E1,1E1,6E0,3E0,1.5E1,1.2E1,4E0,2E0,6E0,4E0,3E0,1E0,3.6E1,3E0,9E0,1E0,6E0,9E0,1E1,2E0,2E0,4E0,3E0,1E0,4E0,5E0,5E0,1E0,5E0,4E0,7E0,3E0,1E0,1E0,2E0,3E0,4E0,1E0,1E0,3E0,6E0,1E0,1E0,1E0],"tree_param":{"num_deleted":"0","num_feature":"24","num_nodes":"67","size_leaf_vector":"1"}},{"base_weights":[5.9235544E0,3.8000534E1,-1.6059631E1,2.2599102E1,7.971237E1,-2.0775085E1,3.2251313E0,8.7882996E-1,3.502431E1,1.0230862E1,3.546532E1,-2.6755713E1,-9.273317E0,2.5958258E1,-1.0237257E1,9.798731E0,-1.792072E1,2.4614862E1,5.60737E1,4.674292E0,6.940084E-1,-1.7126749E1,-3.145066E1,-6.356376E-2,-1.24105015E1,3.44793E0,4.2774454E-1,-5.1136665E0,-1.8821081E0,1.2404087E1,8.883362E-1,-3.337395E1,1.9446106E0,1.5193681E1,4.0091614E1,7.138164E1,1.0202565E0,-1.8275744E0,-0E0,-2.4364296E1,-4.7815704E0,-3.2194874E0,6.935989E-1,-1.5975552E1,-4.8303595E0,-7.062546E-1,-1.4915085E-2,1.782046E1,1.2826004E0,-2.584605E0,8.15358E-1,-4.2380757E0,-6.7676544E-2,2.1420868E1,3.5251515E0,4.358697E0,8.807419E-1,8.391764E0,8.1188357E-1,-1.2706341E1,-2.7263114E0,1.4612274E0,-7.175152E-1,-6.450804E0,-2.321014E0,1.5433502E-2,-6.5201974E-1,2.0923233E0,2.046814E-2,-3.1449585E0,9.7826385E-1,-1.1139679E0,4.7627717E-1,2.9881817E1,4.239464E0,-1.9325333E0,1.1293682E0,-1.8528258E0,-0E0,-4.6121293E-1,9.3039703E-1,-0E0,-1.1642994E0,-0E0,-4.970215E-1,2.208725E-1,3.499791E0,1.3965302E0,-9.9690247E-1,7.799072E-1,-9.44276E-1,1.7436294E-1,-2.8061372E-1],"categories":[],"categories_nodes":[],"categories_segments":[],"categories_sizes":[],"default_left":[0,0,0,0,0,0,0,0,0,0,0,0,0,0,0,0,0,0,0,0,0,0,0,0,0,0,0,0,0,0,0,0,0,0,0,0,0,0,0,0,0,0,0,0,0,0,0,0,0,0,0,0,0,0,0,0,0,0,0,0,0,0,0,0,0,0,0,0,0,0,0,0,0,0,0,0,0,0,0,0,0,0,0,0,0,0,0,0,0,0,0,0,0],"id":21,"left_children":[1,3,5,7,9,11,13,15,17,-1,19,21,23,25,27,29,31,33,35,-1,-1,37,39,41,43,-1,-1,45,-1,47,49,51,-1,53,55,57,-1,-1,-1,59,-1,61,-1,63,65,-1,-1,67,69,71,-1,-1,-1,73,75,-1,-1,-1,-1,77,-1,79,-1,81,-1,-1,-1,-1,-1,83,-1,-1,-1,85,87,89,-1,-1,91,-1,-1,-1,-1,-1,-1,-1,-1,-1,-1,-1,-1,-1,-1],"loss_changes":[8.67488E4,2.9808125E4,6.7931113E3,1.0045102E4,8.680336E3,3.6302188E3,4.934979E3,2.650342E3,3.4750137E3,0E0,1.3373623E3,9.3634766E2,5.724801E2,7.6719214E2,2.2388147E2,1.778811E2,3.6058237E3,1.739001E3,3.7791523E3,0E0,0E0,2.7615527E2,1.2573516E3,1.583782E2,2.5118018E2,0E0,0E0,4.0290054E1,0E0,3.6353296E2,1.498457E2,9.3401953E2,0E0,7.443655E2,1.0236328E1,2.8238125E3,0E0,0E0,0E0,9.5831055E1,0E0,1.5014618E2,0E0,3.9104736E2,9.179892E1,0E0,0E0,1.633667E2,2.1449207E2,2.7351233E2,0E0,0E0,0E0,8.656787E2,3.230203E2,0E0,0E0,0E0,0E0,4.0447876E2,0E0,2.0926564E2,0E0,1.5700056E2,0E0,0E0,0E0,0E0,0E0,1.9733778E1,0E0,0E0,0E0,4.4455615E2,7.119596E2,3.742094E2,0E0,0E0,2.1829298E1,0E0,0E0,0E0,0E0,0E0,0E0,0E0,0E0,0E0,0E0,0E0,0E0,0E0,0E0],"parents":[2147483647,0,0,1,1,2,2,3,3,4,4,5,5,6,6,7,7,8,8,10,10,11,11,12,12,13,13,14,14,15,15,16,16,17,17,18,18,21,21,22,22,23,23,24,24,27,27,29,29,30,30,31,31,33,33,34,34,35,35,39,39,41,41,43,43,44,44,47,47,48,48,49,49,53,53,54,54,59,59,61,61,63,63,69,69,73,73,74,74,75,75,78,78],"right_children":[2,4,6,8,10,12,14,16,18,-1,20,22,24,26,28,30,32,34,36,-1,-1,38,40,42,44,-1,-1,46,-1,48,50,52,-1,54,56,58,-1,-1,-1,60,-1,62,-1,64,66,-1,-1,68,70,72,-1,-1,-1,74,76,-1,-1,-1,-1,78,-1,80,-1,82,-1,-1,-1,-1,-1,84,-1,-1,-1,86,88,90,-1,-1,92,-1,-1,-1,-1,-1,-1,-1,-1,-1,-1,-1,-1,-1,-1],"split_conditions":[1E0,4.1E-1,1E0,6E0,9E0,4.4E1,4E-1,1.9E1,1E0,1.0230862E1,5.1E-1,3.3E1,4.1E-1,4E0,1E1,1E0,1E0,1E0,9E0,4.674292E0,6.940084E-1,4.3E1,1E0,1E0,5.3E1,3.44793E0,4.2774454E-1,3.7E1,-1.8821081E0,1.6E1,3.2E1,4E-1,1.9446106E0,1.9E1,9E0,1.7E1,1.0202565E0,-1.8275744E0,-0E0,4.2E-1,-4.7815704E0,1.1E1,6.935989E-1,4.7E1,5.2E-1,-7.062546E-1,-1.4915085E-2,5.1E1,1.7E1,1.6E1,8.15358E-1,-4.2380757E0,-6.7676544E-2,4E-1,4E-1,4.358697E0,8.807419E-1,8.391764E0,8.1188357E-1,3.8E1,-2.7263114E0,4E-1,-7.175152E-1,3.8E1,-2.321014E0,1.5433502E-2,-6.5201974E-1,2.0923233E0,2.046814E-2,4.1E1,9.7826385E-1,-1.1139679E0,4.7627717E-1,4.1E1,1.6E1,3.5E-1,1.1293682E0,-1.8528258E0,2.7E1,-4.6121293E-1,9.3039703E-1,-0E0,-1.1642994E0,-0E0,-4.970215E-1,2.208725E-1,3.499791E0,1.3965302E0,-9.9690247E-1,7.799072E-1,-9.44276E-1,1.7436294E-1,-2.8061372E-1],"split_indices":[18,1,4,22,22,2,1,0,3,0,1,20,1,22,22,6,4,4,22,0,0,2,6,3,2,0,0,2,0,21,2,1,0,0,22,21,0,0,0,1,0,22,0,2,1,0,0,2,21,21,0,0,0,1,1,0,0,0,0,0,0,1,0,0,0,0,0,0,0,2,0,0,0,2,21,1,0,0,2,0,0,0,0,0,0,0,0,0,0,0,0,0,0],"split_type":[0,0,0,0,0,0,0,0,0,0,0,0,0,0,0,0,0,0,0,0,0,0,0,0,0,0,0,0,0,0,0,0,0,0,0,0,0,0,0,0,0,0,0,0,0,0,0,0,0,0,0,0,0,0,0,0,0,0,0,0,0,0,0,0,0,0,0,0,0,0,0,0,0,0,0,0,0,0,0,0,0,0,0,0,0,0,0,0,0,0,0,0,0],"sum_hessian":[1.21E2,4.9E1,7.2E1,3.7E1,1.2E1,5.8E1,1.4E1,1.4E1,2.3E1,7E0,5E0,3.7E1,2.1E1,5E0,9E0,1E1,4E0,1.7E1,6E0,3E0,2E0,1.4E1,2.3E1,6E0,1.5E1,3E0,2E0,7E0,2E0,7E0,3E0,3E0,1E0,1.2E1,5E0,4E0,2E0,1.3E1,1E0,1.8E1,5E0,5E0,1E0,9E0,6E0,4E0,3E0,4E0,3E0,2E0,1E0,2E0,1E0,7E0,5E0,4E0,1E0,3E0,1E0,5E0,1.3E1,2E0,3E0,5E0,4E0,1E0,5E0,3E0,1E0,2E0,1E0,1E0,1E0,4E0,3E0,3E0,2E0,3E0,2E0,1E0,1E0,3E0,2E0,1E0,1E0,1E0,3E0,2E0,1E0,1E0,2E0,1E0,1E0],"tree_param":{"num_deleted":"0","num_feature":"24","num_nodes":"93","size_leaf_vector":"1"}},{"base_weights":[1.6418048E0,2.9026958E1,-1.683406E1,1.4242431E1,7.431933E1,-1.8787344E1,5.647761E0,4.537307E1,8.776942E0,9.02421E1,3.6163574E1,-6.0517044E0,-2.070529E1,2.1569479E0,-6.4554673E-1,5.427636E1,2.3799591E-1,1.6147009E1,-3.189331E-1,2.1619232E0,9.724271E0,4.1611266E0,4.6864015E-1,-3.2845101E0,1.9239638E-2,-2.1970303E1,-1.0060181E1,1.2839355E0,6.2142243E0,2.7784708E0,1.16338215E1,-1.0482364E1,2.11044E1,-2.9173584E0,8.5315555E-1,-5.389084E-1,-2.2476377E1,-1.1270979E1,-0E0,3.438568E0,1.6159706E1,-4.5148773E0,-3.2578614E0,2.3894272E0,2.4724579E-1,2.6244915E-1,-6.658997E-1,-2.3732574E0,-1.3074898E0,-1.2260872E0,-1.6580964E-2,-7.1325684E-1,1.0878754E0,1.7506058E1,1.9444276E-2,1.5473938E0,-1.5245132E1,1.3268493E0,-8.775818E-1,4.688019E-1,2.0164068E0,-1.0051066E-1,1.0931199E0,-2.1815116E0,-0E0],"categories":[],"categories_nodes":[],"categories_segments":[],"categories_sizes":[],"default_left":[0,0,0,0,0,0,0,0,0,0,0,0,0,0,0,0,0,0,0,0,0,0,0,0,0,0,0,0,0,0,0,0,0,0,0,0,0,0,0,0,0,0,0,0,0,0,0,0,0,0,0,0,0,0,0,0,0,0,0,0,0,0,0,0,0],"id":22,"left_children":[1,3,5,7,9,11,13,15,17,19,21,23,25,-1,-1,27,-1,29,31,-1,-1,-1,-1,-1,33,35,37,-1,-1,-1,39,41,43,45,-1,-1,47,49,-1,51,53,55,-1,-1,-1,-1,-1,-1,-1,-1,-1,57,-1,59,-1,61,63,-1,-1,-1,-1,-1,-1,-1,-1],"loss_changes":[5.7723586E4,2.9301508E4,3.157914E3,5.456203E3,2.7874922E3,1.2797656E3,1.3710363E3,1.5014424E3,2.229481E3,6.661875E2,4.3089453E2,1.7913735E3,3.4599805E2,0E0,0E0,1.3098145E2,0E0,4.2508057E2,3.4341323E3,0E0,0E0,0E0,0E0,0E0,2.7793585E2,1.3393945E2,7.958679E1,0E0,0E0,0E0,4.0280383E2,1.1178938E3,6.899219E1,1.8279819E2,0E0,0E0,3.7115234E1,1.278418E1,0E0,2.7481927E2,1.0154761E2,7.4257605E2,0E0,0E0,0E0,0E0,0E0,0E0,0E0,0E0,0E0,6.576221E2,0E0,5.3773926E1,0E0,2.2828262E2,4.9804138E2,0E0,0E0,0E0,0E0,0E0,0E0,0E0,0E0],"parents":[2147483647,0,0,1,1,2,2,3,3,4,4,5,5,6,6,7,7,8,8,9,9,10,10,11,11,12,12,15,15,17,17,18,18,24,24,25,25,26,26,30,30,31,31,32,32,33,33,36,36,37,37,39,39,40,40,41,41,51,51,53,53,55,55,56,56],"right_children":[2,4,6,8,10,12,14,16,18,20,22,24,26,-1,-1,28,-1,30,32,-1,-1,-1,-1,-1,34,36,38,-1,-1,-1,40,42,44,46,-1,-1,48,50,-1,52,54,56,-1,-1,-1,-1,-1,-1,-1,-1,-1,58,-1,60,-1,62,64,-1,-1,-1,-1,-1,-1,-1,-1],"split_conditions":[1E0,4.1E-1,6E1,9E0,5.1E-1,4E-1,1.2E1,1E0,1.9E1,3.6E1,9E0,9E0,6.4E-1,2.1569479E0,-6.4554673E-1,2.3E1,2.3799591E-1,1.8E1,1E0,2.1619232E0,9.724271E0,4.1611266E0,4.6864015E-1,-3.2845101E0,4.6E1,2.1E1,1E0,1.2839355E0,6.2142243E0,2.7784708E0,5E0,5.7E1,1E1,3.2E1,8.5315555E-1,-5.389084E-1,1E0,5.7E1,-0E0,1.7E1,5.1E1,9E0,-3.2578614E0,2.3894272E0,2.4724579E-1,2.6244915E-1,-6.658997E-1,-2.3732574E0,-1.3074898E0,-1.2260872E0,-1.6580964E-2,3.5E-1,1.0878754E0,3.5E-1,1.9444276E-2,5.1E1,1E0,1.3268493E0,-8.775818E-1,4.688019E-1,2.0164068E0,-1.0051066E-1,1.0931199E0,-2.1815116E0,-0E0],"split_indices":[18,1,2,21,1,1,21,7,0,2,22,21,1,0,0,2,0,0,4,0,0,0,0,0,2,20,4,0,0,0,22,2,22,2,0,0,5,2,0,21,2,22,0,0,0,0,0,0,0,0,0,1,0,1,0,2,3,0,0,0,0,0,0,0,0],"split_type":[0,0,0,0,0,0,0,0,0,0,0,0,0,0,0,0,0,0,0,0,0,0,0,0,0,0,0,0,0,0,0,0,0,0,0,0,0,0,0,0,0,0,0,0,0,0,0,0,0,0,0,0,0,0,0,0,0,0,0,0,0,0,0,0,0],"sum_hessian":[1.12E2,4.5E1,6.7E1,3.5E1,1E1,6.2E1,5E0,4E0,3.1E1,6E0,4E0,9E0,5.3E1,2E0,3E0,3E0,1E0,1.7E1,1.4E1,1E0,5E0,3E0,1E0,1E0,8E0,4.6E1,7E0,1E0,2E0,3E0,1.4E1,1E1,4E0,6E0,2E0,2E0,4.4E1,6E0,1E0,6E0,8E0,9E0,1E0,3E0,1E0,2E0,4E0,3.7E1,7E0,5E0,1E0,4E0,2E0,7E0,1E0,6E0,3E0,1E0,3E0,2E0,5E0,5E0,1E0,2E0,1E0],"tree_param":{"num_deleted":"0","num_feature":"24","num_nodes":"65","size_leaf_vector":"1"}},{"base_weights":[2.3612962E0,3.2315468E1,-1.2581961E1,4.6950203E1,-1.8093872E-1,-1.7458317E1,8.729289E0,2.7380991E1,6.044684E1,-1.3006421E1,3.0678001E1,-1.8666729E1,-0E0,2.7892195E1,-6.589559E0,2.8582628E0,3.9806825E-1,7.2588005E0,2.0646906E1,-1.7314833E1,1.0384644E0,3.767145E0,2.3488311E-1,-2.01705E1,-7.3486395E0,1.0175121E0,-9.2846197E-1,3.0613704E0,3.2815704E-1,-9.0764725E-1,-1.5984167E0,1.8638764E-1,2.3626695E0,-2.0979142E0,-1.3265024E0,-1.4253794E0,-2.0791798E1,-3.497938E-1,-1.2217396E0,-0E0,-1.4384028E-1,-0E0,-4.2221603E-1,3.8012543E-1,-8.4393233E-1,-2.5975613E1,-1.6615406E1,-3.1194445E1,-1.3623058E1,-9.68553E0,-2.219432E1,-4.6695253E-1,-3.259906E0,1.5252228E-1,-1.6719273E0,-1.3609273E0,-3.435626E-1,-8.853728E-1,-2.8813303E0],"categories":[],"categories_nodes":[],"categories_segments":[],"categories_sizes":[],"default_left":[0,0,0,0,0,0,0,0,0,0,0,0,0,0,0,0,0,0,0,0,0,0,0,0,0,0,0,0,0,0,0,0,0,0,0,0,0,0,0,0,0,0,0,0,0,0,0,0,0,0,0,0,0,0,0,0,0,0,0],"id":23,"left_children":[1,3,5,7,9,11,13,15,17,19,21,23,25,27,29,-1,-1,-1,31,33,-1,-1,-1,35,37,-1,-1,-1,-1,39,-1,-1,-1,-1,41,43,45,-1,-1,-1,-1,-1,-1,-1,-1,47,49,51,53,55,57,-1,-1,-1,-1,-1,-1,-1,-1],"loss_changes":[5.2428348E4,1.8789816E4,8.3019E3,5.0369688E3,5.455803E3,1.4000684E3,4.6936147E3,8.8947266E1,5.283371E3,1.2222427E3,5.0388916E2,7.3536914E2,5.692117E2,1.9890918E2,3.814469E2,0E0,0E0,0E0,1.0835693E2,3.8791846E2,0E0,0E0,0E0,4.648828E2,4.7420837E1,0E0,0E0,0E0,0E0,6.6472507E0,0E0,0E0,0E0,0E0,3.0374449E1,1.652483E2,4.3793164E2,0E0,0E0,0E0,0E0,0E0,0E0,0E0,0E0,6.402666E2,8.241338E2,1.4578027E2,4.7668945E2,2.6038745E2,9.693784E2,0E0,0E0,0E0,0E0,0E0,0E0,0E0,0E0],"parents":[2147483647,0,0,1,1,2,2,3,3,4,4,5,5,6,6,7,7,8,8,9,9,10,10,11,11,12,12,13,13,14,14,18,18,19,19,23,23,24,24,29,29,34,34,35,35,36,36,45,45,46,46,47,47,48,48,49,49,50,50],"right_children":[2,4,6,8,10,12,14,16,18,20,22,24,26,28,30,-1,-1,-1,32,34,-1,-1,-1,36,38,-1,-1,-1,-1,40,-1,-1,-1,-1,42,44,46,-1,-1,-1,-1,-1,-1,-1,-1,48,50,52,54,56,58,-1,-1,-1,-1,-1,-1,-1,-1],"split_conditions":[1E0,3.3E1,1E0,7E0,1E0,1.2E1,4E-1,1E0,1E1,4E-1,8E0,5.7E-1,4.1E-1,1.2E1,1E1,2.8582628E0,3.9806825E-1,7.2588005E0,3.5E-1,1E0,1.0384644E0,3.767145E0,2.3488311E-1,2.3E1,7E-1,1.0175121E0,-9.2846197E-1,3.0613704E0,3.2815704E-1,5E-1,-1.5984167E0,1.8638764E-1,2.3626695E0,-2.0979142E0,3.6E1,3.5E-1,6E0,-3.497938E-1,-1.2217396E0,-0E0,-1.4384028E-1,-0E0,-4.2221603E-1,3.8012543E-1,-8.4393233E-1,3.8E1,9E0,2.4E1,2.7E1,4.3E1,4.4E-1,-4.6695253E-1,-3.259906E0,1.5252228E-1,-1.6719273E0,-1.3609273E0,-3.435626E-1,-8.853728E-1,-2.8813303E0],"split_indices":[18,20,4,22,4,22,1,6,22,1,22,1,1,21,22,0,0,0,1,3,0,0,0,2,1,0,0,0,0,1,0,0,0,0,2,1,22,0,0,0,0,0,0,0,0,0,22,2,2,2,1,0,0,0,0,0,0,0,0],"split_type":[0,0,0,0,0,0,0,0,0,0,0,0,0,0,0,0,0,0,0,0,0,0,0,0,0,0,0,0,0,0,0,0,0,0,0,0,0,0,0,0,0,0,0,0,0,0,0,0,0,0,0,0,0,0,0,0,0,0,0],"sum_hessian":[1.15E2,3.8E1,7.7E1,2.6E1,1.2E1,6.3E1,1.4E1,1.2E1,1.4E1,9E0,3E0,5.9E1,4E0,6E0,8E0,1.1E1,1E0,1E1,4E0,8E0,1E0,2E0,1E0,5.1E1,8E0,2E0,2E0,5E0,1E0,6E0,2E0,1E0,3E0,6E0,2E0,2E0,4.9E1,6E0,2E0,1E0,5E0,1E0,1E0,1E0,1E0,1.9E1,3E1,1.2E1,7E0,1.5E1,1.5E1,1E0,1.1E1,1E0,6E0,8E0,7E0,6E0,9E0],"tree_param":{"num_deleted":"0","num_feature":"24","num_nodes":"59","size_leaf_vector":"1"}},{"base_weights":[1.7097898E0,2.4538141E1,-1.2448206E1,3.777777E1,-3.8692267E0,-1.6209084E1,5.09765E0,2.8154787E1,5.8519756E1,-1.2375324E1,1.8020472E1,-2.1587547E1,-1.2018691E1,2.806256E0,-8.691061E0,1.4882662E1,3.8110703E1,6.307442E0,6.2638855E-1,-1.621693E1,4.1690063E0,2.0159898E0,2.2313844E-1,-1.7256311E1,-3.3759365E0,-6.9744864E0,-1.7229113E1,-1.4799881E1,-1.3185349E-1,1.7789754E0,7.6927643E0,4.8641174E1,8.427618E-1,-2.0958868E1,-5.33483E0,-1.11190796E-1,9.8654175E-1,-6.181521E0,-2.0507324E1,-1.2330817E1,-6.202812E-1,-5.928588E0,-2.4454168E1,-0E0,-1.9069073E0,1.2516139E0,-5.7120514E-1,5.668156E0,9.319753E-1,-3.1033504E1,-4.394516E0,8.404109E-1,-1.8962158E0,-0E0,-1.9364456E0,-2.3115232E0,-8.6252946E-1,-1.346363E0,-2.7778423E-1,-3.2707417E0,4.2483253E0,-1.3221534E1,5.242977E0,-2.6903265E0,-7.2888184E-1,-3.7037303E0,-4.011055E-1,-0E0,-7.347626E-1,5.0401E-1,-4.9155083E-1,-3.8219516E0,-0E0,5.821345E-1,-0E0,-1.516979E0,-0E0,9.6042407E-1,-0E0,-0E0,-4.7375694E-1,6.0913086E-1,-5.209595E-1],"categories":[],"categories_nodes":[],"categories_segments":[],"categories_sizes":[],"default_left":[0,0,0,0,0,0,0,0,0,0,0,0,0,0,0,0,0,0,0,0,0,0,0,0,0,0,0,0,0,0,0,0,0,0,0,0,0,0,0,0,0,0,0,0,0,0,0,0,0,0,0,0,0,0,0,0,0,0,0,0,0,0,0,0,0,0,0,0,0,0,0,0,0,0,0,0,0,0,0,0,0,0,0],"id":24,"left_children":[1,3,5,7,9,11,13,15,17,19,21,23,25,-1,27,29,31,-1,-1,33,35,-1,-1,37,-1,39,41,43,-1,-1,45,47,-1,49,51,-1,-1,53,55,57,59,61,63,-1,-1,-1,-1,-1,-1,65,67,-1,-1,69,-1,-1,-1,-1,-1,71,73,75,77,-1,-1,-1,-1,-1,-1,-1,-1,79,-1,-1,-1,-1,-1,-1,81,-1,-1,-1,-1],"loss_changes":[4.3028793E4,1.9496969E4,5.5491855E3,4.905008E3,3.3601135E3,1.1050918E3,5.090599E3,2.6033848E3,1.6383008E3,9.540864E2,1.1957031E1,6.384912E2,8.3639795E2,0E0,3.5026807E2,7.456787E0,3.6808027E3,0E0,0E0,3.2434448E2,1.4498375E2,0E0,0E0,5.678882E2,0E0,7.104061E2,1.2543994E3,3.5933582E2,0E0,0E0,4.934518E2,2.30333E3,0E0,8.5464136E2,1.1482754E3,0E0,0E0,4.8248596E2,1.6870459E2,1.1253418E1,1.6385585E2,8.4247546E2,9.5382324E1,0E0,0E0,0E0,0E0,0E0,0E0,2.9514917E2,8.471573E1,0E0,0E0,1.7285672E2,0E0,0E0,0E0,0E0,0E0,5.971443E0,2.9471107E1,1.0175891E2,7.4527626E1,0E0,0E0,0E0,0E0,0E0,0E0,0E0,0E0,3.241617E1,0E0,0E0,0E0,0E0,0E0,0E0,1.2848784E2,0E0,0E0,0E0,0E0],"parents":[2147483647,0,0,1,1,2,2,3,3,4,4,5,5,6,6,7,7,8,8,9,9,10,10,11,11,12,12,14,14,15,15,16,16,19,19,20,20,23,23,25,25,26,26,27,27,30,30,31,31,33,33,34,34,37,37,38,38,39,39,40,40,41,41,42,42,49,49,50,50,53,53,59,59,60,60,61,61,62,62,71,71,78,78],"right_children":[2,4,6,8,10,12,14,16,18,20,22,24,26,-1,28,30,32,-1,-1,34,36,-1,-1,38,-1,40,42,44,-1,-1,46,48,-1,50,52,-1,-1,54,56,58,60,62,64,-1,-1,-1,-1,-1,-1,66,68,-1,-1,70,-1,-1,-1,-1,-1,72,74,76,78,-1,-1,-1,-1,-1,-1,-1,-1,80,-1,-1,-1,-1,-1,-1,82,-1,-1,-1,-1],"split_conditions":[1E0,3.3E1,1E0,1E0,1E0,6E0,4E-1,7E0,1.1E1,4E-1,1E1,1E0,1E1,2.806256E0,5E-1,1.6E1,9E0,6.307442E0,6.2638855E-1,1E0,5.1E1,2.0159898E0,2.2313844E-1,4E-1,-3.3759365E0,1.5E1,4.3E-1,4.7E1,-1.3185349E-1,1.7789754E0,4.6E1,1E0,8.427618E-1,6E0,9E0,-1.11190796E-1,9.8654175E-1,4E0,1E0,5.2E1,1E0,5.1E1,1E0,-0E0,-1.9069073E0,1.2516139E0,-5.7120514E-1,5.668156E0,9.319753E-1,1E0,3.5E-1,8.404109E-1,-1.8962158E0,2.7E1,-1.9364456E0,-2.3115232E0,-8.6252946E-1,-1.346363E0,-2.7778423E-1,6.7E-1,5.2E-1,1.2E1,6.1E1,-2.6903265E0,-7.2888184E-1,-3.7037303E0,-4.011055E-1,-0E0,-7.347626E-1,5.0401E-1,-4.9155083E-1,1.6E1,-0E0,5.821345E-1,-0E0,-1.516979E0,-0E0,9.6042407E-1,1.2E1,-0E0,-4.7375694E-1,6.0913086E-1,-5.209595E-1],"split_indices":[18,20,4,4,4,22,1,22,22,1,22,6,22,0,1,21,22,0,0,7,2,0,0,1,0,21,1,2,0,0,2,6,0,22,22,0,0,22,5,2,3,2,3,0,0,0,0,0,0,3,1,0,0,2,0,0,0,0,0,1,1,21,2,0,0,0,0,0,0,0,0,21,0,0,0,0,0,0,21,0,0,0,0],"split_type":[0,0,0,0,0,0,0,0,0,0,0,0,0,0,0,0,0,0,0,0,0,0,0,0,0,0,0,0,0,0,0,0,0,0,0,0,0,0,0,0,0,0,0,0,0,0,0,0,0,0,0,0,0,0,0,0,0,0,0,0,0,0,0,0,0,0,0,0,0,0,0,0,0,0,0,0,0,0,0,0,0,0,0],"sum_hessian":[1.31E2,5E1,8.1E1,3.4E1,1.6E1,6.7E1,1.4E1,2.5E1,9E0,1.2E1,4E0,2.7E1,4E1,5E0,9E0,1.2E1,1.3E1,8E0,1E0,1E1,2E0,3E0,1E0,2.2E1,5E0,2.2E1,1.8E1,4E0,5E0,7E0,5E0,9E0,4E0,6E0,4E0,1E0,1E0,6E0,1.6E1,1.1E1,1.1E1,8E0,1E1,1E0,3E0,4E0,1E0,7E0,2E0,3E0,3E0,2E0,2E0,5E0,1E0,1.2E1,4E0,9E0,2E0,8E0,3E0,5E0,3E0,8E0,2E0,2E0,1E0,1E0,2E0,2E0,3E0,6E0,2E0,2E0,1E0,4E0,1E0,1E0,2E0,1E0,5E0,1E0,1E0],"tree_param":{"num_deleted":"0","num_feature":"24","num_nodes":"83","size_leaf_vector":"1"}}]},"name":"gbtree"},"learner_model_param":{"base_score":"2.8385898E2","boost_from_average":"1","num_class":"0","num_feature":"24","num_target":"1"},"objective":{"name":"reg:squarederror","reg_loss_param":{"scale_pos_weight":"1"}}},"version":[3,0,2]}