{"learner":{"attributes":{"scikit_learn":"{\"_estimator_type\": \"regressor\"}"},"feature_names":[],"feature_types":[],"gradient_booster":{"model":{"gbtree_model_param":{"num_parallel_tree":"1","num_trees":"25"},"iteration_indptr":[0,1,2,3,4,5,6,7,8,9,10,11,12,13,14,15,16,17,18,19,20,21,22,23,24,25],"tree_info":[0,0,0,0,0,0,0,0,0,0,0,0,0,0,0,0,0,0,0,0,0,0,0,0,0],"trees":[{"base_weights":[-3.453507E0,-1.1702588E2,4.019412E1,-2.306018E1,5.167424E0,2.432269E2,-2.3291597E1,3.302206E1,-1.3686765E1],"categories":[],"categories_nodes":[],"categories_segments":[],"categories_sizes":[],"default_left":[0,0,0,0,0,0,0,0,0],"id":0,"left_children":[1,3,-1,-1,5,7,-1,-1,-1],"loss_changes":[1.4729036E6,3.4927428E5,0E0,0E0,7.9351706E5,2.7762406E5,0E0,0E0,0E0],"parents":[2147483647,0,0,1,1,4,4,5,5],"right_children":[2,4,-1,-1,6,8,-1,-1,-1],"split_conditions":[6.5E1,5E1,4.019412E1,-2.306018E1,1E0,2.3E1,-2.3291597E1,3.302206E1,-1.3686765E1],"split_indices":[2,2,0,0,18,21,0,0,0],"split_type":[0,0,0,0,0,0,0,0,0],"sum_hessian":[3E1,2.4E1,6E0,1.2E1,1.2E1,6E0,6E0,5E0,1E0],"tree_param":{"num_deleted":"0","num_feature":"24","num_nodes":"9","size_leaf_vector":"1"}},{"base_weights":[6.3182986E-1,-1.9331363E2,2.3644904E2,-2.1558743E2,-6.5776886E1,3.8100937E1,-2.1895418E1,-2.225807E1,-5.9837556E0,1.4712134E1,-1.8745008E1],"categories":[],"categories_nodes":[],"categories_segments":[],"categories_sizes":[],"default_left":[0,0,0,0,0,0,0,0,0,0,0],"id":1,"left_children":[1,3,5,7,9,-1,-1,-1,-1,-1,-1],"loss_changes":[1.4179948E6,3.2704875E4,1.0058993E6,5.180625E2,1.3139558E5,0E0,0E0,0E0,0E0,0E0,0E0],"parents":[2147483647,0,0,1,1,2,2,3,3,4,4],"right_children":[2,4,6,8,10,-1,-1,-1,-1,-1,-1],"split_conditions":[5.5E1,1E0,1E0,5E-1,3.6E-1,3.8100937E1,-2.1895418E1,-2.225807E1,-5.9837556E0,1.4712134E1,-1.8745008E1],"split_indices":[2,6,18,1,1,0,0,0,0,0,0],"split_type":[0,0,0,0,0,0,0,0,0,0,0],"sum_hessian":[2.9E1,1.6E1,1.3E1,1.3E1,3E0,1E1,3E0,1.2E1,1E0,1E0,2E0],"tree_param":{"num_deleted":"0","num_feature":"24","num_nodes":"11","size_leaf_vector":"1"}},{"base_weights":[-8.049598E0,-1.4759227E2,1.8988998E2,-3.7655537E0,-2.0678961E2,3.319789E1,-1.760326E1,-1.6340614E1,2.0867708E1,-2.1479855E1,-5.6845675E0],"categories":[],"categories_nodes":[],"categories_segments":[],"categories_sizes":[],"default_left":[0,0,0,0,0,0,0,0,0,0,0],"id":2,"left_children":[1,3,5,7,9,-1,-1,-1,-1,-1,-1],"loss_changes":[8.012033E5,1.4290919E5,6.831414E5,2.3735958E5,8.42125E2,0E0,0E0,0E0,0E0,0E0,0E0],"parents":[2147483647,0,0,1,1,2,2,3,3,4,4],"right_children":[2,4,6,8,10,-1,-1,-1,-1,-1,-1],"split_conditions":[5.5E1,3.6E-1,1E0,3.5E-1,5E-1,3.319789E1,-1.760326E1,-1.6340614E1,2.0867708E1,-2.1479855E1,-5.6845675E0],"split_indices":[2,1,18,1,1,0,0,0,0,0,0],"split_type":[0,0,0,0,0,0,0,0,0,0,0],"sum_hessian":[2.7E1,1.6E1,1.1E1,5E0,1.1E1,8E0,3E0,3E0,2E0,1E1,1E0],"tree_param":{"num_deleted":"0","num_feature":"24","num_nodes":"11","size_leaf_vector":"1"}},{"base_weights":[-8.393189E0,-1.5947284E2,1.6305663E2,-1.882163E1,-1.7752487E1,3.0482864E1,-1.804531E1,1.603165E1,-1.3221431E1],"categories":[],"categories_nodes":[],"categories_segments":[],"categories_sizes":[],"default_left":[0,0,0,0,0,0,0,0,0],"id":3,"left_children":[1,3,5,-1,7,-1,-1,-1,-1],"loss_changes":[8.289651E5,6.4878938E4,7.8613E5,0E0,1.0258403E5,0E0,0E0,0E0,0E0],"parents":[2147483647,0,0,1,1,2,2,4,4],"right_children":[2,4,6,-1,8,-1,-1,-1,-1],"split_conditions":[5.5E1,1E0,1E0,-1.882163E1,3.6E-1,3.0482864E1,-1.804531E1,1.603165E1,-1.3221431E1],"split_indices":[2,7,18,0,1,0,0,0,0],"split_type":[0,0,0,0,0,0,0,0,0],"sum_hessian":[3E1,1.6E1,1.4E1,1.3E1,3E0,1E1,4E0,1E0,2E0],"tree_param":{"num_deleted":"0","num_feature":"24","num_nodes":"9","size_leaf_vector":"1"}},{"base_weights":[2.7884052E0,-1.0465931E2,1.3520187E2,-4.6152735E0,-1.637242E2,2.8807875E1,-1.6601685E1,-1.2487853E1,1.9569525E1,-1.7145079E1,-4.459256E0],"categories":[],"categories_nodes":[],"categories_segments":[],"categories_sizes":[],"default_left":[0,0,0,0,0,0,0,0,0,0,0],"id":4,"left_children":[1,3,5,7,9,-1,-1,-1,-1,-1,-1],"loss_changes":[4.1267353E5,9.294811E4,6.47078E5,1.9271403E5,4.7915625E2,0E0,0E0,0E0,0E0,0E0,0E0],"parents":[2147483647,0,0,1,1,2,2,3,3,4,4],"right_children":[2,4,6,8,10,-1,-1,-1,-1,-1,-1],"split_conditions":[5.5E1,3.6E-1,1E0,3.5E-1,5E-1,2.8807875E1,-1.6601685E1,-1.2487853E1,1.9569525E1,-1.7145079E1,-4.459256E0],"split_indices":[2,1,18,1,1,0,0,0,0,0,0],"split_type":[0,0,0,0,0,0,0,0,0,0,0],"sum_hessian":[2.7E1,1.5E1,1.2E1,6E0,9E0,8E0,4E0,4E0,2E0,8E0,1E0],"tree_param":{"num_deleted":"0","num_feature":"24","num_nodes":"11","size_leaf_vector":"1"}},{"base_weights":[-2.9605103E-1,-9.3060776E1,1.84763E2,9.519825E0,-1.49413395E1,2.8621397E1,-1.4569388E1,-1.2708825E1,1.7914997E1],"categories":[],"categories_nodes":[],"categories_segments":[],"categories_sizes":[],"default_left":[0,0,0,0,0,0,0,0,0],"id":5,"left_children":[1,3,5,7,-1,-1,-1,-1,-1],"loss_changes":[5.145773E5,1.1773559E5,3.7765388E5,2.0841094E5,0E0,0E0,0E0,0E0,0E0],"parents":[2147483647,0,0,1,1,2,2,3,3],"right_children":[2,4,6,8,-1,-1,-1,-1,-1],"split_conditions":[6E1,3.6E-1,1E0,3.5E-1,-1.49413395E1,2.8621397E1,-1.4569388E1,-1.2708825E1,1.7914997E1],"split_indices":[2,1,18,1,0,0,0,0,0],"split_type":[0,0,0,0,0,0,0,0,0],"sum_hessian":[2.8E1,1.9E1,9E0,7E0,1.2E1,7E0,2E0,4E0,3E0],"tree_param":{"num_deleted":"0","num_feature":"24","num_nodes":"9","size_leaf_vector":"1"}},{"base_weights":[9.395136E0,-9.485772E1,1.2725536E2,-1.10698805E1,-1.3909927E2,2.3807803E2,-1.410056E1,-1.1892119E1,1.7070559E1,-1.4553075E1,-3.4892259E0,5.142984E0,2.5109987E1],"categories":[],"categories_nodes":[],"categories_segments":[],"categories_sizes":[],"default_left":[0,0,0,0,0,0,0,0,0,0,0,0,0],"id":6,"left_children":[1,3,5,7,9,11,-1,-1,-1,-1,-1,-1,-1],"loss_changes":[3.9313838E5,6.072672E4,4.7999666E5,1.5727464E5,1.3922344E3,1.23088125E4,0E0,0E0,0E0,0E0,0E0,0E0,0E0],"parents":[2147483647,0,0,1,1,2,2,3,3,4,4,5,5],"right_children":[2,4,6,8,10,12,-1,-1,-1,-1,-1,-1,-1],"split_conditions":[5.5E1,3.6E-1,1E0,3.5E-1,5E-1,2E0,-1.410056E1,-1.1892119E1,1.7070559E1,-1.4553075E1,-3.4892259E0,5.142984E0,2.5109987E1],"split_indices":[2,1,18,1,1,21,0,0,0,0,0,0,0],"split_type":[0,0,0,0,0,0,0,0,0,0,0,0,0],"sum_hessian":[3E1,1.6E1,1.4E1,6E0,1E1,1E1,4E0,4E0,2E0,9E0,1E0,1E0,9E0],"tree_param":{"num_deleted":"0","num_feature":"24","num_nodes":"13","size_leaf_vector":"1"}},{"base_weights":[-1.4727214E1,-8.6786575E1,1.1595236E2,-0E0,-1.3028917E2,1.9303317E2,-1.2658057E1,-9.533281E0,1.5932521E1,-1.3565226E1,-3.3147645E0,1.2026566E1,2.7255716E1],"categories":[],"categories_nodes":[],"categories_segments":[],"categories_sizes":[],"default_left":[0,0,0,0,0,0,0,0,0,0,0,0,0],"id":7,"left_children":[1,3,5,7,9,11,-1,-1,-1,-1,-1,-1,-1],"loss_changes":[2.6416784E5,6.812881E4,2.1171286E5,1.215953E5,9.111719E2,1.155075E4,0E0,0E0,0E0,0E0,0E0,0E0,0E0],"parents":[2147483647,0,0,1,1,2,2,3,3,4,4,5,5],"right_children":[2,4,6,8,10,12,-1,-1,-1,-1,-1,-1,-1],"split_conditions":[5.5E1,3.6E-1,1E0,3.5E-1,5E-1,3.6E-1,-1.2658057E1,-9.533281E0,1.5932521E1,-1.3565226E1,-3.3147645E0,1.2026566E1,2.7255716E1],"split_indices":[2,1,18,1,1,1,0,0,0,0,0,0,0],"split_type":[0,0,0,0,0,0,0,0,0,0,0,0,0],"sum_hessian":[2.6E1,1.7E1,9E0,6E0,1.1E1,7E0,2E0,4E0,2E0,1E1,1E0,5E0,2E0],"tree_param":{"num_deleted":"0","num_feature":"24","num_nodes":"13","size_leaf_vector":"1"}},{"base_weights":[-5.332429E0,-7.834546E1,9.8130394E1,-8.25623E0,-1.1537084E1,1.8339872E1,-1.17005905E2,-1.0178085E1,1.4870356E1,-1.3314188E1,-3.1798997E0],"categories":[],"categories_nodes":[],"categories_segments":[],"categories_sizes":[],"default_left":[0,0,0,0,0,0,0,0,0,0,0],"id":8,"left_children":[1,3,5,7,-1,-1,9,-1,-1,-1,-1],"loss_changes":[2.1910492E5,4.2545688E4,2.419224E5,1.176578E5,0E0,0E0,4.4110156E2,0E0,0E0,0E0,0E0],"parents":[2147483647,0,0,1,1,2,2,3,3,6,6],"right_children":[2,4,6,8,-1,-1,10,-1,-1,-1,-1],"split_conditions":[5.5E1,3.6E-1,1E0,3.5E-1,-1.1537084E1,1.8339872E1,4.3E-1,-1.0178085E1,1.4870356E1,-1.3314188E1,-3.1798997E0],"split_indices":[2,1,18,1,0,0,1,0,0,0,0],"split_type":[0,0,0,0,0,0,0,0,0,0,0],"sum_hessian":[2.7E1,1.6E1,1.1E1,6E0,1E1,8E0,3E0,4E0,2E0,2E0,1E0],"tree_param":{"num_deleted":"0","num_feature":"24","num_nodes":"11","size_leaf_vector":"1"}},{"base_weights":[1.8049871E1,7.847954E1,-1.1954811E2,-4.8072514E1,1.8502843E2,-1.2728097E1,-3.0209045E0,-8.2112E0,1.0962171E1,1.152357E1,2.596586E1],"categories":[],"categories_nodes":[],"categories_segments":[],"categories_sizes":[],"default_left":[0,0,0,0,0,0,0,0,0,0,0],"id":9,"left_children":[1,3,5,7,9,-1,-1,-1,-1,-1,-1],"loss_changes":[2.1705173E5,2.5229119E5,8.9428125E2,5.7174188E4,2.0290031E4,0E0,0E0,0E0,0E0,0E0,0E0],"parents":[2147483647,0,0,1,1,2,2,3,3,4,4],"right_children":[2,4,6,8,10,-1,-1,-1,-1,-1,-1],"split_conditions":[1E0,5.3E1,5E-1,1E0,3.2E-1,-1.2728097E1,-3.0209045E0,-8.2112E0,1.0962171E1,1.152357E1,2.596586E1],"split_indices":[18,2,1,7,1,0,0,0,0,0,0],"split_type":[0,0,0,0,0,0,0,0,0,0,0],"sum_hessian":[2.4E1,1.7E1,7E0,8E0,9E0,6E0,1E0,7E0,1E0,6E0,3E0],"tree_param":{"num_deleted":"0","num_feature":"24","num_nodes":"11","size_leaf_vector":"1"}},{"base_weights":[6.32508E0,-7.428858E1,9.260221E1,-8.976981E1,-8.022743E0,1.611401E2,-1.1777756E1,-9.354596E0,-2.161612E0,1.0016886E1,-7.914289E0,1.00850555E2,2.401842E1,4.9538608E0,1.2073001E1],"categories":[],"categories_nodes":[],"categories_segments":[],"categories_sizes":[],"default_left":[0,0,0,0,0,0,0,0,0,0,0,0,0,0,0],"id":10,"left_children":[1,3,5,7,9,11,-1,-1,-1,-1,-1,13,-1,-1,-1],"loss_changes":[2.017141E5,1.4179E4,2.2106131E5,4.903828E2,3.8600934E4,2.6493E4,0E0,0E0,0E0,0E0,0E0,1.3282891E3,0E0,0E0,0E0],"parents":[2147483647,0,0,1,1,2,2,3,3,4,4,5,5,11,11],"right_children":[2,4,6,8,10,12,-1,-1,-1,-1,-1,14,-1,-1,-1],"split_conditions":[5.5E1,5E1,1E0,4.7E-1,3.6E-1,3.6E-1,-1.1777756E1,-9.354596E0,-2.161612E0,1.0016886E1,-7.914289E0,1.8E1,2.401842E1,4.9538608E0,1.2073001E1],"split_indices":[2,2,18,1,1,1,0,0,0,0,0,21,0,0,0],"split_type":[0,0,0,0,0,0,0,0,0,0,0,0,0,0,0],"sum_hessian":[2.7E1,1.4E1,1.3E1,1.1E1,3E0,1E1,3E0,1E1,1E0,1E0,2E0,7E0,3E0,3E0,4E0],"tree_param":{"num_deleted":"0","num_feature":"24","num_nodes":"15","size_leaf_vector":"1"}},{"base_weights":[1.6968338E1,-5.6040047E1,1.1331548E2,1.7528961E1,-9.152859E1,1.3379793E2,-5.34957E0,-7.0852847E0,1.3119506E1,-9.607439E0,-2.053531E0,2.5436432E0,1.4159044E2,1.5017359E1,2.967102E0],"categories":[],"categories_nodes":[],"categories_segments":[],"categories_sizes":[],"default_left":[0,0,0,0,0,0,0,0,0,0,0,0,0,0,0],"id":11,"left_children":[1,3,5,7,9,11,-1,-1,-1,-1,-1,-1,13,-1,-1],"loss_changes":[1.9655862E5,4.3748105E4,4.855953E4,6.9873336E4,9.9396875E2,4.851797E3,0E0,0E0,0E0,0E0,0E0,0E0,4.2511875E3,0E0,0E0],"parents":[2147483647,0,0,1,1,2,2,3,3,4,4,5,5,12,12],"right_children":[2,4,6,8,10,12,-1,-1,-1,-1,-1,-1,14,-1,-1],"split_conditions":[5.5E1,3.6E-1,5.6E-1,3.5E-1,5E-1,2E0,-5.34957E0,-7.0852847E0,1.3119506E1,-9.607439E0,-2.053531E0,2.5436432E0,1E0,1.5017359E1,2.967102E0],"split_indices":[2,1,1,1,1,21,0,0,0,0,0,0,6,0,0],"split_type":[0,0,0,0,0,0,0,0,0,0,0,0,0,0,0],"sum_hessian":[2.6E1,1.5E1,1.1E1,5E0,1E1,1E1,1E0,3E0,2E0,9E0,1E0,1E0,9E0,8E0,1E0],"tree_param":{"num_deleted":"0","num_feature":"24","num_nodes":"15","size_leaf_vector":"1"}},{"base_weights":[3.0532563E0,4.5935505E1,-1.0155371E2,-6.827961E0,1.1643555E2,-1.085892E1,-2.0134933E0,6.609995E1,1.7169968E1,9.255599E1,-7.0274186E0,3.3796613E0,1.0567636E1],"categories":[],"categories_nodes":[],"categories_segments":[],"categories_sizes":[],"default_left":[0,0,0,0,0,0,0,0,0,0,0,0,0],"id":12,"left_children":[1,3,5,-1,7,-1,-1,9,-1,11,-1,-1,-1],"loss_changes":[1.389603E5,1.8533869E5,2.3253281E3,0E0,2.6406203E4,0E0,0E0,3.908698E4,0E0,1.8986875E3,0E0,0E0,0E0],"parents":[2147483647,0,0,1,1,2,2,4,4,7,7,9,9],"right_children":[2,4,6,-1,8,-1,-1,10,-1,12,-1,-1,-1],"split_conditions":[1E0,5E1,5E-1,-6.827961E0,3.3E-1,-1.085892E1,-2.0134933E0,3.2E-1,1.7169968E1,1.8E1,-7.0274186E0,3.3796613E0,1.0567636E1],"split_indices":[18,2,1,0,1,0,0,1,0,21,0,0,0],"split_type":[0,0,0,0,0,0,0,0,0,0,0,0,0],"sum_hessian":[2.9E1,2.1E1,8E0,8E0,1.3E1,7E0,1E0,8E0,5E0,7E0,1E0,2E0,5E0],"tree_param":{"num_deleted":"0","num_feature":"24","num_nodes":"13","size_leaf_vector":"1"}},{"base_weights":[1.6690615E0,4.213737E1,-9.402681E1,-5.8451476E0,1.2106121E2,-1.0127973E1,-1.9128189E0,4.86213E1,1.4152351E2,-6.6760483E0,1.1100205E1,1.5542617E1,1.9602479E0],"categories":[],"categories_nodes":[],"categories_segments":[],"categories_sizes":[],"default_left":[0,0,0,0,0,0,0,0,0,0,0,0,0],"id":13,"left_children":[1,3,5,-1,7,-1,-1,9,11,-1,-1,-1,-1],"loss_changes":[1.0439149E5,1.5822756E5,1.8065312E3,0E0,8.473375E3,0E0,0E0,3.642217E4,9.638328E3,0E0,0E0,0E0,0E0],"parents":[2147483647,0,0,1,1,2,2,4,4,7,7,8,8],"right_children":[2,4,6,-1,8,-1,-1,10,12,-1,-1,-1,-1],"split_conditions":[1E0,5E1,6.2E-1,-5.8451476E0,5.3E1,-1.0127973E1,-1.9128189E0,3.3E-1,1E0,-6.6760483E0,1.1100205E1,1.5542617E1,1.9602479E0],"split_indices":[18,2,1,0,2,0,0,1,6,0,0,0,0],"split_type":[0,0,0,0,0,0,0,0,0,0,0,0,0],"sum_hessian":[2.5E1,1.8E1,7E0,8E0,1E1,6E0,1E0,3E0,7E0,1E0,2E0,6E0,1E0],"tree_param":{"num_deleted":"0","num_feature":"24","num_nodes":"13","size_leaf_vector":"1"}},{"base_weights":[7.290134E0,-4.2848957E1,7.812967E1,-8.070114E0,-6.588713E1,1.21772255E2,-9.172217E0,-6.339444E0,1.036019E1,-6.9725266E0,-1.3171982E0,6.674726E1,1.8637293E1,3.4340282E1,9.684314E0,4.601056E0,-3.6704102E-1],"categories":[],"categories_nodes":[],"categories_segments":[],"categories_sizes":[],"default_left":[0,0,0,0,0,0,0,0,0,0,0,0,0,0,0,0,0],"id":14,"left_children":[1,3,5,7,9,11,-1,-1,-1,-1,-1,13,-1,15,-1,-1,-1],"loss_changes":[1.02975414E5,1.2719598E4,1.0027275E5,5.579218E4,6.903711E2,2.1841031E4,0E0,0E0,0E0,0E0,0E0,2.8456758E3,0E0,2.5985537E3,0E0,0E0,0E0],"parents":[2147483647,0,0,1,1,2,2,3,3,4,4,5,5,11,11,13,13],"right_children":[2,4,6,8,10,12,-1,-1,-1,-1,-1,14,-1,16,-1,-1,-1],"split_conditions":[5.5E1,3.6E-1,1E0,3.5E-1,5E-1,3.6E-1,-9.172217E0,-6.339444E0,1.036019E1,-6.9725266E0,-1.3171982E0,2.6E1,1.8637293E1,1.9E1,9.684314E0,4.601056E0,-3.6704102E-1],"split_indices":[2,1,18,1,1,1,0,0,0,0,0,21,0,21,0,0,0],"split_type":[0,0,0,0,0,0,0,0,0,0,0,0,0,0,0,0,0],"sum_hessian":[2.7E1,1.6E1,1.1E1,7E0,9E0,9E0,2E0,5E0,2E0,8E0,1E0,6E0,3E0,4E0,2E0,3E0,1E0],"tree_param":{"num_deleted":"0","num_feature":"24","num_nodes":"17","size_leaf_vector":"1"}},{"base_weights":[-3.4850664E0,-3.2646294E1,1.1290735E2,1.6071165E1,-6.894956E0,1.2402954E0,1.2952764E1,-4.4632792E0,5.7849537E1,9.669513E0,2.1972271E1,-6.0252733E0,5.8841705E1,2.072697E0,8.409296E0],"categories":[],"categories_nodes":[],"categories_segments":[],"categories_sizes":[],"default_left":[0,0,0,0,0,0,0,0,0,0,0,0,0,0,0],"id":15,"left_children":[1,3,5,7,-1,-1,-1,-1,9,-1,11,-1,13,-1,-1],"loss_changes":[1.01714914E5,4.381896E4,7.706297E3,3.0545305E4,0E0,0E0,0E0,0E0,7.0377656E3,0E0,1.8696264E4,0E0,1.5826875E3,0E0,0E0],"parents":[2147483647,0,0,1,1,2,2,3,3,8,8,10,10,12,12],"right_children":[2,4,6,8,-1,-1,-1,-1,10,-1,12,-1,14,-1,-1],"split_conditions":[6.5E1,3.6E-1,2E0,5E1,-6.894956E0,1.2402954E0,1.2952764E1,-4.4632792E0,5.1E1,9.669513E0,5.3E1,-6.0252733E0,1E0,2.072697E0,8.409296E0],"split_indices":[2,1,21,2,0,0,0,0,2,0,2,0,3,0,0],"split_type":[0,0,0,0,0,0,0,0,0,0,0,0,0,0,0],"sum_hessian":[2.8E1,2.3E1,5E0,1E1,1.3E1,1E0,4E0,4E0,6E0,2E0,4E0,1E0,3E0,2E0,1E0],"tree_param":{"num_deleted":"0","num_feature":"24","num_nodes":"15","size_leaf_vector":"1"}},{"base_weights":[2.9264095E0,-4.8304565E1,7.008027E1,-5.5030056E1,-2.0157373E1,9.928329E1,-5.86909E0,-5.7688246E0,-9.065903E-1,6.4450717E0,-5.8672075E0,5.206835E1,1.6764235E1,2.6958017E1,8.326624E0,3.7334924E0,-9.963257E-1],"categories":[],"categories_nodes":[],"categories_segments":[],"categories_sizes":[],"default_left":[0,0,0,0,0,0,0,0,0,0,0,0,0,0,0,0,0],"id":16,"left_children":[1,3,5,7,9,11,-1,-1,-1,-1,-1,13,-1,15,-1,-1,-1],"loss_changes":[1.03264445E5,1.7329648E3,5.4916574E4,7.3158984E2,2.004584E4,2.5675844E4,0E0,0E0,0E0,0E0,0E0,3.4713008E3,0E0,2.8076074E3,0E0,0E0,0E0],"parents":[2147483647,0,0,1,1,2,2,3,3,4,4,5,5,11,11,13,13],"right_children":[2,4,6,8,10,12,-1,-1,-1,-1,-1,14,-1,16,-1,-1,-1],"split_conditions":[5.5E1,1E0,1E0,5E-1,3.6E-1,3.6E-1,-5.86909E0,-5.7688246E0,-9.065903E-1,6.4450717E0,-5.8672075E0,2.6E1,1.6764235E1,2.5E1,8.326624E0,3.7334924E0,-9.963257E-1],"split_indices":[2,6,18,1,1,1,0,0,0,0,0,21,0,21,0,0,0],"split_type":[0,0,0,0,0,0,0,0,0,0,0,0,0,0,0,0,0],"sum_hessian":[2.8E1,1.6E1,1.2E1,1.2E1,4E0,1E1,2E0,1.1E1,1E0,1E0,3E0,7E0,3E0,5E0,2E0,4E0,1E0],"tree_param":{"num_deleted":"0","num_feature":"24","num_nodes":"17","size_leaf_vector":"1"}},{"base_weights":[4.980319E0,3.6150204E1,-7.467386E0,-4.7500942E1,8.4264206E1,-5.0118704E0,-1.0779434E0,3.6864326E1,1.3245488E2,5.5686287E1,-5.4355683E0,1.535781E1,5.1431255E0,1.4521058E0,6.615452E0],"categories":[],"categories_nodes":[],"categories_segments":[],"categories_sizes":[],"default_left":[0,0,0,0,0,0,0,0,0,0,0,0,0,0,0],"id":17,"left_children":[1,3,-1,5,7,-1,-1,9,11,13,-1,-1,-1,-1,-1],"loss_changes":[7.947401E4,9.675666E4,0E0,2.041211E1,2.853404E4,0E0,0E0,1.8485975E4,3.0565938E3,2.0834062E3,0E0,0E0,0E0,0E0,0E0],"parents":[2147483647,0,0,1,1,3,3,4,4,7,7,8,8,9,9],"right_children":[2,4,-1,6,8,-1,-1,10,12,14,-1,-1,-1,-1,-1],"split_conditions":[1E0,5E1,-7.467386E0,1E0,3.3E-1,-5.0118704E0,-1.0779434E0,3.2E-1,1E0,1.8E1,-5.4355683E0,1.535781E1,5.1431255E0,1.4521058E0,6.615452E0],"split_indices":[18,2,0,3,1,0,0,1,6,21,0,0,0,0,0],"split_type":[0,0,0,0,0,0,0,0,0,0,0,0,0,0,0],"sum_hessian":[3E1,2.2E1,8E0,8E0,1.4E1,7E0,1E0,8E0,6E0,7E0,1E0,4E0,2E0,2E0,5E0],"tree_param":{"num_deleted":"0","num_feature":"24","num_nodes":"15","size_leaf_vector":"1"}},{"base_weights":[-1.6437656E1,6.006477E0,-6.2426567E1,-3.200541E1,6.0800705E1,-6.8036194E0,-3.4699708E-1,-4.1579582E1,-0E0,9.1900027E-1,6.5478294E1,-4.428694E1,-6.106674E-1,5.8656616E0,-3.9195924E0,7.1018867E0,1.0847138E0,-1.6031332E0,-4.9355495E1,-5.3334594E0,-1.0240463E0],"categories":[],"categories_nodes":[],"categories_segments":[],"categories_sizes":[],"default_left":[0,0,0,0,0,0,0,0,0,0,0,0,0,0,0,0,0,0,0,0,0],"id":18,"left_children":[1,3,5,7,9,-1,-1,11,13,-1,15,17,-1,-1,-1,-1,-1,-1,19,-1,-1],"loss_changes":[3.1622502E4,4.5829406E4,2.713629E3,3.9721133E3,1.1976367E3,0E0,0E0,4.379629E2,1.1490158E4,0E0,1.2418203E3,1.7076953E2,0E0,0E0,0E0,0E0,0E0,0E0,2.2545117E2,0E0,0E0],"parents":[2147483647,0,0,1,1,2,2,3,3,4,4,7,7,8,8,10,10,11,11,18,18],"right_children":[2,4,6,8,10,-1,-1,12,14,-1,16,18,-1,-1,-1,-1,-1,-1,20,-1,-1],"split_conditions":[1E0,5.3E1,6.2E-1,1E0,2E0,-6.8036194E0,-3.4699708E-1,4.2E-1,3.6E-1,9.1900027E-1,1E0,3.2E-1,-6.106674E-1,5.8656616E0,-3.9195924E0,7.1018867E0,1.0847138E0,-1.6031332E0,1E0,-5.3334594E0,-1.0240463E0],"split_indices":[18,2,1,6,21,0,0,1,1,0,6,1,0,0,0,0,0,0,3,0,0],"split_type":[0,0,0,0,0,0,0,0,0,0,0,0,0,0,0,0,0,0,0,0,0],"sum_hessian":[2.9E1,2E1,9E0,1.2E1,8E0,8E0,1E0,9E0,3E0,1E0,7E0,8E0,1E0,1E0,2E0,6E0,1E0,2E0,6E0,5E0,1E0],"tree_param":{"num_deleted":"0","num_feature":"24","num_nodes":"21","size_leaf_vector":"1"}},{"base_weights":[5.4385214E0,-1.600037E1,6.6629845E1,2.6857891E1,-5.396239E1,1.3822443E1,-2.0372193E0,-1.4962586E0,3.9808334E1,-5.68588E0,-9.999161E-1,5.0873455E1,-1.6323761E0,1.456192E0,7.321663E0],"categories":[],"categories_nodes":[],"categories_segments":[],"categories_sizes":[],"default_left":[0,0,0,0,0,0,0,0,0,0,0,0,0,0,0],"id":19,"left_children":[1,3,5,7,9,-1,-1,-1,11,-1,-1,13,-1,-1,-1],"loss_changes":[3.5427977E4,3.4124562E4,4.7007312E4,6.1358013E3,4.9785938E2,0E0,0E0,0E0,5.9720615E3,0E0,0E0,4.1741367E3,0E0,0E0,0E0],"parents":[2147483647,0,0,1,1,2,2,3,3,4,4,8,8,11,11],"right_children":[2,4,6,8,10,-1,-1,-1,12,-1,-1,14,-1,-1,-1],"split_conditions":[5E-1,3.6E-1,5.6E-1,5E1,1E0,1.3822443E1,-2.0372193E0,-1.4962586E0,2.5E1,-5.68588E0,-9.999161E-1,1.8E1,-1.6323761E0,1.456192E0,7.321663E0],"split_indices":[1,1,1,2,3,0,0,0,21,0,0,21,0,0,0],"split_type":[0,0,0,0,0,0,0,0,0,0,0,0,0,0,0],"sum_hessian":[2.5E1,1.9E1,6E0,9E0,1E1,3E0,3E0,2E0,7E0,9E0,1E0,6E0,1E0,3E0,3E0],"tree_param":{"num_deleted":"0","num_feature":"24","num_nodes":"15","size_leaf_vector":"1"}},{"base_weights":[-0E0,2.4098215E1,-5.3963734E1,-2.9953988E0,6.304585E1,-5.9514736E1,-2.2778626E-1,1.5196611E1,1.07528984E2,-6.685351E0,-2.3332276E0,-1.9519861E1,6.965853E0,1.2797365E1,4.2759766E1,9.90859E-1,-4.4108357E0,5.206296E0,9.576691E-1],"categories":[],"categories_nodes":[],"categories_segments":[],"categories_sizes":[],"default_left":[0,0,0,0,0,0,0,0,0,0,0,0,0,0,0,0,0,0,0],"id":20,"left_children":[1,3,5,-1,7,9,-1,11,13,-1,-1,15,-1,-1,17,-1,-1,-1,-1],"loss_changes":[3.7823242E4,4.415804E4,2.1376465E3,0E0,2.3294105E4,1.1350586E2,0E0,1.4845498E4,1.6193203E3,0E0,0E0,4.2260576E3,0E0,0E0,1.1933594E2,0E0,0E0,0E0,0E0],"parents":[2147483647,0,0,1,1,2,2,4,4,5,5,7,7,8,8,11,11,14,14],"right_children":[2,4,6,-1,8,10,-1,12,14,-1,-1,16,-1,-1,18,-1,-1,-1,-1],"split_conditions":[1E0,5E1,6.2E-1,-2.9953988E0,3.3E-1,1E0,-2.2778626E-1,2.6E1,1E0,-6.685351E0,-2.3332276E0,1.8E1,6.965853E0,1.2797365E1,5.1E1,9.90859E-1,-4.4108357E0,5.206296E0,9.576691E-1],"split_indices":[18,2,1,0,1,3,0,21,6,0,0,21,0,0,2,0,0,0,0],"split_type":[0,0,0,0,0,0,0,0,0,0,0,0,0,0,0,0,0,0,0],"sum_hessian":[2.7E1,1.9E1,8E0,8E0,1.1E1,7E0,1E0,6E0,5E0,5E0,2E0,4E0,2E0,3E0,2E0,2E0,2E0,1E0,1E0],"tree_param":{"num_deleted":"0","num_feature":"24","num_nodes":"19","size_leaf_vector":"1"}},{"base_weights":[2.0357044E0,2.3480043E1,-5.3885147E1,-2.1525993E1,6.6806076E1,-3.4002934E0,-7.4021187E0,-3.6735367E1,2.9610788E1,4.1537197E1,1.1867735E1,-3.9881027E1,-3.2850343E-1,5.62352E0,-9.319016E-1,1.2734956E0,5.2982497E0,-1.196816E0,-4.635729E1,-5.16357E0,-7.4826205E-1],"categories":[],"categories_nodes":[],"categories_segments":[],"categories_sizes":[],"default_left":[0,0,0,0,0,0,0,0,0,0,0,0,0,0,0,0,0,0,0,0,0],"id":21,"left_children":[1,3,5,7,9,-1,-1,11,13,15,-1,17,-1,-1,-1,-1,-1,-1,19,-1,-1],"loss_changes":[3.46904E4,4.2613055E4,1.4573242E2,9.678729E3,8.687418E3,0E0,0E0,6.001699E2,3.868087E3,1.9635352E3,0E0,5.997295E2,0E0,0E0,0E0,0E0,0E0,0E0,5.492168E2,0E0,0E0],"parents":[2147483647,0,0,1,1,2,2,3,3,4,4,7,7,8,8,9,9,11,11,18,18],"right_children":[2,4,6,8,10,-1,-1,12,14,16,-1,18,-1,-1,-1,-1,-1,-1,20,-1,-1],"split_conditions":[1E0,5.3E1,5.5E1,1E0,3.6E-1,-3.4002934E0,-7.4021187E0,3.9E-1,3.6E-1,1.8E1,1.1867735E1,3.2E-1,-3.2850343E-1,5.62352E0,-9.319016E-1,1.2734956E0,5.2982497E0,-1.196816E0,1E0,-5.16357E0,-7.4826205E-1],"split_indices":[18,2,2,7,1,0,0,1,1,21,0,1,0,0,0,0,0,0,3,0,0],"split_type":[0,0,0,0,0,0,0,0,0,0,0,0,0,0,0,0,0,0,0,0,0],"sum_hessian":[2.7E1,2E1,7E0,1E1,1E1,5E0,2E0,8E0,2E0,8E0,2E0,7E0,1E0,1E0,1E0,3E0,5E0,2E0,5E0,4E0,1E0],"tree_param":{"num_deleted":"0","num_feature":"24","num_nodes":"21","size_leaf_vector":"1"}},{"base_weights":[6.8118978E0,2.7564997E1,-4.5297337E1,-3.295678E1,6.30734E1,-5.149327E0,-0E0,-3.6058952E1,-3.1207886E-1,1.9238115E1,9.71839E0,-3.8865948E0,-7.10849E-1,3.7733723E1,-4.3367767E0,4.905132E0,8.399028E-1],"categories":[],"categories_nodes":[],"categories_segments":[],"categories_sizes":[],"default_left":[0,0,0,0,0,0,0,0,0,0,0,0,0,0,0,0,0],"id":22,"left_children":[1,3,5,7,9,-1,-1,11,-1,13,-1,-1,-1,15,-1,-1,-1],"loss_changes":[3.0358516E4,4.5209906E4,2.1461074E3,4.3201953E2,1.6986426E4,0E0,0E0,6.269629E1,0E0,9.713793E3,0E0,0E0,0E0,1.2927539E3,0E0,0E0,0E0],"parents":[2147483647,0,0,1,1,2,2,3,3,4,4,7,7,9,9,13,13],"right_children":[2,4,6,8,10,-1,-1,12,-1,14,-1,-1,-1,16,-1,-1,-1],"split_conditions":[1E0,5E1,6.2E-1,4E-1,3.3E-1,-5.149327E0,-0E0,1E0,-3.1207886E-1,3.2E-1,9.71839E0,-3.8865948E0,-7.10849E-1,3E-1,-4.3367767E0,4.905132E0,8.399028E-1],"split_indices":[18,2,1,1,1,0,0,3,0,1,0,0,0,1,0,0,0],"split_type":[0,0,0,0,0,0,0,0,0,0,0,0,0,0,0,0,0],"sum_hessian":[2.6E1,1.9E1,7E0,7E0,1.2E1,6E0,1E0,6E0,1E0,6E0,6E0,5E0,1E0,5E0,1E0,3E0,2E0],"tree_param":{"num_deleted":"0","num_feature":"24","num_nodes":"17","size_leaf_vector":"1"}},{"base_weights":[3.8551788E0,1.9160912E1,-4.408501E1,-2.3192013E1,5.0650784E1,-6.9691973E0,-2.736852E1,-2.6717125E1,-4.3943787E-1,2.4014091E1,8.746668E0,-4.057785E-1,-3.0219111E0,-2.89725E0,-2.9647523E-1,3.7940697E1,-4.1199374E0,1.997056E1,5.9567404E0,4.3016195E0,-1.0563049E0,7.839091E-1,-1.6371247E0],"categories":[],"categories_nodes":[],"categories_segments":[],"categories_sizes":[],"default_left":[0,0,0,0,0,0,0,0,0,0,0,0,0,0,0,0,0,0,0,0,0,0,0],"id":23,"left_children":[1,3,5,7,9,-1,11,13,-1,15,-1,-1,-1,-1,-1,17,-1,19,-1,-1,21,-1,-1],"loss_changes":[2.1265361E4,3.065313E4,6.0374023E2,3.896748E2,1.009066E4,0E0,1.04688965E2,1.8298145E2,0E0,9.720658E3,0E0,0E0,0E0,0E0,0E0,1.5217949E3,0E0,3.1627024E3,0E0,0E0,7.1592633E2,0E0,0E0],"parents":[2147483647,0,0,1,1,2,2,3,3,4,4,6,6,7,7,9,9,15,15,17,17,20,20],"right_children":[2,4,6,8,10,-1,12,14,-1,16,-1,-1,-1,-1,-1,18,-1,20,-1,-1,22,-1,-1],"split_conditions":[1E0,5E1,3.9E-1,2.1E1,3.3E-1,-6.9691973E0,4.3E-1,4.2E-1,-4.3943787E-1,3.2E-1,8.746668E0,-4.057785E-1,-3.0219111E0,-2.89725E0,-2.9647523E-1,2.6E1,-4.1199374E0,3E-1,5.9567404E0,4.3016195E0,1.8E1,7.839091E-1,-1.6371247E0],"split_indices":[18,2,1,21,1,0,1,1,0,1,0,0,0,0,0,21,0,1,0,0,21,0,0],"split_type":[0,0,0,0,0,0,0,0,0,0,0,0,0,0,0,0,0,0,0,0,0,0,0],"sum_hessian":[2.7E1,2.1E1,6E0,9E0,1.2E1,1E0,5E0,7E0,2E0,8E0,4E0,1E0,4E0,6E0,1E0,7E0,1E0,5E0,2E0,2E0,3E0,2E0,1E0],"tree_param":{"num_deleted":"0","num_feature":"24","num_nodes":"23","size_leaf_vector":"1"}},{"base_weights":[3.6314096E0,-9.9215145E0,4.835796E1,4.1732454E0,-2.0006231E1,9.550995E0,-9.633522E0,-2.8071373E0,-3.6424614E1,-1.3210063E0,-0E0,-2.7291965E1,4.5614304E1,-2.5203488E0,-6.6207366E0,-9.734711E0,-4.1165543E1,5.9666667E0,-0E0,2.4163818E-1,-1.4626579E0,-4.968443E0,-5.304443E-1],"categories":[],"categories_nodes":[],"categories_segments":[],"categories_sizes":[],"default_left":[0,0,0,0,0,0,0,0,0,0,0,0,0,0,0,0,0,0,0,0,0,0,0],"id":24,"left_children":[1,3,5,-1,7,-1,9,11,13,-1,-1,15,17,-1,-1,19,21,-1,-1,-1,-1,-1,-1],"loss_changes":[1.8251057E4,1.2707338E4,2.0490375E4,0E0,5.3492183E3,0E0,1.5229828E2,1.419479E4,1.21625E3,0E0,0E0,1.2934194E3,2.3576738E3,0E0,0E0,3.9360217E2,6.8349365E2,0E0,0E0,0E0,0E0,0E0,0E0],"parents":[2147483647,0,0,1,1,2,2,4,4,6,6,7,7,8,8,11,11,12,12,15,15,16,16],"right_children":[2,4,6,-1,8,-1,10,12,14,-1,-1,16,18,-1,-1,20,22,-1,-1,-1,-1,-1,-1],"split_conditions":[5E-1,3E-1,5.6E-1,4.1732454E0,3.6E-1,9.550995E0,6.2E-1,3.5E-1,5.5E1,-1.3210063E0,-0E0,3.2E-1,5.1E1,-2.5203488E0,-6.6207366E0,1.8E1,1E0,5.9666667E0,-0E0,2.4163818E-1,-1.4626579E0,-4.968443E0,-5.304443E-1],"split_indices":[1,1,1,0,1,0,1,1,2,0,0,1,2,0,0,21,3,0,0,0,0,0,0],"split_type":[0,0,0,0,0,0,0,0,0,0,0,0,0,0,0,0,0,0,0,0,0,0,0],"sum_hessian":[2.8E1,2.2E1,6E0,3E0,1.9E1,3E0,3E0,1E1,9E0,2E0,1E0,7E0,3E0,8E0,1E0,4E0,3E0,2E0,1E0,1E0,3E0,2E0,1E0],"tree_param":{"num_deleted":"0","num_feature":"24","num_nodes":"23","size_leaf_vector":"1"}}]},"name":"gbtree"},"learner_model_param":{"base_score":"5.677353E2","boost_from_average":"1","num_class":"0","num_feature":"24","num_target":"1"},"objective":{"name":"reg:squarederror","reg_loss_param":{"scale_pos_weight":"1"}}},"version":[3,0,2]}