{"learner":{"attributes":{"scikit_learn":"{\"_estimator_type\": \"regressor\"}"},"feature_names":[],"feature_types":[],"gradient_booster":{"model":{"gbtree_model_param":{"num_parallel_tree":"1","num_trees":"25"},"iteration_indptr":[0,1,2,3,4,5,6,7,8,9,10,11,12,13,14,15,16,17,18,19,20,21,22,23,24,25],"tree_info":[0,0,0,0,0,0,0,0,0,0,0,0,0,0,0,0,0,0,0,0,0,0,0,0,0],"trees":[{"base_weights":[1.6745106E1,-8.7178566E1,8.74309E1,-1.2007936E2,9.458338E0,1.994203E2,-5.247368E1,-2.3888886E0,-1.286842E2,-5.7466663E1,9.2E1,1.3778947E2,3.9273335E1,-9.751111E1,9.213335E1,-1.378125E1,-5.8749995E0,-1.4888886E0,-7.922222E0,1.1144445E1,1.4333336E0,3.1222227E1,1.7326192E2,-1.2372222E1,4.250004E0,1.3850002E2,-4.4166665E0,6.473334E1,-6.5666666E0,3.2333336E0,1.8123077E1,1.0733334E1,-6.422222E0,2.1144445E1,-3.7666664E0,7.333336E-1,7.6E0],"categories":[],"categories_nodes":[],"categories_segments":[],"categories_sizes":[],"default_left":[0,0,0,0,0,0,0,0,0,0,0,0,0,0,0,0,0,0,0,0,0,0,0,0,0,0,0,0,0,0,0,0,0,0,0,0,0],"id":0,"left_children":[1,3,5,7,9,11,13,-1,15,17,19,21,-1,23,25,-1,-1,-1,-1,-1,-1,27,29,-1,31,33,-1,35,-1,-1,-1,-1,-1,-1,-1,-1,-1],"loss_changes":[5.071464E5,9.071294E4,6.5358E5,1.3544781E4,4.965241E4,2.1725581E5,1.3275275E5,0E0,3.0499062E3,2.9814316E3,3.8144805E3,6.539175E4,0E0,4.1132266E4,3.818764E4,0E0,0E0,0E0,0E0,0E0,0E0,2.3727281E4,8.7949375E3,0E0,3.534212E4,6.023483E4,0E0,2.2595312E3,0E0,0E0,0E0,0E0,0E0,0E0,0E0,0E0,0E0],"parents":[2147483647,0,0,1,1,2,2,3,3,4,4,5,5,6,6,8,8,9,9,10,10,11,11,13,13,14,14,21,21,22,22,24,24,25,25,27,27],"right_children":[2,4,6,8,10,12,14,-1,16,18,20,22,-1,24,26,-1,-1,-1,-1,-1,-1,28,30,-1,32,34,-1,36,-1,-1,-1,-1,-1,-1,-1,-1,-1],"split_conditions":[1E0,1E0,4.1E-1,3.7E-1,3.5E1,1E0,6.5E1,-2.3888886E0,3.4E1,4.1E1,4.7E1,3E1,3.9273335E1,1E0,5.1E-1,-1.378125E1,-5.8749995E0,-1.4888886E0,-7.922222E0,1.1144445E1,1.4333336E0,2.5E1,2.8E-1,-1.2372222E1,5.1E-1,8.7E1,-4.4166665E0,1.7E1,-6.5666666E0,3.2333336E0,1.8123077E1,1.0733334E1,-6.422222E0,2.1144445E1,-3.7666664E0,7.333336E-1,7.6E0],"split_indices":[18,4,1,1,2,4,2,0,0,20,2,2,0,5,1,0,0,0,0,0,0,0,1,0,1,2,0,21,0,0,0,0,0,0,0,0,0],"split_type":[0,0,0,0,0,0,0,0,0,0,0,0,0,0,0,0,0,0,0,0,0,0,0,0,0,0,0,0,0,0,0,0,0,0,0,0,0],"sum_hessian":[6.7E1,2.7E1,4E1,2E1,7E0,2.2E1,1.8E1,2E0,1.8E1,4E0,3E0,1.8E1,4E0,1.4E1,4E0,1.5E1,3E0,2E0,2E0,2E0,1E0,5E0,1.3E1,1.1E1,3E0,3E0,1E0,4E0,1E0,1E0,1.2E1,1E0,2E0,2E0,1E0,1E0,3E0],"tree_param":{"num_deleted":"0","num_feature":"24","num_nodes":"37","size_leaf_vector":"1"}},{"base_weights":[1.4713505E1,9.626211E1,-6.968704E1,-6.454049E1,1.9146075E2,-9.5681885E1,5.8070953E1,-8.312904E1,7.6761107E0,1.299472E2,3.6131466E1,-1.0892051E2,1.2176111E1,-5.4372916E0,1.2913611E2,-8.9181496E1,-5.7760394E-1,3.3705566E1,1.6682243E2,-6.540122E1,-1.411941E1,1.9248518E1,-2.795555E0,-4.7355553E1,-1.0560267E1,6.640001E1,-6.238333E0,3.0716674E0,1.7594872E1,-8.407584E0,-1.7706661E1,-1.6962961E0,-6.0296297E0,8.366668E0,2.5333345E0,-3.0191662E1,1.3616669E0,-5.4222184E-1,-3.4974072E0],"categories":[],"categories_nodes":[],"categories_segments":[],"categories_sizes":[],"default_left":[0,0,0,0,0,0,0,0,0,0,0,0,0,0,0,0,0,0,0,0,0,0,0,0,0,0,0,0,0,0,0,0,0,0,0,0,0,0,0],"id":1,"left_children":[1,3,5,7,9,11,13,15,-1,17,-1,19,-1,-1,21,23,-1,25,27,29,-1,-1,-1,31,-1,33,-1,-1,-1,-1,35,-1,-1,-1,-1,37,-1,-1,-1],"loss_changes":[4.4733684E5,5.1816184E5,1.1201797E5,4.0558625E4,1.700065E5,9.09215E4,5.5340375E4,4.628211E3,0E0,5.3706344E4,0E0,2.6250375E4,0E0,0E0,4.6010125E4,1.7894766E3,0E0,2.3011777E4,8.4678125E3,9.581199E3,0E0,0E0,0E0,5.5741406E2,0E0,8.808633E2,0E0,0E0,0E0,0E0,2.4493438E3,0E0,0E0,0E0,0E0,8.221167E1,0E0,0E0,0E0],"parents":[2147483647,0,0,1,1,2,2,3,3,4,4,5,5,6,6,7,7,9,9,11,11,14,14,15,15,17,17,18,18,19,19,23,23,25,25,30,30,35,35],"right_children":[2,4,6,8,10,12,14,16,-1,18,-1,20,-1,-1,22,24,-1,26,28,30,-1,-1,-1,32,-1,34,-1,-1,-1,-1,36,-1,-1,-1,-1,38,-1,-1,-1],"split_conditions":[4.1E-1,1E0,1E0,1E0,1E0,7.5E1,1.7E1,2.4E1,7.6761107E0,3E1,3.6131466E1,1.7E1,1.2176111E1,-5.4372916E0,5.1E-1,3.7E-1,-5.7760394E-1,2.5E1,2.8E-1,1E0,-1.411941E1,1.9248518E1,-2.795555E0,3.4E1,-1.0560267E1,1E0,-6.238333E0,3.0716674E0,1.7594872E1,-8.407584E0,4E1,-1.6962961E0,-6.0296297E0,8.366668E0,2.5333345E0,4.3E-1,1.3616669E0,-5.4222184E-1,-3.4974072E0],"split_indices":[1,18,5,4,4,2,21,21,0,2,0,21,0,0,1,1,0,0,1,4,0,0,0,0,0,6,0,0,0,0,2,0,0,0,0,1,0,0,0],"split_type":[0,0,0,0,0,0,0,0,0,0,0,0,0,0,0,0,0,0,0,0,0,0,0,0,0,0,0,0,0,0,0,0,0,0,0,0,0,0,0],"sum_hessian":[6.3E1,3.2E1,3.1E1,1.2E1,2E1,2.6E1,5E0,1.1E1,1E0,1.6E1,4E0,2.5E1,1E0,2E0,3E0,1E1,1E0,5E0,1.1E1,1.2E1,1.3E1,2E0,1E0,4E0,6E0,4E0,1E0,1E0,1E1,8E0,4E0,2E0,2E0,2E0,2E0,3E0,1E0,1E0,2E0],"tree_param":{"num_deleted":"0","num_feature":"24","num_nodes":"39","size_leaf_vector":"1"}},{"base_weights":[3.6647158E0,-6.598225E1,5.6406612E1,-1.093116E1,-2.0809364E1,1.354535E2,-2.5345892E1,4.1481678E1,-6.750136E1,-2.47238E1,1.9478282E2,-9.248228E0,3.1433504E1,6.8983345E1,-5.926417E0,-9.232766E0,-1.2136559E1,-5.983778E1,7.292305E0,1.4945297E1,3.095079E1,-1.1003908E1,1.0969995E2,8.449168E0,2.3644462E0,9.234242E0,-7.941036E0,-1.2407542E0,-8.565543E0,-4.2207996E1,5.3405575E1,1.6563845E1,-2.655777E0,1.2935838E0,-5.6823936E0,1.1567306E1,-3.306469E0],"categories":[],"categories_nodes":[],"categories_segments":[],"categories_sizes":[],"default_left":[0,0,0,0,0,0,0,0,0,0,0,0,0,0,0,0,0,0,0,0,0,0,0,0,0,0,0,0,0,0,0,0,0,0,0,0,0],"id":2,"left_children":[1,3,5,-1,7,9,11,13,15,17,19,-1,21,23,-1,-1,25,27,-1,-1,-1,29,31,-1,-1,-1,-1,-1,-1,33,35,-1,-1,-1,-1,-1,-1],"loss_changes":[2.3876597E5,5.1879414E4,2.4308816E5,0E0,4.6557562E4,1.8622703E5,7.563959E4,2.3531588E4,1.0727672E4,2.4870746E4,2.4254938E4,0E0,3.823629E4,1.6803418E3,0E0,0E0,3.538308E4,4.5695977E3,0E0,0E0,0E0,1.827687E4,3.5582605E4,0E0,0E0,0E0,0E0,0E0,0E0,5.790378E3,2.039059E4,0E0,0E0,0E0,0E0,0E0,0E0],"parents":[2147483647,0,0,1,1,2,2,4,4,5,5,6,6,7,7,8,8,9,9,10,10,12,12,13,13,16,16,17,17,21,21,22,22,29,29,30,30],"right_children":[2,4,6,-1,8,10,12,14,16,18,20,-1,22,24,-1,-1,26,28,-1,-1,-1,30,32,-1,-1,-1,-1,-1,-1,34,36,-1,-1,-1,-1,-1,-1],"split_conditions":[3.5E1,1E0,4.1E-1,-1.093116E1,4.1E-1,1E0,4.5E1,2.5E1,1E0,1E0,1E0,-9.248228E0,1.7E1,1E0,-5.926417E0,-9.232766E0,5.1E-1,3.7E1,7.292305E0,1.4945297E1,3.095079E1,7.5E1,5.6E-1,8.449168E0,2.3644462E0,9.234242E0,-7.941036E0,-1.2407542E0,-8.565543E0,2.5E1,8.7E1,1.6563845E1,-2.655777E0,1.2935838E0,-5.6823936E0,1.1567306E1,-3.306469E0],"split_indices":[2,18,1,0,1,18,2,0,5,4,4,0,21,6,0,0,1,2,0,0,0,2,1,0,0,0,0,0,0,0,2,0,0,0,0,0,0],"split_type":[0,0,0,0,0,0,0,0,0,0,0,0,0,0,0,0,0,0,0,0,0,0,0,0,0,0,0,0,0,0,0,0,0,0,0,0,0],"sum_hessian":[6.3E1,2.7E1,3.6E1,1.3E1,1.4E1,1.8E1,1.8E1,6E0,8E0,5E0,1.3E1,8E0,1E1,5E0,1E0,5E0,3E0,4E0,1E0,1.1E1,2E0,7E0,3E0,3E0,2E0,1E0,2E0,2E0,2E0,5E0,2E0,2E0,1E0,1E0,4E0,1E0,1E0],"tree_param":{"num_deleted":"0","num_feature":"24","num_nodes":"37","size_leaf_vector":"1"}},{"base_weights":[-2.494124E0,-7.323242E1,4.6799904E1,-8.600004E1,6.8056703E0,1.4930873E2,-4.0365784E1,-1.0016035E1,-4.756832E1,-2.4881363E1,6.92769E0,8.647196E1,3.1952463E1,-7.745637E1,4.287242E1,-1.1774796E0,-5.5398643E1,-4.4680266E0,-1.721639E-1,3.9453094E1,1.4057436E1,-9.634606E1,1.098894E1,1.2515763E2,-6.9452195E0,-1.0991821E0,-6.0134478E0,5.211025E1,-5.783686E0,-2.1615465E0,-9.955375E0,1.7340277E1,-3.1411455E0,4.517792E-1,5.7549488E1,4.5125427E0,-5.630096E0,6.708532E0,2.08066E0],"categories":[],"categories_nodes":[],"categories_segments":[],"categories_sizes":[],"default_left":[0,0,0,0,0,0,0,0,0,0,0,0,0,0,0,0,0,0,0,0,0,0,0,0,0,0,0,0,0,0,0,0,0,0,0,0,0,0,0],"id":3,"left_children":[1,3,5,7,9,11,13,-1,15,17,-1,19,-1,21,23,-1,25,-1,-1,27,-1,29,-1,31,-1,-1,-1,33,35,-1,-1,-1,-1,-1,37,-1,-1,-1,-1],"loss_changes":[2.5462167E5,3.1638125E4,3.9078753E5,8.646219E3,1.1843321E4,1.842565E5,7.759014E4,0E0,1.5342969E3,1.5252158E3,0E0,3.42551E4,0E0,7.0681086E4,8.2912234E4,0E0,4.5550586E2,0E0,0E0,6.258712E3,0E0,1.077625E3,0E0,4.3925266E4,0E0,0E0,0E0,1.5005996E3,1.031185E4,0E0,0E0,0E0,0E0,0E0,6.173418E2,0E0,0E0,0E0,0E0],"parents":[2147483647,0,0,1,1,2,2,3,3,4,4,5,5,6,6,8,8,9,9,11,11,13,13,14,14,16,16,19,19,21,21,23,23,27,27,28,28,34,34],"right_children":[2,4,6,8,10,12,14,-1,16,18,-1,20,-1,22,24,-1,26,-1,-1,28,-1,30,-1,32,-1,-1,-1,34,36,-1,-1,-1,-1,-1,38,-1,-1,-1,-1],"split_conditions":[1E0,1E0,4.1E-1,2.5E1,2.5E1,1E0,1E0,-1.0016035E1,3.4E1,2.4E1,6.92769E0,5E0,3.1952463E1,7.5E1,5.1E-1,-1.1774796E0,2.1E1,-4.4680266E0,-1.721639E-1,1E0,1.4057436E1,2E0,1.098894E1,2.5E1,-6.9452195E0,-1.0991821E0,-6.0134478E0,2.1E1,2.5E1,-2.1615465E0,-9.955375E0,1.7340277E1,-3.1411455E0,4.517792E-1,3.7E1,4.5125427E0,-5.630096E0,6.708532E0,2.08066E0],"split_indices":[18,4,1,0,0,4,5,0,0,0,0,22,0,2,1,0,2,0,0,7,0,22,0,0,0,0,0,2,0,0,0,0,0,0,2,0,0,0,0],"split_type":[0,0,0,0,0,0,0,0,0,0,0,0,0,0,0,0,0,0,0,0,0,0,0,0,0,0,0,0,0,0,0,0,0,0,0,0,0,0,0],"sum_hessian":[7.1E1,2.9E1,4.2E1,2.5E1,4E0,1.9E1,2.3E1,1.7E1,8E0,3E0,1E0,1.5E1,4E0,1.6E1,7E0,2E0,6E0,1E0,2E0,9E0,6E0,1.5E1,1E0,4E0,3E0,1E0,5E0,7E0,2E0,1E0,1.4E1,3E0,1E0,1E0,6E0,1E0,1E0,4E0,2E0],"tree_param":{"num_deleted":"0","num_feature":"24","num_nodes":"39","size_leaf_vector":"1"}},{"base_weights":[3.8199184E0,6.888166E1,-5.737995E1,-6.060456E1,1.4985362E2,-8.8253494E1,5.336574E1,-7.704045E1,6.581305E0,9.514118E1,2.9396269E1,-1.0102446E1,-3.6618687E1,1.5030513E1,-3.164912E0,-4.2789524E1,-8.819222E0,2.848798E1,1.1456825E2,-1.5430014E1,-5.806024E0,-4.2024393E0,4.803603E1,-4.5697555E-1,-4.9952026E1,6.360293E0,-5.348591E0,7.486845E1,1.541743E2,-1.6068624E-1,-2.244316E0,1.0439493E1,-2.9840882E0,-1.0442231E0,-5.797455E0,8.072551E-1,9.495499E1,2.0667863E0,1.8113394E1,1.0295679E1,2.4972992E0],"categories":[],"categories_nodes":[],"categories_segments":[],"categories_sizes":[],"default_left":[0,0,0,0,0,0,0,0,0,0,0,0,0,0,0,0,0,0,0,0,0,0,0,0,0,0,0,0,0,0,0,0,0,0,0,0,0,0,0,0,0],"id":4,"left_children":[1,3,5,7,9,11,13,15,-1,17,-1,-1,19,-1,21,23,-1,25,27,29,-1,-1,31,-1,33,-1,-1,35,37,-1,-1,-1,-1,-1,-1,-1,39,-1,-1,-1,-1],"loss_changes":[2.6282497E5,3.450402E5,1.21133945E5,3.2137617E4,1.2777766E5,1.3416906E4,4.505178E4,1.5489062E2,0E0,1.6738938E4,0E0,0E0,1.9169053E3,0E0,1.3926479E4,8.6786816E2,0E0,1.784499E4,6.1802188E3,3.2840576E2,0E0,0E0,1.6655178E4,0E0,3.2040527E2,0E0,0E0,9.451926E3,1.3243766E4,0E0,0E0,0E0,0E0,0E0,0E0,0E0,1.4910156E2,0E0,0E0,0E0,0E0],"parents":[2147483647,0,0,1,1,2,2,3,3,4,4,5,5,6,6,7,7,9,9,12,12,14,14,15,15,17,17,18,18,19,19,22,22,24,24,27,27,28,28,36,36],"right_children":[2,4,6,8,10,12,14,16,-1,18,-1,-1,20,-1,22,24,-1,26,28,30,-1,-1,32,-1,34,-1,-1,36,38,-1,-1,-1,-1,-1,-1,-1,40,-1,-1,-1,-1],"split_conditions":[4.1E-1,1E0,4.4E1,1E0,1E0,1E0,2.5E1,3.8E-1,6.581305E0,3E1,2.9396269E1,-1.0102446E1,4.1E1,1.5030513E1,7.5E1,3.4E1,-8.819222E0,2.5E1,2.5E1,1E0,-5.806024E0,-4.2024393E0,8.7E1,-4.5697555E-1,2.1E1,6.360293E0,-5.348591E0,5E0,2.8E-1,-1.6068624E-1,-2.244316E0,1.0439493E1,-2.9840882E0,-1.0442231E0,-5.797455E0,8.072551E-1,1E0,2.0667863E0,1.8113394E1,1.0295679E1,2.4972992E0],"split_indices":[1,18,2,4,4,4,0,1,0,2,0,0,20,0,2,0,0,0,0,18,0,0,2,0,2,0,0,22,1,0,0,0,0,0,0,0,6,0,0,0,0],"split_type":[0,0,0,0,0,0,0,0,0,0,0,0,0,0,0,0,0,0,0,0,0,0,0,0,0,0,0,0,0,0,0,0,0,0,0,0,0,0,0,0,0],"sum_hessian":[6.4E1,3.1E1,3.3E1,1.2E1,1.9E1,2.6E1,7E0,1.1E1,1E0,1.5E1,4E0,2E1,6E0,2E0,5E0,4E0,7E0,4E0,1.1E1,4E0,2E0,3E0,2E0,1E0,3E0,3E0,1E0,7E0,4E0,2E0,2E0,1E0,1E0,1E0,2E0,2E0,5E0,1E0,3E0,4E0,1E0],"tree_param":{"num_deleted":"0","num_feature":"24","num_nodes":"41","size_leaf_vector":"1"}},{"base_weights":[6.072852E0,6.812464E1,-4.7145046E1,-5.088805E1,1.3042538E2,-7.7486946E1,3.5958405E1,-6.898134E1,6.25224E0,9.239667E1,2.5819107E1,-4.3305023E1,-1.079531E1,-7.0337887E0,1.402848E1,-7.7101654E1,-0E0,-1.9118093E1,1.0887318E2,-5.687347E1,3.584465E0,-3.2987167E1,4.55509E1,-9.92012E-1,-8.363434E0,1.9634476E0,-5.0811615E0,8.296362E1,1.58133545E1,-6.921614E0,-1.6719765E1,8.410639E0,-4.962497E0,4.8598632E-1,-4.252855E0,9.917519E0,-2.834884E0,4.9616E1,1.0720859E1,-0E0,-2.094695E0,6.3941774E0,7.5343835E-1],"categories":[],"categories_nodes":[],"categories_segments":[],"categories_sizes":[],"default_left":[0,0,0,0,0,0,0,0,0,0,0,0,0,0,0,0,0,0,0,0,0,0,0,0,0,0,0,0,0,0,0,0,0,0,0,0,0,0,0,0,0,0,0],"id":5,"left_children":[1,3,5,7,9,11,13,15,-1,17,-1,19,-1,21,-1,23,-1,25,27,29,31,33,35,-1,-1,-1,-1,37,-1,-1,39,-1,-1,-1,-1,-1,-1,41,-1,-1,-1,-1,-1],"loss_changes":[2.1466162E5,2.2947217E5,9.124703E4,2.691682E4,7.1566375E4,2.1644984E4,4.650519E4,5.9177383E3,0E0,3.376558E4,0E0,9.377354E3,0E0,1.2357779E4,0E0,2.6524453E3,0E0,4.8381616E3,4.8199062E3,3.8646875E3,2.1484285E4,2.5617026E3,1.5054096E4,0E0,0E0,0E0,0E0,3.5987656E3,0E0,0E0,1.9812195E2,0E0,0E0,0E0,0E0,0E0,0E0,3.3808203E3,0E0,0E0,0E0,0E0,0E0],"parents":[2147483647,0,0,1,1,2,2,3,3,4,4,5,5,6,6,7,7,9,9,11,11,13,13,15,15,17,17,18,18,19,19,20,20,21,21,22,22,27,27,30,30,37,37],"right_children":[2,4,6,8,10,12,14,16,-1,18,-1,20,-1,22,-1,24,-1,26,28,30,32,34,36,-1,-1,-1,-1,38,-1,-1,40,-1,-1,-1,-1,-1,-1,42,-1,-1,-1,-1,-1],"split_conditions":[4.1E-1,1E0,4.5E1,1E0,1E0,1.8E1,1.7E1,2.4E1,6.25224E0,2E0,2.5819107E1,1E0,-1.079531E1,7.5E1,1.402848E1,3.7E-1,-0E0,2.8E-1,2.5E1,1E0,5.1E-1,2.5E1,8.7E1,-9.92012E-1,-8.363434E0,1.9634476E0,-5.0811615E0,5E0,1.58133545E1,-6.921614E0,4.3E-1,8.410639E0,-4.962497E0,4.8598632E-1,-4.252855E0,9.917519E0,-2.834884E0,2.6E1,1.0720859E1,-0E0,-2.094695E0,6.3941774E0,7.5343835E-1],"split_indices":[1,18,2,4,4,21,21,21,0,22,0,5,0,2,0,1,0,1,0,4,1,0,2,0,0,0,0,22,0,0,1,0,0,0,0,0,0,2,0,0,0,0,0],"split_type":[0,0,0,0,0,0,0,0,0,0,0,0,0,0,0,0,0,0,0,0,0,0,0,0,0,0,0,0,0,0,0,0,0,0,0,0,0,0,0,0,0,0,0],"sum_hessian":[6.3E1,2.9E1,3.4E1,1E1,1.9E1,2.5E1,9E0,9E0,1E0,1.6E1,3E0,1.3E1,1.2E1,7E0,2E0,8E0,1E0,2E0,1.4E1,1E1,3E0,5E0,2E0,1E0,7E0,1E0,1E0,1.1E1,3E0,7E0,3E0,1E0,2E0,1E0,4E0,1E0,1E0,6E0,5E0,1E0,2E0,4E0,2E0],"tree_param":{"num_deleted":"0","num_feature":"24","num_nodes":"43","size_leaf_vector":"1"}},{"base_weights":[1.3407395E1,-4.805088E1,5.3145092E1,-6.2616764E1,1.0104858E1,1.16386986E2,-1.5666152E1,-7.313447E1,-3.9911556E1,6.324341E0,-1.2171534E1,8.257323E1,2.3820215E1,-5.2702587E1,7.870262E1,-8.396569E1,-2.6522782E0,-5.862554E0,-1.2215261E1,4.573059E-1,-3.3843446E0,2.7631353E1,1.0732488E2,-7.0283694E0,9.421643E0,1.5878021E1,-5.2635026E0,-9.187147E0,-3.3228405E0,-0E0,-1.6294464E0,-8.015035E-2,4.616867E-1,4.916026E1,-4.8271036E0,6.856773E1,1.4687136E1,6.410657E0,1.1178426E1,7.032084E-1,8.7074265E1,-0E0,1.6352967E0,9.614356E0,1.8363907E0],"categories":[],"categories_nodes":[],"categories_segments":[],"categories_sizes":[],"default_left":[0,0,0,0,0,0,0,0,0,0,0,0,0,0,0,0,0,0,0,0,0,0,0,0,0,0,0,0,0,0,0,0,0,0,0,0,0,0,0,0,0,0,0,0,0],"id":6,"left_children":[1,3,5,7,9,11,13,15,17,-1,19,21,-1,23,25,27,-1,-1,29,31,-1,33,35,-1,-1,-1,-1,-1,-1,-1,-1,-1,-1,37,-1,39,-1,-1,41,-1,43,-1,-1,-1,-1],"loss_changes":[1.6132281E5,2.2919629E4,1.7639706E5,1.5307969E3,8.1275396E3,6.5226594E4,7.3919484E4,3.78375E3,3.5944404E3,0E0,1.5508629E3,2.0837914E4,0E0,4.5247188E4,7.1991336E4,3.329375E2,0E0,0E0,3.159751E2,4.3721634E1,0E0,1.3816129E4,7.244672E3,0E0,0E0,0E0,0E0,0E0,0E0,0E0,0E0,0E0,0E0,2.3130928E3,0E0,8.0276484E3,0E0,0E0,1.5996738E2,0E0,1.4008125E3,0E0,0E0,0E0,0E0],"parents":[2147483647,0,0,1,1,2,2,3,3,4,4,5,5,6,6,7,7,8,8,10,10,11,11,13,13,14,14,15,15,18,18,19,19,21,21,22,22,33,33,35,35,38,38,40,40],"right_children":[2,4,6,8,10,12,14,16,18,-1,20,22,-1,24,26,28,-1,-1,30,32,-1,34,36,-1,-1,-1,-1,-1,-1,-1,-1,-1,-1,38,-1,40,-1,-1,42,-1,44,-1,-1,-1,-1],"split_conditions":[1E0,1E0,4.1E-1,1E0,2.4E1,1E0,1E0,1E0,2.4E1,6.324341E0,2.5E1,3E1,2.3820215E1,7.5E1,5.1E-1,4.4E-1,-2.6522782E0,-5.862554E0,2.4E1,4.5E-1,-3.3843446E0,2.5E1,2.5E1,-7.0283694E0,9.421643E0,1.5878021E1,-5.2635026E0,-9.187147E0,-3.3228405E0,-0E0,-1.6294464E0,-8.015035E-2,4.616867E-1,1E0,-4.8271036E0,5E0,1.4687136E1,6.410657E0,2.1E1,7.032084E-1,1E0,-0E0,1.6352967E0,9.614356E0,1.8363907E0],"split_indices":[18,4,1,7,0,4,5,3,2,0,0,2,0,2,1,1,0,0,0,1,0,0,0,0,0,0,0,0,0,0,0,0,0,6,0,22,0,0,2,0,6,0,0,0,0],"split_type":[0,0,0,0,0,0,0,0,0,0,0,0,0,0,0,0,0,0,0,0,0,0,0,0,0,0,0,0,0,0,0,0,0,0,0,0,0,0,0,0,0,0,0,0,0],"sum_hessian":[6.4E1,2.5E1,3.9E1,2E1,5E0,2E1,1.9E1,1.2E1,8E0,1E0,4E0,1.7E1,3E0,1.4E1,5E0,9E0,3E0,4E0,4E0,3E0,1E0,6E0,1.1E1,1.3E1,1E0,3E0,2E0,7E0,2E0,1E0,3E0,2E0,1E0,5E0,1E0,7E0,4E0,3E0,2E0,2E0,5E0,1E0,1E0,4E0,1E0],"tree_param":{"num_deleted":"0","num_feature":"24","num_nodes":"45","size_leaf_vector":"1"}},{"base_weights":[1.2900059E1,-4.146422E1,5.46125E1,-6.1474155E1,1.3118645E1,1.1743808E2,-1.0969329E1,-2.9995855E1,-6.715649E1,-3.0232452E1,6.5277855E1,6.822961E1,2.307342E1,-4.6901314E1,5.148112E1,-4.8996787E0,-1.1746426E0,-7.3038925E1,-2.9999447E0,-7.480672E-2,-4.797269E0,8.244647E0,4.386017E-1,1.2689244E1,9.711989E0,-6.7893364E1,8.950562E0,1.0254919E2,-4.912603E0,-7.685299E0,-1.1135094E0,3.4570087E1,-4.585748E0,-1.4851006E0,-7.12125E0,1.4687169E1,-3.4870408E0,-0E0,4.300527E0],"categories":[],"categories_nodes":[],"categories_segments":[],"categories_sizes":[],"default_left":[0,0,0,0,0,0,0,0,0,0,0,0,0,0,0,0,0,0,0,0,0,0,0,0,0,0,0,0,0,0,0,0,0,0,0,0,0,0,0],"id":7,"left_children":[1,3,5,7,9,11,13,15,17,19,21,23,-1,25,27,-1,-1,29,-1,-1,-1,-1,-1,31,-1,33,-1,35,-1,-1,-1,37,-1,-1,-1,-1,-1,-1,-1],"loss_changes":[1.4065786E5,3.0537617E4,1.4602814E5,1.0772344E3,2.0238008E4,8.311458E4,4.278307E4,8.5452783E2,7.908594E2,2.335809E3,3.3859395E3,2.0682656E4,0E0,4.0330312E4,4.126964E4,0E0,0E0,1.7736641E3,0E0,0E0,0E0,0E0,0E0,9.21517E3,0E0,4.4870703E2,0E0,3.6135383E4,0E0,0E0,0E0,1.4223594E3,0E0,0E0,0E0,0E0,0E0,0E0,0E0],"parents":[2147483647,0,0,1,1,2,2,3,3,4,4,5,5,6,6,7,7,8,8,9,9,10,10,11,11,13,13,14,14,17,17,23,23,25,25,27,27,31,31],"right_children":[2,4,6,8,10,12,14,16,18,20,22,24,-1,26,28,-1,-1,30,-1,-1,-1,-1,-1,32,-1,34,-1,36,-1,-1,-1,38,-1,-1,-1,-1,-1,-1,-1],"split_conditions":[1E0,1E0,4.1E-1,3.7E-1,3.5E1,1E0,1E0,3E-1,4.6E-1,4.1E1,4.7E1,3E1,2.307342E1,7.5E1,5.1E-1,-4.8996787E0,-1.1746426E0,3.4E1,-2.9999447E0,-7.480672E-2,-4.797269E0,8.244647E0,4.386017E-1,2.5E1,9.711989E0,4.4E-1,8.950562E0,2.5E1,-4.912603E0,-7.685299E0,-1.1135094E0,1.7E1,-4.585748E0,-1.4851006E0,-7.12125E0,1.4687169E1,-3.4870408E0,-0E0,4.300527E0],"split_indices":[18,4,1,1,2,4,5,1,1,20,2,2,0,2,1,0,0,0,0,0,0,0,0,0,0,1,0,0,0,0,0,21,0,0,0,0,0,0,0],"split_type":[0,0,0,0,0,0,0,0,0,0,0,0,0,0,0,0,0,0,0,0,0,0,0,0,0,0,0,0,0,0,0,0,0,0,0,0,0,0,0],"sum_hessian":[6E1,2.6E1,3.4E1,1.9E1,7E0,1.7E1,1.7E1,4E0,1.5E1,4E0,3E0,1.3E1,4E0,1.1E1,6E0,1E0,3E0,1.2E1,3E0,2E0,2E0,2E0,1E0,5E0,8E0,1E1,1E0,4E0,2E0,1.1E1,1E0,4E0,1E0,1E0,9E0,3E0,1E0,1E0,3E0],"tree_param":{"num_deleted":"0","num_feature":"24","num_nodes":"39","size_leaf_vector":"1"}},{"base_weights":[4.7550797E0,4.9902756E1,-3.5369385E1,-5.45398E1,1.0744599E2,-5.3877712E1,3.5519478E1,-6.861794E1,-7.979023E0,6.999933E1,2.1227545E1,-6.481647E1,-3.0973816E-1,9.4434296E1,-4.5753922E0,-2.718189E0,-7.5859406E1,3.393425E-1,-1.4567647E0,1.1410179E1,8.138199E1,-5.0679073E0,-9.119599E0,4.1750416E1,-3.302742E0,1.3585632E1,-3.3126886E0,-8.127679E0,-1.917756E0,-4.3564606E0,4.592331E1,5.658646E1,1.279742E2,5.595891E0,4.1667175E-1,6.453201E-1,5.9931765E0,5.922716E0,1.2589722E0,1.4852971E1,3.0653825E0],"categories":[],"categories_nodes":[],"categories_segments":[],"categories_sizes":[],"default_left":[0,0,0,0,0,0,0,0,0,0,0,0,0,0,0,0,0,0,0,0,0,0,0,0,0,0,0,0,0,0,0,0,0,0,0,0,0,0,0,0,0],"id":8,"left_children":[1,3,5,7,9,11,13,15,17,19,-1,21,23,25,-1,-1,27,-1,-1,29,31,-1,-1,33,-1,-1,-1,-1,-1,-1,35,37,39,-1,-1,-1,-1,-1,-1,-1,-1],"loss_changes":[1.2320997E5,1.984434E5,4.9238727E4,6.935383E3,6.6165266E4,1.6647336E4,4.28698E4,1.233125E2,4.0502045E2,9.944758E3,0E0,3.6194062E3,9.591958E3,3.1433355E4,0E0,0E0,8.851172E1,0E0,0E0,9.601832E3,8.009492E3,0E0,0E0,1.06823E3,0E0,0E0,0E0,0E0,0E0,0E0,9.4006885E2,1.7326953E2,2.552957E3,0E0,0E0,0E0,0E0,0E0,0E0,0E0,0E0],"parents":[2147483647,0,0,1,1,2,2,3,3,4,4,5,5,6,6,7,7,8,8,9,9,11,11,12,12,13,13,16,16,19,19,20,20,23,23,30,30,31,31,32,32],"right_children":[2,4,6,8,10,12,14,16,18,20,-1,22,24,26,-1,-1,28,-1,-1,30,32,-1,-1,34,-1,-1,-1,-1,-1,-1,36,38,40,-1,-1,-1,-1,-1,-1,-1,-1],"split_conditions":[4.1E-1,1E0,1E0,1E0,1E0,4.5E1,5.1E-1,2.1E1,2.4E1,2E0,2.1227545E1,2.2E1,2.5E1,2.5E1,-4.5753922E0,-2.718189E0,4.3E1,3.393425E-1,-1.4567647E0,3E1,2.5E1,-5.0679073E0,-9.119599E0,2.4E1,-3.302742E0,1.3585632E1,-3.3126886E0,-8.127679E0,-1.917756E0,-4.3564606E0,2.8E-1,1E0,1E0,5.595891E0,4.1667175E-1,6.453201E-1,5.9931765E0,5.922716E0,1.2589722E0,1.4852971E1,3.0653825E0],"split_indices":[1,18,5,7,4,2,1,2,0,22,0,21,0,0,0,0,2,0,0,2,0,0,0,0,0,0,0,0,0,0,1,6,7,0,0,0,0,0,0,0,0],"split_type":[0,0,0,0,0,0,0,0,0,0,0,0,0,0,0,0,0,0,0,0,0,0,0,0,0,0,0,0,0,0,0,0,0,0,0,0,0,0,0,0,0],"sum_hessian":[6.6E1,3.1E1,3.5E1,1.1E1,2E1,2.8E1,7E0,8E0,3E0,1.6E1,4E0,2.3E1,5E0,4E0,3E0,2E0,6E0,1E0,2E0,3E0,1.3E1,1.7E1,6E0,2E0,3E0,3E0,1E0,5E0,1E0,1E0,2E0,1E1,3E0,1E0,1E0,1E0,1E0,9E0,1E0,2E0,1E0],"tree_param":{"num_deleted":"0","num_feature":"24","num_nodes":"41","size_leaf_vector":"1"}},{"base_weights":[5.4350084E-1,-1.6271559E1,7.3780136E1,4.3632664E1,-3.3529587E1,1.1509864E2,-6.085501E0,-2.5955559E1,7.026825E1,-1.8601707E1,-8.398408E0,-7.8402047E0,1.5821829E2,5.316097E0,-3.543736E0,-4.618673E-1,-4.248311E0,8.8018425E1,3.761739E0,-2.3153633E1,6.102997E0,-1.8218682E0,3.958374E-1,3.9340196E0,1.7312588E1,3.596785E1,1.168144E2,-0E0,6.130539E-1,-3.102017E1,1.5271382E1,4.9825044E0,-3.0186463E-2,1.3467177E1,2.912114E0,-7.7130384E0,-4.1967453E1,9.3502865E0,-4.5970073E0,-4.2097487E0,1.2322795E1,-5.0383457E1,-0E0,2.9005387E0,-4.1386375E0,-1.0356766E0,-5.2145596E0],"categories":[],"categories_nodes":[],"categories_segments":[],"categories_sizes":[],"default_left":[0,0,0,0,0,0,0,0,0,0,0,0,0,0,0,0,0,0,0,0,0,0,0,0,0,0,0,0,0,0,0,0,0,0,0,0,0,0,0,0,0,0,0,0,0,0,0],"id":9,"left_children":[1,3,5,7,9,11,13,15,17,19,-1,21,23,-1,-1,-1,-1,25,27,29,-1,-1,-1,-1,-1,31,33,-1,-1,35,37,-1,-1,-1,-1,39,41,-1,-1,-1,43,45,-1,-1,-1,-1,-1],"loss_changes":[7.90712E4,5.5171562E4,4.0844637E4,2.4287693E4,2.880514E4,4.4401E4,1.0490235E4,9.788611E2,9.83452E3,1.3185443E4,0E0,5.1077173E2,2.7599688E3,0E0,0E0,0E0,0E0,5.526453E3,3.271497E1,1.0225162E4,0E0,0E0,0E0,0E0,0E0,2.2730425E3,1.523125E3,0E0,0E0,6.3169434E3,3.3282055E4,0E0,0E0,0E0,0E0,7.5568433E3,6.374582E3,0E0,0E0,0E0,7.41058E3,2.0541406E2,0E0,0E0,0E0,0E0,0E0],"parents":[2147483647,0,0,1,1,2,2,3,3,4,4,5,5,6,6,7,7,8,8,9,9,11,11,12,12,17,17,18,18,19,19,25,25,26,26,29,29,30,30,35,35,36,36,40,40,41,41],"right_children":[2,4,6,8,10,12,14,16,18,20,-1,22,24,-1,-1,-1,-1,26,28,30,-1,-1,-1,-1,-1,32,34,-1,-1,36,38,-1,-1,-1,-1,40,42,-1,-1,-1,44,46,-1,-1,-1,-1,-1],"split_conditions":[4.3E1,3.6E-1,5.1E-1,1E0,2.2E1,1E0,2.4E1,3.4E1,3.7E1,4.1E1,-8.398408E0,3.9E-1,3.6E-1,5.316097E0,-3.543736E0,-4.618673E-1,-4.248311E0,2.5E1,2.5E1,1E0,6.102997E0,-1.8218682E0,3.958374E-1,3.9340196E0,1.7312588E1,2.6E1,1E0,-0E0,6.130539E-1,4.1E-1,5.1E-1,4.9825044E0,-3.0186463E-2,1.3467177E1,2.912114E0,1E0,1E0,9.3502865E0,-4.5970073E0,-4.2097487E0,2.5E1,2E0,-0E0,2.9005387E0,-4.1386375E0,-1.0356766E0,-5.2145596E0],"split_indices":[2,1,1,18,21,18,0,0,2,20,0,1,1,0,0,0,0,0,0,5,0,0,0,0,0,2,7,0,0,1,1,0,0,0,0,18,4,0,0,0,0,22,0,0,0,0,0],"split_type":[0,0,0,0,0,0,0,0,0,0,0,0,0,0,0,0,0,0,0,0,0,0,0,0,0,0,0,0,0,0,0,0,0,0,0,0,0,0,0,0,0,0,0,0,0,0,0],"sum_hessian":[6.2E1,5.1E1,1.1E1,1.1E1,4E1,7E0,4E0,3E0,8E0,3.2E1,8E0,2E0,5E0,1E0,3E0,2E0,1E0,6E0,2E0,3.1E1,1E0,1E0,1E0,1E0,4E0,3E0,3E0,1E0,1E0,2.6E1,5E0,2E0,1E0,2E0,1E0,9E0,1.7E1,2E0,3E0,3E0,6E0,1.4E1,3E0,5E0,1E0,1E0,1.3E1],"tree_param":{"num_deleted":"0","num_feature":"24","num_nodes":"47","size_leaf_vector":"1"}},{"base_weights":[6.5682836E0,-3.975991E1,3.9298756E1,-4.746849E1,-1.4655914E0,1.0137494E2,-1.8693178E1,-6.506416E-1,-5.2772293E1,-2.2959875E1,5.0502915E0,6.7663284E1,1.8797726E1,-4.1597332E1,3.5615337E1,-4.026744E0,-7.131522E1,-0E0,-3.9280202E0,8.044528E0,9.357686E1,-5.510721E1,7.802541E0,7.628031E1,-4.2364726E0,-8.277548E0,-2.6776403E1,-2.7321426E1,3.3807862E0,5.824005E-1,1.01269745E2,-3.0800598E1,-7.190042E0,1.1666381E1,-4.0126834E0,7.4229586E-1,-5.008756E0,-0E0,-3.9317055E0,1.1503138E1,5.0619454E0,-3.481446E0,-0E0],"categories":[],"categories_nodes":[],"categories_segments":[],"categories_sizes":[],"default_left":[0,0,0,0,0,0,0,0,0,0,0,0,0,0,0,0,0,0,0,0,0,0,0,0,0,0,0,0,0,0,0,0,0,0,0,0,0,0,0,0,0,0,0],"id":10,"left_children":[1,3,5,7,9,11,13,-1,15,17,-1,19,-1,21,23,-1,25,-1,-1,27,29,31,-1,33,-1,-1,35,37,-1,-1,39,41,-1,-1,-1,-1,-1,-1,-1,-1,-1,-1,-1],"loss_changes":[1.06187914E5,8.246414E3,1.4990506E5,4.5743594E3,7.7239805E3,4.439278E4,2.8877006E4,0E0,1.4398164E3,1.9930232E3,0E0,2.345807E4,0E0,3.0042584E4,2.559857E4,0E0,8.0879297E2,0E0,0E0,6.42298E3,6.300539E3,3.394707E3,0E0,2.856867E4,0E0,0E0,2.9768013E3,8.522805E2,0E0,0E0,3.1921875E2,8.949116E2,0E0,0E0,0E0,0E0,0E0,0E0,0E0,0E0,0E0,0E0,0E0],"parents":[2147483647,0,0,1,1,2,2,3,3,4,4,5,5,6,6,8,8,9,9,11,11,13,13,14,14,16,16,19,19,20,20,21,21,23,23,26,26,27,27,30,30,31,31],"right_children":[2,4,6,8,10,12,14,-1,16,18,-1,20,-1,22,24,-1,26,-1,-1,28,30,32,-1,34,-1,-1,36,38,-1,-1,40,42,-1,-1,-1,-1,-1,-1,-1,-1,-1,-1,-1],"split_conditions":[1E0,1E0,4.1E-1,3.7E-1,3.5E1,1E0,1E0,-6.506416E-1,4.1E1,4.1E1,5.0502915E0,3E1,1.8797726E1,7.5E1,5.1E-1,-4.026744E0,3.5E1,-0E0,-3.9280202E0,1.7E1,2.8E-1,1.7E1,7.802541E0,2.5E1,-4.2364726E0,-8.277548E0,3.7E1,2.5E1,3.3807862E0,5.824005E-1,1E0,5.5E-1,-7.190042E0,1.1666381E1,-4.0126834E0,7.4229586E-1,-5.008756E0,-0E0,-3.9317055E0,1.1503138E1,5.0619454E0,-3.481446E0,-0E0],"split_indices":[18,4,1,1,2,4,5,0,20,20,0,2,0,2,1,0,2,0,0,21,1,21,0,0,0,0,2,0,0,0,7,1,0,0,0,0,0,0,0,0,0,0,0],"split_type":[0,0,0,0,0,0,0,0,0,0,0,0,0,0,0,0,0,0,0,0,0,0,0,0,0,0,0,0,0,0,0,0,0,0,0,0,0,0,0,0,0,0,0],"sum_hessian":[6.8E1,2.8E1,4E1,2.3E1,5E0,1.9E1,2.1E1,3E0,2E1,4E0,1E0,1.5E1,4E0,1.5E1,6E0,1.4E1,6E0,2E0,2E0,5E0,1E1,1.4E1,1E0,4E0,2E0,4E0,2E0,2E0,3E0,1E0,9E0,7E0,7E0,3E0,1E0,1E0,1E0,1E0,1E0,6E0,3E0,6E0,1E0],"tree_param":{"num_deleted":"0","num_feature":"24","num_nodes":"43","size_leaf_vector":"1"}},{"base_weights":[9.113967E-1,-3.1601767E1,3.65042E1,3.2203033E1,-3.8529568E1,8.3048836E1,-1.1893625E1,4.5376434E0,-1.1585846E-1,-2.5136154E1,-7.661696E0,5.662057E1,1.5353556E1,-5.2178055E1,2.9156761E1,-3.2575287E1,4.2568383E0,-5.1997414E0,7.4407906E1,-1.2371974E1,-6.1069508E1,4.2956474E1,-3.8120484E0,-1.8567633E1,-4.5626945E1,1.745752E1,-2.8373284E0,7.051811E-1,-1.3300862E0,5.5328065E-1,8.0242134E1,-1.7206177E0,-0E0,-1.3559113E0,-6.5894723E0,6.580222E1,-1.5387181E0,-2.5931831E1,-2.0713868E0,-5.0828238E0,-0E0,-1.1638252E1,6.9420304E0,4.625976E1,1.18400755E1,8.997105E1,-2.5020936E0,-2.9901602E1,-0E0,-1.6356384E1,2.5034301E0,3.1935577E0,-3.0566843E0,1.0789497E1,6.8915086E0,3.4475384E1,1.1380969E1,-3.7213746E-1,-3.2811413E0,-0E0,-2.0698457E0,9.6148986E-1,-2.324562E-1,-6.0383457E-1,2.0078228E0,4.7977767E0,1.2353058E-1],"categories":[],"categories_nodes":[],"categories_segments":[],"categories_sizes":[],"default_left":[0,0,0,0,0,0,0,0,0,0,0,0,0,0,0,0,0,0,0,0,0,0,0,0,0,0,0,0,0,0,0,0,0,0,0,0,0,0,0,0,0,0,0,0,0,0,0,0,0,0,0,0,0,0,0,0,0,0,0,0,0,0,0,0,0,0,0],"id":11,"left_children":[1,3,5,7,9,11,13,-1,-1,15,-1,17,-1,19,21,23,25,27,29,31,33,35,-1,37,39,41,-1,-1,-1,-1,43,-1,-1,-1,-1,45,-1,47,49,-1,-1,51,-1,53,-1,55,-1,57,-1,59,-1,61,-1,63,-1,65,-1,-1,-1,-1,-1,-1,-1,-1,-1,-1,-1],"loss_changes":[7.9870055E4,1.7185375E4,7.568128E4,2.0316055E3,1.439934E4,2.1924242E4,2.9749203E4,0E0,0E0,5.965379E3,0E0,1.6127605E4,0E0,2.0626465E3,1.0017361E4,2.6711309E3,3.0251873E3,5.220457E2,3.5473281E3,1.3290787E2,3.1399414E2,1.1927822E4,0E0,1.2640488E3,2.4334023E3,8.656328E3,0E0,0E0,0E0,0E0,6.666711E3,0E0,0E0,0E0,0E0,1.5746443E4,0E0,8.79062E2,2.3021045E3,0E0,0E0,1.3574644E3,0E0,4.48305E3,0E0,1.9496484E3,0E0,2.2848877E2,0E0,2.1515295E2,0E0,1.6510329E2,0E0,8.1667584E2,0E0,1.0411282E3,0E0,0E0,0E0,0E0,0E0,0E0,0E0,0E0,0E0,0E0,0E0],"parents":[2147483647,0,0,1,1,2,2,3,3,4,4,5,5,6,6,9,9,11,11,13,13,14,14,15,15,16,16,17,17,18,18,19,19,20,20,21,21,23,23,24,24,25,25,30,30,35,35,37,37,38,38,41,41,43,43,45,45,47,47,49,49,51,51,53,53,55,55],"right_children":[2,4,6,8,10,12,14,-1,-1,16,-1,18,-1,20,22,24,26,28,30,32,34,36,-1,38,40,42,-1,-1,-1,-1,44,-1,-1,-1,-1,46,-1,48,50,-1,-1,52,-1,54,-1,56,-1,58,-1,60,-1,62,-1,64,-1,66,-1,-1,-1,-1,-1,-1,-1,-1,-1,-1,-1],"split_conditions":[3.5E1,3.6E-1,4.1E-1,2.5E1,4.1E1,1E0,4.5E1,4.5376434E0,-1.1585846E-1,1.8E1,-7.661696E0,1E0,1.5353556E1,1.7E1,8.7E1,2.4E1,5.1E-1,2.4E1,2.8E-1,4.6E-1,3.8E1,1E0,-3.8120484E0,1E0,1E0,1E0,-2.8373284E0,7.051811E-1,-1.3300862E0,5.5328065E-1,2.5E1,-1.7206177E0,-0E0,-1.3559113E0,-6.5894723E0,5.6E-1,-1.5387181E0,1E0,1.7E1,-5.0828238E0,-0E0,4.7E-1,6.9420304E0,3.7E1,1.18400755E1,5.3E1,-2.5020936E0,3.7E-1,-0E0,4.1E-1,2.5034301E0,4.1E-1,-3.0566843E0,3.6E-1,6.8915086E0,2.4E1,1.1380969E1,-3.7213746E-1,-3.2811413E0,-0E0,-2.0698457E0,9.6148986E-1,-2.324562E-1,-6.0383457E-1,2.0078228E0,4.7977767E0,1.2353058E-1],"split_indices":[2,1,1,0,20,4,2,0,0,21,0,18,0,21,2,2,1,0,1,1,2,7,0,18,4,5,0,0,0,0,0,0,0,0,0,1,0,4,21,0,0,1,0,2,0,2,0,1,0,1,0,1,0,1,0,0,0,0,0,0,0,0,0,0,0,0,0],"split_type":[0,0,0,0,0,0,0,0,0,0,0,0,0,0,0,0,0,0,0,0,0,0,0,0,0,0,0,0,0,0,0,0,0,0,0,0,0,0,0,0,0,0,0,0,0,0,0,0,0,0,0,0,0,0,0,0,0,0,0,0,0,0,0,0,0,0,0],"sum_hessian":[6.7E1,3.5E1,3.2E1,3E0,3.2E1,1.6E1,1.6E1,2E0,1E0,2.5E1,7E0,1.3E1,3E0,8E0,8E0,2E1,5E0,3E0,1E1,2E0,6E0,7E0,1E0,1.1E1,9E0,4E0,1E0,1E0,2E0,1E0,9E0,1E0,1E0,1E0,5E0,5E0,2E0,7E0,4E0,8E0,1E0,3E0,1E0,6E0,3E0,4E0,1E0,6E0,1E0,3E0,1E0,2E0,1E0,3E0,3E0,2E0,2E0,1E0,5E0,1E0,2E0,1E0,1E0,1E0,2E0,1E0,1E0],"tree_param":{"num_deleted":"0","num_feature":"24","num_nodes":"67","size_leaf_vector":"1"}},{"base_weights":[2.899597E0,3.978141E1,-2.5417173E1,1.7105976E1,1.487374E1,-3.6955853E1,2.328969E1,-3.67604E1,4.8079964E1,-4.7523052E1,-8.455707E0,6.8197395E1,-3.7417362E0,-4.735014E1,2.0657094E0,2.8744709E1,8.773563E0,-3.856942E1,-7.1042247E0,-2.3507736E1,3.283494E1,1.0460398E1,-3.6214464E0,-5.508814E0,-1.4424093E0,6.699219E-1,-1.1006546E-1,1.1650506E1,8.017523E0,-5.284142E-1,-3.984726E0,-3.452011E0,-4.1450458E0,4.5578876E0,1.1735382E-1,-0E0,2.5422577E1,-0E0,-8.7988585E-1,-1.8035751E1,1.1029986E1,6.8617783E0,4.733289E0,5.2561647E-1,-3.4809792E0,-1.0281128E0,3.0331106E0,-0E0,1.0259094E0],"categories":[],"categories_nodes":[],"categories_segments":[],"categories_sizes":[],"default_left":[0,0,0,0,0,0,0,0,0,0,0,0,0,0,0,0,0,0,0,0,0,0,0,0,0,0,0,0,0,0,0,0,0,0,0,0,0,0,0,0,0,0,0,0,0,0,0,0,0],"id":12,"left_children":[1,3,5,7,-1,9,11,13,15,17,19,21,-1,23,25,27,-1,29,-1,31,33,-1,-1,-1,-1,-1,-1,35,-1,-1,-1,37,-1,-1,-1,39,41,-1,-1,43,45,47,-1,-1,-1,-1,-1,-1,-1],"loss_changes":[7.2100375E4,7.07452E4,2.2847521E4,4.5203902E4,0E0,8.955598E3,2.451538E4,4.4358174E3,9.930457E3,1.5552773E3,6.94032E3,2.3136516E4,0E0,8.9609766E2,7.938048E1,1.0035915E4,0E0,3.7191602E2,0E0,2.5112349E3,9.2322144E2,0E0,0E0,0E0,0E0,0E0,0E0,1.7384601E3,0E0,0E0,0E0,9.525793E1,0E0,0E0,0E0,1.584168E3,1.437603E3,0E0,0E0,1.5028328E3,2.4687295E3,1.2741104E2,0E0,0E0,0E0,0E0,0E0,0E0,0E0],"parents":[2147483647,0,0,1,1,2,2,3,3,5,5,6,6,7,7,8,8,9,9,10,10,11,11,13,13,14,14,15,15,17,17,19,19,20,20,27,27,31,31,35,35,36,36,39,39,40,40,41,41],"right_children":[2,4,6,8,-1,10,12,14,16,18,20,22,-1,24,26,28,-1,30,-1,32,34,-1,-1,-1,-1,-1,-1,36,-1,-1,-1,38,-1,-1,-1,40,42,-1,-1,44,46,48,-1,-1,-1,-1,-1,-1,-1],"split_conditions":[4.1E-1,1E0,1E0,1E0,1.487374E1,1E0,5.1E-1,1E0,1E0,4.1E1,4.5E1,2.5E1,-3.7417362E0,1E0,2.4E1,4.3E1,8.773563E0,2E0,-7.1042247E0,4.1E1,2.4E1,1.0460398E1,-3.6214464E0,-5.508814E0,-1.4424093E0,6.699219E-1,-1.1006546E-1,1E0,8.017523E0,-5.284142E-1,-3.984726E0,2.5E1,-4.1450458E0,4.5578876E0,1.1735382E-1,2E0,2.5E1,-0E0,-8.7988585E-1,2.8E-1,1E0,2.1E1,4.733289E0,5.2561647E-1,-3.4809792E0,-1.0281128E0,3.0331106E0,-0E0,1.0259094E0],"split_indices":[1,4,5,18,0,4,1,7,3,20,2,0,0,3,0,2,0,22,0,20,0,0,0,0,0,0,0,6,0,0,0,0,0,0,0,22,0,0,0,1,7,2,0,0,0,0,0,0,0],"split_type":[0,0,0,0,0,0,0,0,0,0,0,0,0,0,0,0,0,0,0,0,0,0,0,0,0,0,0,0,0,0,0,0,0,0,0,0,0,0,0,0,0,0,0,0,0,0,0,0,0],"sum_hessian":[6.7E1,2.9E1,3.8E1,2.5E1,4E0,3.1E1,7E0,9E0,1.6E1,2.2E1,9E0,4E0,3E0,7E0,2E0,1.2E1,4E0,1.8E1,4E0,7E0,2E0,3E0,1E0,5E0,2E0,1E0,1E0,1E1,2E0,1E0,1.7E1,4E0,3E0,1E0,1E0,6E0,4E0,3E0,1E0,2E0,4E0,3E0,1E0,1E0,1E0,2E0,2E0,1E0,2E0],"tree_param":{"num_deleted":"0","num_feature":"24","num_nodes":"49","size_leaf_vector":"1"}},{"base_weights":[2.0989377E0,-1.7828587E1,4.9448395E1,6.7111063E0,-3.4622128E1,2.6527264E1,1.07322105E2,-5.649698E0,7.61853E0,-4.60022E1,1.2041837E1,4.3204735E1,-2.8886967E0,1.4592699E1,3.127653E1,-3.343472E1,1.664329E1,-3.2248615E1,-6.54149E0,7.189843E0,-3.4611065E0,-0E0,7.44584E1,4.329993E0,1.11486815E-1,6.364258E-1,-4.074375E0,3.7102253E0,2.7834309E1,-3.4732285E1,-9.0698445E-1,-4.0194077E1,5.2674785E0,9.916938E1,-3.4403741E0,-2.7194458E1,2.7211182E1,3.1922119E0,3.2415316E-1,-1.0585903E0,-3.7705638E0,-6.671204E-1,-4.7477965E0,3.991034E0,1.1757132E1,-5.222382E-1,-3.3069305E0,-0E0,3.7391632E0],"categories":[],"categories_nodes":[],"categories_segments":[],"categories_sizes":[],"default_left":[0,0,0,0,0,0,0,0,0,0,0,0,0,0,0,0,0,0,0,0,0,0,0,0,0,0,0,0,0,0,0,0,0,0,0,0,0,0,0,0,0,0,0,0,0,0,0,0,0],"id":13,"left_children":[1,3,5,7,9,11,13,15,-1,17,19,21,-1,-1,23,25,27,29,-1,-1,-1,31,33,-1,-1,-1,-1,35,37,39,-1,41,-1,43,-1,45,47,-1,-1,-1,-1,-1,-1,-1,-1,-1,-1,-1,-1],"loss_changes":[6.0483812E4,1.8916781E4,2.1687879E4,1.709948E4,1.5061816E4,1.5182183E4,9.228543E3,1.1170411E4,0E0,3.2760156E3,1.942982E4,1.640858E4,0E0,0E0,8.175891E2,2.758338E3,1.1863474E3,3.2949902E2,0E0,0E0,0E0,1.4786154E4,2.2566254E4,0E0,0E0,0E0,0E0,5.0978145E3,2.2335815E2,2.9273828E2,0E0,3.8922656E2,0E0,1.063168E3,0E0,2.3089111E1,1.2326086E3,0E0,0E0,0E0,0E0,0E0,0E0,0E0,0E0,0E0,0E0,0E0,0E0],"parents":[2147483647,0,0,1,1,2,2,3,3,4,4,5,5,6,6,7,7,9,9,10,10,11,11,14,14,15,15,16,16,17,17,21,21,22,22,27,27,28,28,29,29,31,31,33,33,35,35,36,36],"right_children":[2,4,6,8,10,12,14,16,-1,18,20,22,-1,-1,24,26,28,30,-1,-1,-1,32,34,-1,-1,-1,-1,36,38,40,-1,42,-1,44,-1,46,48,-1,-1,-1,-1,-1,-1,-1,-1,-1,-1,-1,-1],"split_conditions":[4E1,4.1E-1,1E0,1E0,1E0,5.1E-1,4.1E-1,1E0,7.61853E0,4.1E1,5.1E-1,4.4E1,-2.8886967E0,1.4592699E1,2.4E1,2.4E1,4E0,6E0,-6.54149E0,7.189843E0,-3.4611065E0,1E0,8.7E1,4.329993E0,1.11486815E-1,6.364258E-1,-4.074375E0,1E0,1E0,2E0,-9.0698445E-1,3.6E-1,5.2674785E0,6.5E1,-3.4403741E0,2.5E1,2.1E1,3.1922119E0,3.2415316E-1,-1.0585903E0,-3.7705638E0,-6.671204E-1,-4.7477965E0,3.991034E0,1.1757132E1,-5.222382E-1,-3.3069305E0,-0E0,3.7391632E0],"split_indices":[2,1,4,4,5,1,1,18,0,20,1,2,0,0,0,0,22,22,0,0,0,3,2,0,0,0,0,6,6,22,0,1,0,2,0,0,2,0,0,0,0,0,0,0,0,0,0,0,0],"split_type":[0,0,0,0,0,0,0,0,0,0,0,0,0,0,0,0,0,0,0,0,0,0,0,0,0,0,0,0,0,0,0,0,0,0,0,0,0,0,0,0,0,0,0,0,0,0,0,0,0],"sum_hessian":[6.2E1,4.4E1,1.8E1,1.8E1,2.6E1,1.4E1,4E0,1.6E1,2E0,2.1E1,5E0,1.1E1,3E0,2E0,2E0,7E0,9E0,1.4E1,7E0,2E0,3E0,5E0,6E0,1E0,1E0,1E0,6E0,5E0,4E0,1.2E1,2E0,3E0,2E0,5E0,1E0,2E0,3E0,3E0,1E0,2E0,1E1,1E0,2E0,2E0,3E0,1E0,1E0,1E0,2E0],"tree_param":{"num_deleted":"0","num_feature":"24","num_nodes":"49","size_leaf_vector":"1"}},{"base_weights":[6.956536E0,-3.1070265E1,3.1950855E1,-3.8847187E1,9.9176235E0,7.416802E1,-1.1549683E1,-4.779864E1,-2.1930431E1,4.1134934E0,-6.920437E0,4.837304E1,1.4603734E1,-2.8671598E1,2.6075808E1,-2.189222E1,-5.241928E1,-3.0597258E1,-3.087616E-2,1.8607889E-1,-1.9132057E0,1.4359743E1,6.516577E1,-4.0297775E1,6.4547424E0,5.8106155E1,-3.4333375E0,-2.7005014E0,-7.769165E-2,-5.515513E0,-1.0030411E0,-0E0,-3.519399E1,6.0460436E-1,-5.738531E-1,2.8058313E1,-3.1415842E0,5.3269196E-1,7.011697E1,-4.5381382E1,-4.86408E0,9.022448E0,-3.2683556E0,-1.7047669E0,-4.5991087E0,3.8294206E0,3.3910217E0,4.16858E1,1.0109226E1,-2.818958E0,-5.7041593E0,-0E0,-7.82962E-1,-0E0,6.751618E-1,-4.961258E-1,5.112052E0],"categories":[],"categories_nodes":[],"categories_segments":[],"categories_sizes":[],"default_left":[0,0,0,0,0,0,0,0,0,0,0,0,0,0,0,0,0,0,0,0,0,0,0,0,0,0,0,0,0,0,0,0,0,0,0,0,0,0,0,0,0,0,0,0,0,0,0,0,0,0,0,0,0,0,0,0,0],"id":14,"left_children":[1,3,5,7,9,11,13,15,17,-1,19,21,-1,23,25,27,29,31,33,-1,-1,35,37,39,-1,41,-1,-1,-1,-1,-1,-1,43,-1,-1,45,-1,-1,47,49,51,-1,-1,-1,-1,-1,53,55,-1,-1,-1,-1,-1,-1,-1,-1,-1],"loss_changes":[6.467755E4,9.136426E3,7.646495E4,2.0859922E3,3.083939E3,3.089489E4,1.4289244E4,1.5673047E2,1.7439106E3,0E0,5.508891E2,8.376602E3,0E0,1.8736578E4,1.5658334E4,2.7194263E2,3.9650586E2,8.7835596E2,1.7189767E2,0E0,0E0,5.2541084E3,2.5082852E3,2.049871E3,0E0,1.7816623E4,0E0,0E0,0E0,0E0,0E0,0E0,7.633057E1,0E0,0E0,1.176668E3,0E0,0E0,3.8786367E3,3.7138477E2,5.162809E1,0E0,0E0,0E0,0E0,0E0,5.6671593E1,3.5651328E3,0E0,0E0,0E0,0E0,0E0,0E0,0E0,0E0,0E0],"parents":[2147483647,0,0,1,1,2,2,3,3,4,4,5,5,6,6,7,7,8,8,10,10,11,11,13,13,14,14,15,15,16,16,17,17,18,18,21,21,22,22,23,23,25,25,32,32,35,35,38,38,39,39,40,40,46,46,47,47],"right_children":[2,4,6,8,10,12,14,16,18,-1,20,22,-1,24,26,28,30,32,34,-1,-1,36,38,40,-1,42,-1,-1,-1,-1,-1,-1,44,-1,-1,46,-1,-1,48,50,52,-1,-1,-1,-1,-1,54,56,-1,-1,-1,-1,-1,-1,-1,-1,-1],"split_conditions":[1E0,1E0,4.1E-1,1E0,2.4E1,1E0,1E0,2.1E1,3E1,4.1134934E0,2.5E1,3E1,1.4603734E1,7.5E1,5.1E-1,2.5E1,4.9E-1,3.6E-1,2.4E1,1.8607889E-1,-1.9132057E0,2.5E1,2.8E-1,1E0,6.4547424E0,2.5E1,-3.4333375E0,-2.7005014E0,-7.769165E-2,-5.515513E0,-1.0030411E0,-0E0,4.1E1,6.0460436E-1,-5.738531E-1,1E0,-3.1415842E0,5.3269196E-1,2.5E1,1.7E1,2.5E1,9.022448E0,-3.2683556E0,-1.7047669E0,-4.5991087E0,3.8294206E0,2.1E1,4E0,1.0109226E1,-2.818958E0,-5.7041593E0,-0E0,-7.82962E-1,-0E0,6.751618E-1,-4.961258E-1,5.112052E0],"split_indices":[18,4,1,7,0,4,5,2,2,0,0,2,0,2,1,0,1,1,0,0,0,0,1,4,0,0,0,0,0,0,0,0,20,0,0,6,0,0,0,21,0,0,0,0,0,0,2,22,0,0,0,0,0,0,0,0,0],"split_type":[0,0,0,0,0,0,0,0,0,0,0,0,0,0,0,0,0,0,0,0,0,0,0,0,0,0,0,0,0,0,0,0,0,0,0,0,0,0,0,0,0,0,0,0,0,0,0,0,0,0,0,0,0,0,0,0,0],"sum_hessian":[6.6E1,2.6E1,4E1,2.2E1,4E0,2E1,2E1,1.3E1,9E0,1E0,3E0,1.6E1,4E0,1.4E1,6E0,3E0,1E1,6E0,3E0,2E0,1E0,6E0,1E1,1.3E1,1E0,4E0,2E0,2E0,1E0,9E0,1E0,1E0,5E0,1E0,2E0,5E0,1E0,1E0,9E0,1.1E1,2E0,3E0,1E0,3E0,2E0,3E0,2E0,6E0,3E0,6E0,5E0,1E0,1E0,1E0,1E0,1E0,5E0],"tree_param":{"num_deleted":"0","num_feature":"24","num_nodes":"57","size_leaf_vector":"1"}},{"base_weights":[3.7159424E0,-2.8214148E1,2.5031204E1,-3.2718433E1,-0E0,6.4078545E1,-1.4887062E1,-2.5075848E1,-4.615477E1,3.7487016E0,-1.7679806E1,4.1949207E1,1.3435434E1,-2.8041906E1,3.707876E1,-2.6638313E1,-0E0,-0E0,-5.231733E0,-0E0,-2.516279E0,1.3070914E1,5.388758E1,-4.1246956E1,6.610199E0,6.3123135E1,-3.1049378E0,-3.002657E0,-1.402404E1,2.6031082E1,-2.9845047E0,5.0605774E-1,5.7118114E1,-1.5199976E1,-4.9645752E1,6.109022E0,-3.4652367E0,9.106666E0,-7.8537065E-1,-1.6038626E0,-0E0,3.542215E0,3.1659648E0,3.4097908E1,8.1526825E1,-1.926672E0,-0E0,-1.4745244E0,-5.5902724E0,-0E0,6.414032E-1,5.998291E0,4.875802E0,9.351035E0,1.4296372E0,-4.713196E-1,1.2806519E0],"categories":[],"categories_nodes":[],"categories_segments":[],"categories_sizes":[],"default_left":[0,0,0,0,0,0,0,0,0,0,0,0,0,0,0,0,0,0,0,0,0,0,0,0,0,0,0,0,0,0,0,0,0,0,0,0,0,0,0,0,0,0,0,0,0,0,0,0,0,0,0,0,0,0,0,0,0],"id":15,"left_children":[1,3,5,7,9,11,13,15,17,-1,19,21,-1,23,25,27,-1,-1,-1,-1,-1,29,31,33,35,37,-1,-1,39,41,-1,-1,43,45,47,-1,-1,-1,-1,-1,-1,-1,49,51,53,-1,-1,-1,-1,-1,-1,55,-1,-1,-1,-1,-1],"loss_changes":[5.105459E4,3.951748E3,7.134151E4,1.156373E3,4.0608545E3,2.9251031E4,1.6717426E4,8.2563184E2,2.1176152E3,0E0,6.4919604E2,5.511285E3,0E0,9.139907E3,1.0992077E4,1.2798047E2,0E0,0E0,0E0,0E0,0E0,4.651216E3,1.4506406E3,1.9838438E3,1.5737023E4,9.0646455E3,0E0,0E0,1.06145386E2,9.83281E2,0E0,0E0,3.384707E3,3.2962964E2,1.00617773E3,0E0,0E0,0E0,0E0,0E0,0E0,0E0,5.220961E1,2.7293018E3,2.1523945E3,0E0,0E0,0E0,0E0,0E0,0E0,3.925312E2,0E0,0E0,0E0,0E0,0E0],"parents":[2147483647,0,0,1,1,2,2,3,3,4,4,5,5,6,6,7,7,8,8,10,10,11,11,13,13,14,14,15,15,21,21,22,22,23,23,24,24,25,25,28,28,29,29,32,32,33,33,34,34,42,42,43,43,44,44,51,51],"right_children":[2,4,6,8,10,12,14,16,18,-1,20,22,-1,24,26,28,-1,-1,-1,-1,-1,30,32,34,36,38,-1,-1,40,42,-1,-1,44,46,48,-1,-1,-1,-1,-1,-1,-1,50,52,54,-1,-1,-1,-1,-1,-1,56,-1,-1,-1,-1,-1],"split_conditions":[1E0,1E0,4.1E-1,2.3E1,4.1E-1,1E0,6.5E1,4.1E1,3.6E-1,3.7487016E0,4.3E-1,3E1,1.3435434E1,1E0,8.7E1,1E0,-0E0,-0E0,-5.231733E0,-0E0,-2.516279E0,2.5E1,2.8E-1,1.7E1,5.1E-1,5.1E-1,-3.1049378E0,-3.002657E0,1.8E1,1E0,-2.9845047E0,5.0605774E-1,2.5E1,5.4E-1,4.8E-1,6.109022E0,-3.4652367E0,9.106666E0,-7.8537065E-1,-1.6038626E0,-0E0,3.542215E0,2.1E1,3.7E1,1E0,-1.926672E0,-0E0,-1.4745244E0,-5.5902724E0,-0E0,6.414032E-1,3.6E-1,4.875802E0,9.351035E0,1.4296372E0,-4.713196E-1,1.2806519E0],"split_indices":[18,4,1,21,1,4,2,20,1,0,1,2,0,5,2,7,0,0,0,0,0,0,1,21,1,1,0,0,21,6,0,0,0,1,1,0,0,0,0,0,0,0,2,2,7,0,0,0,0,0,0,1,0,0,0,0,0],"split_type":[0,0,0,0,0,0,0,0,0,0,0,0,0,0,0,0,0,0,0,0,0,0,0,0,0,0,0,0,0,0,0,0,0,0,0,0,0,0,0,0,0,0,0,0,0,0,0,0,0,0,0,0,0,0,0,0,0],"sum_hessian":[7.3E1,2.9E1,4.4E1,2.5E1,4E0,2.2E1,2.2E1,1.8E1,7E0,1E0,3E0,1.8E1,4E0,1.8E1,4E0,1.7E1,1E0,1E0,6E0,1E0,2E0,6E0,1.2E1,1.3E1,5E0,3E0,1E0,1.2E1,5E0,5E0,1E0,1E0,1.1E1,4E0,9E0,2E0,3E0,2E0,1E0,4E0,1E0,3E0,2E0,7E0,4E0,3E0,1E0,2E0,7E0,1E0,1E0,3E0,4E0,3E0,1E0,1E0,2E0],"tree_param":{"num_deleted":"0","num_feature":"24","num_nodes":"57","size_leaf_vector":"1"}},{"base_weights":[8.1573755E-1,2.1530375E1,-1.6905638E1,-1.7344576E1,5.0848095E1,-1.1285339E1,-5.7796683E0,-2.4542263E1,3.5612671E0,-1.4030162E1,6.0147263E1,-1.5360837E1,1.360961E1,-3.1940273E1,-0E0,4.8075563E-1,-2.83528E0,1.0212697E1,6.6194145E1,-2.0142775E1,5.6766725E0,5.701755E0,-3.2668197E0,-3.9872227E0,-0E0,8.3596116E-1,-5.455297E-1,1.6984131E0,-0E0,7.717619E1,3.7855392E1,-2.7630308E1,-7.101729E-1,8.231171E0,1.5546036E0,4.1989145E0,6.0933226E-1,-2.3155212E-2,-2.8797003E1,1.2280709E1,-3.2452176E0,-2.1102732E1,-3.6113785E1,4.033632E0,4.8721313E-2,-2.3897426E0,-8.288986E-1,-3.8426893E0,-7.4610215E-1,3.6483887E-1,-6.474808E-1],"categories":[],"categories_nodes":[],"categories_segments":[],"categories_sizes":[],"default_left":[0,0,0,0,0,0,0,0,0,0,0,0,0,0,0,0,0,0,0,0,0,0,0,0,0,0,0,0,0,0,0,0,0,0,0,0,0,0,0,0,0,0,0,0,0,0,0,0,0,0,0],"id":16,"left_children":[1,3,5,7,9,11,-1,13,-1,15,17,19,21,23,25,-1,-1,27,29,31,-1,-1,-1,-1,-1,-1,-1,-1,-1,33,35,37,39,-1,-1,-1,-1,-1,41,43,-1,45,47,-1,49,-1,-1,-1,-1,-1,-1],"loss_changes":[2.4615172E4,3.6380926E4,7.2758496E3,6.155038E3,1.1934105E4,3.5659673E3,0E0,2.3716162E3,0E0,1.0634512E3,3.773125E3,1.0962697E4,1.2028528E4,2.516545E3,2.29047E2,0E0,0E0,2.6402383E2,8.6035156E2,3.9127383E3,0E0,0E0,0E0,0E0,0E0,0E0,0E0,0E0,0E0,1.0796133E3,2.9151172E2,4.8751074E2,4.2106025E3,0E0,0E0,0E0,0E0,0E0,2.146582E1,2.1983408E3,0E0,7.0708984E1,1.4072266E1,0E0,1.5038573E2,0E0,0E0,0E0,0E0,0E0,0E0],"parents":[2147483647,0,0,1,1,2,2,3,3,4,4,5,5,7,7,9,9,10,10,11,11,12,12,13,13,14,14,17,17,18,18,19,19,29,29,30,30,31,31,32,32,38,38,39,39,41,41,42,42,44,44],"right_children":[2,4,6,8,10,12,-1,14,-1,16,18,20,22,24,26,-1,-1,28,30,32,-1,-1,-1,-1,-1,-1,-1,-1,-1,34,36,38,40,-1,-1,-1,-1,-1,42,44,-1,46,48,-1,50,-1,-1,-1,-1,-1,-1],"split_conditions":[4.1E-1,1E0,2.3E1,1E0,2E0,1E0,-5.7796683E0,1E0,3.5612671E0,2.8E-1,2.1E1,7.2E1,3.2E1,2.5E1,2.4E1,4.8075563E-1,-2.83528E0,1.6E1,1.7E1,1E0,5.6766725E0,5.701755E0,-3.2668197E0,-3.9872227E0,-0E0,8.3596116E-1,-5.455297E-1,1.6984131E0,-0E0,1E0,1E0,2E0,5.6E-1,8.231171E0,1.5546036E0,4.1989145E0,6.0933226E-1,-2.3155212E-2,4.8E-1,2.4E1,-3.2452176E0,6E0,6E1,4.033632E0,2.5E1,-2.3897426E0,-8.288986E-1,-3.8426893E0,-7.4610215E-1,3.6483887E-1,-6.474808E-1],"split_indices":[1,18,21,4,22,5,0,7,0,1,2,2,2,0,0,0,0,2,21,4,0,0,0,0,0,0,0,0,0,7,6,22,1,0,0,0,0,0,1,0,0,22,2,0,0,0,0,0,0,0,0],"split_type":[0,0,0,0,0,0,0,0,0,0,0,0,0,0,0,0,0,0,0,0,0,0,0,0,0,0,0,0,0,0,0,0,0,0,0,0,0,0,0,0,0,0,0,0,0,0,0,0,0,0,0],"sum_hessian":[6.5E1,3E1,3.5E1,1.3E1,1.7E1,3.2E1,3E0,1.2E1,1E0,2E0,1.5E1,2.8E1,4E0,9E0,3E0,1E0,1E0,2E0,1.3E1,2.7E1,1E0,2E0,2E0,7E0,2E0,1E0,2E0,1E0,1E0,8E0,5E0,1.9E1,8E0,7E0,1E0,4E0,1E0,1E0,1.8E1,6E0,2E0,1.1E1,7E0,1E0,5E0,8E0,3E0,6E0,1E0,4E0,1E0],"tree_param":{"num_deleted":"0","num_feature":"24","num_nodes":"51","size_leaf_vector":"1"}},{"base_weights":[-5.761449E-1,-8.586438E0,6.0950645E1,1.0663711E1,-2.49002E1,1.1740869E1,-2.360957E0,-2.607233E1,4.2453766E1,-2.9465858E1,6.4738007E0,-3.0242498E1,-1.15175295E1,2.9211714E1,8.843209E0,-1.9413845E1,-5.020791E0,3.8319504E0,-9.817501E0,-3.8205997E1,-1.3637799E1,-1.905424E0,-0E0,2.0630316E1,4.425763E0,-2.195507E1,2.3322704E-1,2.0418091E-1,-1.6117874E0,-4.180011E0,-7.6177293E-1,-2.8866968E0,4.470637E0,4.38916E0,2.5547104E1,-2.199707E-2,-2.2824287E1,7.9416275E-1,-0E0,-8.593125E-1,1.3247631E0,1.1379242E1,3.0771973E0,-3.0044558E1,-1.4387314E1,-0E0,1.628238E0,-8.90213E-2,-3.2952576E0,3.0617006E0,-2.2449446E0],"categories":[],"categories_nodes":[],"categories_segments":[],"categories_sizes":[],"default_left":[0,0,0,0,0,0,0,0,0,0,0,0,0,0,0,0,0,0,0,0,0,0,0,0,0,0,0,0,0,0,0,0,0,0,0,0,0,0,0,0,0,0,0,0,0,0,0,0,0,0,0],"id":17,"left_children":[1,3,5,7,9,-1,-1,11,13,15,17,19,21,23,-1,25,-1,-1,27,29,31,-1,-1,33,-1,35,-1,-1,-1,-1,-1,-1,37,39,41,-1,43,-1,-1,-1,-1,45,-1,47,49,-1,-1,-1,-1,-1,-1],"loss_changes":[3.426801E4,1.9807334E4,4.14338E4,3.505616E4,5.1759805E3,0E0,0E0,2.9262598E2,6.570086E3,4.9321445E3,3.1127515E3,5.420508E2,4.2592474E2,5.701211E2,0E0,1.3650771E3,0E0,0E0,4.0216226E2,9.411328E1,1.6299174E3,0E0,0E0,6.165864E2,0E0,2.576084E2,0E0,0E0,0E0,0E0,0E0,0E0,6.617911E1,5.971238E2,3.1283691E1,0E0,5.030078E2,0E0,0E0,0E0,0E0,2.77399E2,0E0,5.644824E2,4.6376353E3,0E0,0E0,0E0,0E0,0E0,0E0],"parents":[2147483647,0,0,1,1,2,2,3,3,4,4,7,7,8,8,9,9,10,10,11,11,12,12,13,13,15,15,18,18,19,19,20,20,23,23,25,25,32,32,33,33,34,34,36,36,41,41,43,43,44,44],"right_children":[2,4,6,8,10,-1,-1,12,14,16,18,20,22,24,-1,26,-1,-1,28,30,32,-1,-1,34,-1,36,-1,-1,-1,-1,-1,-1,38,40,42,-1,44,-1,-1,-1,-1,46,-1,48,50,-1,-1,-1,-1,-1,-1],"split_conditions":[6E1,4.1E-1,5.1E-1,1E0,4.5E1,1.1740869E1,-2.360957E0,1E0,1E0,4.1E1,2.4E1,1E0,2.5E1,1E0,8.843209E0,1E0,-5.020791E0,3.8319504E0,2.5E1,4.3E1,2.4E1,-1.905424E0,-0E0,3.6E-1,4.425763E0,2E0,2.3322704E-1,2.0418091E-1,-1.6117874E0,-4.180011E0,-7.6177293E-1,-2.8866968E0,2.4E1,2.5E1,2.6E1,-2.199707E-2,3E1,7.9416275E-1,-0E0,-8.593125E-1,1.3247631E0,1.7E1,3.0771973E0,4.2E-1,3.2E1,-0E0,1.628238E0,-8.90213E-2,-3.2952576E0,3.0617006E0,-2.2449446E0],"split_indices":[2,1,1,18,2,0,0,3,4,20,0,7,0,3,0,4,0,0,0,2,2,0,0,1,0,22,0,0,0,0,0,0,0,0,2,0,2,0,0,0,0,21,0,1,2,0,0,0,0,0,0],"split_type":[0,0,0,0,0,0,0,0,0,0,0,0,0,0,0,0,0,0,0,0,0,0,0,0,0,0,0,0,0,0,0,0,0,0,0,0,0,0,0,0,0,0,0,0,0,0,0,0,0,0,0],"sum_hessian":[6.8E1,6.1E1,7E0,2.8E1,3.3E1,4E0,3E0,1.3E1,1.5E1,2.9E1,4E0,9E0,4E0,1.3E1,2E0,2.1E1,8E0,1E0,3E0,5E0,4E0,2E0,2E0,1E1,3E0,1.9E1,2E0,1E0,2E0,4E0,1E0,2E0,2E0,3E0,7E0,1E0,1.8E1,1E0,1E0,1E0,2E0,3E0,4E0,8E0,1E1,1E0,2E0,1E0,7E0,1E0,9E0],"tree_param":{"num_deleted":"0","num_feature":"24","num_nodes":"51","size_leaf_vector":"1"}},{"base_weights":[2.8142278E0,-5.03756E0,6.0994385E1,-1.2193582E1,2.684268E1,9.391592E1,-2.3513474E0,8.172429E0,-1.9154785E1,8.111349E0,-3.0230598E0,9.2077637E-1,1.08015995E1,-1.005396E1,2.5945614E1,-1.31306925E1,-4.2382236E0,-1.4570221E1,3.6403534E0,-1.9438025E1,7.270803E0,3.6408844E0,-0E0,-1.8587648E1,-7.24922E0,1.7498207E-1,-2.8497708E0,3.9048004E-1,-2.749993E0,-0E0,1.2141876E0,-2.164027E1,-9.568667E0,6.921612E0,-1.8360964E1,-2.3442752E0,-2.0896912E-2,-1.1306949E0,-0E0,1.6760057E1,-2.8473756E0,-2.4372537E0,2.1235554E0,2.806092E0,1.9180299E-3,2.908615E0,-2.340082E0],"categories":[],"categories_nodes":[],"categories_segments":[],"categories_sizes":[],"default_left":[0,0,0,0,0,0,0,0,0,0,0,0,0,0,0,0,0,0,0,0,0,0,0,0,0,0,0,0,0,0,0,0,0,0,0,0,0,0,0,0,0,0,0,0,0,0,0],"id":18,"left_children":[1,3,5,7,9,11,-1,13,15,-1,17,-1,-1,19,21,23,-1,25,-1,27,29,-1,-1,31,33,-1,-1,-1,-1,-1,-1,35,37,39,41,-1,-1,-1,-1,43,-1,-1,45,-1,-1,-1,-1],"loss_changes":[3.073705E4,1.3714069E4,2.4817326E4,7.1582793E3,1.8464879E4,5.5856445E3,0E0,4.551547E3,4.343127E3,0E0,4.0633625E3,0E0,0E0,1.340203E3,1.9157959E3,7.310117E2,0E0,1.7746855E3,0E0,1.1662958E3,1.3625659E2,0E0,0E0,4.986035E1,2.861149E3,0E0,0E0,0E0,0E0,0E0,0E0,2.6313818E2,8.987915E1,3.2045364E3,1.3944434E3,0E0,0E0,0E0,0E0,1.1833658E3,0E0,0E0,2.7736765E3,0E0,0E0,0E0,0E0],"parents":[2147483647,0,0,1,1,2,2,3,3,4,4,5,5,7,7,8,8,10,10,13,13,14,14,15,15,17,17,19,19,20,20,23,23,24,24,31,31,32,32,33,33,34,34,39,39,42,42],"right_children":[2,4,6,8,10,12,-1,14,16,-1,18,-1,-1,20,22,24,-1,26,-1,28,30,-1,-1,32,34,-1,-1,-1,-1,-1,-1,36,38,40,42,-1,-1,-1,-1,44,-1,-1,46,-1,-1,-1,-1],"split_conditions":[6E1,1E0,5.1E-1,3.7E-1,4.1E-1,3.6E-1,-2.3513474E0,1E0,4.1E1,8.111349E0,4.5E1,9.2077637E-1,1.08015995E1,1E0,2.5E1,1E0,-4.2382236E0,4.1E1,3.6403534E0,2.8E-1,3.4E1,3.6408844E0,-0E0,1E0,4.1E-1,1.7498207E-1,-2.8497708E0,3.9048004E-1,-2.749993E0,-0E0,1.2141876E0,1.197831E6,1.8E1,2.5E1,1E0,-2.3442752E0,-2.0896912E-2,-1.1306949E0,-0E0,1E0,-2.8473756E0,-2.4372537E0,5.1E-1,2.806092E0,1.9180299E-3,2.908615E0,-2.340082E0],"split_indices":[2,4,1,1,1,1,0,3,20,0,2,0,0,7,0,18,0,20,0,1,0,0,0,7,1,0,0,0,0,0,0,12,21,0,5,0,0,0,0,6,0,0,1,0,0,0,0],"split_type":[0,0,0,0,0,0,0,0,0,0,0,0,0,0,0,0,0,0,0,0,0,0,0,0,0,0,0,0,0,0,0,0,0,0,0,0,0,0,0,0,0,0,0,0,0,0,0],"sum_hessian":[6.5E1,5.8E1,7E0,4.8E1,1E1,5E0,2E0,1.2E1,3.6E1,3E0,7E0,1E0,4E0,6E0,6E0,3E1,6E0,6E0,1E0,4E0,2E0,4E0,2E0,1.4E1,1.6E1,3E0,3E0,1E0,3E0,1E0,1E0,9E0,5E0,7E0,9E0,8E0,1E0,4E0,1E0,6E0,1E0,7E0,2E0,3E0,3E0,1E0,1E0],"tree_param":{"num_deleted":"0","num_feature":"24","num_nodes":"47","size_leaf_vector":"1"}},{"base_weights":[4.9270887E0,2.6560852E1,-1.1296208E1,-1.6092003E1,4.9059055E1,-2.7963436E0,-4.007119E0,-2.5516972E1,3.1866364E0,3.222704E1,9.866435E0,3.5557203E0,-3.4997394E0,-0E0,-3.2889996E1,7.512567E0,4.0076614E1,-1.1476261E1,2.7751318E1,-3.5516758E0,-6.064705E-1,2.4165742E0,-2.7050064E0,1.5031825E1,5.760864E1,-6.6900473E0,-3.9134736E0,-1.1316081E1,7.0081935E0,-1.1626374E0,2.368874E0,3.7095642E-1,6.664654E1,-1.3618929E1,4.265715E0,-1.3638086E0,-0E0,7.629078E0,1.153479E0,-1.5330213E1,-5.6748456E-1,-9.4087183E-1,-2.073856E0,1.1953736E-2,-3.4707642E-1],"categories":[],"categories_nodes":[],"categories_segments":[],"categories_sizes":[],"default_left":[0,0,0,0,0,0,0,0,0,0,0,0,0,0,0,0,0,0,0,0,0,0,0,0,0,0,0,0,0,0,0,0,0,0,0,0,0,0,0,0,0,0,0,0,0],"id":19,"left_children":[1,3,5,7,9,11,-1,13,-1,15,-1,17,-1,-1,19,21,23,25,27,-1,-1,-1,-1,29,31,33,-1,35,-1,-1,-1,-1,37,39,-1,-1,-1,-1,-1,41,43,-1,-1,-1,-1],"loss_changes":[2.213656E4,2.6863836E4,8.478613E3,5.3014473E3,1.1195113E4,6.2134E3,0E0,1.7122192E3,0E0,2.3709473E3,0E0,9.492551E3,0E0,0E0,6.994043E1,3.517151E3,3.6007793E3,1.6271326E3,1.7624352E4,0E0,0E0,0E0,0E0,1.7203925E3,2.3237969E3,5.564567E3,0E0,1.6166486E2,0E0,0E0,0E0,0E0,1.3384297E3,2.2449829E2,0E0,0E0,0E0,0E0,0E0,3.8446533E1,2.315487E1,0E0,0E0,0E0,0E0],"parents":[2147483647,0,0,1,1,2,2,3,3,4,4,5,5,7,7,9,9,11,11,14,14,15,15,16,16,17,17,18,18,23,23,24,24,25,25,27,27,32,32,33,33,39,39,40,40],"right_children":[2,4,6,8,10,12,-1,14,-1,16,-1,18,-1,-1,20,22,24,26,28,-1,-1,-1,-1,30,32,34,-1,36,-1,-1,-1,-1,38,40,-1,-1,-1,-1,-1,42,44,-1,-1,-1,-1],"split_conditions":[4.1E-1,1E0,1E0,1E0,1E0,6E-1,-4.007119E0,3.6E-1,3.1866364E0,3E1,9.866435E0,4.9E-1,-3.4997394E0,-0E0,3.5E1,2.5E1,2.5E1,8.7E1,1.7E1,-3.5516758E0,-6.064705E-1,2.4165742E0,-2.7050064E0,5E0,2.8E-1,5.5E1,-3.9134736E0,1E0,7.0081935E0,-1.1626374E0,2.368874E0,3.7095642E-1,1E0,4E1,4.265715E0,-1.3638086E0,-0E0,7.629078E0,1.153479E0,2.5E1,2.5E1,-9.4087183E-1,-2.073856E0,1.1953736E-2,-3.4707642E-1],"split_indices":[1,18,6,4,4,1,0,1,0,2,0,1,0,0,2,0,0,2,21,0,0,0,0,22,1,2,0,4,0,0,0,0,7,2,0,0,0,0,0,0,0,0,0,0,0],"split_type":[0,0,0,0,0,0,0,0,0,0,0,0,0,0,0,0,0,0,0,0,0,0,0,0,0,0,0,0,0,0,0,0,0,0,0,0,0,0,0,0,0,0,0,0,0],"sum_hessian":[6.1E1,2.6E1,3.5E1,9E0,1.7E1,2.8E1,7E0,8E0,1E0,1.4E1,3E0,2.4E1,4E0,2E0,6E0,4E0,1E1,1.5E1,9E0,5E0,1E0,3E0,1E0,5E0,5E0,1.4E1,1E0,5E0,4E0,1E0,4E0,1E0,4E0,1.3E1,1E0,4E0,1E0,3E0,1E0,1.1E1,2E0,7E0,4E0,1E0,1E0],"tree_param":{"num_deleted":"0","num_feature":"24","num_nodes":"45","size_leaf_vector":"1"}},{"base_weights":[1.6771017E0,8.817845E0,-2.613847E1,2.8225052E1,-5.856868E0,-3.3315163E1,3.107927E0,-1.0358821E0,3.8314026E1,-1.150162E1,1.1890091E1,-0E0,-3.942494E1,-1.2132876E1,3.0273042E0,2.2931602E1,5.8496174E1,-1.5566212E1,4.052429E0,-2.8730429E1,3.1052002E1,-4.675921E0,-2.0271969E1,-0E0,-1.4575092E0,1.4267032E1,5.662094E0,3.5240784E-1,6.623751E1,-1.80561E1,-4.2538605E0,-3.4176406E-1,-3.7178001E0,6.3804603E0,-2.1302135E0,-3.157341E0,9.966896E-1,1.9027748E0,3.4178789E0,7.410179E0,1.0958054E0,-0E0,-1.8982E1,2.089016E-1,-1.2959743E0,-2.9480653E0,8.740631E0,-2.0376863E1,-3.5487366E-1,6.5880334E-1,-1.3168142E0,1.4625163E0,-1.956482E-1,-2.598276E0,-1.2574195E0],"categories":[],"categories_nodes":[],"categories_segments":[],"categories_sizes":[],"default_left":[0,0,0,0,0,0,0,0,0,0,0,0,0,0,0,0,0,0,0,0,0,0,0,0,0,0,0,0,0,0,0,0,0,0,0,0,0,0,0,0,0,0,0,0,0,0,0,0,0,0,0,0,0,0,0],"id":20,"left_children":[1,3,5,7,9,11,-1,13,15,17,19,-1,21,23,-1,25,27,29,-1,31,33,-1,35,-1,-1,37,-1,-1,39,41,43,-1,-1,-1,-1,-1,-1,45,-1,-1,-1,-1,47,-1,-1,49,51,53,-1,-1,-1,-1,-1,-1,-1],"loss_changes":[1.3650303E4,1.5940887E4,6.7954697E3,7.3111855E3,3.340483E3,2.6688809E3,0E0,2.7086426E3,3.8395566E3,5.792622E3,7.1306797E3,0E0,2.6214844E2,1.7892645E2,0E0,2.3405908E3,2.396668E3,4.876377E2,0E0,3.1145557E2,1.1860092E4,0E0,2.1314355E3,0E0,0E0,2.4626921E3,0E0,0E0,1.3710879E3,2.9126123E2,4.1274872E2,0E0,0E0,0E0,0E0,0E0,0E0,3.2008557E2,0E0,0E0,0E0,0E0,1.9555127E2,0E0,0E0,6.06951E2,3.4374725E2,1.8035742E2,0E0,0E0,0E0,0E0,0E0,0E0,0E0],"parents":[2147483647,0,0,1,1,2,2,3,3,4,4,5,5,7,7,8,8,9,9,10,10,12,12,13,13,15,15,16,16,17,17,19,19,20,20,22,22,25,25,28,28,29,29,30,30,37,37,42,42,45,45,46,46,47,47],"right_children":[2,4,6,8,10,12,-1,14,16,18,20,-1,22,24,-1,26,28,30,-1,32,34,-1,36,-1,-1,38,-1,-1,40,42,44,-1,-1,-1,-1,-1,-1,46,-1,-1,-1,-1,48,-1,-1,50,52,54,-1,-1,-1,-1,-1,-1,-1],"split_conditions":[2.2E1,4.1E-1,4.5E1,1E0,1E0,3.6E-1,3.107927E0,1E0,2.5E1,7.5E1,1.7E1,-0E0,1E0,3.7E-1,3.0273042E0,1E0,2.8E-1,1E0,4.052429E0,2.5E1,5.1E-1,-4.675921E0,3E1,-0E0,-1.4575092E0,6E0,5.662094E0,3.5240784E-1,1E0,2E0,2.5E1,-3.4176406E-1,-3.7178001E0,6.3804603E0,-2.1302135E0,-3.157341E0,9.966896E-1,5E0,3.4178789E0,7.410179E0,1.0958054E0,-0E0,1E0,2.089016E-1,-1.2959743E0,2.6E1,1E0,1E0,-3.5487366E-1,6.5880334E-1,-1.3168142E0,1.4625163E0,-1.956482E-1,-2.598276E0,-1.2574195E0],"split_indices":[21,1,2,18,5,1,0,4,0,2,21,0,7,1,0,4,1,4,0,0,1,0,2,0,0,22,0,0,7,22,0,0,0,0,0,0,0,22,0,0,0,0,3,0,0,2,6,7,0,0,0,0,0,0,0],"split_type":[0,0,0,0,0,0,0,0,0,0,0,0,0,0,0,0,0,0,0,0,0,0,0,0,0,0,0,0,0,0,0,0,0,0,0,0,0,0,0,0,0,0,0,0,0,0,0,0,0,0,0,0,0,0,0],"sum_hessian":[6.7E1,5.4E1,1.3E1,2.3E1,3.1E1,1.2E1,1E0,6E0,1.7E1,2.4E1,7E0,2E0,1E1,5E0,1E0,1.1E1,6E0,2.3E1,1E0,2E0,5E0,6E0,4E0,1E0,4E0,1E1,1E0,1E0,5E0,1.8E1,5E0,1E0,1E0,3E0,2E0,3E0,1E0,7E0,3E0,4E0,1E0,1E0,1.7E1,3E0,2E0,4E0,3E0,1.5E1,2E0,2E0,2E0,2E0,1E0,7E0,8E0],"tree_param":{"num_deleted":"0","num_feature":"24","num_nodes":"55","size_leaf_vector":"1"}},{"base_weights":[-2.195851E-1,1.2788835E1,-1.2564366E1,2.3175147E0,7.902303E0,-7.0280466E0,-3.0618643E1,-2.4386908E1,1.975464E1,-1.1660724E1,5.189444E0,-2.668518E-1,-3.3998913E1,-3.253397E0,-7.1036406E0,9.484915E0,4.1505E0,-8.3200245E0,-2.5869389E0,-6.164864E-1,-3.733275E0,-1.2881653E0,-0E0,3.97966E0,1.9626824E0,-1.2848007E1,2.29732E1,-1.175666E1,1.3117606E1,-1.6517397E1,-6.998647E-1,4.020656E0,-3.2467577E-1,1.5476482E-1,-2.6245468E0,-0E0,2.295382E1,-0E0,-1.7597933E1,2.5495117E0,-1.0973374E0,-7.0373535E-2,3.4358826E-1,-6.60494E-1,9.9113923E-1,3.3478698E-1,2.6706512E0,-1.9537125E0,-6.615669E-1,3.1656304E-1,-0E0],"categories":[],"categories_nodes":[],"categories_segments":[],"categories_sizes":[],"default_left":[0,0,0,0,0,0,0,0,0,0,0,0,0,0,0,0,0,0,0,0,0,0,0,0,0,0,0,0,0,0,0,0,0,0,0,0,0,0,0,0,0,0,0,0,0,0,0,0,0,0,0],"id":21,"left_children":[1,3,5,7,-1,9,11,13,15,17,-1,-1,19,-1,21,23,-1,25,-1,-1,-1,-1,-1,27,-1,29,31,33,35,37,39,-1,-1,41,-1,43,45,-1,47,49,-1,-1,-1,-1,-1,-1,-1,-1,-1,-1,-1],"loss_changes":[9.9553125E3,2.0216943E4,2.7951133E3,1.30311E4,0E0,7.5011484E3,3.8728906E2,1.1195889E3,3.1486738E3,8.004905E2,0E0,0E0,1.0912549E2,0E0,2.4550238E2,5.296987E2,0E0,3.3618276E3,0E0,0E0,0E0,0E0,0E0,1.5990005E3,0E0,7.938794E2,1.6709137E3,8.248448E2,9.0301013E2,2.432544E2,2.7039102E2,0E0,0E0,2.452921E1,0E0,3.2734708E2,5.4618652E1,0E0,3.813965E1,7.584812E0,0E0,0E0,0E0,0E0,0E0,0E0,0E0,0E0,0E0,0E0,0E0],"parents":[2147483647,0,0,1,1,2,2,3,3,5,5,6,6,7,7,8,8,9,9,12,12,14,14,15,15,17,17,23,23,25,25,26,26,27,27,28,28,29,29,30,30,33,33,35,35,36,36,38,38,39,39],"right_children":[2,4,6,8,-1,10,12,14,16,18,-1,-1,20,-1,22,24,-1,26,-1,-1,-1,-1,-1,28,-1,30,32,34,36,38,40,-1,-1,42,-1,44,46,-1,48,50,-1,-1,-1,-1,-1,-1,-1,-1,-1,-1,-1],"split_conditions":[4.1E-1,1E0,1E1,1E0,7.902303E0,6.5E1,4.4E-1,1E0,6E0,6E-1,5.189444E0,-2.668518E-1,3.5E1,-3.253397E0,2.5E1,1E0,4.1505E0,1E0,-2.5869389E0,-6.164864E-1,-3.733275E0,-1.2881653E0,-0E0,3E1,1.9626824E0,1E0,5.1E-1,2.5E1,2.5E1,2E0,2.5E1,4.020656E0,-3.2467577E-1,2.1E1,-2.6245468E0,1E0,2.8E-1,-0E0,6E0,4.7E-1,-1.0973374E0,-7.0373535E-2,3.4358826E-1,-6.60494E-1,9.9113923E-1,3.3478698E-1,2.6706512E0,-1.9537125E0,-6.615669E-1,3.1656304E-1,-0E0],"split_indices":[1,4,22,18,0,2,1,3,22,1,0,0,2,0,0,3,0,5,0,0,0,0,0,2,0,4,1,0,0,22,0,0,0,2,0,7,1,0,22,1,0,0,0,0,0,0,0,0,0,0,0],"split_type":[0,0,0,0,0,0,0,0,0,0,0,0,0,0,0,0,0,0,0,0,0,0,0,0,0,0,0,0,0,0,0,0,0,0,0,0,0,0,0,0,0,0,0,0,0,0,0,0,0,0,0],"sum_hessian":[6E1,2.9E1,3.1E1,2.6E1,3E0,2.5E1,6E0,1E1,1.6E1,2.4E1,1E0,1E0,5E0,6E0,4E0,1.2E1,4E0,2.1E1,3E0,1E0,4E0,2E0,2E0,9E0,3E0,1.9E1,2E0,3E0,6E0,1.4E1,5E0,1E0,1E0,2E0,1E0,3E0,3E0,1E0,1.3E1,4E0,1E0,1E0,1E0,2E0,1E0,1E0,2E0,1E1,3E0,3E0,1E0],"tree_param":{"num_deleted":"0","num_feature":"24","num_nodes":"51","size_leaf_vector":"1"}},{"base_weights":[4.4467745E0,-1.7732672E1,1.8016247E1,-1.1509109E1,-4.161143E0,4.1270283E1,-2.4004955E0,-1.3793883E1,-0E0,2.0715424E1,8.545886E0,7.336242E0,-1.8547632E1,-1.6392466E1,-6.500206E-1,5.4166193E0,4.3110188E1,-1.1359781E1,4.0521835E1,-1.5545578E-1,-2.003885E0,-2.2063826E1,-5.265241E0,-5.8566207E-1,1.3710532E-1,-7.9374084E0,3.6437147E0,2.306015E-1,5.148473E0,-3.7916384E0,-3.345246E0,-7.618538E-1,5.5711565E0,-2.3620253E1,-3.0844194E-1,-6.714807E-1,-0E0,1.2415253E0,-1.423206E1,-1.6580362E0,4.036472E0,-2.558829E0,-3.4060135E-1,3.180481E-1,-1.9350666E1,-6.685486E-2,-2.2604058E0],"categories":[],"categories_nodes":[],"categories_segments":[],"categories_sizes":[],"default_left":[0,0,0,0,0,0,0,0,0,0,0,0,0,0,0,0,0,0,0,0,0,0,0,0,0,0,0,0,0,0,0,0,0,0,0,0,0,0,0,0,0,0,0,0,0,0,0],"id":22,"left_children":[1,3,5,7,-1,9,11,13,-1,15,-1,17,19,21,23,25,27,29,31,-1,-1,33,35,-1,-1,37,-1,-1,-1,39,-1,-1,-1,41,-1,-1,-1,-1,43,-1,-1,-1,-1,-1,45,-1,-1],"loss_changes":[1.7475807E4,2.5249272E3,1.7385197E4,5.276072E2,0E0,1.3139746E4,3.3365354E3,4.506189E2,0E0,3.9778247E3,0E0,8.671831E3,6.3604248E1,5.675679E2,7.254926E1,4.159956E3,1.3209023E3,1.1917449E3,4.3211016E3,0E0,0E0,2.9942383E1,5.9106583E1,0E0,0E0,1.0825691E3,0E0,0E0,0E0,5.0679673E3,0E0,0E0,0E0,4.6351074E1,0E0,0E0,0E0,0E0,6.7716284E2,0E0,0E0,0E0,0E0,0E0,1.7242639E2,0E0,0E0],"parents":[2147483647,0,0,1,1,2,2,3,3,5,5,6,6,7,7,9,9,11,11,12,12,13,13,14,14,15,15,16,16,17,17,18,18,21,21,22,22,25,25,29,29,33,33,38,38,44,44],"right_children":[2,4,6,8,-1,10,12,14,-1,16,-1,18,20,22,24,26,28,30,32,-1,-1,34,36,-1,-1,38,-1,-1,-1,40,-1,-1,-1,42,-1,-1,-1,-1,44,-1,-1,-1,-1,-1,46,-1,-1],"split_conditions":[1E0,2.3E1,4.1E-1,1E0,-4.161143E0,1E0,5.1E-1,1E0,-0E0,1E0,8.545886E0,5E-1,5.3E-1,1E0,2.4E1,4.3E1,2.6E1,8.7E1,1E0,-1.5545578E-1,-2.003885E0,4.9E-1,1.8E1,-5.8566207E-1,1.3710532E-1,1.6E1,3.6437147E0,2.306015E-1,5.148473E0,4E1,-3.345246E0,-7.618538E-1,5.5711565E0,1.8E1,-3.0844194E-1,-6.714807E-1,-0E0,1.2415253E0,2.8E-1,-1.6580362E0,4.036472E0,-2.558829E0,-3.4060135E-1,3.180481E-1,2.1E1,-6.685486E-2,-2.2604058E0],"split_indices":[18,21,1,3,0,4,1,4,0,3,0,1,1,7,0,2,2,2,5,0,0,1,21,0,0,2,0,0,0,2,0,0,0,21,0,0,0,0,1,0,0,0,0,0,2,0,0],"split_type":[0,0,0,0,0,0,0,0,0,0,0,0,0,0,0,0,0,0,0,0,0,0,0,0,0,0,0,0,0,0,0,0,0,0,0,0,0,0,0,0,0,0,0,0,0,0,0],"sum_hessian":[5.6E1,2.1E1,3.5E1,1.8E1,3E0,1.6E1,1.9E1,1.5E1,3E0,1.2E1,4E0,1.2E1,7E0,1.2E1,3E0,8E0,4E0,8E0,4E0,1E0,6E0,7E0,5E0,1E0,2E0,6E0,2E0,1E0,3E0,7E0,1E0,1E0,3E0,6E0,1E0,4E0,1E0,1E0,5E0,6E0,1E0,5E0,1E0,1E0,4E0,1E0,3E0],"tree_param":{"num_deleted":"0","num_feature":"24","num_nodes":"47","size_leaf_vector":"1"}},{"base_weights":[-8.438699E-1,4.5269375E0,-3.7616337E1,2.1216984E1,-7.454251E0,-0E0,-4.369627E0,8.803873E0,7.6728296E0,-1.462238E1,9.277872E0,-6.750833E0,2.259871E1,-7.739915E0,-2.097235E1,-6.115461E0,3.5146736E1,-1.54555025E1,4.044937E0,-1.1409556E0,2.8556519E1,-4.658197E0,-1.2259232E0,-2.6174924E0,-8.494278E0,2.6252415E0,-3.177984E0,5.3799267E0,-7.905426E-1,-5.164143E-1,-2.2358816E0,-1.0767158E0,1.1689751E0,-3.2357103E-1,-0E0,1.5182617E1,4.0228243E0,1.4098244E0,-8.174467E0,1.6141602E0,-1.9938648E1,3.8346481E0,-1.1188303E1,5.438031E0,2.9452775E0,-0E0,2.2456615E-1,-9.9276763E-1,-8.609619E-1,-2.9301986E-1,-2.2964733E0,-0E0,-1.5126514E1,-0E0,1.0484325E0,-0E0,-2.2827378E-1,-1.7517465E0,-1.4768295E-1],"categories":[],"categories_nodes":[],"categories_segments":[],"categories_sizes":[],"default_left":[0,0,0,0,0,0,0,0,0,0,0,0,0,0,0,0,0,0,0,0,0,0,0,0,0,0,0,0,0,0,0,0,0,0,0,0,0,0,0,0,0,0,0,0,0,0,0,0,0,0,0,0,0,0,0,0,0,0,0],"id":23,"left_children":[1,3,5,7,9,-1,-1,11,-1,13,15,17,19,21,23,25,27,29,31,33,35,37,-1,-1,39,41,-1,-1,-1,-1,-1,-1,-1,-1,-1,43,-1,45,47,-1,49,-1,51,53,-1,-1,-1,-1,55,-1,-1,-1,57,-1,-1,-1,-1,-1,-1],"loss_changes":[1.2383102E4,1.1025167E4,2.0456377E3,1.4745397E4,4.0004038E3,0E0,0E0,4.523292E3,0E0,6.9929346E2,4.3421753E3,1.0593054E3,1.7254595E3,3.936133E1,3.1841602E2,1.7994756E3,3.8669019E3,1.7318799E2,6.966569E2,1.7034302E1,5.1704443E2,2.5871576E2,0E0,0E0,1.7505375E3,3.5254446E3,0E0,0E0,0E0,0E0,0E0,0E0,0E0,0E0,0E0,4.9972156E2,0E0,7.1785665E0,2.726419E1,0E0,9.110107E0,0E0,2.8935516E2,1.8190225E2,0E0,0E0,0E0,0E0,8.198017E0,0E0,0E0,0E0,9.701233E0,0E0,0E0,0E0,0E0,0E0,0E0],"parents":[2147483647,0,0,1,1,2,2,3,3,4,4,7,7,9,9,10,10,11,11,12,12,13,13,14,14,15,15,16,16,17,17,18,18,19,19,20,20,21,21,24,24,25,25,35,35,37,37,38,38,40,40,42,42,43,43,48,48,52,52],"right_children":[2,4,6,8,10,-1,-1,12,-1,14,16,18,20,22,24,26,28,30,32,34,36,38,-1,-1,40,42,-1,-1,-1,-1,-1,-1,-1,-1,-1,44,-1,46,48,-1,50,-1,52,54,-1,-1,-1,-1,56,-1,-1,-1,58,-1,-1,-1,-1,-1,-1],"split_conditions":[2.3E1,4.1E-1,3.6E-1,1E0,4.5E1,-0E0,-4.369627E0,3E1,7.6728296E0,4.8E-1,1.7E1,1.7E1,1E0,2.5E1,1E0,8.7E1,5.6E-1,2.4E1,1E0,2.5E1,3.6E-1,4.5E-1,-1.2259232E0,-2.6174924E0,5.1E-1,4.6E-1,-3.177984E0,5.3799267E0,-7.905426E-1,-5.164143E-1,-2.2358816E0,-1.0767158E0,1.1689751E0,-3.2357103E-1,-0E0,1E0,4.0228243E0,4.2E-1,6E0,1.6141602E0,6E-1,3.8346481E0,2.5E1,2.5E1,2.9452775E0,-0E0,2.2456615E-1,-9.9276763E-1,4.7E-1,-2.9301986E-1,-2.2964733E0,-0E0,1E0,-0E0,1.0484325E0,-0E0,-2.2827378E-1,-1.7517465E0,-1.4768295E-1],"split_indices":[21,1,1,4,2,0,0,2,0,1,21,21,18,0,5,2,1,2,18,0,1,1,0,0,1,1,0,0,0,0,0,0,0,0,0,3,0,1,22,0,1,0,0,0,0,0,0,0,1,0,0,0,7,0,0,0,0,0,0],"split_type":[0,0,0,0,0,0,0,0,0,0,0,0,0,0,0,0,0,0,0,0,0,0,0,0,0,0,0,0,0,0,0,0,0,0,0,0,0,0,0,0,0,0,0,0,0,0,0,0,0,0,0,0,0,0,0,0,0,0,0],"sum_hessian":[6E1,5.3E1,7E0,2.2E1,3.1E1,1E0,6E0,1.9E1,3E0,2.2E1,9E0,9E0,1E1,1.2E1,1E1,6E0,3E0,5E0,4E0,2E0,8E0,9E0,3E0,6E0,4E0,5E0,1E0,2E0,1E0,3E0,2E0,1E0,3E0,1E0,1E0,5E0,3E0,3E0,6E0,1E0,3E0,1E0,4E0,4E0,1E0,1E0,2E0,4E0,2E0,1E0,2E0,1E0,3E0,2E0,2E0,1E0,1E0,2E0,1E0],"tree_param":{"num_deleted":"0","num_feature":"24","num_nodes":"59","size_leaf_vector":"1"}},{"base_weights":[4.3486476E0,1.8824257E1,-9.706768E0,8.154105E0,6.8204308E0,-4.500811E0,-2.9917045E0,-1.3180397E1,2.1462523E1,-9.556161E0,6.0655046E0,-1.8289295E1,-1.3700821E0,1.15764475E1,4.011961E1,-5.0907073E0,-2.1827474E0,2.724778E1,-1.9566326E0,-2.0986996E1,-0E0,-2.1589649E0,7.832222E0,3.1091933E0,2.5195667E1,5.349123E0,1.881099E1,-1.3225203E0,-3.019085E0,-0E0,4.196645E0,-2.9241343E0,-1.0836989E0,1.5360641E0,-0E0,-1.1791875E1,8.933445E0,6.219279E-1,3.9704182E0,4.7612306E-1,2.7980134E0,-6.601242E0,3.6429155E0,-2.0427628E-1,-0E0,2.4972382E-1,-2.268505E0,-5.5288086E0,1.9716558E0,-3.7690736E-2,3.8097993E-1,-9.501072E0,9.863281E-2,-1.0343007E0,1.956894E-1,-2.7533907E-1,-1.2249264E0,2.7131006E-1,-2.679619E-1],"categories":[],"categories_nodes":[],"categories_segments":[],"categories_sizes":[],"default_left":[0,0,0,0,0,0,0,0,0,0,0,0,0,0,0,0,0,0,0,0,0,0,0,0,0,0,0,0,0,0,0,0,0,0,0,0,0,0,0,0,0,0,0,0,0,0,0,0,0,0,0,0,0,0,0,0,0,0,0],"id":24,"left_children":[1,3,5,7,-1,9,-1,11,13,15,17,19,21,23,25,27,-1,29,-1,31,-1,-1,33,35,37,-1,39,41,-1,43,-1,-1,-1,-1,-1,45,47,49,-1,-1,-1,51,-1,-1,-1,-1,-1,53,-1,-1,-1,55,57,-1,-1,-1,-1,-1,-1],"loss_changes":[1.4470559E4,1.7503305E4,3.4809575E3,8.842149E3,0E0,1.6779089E3,0E0,6.0069775E2,2.781539E3,9.050282E2,6.000951E3,4.0719165E2,1.1682151E3,1.3945808E3,3.418506E2,1.4103997E3,0E0,2.5900815E3,0E0,6.919214E1,0E0,0E0,2.2652382E2,9.589257E2,1.5563184E3,0E0,2.1837024E2,3.2798276E3,0E0,8.345759E0,0E0,0E0,0E0,0E0,0E0,6.245504E2,1.4275328E3,2.8152876E1,0E0,0E0,0E0,3.3937677E2,0E0,0E0,0E0,0E0,0E0,2.0632138E2,0E0,0E0,0E0,9.524286E1,4.3755726E1,0E0,0E0,0E0,0E0,0E0,0E0],"parents":[2147483647,0,0,1,1,2,2,3,3,5,5,7,7,8,8,9,9,10,10,11,11,12,12,13,13,14,14,15,15,17,17,19,19,22,22,23,23,24,24,26,26,27,27,29,29,35,35,36,36,37,37,41,41,47,47,51,51,52,52],"right_children":[2,4,6,8,-1,10,-1,12,14,16,18,20,22,24,26,28,-1,30,-1,32,-1,-1,34,36,38,-1,40,42,-1,44,-1,-1,-1,-1,-1,46,48,50,-1,-1,-1,52,-1,-1,-1,-1,-1,54,-1,-1,-1,56,58,-1,-1,-1,-1,-1,-1],"split_conditions":[4.1E-1,1E0,1E0,1E0,6.8204308E0,5E-1,-2.9917045E0,1E0,1E0,4.1E1,5.6E-1,2.5E1,2E1,1E0,4E0,8.7E1,-2.1827474E0,1.7E1,-1.9566326E0,2.4E1,-0E0,-2.1589649E0,2.4E1,2E0,2.5E1,5.349123E0,1.8E1,6E1,-3.019085E0,5.4E-1,4.196645E0,-2.9241343E0,-1.0836989E0,1.5360641E0,-0E0,2.8E-1,1E0,2.1E1,3.9704182E0,4.7612306E-1,2.7980134E0,1E0,3.6429155E0,-2.0427628E-1,-0E0,2.4972382E-1,-2.268505E0,4.3E1,1.9716558E0,-3.7690736E-2,3.8097993E-1,3.4E1,2.5E1,-1.0343007E0,1.956894E-1,-2.7533907E-1,-1.2249264E0,2.7131006E-1,-2.679619E-1],"split_indices":[1,4,6,18,0,1,0,7,3,20,1,0,2,6,22,2,0,21,0,0,0,0,0,22,0,0,21,2,0,1,0,0,0,0,0,1,7,2,0,0,0,4,0,0,0,0,0,2,0,0,0,2,0,0,0,0,0,0,0],"split_type":[0,0,0,0,0,0,0,0,0,0,0,0,0,0,0,0,0,0,0,0,0,0,0,0,0,0,0,0,0,0,0,0,0,0,0,0,0,0,0,0,0,0,0,0,0,0,0,0,0,0,0,0,0,0,0,0,0,0,0],"sum_hessian":[6.9E1,3.4E1,3.5E1,2.9E1,5E0,2.9E1,6E0,1.1E1,1.8E1,2E1,9E0,7E0,4E0,1.3E1,5E0,1.6E1,4E0,5E0,4E0,6E0,1E0,1E0,3E0,9E0,4E0,2E0,3E0,1.5E1,1E0,2E0,3E0,2E0,4E0,1E0,2E0,2E0,7E0,2E0,2E0,2E0,1E0,1.4E1,1E0,1E0,1E0,1E0,1E0,3E0,4E0,1E0,1E0,1E1,4E0,2E0,1E0,4E0,6E0,3E0,1E0],"tree_param":{"num_deleted":"0","num_feature":"24","num_nodes":"59","size_leaf_vector":"1"}}]},"name":"gbtree"},"learner_model_param":{"base_score":"2.5533333E2","boost_from_average":"1","num_class":"0","num_feature":"24","num_target":"1"},"objective":{"name":"reg:squarederror","reg_loss_param":{"scale_pos_weight":"1"}}},"version":[3,0,2]}