{"learner":{"attributes":{"scikit_learn":"{\"_estimator_type\": \"regressor\"}"},"feature_names":[],"feature_types":[],"gradient_booster":{"model":{"gbtree_model_param":{"num_parallel_tree":"1","num_trees":"25"},"iteration_indptr":[0,1,2,3,4,5,6,7,8,9,10,11,12,13,14,15,16,17,18,19,20,21,22,23,24,25],"tree_info":[0,0,0,0,0,0,0,0,0,0,0,0,0,0,0,0,0,0,0,0,0,0,0,0,0],"trees":[{"base_weights":[-1.0303641E1,2.9085495E2,-7.732132E1,4.112264E2,4.248235E1,-2.2862228E1,-1.5273782E2,2.0048488E2,6.64379E2,2.0722755E1,8.006624E0,-5.9862892E1,1.3328355E2,-1.651448E1,-8.977852E0,8.2295586E1,2.813373E2,7.070567E1,-7.0747867E0,8.153845E0,3.5003662E1,-1.0061556E2,2.2785433E1,2.4980398E1,3.8979057E1,9.111491E0,4.0628204E0,4.5708688E2,1.4725385E2,-7.4643964E-1,1.8203419E1,3.8920228E0,3.2521364E-1,-1.21289894E2,5.379558E1,-3.7875128E0,9.5003944E1,-4.846032E1,2.0900366E1,4.2752137E0,5.3040344E1,1.0022602E2,2.8275213E1,-3.3717957E0,1.3361816E-1,-0E0,2.1628206E0,-2.0662868E1,-1.3141136E2,-2.596582E0,8.294124E1,4.3865147E1,-4.8995953E1,1.0400388E2,2.8669517E0,2.1628204E1,-6.999612E0,1.0644124E2,2.2752137E0,2.2521363E-1,-7.6638186E-1,2.7920227E1,-8.96218E0,-1.7080841E1,-1.11375435E2,1.4128204E1,-3.7247865E0,-0E0,9.5432236E1,1.0794124E1,-6.268843E0,-7.560317E1,2.0420227E1,2.0252137E0,1.0985385E1,1.0525214E1,-3.9663818E0,1.1314652E1,2.7252138E0,-1.7997153E0,5.6628203E0,2.0252137E0,-1.1433543E1,2.0336182E0,-0E0,1.1540342E1,2.8669517E0,-4.299634E0,4.540342E0,-9.788509E0,-2.874644E0,5.3669515E0,-8.371796E-1],"categories":[],"categories_nodes":[],"categories_segments":[],"categories_sizes":[],"default_left":[0,0,0,0,0,0,0,0,0,0,0,0,0,0,0,0,0,0,0,0,0,0,0,0,0,0,0,0,0,0,0,0,0,0,0,0,0,0,0,0,0,0,0,0,0,0,0,0,0,0,0,0,0,0,0,0,0,0,0,0,0,0,0,0,0,0,0,0,0,0,0,0,0,0,0,0,0,0,0,0,0,0,0,0,0,0,0,0,0,0,0,0,0],"id":0,"left_children":[1,3,5,7,9,11,13,15,17,19,-1,21,23,-1,-1,25,27,-1,-1,29,31,33,35,-1,37,-1,-1,39,41,43,45,-1,-1,47,49,51,53,55,-1,-1,-1,57,-1,59,-1,-1,-1,61,63,65,67,69,71,73,-1,75,-1,77,-1,-1,-1,79,-1,-1,81,83,-1,-1,85,-1,87,89,91,-1,-1,-1,-1,-1,-1,-1,-1,-1,-1,-1,-1,-1,-1,-1,-1,-1,-1,-1,-1],"loss_changes":[7.4285645E6,1.9833585E6,1.2318715E6,2.263217E6,1.6646496E4,1.0244512E6,8.2322E4,2.2348212E5,6.80674E5,2.370725E3,0E0,4.8432572E5,3.624245E5,0E0,0E0,4.91875E1,2.8314738E5,0E0,0E0,9.953131E2,5.330615E2,3.133277E5,9.293073E4,0E0,3.08268E5,0E0,0E0,1.5672375E5,3.346789E4,4.7489136E1,2.1429492E2,0E0,0E0,8.3096375E4,2.0340125E4,7.972976E4,4.115961E3,2.28875E4,0E0,0E0,0E0,1.2659219E3,0E0,1.4087054E2,0E0,0E0,0E0,3.2962914E4,4.0345625E4,3.53952E3,8.7171875E3,5.9008047E4,3.6912207E4,2.514086E3,0E0,2.5004562E4,0E0,4.6240625E2,0E0,0E0,0E0,9.121472E3,0E0,0E0,2.382525E4,4.4225616E2,0E0,0E0,5.304383E3,0E0,2.2815865E4,1.1169805E4,6.4196846E3,0E0,0E0,0E0,0E0,0E0,0E0,0E0,0E0,0E0,0E0,0E0,0E0,0E0,0E0,0E0,0E0,0E0,0E0,0E0,0E0],"parents":[2147483647,0,0,1,1,2,2,3,3,4,4,5,5,6,6,7,7,8,8,9,9,11,11,12,12,15,15,16,16,19,19,20,20,21,21,22,22,24,24,27,27,28,28,29,29,30,30,33,33,34,34,35,35,36,36,37,37,41,41,43,43,47,47,48,48,49,49,50,50,51,51,52,52,53,53,55,55,57,57,61,61,64,64,65,65,68,68,70,70,71,71,72,72],"right_children":[2,4,6,8,10,12,14,16,18,20,-1,22,24,-1,-1,26,28,-1,-1,30,32,34,36,-1,38,-1,-1,40,42,44,46,-1,-1,48,50,52,54,56,-1,-1,-1,58,-1,60,-1,-1,-1,62,64,66,68,70,72,74,-1,76,-1,78,-1,-1,-1,80,-1,-1,82,84,-1,-1,86,-1,88,90,92,-1,-1,-1,-1,-1,-1,-1,-1,-1,-1,-1,-1,-1,-1,-1,-1,-1,-1,-1,-1],"split_conditions":[2.021E3,1E0,1E0,4.8E1,5.1E-1,1E0,1E0,3.9E1,4E1,3E0,8.006624E0,5.3E1,1E0,-1.651448E1,-8.977852E0,1E0,5E0,7.070567E1,-7.0747867E0,1E0,4.7E-1,5.1E1,1E0,2.4980398E1,6E1,9.111491E0,4.0628204E0,3E-1,1E0,2.9E1,4.2E-1,3.8920228E0,3.2521364E-1,2E1,4.1E1,3.5E1,2E1,4E0,2.0900366E1,4.2752137E0,5.3040344E1,4.7E1,2.8275213E1,4.2E1,1.3361816E-1,-0E0,2.1628206E0,1E0,3.5E1,1E0,1.4E1,1.8E1,5.1E1,3E1,2.8669517E0,5.7E-1,-6.999612E0,2.6E1,2.2752137E0,2.2521363E-1,-7.6638186E-1,3.6E-1,-8.96218E0,-1.7080841E1,2.7E-1,1.4E1,-3.7247865E0,-0E0,1E0,1.0794124E1,3.5E-1,2E1,8E0,2.0252137E0,1.0985385E1,1.0525214E1,-3.9663818E0,1.1314652E1,2.7252138E0,-1.7997153E0,5.6628203E0,2.0252137E0,-1.1433543E1,2.0336182E0,-0E0,1.1540342E1,2.8669517E0,-4.299634E0,4.540342E0,-9.788509E0,-2.874644E0,5.3669515E0,-8.371796E-1],"split_indices":[23,18,18,2,1,4,4,2,0,22,0,2,19,0,0,6,21,0,0,3,1,0,5,0,2,0,0,1,6,21,1,0,0,0,2,0,21,21,0,0,0,2,0,2,0,0,0,6,2,6,21,21,0,0,0,1,0,21,0,0,0,1,0,0,1,21,0,0,6,0,1,21,22,0,0,0,0,0,0,0,0,0,0,0,0,0,0,0,0,0,0,0,0],"split_type":[0,0,0,0,0,0,0,0,0,0,0,0,0,0,0,0,0,0,0,0,0,0,0,0,0,0,0,0,0,0,0,0,0,0,0,0,0,0,0,0,0,0,0,0,0,0,0,0,0,0,0,0,0,0,0,0,0,0,0,0,0,0,0,0,0,0,0,0,0,0,0,0,0,0,0,0,0,0,0,0,0,0,0,0,0,0,0,0,0,0,0,0,0],"sum_hessian":[3.66E2,6.6E1,3E2,4.4E1,2.2E1,1.75E2,1.25E2,2.5E1,1.9E1,1.5E1,7E0,1.42E2,3.3E1,1.03E2,2.2E1,1.1E1,1.4E1,1.8E1,1E0,9E0,6E0,9.5E1,4.7E1,1.4E1,1.9E1,8E0,3E0,5E0,9E0,5E0,4E0,5E0,1E0,8.4E1,1.1E1,3.5E1,1.2E1,1.3E1,6E0,1E0,4E0,8E0,1E0,3E0,2E0,1E0,3E0,8E0,7.6E1,4E0,7E0,1.7E1,1.8E1,1E1,2E0,3E0,1E1,7E0,1E0,1E0,2E0,5E0,3E0,2.3E1,5.3E1,3E0,1E0,1E0,6E0,7E0,1E1,1.3E1,5E0,1E0,9E0,1E0,2E0,6E0,1E0,2E0,3E0,1E0,5.2E1,2E0,1E0,4E0,2E0,6E0,4E0,8E0,5E0,2E0,3E0],"tree_param":{"num_deleted":"0","num_feature":"24","num_nodes":"93","size_leaf_vector":"1"}},{"base_weights":[2.5026412E0,2.9141013E2,-6.474304E1,4.1742056E2,2.7038801E1,-1.9783121E1,-1.409158E2,2.1499377E2,6.2788477E2,8.777633E0,4.143074E1,-4.8415432E1,1.2562992E2,-1.506103E1,-7.701683E0,7.604673E1,3.283022E2,6.627623E1,-6.7210474E0,1.5155069E1,-2.1817932E0,3.0210667E1,5.787324E0,-8.508806E1,1.3617733E1,2.3314013E1,3.2359715E0,8.152041E0,2.896097E0,4.5158258E2,8.783126E0,-0E0,1.6676611E0,4.8499045E-1,-1.0152893E0,4.2268615E0,8.699002E0,-1.04451805E2,5.512927E1,-9.681144E0,6.58932E1,-4.707971E1,1.6720295E1,5.0200174E2,2.1614532E0,-4.36467E-1,1.4306087E0,-8.7786644E1,-1.4641489E1,6.0975995E0,9.557105E0,3.6518566E1,-4.460568E1,2.821437E1,9.648272E1,2.1607197E1,-7.03465E0,5.5240353E1,7.2094812E0,-9.9480705E1,-4.028183E1,1.9742355E1,-3.5385468E0,8.3372856E1,-2.4249855E1,-6.477802E1,1.5805773E1,7.82388E0,-1.7341713E1,1.1714767E2,3.494838E0,9.998954E0,-3.6183426E0,-5.6942716E0,-1.1316249E1,3.1560965E0,-5.4146953E0,2.9916432E-1,2.6119802E0,3.1032608E0,9.849638E0,-5.672487E0,1.2075132E0,-7.662001E0,2.2252614E0,5.0091543E0,-6.9268435E-1,-1.5138337E-1,-4.5740557E0,1.9239533E0,1.2942576E1],"categories":[],"categories_nodes":[],"categories_segments":[],"categories_sizes":[],"default_left":[0,0,0,0,0,0,0,0,0,0,0,0,0,0,0,0,0,0,0,0,0,0,0,0,0,0,0,0,0,0,0,0,0,0,0,0,0,0,0,0,0,0,0,0,0,0,0,0,0,0,0,0,0,0,0,0,0,0,0,0,0,0,0,0,0,0,0,0,0,0,0,0,0,0,0,0,0,0,0,0,0,0,0,0,0,0,0,0,0,0,0],"id":1,"left_children":[1,3,5,7,9,11,13,15,17,19,21,23,25,-1,-1,27,29,-1,-1,31,33,35,-1,37,39,-1,41,-1,-1,43,-1,-1,-1,-1,-1,-1,45,47,49,51,53,55,-1,57,-1,-1,-1,59,-1,61,-1,63,65,67,69,71,-1,-1,-1,73,75,77,-1,79,81,83,85,-1,87,89,-1,-1,-1,-1,-1,-1,-1,-1,-1,-1,-1,-1,-1,-1,-1,-1,-1,-1,-1,-1,-1],"loss_changes":[7.3054185E6,2.351753E6,1.04094875E6,1.9057665E6,5.6928223E3,8.0925406E5,5.726225E4,3.8235262E5,6.05116E5,9.3664825E2,2.0950781E2,3.7005288E5,4.1913888E5,0E0,0E0,4.3721094E2,3.7267475E5,0E0,0E0,1.0935657E2,3.5600732E2,1.971331E3,0E0,2.829485E5,7.521453E4,0E0,1.4047422E5,0E0,0E0,1.8163912E5,0E0,0E0,0E0,0E0,0E0,0E0,4.7839407E2,4.8914688E4,2.4686965E4,7.1050016E4,1.855329E4,2.2539295E4,0E0,1.30396375E5,0E0,0E0,0E0,3.2514094E4,0E0,4.582561E3,0E0,5.641536E4,3.1734742E4,2.445045E4,7.8614375E3,2.2056049E4,0E0,0E0,0E0,2.3551438E4,1.6763498E4,4.1726196E2,0E0,5.0030156E3,1.15251E4,2.155854E4,6.018636E3,0E0,2.3914448E3,5.181461E3,0E0,0E0,0E0,0E0,0E0,0E0,0E0,0E0,0E0,0E0,0E0,0E0,0E0,0E0,0E0,0E0,0E0,0E0,0E0,0E0,0E0],"parents":[2147483647,0,0,1,1,2,2,3,3,4,4,5,5,6,6,7,7,8,8,9,9,10,10,11,11,12,12,15,15,16,16,19,19,20,20,21,21,23,23,24,24,26,26,29,29,36,36,37,37,38,38,39,39,40,40,41,41,43,43,47,47,49,49,51,51,52,52,53,53,54,54,55,55,59,59,60,60,61,61,63,63,64,64,65,65,66,66,68,68,69,69],"right_children":[2,4,6,8,10,12,14,16,18,20,22,24,26,-1,-1,28,30,-1,-1,32,34,36,-1,38,40,-1,42,-1,-1,44,-1,-1,-1,-1,-1,-1,46,48,50,52,54,56,-1,58,-1,-1,-1,60,-1,62,-1,64,66,68,70,72,-1,-1,-1,74,76,78,-1,80,82,84,86,-1,88,90,-1,-1,-1,-1,-1,-1,-1,-1,-1,-1,-1,-1,-1,-1,-1,-1,-1,-1,-1,-1,-1],"split_conditions":[2.021E3,1E0,1E0,4.8E1,4.8E1,1E0,1E0,4E1,4E1,1.9E1,4.6E-1,5.3E1,1E0,-1.506103E1,-7.701683E0,1E0,3E0,6.627623E1,-6.7210474E0,4.2E-1,4.8E-1,4.2E-1,5.787324E0,5.1E1,1E0,2.3314013E1,6E1,8.152041E0,2.896097E0,4.6E1,8.783126E0,-0E0,1.6676611E0,4.8499045E-1,-1.0152893E0,4.2268615E0,4.3E-1,4.1E-1,4.1E1,3.5E1,6.6E1,4E0,1.6720295E1,3.6E-1,2.1614532E0,-4.36467E-1,1.4306087E0,1E0,-1.4641489E1,1E0,9.557105E0,1.8E1,5.1E1,9E0,1.9E1,1.2E1,-7.03465E0,5.5240353E1,7.2094812E0,3.1E-1,2E1,3.6E-1,-3.5385468E0,1.2E1,6.1E1,1E0,8E0,7.82388E0,3.1E-1,7E0,3.494838E0,9.998954E0,-3.6183426E0,-5.6942716E0,-1.1316249E1,3.1560965E0,-5.4146953E0,2.9916432E-1,2.6119802E0,3.1032608E0,9.849638E0,-5.672487E0,1.2075132E0,-7.662001E0,2.2252614E0,5.0091543E0,-6.9268435E-1,-1.5138337E-1,-4.5740557E0,1.9239533E0,1.2942576E1],"split_indices":[23,18,18,2,2,4,4,2,0,21,1,2,19,0,0,6,22,0,0,1,1,1,0,0,5,0,2,0,0,2,0,0,0,0,0,0,1,1,2,0,2,21,0,1,0,0,0,7,0,6,0,21,0,22,21,22,0,0,0,1,0,1,0,22,2,3,22,0,1,20,0,0,0,0,0,0,0,0,0,0,0,0,0,0,0,0,0,0,0,0,0],"split_type":[0,0,0,0,0,0,0,0,0,0,0,0,0,0,0,0,0,0,0,0,0,0,0,0,0,0,0,0,0,0,0,0,0,0,0,0,0,0,0,0,0,0,0,0,0,0,0,0,0,0,0,0,0,0,0,0,0,0,0,0,0,0,0,0,0,0,0,0,0,0,0,0,0,0,0,0,0,0,0,0,0,0,0,0,0,0,0,0,0,0,0],"sum_hessian":[3.74E2,7E1,3.04E2,4.7E1,2.3E1,1.92E2,1.12E2,2.5E1,2.2E1,1.1E1,1.2E1,1.61E2,3.1E1,9.6E1,1.6E1,1.2E1,1.3E1,2.1E1,1E0,7E0,4E0,9E0,3E0,1.01E2,6E1,1.6E1,1.5E1,1E1,2E0,8E0,5E0,1E0,6E0,2E0,2E0,5E0,4E0,8.9E1,1.2E1,4.2E1,1.8E1,1.2E1,3E0,7E0,1E0,1E0,3E0,6.6E1,2.3E1,6E0,6E0,1.8E1,2.4E1,9E0,9E0,3E0,9E0,6E0,1E0,5.2E1,1.4E1,5E0,1E0,1E1,8E0,1.8E1,6E0,4E0,5E0,6E0,3E0,1E0,2E0,1.4E1,3.8E1,2E0,1.2E1,2E0,3E0,3E0,7E0,4E0,4E0,1.6E1,2E0,2E0,4E0,4E0,1E0,1E0,5E0],"tree_param":{"num_deleted":"0","num_feature":"24","num_nodes":"91","size_leaf_vector":"1"}},{"base_weights":[7.773402E0,2.9104095E2,-5.7461803E1,4.2041446E2,2.5349468E1,-1.2479805E1,-1.2920671E2,1.6056332E2,5.6214465E2,1.6287165E1,5.552879E0,-4.1509495E1,1.1110414E2,-1.3688177E2,-7.1890182E0,6.759018E1,3.3441122E2,5.861048E2,-6.3849945E0,3.0354555E1,7.7329583E0,1.5954316E1,-7.7800125E1,2.1443281E1,1.7469563E1,-1.3793101E1,-5.4613476E0,7.989436E1,1.8682178E1,4.704965E1,3.982716E0,3.055007E2,6.1858143E1,2.4633129E-1,4.001839E0,1.3018832E1,-3.3853822E0,4.882092E1,-1.8372986E1,-1.18074135E2,-1.7847687E1,-4.3335117E1,1.6740301E1,8.910663E0,2.7030234E0,2.1626587E-1,3.162037E0,3.7035896E1,2.0533807E0,1.6080143E1,-0E0,2.1670635E-1,-9.4760334E-1,-2.7566391E1,6.134372E1,-3.9918854E1,7.36303E1,2.1946876E0,-1.2110992E2,-4.8399223E1,2.8782597E1,-5.8840332E1,1.2764301E1,1.7242367E0,1.47229E-1,-4.1464385E-1,4.9200287E-1,-3.9021507E1,6.627037E-1,8.673265E1,3.1215954E1,-5.5259644E1,1.7036913E1,1.8101196E-1,8.663232E0,3.8160476E-1,-1.23586624E2,-8.145699E1,1.5192278E1,7.444866E1,-5.561905E0,-1.3230728E0,-6.132932E0,9.499006E0,-4.4640975E0,-1.05385594E-1,-4.965944E0,4.8974643E0,1.1678E1,8.722733E0,-0E0,-6.5061975E0,-0E0,-1.1474203E0,3.5411022E0,-1.3244525E1,-9.395706E0,-2.1745763E0,-9.317914E0,-7.035538E-1,4.598593E0,-3.522606E-1,8.886431E0,-2.7132578E0,3.232725E0],"categories":[],"categories_nodes":[],"categories_segments":[],"categories_sizes":[],"default_left":[0,0,0,0,0,0,0,0,0,0,0,0,0,0,0,0,0,0,0,0,0,0,0,0,0,0,0,0,0,0,0,0,0,0,0,0,0,0,0,0,0,0,0,0,0,0,0,0,0,0,0,0,0,0,0,0,0,0,0,0,0,0,0,0,0,0,0,0,0,0,0,0,0,0,0,0,0,0,0,0,0,0,0,0,0,0,0,0,0,0,0,0,0,0,0,0,0,0,0,0,0,0,0,0,0],"id":2,"left_children":[1,3,5,7,9,11,13,15,17,19,-1,21,23,25,-1,27,29,31,-1,33,35,37,39,-1,41,-1,-1,43,45,-1,-1,47,-1,-1,-1,49,51,53,55,57,59,61,-1,-1,-1,-1,-1,-1,-1,63,65,-1,-1,67,69,71,73,-1,75,77,79,81,83,-1,-1,-1,-1,85,-1,87,89,91,93,-1,-1,-1,95,97,99,101,103,-1,-1,-1,-1,-1,-1,-1,-1,-1,-1,-1,-1,-1,-1,-1,-1,-1,-1,-1,-1,-1,-1,-1,-1],"loss_changes":[6.9105645E6,2.3932545E6,9.787567E5,1.6370775E6,5.300372E3,6.787333E5,4.0584875E4,2.663244E5,4.90003E5,1.9815396E3,0E0,3.2061634E5,3.4339938E5,3.08875E2,0E0,5.8375703E3,2.1924112E5,7.0681E4,0E0,1.5757686E3,9.1502313E2,6.874254E4,2.2417844E5,0E0,1.9020786E5,0E0,0E0,1.8807188E3,6.176315E2,0E0,0E0,8.285297E4,0E0,0E0,0E0,3.7366785E2,2.2617009E2,3.1513984E4,6.2239406E4,2.6957875E4,5.7051586E4,1.40289375E4,0E0,0E0,0E0,0E0,0E0,0E0,0E0,1.6861572E1,8.279927E1,0E0,0E0,2.3790176E3,1.7355438E4,2.2976227E4,5.0038145E3,0E0,1.8087688E4,5.2021473E4,2.5852559E4,1.7803125E2,2.3372963E4,0E0,0E0,0E0,0E0,1.309689E3,0E0,9.335359E3,2.440093E4,1.0889469E4,3.6691958E3,0E0,0E0,0E0,5.975625E2,8.598234E3,6.678569E3,8.607785E3,9.024094E3,0E0,0E0,0E0,0E0,0E0,0E0,0E0,0E0,0E0,0E0,0E0,0E0,0E0,0E0,0E0,0E0,0E0,0E0,0E0,0E0,0E0,0E0,0E0,0E0],"parents":[2147483647,0,0,1,1,2,2,3,3,4,4,5,5,6,6,7,7,8,8,9,9,11,11,12,12,13,13,15,15,16,16,17,17,19,19,20,20,21,21,22,22,24,24,27,27,28,28,31,31,35,35,36,36,37,37,38,38,39,39,40,40,41,41,49,49,50,50,53,53,54,54,55,55,56,56,58,58,59,59,60,60,61,61,62,62,67,67,69,69,70,70,71,71,72,72,76,76,77,77,78,78,79,79,80,80],"right_children":[2,4,6,8,10,12,14,16,18,20,-1,22,24,26,-1,28,30,32,-1,34,36,38,40,-1,42,-1,-1,44,46,-1,-1,48,-1,-1,-1,50,52,54,56,58,60,62,-1,-1,-1,-1,-1,-1,-1,64,66,-1,-1,68,70,72,74,-1,76,78,80,82,84,-1,-1,-1,-1,86,-1,88,90,92,94,-1,-1,-1,96,98,100,102,104,-1,-1,-1,-1,-1,-1,-1,-1,-1,-1,-1,-1,-1,-1,-1,-1,-1,-1,-1,-1,-1,-1,-1,-1],"split_conditions":[2.021E3,1E0,1E0,4.5E1,5.1E-1,1E0,1E0,1E0,4E1,4.2E-1,5.552879E0,1E0,1E0,6.8E1,-7.1890182E0,1.8E1,3.6E-1,4.8E1,-6.3849945E0,4.8E1,1.4E1,1.9E1,5E1,2.1443281E1,6E1,-1.3793101E1,-5.4613476E0,1E0,3.6E-1,4.704965E1,3.982716E0,4.6E1,6.1858143E1,2.4633129E-1,4.001839E0,5.6E1,4.8E-1,3.6E1,4.7E1,2.7E-1,6.2E1,5E1,1.6740301E1,8.910663E0,2.7030234E0,2.1626587E-1,3.162037E0,3.7035896E1,2.0533807E0,9E0,4.3E-1,2.1670635E-1,-9.4760334E-1,1E0,9E0,1E0,3.6E-1,2.1946876E0,3E0,1E0,1.9E1,3.8E-1,5.1E1,1.7242367E0,1.47229E-1,-4.1464385E-1,4.9200287E-1,3.1E1,6.627037E-1,4.6E1,4E0,1E0,1E1,1.8101196E-1,8.663232E0,3.8160476E-1,4.4E1,2.7E-1,2.3E1,2E0,1E0,-1.3230728E0,-6.132932E0,9.499006E0,-4.4640975E0,-1.05385594E-1,-4.965944E0,4.8974643E0,1.1678E1,8.722733E0,-0E0,-6.5061975E0,-0E0,-1.1474203E0,3.5411022E0,-1.3244525E1,-9.395706E0,-2.1745763E0,-9.317914E0,-7.035538E-1,4.598593E0,-3.522606E-1,8.886431E0,-2.7132578E0,3.232725E0],"split_indices":[23,18,18,2,1,4,4,7,0,1,0,19,19,2,0,21,1,2,0,2,21,20,2,0,2,0,0,6,1,0,0,2,0,0,0,2,1,2,20,1,2,2,0,0,0,0,0,0,0,21,1,0,0,5,22,5,1,0,21,3,21,1,2,0,0,0,0,2,0,2,21,3,0,0,0,0,2,1,21,21,5,0,0,0,0,0,0,0,0,0,0,0,0,0,0,0,0,0,0,0,0,0,0,0,0],"split_type":[0,0,0,0,0,0,0,0,0,0,0,0,0,0,0,0,0,0,0,0,0,0,0,0,0,0,0,0,0,0,0,0,0,0,0,0,0,0,0,0,0,0,0,0,0,0,0,0,0,0,0,0,0,0,0,0,0,0,0,0,0,0,0,0,0,0,0,0,0,0,0,0,0,0,0,0,0,0,0,0,0,0,0,0,0,0,0,0,0,0,0,0,0,0,0,0,0,0,0,0,0,0,0,0,0],"sum_hessian":[3.72E2,6.9E1,3.03E2,4.6E1,2.3E1,1.87E2,1.16E2,1.7E1,2.9E1,1.9E1,4E0,1.52E2,3.5E1,1.01E2,1.5E1,1.2E1,5E0,2.8E1,1E0,6E0,1.3E1,5.9E1,9.3E1,1.6E1,1.9E1,9.9E1,2E0,9E0,3E0,3E0,2E0,4E0,2.4E1,2E0,4E0,9E0,4E0,3E1,2.9E1,5.5E1,3.8E1,1.4E1,5E0,7E0,2E0,2E0,1E0,3E0,1E0,7E0,2E0,2E0,2E0,4E0,2.6E1,2.4E1,5E0,1E0,5.4E1,2.3E1,1.5E1,1.1E1,3E0,6E0,1E0,1E0,1E0,3E0,1E0,1.3E1,1.3E1,1.9E1,5E0,1E0,4E0,1E0,5.3E1,1.5E1,8E0,6E0,9E0,1E0,1E1,1E0,2E0,1E0,2E0,7E0,6E0,4E0,9E0,1.6E1,3E0,2E0,3E0,3.8E1,1.5E1,3E0,1.2E1,5E0,3E0,1E0,5E0,6E0,3E0],"tree_param":{"num_deleted":"0","num_feature":"24","num_nodes":"105","size_leaf_vector":"1"}},{"base_weights":[4.6588106E0,2.452219E2,-4.8629402E1,3.5079456E2,2.8049545E1,-9.332356E0,-1.11840904E2,1.6674843E2,5.3537537E2,1.8247702E1,6.064701E0,-3.8991997E1,1.109383E2,-1.18481606E2,-6.6981215E0,8.890001E1,3.2043884E2,5.6545216E1,-6.065745E0,2.1617104E1,-0E0,-6.901936E1,2.1704088E1,1.9872827E2,1.7351418E1,-1.2338531E1,-8.978692E0,1.016044E2,1.7783531E1,4.695473E1,5.269352E0,3.2575077E1,1.3920024E1,1.0765787E-1,-2.8832245E-1,-7.689064E0,-1.0037939E2,-6.004183E0,7.186648E1,1.2422852E1,2.2142613E2,-3.9579212E1,1.5761943E1,5.3744545E0,1.269838E2,2.0184734E-1,3.0039353E0,-0E0,3.8238506E0,1.6557047E0,-0E0,-3.6266113E1,4.149224E1,-3.5390614E1,-1.13128944E2,3.0306637E1,-3.500263E1,9.775692E0,2.3422499E0,2.5790365E1,1.2897217E1,4.1070484E1,-5.5530743E1,7.388153E1,2.0689451E1,-3.9391175E-1,4.6740267E-1,-5.140719E1,3.055141E1,5.374792E1,-1.9694565E1,-9.675162E0,2.07557E0,-6.799457E1,-1.1889056E1,6.4052696E0,-1.0821009E1,-4.8892235E1,1.5444632E1,-2.6134827E0,9.0240555E0,-1.2569191E0,-5.7646775E0,8.729721E0,2.5228221E0,-6.177418E0,4.254326E-1,4.8534203E0,-1.8189881E0,3.445174E0,9.848588E0,-3.1133225E0,-0E0,-6.8558806E-1,2.3890433E0,-7.3443513E0,-9.701485E-1,-4.3683105E0,3.1711864E0,2.1725082E0,-5.5381727E0,2.9617245E0,-1.812291E0],"categories":[],"categories_nodes":[],"categories_segments":[],"categories_sizes":[],"default_left":[0,0,0,0,0,0,0,0,0,0,0,0,0,0,0,0,0,0,0,0,0,0,0,0,0,0,0,0,0,0,0,0,0,0,0,0,0,0,0,0,0,0,0,0,0,0,0,0,0,0,0,0,0,0,0,0,0,0,0,0,0,0,0,0,0,0,0,0,0,0,0,0,0,0,0,0,0,0,0,0,0,0,0,0,0,0,0,0,0,0,0,0,0,0,0,0,0,0,0,0,0,0,0],"id":3,"left_children":[1,3,5,7,9,11,13,15,17,19,-1,21,23,25,-1,27,29,-1,-1,31,33,35,37,39,41,-1,-1,43,45,-1,-1,47,49,-1,-1,51,53,55,57,-1,59,61,-1,-1,63,-1,-1,-1,-1,-1,65,67,69,71,73,75,77,-1,-1,-1,-1,79,81,83,-1,-1,-1,85,87,89,91,-1,93,95,-1,-1,97,99,101,-1,-1,-1,-1,-1,-1,-1,-1,-1,-1,-1,-1,-1,-1,-1,-1,-1,-1,-1,-1,-1,-1,-1,-1],"loss_changes":[4.948291E6,1.5931885E6,7.8330244E5,1.503871E6,6.1672246E3,7.031342E5,2.71825E4,2.685802E5,4.491385E5,1.2845127E3,0E0,2.8969644E5,3.1589497E5,2.489625E3,0E0,1.3859016E4,2.9203138E5,0E0,0E0,7.479341E2,2.0103033E1,2.0255969E5,7.44262E4,4.584E3,1.6653958E5,0E0,0E0,1.0491484E4,5.519321E2,0E0,0E0,9.4410254E2,4.1615308E2,0E0,0E0,5.3480527E4,5.3254188E4,3.7937797E4,2.0934883E4,0E0,1.2018125E4,2.1650268E4,0E0,0E0,2.1501406E4,0E0,0E0,0E0,0E0,0E0,7.472634E1,2.5955377E4,1.1727211E4,3.0560715E4,6.0644375E3,2.316561E4,1.4936211E4,0E0,0E0,0E0,0E0,1.259242E4,1.0614844E2,1.8040391E3,0E0,0E0,0E0,1.2091258E4,5.417075E3,6.3015664E3,7.749276E2,0E0,2.0025079E3,1.7304883E3,0E0,0E0,1.2626884E4,8.703785E3,2.9729211E3,0E0,0E0,0E0,0E0,0E0,0E0,0E0,0E0,0E0,0E0,0E0,0E0,0E0,0E0,0E0,0E0,0E0,0E0,0E0,0E0,0E0,0E0,0E0,0E0],"parents":[2147483647,0,0,1,1,2,2,3,3,4,4,5,5,6,6,7,7,8,8,9,9,11,11,12,12,13,13,15,15,16,16,19,19,20,20,21,21,22,22,23,23,24,24,27,27,28,28,31,31,32,32,35,35,36,36,37,37,38,38,40,40,41,41,44,44,50,50,51,51,52,52,53,53,54,54,55,55,56,56,61,61,62,62,63,63,67,67,68,68,69,69,70,70,72,72,73,73,76,76,77,77,78,78],"right_children":[2,4,6,8,10,12,14,16,18,20,-1,22,24,26,-1,28,30,-1,-1,32,34,36,38,40,42,-1,-1,44,46,-1,-1,48,50,-1,-1,52,54,56,58,-1,60,62,-1,-1,64,-1,-1,-1,-1,-1,66,68,70,72,74,76,78,-1,-1,-1,-1,80,82,84,-1,-1,-1,86,88,90,92,-1,94,96,-1,-1,98,100,102,-1,-1,-1,-1,-1,-1,-1,-1,-1,-1,-1,-1,-1,-1,-1,-1,-1,-1,-1,-1,-1,-1,-1,-1],"split_conditions":[2.021E3,1E0,1E0,4.7E1,5.1E-1,1E0,1E0,1E0,4E1,2.7E1,6.064701E0,5.3E1,1E0,1E0,-6.6981215E0,1.7E1,3.6E-1,5.6545216E1,-6.065745E0,4.2E-1,4.3E-1,1E0,1E0,3.6E1,6E1,-1.2338531E1,-8.978692E0,3.5E-1,3.6E-1,4.695473E1,5.269352E0,4.8E1,5.6E1,1.0765787E-1,-2.8832245E-1,5.1E1,3.1E-1,3.5E1,1.9E1,1.2422852E1,9E0,4E0,1.5761943E1,5.3744545E0,4.2E1,2.0184734E-1,3.0039353E0,-0E0,3.8238506E0,1.6557047E0,4.3E-1,1.1E1,1E0,4E1,6E0,1.9E1,2.7E1,9.775692E0,2.3422499E0,2.5790365E1,1.2897217E1,3E1,3E0,1E0,2.0689451E1,-3.9391175E-1,4.6740267E-1,1E0,2.1E1,4.6E1,3.6E1,-9.675162E0,1.2E1,1E0,-1.1889056E1,6.4052696E0,3.1E-1,7E0,6.1E1,-2.6134827E0,9.0240555E0,-1.2569191E0,-5.7646775E0,8.729721E0,2.5228221E0,-6.177418E0,4.254326E-1,4.8534203E0,-1.8189881E0,3.445174E0,9.848588E0,-3.1133225E0,-0E0,-6.8558806E-1,2.3890433E0,-7.3443513E0,-9.701485E-1,-4.3683105E0,3.1711864E0,2.1725082E0,-5.5381727E0,2.9617245E0,-1.812291E0],"split_indices":[23,18,18,2,1,4,4,7,0,21,0,2,19,5,0,21,1,0,0,1,1,19,5,2,2,0,0,1,1,0,0,2,2,0,0,0,1,0,21,0,22,21,0,0,2,0,0,0,0,0,1,22,6,2,21,21,21,0,0,0,0,0,22,6,0,0,0,5,21,2,2,0,22,7,0,0,1,22,2,0,0,0,0,0,0,0,0,0,0,0,0,0,0,0,0,0,0,0,0,0,0,0,0],"split_type":[0,0,0,0,0,0,0,0,0,0,0,0,0,0,0,0,0,0,0,0,0,0,0,0,0,0,0,0,0,0,0,0,0,0,0,0,0,0,0,0,0,0,0,0,0,0,0,0,0,0,0,0,0,0,0,0,0,0,0,0,0,0,0,0,0,0,0,0,0,0,0,0,0,0,0,0,0,0,0,0,0,0,0,0,0,0,0,0,0,0,0,0,0,0,0,0,0,0,0,0,0,0,0],"sum_hessian":[3.84E2,6.9E1,3.15E2,4.6E1,2.3E1,1.95E2,1.2E2,2.4E1,2.2E1,1.9E1,4E0,1.57E2,3.8E1,1.03E2,1.7E1,1.7E1,7E0,2.1E1,1E0,1.6E1,3E0,1.05E2,5.2E1,1.9E1,1.9E1,8.5E1,1.8E1,1.4E1,3E0,4E0,3E0,5E0,1.1E1,2E0,1E0,3.6E1,6.9E1,3.4E1,1.8E1,6E0,1.3E1,1.4E1,5E0,6E0,8E0,2E0,1E0,1E0,4E0,9E0,2E0,2.3E1,1.3E1,1.2E1,5.7E1,1.5E1,1.9E1,1.1E1,7E0,8E0,5E0,2E0,1.2E1,6E0,2E0,1E0,1E0,1.9E1,4E0,1.1E1,2E0,4E0,8E0,8E0,4.9E1,8E0,7E0,1.5E1,4E0,1E0,1E0,1E0,1.1E1,4E0,2E0,1.6E1,3E0,3E0,1E0,9E0,2E0,1E0,1E0,6E0,2E0,7E0,1E0,4E0,3E0,1E0,1.4E1,3E0,1E0],"tree_param":{"num_deleted":"0","num_feature":"24","num_nodes":"103","size_leaf_vector":"1"}},{"base_weights":[9.914935E0,2.301017E2,-4.2946274E1,1.07071266E2,3.892042E2,-7.726205E0,-1.0029896E2,1.735196E2,4.441743E1,5.1272247E1,2.9745842E1,-3.1796745E1,9.757433E1,-1.075454E2,-5.8143306E0,1.10217285E2,3.979246E1,2.5877953E1,9.179963E1,3.4620056E0,4.1477427E0,-6.7147194E1,1.1006604E1,1.9271057E2,2.4735382E1,-1.1057627E2,-6.9922333E0,3.8567604E1,3.3218685E1,4.8022E0,1.0387431E1,9.978049E0,2.3447685E0,-3.7421647E-1,8.777451E-1,-1.1242644E1,-9.790449E1,-0E0,7.0048645E1,1.1358036E1,2.3228846E1,-3.4523018E1,1.4889833E1,-9.069182E0,-1.1792941E1,4.7433006E1,3.2958527E0,1.8397043E1,-3.5054352E0,-4.9315266E1,1.5135605E1,-3.274606E1,-1.0526292E2,6.4582825E1,-1.5817686E1,1.0313946E2,-1.2395153E1,1.7332485E1,-4.9347935E0,5.342941E0,-3.7654877E-1,-0E0,4.020945E-1,-0E0,2.0416915E0,1.7910309E-1,-9.30009E-1,-6.674797E1,-1.701912E1,3.1794193E1,-2.54237E1,-7.806414E0,1.9508533E0,-1.1192942E2,-7.220925E1,3.4103733E1,8.854463E0,-3.693574E1,3.417896E1,2.6652343E0,1.0954443E1,-3.3343227E0,2.2724533E0,8.572853E0,-3.2375705E0,-7.832447E0,4.6437684E-1,6.50248E-1,-4.437488E0,4.2211244E-1,4.1901307E0,-5.222693E0,1.7121836E0,-1.1448321E1,-4.230745E0,-1.713444E0,-1.0051852E1,-0E0,3.973507E0,-3.8814345E-1,-6.12824E0,9.761026E-2,5.5650187E0],"categories":[],"categories_nodes":[],"categories_segments":[],"categories_sizes":[],"default_left":[0,0,0,0,0,0,0,0,0,0,0,0,0,0,0,0,0,0,0,0,0,0,0,0,0,0,0,0,0,0,0,0,0,0,0,0,0,0,0,0,0,0,0,0,0,0,0,0,0,0,0,0,0,0,0,0,0,0,0,0,0,0,0,0,0,0,0,0,0,0,0,0,0,0,0,0,0,0,0,0,0,0,0,0,0,0,0,0,0,0,0,0,0,0,0,0,0,0,0,0,0,0,0],"id":4,"left_children":[1,3,5,7,9,11,13,15,17,-1,19,21,23,25,-1,27,-1,29,31,33,-1,35,37,39,41,43,-1,45,-1,-1,47,-1,-1,-1,-1,49,51,53,55,-1,-1,57,-1,-1,-1,59,61,63,65,67,69,71,73,75,77,79,81,83,-1,-1,-1,-1,-1,-1,-1,-1,-1,85,87,89,91,-1,-1,93,95,97,-1,99,101,-1,-1,-1,-1,-1,-1,-1,-1,-1,-1,-1,-1,-1,-1,-1,-1,-1,-1,-1,-1,-1,-1,-1,-1],"loss_changes":[4.3290125E6,1.3652058E6,6.046746E5,1.6605925E5,1.358427E6,4.767515E5,2.7743125E4,2.3770825E5,1.724018E4,0E0,2.4068672E3,2.325268E5,2.3668288E5,2.31275E3,0E0,2.5570342E5,0E0,5.383537E3,3.1727734E2,2.111966E2,0E0,1.4278925E5,4.5494766E4,1.8864312E4,1.6022394E5,9.82125E2,0E0,3.9677988E3,0E0,0E0,1.4742654E3,0E0,0E0,0E0,0E0,3.2050277E4,2.1754031E4,6.2311047E4,3.174161E4,0E0,0E0,1.2546701E4,0E0,0E0,0E0,3.82658E3,5.053421E0,2.103435E2,2.07658E2,5.764293E3,1.3677732E4,1.8392238E4,1.573875E3,5.1310703E3,5.3011977E4,3.1857812E2,3.7535618E3,1.664166E4,0E0,0E0,0E0,0E0,0E0,0E0,0E0,0E0,0E0,7.3438555E3,4.3386157E3,3.4940957E3,7.9118926E3,0E0,0E0,1.129E3,1.4839805E4,1.3318032E3,0E0,2.7602984E4,1.0356139E4,0E0,0E0,0E0,0E0,0E0,0E0,0E0,0E0,0E0,0E0,0E0,0E0,0E0,0E0,0E0,0E0,0E0,0E0,0E0,0E0,0E0,0E0,0E0,0E0],"parents":[2147483647,0,0,1,1,2,2,3,3,4,4,5,5,6,6,7,7,8,8,10,10,11,11,12,12,13,13,15,15,17,17,18,18,19,19,21,21,22,22,23,23,24,24,25,25,27,27,30,30,35,35,36,36,37,37,38,38,41,41,45,45,46,46,47,47,48,48,49,49,50,50,51,51,52,52,53,53,54,54,55,55,56,56,57,57,67,67,68,68,69,69,70,70,73,73,74,74,75,75,77,77,78,78],"right_children":[2,4,6,8,10,12,14,16,18,-1,20,22,24,26,-1,28,-1,30,32,34,-1,36,38,40,42,44,-1,46,-1,-1,48,-1,-1,-1,-1,50,52,54,56,-1,-1,58,-1,-1,-1,60,62,64,66,68,70,72,74,76,78,80,82,84,-1,-1,-1,-1,-1,-1,-1,-1,-1,86,88,90,92,-1,-1,94,96,98,-1,100,102,-1,-1,-1,-1,-1,-1,-1,-1,-1,-1,-1,-1,-1,-1,-1,-1,-1,-1,-1,-1,-1,-1,-1,-1],"split_conditions":[2.021E3,4.9E1,1E0,3.6E-1,1E0,1E0,1E0,1E0,5.1E-1,5.1272247E1,3E0,5E1,1E0,6.1E1,-5.8143306E0,1E0,3.979246E1,3.9E-1,2.6E1,5E0,4.1477427E0,1E0,6.6E1,3.6E1,6E1,1.9E1,-6.9922333E0,1.8E1,3.3218685E1,4.8022E0,1E0,9.978049E0,2.3447685E0,-3.7421647E-1,8.777451E-1,9E0,3.1E-1,9E0,1.9E1,1.1358036E1,2.3228846E1,4E0,1.4889833E1,-9.069182E0,-1.1792941E1,4.7E1,3.3E-1,4.2E-1,1.4E1,5E0,1E0,4E1,1E0,5.1E1,1E0,1E0,7.8E1,1.2E1,-4.9347935E0,5.342941E0,-3.7654877E-1,-0E0,4.020945E-1,-0E0,2.0416915E0,1.7910309E-1,-9.30009E-1,1E0,8E0,3.6E-1,3.6E1,-7.806414E0,1.9508533E0,4.9E1,4.1E-1,5.1E1,8.854463E0,3.5E1,5.1E1,2.6652343E0,1.0954443E1,-3.3343227E0,2.2724533E0,8.572853E0,-3.2375705E0,-7.832447E0,4.6437684E-1,6.50248E-1,-4.437488E0,4.2211244E-1,4.1901307E0,-5.222693E0,1.7121836E0,-1.1448321E1,-4.230745E0,-1.713444E0,-1.0051852E1,-0E0,3.973507E0,-3.8814345E-1,-6.12824E0,9.761026E-2,5.5650187E0],"split_indices":[23,2,18,1,18,4,4,7,1,0,22,2,19,2,0,6,0,1,21,21,0,19,2,2,2,20,0,21,0,0,6,0,0,0,0,21,1,22,21,0,0,21,0,0,0,2,1,1,21,22,6,2,7,0,3,5,2,22,0,0,0,0,0,0,0,0,0,5,22,1,2,0,0,2,1,2,0,0,2,0,0,0,0,0,0,0,0,0,0,0,0,0,0,0,0,0,0,0,0,0,0,0,0],"split_type":[0,0,0,0,0,0,0,0,0,0,0,0,0,0,0,0,0,0,0,0,0,0,0,0,0,0,0,0,0,0,0,0,0,0,0,0,0,0,0,0,0,0,0,0,0,0,0,0,0,0,0,0,0,0,0,0,0,0,0,0,0,0,0,0,0,0,0,0,0,0,0,0,0,0,0,0,0,0,0,0,0,0,0,0,0,0,0,0,0,0,0,0,0,0,0,0,0,0,0,0,0,0,0],"sum_hessian":[3.7E2,7.1E1,2.99E2,4.1E1,3E1,1.86E2,1.13E2,1.9E1,2.2E1,2.2E1,8E0,1.52E2,3.4E1,9.5E1,1.8E1,1.6E1,3E0,1.7E1,5E0,3E0,5E0,8.3E1,6.9E1,1.4E1,2E1,8.6E1,9E0,1.3E1,3E0,6E0,1.1E1,4E0,1E0,1E0,2E0,3E1,5.3E1,5.9E1,1E1,6E0,8E0,1.4E1,6E0,2.7E1,5.9E1,1E1,3E0,7E0,4E0,1.2E1,1.8E1,6E0,4.7E1,1.1E1,4.8E1,7E0,3E0,3E0,1.1E1,9E0,1E0,1E0,2E0,1E0,6E0,2E0,2E0,7E0,5E0,1.3E1,5E0,3E0,3E0,3.7E1,1E1,6E0,5E0,3.4E1,1.4E1,1E0,6E0,2E0,1E0,1E0,2E0,6E0,1E0,3E0,2E0,4E0,9E0,3E0,2E0,3.5E1,2E0,4E0,6E0,1E0,5E0,1.5E1,1.9E1,6E0,8E0],"tree_param":{"num_deleted":"0","num_feature":"24","num_nodes":"103","size_leaf_vector":"1"}},{"base_weights":[2.8442993E0,1.9824501E2,-4.050134E1,2.781738E2,2.6075535E1,-1.0623611E1,-9.128752E1,1.1650264E2,4.2804605E2,1.4565466E1,4.9589195E0,-3.2026447E1,8.584536E1,-9.7855675E1,-5.2687626E1,6.3777702E1,2.1335529E2,4.5411423E1,-8.32607E0,2.5640516E1,5.7390275E0,-5.8340786E1,1.873535E1,1.6563072E2,1.3485525E1,-1.0520482E1,-8.354504E1,-5.46639E1,-6.057358E-1,6.852346E1,-3.5772094E-1,2.9230942E2,6.00738E0,-0E0,2.920428E0,9.165092E0,-1.2978592E0,-1.5078049E1,-8.285797E1,-1.7582862E0,6.6147705E1,1.2599879E1,2.1645615E1,-4.8445625E1,1.3613561E1,-9.316741E0,-5.7489147E1,-5.646091E0,-9.557358E-1,7.537103E0,2.7887979E0,-0E0,3.6510662E1,1.2204407E1,-3.5550538E-1,2.100235E0,-8.246071E-1,-4.7361256E1,1.614777E1,-2.9592705E1,-9.365423E0,4.0249836E1,-2.8773153E1,-5.901306E-1,7.13321E1,-5.436673E0,-1.880119E0,-3.084666E0,-6.534729E0,1.3563085E0,-0E0,-0E0,3.3478472E-1,-5.411245E1,7.266327E-1,3.580652E1,-5.2921528E1,-8.276637E0,2.6807437E0,6.533581E1,-6.229597E-1,-4.3673565E1,1.5066986E1,8.38824E0,3.5601215E0,-7.981881E0,-2.506548E0,8.6683825E-2,6.6212134E0,-7.9714594E0,-6.821289E-1,-5.367329E-1,2.2232666E0,3.2953098E0,8.059877E0,-2.8295643E0,2.5955465E0,3.4185688E0,-5.513852E0,-2.0627885E0,2.5287445E0],"categories":[],"categories_nodes":[],"categories_segments":[],"categories_sizes":[],"default_left":[0,0,0,0,0,0,0,0,0,0,0,0,0,0,0,0,0,0,0,0,0,0,0,0,0,0,0,0,0,0,0,0,0,0,0,0,0,0,0,0,0,0,0,0,0,0,0,0,0,0,0,0,0,0,0,0,0,0,0,0,0,0,0,0,0,0,0,0,0,0,0,0,0,0,0,0,0,0,0,0,0,0,0,0,0,0,0,0,0,0,0,0,0,0,0,0,0,0,0,0,0],"id":5,"left_children":[1,3,5,7,9,11,13,15,17,19,-1,21,23,25,27,29,31,-1,-1,33,35,37,39,41,43,-1,45,47,-1,49,-1,51,-1,-1,-1,53,55,57,59,61,63,-1,-1,65,-1,-1,67,-1,-1,-1,-1,-1,-1,69,-1,71,-1,73,75,77,-1,79,81,-1,83,-1,-1,-1,-1,-1,-1,-1,-1,85,-1,87,89,-1,91,93,95,97,99,-1,-1,-1,-1,-1,-1,-1,-1,-1,-1,-1,-1,-1,-1,-1,-1,-1,-1],"loss_changes":[3.2188605E6,9.4075475E5,4.704245E5,1.0862198E6,5.181747E3,4.0922797E5,2.32475E4,1.0756422E5,3.595555E5,1.3577556E3,0E0,2.1768469E5,2.0470803E5,4.684375E2,1.1162031E3,6.003914E3,7.749559E4,0E0,0E0,5.152871E2,3.1642825E2,1.1175381E5,5.485074E4,5.2577812E3,1.5895084E5,0E0,3.4179375E3,5.893164E2,0E0,1.8338281E3,0E0,1.0598744E5,0E0,0E0,0E0,3.9591833E2,1.4249059E2,4.1243625E4,3.571675E4,4.6494484E4,7.098125E3,0E0,0E0,1.0693906E3,0E0,0E0,2.2497266E2,0E0,0E0,0E0,0E0,0E0,0E0,6.111084E1,0E0,9.183198E0,0E0,8.003457E3,3.0323494E4,2.2931568E4,0E0,1.6769605E4,1.7131965E4,0E0,3.5911953E3,0E0,0E0,0E0,0E0,0E0,0E0,0E0,0E0,1.0915332E4,0E0,1.7667371E4,5.1993975E3,0E0,1.6198545E3,1.7188281E3,5.894602E3,1.8950113E4,3.09865E3,0E0,0E0,0E0,0E0,0E0,0E0,0E0,0E0,0E0,0E0,0E0,0E0,0E0,0E0,0E0,0E0,0E0,0E0],"parents":[2147483647,0,0,1,1,2,2,3,3,4,4,5,5,6,6,7,7,8,8,9,9,11,11,12,12,13,13,14,14,15,15,16,16,19,19,20,20,21,21,22,22,23,23,24,24,26,26,27,27,29,29,31,31,35,35,36,36,37,37,38,38,39,39,40,40,43,43,46,46,53,53,55,55,57,57,58,58,59,59,61,61,62,62,64,64,73,73,75,75,76,76,78,78,79,79,80,80,81,81,82,82],"right_children":[2,4,6,8,10,12,14,16,18,20,-1,22,24,26,28,30,32,-1,-1,34,36,38,40,42,44,-1,46,48,-1,50,-1,52,-1,-1,-1,54,56,58,60,62,64,-1,-1,66,-1,-1,68,-1,-1,-1,-1,-1,-1,70,-1,72,-1,74,76,78,-1,80,82,-1,84,-1,-1,-1,-1,-1,-1,-1,-1,86,-1,88,90,-1,92,94,96,98,100,-1,-1,-1,-1,-1,-1,-1,-1,-1,-1,-1,-1,-1,-1,-1,-1,-1,-1],"split_conditions":[2.021E3,1E0,1E0,4.8E1,5.1E-1,1E0,1E0,1.8E1,4E1,4.2E-1,4.9589195E0,5.3E1,1E0,5E1,4.7E1,4.7E1,3.6E-1,4.5411423E1,-8.32607E0,4.8E1,1.9E1,1E0,1E0,5.1E1,6E1,-1.0520482E1,4.8E-1,7E1,-6.057358E-1,1E0,-3.5772094E-1,3.3E-1,6.00738E0,-0E0,2.920428E0,5.6E1,4.8E-1,1.1E1,3.1E-1,3.5E1,2.7E-1,1.2599879E1,2.1645615E1,1.9E1,1.3613561E1,-9.316741E0,3.1E1,-5.646091E0,-9.557358E-1,7.537103E0,2.7887979E0,-0E0,3.6510662E1,1E0,-3.5550538E-1,4.3E-1,-8.246071E-1,1E0,2.1E1,4E1,-9.365423E0,1.9E1,1E0,-5.901306E-1,1.9E1,-5.436673E0,-1.880119E0,-3.084666E0,-6.534729E0,1.3563085E0,-0E0,-0E0,3.3478472E-1,5E0,7.266327E-1,5E0,1E0,-8.276637E0,1.2E1,1.2E1,3.1E-1,8E0,3.1E-1,8.38824E0,3.5601215E0,-7.981881E0,-2.506548E0,8.6683825E-2,6.6212134E0,-7.9714594E0,-6.821289E-1,-5.367329E-1,2.2232666E0,3.2953098E0,8.059877E0,-2.8295643E0,2.5955465E0,3.4185688E0,-5.513852E0,-2.0627885E0,2.5287445E0],"split_indices":[23,18,18,2,1,4,4,21,0,1,0,2,19,2,20,2,1,0,0,2,21,19,5,0,2,0,1,2,0,6,0,1,0,0,0,2,1,21,1,0,1,0,0,21,0,0,20,0,0,0,0,0,0,6,0,1,0,5,21,2,0,21,3,0,21,0,0,0,0,0,0,0,0,22,0,22,3,0,22,22,1,22,1,0,0,0,0,0,0,0,0,0,0,0,0,0,0,0,0,0,0],"split_type":[0,0,0,0,0,0,0,0,0,0,0,0,0,0,0,0,0,0,0,0,0,0,0,0,0,0,0,0,0,0,0,0,0,0,0,0,0,0,0,0,0,0,0,0,0,0,0,0,0,0,0,0,0,0,0,0,0,0,0,0,0,0,0,0,0,0,0,0,0,0,0,0,0,0,0,0,0,0,0,0,0,0,0,0,0,0,0,0,0,0,0,0,0,0,0,0,0,0,0,0,0],"sum_hessian":[3.78E2,6.8E1,3.1E2,4.6E1,2.2E1,1.96E2,1.14E2,2.3E1,2.3E1,1.6E1,6E0,1.61E2,3.5E1,9.6E1,1.8E1,1.6E1,7E0,2.2E1,1E0,6E0,1E1,1.06E2,5.5E1,1.6E1,1.9E1,5.9E1,3.7E1,1.7E1,1E0,1.5E1,1E0,4E0,3E0,1E0,5E0,7E0,3E0,3.9E1,6.7E1,3.9E1,1.6E1,1.1E1,5E0,1.3E1,6E0,2.5E1,1.2E1,1.6E1,1E0,1.2E1,3E0,1E0,3E0,6E0,1E0,2E0,1E0,1.9E1,2E1,1.2E1,5.5E1,1.5E1,2.4E1,1E0,1.5E1,1E1,3E0,4E0,8E0,5E0,1E0,1E0,1E0,1.7E1,2E0,1.6E1,4E0,4E0,8E0,9E0,6E0,1.8E1,6E0,1E1,5E0,8E0,9E0,8E0,8E0,2E0,2E0,6E0,2E0,4E0,5E0,3E0,3E0,2E0,1.6E1,1E0,5E0],"tree_param":{"num_deleted":"0","num_feature":"24","num_nodes":"101","size_leaf_vector":"1"}},{"base_weights":[-2.5097842E0,1.7917271E2,-4.0735844E1,2.565073E2,1.6132061E1,-5.541774E0,-7.7491615E1,1.2284207E2,4.105135E2,9.739586E0,4.1213303E0,-2.2860573E1,1.4017175E2,-8.940868E1,-3.8222572E1,3.1146015E1,9.2681366E1,3.318729E1,5.3786266E1,1.3790527E1,-5.0254315E-1,1.660467E1,-3.4432575E1,1.5031165E2,-8.5332793E-1,-9.3987274E1,-6.792375E1,-5.270021E0,-1.9735058E1,6.2914898E1,2.1709335E2,1.5527733E1,5.7819624E-2,-8.1303513E-1,4.0939483E-1,2.5327322E1,-5.1716394E0,-4.6468193E1,1.9123312E1,9.3045E0,1.7486714E2,-9.8997406E1,-6.576626E0,-7.135446E0,-1.8457291E0,3.3353867E1,-4.310417E1,8.659455E1,3.9495586E1,-0E0,2.890843E1,2.466233E0,1.0734581E1,1.150346E1,7.78722E1,-5.3069763E1,3.9617756E1,6.4964294E1,-1.3699159E1,2.0825909E1,9.882339E0,-1.0146983E1,-5.9416347E0,7.358442E1,-2.973816E0,-4.734314E-1,-4.5490467E1,4.8232527E0,1.9424538E1,5.6613823E1,3.2072937E0,1.3217753E0,-0E0,-2.1642756E1,2.5873808E1,3.624588E-1,9.099681E0,-5.929597E1,-1.972772E1,-5.5013375E0,6.539184E1,2.4365997E-2,7.239891E1,-2.5876778E1,9.960385E0,-2.0430603E0,1.1339963E1,-5.7544863E-1,-4.812515E1,1.5046128E0,6.71287E0,3.6049316E0,-1.2765541E0,-3.377304E-1,4.1791993E-1,4.5059258E-1,-3.1943305E0,7.987458E-1,8.522917E0,-6.7427325E0,-2.6817734E0,-4.098655E0,-4.455482E-2,4.938324E-1,7.5494876E0,1.6815614E0,7.722287E0,-3.6128614E0,2.5568955E0,2.1595013E0,-1.5789063E0,-5.0621767E0,-9.079491E-1],"categories":[],"categories_nodes":[],"categories_segments":[],"categories_sizes":[],"default_left":[0,0,0,0,0,0,0,0,0,0,0,0,0,0,0,0,0,0,0,0,0,0,0,0,0,0,0,0,0,0,0,0,0,0,0,0,0,0,0,0,0,0,0,0,0,0,0,0,0,0,0,0,0,0,0,0,0,0,0,0,0,0,0,0,0,0,0,0,0,0,0,0,0,0,0,0,0,0,0,0,0,0,0,0,0,0,0,0,0,0,0,0,0,0,0,0,0,0,0,0,0,0,0,0,0,0,0,0,0,0,0,0,0],"id":6,"left_children":[1,3,5,7,9,11,13,15,17,19,-1,21,23,25,27,-1,29,-1,-1,31,33,35,37,39,-1,41,43,-1,45,47,49,51,-1,-1,-1,53,-1,55,57,-1,59,61,-1,-1,-1,63,65,67,69,-1,-1,-1,71,73,75,77,79,81,83,-1,-1,-1,-1,85,-1,-1,87,-1,-1,89,91,-1,93,95,97,-1,-1,99,101,-1,103,-1,105,107,109,-1,-1,-1,111,-1,-1,-1,-1,-1,-1,-1,-1,-1,-1,-1,-1,-1,-1,-1,-1,-1,-1,-1,-1,-1,-1,-1,-1],"loss_changes":[2.597094E6,8.14063E5,3.988732E5,8.5265725E5,2.871122E3,4.038676E5,6.660819E4,1.1133409E5,1.74455E4,8.6168555E2,0E0,6.596783E4,2.7625031E4,4.119125E3,8.501035E3,0E0,7.011756E4,0E0,0E0,2.3182764E2,2.6383417E2,2.0843941E4,7.25735E4,4.8892812E3,0E0,5.6734375E3,2.3068594E3,0E0,2.3817984E4,7.040664E3,6.219108E4,8.367749E1,0E0,0E0,0E0,2.0448518E4,0E0,5.3885297E4,3.2743184E4,0E0,3.2762188E3,6.04125E2,0E0,0E0,0E0,1.763686E4,7.2381445E2,2.6586E4,6.973615E3,0E0,0E0,0E0,2.4535962E2,1.2489202E4,5.0438906E3,1.6080656E4,2.0722531E4,3.949707E3,4.0828442E3,0E0,0E0,0E0,0E0,1.7754578E4,0E0,0E0,7.099668E2,0E0,0E0,2.0757324E3,3.199509E3,0E0,5.774378E1,2.4358872E3,1.7962863E4,0E0,0E0,1.6471062E4,5.9233247E3,0E0,2.8895996E3,0E0,3.763086E2,5.7232876E3,1.8679209E3,0E0,0E0,0E0,3.1417578E2,0E0,0E0,0E0,0E0,0E0,0E0,0E0,0E0,0E0,0E0,0E0,0E0,0E0,0E0,0E0,0E0,0E0,0E0,0E0,0E0,0E0,0E0,0E0,0E0],"parents":[2147483647,0,0,1,1,2,2,3,3,4,4,5,5,6,6,7,7,8,8,9,9,11,11,12,12,13,13,14,14,16,16,19,19,20,20,21,21,22,22,23,23,25,25,26,26,28,28,29,29,30,30,31,31,35,35,37,37,38,38,40,40,41,41,45,45,46,46,47,47,48,48,52,52,53,53,54,54,55,55,56,56,57,57,58,58,63,63,66,66,69,69,70,70,72,72,73,73,74,74,77,77,78,78,80,80,82,82,83,83,84,84,88,88],"right_children":[2,4,6,8,10,12,14,16,18,20,-1,22,24,26,28,-1,30,-1,-1,32,34,36,38,40,-1,42,44,-1,46,48,50,52,-1,-1,-1,54,-1,56,58,-1,60,62,-1,-1,-1,64,66,68,70,-1,-1,-1,72,74,76,78,80,82,84,-1,-1,-1,-1,86,-1,-1,88,-1,-1,90,92,-1,94,96,98,-1,-1,100,102,-1,104,-1,106,108,110,-1,-1,-1,112,-1,-1,-1,-1,-1,-1,-1,-1,-1,-1,-1,-1,-1,-1,-1,-1,-1,-1,-1,-1,-1,-1,-1,-1],"split_conditions":[2.021E3,1E0,4.1E-1,4.8E1,5.1E-1,1E0,1E0,1E0,3.6E-1,1E0,4.1213303E0,1.9E1,1E0,1E0,5E1,3.1146015E1,2.7E1,3.318729E1,5.3786266E1,2.5E1,2E0,1E0,6.5E1,3.6E1,-8.5332793E-1,1E0,5.1E-1,-5.270021E0,1E0,8E0,3.3E-1,3.9E-1,5.7819624E-2,-8.1303513E-1,4.0939483E-1,1E0,-5.1716394E0,4.7E1,1.9E1,9.3045E0,9E0,6E1,-6.576626E0,-7.135446E0,-1.8457291E0,5.7E-1,4.6E-1,4.5E1,4.2E1,-0E0,2.890843E1,2.466233E0,5.6E1,5E0,3.6E1,1E0,3.1E1,2E0,1E0,2.0825909E1,9.882339E0,-1.0146983E1,-5.9416347E0,3.5E1,-2.973816E0,-4.734314E-1,2E1,4.8232527E0,1.9424538E1,1.4E1,3.3E-1,1.3217753E0,4.3E-1,3.1E1,1E0,3.624588E-1,9.099681E0,1E0,3.5E1,-5.5013375E0,3.6E-1,2.4365997E-2,2E1,3.6E-1,2.1E1,-2.0430603E0,1.1339963E1,-5.7544863E-1,7E1,1.5046128E0,6.71287E0,3.6049316E0,-1.2765541E0,-3.377304E-1,4.1791993E-1,4.5059258E-1,-3.1943305E0,7.987458E-1,8.522917E0,-6.7427325E0,-2.6817734E0,-4.098655E0,-4.455482E-2,4.938324E-1,7.5494876E0,1.6815614E0,7.722287E0,-3.6128614E0,2.5568955E0,2.1595013E0,-1.5789063E0,-5.0621767E0,-9.079491E-1],"split_indices":[23,18,1,2,1,4,4,19,1,6,0,20,19,3,2,0,21,0,0,21,22,19,2,2,0,5,1,0,18,21,1,1,0,0,0,5,0,20,21,0,22,2,0,0,0,1,1,2,2,0,0,0,2,22,2,7,2,21,5,0,0,0,0,0,0,0,0,0,0,21,1,0,1,2,3,0,0,5,0,0,1,0,0,1,21,0,0,0,2,0,0,0,0,0,0,0,0,0,0,0,0,0,0,0,0,0,0,0,0,0,0,0,0],"split_type":[0,0,0,0,0,0,0,0,0,0,0,0,0,0,0,0,0,0,0,0,0,0,0,0,0,0,0,0,0,0,0,0,0,0,0,0,0,0,0,0,0,0,0,0,0,0,0,0,0,0,0,0,0,0,0,0,0,0,0,0,0,0,0,0,0,0,0,0,0,0,0,0,0,0,0,0,0,0,0,0,0,0,0,0,0,0,0,0,0,0,0,0,0,0,0,0,0,0,0,0,0,0,0,0,0,0,0,0,0,0,0,0,0],"sum_hessian":[3.72E2,6.4E1,3.08E2,4.3E1,2.1E1,1.58E2,1.5E2,2.4E1,1.9E1,1.8E1,3E0,1.42E2,1.6E1,1.14E2,3.6E1,2E0,2.2E1,1.4E1,5E0,1.3E1,5E0,3.2E1,1.1E2,1.5E1,1E0,9.1E1,2.3E1,1.9E1,1.7E1,1.9E1,3E0,1.1E1,2E0,2E0,3E0,2.9E1,3E0,9E1,2E1,6E0,9E0,7.5E1,1.6E1,2.1E1,2E0,5E0,1.2E1,8E0,1.1E1,1E0,2E0,2E0,9E0,2.4E1,5E0,8.4E1,6E0,8E0,1.2E1,5E0,4E0,6.9E1,6E0,3E0,2E0,1E0,1.1E1,7E0,1E0,7E0,4E0,7E0,2E0,7E0,1.7E1,1E0,4E0,7E1,1.4E1,1E0,5E0,1E0,7E0,8E0,4E0,1E0,2E0,1E0,1E1,2E0,5E0,1E0,3E0,1E0,1E0,2E0,5E0,1.4E1,3E0,5.5E1,1.5E1,6E0,8E0,1E0,4E0,1E0,6E0,7E0,1E0,3E0,1E0,9E0,1E0],"tree_param":{"num_deleted":"0","num_feature":"24","num_nodes":"113","size_leaf_vector":"1"}},{"base_weights":[-1.4590985E0,1.648166E2,-3.368608E1,2.4253906E2,2.2263758E1,-7.769894E0,-7.454739E1,5.3539762E0,2.9552145E2,1.1396508E1,4.476083E0,-2.5224934E1,7.958923E1,-8.066152E1,-4.5502617E1,3.1191827E2,-9.569132E0,2.134313E1,3.5762482E0,7.926264E0,-4.530552E1,1.4765964E2,1.4382817E1,-8.570334E1,-5.713541E1,-4.6513557E0,-8.6255187E-1,2.0254007E2,3.643193E1,1.6693065E-1,2.78788E0,-7.411848E-2,8.971512E-1,2.8133764E1,-1.1145215E1,-6.2944588E1,1.7026057E0,5.1720886E0,1.5731368E1,-3.1061493E1,1.1128169E1,-8.792656E0,-4.8925467E0,-6.0810547E0,-2.5063442E1,2.9886722E2,5.5568386E1,3.449231E0,-7.588328E-1,1.679518E1,7.174534E1,-2.2558418E1,1.3277411E1,-7.880215E1,-3.9017178E1,-1.7980776E1,1.6948568E1,-4.6951824E1,1.5179707E1,-3.2089615E-1,-2.9611948E0,3.504318E1,-2.760071E-1,1.2603587E1,7.264989E0,-2.2898915E-1,9.7052765E-1,-1.5211092E1,2.7407616E1,1.7686625E0,9.310305E0,-3.3210968E1,1.2325635E1,3.2746616E1,-2.773035E1,-3.7519276E1,-8.3004585E1,6.438568E0,-5.46457E1,-5.854545E1,1.4065325E1,4.9961163E1,-1.0656364E1,-4.9337707E0,-1.0239457E0,7.849046E0,-3.0420702E0,2.6709046E0,-5.3036654E-1,4.2055306E-1,-2.4818847E0,1.6432003E0,5.6048055E0,2.1740794E0,-4.1751237E0,-1.4999611E0,2.1790607E0,2.5245717E-1,4.156654E0,-3.3640728E0,-2.499611E-1,-1.0397344E0,-4.7230906E0,-8.4904375E0,-3.0238962E0,1.3968925E0,-2.4402146E0,1.7794256E0,-6.2267256E0,-4.2653504E-1,-6.7548404E0,-2.0915529E-2,2.9642093E0,2.3147583E-2,5.631805E0,-2.1583304E0,2.0367594E0],"categories":[],"categories_nodes":[],"categories_segments":[],"categories_sizes":[],"default_left":[0,0,0,0,0,0,0,0,0,0,0,0,0,0,0,0,0,0,0,0,0,0,0,0,0,0,0,0,0,0,0,0,0,0,0,0,0,0,0,0,0,0,0,0,0,0,0,0,0,0,0,0,0,0,0,0,0,0,0,0,0,0,0,0,0,0,0,0,0,0,0,0,0,0,0,0,0,0,0,0,0,0,0,0,0,0,0,0,0,0,0,0,0,0,0,0,0,0,0,0,0,0,0,0,0,0,0,0,0,0,0,0,0,0,0,0,0],"id":7,"left_children":[1,3,5,7,9,11,13,-1,15,17,-1,19,21,23,25,27,-1,29,31,33,35,37,39,41,43,-1,-1,45,-1,-1,-1,47,-1,49,51,53,55,-1,-1,57,-1,-1,-1,-1,59,61,63,65,-1,67,69,71,73,75,77,79,81,83,85,-1,-1,-1,-1,87,-1,-1,-1,89,91,-1,-1,93,95,97,99,101,103,105,107,109,111,113,115,-1,-1,-1,-1,-1,-1,-1,-1,-1,-1,-1,-1,-1,-1,-1,-1,-1,-1,-1,-1,-1,-1,-1,-1,-1,-1,-1,-1,-1,-1,-1,-1,-1,-1],"loss_changes":[2.0465092E6,6.8020875E5,3.3787934E5,3.8297775E5,4.832163E3,3.0213266E5,1.771925E4,0E0,2.2978325E5,1.1214231E3,0E0,1.1038576E5,1.4354069E5,6.3691875E3,2.1783203E2,9.532225E4,0E0,7.0579224E2,2.6179352E2,2.4677875E4,8.5818875E4,5.6375625E3,8.312072E4,1.636875E3,5.2175E2,0E0,0E0,1.5150862E5,0E0,0E0,0E0,2.3219568E2,0E0,1.3681625E4,9.544355E3,2.4793531E4,9.002258E3,0E0,0E0,1.0423818E4,0E0,0E0,0E0,0E0,1.3849292E2,1.115785E5,3.061502E3,2.3882202E2,0E0,9.30916E3,4.726791E3,9.060666E3,9.715431E3,3.916625E3,2.3325875E4,1.7945074E4,1.6221207E4,7.283594E1,1.4176068E4,0E0,0E0,0E0,0E0,1.00645276E3,0E0,0E0,0E0,1.5132942E3,5.003545E3,0E0,0E0,9.455211E3,1.9126018E3,1.8070537E3,3.3170215E2,8.011719E2,7.66375E2,2.3788801E3,1.4580875E4,2.2849004E3,1.9321666E3,2.2332266E3,3.8356475E3,0E0,0E0,0E0,0E0,0E0,0E0,0E0,0E0,0E0,0E0,0E0,0E0,0E0,0E0,0E0,0E0,0E0,0E0,0E0,0E0,0E0,0E0,0E0,0E0,0E0,0E0,0E0,0E0,0E0,0E0,0E0,0E0,0E0,0E0],"parents":[2147483647,0,0,1,1,2,2,3,3,4,4,5,5,6,6,8,8,9,9,11,11,12,12,13,13,14,14,15,15,17,17,18,18,19,19,20,20,21,21,22,22,23,23,24,24,27,27,31,31,33,33,34,34,35,35,36,36,39,39,44,44,45,45,46,46,47,47,49,49,50,50,51,51,52,52,53,53,54,54,55,55,56,56,57,57,58,58,63,63,67,67,68,68,71,71,72,72,73,73,74,74,75,75,76,76,77,77,78,78,79,79,80,80,81,81,82,82],"right_children":[2,4,6,8,10,12,14,-1,16,18,-1,20,22,24,26,28,-1,30,32,34,36,38,40,42,44,-1,-1,46,-1,-1,-1,48,-1,50,52,54,56,-1,-1,58,-1,-1,-1,-1,60,62,64,66,-1,68,70,72,74,76,78,80,82,84,86,-1,-1,-1,-1,88,-1,-1,-1,90,92,-1,-1,94,96,98,100,102,104,106,108,110,112,114,116,-1,-1,-1,-1,-1,-1,-1,-1,-1,-1,-1,-1,-1,-1,-1,-1,-1,-1,-1,-1,-1,-1,-1,-1,-1,-1,-1,-1,-1,-1,-1,-1,-1,-1],"split_conditions":[2.021E3,1E0,1E0,3.8E1,5.1E-1,1E0,1E0,5.3539762E0,4E1,4.2E-1,4.476083E0,1E0,4.1E-1,5.1E1,7E1,4.8E1,-9.569132E0,4.8E1,3E0,1.9E1,6E1,2E0,6E1,5.5E-1,5.5E1,-4.6513557E0,-8.6255187E-1,3E0,3.643193E1,1.6693065E-1,2.78788E0,1E0,8.971512E-1,1E0,1.1E1,4.5E1,6.2E1,5.1720886E0,1.5731368E1,4.8E1,1.1128169E1,-8.792656E0,-4.8925467E0,-6.0810547E0,5.1E-1,4.6E1,9E0,4.3E-1,-7.588328E-1,5E0,4.1E1,1E0,2.1E1,6E0,3.1E-1,1.8E1,1.9E1,6E-1,5.1E1,-3.2089615E-1,-2.9611948E0,3.504318E1,-2.760071E-1,4.2E1,7.264989E0,-2.2898915E-1,9.7052765E-1,3.1E1,1E0,1.7686625E0,9.310305E0,1E1,1E1,3.1E-1,6.1E1,4.1E1,3E1,5.1E1,3E0,2.7E-1,2.5E1,2E0,1E0,-4.9337707E0,-1.0239457E0,7.849046E0,-3.0420702E0,2.6709046E0,-5.3036654E-1,4.2055306E-1,-2.4818847E0,1.6432003E0,5.6048055E0,2.1740794E0,-4.1751237E0,-1.4999611E0,2.1790607E0,2.5245717E-1,4.156654E0,-3.3640728E0,-2.499611E-1,-1.0397344E0,-4.7230906E0,-8.4904375E0,-3.0238962E0,1.3968925E0,-2.4402146E0,1.7794256E0,-6.2267256E0,-4.2653504E-1,-6.7548404E0,-2.0915529E-2,2.9642093E0,2.3147583E-2,5.631805E0,-2.1583304E0,2.0367594E0],"split_indices":[23,18,18,2,1,4,4,0,0,1,0,19,1,0,2,2,0,2,22,20,2,22,2,1,2,0,0,22,0,0,0,6,0,5,22,2,2,0,0,2,0,0,0,0,1,2,21,1,0,22,2,5,21,21,1,21,21,1,2,0,0,0,0,2,0,0,0,2,3,0,0,0,0,1,2,2,21,2,22,1,21,21,5,0,0,0,0,0,0,0,0,0,0,0,0,0,0,0,0,0,0,0,0,0,0,0,0,0,0,0,0,0,0,0,0,0,0],"split_type":[0,0,0,0,0,0,0,0,0,0,0,0,0,0,0,0,0,0,0,0,0,0,0,0,0,0,0,0,0,0,0,0,0,0,0,0,0,0,0,0,0,0,0,0,0,0,0,0,0,0,0,0,0,0,0,0,0,0,0,0,0,0,0,0,0,0,0,0,0,0,0,0,0,0,0,0,0,0,0,0,0,0,0,0,0,0,0,0,0,0,0,0,0,0,0,0,0,0,0,0,0,0,0,0,0,0,0,0,0,0,0,0,0,0,0,0,0],"sum_hessian":[3.8E2,6.1E1,3.19E2,3.9E1,2.2E1,1.96E2,1.23E2,9E0,3E1,1.6E1,6E0,1.64E2,3.2E1,1E2,2.3E1,2.9E1,1E0,6E0,1E1,6.2E1,1.02E2,1.5E1,1.7E1,8E1,2E1,2.2E1,1E0,1.1E1,1.8E1,2E0,4E0,6E0,4E0,3E1,3.2E1,7.4E1,2.8E1,2E0,1.3E1,1.2E1,5E0,7.4E1,6E0,1.7E1,3E0,6E0,5E0,4E0,2E0,2.5E1,5E0,2.2E1,1E1,4.3E1,3.1E1,1.2E1,1.6E1,9E0,3E0,1E0,2E0,5E0,1E0,2E0,3E0,2E0,2E0,6E0,1.9E1,2E0,3E0,1.7E1,5E0,7E0,3E0,5E0,3.8E1,8E0,2.3E1,5E0,7E0,7E0,9E0,8E0,1E0,1E0,2E0,1E0,1E0,2E0,4E0,1.5E1,4E0,2E0,1.5E1,1E0,4E0,2E0,5E0,2E0,1E0,2E0,3E0,3.6E1,2E0,7E0,1E0,2E0,2.1E1,1E0,4E0,4E0,3E0,1E0,6E0,7E0,2E0],"tree_param":{"num_deleted":"0","num_feature":"24","num_nodes":"117","size_leaf_vector":"1"}},{"base_weights":[3.0531702E0,1.5117352E2,-3.1596954E1,2.2296031E2,2.042714E1,-7.1735845E0,-6.707845E1,1.0007714E2,3.268944E2,9.91927E0,4.3518424E0,-2.4230576E1,5.9764977E1,-7.235666E1,-4.1202938E1,6.656991E1,2.0638918E2,3.4829892E2,-9.090675E0,1.8432554E1,3.532689E0,-7.822546E1,-1.3197755E1,1.2337844E2,7.6652527E0,-7.6474E1,-5.2203648E1,-4.206444E0,-8.1942445E-1,2.592413E1,1.7419327E2,2.5059866E1,1.2275635E0,2.7777067E1,4.7918606E1,1.558019E-1,2.2964396E0,6.926858E0,-2.2833526E0,-8.575705E0,3.925166E0,9.770286E0,-3.1455078E1,6.7978067E0,1.4038043E2,-3.0647284E1,1.1577323E1,-7.956866E1,-4.8248687E0,-6.5078745E0,-3.888984E0,4.4302513E1,-8.193868E0,2.6810093E1,2.0554526E0,8.7942374E-1,-0E0,1.6101837E-1,-7.082438E-1,1.3685471E0,-5.297722E-1,-1.8750587E1,2.0784035E1,-5.618758E1,9.829563E0,1.6723787E1,6.8332436E1,-4.2475147E0,5.2346163E0,-8.431145E1,-5.8412735E1,2.5562303E0,6.477226E0,-2.3078388E1,3.0614364E0,-3.093941E-1,3.48497E-1,-2.0510993E0,-6.708627E0,3.379382E1,-1.7314816E1,-1.4401313E1,-6.2274853E1,9.9853516E-1,7.8478274E0,-0E0,8.50588E0,7.4565935E0,-2.9489696E0,-3.584726E0,-8.621227E0,-6.3334756E0,-1.2665066E0,-3.002361E0,-6.7737025E-1,3.1412559E0,-1.1445633E0,3.9916676E-1,5.481806E0,-2.558771E0,3.0207062E0,-2.5349343E0,-0E0,-6.6033835E0,-3.548025E0,-5.639102E-1,2.3790903E0],"categories":[],"categories_nodes":[],"categories_segments":[],"categories_sizes":[],"default_left":[0,0,0,0,0,0,0,0,0,0,0,0,0,0,0,0,0,0,0,0,0,0,0,0,0,0,0,0,0,0,0,0,0,0,0,0,0,0,0,0,0,0,0,0,0,0,0,0,0,0,0,0,0,0,0,0,0,0,0,0,0,0,0,0,0,0,0,0,0,0,0,0,0,0,0,0,0,0,0,0,0,0,0,0,0,0,0,0,0,0,0,0,0,0,0,0,0,0,0,0,0,0,0,0,0,0,0],"id":8,"left_children":[1,3,5,7,9,11,13,15,17,19,-1,21,23,25,27,29,31,33,-1,35,37,39,41,43,45,47,49,-1,-1,51,53,-1,-1,-1,-1,-1,-1,55,57,-1,59,61,63,-1,65,67,-1,69,-1,-1,-1,71,73,-1,-1,-1,75,-1,-1,-1,-1,77,79,81,83,-1,85,-1,87,89,91,-1,-1,93,-1,-1,-1,95,-1,97,99,101,103,105,-1,-1,-1,-1,-1,-1,-1,-1,-1,-1,-1,-1,-1,-1,-1,-1,-1,-1,-1,-1,-1,-1,-1],"loss_changes":[1.9762118E6,6.7939675E5,2.6951984E5,5.6542275E5,5.852426E3,2.1363977E5,1.37960625E4,6.6826984E4,2.5652025E5,9.124729E2,0E0,8.727214E4,1.2434034E5,3.994E3,8.650781E1,7.759788E4,3.8517656E4,8.466125E4,0E0,4.5339062E2,2.9566217E2,1.6213875E4,5.283261E4,5.428E3,9.509537E4,2.8590312E3,5.49E2,0E0,0E0,9.949058E3,6.5185312E4,0E0,0E0,0E0,0E0,0E0,0E0,1.09538055E2,1.3219237E2,0E0,3.8449512E2,1.7990695E4,7.225917E4,0E0,1.0614672E4,7.6234473E3,0E0,1.7865312E3,0E0,0E0,0E0,1.7286699E3,4.1347017E3,0E0,0E0,0E0,4.3434975E1,0E0,0E0,0E0,0E0,1.2431611E4,2.0989496E4,9.911797E3,1.5892697E4,0E0,5.5933906E3,0E0,1.4461721E4,1.64225E3,2.6457656E3,0E0,0E0,1.7884106E2,0E0,0E0,0E0,4.3465825E3,0E0,1.891073E4,5.074411E3,1.1185721E3,9.769219E2,4.0071055E3,0E0,0E0,0E0,0E0,0E0,0E0,0E0,0E0,0E0,0E0,0E0,0E0,0E0,0E0,0E0,0E0,0E0,0E0,0E0,0E0,0E0,0E0,0E0],"parents":[2147483647,0,0,1,1,2,2,3,3,4,4,5,5,6,6,7,7,8,8,9,9,11,11,12,12,13,13,14,14,15,15,16,16,17,17,19,19,20,20,21,21,22,22,23,23,24,24,25,25,26,26,29,29,30,30,37,37,38,38,40,40,41,41,42,42,44,44,45,45,47,47,51,51,52,52,56,56,61,61,62,62,63,63,64,64,66,66,68,68,69,69,70,70,73,73,77,77,79,79,80,80,81,81,82,82,83,83],"right_children":[2,4,6,8,10,12,14,16,18,20,-1,22,24,26,28,30,32,34,-1,36,38,40,42,44,46,48,50,-1,-1,52,54,-1,-1,-1,-1,-1,-1,56,58,-1,60,62,64,-1,66,68,-1,70,-1,-1,-1,72,74,-1,-1,-1,76,-1,-1,-1,-1,78,80,82,84,-1,86,-1,88,90,92,-1,-1,94,-1,-1,-1,96,-1,98,100,102,104,106,-1,-1,-1,-1,-1,-1,-1,-1,-1,-1,-1,-1,-1,-1,-1,-1,-1,-1,-1,-1,-1,-1,-1],"split_conditions":[2.021E3,1E0,1E0,4.8E1,5.1E-1,1E0,1E0,1E0,4E1,4.2E-1,4.3518424E0,3.5E1,1E0,5.1E1,7E1,1E0,3.6E-1,3.6E-1,-9.090675E0,4.8E1,1.4E1,5.1E1,1E0,3.6E1,6E1,6.1E1,4.2E1,-4.206444E0,-8.1942445E-1,4.2E1,3.6E-1,2.5059866E1,1.2275635E0,2.7777067E1,4.7918606E1,1.558019E-1,2.2964396E0,5.6E1,4.8E-1,-8.575705E0,1.4E1,3.1E-1,6E1,6.7978067E0,9E0,5E1,1.1577323E1,1E0,-4.8248687E0,-6.5078745E0,-3.888984E0,3.7E-1,1E0,2.6810093E1,2.0554526E0,8.7942374E-1,4.3E-1,1.6101837E-1,-7.082438E-1,1.3685471E0,-5.297722E-1,2.8E1,1E0,3.1E-1,7.8E1,1.6723787E1,5.6E1,-4.2475147E0,5.1E1,5E0,5.2E-1,2.5562303E0,6.477226E0,4.4E1,3.0614364E0,-3.093941E-1,3.48497E-1,4E0,-6.708627E0,6E0,4.7E1,1.5E1,1E0,2.6E1,7.8478274E0,-0E0,8.50588E0,7.4565935E0,-2.9489696E0,-3.584726E0,-8.621227E0,-6.3334756E0,-1.2665066E0,-3.002361E0,-6.7737025E-1,3.1412559E0,-1.1445633E0,3.9916676E-1,5.481806E0,-2.558771E0,3.0207062E0,-2.5349343E0,-0E0,-6.6033835E0,-3.548025E0,-5.639102E-1,2.3790903E0],"split_indices":[23,18,18,2,1,4,4,6,0,1,0,2,19,0,2,7,1,1,0,2,21,0,19,2,2,2,2,0,0,2,1,0,0,0,0,0,0,2,1,0,21,1,2,0,22,2,0,3,0,0,0,1,5,0,0,0,1,0,0,0,0,20,6,1,2,0,2,0,2,21,1,0,0,2,0,0,0,21,0,22,20,21,7,21,0,0,0,0,0,0,0,0,0,0,0,0,0,0,0,0,0,0,0,0,0,0,0],"split_type":[0,0,0,0,0,0,0,0,0,0,0,0,0,0,0,0,0,0,0,0,0,0,0,0,0,0,0,0,0,0,0,0,0,0,0,0,0,0,0,0,0,0,0,0,0,0,0,0,0,0,0,0,0,0,0,0,0,0,0,0,0,0,0,0,0,0,0,0,0,0,0,0,0,0,0,0,0,0,0,0,0,0,0,0,0,0,0,0,0,0,0,0,0,0,0,0,0,0,0,0,0,0,0,0,0,0,0],"sum_hessian":[3.83E2,7.2E1,3.11E2,4.6E1,2.6E1,1.85E2,1.26E2,2.2E1,2.4E1,1.9E1,7E0,1.48E2,3.7E1,1.03E2,2.3E1,1.8E1,4E0,2.3E1,1E0,7E0,1.2E1,2.4E1,1.24E2,1.6E1,2.1E1,8.3E1,2E1,2.2E1,1E0,1.4E1,4E0,3E0,1E0,1.7E1,6E0,2E0,5E0,8E0,4E0,2.2E1,2E0,5.5E1,6.9E1,5E0,1.1E1,1.6E1,5E0,7.3E1,1E1,8E0,1.2E1,9E0,5E0,2E0,2E0,6E0,2E0,2E0,2E0,1E0,1E0,1.5E1,4E1,4.3E1,2.6E1,7E0,4E0,1.2E1,4E0,5.7E1,1.6E1,6E0,3E0,4E0,1E0,1E0,1E0,1.2E1,3E0,3E1,1E1,6E0,3.7E1,2.4E1,2E0,1E0,3E0,1E0,3E0,3E0,5.4E1,1.4E1,2E0,2E0,2E0,2E0,1E1,1.3E1,1.7E1,9E0,1E0,3E0,3E0,3.1E1,6E0,1.9E1,5E0],"tree_param":{"num_deleted":"0","num_feature":"24","num_nodes":"107","size_leaf_vector":"1"}},{"base_weights":[9.956078E-1,1.315699E2,-2.8243425E1,1.8794344E2,1.7830217E1,-5.5202885E0,-6.3274055E1,3.5958553E1,2.465751E2,7.7537174E0,4.047976E0,-2.1932343E1,6.1916264E1,-6.74236E1,-3.550589E0,2.737986E1,5.6620483E0,1.6708263E2,2.9609152E2,1.0729548E1,-1.1293548E0,-4.1544086E1,9.600475E0,4.067454E0,1.10634384E2,-6.941029E1,-4.386244E0,4.724884E-1,2.8555324E0,8.2508255E1,3.187297E1,2.3763634E1,4.112388E1,1.2177832E1,2.8143845E0,3.0613557E-1,-6.610281E-1,-9.904822E0,-6.0060516E1,3.932898E0,6.902373E0,7.0814285E0,-3.4790485E1,1.2716513E2,-2.3761587E0,-7.3028496E1,-4.9798542E1,3.362416E1,1.9999111E1,1.9628623E0,7.785587E0,3.880788E-1,-0E0,-2.2710758E1,1.7182947E1,-1.8952682E0,-7.039236E1,5.435663E1,-2.0966077E0,-3.9124165E0,-1.5092087E0,1.6186592E1,9.590924E1,-7.7204156E0,-5.5955205E0,-5.67515E0,-1.9370554E1,4.874334E0,6.7092867E0,-2.9392472E-1,1.0118598E0,-1.0851294E1,-3.8914825E1,6.8434157E0,4.4253736E0,-4.0296125E0,1.2116961E1,-3.2533176E1,-7.2868524E0,6.539467E0,-0E0,-1.1075683E1,3.442726E1,1.098057E1,1.5951314E1,-7.779999E-2,-2.2574193E0,2.4239662E0,-2.0904214E0,-4.416049E0,-2.581374E-1,-5.7483354E0,2.0588036E-1,1.5531262E0,-1.6938645E0,2.742935E-1,2.5159357E0,-1.3608246E-1,-3.8736057E0,-2.492728E0,3.0652305E-1,4.2036037E0,1.741128E0,2.3213487E0,-0E0],"categories":[],"categories_nodes":[],"categories_segments":[],"categories_sizes":[],"default_left":[0,0,0,0,0,0,0,0,0,0,0,0,0,0,0,0,0,0,0,0,0,0,0,0,0,0,0,0,0,0,0,0,0,0,0,0,0,0,0,0,0,0,0,0,0,0,0,0,0,0,0,0,0,0,0,0,0,0,0,0,0,0,0,0,0,0,0,0,0,0,0,0,0,0,0,0,0,0,0,0,0,0,0,0,0,0,0,0,0,0,0,0,0,0,0,0,0,0,0,0,0,0,0,0,0],"id":9,"left_children":[1,3,5,7,9,11,13,15,17,19,-1,21,23,25,-1,27,-1,29,31,33,35,37,39,41,43,45,-1,-1,-1,47,-1,-1,-1,49,51,-1,-1,53,55,57,-1,-1,59,61,-1,63,65,67,-1,-1,69,-1,-1,71,73,75,77,79,81,-1,-1,-1,83,-1,-1,-1,85,87,-1,-1,-1,89,91,93,-1,-1,95,97,-1,-1,-1,99,101,-1,103,-1,-1,-1,-1,-1,-1,-1,-1,-1,-1,-1,-1,-1,-1,-1,-1,-1,-1,-1,-1],"loss_changes":[1.4397502E6,4.3804162E5,2.4447655E5,3.9963275E5,4.922438E3,2.0923125E5,1.1033656E4,5.1127148E2,7.8106375E4,5.359398E2,0E0,9.455742E4,1.0325305E5,1.25725E3,0E0,1.8239258E1,0E0,1.6407778E5,2.6918375E4,5.1253418E1,1.528259E2,5.412483E4,1.9234121E4,4.9329383E4,4.7971984E4,2.4193438E3,0E0,0E0,0E0,5.528086E4,0E0,0E0,0E0,7.0091064E1,1.349851E1,0E0,0E0,1.290571E4,3.4961438E4,1.7096924E4,0E0,0E0,1.6285156E2,2.7095625E3,0E0,5.0371875E2,2.3282422E3,7.9731064E3,0E0,0E0,2.9082812E2,0E0,0E0,4.1331807E3,2.8004585E3,6.009978E3,1.789625E3,3.654459E3,1.6662074E4,0E0,0E0,0E0,1.0953242E4,0E0,0E0,0E0,1.6349536E2,3.518649E3,0E0,0E0,0E0,4.0597256E3,8.003669E3,2.3221902E3,0E0,0E0,7.6955615E2,7.135947E2,0E0,0E0,0E0,8.216561E3,2.655703E2,0E0,3.1439856E2,0E0,0E0,0E0,0E0,0E0,0E0,0E0,0E0,0E0,0E0,0E0,0E0,0E0,0E0,0E0,0E0,0E0,0E0,0E0,0E0],"parents":[2147483647,0,0,1,1,2,2,3,3,4,4,5,5,6,6,7,7,8,8,9,9,11,11,12,12,13,13,15,15,17,17,18,18,19,19,20,20,21,21,22,22,23,23,24,24,25,25,29,29,33,33,34,34,37,37,38,38,39,39,42,42,43,43,45,45,46,46,47,47,50,50,53,53,54,54,55,55,56,56,57,57,58,58,62,62,66,66,67,67,71,71,72,72,73,73,76,76,77,77,81,81,82,82,84,84],"right_children":[2,4,6,8,10,12,14,16,18,20,-1,22,24,26,-1,28,-1,30,32,34,36,38,40,42,44,46,-1,-1,-1,48,-1,-1,-1,50,52,-1,-1,54,56,58,-1,-1,60,62,-1,64,66,68,-1,-1,70,-1,-1,72,74,76,78,80,82,-1,-1,-1,84,-1,-1,-1,86,88,-1,-1,-1,90,92,94,-1,-1,96,98,-1,-1,-1,100,102,-1,104,-1,-1,-1,-1,-1,-1,-1,-1,-1,-1,-1,-1,-1,-1,-1,-1,-1,-1,-1,-1],"split_conditions":[2.021E3,1E0,1E0,4E1,5.1E-1,1E0,1E0,4.3E-1,4.8E1,4.8E-1,4.047976E0,5.2E1,5E1,6.1E1,-3.550589E0,2.8E-1,5.6620483E0,1E0,3.6E-1,2.5E1,4.2E1,1E0,4.7E1,1E0,5.7E-1,1E0,-4.386244E0,4.724884E-1,2.8555324E0,1E0,3.187297E1,2.3763634E1,4.112388E1,3.9E-1,4.8E1,3.0613557E-1,-6.610281E-1,5.1E1,3.1E-1,8E0,6.902373E0,7.0814285E0,1.6E1,9E0,-2.3761587E0,1E0,4.8E1,3.6E-1,1.9999111E1,1.9628623E0,5E0,3.880788E-1,-0E0,4.1E1,1.5E1,3.6E1,6E0,1E0,1E0,-3.9124165E0,-1.5092087E0,1.6186592E1,3.8E1,-7.7204156E0,-5.5955205E0,-5.67515E0,2E1,3.5E-1,6.7092867E0,-2.9392472E-1,1.0118598E0,3.1E1,1E0,1E0,4.4253736E0,-4.0296125E0,1.2E1,4.1E1,-7.2868524E0,6.539467E0,-0E0,6.2E1,3.1E1,1.098057E1,5.1E1,-7.779999E-2,-2.2574193E0,2.4239662E0,-2.0904214E0,-4.416049E0,-2.581374E-1,-5.7483354E0,2.0588036E-1,1.5531262E0,-1.6938645E0,2.742935E-1,2.5159357E0,-1.3608246E-1,-3.8736057E0,-2.492728E0,3.0652305E-1,4.2036037E0,1.741128E0,2.3213487E0,-0E0],"split_indices":[23,18,18,2,1,4,4,1,2,1,0,2,2,2,0,1,0,7,1,21,2,19,20,19,1,3,0,0,0,6,0,0,0,1,2,0,0,0,1,22,0,0,21,22,0,7,2,1,0,0,21,0,0,2,21,2,21,3,3,0,0,0,20,0,0,0,0,1,0,0,0,2,3,6,0,0,22,2,0,0,0,2,20,0,2,0,0,0,0,0,0,0,0,0,0,0,0,0,0,0,0,0,0,0,0],"split_type":[0,0,0,0,0,0,0,0,0,0,0,0,0,0,0,0,0,0,0,0,0,0,0,0,0,0,0,0,0,0,0,0,0,0,0,0,0,0,0,0,0,0,0,0,0,0,0,0,0,0,0,0,0,0,0,0,0,0,0,0,0,0,0,0,0,0,0,0,0,0,0,0,0,0,0,0,0,0,0,0,0,0,0,0,0,0,0,0,0,0,0,0,0,0,0,0,0,0,0,0,0,0,0,0,0],"sum_hessian":[3.75E2,6.8E1,3.07E2,4.5E1,2.3E1,1.87E2,1.2E2,1.3E1,3.2E1,1.7E1,6E0,1.51E2,3.6E1,1.03E2,1.7E1,1.1E1,2E0,1.4E1,1.8E1,1.3E1,4E0,9.3E1,5.8E1,1.7E1,1.9E1,9.3E1,1E1,1E0,1E1,1E1,4E0,1.4E1,4E0,1E1,3E0,2E0,2E0,3.5E1,5.8E1,5.4E1,4E0,6E0,1.1E1,1.7E1,2E0,7.6E1,1.7E1,8E0,2E0,2E0,8E0,2E0,1E0,2.4E1,1.1E1,9E0,4.9E1,5E0,4.9E1,8E0,3E0,6E0,1.1E1,5.8E1,1.8E1,1.3E1,4E0,5E0,3E0,1E0,7E0,1.5E1,9E0,9E0,2E0,2E0,7E0,4E0,4.5E1,4E0,1E0,4E1,9E0,9E0,2E0,1E0,3E0,3E0,2E0,2E0,1.3E1,6E0,3E0,7E0,2E0,5E0,2E0,1E0,3E0,2E1,2E1,5E0,4E0,1E0,1E0],"tree_param":{"num_deleted":"0","num_feature":"24","num_nodes":"105","size_leaf_vector":"1"}},{"base_weights":[2.8382905E0,1.2533253E2,-2.6413002E1,1.8264827E2,1.6487928E1,-7.9477067E0,-5.5758904E1,3.7754726E1,2.187042E2,9.836758E0,3.7294233E0,2.897891E1,-3.0506567E1,-5.950265E1,-3.4859978E1,4.4886476E-1,4.013247E0,2.2976184E2,-9.824325E0,1.2574759E1,-9.873993E-1,1.1677092E1,1.08881516E2,-4.425145E1,4.5347626E1,-4.9992958E1,-6.707761E1,-3.5752056E1,-6.0092396E-1,1.4789977E2,2.7650232E2,1.496461E1,4.467621E0,2.8572643E-1,-6.1695963E-1,-2.462788E0,3.4376183E1,5.410305E0,1.1940475E1,-6.2264477E1,-2.6660658E1,2.4773794E1,9.699959E0,-5.2123675E0,-2.9048111E1,-4.2246674E1,-7.2456017E0,-3.7514046E1,-1.15961E0,7.460332E1,2.9323133E1,2.235378E1,3.884788E1,-0E0,1.5969382E1,-4.657084E-1,8.300713E0,-1.6339128E1,2.6162132E1,5.1058006E0,5.8366062E1,-6.630267E1,-3.5945747E1,-3.575215E1,-3.0595806E-1,6.303704E0,-7.1835938E0,-8.001938E0,-4.1582255E0,-5.3741927E0,-1.4404941E1,-1.5291821E1,-4.0605702E0,2.940331E1,1.9873556E1,1.8453362E1,5.138084E-1,-2.792282E-1,-0E0,1.1195892E0,-0E0,-2.7249064E0,-3.5439365E1,1.2317837E1,6.653717E0,3.2479515E0,-7.07205E0,6.458128E1,-5.608322E-1,-6.746375E1,-6.8491215E-1,-4.1997498E1,3.734131E-1,-4.3830547E1,-2.5009563E0,-2.4182583E1,1.0120322E1,-2.6086538E1,2.171672E0,-0E0,-1.0840038E0,-1.6386627E0,-7.390976E-2,-1.9860159E0,-0E0,5.8270746E-1,6.20609E0,6.804734E-2,1.9964913E0,8.5594934E-1,-3.2519364E0,-5.2556205E0,-3.3879182E-1,1.9624709E0,-1.2042059E0,-2.4272964E0,1.924733E0,3.551534E0,7.4049845E0,-3.1066723E0,-6.938808E0,-1.2927857E-1,-4.6913486E0,-5.1092486E0,-3.0133924E-1,2.674009E0,-1.5389841E0,-3.8938674E-1,-2.7031295E0,-4.1070613E-1,3.729501E0,-2.928869E0,-2.5378877E-1],"categories":[],"categories_nodes":[],"categories_segments":[],"categories_sizes":[],"default_left":[0,0,0,0,0,0,0,0,0,0,0,0,0,0,0,0,0,0,0,0,0,0,0,0,0,0,0,0,0,0,0,0,0,0,0,0,0,0,0,0,0,0,0,0,0,0,0,0,0,0,0,0,0,0,0,0,0,0,0,0,0,0,0,0,0,0,0,0,0,0,0,0,0,0,0,0,0,0,0,0,0,0,0,0,0,0,0,0,0,0,0,0,0,0,0,0,0,0,0,0,0,0,0,0,0,0,0,0,0,0,0,0,0,0,0,0,0,0,0,0,0,0,0,0,0,0,0,0,0,0,0,0,0],"id":10,"left_children":[1,3,5,7,9,11,13,15,17,19,-1,21,23,25,27,-1,-1,29,-1,31,33,35,37,39,41,43,45,47,-1,49,51,53,55,-1,-1,57,59,-1,-1,61,63,65,-1,-1,67,69,-1,71,-1,73,-1,-1,-1,-1,75,77,79,81,83,85,87,89,91,93,95,-1,97,99,-1,-1,101,103,-1,105,-1,107,-1,-1,-1,-1,-1,109,111,113,-1,-1,115,117,-1,119,-1,121,-1,123,125,127,129,131,-1,-1,-1,-1,-1,-1,-1,-1,-1,-1,-1,-1,-1,-1,-1,-1,-1,-1,-1,-1,-1,-1,-1,-1,-1,-1,-1,-1,-1,-1,-1,-1,-1,-1,-1],"loss_changes":[1.3940535E6,4.63881E5,1.6938886E5,2.4644988E5,3.13392E3,1.6249802E5,6.9210625E3,4.6683398E2,1.5991312E5,7.223572E2,0E0,1.0042786E5,1.2815667E5,3.3367812E3,1.1683008E2,0E0,0E0,1.0238175E5,0E0,1.8473022E2,1.3380885E2,2.0143898E4,1.6610938E2,3.0532312E4,1.717898E4,2.6678906E2,3.4436562E3,1.706836E2,0E0,1.4672138E5,4.650825E4,1.4903955E2,1.5650018E2,0E0,0E0,1.5869507E4,1.6237262E4,0E0,0E0,2.4194688E3,1.2747363E4,1.9073996E4,0E0,0E0,1.2659106E3,2.7256875E3,0E0,3.3624023E2,0E0,6.0345156E4,0E0,0E0,0E0,0E0,1.1008447E2,1.4943026E1,1.0043671E2,6.7335513E3,6.052662E3,4.35697E3,5.8260586E3,2.0656562E3,2.509335E3,1.0403375E4,4.0492131E3,0E0,5.5050728E3,9.639517E1,0E0,0E0,3.7667114E1,2.4791864E2,0E0,6.9983564E3,0E0,1.24968994E2,0E0,0E0,0E0,0E0,0E0,6.1137617E3,5.577038E3,2.232176E3,0E0,0E0,4.566774E3,1.2482031E2,0E0,2.136875E2,0E0,1.2991514E3,0E0,9.060684E3,3.7467349E3,2.9101562E1,4.5719844E3,2.1897388E2,0E0,0E0,0E0,0E0,0E0,0E0,0E0,0E0,0E0,0E0,0E0,0E0,0E0,0E0,0E0,0E0,0E0,0E0,0E0,0E0,0E0,0E0,0E0,0E0,0E0,0E0,0E0,0E0,0E0,0E0,0E0,0E0,0E0,0E0,0E0],"parents":[2147483647,0,0,1,1,2,2,3,3,4,4,5,5,6,6,7,7,8,8,9,9,11,11,12,12,13,13,14,14,17,17,19,19,20,20,21,21,22,22,23,23,24,24,25,25,26,26,27,27,29,29,30,30,31,31,32,32,35,35,36,36,39,39,40,40,41,41,44,44,45,45,47,47,49,49,54,54,55,55,56,56,57,57,58,58,59,59,60,60,61,61,62,62,63,63,64,64,66,66,67,67,70,70,71,71,73,73,75,75,81,81,82,82,83,83,86,86,87,87,89,89,91,91,93,93,94,94,95,95,96,96,97,97],"right_children":[2,4,6,8,10,12,14,16,18,20,-1,22,24,26,28,-1,-1,30,-1,32,34,36,38,40,42,44,46,48,-1,50,52,54,56,-1,-1,58,60,-1,-1,62,64,66,-1,-1,68,70,-1,72,-1,74,-1,-1,-1,-1,76,78,80,82,84,86,88,90,92,94,96,-1,98,100,-1,-1,102,104,-1,106,-1,108,-1,-1,-1,-1,-1,110,112,114,-1,-1,116,118,-1,120,-1,122,-1,124,126,128,130,132,-1,-1,-1,-1,-1,-1,-1,-1,-1,-1,-1,-1,-1,-1,-1,-1,-1,-1,-1,-1,-1,-1,-1,-1,-1,-1,-1,-1,-1,-1,-1,-1,-1,-1,-1],"split_conditions":[2.021E3,1E0,1E0,4E1,5.1E-1,1E0,1E0,2.8E-1,4E1,4.8E-1,3.7294233E0,1E0,6.2E1,3.1E1,7E1,4.4886476E-1,4.013247E0,4.7E1,-9.824325E0,5.5E1,4.2E1,5.1E1,3.6E1,4.4E1,1E0,1E0,2E1,5.1E1,-6.0092396E-1,1E0,3.6E-1,2E0,5.8E1,2.8572643E-1,-6.1695963E-1,5.1E1,3.1E-1,5.410305E0,1.1940475E1,1E0,1E0,1.9E1,9.699959E0,-5.2123675E0,5.8E1,5.1E-1,-7.2456017E0,4.6E-1,-1.15961E0,1E0,2.9323133E1,2.235378E1,3.884788E1,-0E0,4.6E-1,4.3E-1,1.1E1,4.1E1,4.6E1,8E0,1E0,6E-1,3E1,1E0,4.6E1,6.303704E0,1E0,5.1E-1,-4.1582255E0,-5.3741927E0,1E0,4.8E1,-4.0605702E0,3.6E-1,1.9873556E1,3.6E-1,5.138084E-1,-2.792282E-1,-0E0,1.1195892E0,-0E0,1E0,1E0,7E0,6.653717E0,3.2479515E0,1.2E1,7E0,-5.608322E-1,4E0,-6.8491215E-1,6E0,3.734131E-1,4.4E-1,4.6E1,3.6E-1,2.3E1,1E0,2.171672E0,-0E0,-1.0840038E0,-1.6386627E0,-7.390976E-2,-1.9860159E0,-0E0,5.8270746E-1,6.20609E0,6.804734E-2,1.9964913E0,8.5594934E-1,-3.2519364E0,-5.2556205E0,-3.3879182E-1,1.9624709E0,-1.2042059E0,-2.4272964E0,1.924733E0,3.551534E0,7.4049845E0,-3.1066723E0,-6.938808E0,-1.2927857E-1,-4.6913486E0,-5.1092486E0,-3.0133924E-1,2.674009E0,-1.5389841E0,-3.8938674E-1,-2.7031295E0,-4.1070613E-1,3.729501E0,-2.928869E0,-2.5378877E-1],"split_indices":[23,18,18,2,1,19,4,1,0,1,0,4,2,20,2,0,0,2,0,2,2,2,2,2,4,5,0,0,0,7,1,21,2,0,0,0,1,0,0,7,3,21,0,0,2,1,0,1,0,6,0,0,0,0,1,1,21,2,2,22,7,1,21,7,2,0,5,1,0,0,3,2,0,1,0,1,0,0,0,0,0,6,3,22,0,0,22,20,0,21,0,21,0,1,2,1,21,7,0,0,0,0,0,0,0,0,0,0,0,0,0,0,0,0,0,0,0,0,0,0,0,0,0,0,0,0,0,0,0,0,0,0,0],"split_type":[0,0,0,0,0,0,0,0,0,0,0,0,0,0,0,0,0,0,0,0,0,0,0,0,0,0,0,0,0,0,0,0,0,0,0,0,0,0,0,0,0,0,0,0,0,0,0,0,0,0,0,0,0,0,0,0,0,0,0,0,0,0,0,0,0,0,0,0,0,0,0,0,0,0,0,0,0,0,0,0,0,0,0,0,0,0,0,0,0,0,0,0,0,0,0,0,0,0,0,0,0,0,0,0,0,0,0,0,0,0,0,0,0,0,0,0,0,0,0,0,0,0,0,0,0,0,0,0,0,0,0,0,0],"sum_hessian":[3.87E2,7.4E1,3.13E2,4.8E1,2.6E1,1.93E2,1.2E2,1E1,3.8E1,2.1E1,5E0,7.3E1,1.2E2,1E2,2E1,1E0,9E0,3.7E1,1E0,1.7E1,4E0,6.1E1,1.2E1,1.02E2,1.8E1,4.8E1,5.2E1,1.9E1,1E0,1.5E1,2.2E1,1.2E1,5E0,2E0,2E0,3.8E1,2.3E1,3E0,9E0,4.9E1,5.3E1,1.4E1,4E0,4.2E1,6E0,1.1E1,4.1E1,1.7E1,2E0,1.1E1,4E0,1.7E1,5E0,1E0,1.1E1,2E0,3E0,2.6E1,1.2E1,1.1E1,1.2E1,4.1E1,8E0,3.9E1,1.4E1,6E0,8E0,3E0,3E0,7E0,4E0,3E0,1.4E1,9E0,2E0,8E0,3E0,1E0,1E0,2E0,1E0,1.6E1,1E1,1E1,2E0,3E0,8E0,1.1E1,1E0,4E1,1E0,7E0,1E0,3.1E1,8E0,4E0,1E1,5E0,3E0,1E0,2E0,3E0,1E0,2E0,1E0,6E0,3E0,1E0,7E0,1.2E1,4E0,6E0,4E0,8E0,2E0,5E0,3E0,4E0,7E0,3E0,3.7E1,1E0,6E0,2.6E1,5E0,2E0,6E0,1E0,3E0,7E0,3E0,4E0,1E0],"tree_param":{"num_deleted":"0","num_feature":"24","num_nodes":"133","size_leaf_vector":"1"}},{"base_weights":[3.5165987E0,1.15233864E2,-2.153686E1,1.6158646E2,1.5587577E1,-1.7901717E0,-4.5458424E1,9.632615E1,2.4377515E2,9.746341E0,3.4835002E0,-1.1320868E1,7.3341835E1,-5.412505E1,-1.7575443E1,5.92791E1,2.0357701E2,2.6554703E2,-9.333109E0,1.2184226E1,-1.8012543E0,-2.4605852E1,5.2340555E0,8.4301476E1,7.177887E0,-4.6634438E1,-6.808812E1,-3.3446957E1,4.0418816E0,2.9088537E1,1.391376E2,2.6977283E1,2.3725007E0,1.942129E1,3.695657E1,7.5694222E0,1.8549795E1,2.5349274E-1,-5.758291E-1,-3.416023E1,1.7013021E1,1.1496968E1,-5.2955E0,9.733459E1,1.636023E1,-2.0343528E0,4.7371063E0,-4.9731915E1,-2.7651705E1,-7.0574884E0,-2.9300334E0,-3.4587772E1,-2.8153154E-1,3.655316E1,-2.4750578E1,1.0265959E1,6.418937E0,2.0189928E1,7.409495E-1,8.052924E0,-0E0,2.0461462E0,1.9957276E-1,-2.6930542E1,-5.950433E1,2.1594997E1,-2.5649292E0,-1.1784993E0,4.0325695E1,5.806873E0,1.1890039E1,-2.7567443E-1,2.5318136E0,-5.05086E0,-1.5695379E0,-4.0898604E0,-9.740274E0,-3.546011E0,-6.5066683E-1,6.358619E1,-2.803061E0,-0E0,-2.7911331E1,2.0365686E1,-2.8521698E0,-0E0,8.567482E-1,1.0976099E1,-3.244667E1,-1.3450297E1,-6.517031E1,1.101542E1,6.210136E0,-1.5875824E1,3.319223E1,2.0977617E1,5.707601E1,-2.6161072E-1,-1.6700462E0,-5.468742E-1,7.9490924E0,-0E0,-3.1671978E1,2.538527E0,-1.2415069E0,3.5068436E0,-2.0633347E0,-1.2133497E0,-3.8945034E0,9.890343E-1,-3.256579E0,-7.8342614E0,-4.197368E0,-9.286297E-1,1.7851006E0,1.8095324E0,-2.5910184E0,-1.3230965E0,3.8165627E0,6.082482E0,-9.7671837E-1,3.260356E-1,6.9497375E0,-3.4214382E0,-5.7087785E-1],"categories":[],"categories_nodes":[],"categories_segments":[],"categories_sizes":[],"default_left":[0,0,0,0,0,0,0,0,0,0,0,0,0,0,0,0,0,0,0,0,0,0,0,0,0,0,0,0,0,0,0,0,0,0,0,0,0,0,0,0,0,0,0,0,0,0,0,0,0,0,0,0,0,0,0,0,0,0,0,0,0,0,0,0,0,0,0,0,0,0,0,0,0,0,0,0,0,0,0,0,0,0,0,0,0,0,0,0,0,0,0,0,0,0,0,0,0,0,0,0,0,0,0,0,0,0,0,0,0,0,0,0,0,0,0,0,0,0,0,0,0,0,0,0,0],"id":11,"left_children":[1,3,5,7,9,11,13,15,17,19,-1,21,23,25,27,29,31,33,-1,35,37,39,41,43,45,47,49,51,53,55,57,-1,-1,-1,-1,59,61,-1,-1,63,65,67,-1,69,71,-1,-1,73,75,-1,-1,77,-1,79,81,83,-1,-1,-1,85,-1,-1,-1,87,89,91,-1,93,95,-1,-1,-1,-1,-1,-1,-1,97,-1,-1,99,-1,-1,101,103,-1,-1,-1,105,107,109,111,113,-1,115,117,119,121,-1,-1,-1,-1,-1,123,-1,-1,-1,-1,-1,-1,-1,-1,-1,-1,-1,-1,-1,-1,-1,-1,-1,-1,-1,-1,-1,-1],"loss_changes":[1.1001206E6,3.2915362E5,1.5131367E5,2.37637E5,2.1358696E3,1.2726285E5,3.3729688E4,1.0184434E5,1.7977288E5,6.3689575E2,0E0,3.497489E4,1.3440164E4,7.7562188E3,1.2633802E4,5.0563945E4,7.547028E4,7.3808375E4,0E0,2.2838232E2,9.934738E1,3.5659438E4,2.6276273E4,1.2892359E4,5.523524E3,2.6478125E3,9.0515625E2,4.4945312E2,1.5941002E4,1.0861144E4,4.7062344E4,0E0,0E0,0E0,0E0,2.5791626E1,3.6753662E1,0E0,0E0,1.1157891E4,3.856745E3,2.3995402E4,0E0,4.0659688E3,8.675947E2,0E0,0E0,5.416719E2,2.4329639E3,0E0,0E0,4.9365234E1,0E0,1.5927295E4,7.1901953E2,5.6327666E3,0E0,0E0,0E0,2.0671936E1,0E0,0E0,0E0,1.2591172E4,2.6444531E3,5.806988E3,0E0,2.3677629E4,4.8941406E3,0E0,0E0,0E0,0E0,0E0,0E0,0E0,2.0682574E2,0E0,0E0,7.394629E3,0E0,0E0,7.8945996E2,2.1900137E3,0E0,0E0,0E0,6.8881177E3,6.0041914E3,1.7739673E3,8.228125E1,2.151431E3,0E0,1.1756924E4,3.8619756E3,1.4325413E4,6.0942676E3,0E0,0E0,0E0,0E0,0E0,6.7123535E1,0E0,0E0,0E0,0E0,0E0,0E0,0E0,0E0,0E0,0E0,0E0,0E0,0E0,0E0,0E0,0E0,0E0,0E0,0E0,0E0,0E0,0E0],"parents":[2147483647,0,0,1,1,2,2,3,3,4,4,5,5,6,6,7,7,8,8,9,9,11,11,12,12,13,13,14,14,15,15,16,16,17,17,19,19,20,20,21,21,22,22,23,23,24,24,25,25,26,26,27,27,28,28,29,29,30,30,35,35,36,36,39,39,40,40,41,41,43,43,44,44,47,47,48,48,51,51,53,53,54,54,55,55,59,59,63,63,64,64,65,65,67,67,68,68,76,76,79,79,82,82,83,83,87,87,88,88,89,89,90,90,91,91,93,93,94,94,95,95,96,96,102,102],"right_children":[2,4,6,8,10,12,14,16,18,20,-1,22,24,26,28,30,32,34,-1,36,38,40,42,44,46,48,50,52,54,56,58,-1,-1,-1,-1,60,62,-1,-1,64,66,68,-1,70,72,-1,-1,74,76,-1,-1,78,-1,80,82,84,-1,-1,-1,86,-1,-1,-1,88,90,92,-1,94,96,-1,-1,-1,-1,-1,-1,-1,98,-1,-1,100,-1,-1,102,104,-1,-1,-1,106,108,110,112,114,-1,116,118,120,122,-1,-1,-1,-1,-1,124,-1,-1,-1,-1,-1,-1,-1,-1,-1,-1,-1,-1,-1,-1,-1,-1,-1,-1,-1,-1,-1,-1],"split_conditions":[2.021E3,1E0,4.1E-1,4.8E1,5.1E-1,1E0,1E0,1E0,4E1,4.8E-1,3.4835002E0,5.3E1,1E0,1E0,5E1,1E0,3.6E-1,3.6E-1,-9.333109E0,1.4E1,4E1,5.1E1,1E0,9E0,3.8E-1,5.1E1,5.2E1,5.1E1,1.6E1,3.6E-1,3.6E-1,2.6977283E1,2.3725007E0,1.942129E1,3.695657E1,4.6E-1,4.7E-1,2.5349274E-1,-5.758291E-1,1E0,1E0,1E0,-5.2955E0,3.6E1,5.6E1,-2.0343528E0,4.7371063E0,7.4E1,6E0,-7.0574884E0,-2.9300334E0,2.5E1,-2.8153154E-1,5.7E-1,2E1,1.8E1,6.418937E0,2.0189928E1,7.409495E-1,2E0,-0E0,2.0461462E0,1.9957276E-1,2E1,7E0,4.6E1,-2.5649292E0,1E0,6.6E1,5.806873E0,1.1890039E1,-2.7567443E-1,2.5318136E0,-5.05086E0,-1.5695379E0,-4.0898604E0,8E0,-3.546011E0,-6.5066683E-1,3E1,-2.803061E0,-0E0,5.3E1,4.7E1,-2.8521698E0,-0E0,8.567482E-1,2.1E1,3.1E-1,8E0,4.1E1,3.6E1,6.210136E0,1.9E1,3.1E-1,7E0,1.1E1,-2.6161072E-1,-1.6700462E0,-5.468742E-1,7.9490924E0,-0E0,7E1,2.538527E0,-1.2415069E0,3.5068436E0,-2.0633347E0,-1.2133497E0,-3.8945034E0,9.890343E-1,-3.256579E0,-7.8342614E0,-4.197368E0,-9.286297E-1,1.7851006E0,1.8095324E0,-2.5910184E0,-1.3230965E0,3.8165627E0,6.082482E0,-9.7671837E-1,3.260356E-1,6.9497375E0,-3.4214382E0,-5.7087785E-1],"split_indices":[23,18,1,2,1,4,4,7,0,1,0,2,19,6,2,6,1,1,0,21,2,0,18,22,1,0,2,0,21,1,1,0,0,0,0,1,1,0,0,6,18,5,0,2,2,0,0,2,22,0,0,21,0,1,0,21,0,0,0,21,0,0,0,0,21,2,0,3,2,0,0,0,0,0,0,0,22,0,0,0,0,0,2,2,0,0,0,21,1,22,2,2,0,20,1,22,22,0,0,0,0,0,2,0,0,0,0,0,0,0,0,0,0,0,0,0,0,0,0,0,0,0,0,0,0],"split_type":[0,0,0,0,0,0,0,0,0,0,0,0,0,0,0,0,0,0,0,0,0,0,0,0,0,0,0,0,0,0,0,0,0,0,0,0,0,0,0,0,0,0,0,0,0,0,0,0,0,0,0,0,0,0,0,0,0,0,0,0,0,0,0,0,0,0,0,0,0,0,0,0,0,0,0,0,0,0,0,0,0,0,0,0,0,0,0,0,0,0,0,0,0,0,0,0,0,0,0,0,0,0,0,0,0,0,0,0,0,0,0,0,0,0,0,0,0,0,0,0,0,0,0,0,0],"sum_hessian":[3.91E2,7.1E1,3.2E2,4.8E1,2.3E1,1.76E2,1.44E2,2.8E1,2E1,1.9E1,4E0,1.57E2,1.9E1,1.09E2,3.5E1,2.2E1,6E0,1.9E1,1E0,1.6E1,3E0,8.7E1,7E1,1.6E1,3E0,7.4E1,3.5E1,2E1,1.5E1,1.7E1,5E0,4E0,2E0,1.3E1,6E0,1.1E1,5E0,1E0,2E0,7.1E1,1.6E1,6.4E1,6E0,1.3E1,3E0,2E0,1E0,6.2E1,1.2E1,3.2E1,3E0,1.9E1,1E0,7E0,8E0,1.2E1,5E0,3E0,2E0,1E1,1E0,4E0,1E0,5.7E1,1.4E1,1.5E1,1E0,4.5E1,1.9E1,6E0,7E0,1E0,2E0,6E1,2E0,6E0,6E0,1.8E1,1E0,5E0,2E0,1E0,7E0,1E1,2E0,1E0,9E0,7E0,5E1,2E0,1.2E1,1.3E1,2E0,3.2E1,1.3E1,1E1,9E0,4E0,2E0,1E0,4E0,1E0,6E0,9E0,1E0,4E0,3E0,1.3E1,3.7E1,1E0,1E0,6E0,6E0,3E0,1E1,7E0,2.5E1,1E0,1.2E1,4E0,6E0,2E0,7E0,5E0,1E0],"tree_param":{"num_deleted":"0","num_feature":"24","num_nodes":"125","size_leaf_vector":"1"}},{"base_weights":[-2.1498697E0,8.826168E1,-2.1676332E1,1.2456399E2,1.1602209E1,-7.0874853E0,-4.6261837E1,2.6392895E1,1.6228615E2,4.4341364E0,3.0339391E0,1.9936962E1,-2.4714294E1,-4.940148E1,-2.7204647E0,4.1896328E1,1.2569174E0,1.7305537E2,-8.866454E0,6.421062E0,-1.0160828E0,4.1368904E0,8.157869E1,-3.599156E1,3.0462774E1,-5.1426567E1,-2.573555E1,7.856995E-1,4.6132793E0,1.1686224E2,2.2163213E2,9.152397E0,-0E0,2.014262E-1,-5.3744E-1,1.3744368E1,-3.4226624E1,9.4063354E1,4.4260345E1,-5.3743725E1,-1.9452759E1,1.6107605E1,8.6195345E0,-4.4453865E1,-5.82179E1,-3.4234986E0,-9.389114E0,5.697717E1,2.4819098E1,2.388164E1,1.0912523E1,-0E0,9.846292E0,-2.8643495E-1,2.3213147E-1,-1.4390873E1,2.5674623E1,-4.689629E1,2.197103E0,2.2406404E0,9.848842E0,8.123413E0,1.9618763E0,-4.5594563E1,-6.8298907E0,2.4754026E0,-2.2636572E1,5.2021823E0,-1.1021607E1,-4.5635704E1,-1.8499256E0,-9.481285E-1,-5.9053397E0,-1.1398038E0,-0E0,1.996577E1,1.7202658E1,-0E0,1.0546234E1,2.7557597E0,-2.2709055E1,1.3181115E1,5.018767E1,-6.287053E0,-3.2422134E1,-4.992955E1,-2.1026827E1,-2.8539164E1,-6.2344027E0,-1.7244963E1,2.3105972E0,-9.130123E-1,-4.6132936E0,-1.1237646E0,4.011596E0,1.2294536E0,1.8675537E-1,-5.283876E0,-1.2867541E0,-2.0095225E-1,3.1487653E0,5.633795E0,-6.2326735E-1,-1.1853231E0,-4.877773E0,-5.3414187E0,-2.7416856E0,-1.5744274E-2,-2.834309E0,-3.4227474E0,1.4659337E-3,3.2047257E-1,-2.6753604E0,-2.6725981E0,1.2119405E0],"categories":[],"categories_nodes":[],"categories_segments":[],"categories_sizes":[],"default_left":[0,0,0,0,0,0,0,0,0,0,0,0,0,0,0,0,0,0,0,0,0,0,0,0,0,0,0,0,0,0,0,0,0,0,0,0,0,0,0,0,0,0,0,0,0,0,0,0,0,0,0,0,0,0,0,0,0,0,0,0,0,0,0,0,0,0,0,0,0,0,0,0,0,0,0,0,0,0,0,0,0,0,0,0,0,0,0,0,0,0,0,0,0,0,0,0,0,0,0,0,0,0,0,0,0,0,0,0,0,0,0,0,0,0,0],"id":12,"left_children":[1,3,5,7,9,11,13,15,17,19,-1,21,23,25,-1,27,-1,29,-1,31,33,35,37,39,41,43,45,-1,-1,47,49,51,53,-1,-1,55,57,59,61,63,65,67,-1,69,71,-1,73,75,-1,-1,-1,-1,77,-1,-1,79,81,83,-1,-1,-1,-1,-1,85,-1,-1,87,-1,89,91,-1,-1,-1,-1,-1,93,-1,-1,95,-1,97,99,101,-1,103,105,107,109,111,113,-1,-1,-1,-1,-1,-1,-1,-1,-1,-1,-1,-1,-1,-1,-1,-1,-1,-1,-1,-1,-1,-1,-1,-1,-1],"loss_changes":[6.759699E5,1.8711219E5,1.12387734E5,1.6512181E5,2.780721E3,9.531121E4,5.2734688E3,2.2014814E3,1.0494981E5,2.2847446E2,0E0,7.6175484E4,7.641588E4,3.0353125E3,0E0,2.328252E2,0E0,5.9756875E4,0E0,2.6044324E2,9.3662155E1,2.3956912E4,2.5996094E3,2.824211E4,1.4901146E4,1.1605E3,8.4979785E2,0E0,0E0,1.1803166E5,3.132875E3,3.4881348E1,4.0778996E1,0E0,0E0,1.7880254E4,1.0411057E4,6.7671094E2,3.368579E3,2.0098906E3,8.150047E3,1.8316203E4,0E0,3.381328E2,8.076406E2,0E0,7.888367E1,5.0961215E4,0E0,0E0,0E0,0E0,1.7239319E1,0E0,0E0,6.1845234E3,1.0353021E4,2.8490234E1,0E0,0E0,0E0,0E0,0E0,2.2163828E3,0E0,0E0,4.585789E3,0E0,2.7054248E3,1.3746094E2,0E0,0E0,0E0,0E0,0E0,7.5115024E3,0E0,0E0,2.7612427E1,0E0,3.1428696E3,7.440953E3,4.76567E3,0E0,1.8100029E3,3.2795312E2,9.218362E2,6.181215E3,3.108733E3,3.1809773E3,0E0,0E0,0E0,0E0,0E0,0E0,0E0,0E0,0E0,0E0,0E0,0E0,0E0,0E0,0E0,0E0,0E0,0E0,0E0,0E0,0E0,0E0,0E0,0E0,0E0],"parents":[2147483647,0,0,1,1,2,2,3,3,4,4,5,5,6,6,7,7,8,8,9,9,11,11,12,12,13,13,15,15,17,17,19,19,20,20,21,21,22,22,23,23,24,24,25,25,26,26,29,29,30,30,31,31,32,32,35,35,36,36,37,37,38,38,39,39,40,40,41,41,43,43,44,44,46,46,47,47,52,52,55,55,56,56,57,57,63,63,66,66,68,68,69,69,75,75,78,78,80,80,81,81,82,82,84,84,85,85,86,86,87,87,88,88,89,89],"right_children":[2,4,6,8,10,12,14,16,18,20,-1,22,24,26,-1,28,-1,30,-1,32,34,36,38,40,42,44,46,-1,-1,48,50,52,54,-1,-1,56,58,60,62,64,66,68,-1,70,72,-1,74,76,-1,-1,-1,-1,78,-1,-1,80,82,84,-1,-1,-1,-1,-1,86,-1,-1,88,-1,90,92,-1,-1,-1,-1,-1,94,-1,-1,96,-1,98,100,102,-1,104,106,108,110,112,114,-1,-1,-1,-1,-1,-1,-1,-1,-1,-1,-1,-1,-1,-1,-1,-1,-1,-1,-1,-1,-1,-1,-1,-1,-1],"split_conditions":[2.021E3,1E0,1E0,4E1,5.1E-1,1E0,1E0,3.5E1,4E1,1E0,3.0339391E0,1E0,6.2E1,4.7E1,-2.7204647E0,3.2E1,1.2569174E0,4.8E1,-8.866454E0,5.5E1,4.8E-1,1E0,9E0,4.4E1,1E0,3.1E1,5.1E-1,7.856995E-1,4.6132793E0,1E0,1E0,2E0,4.3E-1,2.014262E-1,-5.3744E-1,3.1E-1,1.1E1,2E0,4E0,1E0,3E0,1.9E1,8.6195345E0,6.5E1,3E0,-3.4234986E0,1E0,1E0,2.4819098E1,2.388164E1,1.0912523E1,-0E0,3.6E-1,-2.8643495E-1,2.3213147E-1,4E0,5.1E1,3.1E1,2.197103E0,2.2406404E0,9.848842E0,8.123413E0,1.9618763E0,4.5E-1,-6.8298907E0,2.4754026E0,1E0,5.2021823E0,3.6E-1,3.6E-1,-1.8499256E0,-9.481285E-1,-5.9053397E0,-1.1398038E0,-0E0,3E0,1.7202658E1,-0E0,4.9E1,2.7557597E0,4.6E1,1.4E1,1E0,-6.287053E0,9E0,1E0,4.6E-1,4.5E-1,3.6E-1,1E0,2.3105972E0,-9.130123E-1,-4.6132936E0,-1.1237646E0,4.011596E0,1.2294536E0,1.8675537E-1,-5.283876E0,-1.2867541E0,-2.0095225E-1,3.1487653E0,5.633795E0,-6.2326735E-1,-1.1853231E0,-4.877773E0,-5.3414187E0,-2.7416856E0,-1.5744274E-2,-2.834309E0,-3.4227474E0,1.4659337E-3,3.2047257E-1,-2.6753604E0,-2.6725981E0,1.2119405E0],"split_indices":[23,18,18,2,1,19,4,2,0,6,0,4,2,20,0,2,0,2,0,2,1,6,22,2,4,20,1,0,0,7,6,21,1,0,0,1,22,22,21,6,22,21,0,2,21,0,3,6,0,0,0,0,1,0,0,21,2,2,0,0,0,0,0,1,0,0,3,0,1,1,0,0,0,0,0,22,0,0,2,0,2,21,7,0,22,4,1,1,1,5,0,0,0,0,0,0,0,0,0,0,0,0,0,0,0,0,0,0,0,0,0,0,0,0,0],"split_type":[0,0,0,0,0,0,0,0,0,0,0,0,0,0,0,0,0,0,0,0,0,0,0,0,0,0,0,0,0,0,0,0,0,0,0,0,0,0,0,0,0,0,0,0,0,0,0,0,0,0,0,0,0,0,0,0,0,0,0,0,0,0,0,0,0,0,0,0,0,0,0,0,0,0,0,0,0,0,0,0,0,0,0,0,0,0,0,0,0,0,0,0,0,0,0,0,0,0,0,0,0,0,0,0,0,0,0,0,0,0,0,0,0,0,0],"sum_hessian":[3.81E2,6.7E1,3.14E2,4.5E1,2.2E1,1.98E2,1.16E2,1.3E1,3.2E1,1.7E1,5E0,7.8E1,1.2E2,9.8E1,1.8E1,5E0,8E0,3.1E1,1E0,1.3E1,4E0,6.3E1,1.5E1,1E2,2E1,8.9E1,9E0,1E0,4E0,1.6E1,1.5E1,9E0,4E0,2E0,2E0,5.1E1,1.2E1,1E1,5E0,4.7E1,5.3E1,1.7E1,3E0,4.8E1,4.1E1,5E0,4E0,1.2E1,4E0,1.2E1,3E0,1E0,8E0,2E0,2E0,1.5E1,3.6E1,1E1,2E0,1E0,9E0,1E0,4E0,3.3E1,1.4E1,3E0,5E1,7E0,1E1,4.5E1,3E0,1E0,4E1,3E0,1E0,1E1,2E0,1E0,7E0,2E0,1.3E1,2.5E1,1.1E1,3E0,7E0,2.7E1,6E0,3.6E1,1.4E1,9E0,1E0,1E0,4.4E1,4E0,6E0,5E0,2E0,2E0,1.1E1,1.4E1,1.1E1,1E1,1E0,4E0,3E0,2.2E1,5E0,2E0,4E0,3E1,6E0,1E1,4E0,7E0,2E0],"tree_param":{"num_deleted":"0","num_feature":"24","num_nodes":"115","size_leaf_vector":"1"}},{"base_weights":[1.2350894E0,9.003139E1,-2.035946E1,1.2690743E2,1.3953095E1,-4.718226E0,-4.341783E1,6.332143E1,1.9581676E2,9.463471E0,2.575966E0,-1.644197E1,4.5961445E1,-3.907731E1,-5.5667854E1,3.383136E1,1.4203143E2,2.1260219E2,-8.423131E0,1.1414306E1,3.281067E-1,-2.9104662E1,4.5653415E0,7.650116E1,1.4287184E1,-5.1581257E1,-3.282051E1,-5.9419065E0,-2.477825E0,1.2248825E1,2.3024105E1,2.251145E1,2.2190521E1,1.670474E1,3.0540705E1,7.2817726E0,1.8049524E1,-3.988902E-2,2.6124012E-1,-3.6061813E1,1.5562779E1,-6.643914E0,3.3316227E1,8.479918E1,3.862609E1,-1.1873601E1,6.942102E0,-5.5142455E0,-2.2459038E1,-3.9341505E0,-2.8452993E1,3.0324942E1,1.0132853E-1,2.6254814E0,2.498825E-1,-0E0,7.6794475E-1,2.0188663E0,2.2464828E-1,-1.969522E1,-4.305217E1,-2.1579387E0,2.4732208E1,1.3738572E1,-1.7906631E1,-1.6016439E0,3.877604E1,5.505979E0,1.0948517E1,7.7172427E0,8.4464035E0,2.0788128E1,-2.4250934E0,-1.8288307E-1,-2.5909383E0,-7.553789E0,-2.9706589E1,2.0144804E1,4.5656257E0,-1.9093056E0,2.7326732E0,-1.1838539E1,-3.526794E1,-5.6150963E1,-2.8237223E1,3.1022045E1,-1.6583084E0,1.1624478E0,3.7658334E0,-3.100556E1,6.9621E0,-8.1364745E-1,3.2340088E-1,1.6426855E1,4.8811493E1,1.5328441E0,-3.5998535E-1,6.1522737E0,-1.1630987E0,-0E0,-1.0449604E0,-3.1975305E0,-1.7783758E1,1.129742E0,2.750218E0,-2.2379875E0,8.715162E-1,-1.0783062E0,-4.6802254E0,-1.4650802E-1,-5.793692E0,-1.0796611E0,-4.2299314E0,7.0213014E-1,4.5018992E0,1.644748E0,-6.000374E-1,-5.686663E0,-4.1300383E-1,-3.5402173E-1,1.9172461E0,2.967041E-1,2.7230988E0,5.700843E0,1.1748143E0,-1.9895674E0,-0E0],"categories":[],"categories_nodes":[],"categories_segments":[],"categories_sizes":[],"default_left":[0,0,0,0,0,0,0,0,0,0,0,0,0,0,0,0,0,0,0,0,0,0,0,0,0,0,0,0,0,0,0,0,0,0,0,0,0,0,0,0,0,0,0,0,0,0,0,0,0,0,0,0,0,0,0,0,0,0,0,0,0,0,0,0,0,0,0,0,0,0,0,0,0,0,0,0,0,0,0,0,0,0,0,0,0,0,0,0,0,0,0,0,0,0,0,0,0,0,0,0,0,0,0,0,0,0,0,0,0,0,0,0,0,0,0,0,0,0,0,0,0,0,0,0,0,0,0],"id":13,"left_children":[1,3,5,7,9,11,13,15,17,19,-1,21,23,25,27,29,31,33,-1,35,37,39,41,43,45,47,49,-1,-1,-1,51,-1,53,-1,-1,55,57,-1,-1,59,61,63,65,67,69,71,-1,-1,73,-1,75,77,79,-1,-1,-1,-1,-1,-1,81,83,-1,85,87,89,91,93,-1,-1,-1,95,97,-1,-1,-1,99,101,103,-1,-1,-1,105,107,109,111,113,-1,115,-1,117,119,-1,-1,121,123,-1,-1,-1,-1,-1,-1,-1,125,-1,-1,-1,-1,-1,-1,-1,-1,-1,-1,-1,-1,-1,-1,-1,-1,-1,-1,-1,-1,-1,-1,-1,-1],"loss_changes":[7.1549744E5,2.02324E5,1.07752875E5,2.0100669E5,9.052842E2,1.07556086E5,3.7846719E3,5.6986984E4,1.2666631E5,2.939746E2,0E0,3.935891E4,3.1342055E4,5.1608906E3,1.4670391E3,1.6573148E4,6.3465297E4,3.9629812E4,0E0,1.8063501E2,2.041299E1,2.925346E4,1.8402168E4,1.4503125E3,2.7074217E4,1.381125E3,3.92875E2,0E0,0E0,0E0,3.1919043E3,0E0,1.1075696E2,0E0,0E0,1.2422485E1,1.1495361E1,0E0,0E0,7.991E3,4.976912E3,9.678901E3,3.2982969E3,2.6929375E3,4.736658E3,5.7768906E3,0E0,0E0,1.6983179E2,0E0,7.158672E2,1.0923818E3,3.6983682E3,0E0,0E0,0E0,0E0,0E0,0E0,2.528044E3,8.665703E3,0E0,3.4451675E3,4.2743877E3,9.131433E3,1.4562627E2,2.0119668E3,0E0,0E0,0E0,4.454342E2,6.247348E3,0E0,0E0,0E0,9.934369E1,2.6454297E2,2.1132715E2,0E0,0E0,0E0,4.379973E3,1.4667324E3,2.3527656E3,6.144871E3,2.7830771E3,0E0,1.35525E3,0E0,1.1970691E4,1.4284067E3,0E0,0E0,6.4074414E2,1.7207266E3,0E0,0E0,0E0,0E0,0E0,0E0,0E0,3.2034424E2,0E0,0E0,0E0,0E0,0E0,0E0,0E0,0E0,0E0,0E0,0E0,0E0,0E0,0E0,0E0,0E0,0E0,0E0,0E0,0E0,0E0,0E0,0E0,0E0],"parents":[2147483647,0,0,1,1,2,2,3,3,4,4,5,5,6,6,7,7,8,8,9,9,11,11,12,12,13,13,14,14,15,15,16,16,17,17,19,19,20,20,21,21,22,22,23,23,24,24,25,25,26,26,30,30,32,32,35,35,36,36,39,39,40,40,41,41,42,42,43,43,44,44,45,45,48,48,50,50,51,51,52,52,59,59,60,60,62,62,63,63,64,64,65,65,66,66,70,70,71,71,75,75,76,76,77,77,81,81,82,82,83,83,84,84,85,85,87,87,89,89,90,90,93,93,94,94,102,102],"right_children":[2,4,6,8,10,12,14,16,18,20,-1,22,24,26,28,30,32,34,-1,36,38,40,42,44,46,48,50,-1,-1,-1,52,-1,54,-1,-1,56,58,-1,-1,60,62,64,66,68,70,72,-1,-1,74,-1,76,78,80,-1,-1,-1,-1,-1,-1,82,84,-1,86,88,90,92,94,-1,-1,-1,96,98,-1,-1,-1,100,102,104,-1,-1,-1,106,108,110,112,114,-1,116,-1,118,120,-1,-1,122,124,-1,-1,-1,-1,-1,-1,-1,126,-1,-1,-1,-1,-1,-1,-1,-1,-1,-1,-1,-1,-1,-1,-1,-1,-1,-1,-1,-1,-1,-1,-1,-1],"split_conditions":[2.021E3,1E0,1E0,4.8E1,5.1E-1,1E0,1E0,1E0,4E1,2.7E1,2.575966E0,5.3E1,1E0,4.5E-1,5.2E1,1E0,3.6E-1,3.6E-1,-8.423131E0,1.1E1,3E1,5.1E1,1E0,9E0,6E1,6.1E1,3.9E1,-5.9419065E0,-2.477825E0,1.2248825E1,4.2E1,2.251145E1,3.9E-1,1.670474E1,3.0540705E1,2E0,4.4E-1,-3.988902E-2,2.6124012E-1,1E0,3.6E1,5.6E1,8E0,4.1E1,4E0,4E0,6.942102E0,-5.5142455E0,6.3E1,-3.9341505E0,3E0,3.9E-1,1E0,2.6254814E0,2.498825E-1,-0E0,7.6794475E-1,2.0188663E0,2.2464828E-1,1E0,4.2E1,-2.1579387E0,9E0,1.2E1,3.5E-1,3E1,3.1E-1,5.505979E0,1.0948517E1,7.7172427E0,7E0,1.2E1,-2.4250934E0,-1.8288307E-1,-2.5909383E0,4.6E-1,5.1E1,3E0,4.5656257E0,-1.9093056E0,2.7326732E0,9E0,8E0,4E0,3.6E-1,4.1E1,-1.6583084E0,8E0,3.7658334E0,6.1E1,3.6E-1,-8.1364745E-1,3.2340088E-1,2.2E1,1.2E1,1.5328441E0,-3.5998535E-1,6.1522737E0,-1.1630987E0,-0E0,-1.0449604E0,-3.1975305E0,5.5E1,1.129742E0,2.750218E0,-2.2379875E0,8.715162E-1,-1.0783062E0,-4.6802254E0,-1.4650802E-1,-5.793692E0,-1.0796611E0,-4.2299314E0,7.0213014E-1,4.5018992E0,1.644748E0,-6.000374E-1,-5.686663E0,-4.1300383E-1,-3.5402173E-1,1.9172461E0,2.967041E-1,2.7230988E0,5.700843E0,1.1748143E0,-1.9895674E0,-0E0],"split_indices":[23,18,18,2,1,4,6,7,0,21,0,2,19,1,2,19,1,1,0,21,21,0,5,22,2,2,2,0,0,0,2,0,1,0,0,21,1,0,0,19,2,2,21,2,21,21,0,0,2,0,22,1,5,0,0,0,0,0,0,6,2,0,22,22,1,0,1,0,0,0,21,22,0,0,0,1,0,22,0,0,0,21,21,21,1,2,0,22,0,2,1,0,0,21,22,0,0,0,0,0,0,0,2,0,0,0,0,0,0,0,0,0,0,0,0,0,0,0,0,0,0,0,0,0,0,0,0],"split_type":[0,0,0,0,0,0,0,0,0,0,0,0,0,0,0,0,0,0,0,0,0,0,0,0,0,0,0,0,0,0,0,0,0,0,0,0,0,0,0,0,0,0,0,0,0,0,0,0,0,0,0,0,0,0,0,0,0,0,0,0,0,0,0,0,0,0,0,0,0,0,0,0,0,0,0,0,0,0,0,0,0,0,0,0,0,0,0,0,0,0,0,0,0,0,0,0,0,0,0,0,0,0,0,0,0,0,0,0,0,0,0,0,0,0,0,0,0,0,0,0,0,0,0,0,0,0,0],"sum_hessian":[3.71E2,7.2E1,2.99E2,4.8E1,2.4E1,1.79E2,1.2E2,2.6E1,2.2E1,1.9E1,5E0,1.46E2,3.3E1,9.2E1,2.8E1,2E1,6E0,2.1E1,1E0,1.5E1,4E0,9.1E1,5.5E1,1.6E1,1.7E1,2.8E1,6.4E1,2.4E1,4E0,1E0,1.9E1,3E0,3E0,1.6E1,5E0,1.1E1,4E0,2E0,2E0,7.9E1,1.2E1,4E1,1.5E1,1.2E1,4E0,1.2E1,5E0,2.4E1,4E0,2.2E1,4.2E1,1.4E1,5E0,2E0,1E0,1E0,1E1,3E0,1E0,2.5E1,5.4E1,2E0,1E1,1.4E1,2.6E1,2E0,1.3E1,7E0,5E0,1E0,3E0,3E0,9E0,1E0,3E0,3E0,3.9E1,1E1,4E0,3E0,2E0,1.8E1,7E0,2.7E1,2.7E1,9E0,1E0,1E1,4E0,1.7E1,9E0,1E0,1E0,5E0,8E0,2E0,1E0,1E0,2E0,1E0,2E0,3.1E1,8E0,6E0,4E0,1.2E1,6E0,3E0,4E0,1E0,2.6E1,1.3E1,1.4E1,4E0,5E0,3E0,7E0,8E0,9E0,5E0,4E0,3E0,2E0,6E0,2E0,7E0,1E0],"tree_param":{"num_deleted":"0","num_feature":"24","num_nodes":"127","size_leaf_vector":"1"}},{"base_weights":[2.713649E0,8.115314E1,-1.5943057E1,1.1478238E2,1.0448523E1,-2.581788E0,-3.630352E1,2.6125593E1,1.4509084E2,1.3159309E1,-2.0264862E0,-1.2566897E1,3.864263E1,-3.9008827E1,-2.3310417E1,3.6104534E1,1.6014566E1,1.5370557E2,-8.001975E0,9.3968935E0,2.016587E0,3.3548994E-3,-5.077693E-1,-2.3505713E1,7.830293E0,6.7707567E0,7.163123E1,-3.426371E1,-4.7865214E0,-8.702545E0,-2.4744755E1,6.899277E-1,3.9565728E0,8.707524E0,2.605948E0,1.0437144E2,1.8012857E2,1.4091029E1,4.671309E0,-2.8866936E1,1.779885E1,4.8094606E0,1.6911167E0,4.731502E0,-2.3785002E0,5.1089565E1,1.295047E1,-4.687307E0,-2.8058403E1,-1.1981277E0,-0E0,-2.5485558E1,-2.464348E-1,9.9878645E-1,-0E0,3.286438E0,1.4037631E1,1.9797797E2,4.906179E0,-0E0,1.5954976E0,8.416255E-1,-0E0,-2.2387209E1,-4.7355778E1,2.2735825E1,-1.5753937E0,3.8077225E1,-4.2944517E0,9.679051E0,3.1181786E1,-1.5464376E1,-3.203779E1,-9.988686E0,-2.7338612E1,2.2173655E0,-1.5029591E0,1.5705269E2,2.8015821E1,-2.9160768E-1,1.6545969E-1,1.8817396E1,-2.6035471E1,-5.74236E0,-2.9032036E1,2.3769634E0,2.6440353E1,-0E0,4.4900707E1,-1.3827179E1,5.6586175E0,3.7464706E1,-1.6465172E0,-2.120815E1,2.947094E0,-1.70936E1,-4.0543476E1,-1.3579433E0,-0E0,-2.983705E0,-1.0509426E1,1.8809654E1,9.398879E0,-1.3094635E-1,4.104741E0,-6.655067E-1,-3.0841274E0,3.6738637E-1,-3.8292744E0,1.2887169E0,-6.821724E-1,4.9883676E-1,3.1142583E0,5.1026235E0,4.6365356E-1,-3.5512052E0,-3.163348E-1,1.350854E0,-1.1256734E0,2.0720258E0,5.2413993E0,-2.6881244E0,-3.3099252E-1,4.2256013E-1,-0E0,-1.9737381E0,-6.8585575E-1,-2.0036764E0,-4.5102115E0,-0E0,-1.2781067E0],"categories":[],"categories_nodes":[],"categories_segments":[],"categories_sizes":[],"default_left":[0,0,0,0,0,0,0,0,0,0,0,0,0,0,0,0,0,0,0,0,0,0,0,0,0,0,0,0,0,0,0,0,0,0,0,0,0,0,0,0,0,0,0,0,0,0,0,0,0,0,0,0,0,0,0,0,0,0,0,0,0,0,0,0,0,0,0,0,0,0,0,0,0,0,0,0,0,0,0,0,0,0,0,0,0,0,0,0,0,0,0,0,0,0,0,0,0,0,0,0,0,0,0,0,0,0,0,0,0,0,0,0,0,0,0,0,0,0,0,0,0,0,0,0,0,0,0,0,0,0,0],"id":14,"left_children":[1,3,5,7,9,11,13,15,17,19,21,23,25,27,29,31,33,35,-1,37,-1,-1,-1,39,41,43,45,47,-1,49,51,-1,-1,53,-1,55,57,59,61,63,65,-1,67,-1,-1,69,-1,-1,71,-1,-1,73,-1,-1,-1,75,-1,77,-1,-1,-1,-1,79,81,83,85,-1,87,89,-1,91,93,95,97,99,-1,-1,101,-1,-1,-1,103,105,-1,107,109,111,-1,113,115,117,119,-1,121,123,125,127,-1,-1,-1,129,-1,-1,-1,-1,-1,-1,-1,-1,-1,-1,-1,-1,-1,-1,-1,-1,-1,-1,-1,-1,-1,-1,-1,-1,-1,-1,-1,-1,-1,-1],"loss_changes":[5.6357406E5,1.7412756E5,8.431678E4,1.2970575E5,9.277583E2,7.8153375E4,3.1025938E3,5.7376855E2,8.442081E4,2.1628296E2,5.681903E1,3.439996E4,3.8025105E4,2.1517812E3,1.202832E2,1.0121045E2,2.5983862E2,2.670525E4,0E0,1.952854E2,0E0,0E0,0E0,2.2713438E4,1.3017983E4,2.6020248E4,1.3879406E4,3.7090547E3,0E0,1.2771588E2,1.440586E2,0E0,0E0,6.779785E1,0E0,5.3413625E4,4.0519875E4,1.374679E2,2.0678876E2,9.2535625E3,2.3808792E3,0E0,1.0786428E4,0E0,0E0,9.989105E3,0E0,0E0,1.7227539E3,0E0,0E0,1.14618164E2,0E0,0E0,0E0,2.0986755E3,0E0,1.7716062E4,0E0,0E0,0E0,0E0,3.372358E1,1.0748117E4,1.9591602E3,6.2268555E2,0E0,1.9473154E3,4.104041E3,0E0,4.314206E3,1.6343262E3,3.5947656E3,1.5410757E2,1.9949121E2,0E0,0E0,1.02768125E4,0E0,0E0,0E0,2.9369622E3,5.474992E3,0E0,3.3425742E3,4.082802E2,5.7184375E2,0E0,9.649365E2,4.7816504E3,2.951789E3,1.301791E3,0E0,8.7699023E2,1.8825668E1,1.3753906E2,8.2722266E2,0E0,0E0,0E0,4.827487E1,0E0,0E0,0E0,0E0,0E0,0E0,0E0,0E0,0E0,0E0,0E0,0E0,0E0,0E0,0E0,0E0,0E0,0E0,0E0,0E0,0E0,0E0,0E0,0E0,0E0,0E0,0E0,0E0,0E0,0E0],"parents":[2147483647,0,0,1,1,2,2,3,3,4,4,5,5,6,6,7,7,8,8,9,9,10,10,11,11,12,12,13,13,14,14,15,15,16,16,17,17,19,19,23,23,24,24,25,25,26,26,27,27,29,29,30,30,33,33,35,35,36,36,37,37,38,38,39,39,40,40,42,42,45,45,48,48,51,51,55,55,57,57,62,62,63,63,64,64,65,65,67,67,68,68,70,70,71,71,72,72,73,73,74,74,77,77,81,81,82,82,84,84,85,85,86,86,88,88,89,89,90,90,91,91,93,93,94,94,95,95,96,96,100,100],"right_children":[2,4,6,8,10,12,14,16,18,20,22,24,26,28,30,32,34,36,-1,38,-1,-1,-1,40,42,44,46,48,-1,50,52,-1,-1,54,-1,56,58,60,62,64,66,-1,68,-1,-1,70,-1,-1,72,-1,-1,74,-1,-1,-1,76,-1,78,-1,-1,-1,-1,80,82,84,86,-1,88,90,-1,92,94,96,98,100,-1,-1,102,-1,-1,-1,104,106,-1,108,110,112,-1,114,116,118,120,-1,122,124,126,128,-1,-1,-1,130,-1,-1,-1,-1,-1,-1,-1,-1,-1,-1,-1,-1,-1,-1,-1,-1,-1,-1,-1,-1,-1,-1,-1,-1,-1,-1,-1,-1,-1,-1],"split_conditions":[2.021E3,1E0,1E0,4E1,1E0,1E0,1E0,3.5E1,4E1,5.1E-1,1.4E1,5.3E1,5E1,1.9E1,4.6E-1,3.2E1,1.4E1,3.5E-1,-8.001975E0,4.2E-1,2.016587E0,3.3548994E-3,-5.077693E-1,5.1E1,8E0,1E0,5.1E1,5E0,-4.7865214E0,4.8E1,7E1,6.899277E-1,3.9565728E0,8E0,2.605948E0,4.6E1,5.1E-1,4.8E1,4.9E1,1E0,9E0,4.8094606E0,4E0,4.731502E0,-2.3785002E0,4E0,1.295047E1,-4.687307E0,8E0,-1.1981277E0,-0E0,4E0,-2.464348E-1,9.9878645E-1,-0E0,6E0,1.4037631E1,3.6E-1,4.906179E0,-0E0,1.5954976E0,8.416255E-1,4.3E-1,2E1,4E1,3.1E1,-1.5753937E0,2E0,6.2E1,9.679051E0,5.7E-1,1E0,3.5E1,6E1,4.3E1,2.2173655E0,-1.5029591E0,4.6E1,2.8015821E1,-2.9160768E-1,1.6545969E-1,3.6E-1,3.1E-1,-5.74236E0,9E0,1.4E1,1.4E1,-0E0,1E0,3.1E-1,2.1E1,6.1E1,-1.6465172E0,1E0,5.1E-1,5.2E-1,9E0,-1.3579433E0,-0E0,-2.983705E0,4.7E-1,1.8809654E1,9.398879E0,-1.3094635E-1,4.104741E0,-6.655067E-1,-3.0841274E0,3.6738637E-1,-3.8292744E0,1.2887169E0,-6.821724E-1,4.9883676E-1,3.1142583E0,5.1026235E0,4.6365356E-1,-3.5512052E0,-3.163348E-1,1.350854E0,-1.1256734E0,2.0720258E0,5.2413993E0,-2.6881244E0,-3.3099252E-1,4.2256013E-1,-0E0,-1.9737381E0,-6.8585575E-1,-2.0036764E0,-4.5102115E0,-0E0,-1.2781067E0],"split_indices":[23,18,18,2,6,4,4,2,0,1,21,2,2,21,1,2,21,1,0,1,0,0,0,0,22,19,0,22,0,2,2,0,0,21,0,2,1,2,2,6,22,0,21,0,0,21,0,0,22,0,0,21,0,0,0,21,0,1,0,0,0,0,1,0,2,2,0,21,2,0,1,5,0,2,0,0,0,2,0,0,0,1,1,0,22,21,21,0,6,1,21,2,0,3,1,1,22,0,0,0,1,0,0,0,0,0,0,0,0,0,0,0,0,0,0,0,0,0,0,0,0,0,0,0,0,0,0,0,0,0,0],"split_type":[0,0,0,0,0,0,0,0,0,0,0,0,0,0,0,0,0,0,0,0,0,0,0,0,0,0,0,0,0,0,0,0,0,0,0,0,0,0,0,0,0,0,0,0,0,0,0,0,0,0,0,0,0,0,0,0,0,0,0,0,0,0,0,0,0,0,0,0,0,0,0,0,0,0,0,0,0,0,0,0,0,0,0,0,0,0,0,0,0,0,0,0,0,0,0,0,0,0,0,0,0,0,0,0,0,0,0,0,0,0,0,0,0,0,0,0,0,0,0,0,0,0,0,0,0,0,0,0,0,0,0],"sum_hessian":[3.83E2,7.3E1,3.1E2,4.9E1,2.4E1,1.88E2,1.22E2,1.3E1,3.6E1,2E1,4E0,1.52E2,3.6E1,9.9E1,2.3E1,5E0,8E0,3.5E1,1E0,1.5E1,5E0,2E0,2E0,9.9E1,5.3E1,1.9E1,1.7E1,6.8E1,3.1E1,3E0,2E1,1E0,4E0,6E0,2E0,1.4E1,2.1E1,6E0,9E0,8.8E1,1.1E1,6E0,4.7E1,8E0,1.1E1,1.4E1,3E0,2E1,4.8E1,2E0,1E0,1.9E1,1E0,5E0,1E0,4E0,1E1,1.8E1,3E0,1E0,5E0,5E0,4E0,6.7E1,2.1E1,1E1,1E0,6E0,4.1E1,3E0,1.1E1,1.3E1,3.5E1,3E0,1.6E1,2E0,2E0,1.4E1,4E0,2E0,2E0,5E0,6.2E1,1.2E1,9E0,2E0,8E0,1E0,5E0,2.1E1,2E1,1E1,1E0,1E1,3E0,1.4E1,2.1E1,2E0,1E0,1.3E1,3E0,8E0,6E0,3E0,2E0,1.3E1,4.9E1,2E0,7E0,1E0,1E0,2E0,6E0,4E0,1E0,6E0,1.5E1,1.4E1,6E0,6E0,4E0,7E0,3E0,2E0,1E0,1E1,4E0,5E0,1.6E1,1E0,2E0],"tree_param":{"num_deleted":"0","num_feature":"24","num_nodes":"131","size_leaf_vector":"1"}},{"base_weights":[2.1200526E0,7.929475E1,-1.6602348E1,1.08322914E2,1.28881035E1,-4.0458984E0,-3.428728E1,2.0168606E1,1.3413998E2,7.958954E0,2.3007617E0,-1.3265749E1,3.78336E1,-3.0443924E1,-4.470974E1,2.798199E0,1.3031324E1,1.4160608E2,-7.6018763E0,9.639545E0,-0E0,-3.3379276E1,-2.8251925E0,8.922213E0,9.439072E0,-4.0108192E1,-2.6071873E1,-4.8746057E0,-1.826135E1,5.6164856E0,2.4322174E0,9.734692E1,1.650036E2,5.5000944E0,1.581843E0,-1.1813305E1,-4.4633038E1,-7.6595945E0,3.284872E1,5.0663195E0,-2.6698788E1,-4.3782936E1,-1.34477825E1,-2.7781239E1,-1.6055328E1,-5.097847E-2,-2.0709705E0,8.8370055E-1,-0E0,4.8013046E1,1.9527884E1,1.3581794E1,2.4774557E1,8.339972E0,1.9715968E0,1.3134984E0,-4.1306963E0,-9.721583E0,-4.64105E0,2.0121622E1,-1.6608524E1,-4.8979187E0,4.6530704E1,-7.2226816E-1,-2.9128747E0,-5.4566497E-1,-4.499466E0,-1.5184469E0,-7.505188E-2,-2.8098764E1,-2.3411332E-1,-9.3346615E0,-2.3941464E0,-9.0293884E-2,1.924418E-1,1.6039392E1,1.3692088E1,9.606846E-1,-0E0,-3.1759873E-1,4.192192E0,-5.5904984E0,2.1221115E1,-1.2232612E0,-0E0,-1.0450085E1,3.869475E0,-2.6071072E1,5.5729456E0,1.2197342E0,-1.6328787E0,-0E0,5.986886E0,-2.9052796E0,-1.4314033E1,-1.2584033E1,-0E0,-2.3049533E-1,4.538215E0,-0E0,4.8641998E-1,-1.6363302E0,2.1887186E-1,4.1574606E-1,3.370604E0,-4.841701E0,6.6000366E-1,8.125939E-1,-2.8642561E0,-8.2335085E-1,2.2083395E0,-8.405075E-1,8.2522434E-1,-2.4462821E0,2.3223622E-1,-2.0539296E-1,-1.5385289E0],"categories":[],"categories_nodes":[],"categories_segments":[],"categories_sizes":[],"default_left":[0,0,0,0,0,0,0,0,0,0,0,0,0,0,0,0,0,0,0,0,0,0,0,0,0,0,0,0,0,0,0,0,0,0,0,0,0,0,0,0,0,0,0,0,0,0,0,0,0,0,0,0,0,0,0,0,0,0,0,0,0,0,0,0,0,0,0,0,0,0,0,0,0,0,0,0,0,0,0,0,0,0,0,0,0,0,0,0,0,0,0,0,0,0,0,0,0,0,0,0,0,0,0,0,0,0,0,0,0,0,0,0,0,0,0,0,0],"id":15,"left_children":[1,3,5,7,9,11,13,15,17,19,-1,21,23,25,27,-1,29,31,-1,33,-1,35,37,39,-1,41,43,-1,45,47,-1,49,51,53,-1,55,57,59,61,-1,63,65,67,69,71,-1,-1,-1,73,75,-1,-1,-1,77,79,81,-1,83,-1,85,87,89,91,-1,-1,-1,-1,-1,-1,93,-1,95,-1,-1,-1,97,-1,-1,-1,-1,99,101,103,-1,-1,105,-1,107,109,-1,-1,111,-1,-1,113,115,-1,-1,-1,-1,-1,-1,-1,-1,-1,-1,-1,-1,-1,-1,-1,-1,-1,-1,-1,-1,-1],"loss_changes":[5.5502494E5,1.4257262E5,6.8286164E4,1.14869125E5,8.591848E2,7.065338E4,3.3904219E3,1.5525342E2,7.385525E4,2.5360364E2,0E0,3.1224135E4,5.260104E4,2.7219062E3,2.1909297E3,0E0,4.6718005E2,2.301225E4,0E0,1.9006238E2,0E0,1.1568117E4,1.7371865E4,3.5670145E4,0E0,1.8682266E3,5.333203E2,0E0,1.441178E2,9.1556305E1,0E0,6.6709375E4,2.2391E4,4.222461E1,0E0,7.610216E3,1.3159375E3,2.2443104E4,6.633456E3,0E0,2.2309375E2,6.168047E2,1.9184631E1,2.5053516E2,2.9913477E2,0E0,0E0,0E0,1.2740753E1,3.115157E4,0E0,0E0,0E0,2.139029E1,9.841028E1,2.1209795E3,0E0,1.5746094E1,0E0,1.3037454E4,1.4520523E4,1.00147955E3,5.604E3,0E0,0E0,0E0,0E0,0E0,0E0,1.1691016E2,0E0,3.2428204E2,0E0,0E0,0E0,5.7027256E3,0E0,0E0,0E0,0E0,1.2855354E1,1.0285314E3,5.227047E2,0E0,0E0,6.3547046E3,0E0,4.5563184E3,5.0380396E3,0E0,0E0,2.7748962E2,0E0,0E0,1.1805493E3,8.768616E1,0E0,0E0,0E0,0E0,0E0,0E0,0E0,0E0,0E0,0E0,0E0,0E0,0E0,0E0,0E0,0E0,0E0,0E0,0E0,0E0,0E0],"parents":[2147483647,0,0,1,1,2,2,3,3,4,4,5,5,6,6,7,7,8,8,9,9,11,11,12,12,13,13,14,14,16,16,17,17,19,19,21,21,22,22,23,23,25,25,26,26,28,28,29,29,31,31,32,32,33,33,35,35,36,36,37,37,38,38,40,40,41,41,42,42,43,43,44,44,48,48,49,49,53,53,54,54,55,55,57,57,59,59,60,60,61,61,62,62,69,69,71,71,75,75,80,80,81,81,82,82,85,85,87,87,88,88,91,91,94,94,95,95],"right_children":[2,4,6,8,10,12,14,16,18,20,-1,22,24,26,28,-1,30,32,-1,34,-1,36,38,40,-1,42,44,-1,46,48,-1,50,52,54,-1,56,58,60,62,-1,64,66,68,70,72,-1,-1,-1,74,76,-1,-1,-1,78,80,82,-1,84,-1,86,88,90,92,-1,-1,-1,-1,-1,-1,94,-1,96,-1,-1,-1,98,-1,-1,-1,-1,100,102,104,-1,-1,106,-1,108,110,-1,-1,112,-1,-1,114,116,-1,-1,-1,-1,-1,-1,-1,-1,-1,-1,-1,-1,-1,-1,-1,-1,-1,-1,-1,-1,-1],"split_conditions":[2.021E3,1E0,1E0,4E1,5.1E-1,1E0,1E0,3.5E1,4E1,2.7E1,2.3007617E0,4.3E1,5.4E1,4.5E-1,5.2E1,2.798199E0,1.4E1,4.8E1,-7.6018763E0,1.4E1,-0E0,1E0,6.6E1,1E0,9.439072E0,1E0,1E0,-4.8746057E0,2E1,6E0,2.4322174E0,1E0,3.6E-1,4E0,1.581843E0,1E0,4E0,9E0,1E0,5.0663195E0,3.5E1,3E0,6E1,7E1,5.4E-1,-5.097847E-2,-2.0709705E0,8.8370055E-1,3.6E-1,1E0,1.9527884E1,1.3581794E1,2.4774557E1,1E0,5E0,5E0,-4.1306963E0,3.6E-1,-4.64105E0,1.1E1,1E0,3.5E1,1.1E1,-7.2226816E-1,-2.9128747E0,-5.4566497E-1,-4.499466E0,-1.5184469E0,-7.505188E-2,4.7E1,-2.3411332E-1,5.1E1,-2.3941464E0,-9.0293884E-2,1.924418E-1,3.6E-1,1.3692088E1,9.606846E-1,-0E0,-3.1759873E-1,4.1E-1,9E0,1E0,-1.2232612E0,-0E0,5E0,3.869475E0,4E0,5.1E1,1.2197342E0,-1.6328787E0,3E1,5.986886E0,-2.9052796E0,5.1E-1,7E0,-0E0,-2.3049533E-1,4.538215E0,-0E0,4.8641998E-1,-1.6363302E0,2.1887186E-1,4.1574606E-1,3.370604E0,-4.841701E0,6.6000366E-1,8.125939E-1,-2.8642561E0,-8.2335085E-1,2.2083395E0,-8.405075E-1,8.2522434E-1,-2.4462821E0,2.3223622E-1,-2.0539296E-1,-1.5385289E0],"split_indices":[23,18,18,2,1,4,6,2,0,21,0,2,2,1,2,0,21,2,0,21,0,19,2,19,0,7,5,0,0,21,0,7,1,21,0,6,21,22,5,0,0,21,2,2,1,0,0,0,1,6,0,0,0,6,21,22,0,1,0,21,3,0,22,0,0,0,0,0,0,20,0,0,0,0,0,1,0,0,0,0,1,21,3,0,0,22,0,21,2,0,0,0,0,0,1,21,0,0,0,0,0,0,0,0,0,0,0,0,0,0,0,0,0,0,0,0,0],"split_type":[0,0,0,0,0,0,0,0,0,0,0,0,0,0,0,0,0,0,0,0,0,0,0,0,0,0,0,0,0,0,0,0,0,0,0,0,0,0,0,0,0,0,0,0,0,0,0,0,0,0,0,0,0,0,0,0,0,0,0,0,0,0,0,0,0,0,0,0,0,0,0,0,0,0,0,0,0,0,0,0,0,0,0,0,0,0,0,0,0,0,0,0,0,0,0,0,0,0,0,0,0,0,0,0,0,0,0,0,0,0,0,0,0,0,0,0,0],"sum_hessian":[3.82E2,7.4E1,3.08E2,5.1E1,2.3E1,1.81E2,1.27E2,1.2E1,3.9E1,1.7E1,6E0,1.49E2,3.2E1,9.6E1,3.1E1,4E0,8E0,3.8E1,1E0,1.4E1,3E0,5E1,9.9E1,2.2E1,1E1,2.7E1,6.9E1,2.6E1,5E0,6E0,2E0,1.5E1,2.3E1,1E1,4E0,1.8E1,3.2E1,8.8E1,1.1E1,1E1,1.2E1,2.3E1,4E0,5.7E1,1.2E1,1E0,4E0,3E0,3E0,1.1E1,4E0,1.9E1,4E0,4E0,6E0,1.3E1,5E0,2E0,3E1,2.1E1,6.7E1,3E0,8E0,2E0,1E1,1E0,2.2E1,3E0,1E0,5.6E1,1E0,8E0,4E0,1E0,2E0,9E0,2E0,3E0,1E0,1E0,5E0,1E1,3E0,1E0,1E0,8E0,1.3E1,4.7E1,2E1,1E0,2E0,2E0,6E0,5.1E1,5E0,6E0,2E0,6E0,3E0,1E0,4E0,4E0,6E0,2E0,1E0,2E0,6E0,3E0,4.4E1,1.1E1,9E0,1E0,1E0,3E0,2E0,2E0,4E0],"tree_param":{"num_deleted":"0","num_feature":"24","num_nodes":"117","size_leaf_vector":"1"}},{"base_weights":[3.519673E-1,6.5671936E1,-1.3147938E1,9.420135E1,8.021237E0,-2.7921267E0,-2.9806158E1,5.161335E1,1.34216E2,-1.1594452E0,1.0278193E1,1.6380844E1,-1.6248465E1,-3.21414E1,-1.5191874E1,1.5142493E1,3.465868E1,1.4772324E2,-7.221782E0,1.667389E-1,-5.2664644E-1,1.107422E1,6.7464703E-1,7.562614E0,5.197088E1,-2.4777405E1,2.3682764E1,-3.3982525E1,-1.9578812E1,-2.735489E0,-1.0889128E1,4.5186356E1,-7.067163E0,1.2131754E1,2.2836805E1,-0E0,1.1644691E0,-0E0,1.9184875E-1,1.3245832E0,4.248693E1,6.839916E1,2.6367702E1,-2.791872E1,-1.9474746E0,3.837378E1,9.050023E0,-3.6595234E1,-2.3541594E1,-2.5822945E1,-1.1297495E1,-1.2228729E1,2.1024476E-1,5.0180748E1,-1.4861954E0,-3.021343E0,1.6768159E0,-1.7381666E1,1.4256738E1,3.8561708E-1,4.579522E1,1.3634186E0,7.291551E1,3.347035E0,-9.175415E-1,-3.162054E1,-9.665831E0,2.1515574E1,-1.9926327E1,-0E0,4.3046007E0,-8.879872E0,4.8379784E0,-4.0479412E1,-2.6229973E1,-2.8100292E1,-1.199617E1,-3.04108E0,-6.372917E-1,-2.7863903E0,-1.4255315E1,-0E0,-1.3993104E1,7.5242935E1,2.1772055E1,-2.4395264E1,6.891668E0,2.2798908E1,-1.679795E1,2.2675638E0,5.8755755E0,7.8413286E0,1.4715546E0,-3.7546566E1,-1.5767123E1,1.073155E1,-3.2029655E1,-1.5844197E0,4.540651E1,-9.0595245E-2,-2.1799816E1,-2.0718954E1,9.848717E0,-4.2293007E1,-1.5423887E1,-6.4454365E-1,-2.8751455E1,-2.9249079E1,-4.0830308E-1,-0E0,-2.4241166E0,7.906494E-2,-9.258755E-1,-5.5089474E-1,-1.9498701E0,-1.6385471E1,-0E0,2.5767305E0,1.4744655E1,-0E0,2.4389431E0,-2.6959404E-1,-3.381834E0,-1.6281243E-1,1.7620834E0,1.1592201E0,3.8609982E0,1.3647385E0,-3.0054293E0,1.0372704E0,-3.8838239E0,-2.5315053E0,-0E0,-1.4256262E0,2.0621822E0,-1.3216835E0,-3.9673982E0,6.0292177E0,-0E0,-7.6765406E-1,-2.9223137E0,-2.433635E0,-0E0,7.047628E-2,1.6140289E0,-4.3324594E0,-1.2086452E0,-2.1798396E0,-2.241417E-1,-4.6648446E-1,-2.9552667E0,-5.183819E-1,-3.0405867E0,4.0123573E-1,-3.6805904E-1,-5.980197E-1,-2.0762744E0],"categories":[],"categories_nodes":[],"categories_segments":[],"categories_sizes":[],"default_left":[0,0,0,0,0,0,0,0,0,0,0,0,0,0,0,0,0,0,0,0,0,0,0,0,0,0,0,0,0,0,0,0,0,0,0,0,0,0,0,0,0,0,0,0,0,0,0,0,0,0,0,0,0,0,0,0,0,0,0,0,0,0,0,0,0,0,0,0,0,0,0,0,0,0,0,0,0,0,0,0,0,0,0,0,0,0,0,0,0,0,0,0,0,0,0,0,0,0,0,0,0,0,0,0,0,0,0,0,0,0,0,0,0,0,0,0,0,0,0,0,0,0,0,0,0,0,0,0,0,0,0,0,0,0,0,0,0,0,0,0,0,0,0,0,0,0,0,0,0,0,0,0,0,0,0,0,0],"id":16,"left_children":[1,3,5,7,9,11,13,15,17,19,21,23,25,27,29,-1,31,33,-1,-1,-1,35,37,39,41,43,45,47,49,-1,51,53,55,-1,-1,-1,-1,-1,-1,57,59,61,63,65,67,69,71,73,75,77,79,81,-1,83,-1,-1,-1,85,87,-1,89,-1,91,-1,-1,93,95,97,99,-1,-1,101,-1,103,105,107,109,-1,-1,111,113,-1,115,117,119,121,123,125,127,-1,-1,-1,-1,129,131,133,135,-1,137,-1,139,141,143,145,147,-1,149,151,-1,153,-1,-1,-1,-1,-1,155,-1,-1,-1,-1,-1,-1,-1,-1,-1,-1,-1,-1,-1,-1,-1,-1,-1,-1,-1,-1,-1,-1,-1,-1,-1,-1,-1,-1,-1,-1,-1,-1,-1,-1,-1,-1,-1,-1,-1,-1,-1],"loss_changes":[3.397424E5,1.07286125E5,5.478428E4,6.7125875E4,5.3407996E2,5.1349098E4,3.4386562E3,3.2743656E4,7.238944E4,8.482592E1,7.9033325E1,2.504427E4,4.043909E4,1.4722969E3,5.052622E2,0E0,9.734738E3,1.5265625E4,0E0,0E0,0E0,8.472974E1,5.9957433E0,1.4321215E4,4.4525E3,6.752746E3,3.9299639E3,1.2656406E3,3.5001758E2,0E0,3.5479834E2,6.020754E3,3.3323435E3,0E0,0E0,0E0,0E0,0E0,0E0,1.4263084E4,8.53166E2,7.9914453E2,2.4481812E3,5.231289E3,5.9046826E3,1.9511562E3,9.089248E3,1.3826562E3,5.676963E2,3.3614746E2,1.01639404E2,3.0236328E2,0E0,9.268477E3,0E0,0E0,0E0,4.3414834E3,9.697584E3,0E0,9.572969E2,0E0,9.4022266E2,0E0,0E0,5.7177734E3,7.748835E3,6.2226006E3,1.5179712E2,0E0,0E0,2.25397E3,0E0,1.2402422E3,7.362002E2,1.0018262E2,1.1992716E3,0E0,0E0,1.4226859E2,4.2708008E1,0E0,4.0782983E2,2.3913184E4,4.925537E2,3.6112705E3,6.5711414E2,4.2627383E3,3.7209473E3,0E0,0E0,0E0,0E0,3.6399922E3,3.1104302E3,2.5500435E3,3.6167188E2,0E0,2.6584355E3,0E0,3.2506055E2,3.856394E2,1.3451904E2,5.703828E2,2.5110059E2,0E0,5.7723633E1,2.6333008E1,0E0,8.893726E1,0E0,0E0,0E0,0E0,0E0,2.4313379E2,0E0,0E0,0E0,0E0,0E0,0E0,0E0,0E0,0E0,0E0,0E0,0E0,0E0,0E0,0E0,0E0,0E0,0E0,0E0,0E0,0E0,0E0,0E0,0E0,0E0,0E0,0E0,0E0,0E0,0E0,0E0,0E0,0E0,0E0,0E0,0E0,0E0,0E0,0E0,0E0,0E0],"parents":[2147483647,0,0,1,1,2,2,3,3,4,4,5,5,6,6,7,7,8,8,9,9,10,10,11,11,12,12,13,13,14,14,16,16,17,17,21,21,22,22,23,23,24,24,25,25,26,26,27,27,28,28,30,30,31,31,32,32,39,39,40,40,41,41,42,42,43,43,44,44,45,45,46,46,47,47,48,48,49,49,50,50,51,51,53,53,57,57,58,58,60,60,62,62,65,65,66,66,67,67,68,68,71,71,73,73,74,74,75,75,76,76,79,79,80,80,82,82,83,83,84,84,85,85,86,86,87,87,88,88,93,93,94,94,95,95,96,96,98,98,100,100,101,101,102,102,103,103,104,104,106,106,107,107,109,109,115,115],"right_children":[2,4,6,8,10,12,14,16,18,20,22,24,26,28,30,-1,32,34,-1,-1,-1,36,38,40,42,44,46,48,50,-1,52,54,56,-1,-1,-1,-1,-1,-1,58,60,62,64,66,68,70,72,74,76,78,80,82,-1,84,-1,-1,-1,86,88,-1,90,-1,92,-1,-1,94,96,98,100,-1,-1,102,-1,104,106,108,110,-1,-1,112,114,-1,116,118,120,122,124,126,128,-1,-1,-1,-1,130,132,134,136,-1,138,-1,140,142,144,146,148,-1,150,152,-1,154,-1,-1,-1,-1,-1,156,-1,-1,-1,-1,-1,-1,-1,-1,-1,-1,-1,-1,-1,-1,-1,-1,-1,-1,-1,-1,-1,-1,-1,-1,-1,-1,-1,-1,-1,-1,-1,-1,-1,-1,-1,-1,-1,-1,-1,-1,-1],"split_conditions":[2.021E3,1E0,1E0,4.8E1,4.6E1,1E0,1E0,1E0,4E1,1E0,2.7E1,1E0,6.2E1,1E0,3.5E1,1.5142493E1,2.2E1,3.6E-1,-7.221782E0,1.667389E-1,-5.2664644E-1,2E0,4.3E-1,1.2E1,1.9E1,4.8E-1,1.9E1,1E0,4.3E1,-2.735489E0,4.7E1,4.7E1,3.6E-1,1.2131754E1,2.2836805E1,-0E0,1.1644691E0,-0E0,1.9184875E-1,9E0,5.1E1,2E0,5.1E1,1E0,5.7E-1,2E0,3.6E-1,1E0,4.3E1,5E-1,4.6E-1,4E0,2.1024476E-1,3E0,-1.4861954E0,-3.021343E0,1.6768159E0,1E0,1.8E1,3.8561708E-1,3.1E-1,1.3634186E0,1.5E1,3.347035E0,-9.175415E-1,1E0,4.1E-1,4.8E1,3.3E1,-0E0,4.3046007E0,1E0,4.8379784E0,4.7E1,4.3E-1,5.5E-1,5.4E-1,-3.04108E0,-6.372917E-1,8E0,5.1E1,-0E0,2.2E1,3.6E1,3.6E1,7E0,8E0,4.6E1,7E0,2.2675638E0,5.8755755E0,7.8413286E0,1.4715546E0,3E0,1.2E1,3.5E1,9E0,-1.5844197E0,1.2E1,-9.0595245E-2,5.8E-1,1E0,2.1E1,6.4E1,5.1E-1,-6.4454365E-1,4E0,3E0,-4.0830308E-1,5.1E-1,-2.4241166E0,7.906494E-2,-9.258755E-1,-5.5089474E-1,-1.9498701E0,4.7E1,-0E0,2.5767305E0,1.4744655E1,-0E0,2.4389431E0,-2.6959404E-1,-3.381834E0,-1.6281243E-1,1.7620834E0,1.1592201E0,3.8609982E0,1.3647385E0,-3.0054293E0,1.0372704E0,-3.8838239E0,-2.5315053E0,-0E0,-1.4256262E0,2.0621822E0,-1.3216835E0,-3.9673982E0,6.0292177E0,-0E0,-7.6765406E-1,-2.9223137E0,-2.433635E0,-0E0,7.047628E-2,1.6140289E0,-4.3324594E0,-1.2086452E0,-2.1798396E0,-2.241417E-1,-4.6648446E-1,-2.9552667E0,-5.183819E-1,-3.0405867E0,4.0123573E-1,-3.6805904E-1,-5.980197E-1,-2.0762744E0],"split_indices":[23,18,18,2,2,19,4,19,0,6,21,4,2,3,2,0,21,1,0,0,0,21,1,22,20,1,21,5,0,0,20,2,1,0,0,0,0,0,0,21,2,22,2,7,1,21,1,7,0,1,1,21,0,22,0,0,0,5,21,0,1,0,21,0,0,3,1,2,2,0,0,5,0,20,1,1,1,0,0,22,0,0,21,2,2,21,21,2,22,0,0,0,0,21,22,0,22,0,22,0,1,7,21,2,1,0,21,21,0,1,0,0,0,0,0,2,0,0,0,0,0,0,0,0,0,0,0,0,0,0,0,0,0,0,0,0,0,0,0,0,0,0,0,0,0,0,0,0,0,0,0,0,0,0,0,0,0],"split_type":[0,0,0,0,0,0,0,0,0,0,0,0,0,0,0,0,0,0,0,0,0,0,0,0,0,0,0,0,0,0,0,0,0,0,0,0,0,0,0,0,0,0,0,0,0,0,0,0,0,0,0,0,0,0,0,0,0,0,0,0,0,0,0,0,0,0,0,0,0,0,0,0,0,0,0,0,0,0,0,0,0,0,0,0,0,0,0,0,0,0,0,0,0,0,0,0,0,0,0,0,0,0,0,0,0,0,0,0,0,0,0,0,0,0,0,0,0,0,0,0,0,0,0,0,0,0,0,0,0,0,0,0,0,0,0,0,0,0,0,0,0,0,0,0,0,0,0,0,0,0,0,0,0,0,0,0,0],"sum_hessian":[3.83E2,6.5E1,3.18E2,4.3E1,2.2E1,1.97E2,1.21E2,2.2E1,2.1E1,4E0,1.8E1,8.1E1,1.16E2,1.03E2,1.8E1,2E0,2E1,2E1,1E0,2E0,2E0,1.6E1,2E0,6.6E1,1.5E1,9.6E1,2E1,8.8E1,1.5E1,3E0,1.5E1,1.6E1,4E0,1.7E1,3E0,1E0,1.5E1,1E0,1E0,5.7E1,9E0,8E0,7E0,8.4E1,1.2E1,9E0,1.1E1,6.8E1,2E1,7E0,8E0,1.4E1,1E0,1.5E1,1E0,2E0,2E0,2.3E1,3.4E1,1E0,8E0,1E0,7E0,6E0,1E0,6.9E1,1.5E1,5E0,7E0,1E0,8E0,8E0,3E0,4.7E1,2.1E1,1.3E1,7E0,5E0,2E0,