{"learner":{"attributes":{"scikit_learn":"{\"_estimator_type\": \"regressor\"}"},"feature_names":[],"feature_types":[],"gradient_booster":{"model":{"gbtree_model_param":{"num_parallel_tree":"1","num_trees":"25"},"iteration_indptr":[0,1,2,3,4,5,6,7,8,9,10,11,12,13,14,15,16,17,18,19,20,21,22,23,24,25],"tree_info":[0,0,0,0,0,0,0,0,0,0,0,0,0,0,0,0,0,0,0,0,0,0,0,0,0],"trees":[{"base_weights":[-1.4130435E1,1.1730769E2,-1.6863638E1,1.455E2,1.625E1,1.6277777E2,-2.5E-1,-1.5E0,3.3333332E1,1.75E2,3E0,4.25E0,5E-1,7.875E1,2.16E1,9.166667E0,1.75E0],"categories":[],"categories_nodes":[],"categories_segments":[],"categories_sizes":[],"default_left":[0,0,0,0,0,0,0,0,0,0,0,0,0,0,0,0,0],"id":0,"left_children":[1,3,-1,5,7,9,-1,-1,11,13,-1,-1,-1,15,-1,-1,-1],"loss_changes":[4.8712228E5,3.3864516E4,0E0,2.6779438E4,2.7270833E3,8.3305625E3,0E0,0E0,3.2916675E2,1.308625E4,0E0,0E0,0E0,1.014584E3,0E0,0E0,0E0],"parents":[2147483647,0,0,1,1,3,3,4,4,5,5,8,8,9,9,13,13],"right_children":[2,4,-1,6,8,10,-1,-1,12,14,-1,-1,-1,16,-1,-1,-1],"split_conditions":[1E0,1E0,-1.6863638E1,2.7E-1,5.6E1,1E0,-2.5E-1,-1.5E0,1.1E1,2E-1,3E0,4.25E0,5E-1,1.1E1,2.16E1,9.166667E0,1.75E0],"split_indices":[18,6,0,1,2,7,0,0,21,1,0,0,0,21,0,0,0],"split_type":[0,0,0,0,0,0,0,0,0,0,0,0,0,0,0,0,0],"sum_hessian":[2.2E1,1.2E1,1E1,9E0,3E0,8E0,1E0,1E0,2E0,7E0,1E0,1E0,1E0,3E0,4E0,2E0,1E0],"tree_param":{"num_deleted":"0","num_feature":"24","num_nodes":"17","size_leaf_vector":"1"}},{"base_weights":[5.3034472E0,1.0734048E2,-1.5345453E1,7.216389E1,2.106E1,4.5416668E1,1.3559999E1,-1.4250001E0,5.418519E1,6.5309525E1,8.5E0,8.560417E0,2.74375E1,-2.375E-1,1.7625E0,3.175E0,4.75E-1],"categories":[],"categories_nodes":[],"categories_segments":[],"categories_sizes":[],"default_left":[0,0,0,0,0,0,0,0,0,0,0,0,0,0,0,0,0],"id":1,"left_children":[1,3,-1,5,-1,7,-1,-1,9,11,13,-1,15,-1,-1,-1,-1],"loss_changes":[3.726236E5,3.4240906E4,0E0,1.3297285E4,0E0,6.2036973E3,0E0,0E0,3.6497793E3,2.4662227E3,4.158125E2,0E0,5.8046875E1,0E0,0E0,0E0,0E0],"parents":[2147483647,0,0,1,1,3,3,5,5,8,8,9,9,10,10,12,12],"right_children":[2,4,-1,6,-1,8,-1,-1,10,12,14,-1,16,-1,-1,-1,-1],"split_conditions":[1E0,1E0,-1.5345453E1,1E0,2.106E1,5.6E1,1.3559999E1,-1.4250001E0,2.7E-1,1.1E1,7.1E1,8.560417E0,1E0,-2.375E-1,1.7625E0,3.175E0,4.75E-1],"split_indices":[18,3,0,4,0,2,0,0,1,21,2,0,6,0,0,0,0],"split_type":[0,0,0,0,0,0,0,0,0,0,0,0,0,0,0,0,0],"sum_hessian":[2.1E1,1.3E1,8E0,1.1E1,2E0,9E0,2E0,1E0,8E0,6E0,2E0,3E0,3E0,1E0,1E0,2E0,1E0],"tree_param":{"num_deleted":"0","num_feature":"24","num_nodes":"17","size_leaf_vector":"1"}},{"base_weights":[2.3644503E1,1.0864791E2,-1.2744204E1,6.627734E1,1.96755E1,8.30112E1,-4.350006E0,1.0258941E2,7.9916587E0,-1.3537506E0,4.512497E-1,1.2715559E2,2.5782645E0,-2.2562562E-1,1.6743745E0,1.4423822E1,2.6912506E0],"categories":[],"categories_nodes":[],"categories_segments":[],"categories_sizes":[],"default_left":[0,0,0,0,0,0,0,0,0,0,0,0,0,0,0,0,0],"id":2,"left_children":[1,3,-1,5,-1,7,9,11,13,-1,-1,15,-1,-1,-1,-1,-1],"loss_changes":[2.8345262E5,3.7908484E4,0E0,1.3754953E4,0E0,1.1845977E4,3.5048572E2,9.164836E3,3.7928754E2,0E0,0E0,3.8245156E3,0E0,0E0,0E0,0E0,0E0],"parents":[2147483647,0,0,1,1,3,3,5,5,6,6,7,7,8,8,11,11],"right_children":[2,4,-1,6,-1,8,10,12,14,-1,-1,16,-1,-1,-1,-1,-1],"split_conditions":[1E0,1E0,-1.2744204E1,1E0,1.96755E1,2.7E-1,5.6E1,7.1E1,7.1E1,-1.3537506E0,4.512497E-1,1E0,2.5782645E0,-2.2562562E-1,1.6743745E0,1.4423822E1,2.6912506E0],"split_indices":[18,3,0,6,0,1,2,2,2,0,0,7,0,0,0,0,0],"split_type":[0,0,0,0,0,0,0,0,0,0,0,0,0,0,0,0,0],"sum_hessian":[2E1,1.3E1,7E0,1E1,3E0,8E0,2E0,6E0,2E0,1E0,1E0,4E0,2E0,1E0,1E0,3E0,1E0],"tree_param":{"num_deleted":"0","num_feature":"24","num_nodes":"17","size_leaf_vector":"1"}},{"base_weights":[-8.108645E0,9.359489E1,-1.2984202E1,4.334947E1,1.8199837E1,1.7216013E1,7.046228E0,-1.2860626E0,2.6803467E1,3.01109E0,4.2868653E-1],"categories":[],"categories_nodes":[],"categories_segments":[],"categories_sizes":[],"default_left":[0,0,0,0,0,0,0,0,0,0,0],"id":3,"left_children":[1,3,-1,5,-1,7,-1,-1,9,-1,-1],"loss_changes":[2.723288E5,4.428618E4,0E0,4.725492E3,0E0,2.1445742E3,0E0,0E0,7.129053E1,0E0,0E0],"parents":[2147483647,0,0,1,1,3,3,5,5,8,8],"right_children":[2,4,-1,6,-1,8,-1,-1,10,-1,-1],"split_conditions":[1E0,1E0,-1.2984202E1,1.1E1,1.8199837E1,5.6E1,7.046228E0,-1.2860626E0,1E0,3.01109E0,4.2868653E-1],"split_indices":[18,3,0,22,0,2,0,0,6,0,0],"split_type":[0,0,0,0,0,0,0,0,0,0,0],"sum_hessian":[2E1,1.1E1,9E0,8E0,3E0,5E0,3E0,1E0,4E0,3E0,1E0],"tree_param":{"num_deleted":"0","num_feature":"24","num_nodes":"11","size_leaf_vector":"1"}},{"base_weights":[3.6242485E0,1.1345885E2,-1.1705624E1,7.1206665E1,1.683485E1,8.303382E1,2.2150147E0,1.03841446E2,2.594571E1,1.2074771E1,2.4061341E0,3.234604E0,4.0725252E-1],"categories":[],"categories_nodes":[],"categories_segments":[],"categories_sizes":[],"default_left":[0,0,0,0,0,0,0,0,0,0,0,0,0],"id":4,"left_children":[1,3,-1,5,-1,7,-1,9,11,-1,-1,-1,-1],"loss_changes":[2.783609E5,1.2325969E4,0E0,2.276461E3,0E0,3.7840312E3,0E0,1.7657305E3,1.0616382E2,0E0,0E0,0E0,0E0],"parents":[2147483647,0,0,1,1,3,3,5,5,7,7,8,8],"right_children":[2,4,-1,6,-1,8,-1,10,12,-1,-1,-1,-1],"split_conditions":[1E0,1E0,-1.1705624E1,7.1E1,1.683485E1,1E0,2.2150147E0,1E0,1.1E1,1.2074771E1,2.4061341E0,3.234604E0,4.0725252E-1],"split_indices":[18,3,0,2,0,6,0,7,21,0,0,0,0],"split_type":[0,0,0,0,0,0,0,0,0,0,0,0,0],"sum_hessian":[1.9E1,1E1,9E0,7E0,3E0,5E0,2E0,3E0,2E0,2E0,1E0,1E0,1E0],"tree_param":{"num_deleted":"0","num_feature":"24","num_nodes":"13","size_leaf_vector":"1"}},{"base_weights":[-5.4512024E-1,9.2103355E1,-9.359859E1,1.1478544E2,-4.9773355E0,-9.686371E-1,-1.0052117E1,1.2279405E2,2.2858276E0,-1.38349E0,3.8688967E-1,5.6366814E1,1.50377035E1,8.138163E0,1.923467E0],"categories":[],"categories_nodes":[],"categories_segments":[],"categories_sizes":[],"default_left":[0,0,0,0,0,0,0,0,0,0,0,0,0,0,0],"id":5,"left_children":[1,3,5,7,9,-1,-1,11,-1,-1,-1,13,-1,-1,-1],"loss_changes":[1.8967473E5,2.5342273E4,4.8650547E3,3.0907578E3,3.38424E2,0E0,0E0,5.1481016E3,0E0,0E0,0E0,1.6469834E3,0E0,0E0,0E0],"parents":[2147483647,0,0,1,1,2,2,3,3,4,4,7,7,11,11],"right_children":[2,4,6,8,10,-1,-1,12,-1,-1,-1,14,-1,-1,-1],"split_conditions":[2.7E-1,1E0,1E0,1E0,5.6E1,-9.686371E-1,-1.0052117E1,2E-1,2.2858276E0,-1.38349E0,3.8688967E-1,7.1E1,1.50377035E1,8.138163E0,1.923467E0],"split_indices":[1,6,18,7,2,0,0,1,0,0,0,2,0,0,0],"split_type":[0,0,0,0,0,0,0,0,0,0,0,0,0,0,0],"sum_hessian":[2E1,1E1,1E1,8E0,2E0,1E0,9E0,7E0,1E0,1E0,1E0,3E0,4E0,1E0,2E0],"tree_param":{"num_deleted":"0","num_feature":"24","num_nodes":"15","size_leaf_vector":"1"}},{"base_weights":[5.4416685E0,7.377864E1,-9.027426E1,4.0920414E1,1.4444409E1,-9.901664E0,-3.5203156E0,1.7619385E1,9.55167E0,-1.3143158E0,2.3732597E1,3.011821E0,1.38384E0,-9.202057E-1,1.3777817E0],"categories":[],"categories_nodes":[],"categories_segments":[],"categories_sizes":[],"default_left":[0,0,0,0,0,0,0,0,0,0,0,0,0,0,0],"id":6,"left_children":[1,3,5,7,-1,-1,-1,9,-1,-1,11,-1,13,-1,-1],"loss_changes":[1.5701936E5,2.5669648E4,6.5772656E2,1.1745023E4,0E0,0E0,0E0,2.0573906E3,0E0,0E0,9.424946E2,0E0,5.432671E2,0E0,0E0],"parents":[2147483647,0,0,1,1,2,2,3,3,7,7,10,10,12,12],"right_children":[2,4,6,8,-1,-1,-1,10,-1,-1,12,-1,14,-1,-1],"split_conditions":[1E0,1E0,1E0,1E0,1.4444409E1,-9.901664E0,-3.5203156E0,5.6E1,9.55167E0,-1.3143158E0,2.7E-1,3.011821E0,7.1E1,-9.202057E-1,1.3777817E0],"split_indices":[18,3,3,4,0,0,0,2,0,0,1,0,2,0,0],"split_type":[0,0,0,0,0,0,0,0,0,0,0,0,0,0,0],"sum_hessian":[2.2E1,1.3E1,9E0,1E1,3E0,7E0,2E0,8E0,2E0,1E0,7E0,5E0,2E0,1E0,1E0],"tree_param":{"num_deleted":"0","num_feature":"24","num_nodes":"15","size_leaf_vector":"1"}},{"base_weights":[1.0182121E1,4.7072845E1,-6.4463015E0,6.547165E1,7.2201905E0,7.3490585E1,2.1695404E-1,-1.5818634E0,2.9518952E0,9.218418E1,1.6171073E0,1.0387549E1,2.0209458E0],"categories":[],"categories_nodes":[],"categories_segments":[],"categories_sizes":[],"default_left":[0,0,0,0,0,0,0,0,0,0,0,0,0],"id":7,"left_children":[1,3,-1,5,7,9,-1,-1,-1,11,-1,-1,-1],"loss_changes":[4.9760633E4,7.962715E3,0E0,3.5231875E3,3.1041372E3,5.4680625E3,0E0,0E0,0E0,1.4876992E3,0E0,0E0,0E0],"parents":[2147483647,0,0,1,1,3,3,4,4,5,5,9,9],"right_children":[2,4,-1,6,8,10,-1,-1,-1,12,-1,-1,-1],"split_conditions":[1E0,1E1,-6.4463015E0,1E0,1.1E1,7.1E1,2.1695404E-1,-1.5818634E0,2.9518952E0,1E0,1.6171073E0,1.0387549E1,2.0209458E0],"split_indices":[18,22,0,6,22,2,0,0,0,7,0,0,0],"split_type":[0,0,0,0,0,0,0,0,0,0,0,0,0],"sum_hessian":[1.6E1,1.1E1,5E0,7E0,4E0,6E0,1E0,2E0,2E0,4E0,2E0,3E0,1E0],"tree_param":{"num_deleted":"0","num_feature":"24","num_nodes":"13","size_leaf_vector":"1"}},{"base_weights":[2.5963364E0,6.942254E1,-8.403736E1,3.793412E1,1.2953796E1,-9.371218E0,-2.8558748E0,5.683005E1,6.672174E0,6.6371635E1,2.0610657E-1,-1.4764059E0,2.7551017E0,9.385972E0,1.5093007E0],"categories":[],"categories_nodes":[],"categories_segments":[],"categories_sizes":[],"default_left":[0,0,0,0,0,0,0,0,0,0,0,0,0,0,0],"id":8,"left_children":[1,3,5,7,-1,-1,-1,9,11,13,-1,-1,-1,-1,-1],"loss_changes":[1.3312786E5,1.8856953E4,2.079789E3,5.210546E3,0E0,0E0,0E0,2.656537E3,2.7085178E3,5.086369E3,0E0,0E0,0E0,0E0,0E0],"parents":[2147483647,0,0,1,1,2,2,3,3,7,7,8,8,9,9],"right_children":[2,4,6,8,-1,-1,-1,10,12,14,-1,-1,-1,-1,-1],"split_conditions":[1E0,1E0,1E0,1E1,1.2953796E1,-9.371218E0,-2.8558748E0,1E0,1.1E1,7.1E1,2.0610657E-1,-1.4764059E0,2.7551017E0,9.385972E0,1.5093007E0],"split_indices":[18,3,3,22,0,0,0,6,22,2,0,0,0,0,0],"split_type":[0,0,0,0,0,0,0,0,0,0,0,0,0,0,0],"sum_hessian":[2.1E1,1.2E1,9E0,9E0,3E0,7E0,2E0,5E0,4E0,4E0,1E0,2E0,2E0,2E0,2E0],"tree_param":{"num_deleted":"0","num_feature":"24","num_nodes":"15","size_leaf_vector":"1"}},{"base_weights":[6.2793493E0,6.682035E1,-7.712445E1,3.1341675E1,1.1982262E1,-8.307334E0,-1.524112E0,4.035126E1,1.208608E0,5.349565E1,7.708323E-1,-7.2128147E-1,1.1525726E0,6.306383E0,9.8955536E-1],"categories":[],"categories_nodes":[],"categories_segments":[],"categories_sizes":[],"default_left":[0,0,0,0,0,0,0,0,0,0,0,0,0,0,0],"id":9,"left_children":[1,3,5,7,-1,-1,-1,9,11,13,-1,-1,-1,-1,-1],"loss_changes":[9.599025E4,1.6173691E4,1.1873906E3,1.9153237E3,0E0,0E0,0E0,1.8560469E3,3.653519E2,6.798457E2,0E0,0E0,0E0,0E0,0E0],"parents":[2147483647,0,0,1,1,2,2,3,3,7,7,8,8,9,9],"right_children":[2,4,6,8,-1,-1,-1,10,12,14,-1,-1,-1,-1,-1],"split_conditions":[1E0,1E0,7E1,2.7E-1,1.1982262E1,-8.307334E0,-1.524112E0,1.1E1,7.1E1,7.1E1,7.708323E-1,-7.2128147E-1,1.1525726E0,6.306383E0,9.8955536E-1],"split_indices":[18,3,2,1,0,0,0,21,2,2,0,0,0,0,0],"split_type":[0,0,0,0,0,0,0,0,0,0,0,0,0,0,0],"sum_hessian":[1.7E1,1E1,7E0,7E0,3E0,6E0,1E0,5E0,2E0,3E0,2E0,1E0,1E0,2E0,1E0],"tree_param":{"num_deleted":"0","num_feature":"24","num_nodes":"15","size_leaf_vector":"1"}},{"base_weights":[-5.008876E0,5.8369522E1,-6.838638E1,7.967497E1,5.2425995E0,-8.1493225E0,-2.7102818E0,8.898721E1,9.4007725E-1,-1.4110062E0,1.8063507E1,1.0013643E1,1.4120575E0,2.3022676E0,1.5725861E-1],"categories":[],"categories_nodes":[],"categories_segments":[],"categories_sizes":[],"default_left":[0,0,0,0,0,0,0,0,0,0,0,0,0,0,0],"id":10,"left_children":[1,3,5,7,9,-1,-1,11,-1,-1,13,-1,-1,-1,-1],"loss_changes":[8.03603E4,1.0476637E4,2.6592969E3,3.2523828E3,1.2671191E3,0E0,0E0,3.022957E3,0E0,0E0,8.616223E1,0E0,0E0,0E0,0E0],"parents":[2147483647,0,0,1,1,2,2,3,3,4,4,7,7,10,10],"right_children":[2,4,6,8,10,-1,-1,12,-1,-1,14,-1,-1,-1,-1],"split_conditions":[2.7E-1,1E0,1.1E1,7.1E1,5.6E1,-8.1493225E0,-2.7102818E0,1E0,9.4007725E-1,-1.4110062E0,1.1E1,1.0013643E1,1.4120575E0,2.3022676E0,1.5725861E-1],"split_indices":[1,6,22,2,2,0,0,7,0,0,21,0,0,0,0],"split_type":[0,0,0,0,0,0,0,0,0,0,0,0,0,0,0],"sum_hessian":[1.8E1,9E0,9E0,6E0,3E0,6E0,3E0,5E0,1E0,1E0,2E0,4E0,1E0,1E0,1E0],"tree_param":{"num_deleted":"0","num_feature":"24","num_nodes":"15","size_leaf_vector":"1"}},{"base_weights":[1.3971705E1,7.010524E1,-5.5632805E1,1.178651E0,8.119979E1,-2.7775118E-1,-6.126753E1,9.62953E1,1.7243662E1,-7.007129E0,-2.1570826E0,1.0703967E1,1.3414551E0,2.1871536E0,1.4939575E-1],"categories":[],"categories_nodes":[],"categories_segments":[],"categories_sizes":[],"default_left":[0,0,0,0,0,0,0,0,0,0,0,0,0,0,0],"id":11,"left_children":[1,3,5,-1,7,-1,9,11,13,-1,-1,-1,-1,-1,-1],"loss_changes":[7.820831E4,5.6952266E3,2.1900273E3,0E0,6.460879E3,0E0,8.261387E2,4.1953438E3,6.916034E1,0E0,0E0,0E0,0E0,0E0,0E0],"parents":[2147483647,0,0,1,1,2,2,4,4,6,6,7,7,8,8],"right_children":[2,4,6,-1,8,-1,10,12,14,-1,-1,-1,-1,-1,-1],"split_conditions":[2.7E-1,2E-1,1E0,1.178651E0,1E0,-2.7775118E-1,1E0,1E0,1.1E1,-7.007129E0,-2.1570826E0,1.0703967E1,1.3414551E0,2.1871536E0,1.4939575E-1],"split_indices":[1,1,18,0,6,0,3,7,21,0,0,0,0,0,0],"split_type":[0,0,0,0,0,0,0,0,0,0,0,0,0,0,0],"sum_hessian":[1.8E1,1E1,8E0,2E0,8E0,1E0,7E0,6E0,2E0,5E0,2E0,5E0,1E0,1E0,1E0],"tree_param":{"num_deleted":"0","num_feature":"24","num_nodes":"15","size_leaf_vector":"1"}},{"base_weights":[5.7388687E0,5.1705166E1,-5.4091206E1,2.769028E1,9.756609E1,-5.943922E0,-2.0132768E0,9.806129E0,6.448459E0,1.1105262E1,2.6053255E0,-1.4498138E0,1.6063616E0],"categories":[],"categories_nodes":[],"categories_segments":[],"categories_sizes":[],"default_left":[0,0,0,0,0,0,0,0,0,0,0,0,0],"id":12,"left_children":[1,3,5,7,9,-1,-1,11,-1,-1,-1,-1,-1],"loss_changes":[6.328854E4,1.098957E4,2.2156445E2,5.576551E3,2.7902734E2,0E0,0E0,1.457389E3,0E0,0E0,0E0,0E0,0E0],"parents":[2147483647,0,0,1,1,2,2,3,3,4,4,7,7],"right_children":[2,4,6,8,10,-1,-1,12,-1,-1,-1,-1,-1],"split_conditions":[1E0,1E0,1E0,1E0,1.1E1,-5.943922E0,-2.0132768E0,5.6E1,6.448459E0,1.1105262E1,2.6053255E0,-1.4498138E0,1.6063616E0],"split_indices":[18,3,3,4,21,0,0,2,0,0,0,0,0],"split_type":[0,0,0,0,0,0,0,0,0,0,0,0,0],"sum_hessian":[2.1E1,1.2E1,9E0,9E0,3E0,7E0,2E0,7E0,2E0,2E0,1E0,1E0,6E0],"tree_param":{"num_deleted":"0","num_feature":"24","num_nodes":"13","size_leaf_vector":"1"}},{"base_weights":[1.365625E1,6.0824272E1,-4.8527805E1,6.989815E1,5.611979E0,-5.0911175E1,-1.1038742E0,7.974421E1,1.539391E1,-3.4418184E-1,1.4359788E0,-1.1588929E0,-5.3752837E0,8.610208E0,1.1940644E0,1.9974778E0,6.160889E-2],"categories":[],"categories_nodes":[],"categories_segments":[],"categories_sizes":[],"default_left":[0,0,0,0,0,0,0,0,0,0,0,0,0,0,0,0,0],"id":13,"left_children":[1,3,5,7,9,11,-1,13,15,-1,-1,-1,-1,-1,-1,-1,-1],"loss_changes":[6.754132E4,5.743051E3,2.175586E1,4.1999062E3,3.4161624E2,5.6021484E1,0E0,2.3614414E3,8.7825134E1,0E0,0E0,0E0,0E0,0E0,0E0,0E0,0E0],"parents":[2147483647,0,0,1,1,2,2,3,3,4,4,5,5,7,7,8,8],"right_children":[2,4,6,8,10,12,-1,14,16,-1,-1,-1,-1,-1,-1,-1,-1],"split_conditions":[1E0,2.7E-1,7.5E1,1E0,7.1E1,3E-1,-1.1038742E0,1E0,1.1E1,-3.4418184E-1,1.4359788E0,-1.1588929E0,-5.3752837E0,8.610208E0,1.1940644E0,1.9974778E0,6.160889E-2],"split_indices":[18,1,2,6,2,1,0,7,21,0,0,0,0,0,0,0,0],"split_type":[0,0,0,0,0,0,0,0,0,0,0,0,0,0,0,0,0],"sum_hessian":[2.1E1,1.2E1,9E0,1E1,2E0,8E0,1E0,8E0,2E0,1E0,1E0,1E0,7E0,7E0,1E0,1E0,1E0],"tree_param":{"num_deleted":"0","num_feature":"24","num_nodes":"17","size_leaf_vector":"1"}},{"base_weights":[1.552714E1,5.065697E1,-4.726596E1,6.314717E1,2.3946838E0,-6.1198697E0,-1.6783546E0,6.669316E1,1.1343613E0,-1.4771957E0,1.470755E1,3.0423409E1,7.717686E1,1.8976043E0,5.8528136E-2,5.206226E0,4.1897073E-1,8.465907E0,1.36418E0],"categories":[],"categories_nodes":[],"categories_segments":[],"categories_sizes":[],"default_left":[0,0,0,0,0,0,0,0,0,0,0,0,0,0,0,0,0,0,0],"id":14,"left_children":[1,3,5,7,9,-1,-1,11,-1,-1,13,15,17,-1,-1,-1,-1,-1,-1],"loss_changes":[4.8735438E4,7.9603477E3,1.9805859E3,8.739219E2,1.0624196E3,0E0,0E0,9.164258E2,0E0,0E0,7.1929504E1,1.771283E3,1.6812734E3,0E0,0E0,0E0,0E0,0E0,0E0],"parents":[2147483647,0,0,1,1,2,2,3,3,4,4,7,7,10,10,11,11,12,12],"right_children":[2,4,6,8,10,-1,-1,12,-1,-1,14,16,18,-1,-1,-1,-1,-1,-1],"split_conditions":[1E0,1E0,1.1E1,1E0,5.6E1,-6.1198697E0,-1.6783546E0,2E-1,1.1343613E0,-1.4771957E0,1.1E1,7.1E1,2.7E-1,1.8976043E0,5.8528136E-2,5.206226E0,4.1897073E-1,8.465907E0,1.36418E0],"split_indices":[18,6,22,7,2,0,0,1,0,0,21,2,1,0,0,0,0,0,0],"split_type":[0,0,0,0,0,0,0,0,0,0,0,0,0,0,0,0,0,0,0],"sum_hessian":[2E1,1.3E1,7E0,1E1,3E0,4E0,3E0,9E0,1E0,1E0,2E0,3E0,6E0,1E0,1E0,1E0,2E0,5E0,1E0],"tree_param":{"num_deleted":"0","num_feature":"24","num_nodes":"19","size_leaf_vector":"1"}},{"base_weights":[8.984849E0,4.698903E1,-4.4619488E1,5.852242E1,2.2749481E0,-5.415654E1,-1.5524777E0,6.973291E1,3.012325E1,-1.4033356E0,1.4055501E1,-7.949547E-1,-5.969945E0,7.620182E0,1.2959718E0,3.4193423E-2,3.6233094E0,1.8027238E0,5.5601504E-2],"categories":[],"categories_nodes":[],"categories_segments":[],"categories_sizes":[],"default_left":[0,0,0,0,0,0,0,0,0,0,0,0,0,0,0,0,0,0,0],"id":15,"left_children":[1,3,5,7,9,11,-1,13,15,-1,17,-1,-1,-1,-1,-1,-1,-1,-1],"loss_changes":[4.896382E4,6.782748E3,1.5856016E3,9.021953E2,9.6583997E2,9.8001953E2,0E0,1.1374648E3,7.1453174E2,0E0,5.7909485E1,0E0,0E0,0E0,0E0,0E0,0E0,0E0,0E0],"parents":[2147483647,0,0,1,1,2,2,3,3,4,4,5,5,7,7,8,8,10,10],"right_children":[2,4,6,8,10,12,-1,14,16,-1,18,-1,-1,-1,-1,-1,-1,-1,-1],"split_conditions":[1E0,1E0,1.1E1,1.1E1,5.6E1,3E-1,-1.5524777E0,2.7E-1,2E-1,-1.4033356E0,1.1E1,-7.949547E-1,-5.969945E0,7.620182E0,1.2959718E0,3.4193423E-2,3.6233094E0,1.8027238E0,5.5601504E-2],"split_indices":[18,6,22,21,2,1,0,1,1,0,21,0,0,0,0,0,0,0,0],"split_type":[0,0,0,0,0,0,0,0,0,0,0,0,0,0,0,0,0,0,0],"sum_hessian":[2.2E1,1.3E1,9E0,1E1,3E0,6E0,3E0,6E0,4E0,1E0,2E0,1E0,5E0,5E0,1E0,1E0,3E0,1E0,1E0],"tree_param":{"num_deleted":"0","num_feature":"24","num_nodes":"19","size_leaf_vector":"1"}},{"base_weights":[6.207818E0,4.9112545E1,-4.1108162E1,6.582415E1,2.1611938E0,-4.5997927E-1,-4.4098003E1,8.313659E0,2.6477577E1,-1.3331696E0,1.3436055E1,-4.9778732E1,-1.447697E0,3.248444E-2,3.3420208E0,1.712587E0,5.282135E-2,-7.5520706E-1,-5.47245E0],"categories":[],"categories_nodes":[],"categories_segments":[],"categories_sizes":[],"default_left":[0,0,0,0,0,0,0,0,0,0,0,0,0,0,0,0,0,0,0],"id":16,"left_children":[1,3,5,7,9,-1,11,-1,13,-1,15,17,-1,-1,-1,-1,-1,-1,-1],"loss_changes":[4.266053E4,8.1487734E3,6.452129E2,2.7001523E3,8.783679E2,0E0,4.7249805E2,0E0,5.4669336E2,0E0,4.55661E1,7.372363E2,0E0,0E0,0E0,0E0,0E0,0E0,0E0],"parents":[2147483647,0,0,1,1,2,2,3,3,4,4,6,6,8,8,10,10,11,11],"right_children":[2,4,6,8,10,-1,12,-1,14,-1,16,18,-1,-1,-1,-1,-1,-1,-1],"split_conditions":[2.7E-1,1E0,1E0,1.1E1,5.6E1,-4.5997927E-1,1E0,8.313659E0,2E-1,-1.3331696E0,1.1E1,3E-1,-1.447697E0,3.248444E-2,3.3420208E0,1.712587E0,5.282135E-2,-7.5520706E-1,-5.47245E0],"split_indices":[1,6,18,21,2,0,3,0,1,0,21,1,0,0,0,0,0,0,0],"split_type":[0,0,0,0,0,0,0,0,0,0,0,0,0,0,0,0,0,0,0],"sum_hessian":[1.9E1,1E1,9E0,7E0,3E0,1E0,8E0,4E0,3E0,1E0,2E0,6E0,2E0,1E0,2E0,1E0,1E0,1E0,5E0],"tree_param":{"num_deleted":"0","num_feature":"24","num_nodes":"19","size_leaf_vector":"1"}},{"base_weights":[5.7092967E0,3.241195E1,-4.1109005E1,1.5761825E1,6.88468E1,-1.7691651E-1,-4.576196E1,4.986067E0,4.116849E0,8.164248E0,1.2729889E0,-7.174469E-1,-5.0164127E1,-1.2665116E0,9.400604E0,-1.1620156E0,-5.4548893E0,-0E0,1.2412359E0],"categories":[],"categories_nodes":[],"categories_segments":[],"categories_sizes":[],"default_left":[0,0,0,0,0,0,0,0,0,0,0,0,0,0,0,0,0,0,0],"id":17,"left_children":[1,3,5,7,9,-1,11,13,-1,-1,-1,-1,15,-1,17,-1,-1,-1,-1],"loss_changes":[2.7542566E4,6.984835E3,1.1457559E3,2.5754946E3,1.3610527E3,0E0,5.424873E2,8.0403345E2,0E0,0E0,0E0,0E0,4.932422E1,0E0,2.1742902E2,0E0,0E0,0E0,0E0],"parents":[2147483647,0,0,1,1,2,2,3,3,4,4,6,6,7,7,12,12,14,14],"right_children":[2,4,6,8,10,-1,12,14,-1,-1,-1,-1,16,-1,18,-1,-1,-1,-1],"split_conditions":[1E0,1E0,5.2E1,1E0,1.1E1,-1.7691651E-1,3E-1,5.6E1,4.116849E0,8.164248E0,1.2729889E0,-7.174469E-1,5.5E1,-1.2665116E0,2E-1,-1.1620156E0,-5.4548893E0,-0E0,1.2412359E0],"split_indices":[18,3,2,4,21,0,1,2,0,0,0,0,2,0,1,0,0,0,0],"split_type":[0,0,0,0,0,0,0,0,0,0,0,0,0,0,0,0,0,0,0],"sum_hessian":[2E1,1.3E1,7E0,1E1,3E0,1E0,6E0,8E0,2E0,2E0,1E0,1E0,5E0,1E0,7E0,1E0,4E0,2E0,5E0],"tree_param":{"num_deleted":"0","num_feature":"24","num_nodes":"19","size_leaf_vector":"1"}},{"base_weights":[9.0170765E0,3.8213142E1,-3.3601364E1,2.392472E1,7.6199646E0,-3.8138935E1,-1.0146571E0,3.1396923E1,1.7491379E0,-4.1855396E1,-5.42009E-1,4.4320496E1,6.1432266E0,-1.203186E0,1.2020091E1,-6.815743E-1,-4.6500177E0,5.081405E0,6.673142E-1,9.819814E-1,-0E0,1.5648956E0,-0E0],"categories":[],"categories_nodes":[],"categories_segments":[],"categories_sizes":[],"default_left":[0,0,0,0,0,0,0,0,0,0,0,0,0,0,0,0,0,0,0,0,0,0,0],"id":18,"left_children":[1,3,5,7,-1,9,-1,11,13,15,-1,17,19,-1,21,-1,-1,-1,-1,-1,-1,-1,-1],"loss_changes":[2.743718E4,4.732297E3,3.2944238E2,1.6020566E3,0E0,3.8795117E2,0E0,2.086355E3,7.107412E2,3.9299512E2,0E0,5.957998E2,1.3832928E2,0E0,5.633191E1,0E0,0E0,0E0,0E0,0E0,0E0,0E0,0E0],"parents":[2147483647,0,0,1,1,2,2,3,3,5,5,7,7,8,8,9,9,11,11,12,12,14,14],"right_children":[2,4,6,8,-1,10,-1,12,14,16,-1,18,20,-1,22,-1,-1,-1,-1,-1,-1,-1,-1],"split_conditions":[1E0,1E0,1E0,1E0,7.6199646E0,7.5E1,-1.0146571E0,7.1E1,5.6E1,3E-1,-5.42009E-1,1E0,7.7E1,-1.203186E0,1.1E1,-6.815743E-1,-4.6500177E0,5.081405E0,6.673142E-1,9.819814E-1,-0E0,1.5648956E0,-0E0],"split_indices":[18,3,4,6,0,2,0,2,2,1,0,7,2,0,21,0,0,0,0,0,0,0,0],"split_type":[0,0,0,0,0,0,0,0,0,0,0,0,0,0,0,0,0,0,0,0,0,0,0],"sum_hessian":[2E1,1.2E1,8E0,1E1,2E0,6E0,2E0,7E0,3E0,5E0,1E0,4E0,3E0,1E0,2E0,1E0,4E0,3E0,1E0,2E0,1E0,1E0,1E0],"tree_param":{"num_deleted":"0","num_feature":"24","num_nodes":"23","size_leaf_vector":"1"}},{"base_weights":[-8.631342E0,1.9549107E1,-2.8796091E1,2.610736E1,-0E0,-3.1924812E1,-8.1445664E-1,3.7545362E0,9.752022E0,-3.6273273E1,-9.4701284E-1,1.1415242E0,-0E0,-6.4749527E-1,-3.9327168E1,-7.531113E-1,-4.3180156E0],"categories":[],"categories_nodes":[],"categories_segments":[],"categories_sizes":[],"default_left":[0,0,0,0,0,0,0,0,0,0,0,0,0,0,0,0,0],"id":19,"left_children":[1,3,5,7,-1,9,-1,-1,11,13,-1,-1,-1,-1,15,-1,-1],"loss_changes":[1.0837703E4,1.0322251E3,2.5038086E2,5.1980396E2,0E0,3.0656055E2,0E0,0E0,1.05155945E1,1.5335352E2,0E0,0E0,0E0,0E0,1.563086E2,0E0,0E0],"parents":[2147483647,0,0,1,1,2,2,3,3,5,5,8,8,9,9,14,14],"right_children":[2,4,6,8,-1,10,-1,-1,12,14,-1,-1,-1,-1,16,-1,-1],"split_conditions":[2.7E-1,7.1E1,1E0,1.1E1,-0E0,1E0,-8.1445664E-1,3.7545362E0,1E0,3E-1,-9.4701284E-1,1.1415242E0,-0E0,-6.4749527E-1,1E0,-7.531113E-1,-4.3180156E0],"split_indices":[1,2,3,21,0,4,0,0,6,1,0,0,0,0,18,0,0],"split_type":[0,0,0,0,0,0,0,0,0,0,0,0,0,0,0,0,0],"sum_hessian":[1.7E1,7E0,1E1,5E0,2E0,8E0,2E0,2E0,3E0,6E0,2E0,2E0,1E0,1E0,5E0,1E0,4E0],"tree_param":{"num_deleted":"0","num_feature":"24","num_nodes":"17","size_leaf_vector":"1"}},{"base_weights":[1.092295E1,4.284588E1,-2.8752068E1,5.938251E1,1.833493E1,-3.2464607E1,-8.838791E-1,7.218825E0,2.084736E0,8.272052E-1,3.1824663E0,-3.5655193E1,-4.1605377E-1,-6.151207E-1,-3.9325752E0],"categories":[],"categories_nodes":[],"categories_segments":[],"categories_sizes":[],"default_left":[0,0,0,0,0,0,0,0,0,0,0,0,0,0,0],"id":20,"left_children":[1,3,5,7,9,11,-1,-1,-1,-1,-1,13,-1,-1,-1],"loss_changes":[2.5366688E4,2.981254E3,1.7189453E2,9.907129E2,3.5073438E2,2.8472266E2,0E0,0E0,0E0,0E0,0E0,1.8049072E2,0E0,0E0,0E0],"parents":[2147483647,0,0,1,1,2,2,3,3,4,4,5,5,11,11],"right_children":[2,4,6,8,10,12,-1,-1,-1,-1,-1,14,-1,-1,-1],"split_conditions":[2.7E-1,1.1E1,1E0,2.5E-1,1E0,1E0,-8.838791E-1,7.218825E0,2.084736E0,8.272052E-1,3.1824663E0,3E-1,-4.1605377E-1,-6.151207E-1,-3.9325752E0],"split_indices":[1,21,4,1,4,3,0,0,0,0,0,1,0,0,0],"split_type":[0,0,0,0,0,0,0,0,0,0,0,0,0,0,0],"sum_hessian":[1.8E1,1E1,8E0,5E0,5E0,6E0,2E0,3E0,2E0,4E0,1E0,5E0,1E0,1E0,4E0],"tree_param":{"num_deleted":"0","num_feature":"24","num_nodes":"15","size_leaf_vector":"1"}},{"base_weights":[5.661668E0,2.532112E1,-2.6367651E1,7.574875E0,1.4389755E1,-3.1892946E1,-4.8611757E-1,3.3158538E0,6.8201447E0,-5.8436435E-1,-3.493408E0,-2.7891948E0,1.7987324E1,-1.4692119E0,5.585297E-1,-3.5526735E-1,2.551049E0],"categories":[],"categories_nodes":[],"categories_segments":[],"categories_sizes":[],"default_left":[0,0,0,0,0,0,0,0,0,0,0,0,0,0,0,0,0],"id":21,"left_children":[1,3,5,-1,7,9,-1,-1,11,-1,-1,13,15,-1,-1,-1,-1],"loss_changes":[1.3256002E4,5.625458E3,6.118296E2,0E0,1.2788293E3,6.728516E1,0E0,0E0,1.1992529E3,0E0,0E0,7.2567957E2,1.0106643E3,0E0,0E0,0E0,0E0],"parents":[2147483647,0,0,1,1,2,2,4,4,5,5,8,8,11,11,12,12],"right_children":[2,4,6,-1,8,10,-1,-1,12,-1,-1,14,16,-1,-1,-1,-1],"split_conditions":[1E0,1E1,1.1E1,7.574875E0,9E0,3E-1,-4.8611757E-1,3.3158538E0,1.1E1,-5.8436435E-1,-3.493408E0,1.1E1,2E-1,-1.4692119E0,5.585297E-1,-3.5526735E-1,2.551049E0],"split_indices":[18,21,22,0,22,1,0,0,22,0,0,21,1,0,0,0,0],"split_type":[0,0,0,0,0,0,0,0,0,0,0,0,0,0,0,0,0],"sum_hessian":[1.9E1,1.2E1,7E0,1E0,1.1E1,5E0,2E0,2E0,9E0,1E0,4E0,5E0,4E0,2E0,3E0,1E0,3E0],"tree_param":{"num_deleted":"0","num_feature":"24","num_nodes":"17","size_leaf_vector":"1"}},{"base_weights":[5.2072304E-1,2.2697144E1,-2.6086094E1,7.1961303E0,1.0074597E1,-2.9824911E1,-7.0001525E-1,4.8873138E-1,3.061204E0,-5.5514604E-1,-3.2111912E0,1.2359576E1,-1.3222008E0,1.4605316E0,-0E0],"categories":[],"categories_nodes":[],"categories_segments":[],"categories_sizes":[],"default_left":[0,0,0,0,0,0,0,0,0,0,0,0,0,0,0],"id":22,"left_children":[1,3,5,-1,7,9,-1,11,-1,-1,-1,13,-1,-1,-1],"loss_changes":[1.178597E4,5.7050703E3,2.493252E2,0E0,1.7982268E3,2.200879E1,0E0,1.4611707E3,0E0,0E0,0E0,8.946539E1,0E0,0E0,0E0],"parents":[2147483647,0,0,1,1,2,2,4,4,5,5,7,7,11,11],"right_children":[2,4,6,-1,8,10,-1,12,-1,-1,-1,14,-1,-1,-1],"split_conditions":[1E0,1E1,1E0,7.1961303E0,1E0,3E-1,-7.0001525E-1,1E1,3.061204E0,-5.5514604E-1,-3.2111912E0,1E0,-1.3222008E0,1.4605316E0,-0E0],"split_indices":[18,21,3,0,4,1,0,22,0,0,0,6,0,0,0],"split_type":[0,0,0,0,0,0,0,0,0,0,0,0,0,0,0],"sum_hessian":[1.8E1,1E1,8E0,1E0,9E0,6E0,2E0,7E0,2E0,1E0,5E0,4E0,3E0,3E0,1E0],"tree_param":{"num_deleted":"0","num_feature":"24","num_nodes":"15","size_leaf_vector":"1"}},{"base_weights":[9.207518E0,2.7676792E1,-1.7937828E1,6.836325E0,1.8172651E1,-0E0,-1.9952736E0,2.4215414E1,-0E0,3.2368237E1,-1.2129822E0,-1.2954209E0,8.680501E0,3.5481083E0,4.3455812E-1,-0E0,-2.7139434E-1,1.1332444E0,-0E0],"categories":[],"categories_nodes":[],"categories_segments":[],"categories_sizes":[],"default_left":[0,0,0,0,0,0,0,0,0,0,0,0,0,0,0,0,0,0,0],"id":23,"left_children":[1,3,5,-1,7,-1,-1,9,11,13,15,-1,17,-1,-1,-1,-1,-1,-1],"loss_changes":[1.1073608E4,3.3519473E3,2.8900244E2,0E0,1.3145334E3,0E0,0E0,2.0608574E3,5.6167633E2,2.5729248E2,1.0317001E1,0E0,3.0795242E1,0E0,0E0,0E0,0E0,0E0,0E0],"parents":[2147483647,0,0,1,1,2,2,4,4,7,7,8,8,9,9,10,10,12,12],"right_children":[2,4,6,-1,8,-1,-1,10,12,14,16,-1,18,-1,-1,-1,-1,-1,-1],"split_conditions":[2.7E-1,1E1,5.2E1,6.836325E0,1E0,-0E0,-1.9952736E0,7.1E1,5.6E1,1E0,7.7E1,-1.2954209E0,1.1E1,3.5481083E0,4.3455812E-1,-0E0,-2.7139434E-1,1.1332444E0,-0E0],"split_indices":[1,21,2,0,6,0,0,2,2,7,2,0,21,0,0,0,0,0,0],"split_type":[0,0,0,0,0,0,0,0,0,0,0,0,0,0,0,0,0,0,0],"sum_hessian":[2E1,1.2E1,8E0,1E0,1.1E1,1E0,7E0,8E0,3E0,6E0,2E0,1E0,2E0,5E0,1E0,1E0,1E0,1E0,1E0],"tree_param":{"num_deleted":"0","num_feature":"24","num_nodes":"19","size_leaf_vector":"1"}},{"base_weights":[3.4601302E0,2.4694006E1,-1.956411E1,6.49451E0,1.4676169E1,-2.1983753E1,-4.1171417E-1,2.0142826E1,-0E0,-2.5320555E1,-5.2032983E-1,2.8251694E1,-1.122518E0,-1.2306503E0,8.302754E0,-2.794922E-1,-2.7775673E1,3.1250713E1,4.128296E-1,-0E0,-2.5782472E-1,1.0765823E0,-0E0,-4.2762527E-1,-3.0620306E0,3.5555673E0,4.515442E-1],"categories":[],"categories_nodes":[],"categories_segments":[],"categories_sizes":[],"default_left":[0,0,0,0,0,0,0,0,0,0,0,0,0,0,0,0,0,0,0,0,0,0,0,0,0,0,0],"id":24,"left_children":[1,3,5,-1,7,9,-1,11,13,15,-1,17,19,-1,21,-1,23,25,-1,-1,-1,-1,-1,-1,-1,-1,-1],"loss_changes":[1.126443E4,3.4874946E3,1.9012305E2,0E0,8.765779E2,2.1956787E2,0E0,1.546862E3,5.0970728E2,1.5663818E2,0E0,1.2817188E2,9.514577E0,0E0,2.4998703E1,0E0,9.566016E1,2.1456592E2,0E0,0E0,0E0,0E0,0E0,0E0,0E0,0E0,0E0],"parents":[2147483647,0,0,1,1,2,2,4,4,5,5,7,7,8,8,9,9,11,11,12,12,14,14,16,16,17,17],"right_children":[2,4,6,-1,8,10,-1,12,14,16,-1,18,20,-1,22,-1,24,26,-1,-1,-1,-1,-1,-1,-1,-1,-1],"split_conditions":[2.7E-1,1E1,1E0,6.49451E0,1E0,1E0,-4.1171417E-1,7.1E1,5.6E1,1E0,-5.2032983E-1,1E0,7.7E1,-1.2306503E0,1.1E1,-2.794922E-1,3E-1,1E0,4.128296E-1,-0E0,-2.5782472E-1,1.0765823E0,-0E0,-4.2762527E-1,-3.0620306E0,3.5555673E0,4.515442E-1],"split_indices":[1,21,4,0,6,3,0,2,2,18,0,7,2,0,21,0,1,3,0,0,0,0,0,0,0,0,0],"split_type":[0,0,0,0,0,0,0,0,0,0,0,0,0,0,0,0,0,0,0,0,0,0,0,0,0,0,0],"sum_hessian":[2.1E1,1.1E1,1E1,1E0,1E1,8E0,2E0,7E0,3E0,6E0,2E0,5E0,2E0,1E0,2E0,1E0,5E0,4E0,1E0,1E0,1E0,1E0,1E0,1E0,4E0,3E0,1E0],"tree_param":{"num_deleted":"0","num_feature":"24","num_nodes":"27","size_leaf_vector":"1"}}]},"name":"gbtree"},"learner_model_param":{"base_score":"3.1E2","boost_from_average":"1","num_class":"0","num_feature":"24","num_target":"1"},"objective":{"name":"reg:squarederror","reg_loss_param":{"scale_pos_weight":"1"}}},"version":[3,0,2]}